[unifb]
-1.01503

\data\
ngram 1=20
ngram 2=180
ngram 3=568
ngram 4=1009
ngram 5=1334
ngram 6=1528
ngram 7=1602
ngram 8=1594
ngram 9=1545
ngram 10=1484

\1-grams:
-1.14721	</unk>
-1.27025	k	-0.739
-0.983173	c	-1.06636
-1.32769	h	-0.863266
-1.59846	r	-0.648099
-1.0174	y	-0.884495
-0.834606	o	-0.926115
-1.40082	d	-0.822733
-1.0919	a	-0.832258
-1.63104	i	-0.70136
-1.84465	n	-0.557241
-1.57815	l	-0.759792
-1.41421	t	-0.553242
-1.25097	e	-0.773169
-1.948	f	-0.125313
-1.56816	m	-0.488101
-1.20218	s	-0.817143
-1.67835	p	-0.323746
-1.38758	q	-0.701829
-2.02456	*	-0.0609384

\2-grams:
-1.32118	<unk> k	-0.227116
-0.906759	<unk> c	-0.330611
-0.964251	<unk> h	-0.348968
-1.66358	<unk> r	-0.153116
-0.910796	<unk> y	-0.355907
-0.940567	<unk> o	-0.355907
-1.17007	<unk> d	-0.271349
-1.15658	<unk> a	-0.271349
-1.36326	<unk> i	-0.227116
-1.69658	<unk> n	-0.153116
-1.18271	<unk> l	-0.271349
-1.70392	<unk> t	-0.153116
-1.43013	<unk> e	-0.195489
-1.74233	<unk> m	-0.153116
-1.14904	<unk> s	-0.345939
-1.99416	<unk> p	-0.0930358
-1.61994	<unk> q	-0.153116
-0.993371	k </unk>
-1.02332	k c	-0.3776
-1.35027	k h	-0.404584
-0.812093	k y	-0.441238
-0.548234	k o	-0.483352
-1.36401	k a	-0.271349
-0.711889	k e	-0.361969
-1.3332	k s	-0.195489
-1.48894	c </unk>
-1.21676	c k	-0.395034
-0.149413	c h	-0.797314
-0.845927	c t	-0.530432
-2.24483	c f	-0.153116
-1.85006	c p	-0.153116
-1.20868	h </unk>
-1.72885	h k	-0.153116
-1.6902	h c	-0.195489
-1.79517	h r	-0.153116
-0.875935	h y	-0.474745
-0.435384	h o	-0.697144
-0.82183	h a	-0.567645
-1.59223	h t	-0.195489
-0.781147	h e	-0.503147
-1.95049	h s	-0.0930358
-2.13524	h p	-0.0930358
-1.33291	r </unk>
-1.35859	r k	-0.195489
-0.480014	r c	-0.491106
-1.01393	r y	-0.271349
-0.805274	r o	-0.420485
-1.20272	r d	-0.271349
-1.27984	r a	-0.290579
-1.85191	r l	-0.0930358
-1.35494	r e	-0.29608
-1.08758	r s	-0.388663
-1.43914	r q	-0.35614
-1.32098	y </unk>
-0.886951	y k	-0.383559
-0.605398	y c	-0.626468
-1.42361	y y	-0.290579
-1.14547	y o	-0.3716
-0.79952	y d	-0.447254
-0.980132	y t	-0.350523
-1.97657	y e	-0.0930358
-0.958998	y s	-0.344656
-1.78084	y p	-0.195489
-1.37649	y q	-0.4114
-1.13914	o </unk>
-1.14844	o k	-0.474745
-1.25813	o c	-0.442054
-0.971731	o r	-0.567657
-1.57978	o y	-0.271349
-1.67721	o o	-0.153116
-1.18817	o d	-0.567147
-1.54494	o a	-0.271349
-1.73312	o i	-0.227116
-0.518203	o l	-0.591479
-1.0319	o t	-0.626082
-1.88172	o e	-0.153116
-2.37512	o f	-0.0930358
-1.26967	o m	-0.383559
-1.52489	o s	-0.3716
-1.73811	o p	-0.290579
-1.9981	o q	-0.153116
-2.39186	o *	-0.0930358
-1.47421	d </unk>
-1.89919	d k	-0.0930358
-1.25244	d c	-0.333302
-0.973963	d y	-0.400626
-0.7519	d o	-0.405437
-1.94669	d d	-0.0930358
-0.253727	d a	-0.673389
-1.99753	d l	-0.0930358
-1.04563	a </unk>
-1.77134	a c	-0.0930358
-0.867617	a r	-0.383559
-1.62681	a y	-0.153116
-1.54942	a o	-0.153116
-1.64792	a d	-0.153116
-0.408176	a i	-0.541077
-1.36593	a n	-0.287461
-0.919875	a l	-0.403149
-1.04568	a m	-0.425026
-1.506	i </unk>
-1.02066	i r	-0.287461
-1.79339	i d	-0.153116
-0.284221	i i	-0.777306
-0.769733	i n	-0.510432
-1.83926	i l	-0.0930358
-1.74294	i e	-0.0930358
-1.58779	i m	-0.153116
-1.72395	i s	-0.0930358
-1.90569	i *	-0.0930358
-0.599591	* o	-0.0930358
-0.751164	* q	-0.0930358
-0.0311974	q o	-0.632397
-1.20139	p </unk>
-0.508741	p c	-0.388663
-1.25309	p h	-0.0930358
-0.552623	p o	-0.26984
-0.883272	p a	-0.153116
-1.38566	s </unk>
-1.07878	s c	-0.479174
-0.246677	s h	-0.551376
-1.51845	s y	-0.153116
-1.15772	s o	-0.290579
-1.02496	s a	-0.300911
-1.57392	s e	-0.153116
-1.44667	s s	-0.333302
-1.59694	s q	-0.153116
-1.23945	m </unk>
-1.54794	m k	-0.0930358
-0.716925	m c	-0.364548
-1.26647	m y	-0.29608
-0.547467	m o	-0.391215
-1.59802	m d	-0.0930358
-1.60264	m t	-0.0930358
-1.64932	m m	-0.0930358
-0.828531	m s	-0.320444
-1.33263	m p	-0.153116
-1.29315	m q	-0.153116
-0.853603	f </unk>
-0.546047	f h	-0.206318
-0.743686	f o	-0.0930358
-1.13309	e </unk>
-1.41163	e k	-0.195489
-1.56272	e c	-0.153116
-0.735406	e y	-0.500827
-0.613455	e o	-0.5338
-0.983234	e a	-0.364548
-2.01764	e n	-0.0930358
-1.91265	e t	-0.0930358
-0.639496	e e	-0.479833
-1.95933	e m	-0.0930358
-1.40071	e s	-0.333302
-0.967599	t </unk>
-0.627916	t c	-0.549507
-0.737606	t h	-0.580161
-0.977452	t y	-0.251684
-1.02384	t o	-0.287461
-1.05484	t a	-0.251684
-1.07882	t e	-0.439138
-1.41799	t s	-0.153116
-1.55061	l </unk>
-1.46863	l k	-0.251684
-0.60878	l c	-0.465144
-1.14886	l y	-0.3716
-0.730463	l o	-0.400626
-0.801043	l d	-0.523457
-1.76679	l a	-0.0930358
-1.91147	l t	-0.0930358
-1.46509	l e	-0.195489
-2.03881	l f	-0.0930358
-0.865	l s	-0.427395
-1.34987	l q	-0.251684
-1.53591	n </unk>
-1.58348	n k	-0.0930358
-0.572118	n c	-0.444814
-0.861173	n y	-0.251684
-1.02612	n o	-0.287461
-0.991768	n d	-0.300911
-0.643916	n s	-0.361969
-1.3012	n q	-0.227116

\3-grams:
-0.493464	m k o	-0.0236723
-0.732479	h k y	-0.0236723
-1.07466	h k a	-0.0236723
-0.91412	<unk> k </unk>
-0.935448	<unk> k c	-0.0236723
-0.504872	<unk> k o	-0.0407989
-0.845295	n k c	-0.0236723
-0.933273	l k </unk>
-0.792752	l k y	-0.0236723
-0.568178	l k o	-0.0407989
-0.646573	l k e	-0.0407989
-1.09713	o k </unk>
-0.879012	o k c	-0.0639486
-0.916904	o k y	-0.0537742
-0.524241	o k o	-0.15331
-1.03775	o k a	-0.112487
-0.728217	o k e	-0.185539
-1.42875	o k s	-0.0236723
-1.04598	c k </unk>
-0.436408	c k h	-0.0934506
-0.756946	e k y	-0.0236723
-0.67706	e k e	-0.0236723
-1.09776	e k s	-0.0236723
-0.82623	d k </unk>
-1.05365	y k </unk>
-0.843194	y k c	-0.0537742
-0.812042	y k y	-0.0537742
-0.538112	y k o	-0.0788846
-1.34304	y k a	-0.0236723
-0.769126	y k e	-0.0407989
-1.32117	y k s	-0.0236723
-0.911671	r k c	-0.0236723
-0.756946	r k y	-0.0236723
-0.539328	r k o	-0.0236723
-0.13371	e c h	-0.0407989
-1.14985	l c </unk>
-0.165186	l c h	-0.169976
-0.760939	l c t	-0.0721427
-0.856389	o c k	-0.213942
-0.153962	o c h	-0.0845294
-0.975837	o c t	-0.0236723
-0.0984334	d c h	-0.0721427
-0.147101	<unk> c h	-0.0893253
-0.771099	<unk> c t	-0.0537742
-0.9565	a c k	-0.0236723
-0.111826	m c h	-0.120873
-0.909919	m c t	-0.0236723
-1.55084	r c </unk>
-1.26959	r c k	-0.0407989
-0.138997	r c h	-0.190869
-0.952459	r c t	-0.0537742
-1.37718	r c f	-0.0407989
-1.76618	r c p	-0.0236723
-1.03406	h c k	-0.0236723
-0.177071	h c h	-0.0236723
-0.783044	h c t	-0.0236723
-0.111932	n c h	-0.130583
-0.925206	n c t	-0.0407989
-1.63612	n c p	-0.0236723
-0.0879943	p c h	-0.0788846
-0.0991936	k c h	-0.124581
-1.51955	t c </unk>
-0.0749226	t c h	-0.13417
-1.65662	y c </unk>
-1.37411	y c k	-0.0407989
-0.0977656	y c h	-0.191855
-0.947584	y c t	-0.0639486
-0.0746306	s c h	-0.0934506
-1.18025	c h </unk>
-2.10595	c h k	-0.0236723
-2.07667	c h c	-0.0407989
-2.04736	c h r	-0.0407989
-1.01645	c h y	-0.105446
-0.294716	c h o	-0.256713
-1.0395	c h a	-0.15235
-1.99974	c h t	-0.0236723
-0.728208	c h e	-0.208361
-2.26058	c h s	-0.0236723
-2.36991	c h p	-0.0236723
-0.494403	f h a	-0.0407989
-0.4806	k h y	-0.0639486
-0.461749	k h o	-0.112487
-1.36996	t h </unk>
-0.476173	t h y	-0.0893253
-0.463294	t h o	-0.0788846
-1.07763	t h a	-0.0236723
-0.85593	t h e	-0.0407989
-1.35718	s h </unk>
-1.81334	s h k	-0.0236723
-1.78767	s h c	-0.0236723
-0.953575	s h y	-0.112487
-0.383401	s h o	-0.185842
-0.967617	s h a	-0.0721427
-1.71927	s h t	-0.0236723
-0.616475	s h e	-0.152166
-1.17753	<unk> h </unk>
-0.854095	<unk> h y	-0.0407989
-0.371907	<unk> h o	-0.0721427
-1.40651	<unk> h t	-0.0236723
-0.840835	<unk> h e	-0.0236723
-0.397354	p h o	-0.0236723
-0.460593	h r c	-0.0236723
-0.876169	h r y	-0.0236723
-1.32095	a r </unk>
-1.33923	a r k	-0.0236723
-0.506306	a r c	-0.0721427
-1.071	a r y	-0.0236723
-0.693447	a r o	-0.0721427
-1.28223	a r a	-0.0236723
-1.22509	a r e	-0.0407989
-1.05915	a r s	-0.0407989
-1.46359	o r </unk>
-1.48146	o r k	-0.0407989
-0.43443	o r c	-0.151241
-1.21783	o r y	-0.0407989
-0.775822	o r o	-0.154408
-1.3192	o r d	-0.0721427
-1.21922	o r a	-0.0639486
-1.90545	o r l	-0.0236723
-1.55181	o r e	-0.0236723
-1.15228	o r s	-0.0537742
-0.999991	o r q	-0.0788846
-0.526041	i r c	-0.0236723
-0.978883	i r y	-0.0236723
-0.746138	i r o	-0.0407989
-1.1142	i r d	-0.0236723
-1.03364	i r s	-0.0236723
-1.25796	i r q	-0.0236723
-0.876169	<unk> r y	-0.0236723
-0.727301	<unk> r o	-0.0236723
-1.264	<unk> y </unk>
-0.871281	<unk> y k	-0.0407989
-0.651637	<unk> y c	-0.0407989
-0.620576	<unk> y d	-0.0639486
-0.995951	<unk> y s	-0.0236723
-1.29961	<unk> y q	-0.0236723
-0.626198	y y k	-0.0407989
-0.653478	y y c	-0.0236723
-0.953097	y y t	-0.0236723
-1.36257	y y p	-0.0236723
-0.678384	k y c	-0.103335
-0.384643	k y d	-0.0788846
-1.06393	k y s	-0.0236723
-1.17066	o y </unk>
-0.866886	o y k	-0.0236723
-0.693836	o y s	-0.108428
-0.787992	s y k	-0.0236723
-0.567554	s y c	-0.0236723
-0.852364	t y k	-0.0236723
-0.566492	t y c	-0.0407989
-1.04001	t y o	-0.0236723
-0.78254	t y d	-0.0236723
-0.728764	l y k	-0.0407989
-0.53582	l y c	-0.0537742
-0.87712	l y d	-0.0407989
-0.934111	l y t	-0.0407989
-1.00643	l y s	-0.0236723
-0.766757	n y k	-0.0407989
-0.618477	n y c	-0.0236723
-1.20382	n y y	-0.0236723
-1.40286	n y e	-0.0236723
-1.17066	r y </unk>
-0.629742	r y c	-0.0236723
-1.0588	r y o	-0.0236723
-0.845699	r y t	-0.0407989
-0.923251	r y s	-0.0236723
-0.420703	m y t	-0.0537742
-1.01837	e y k	-0.0407989
-0.515749	e y c	-0.154893
-1.16307	e y y	-0.0407989
-1.28589	e y o	-0.0236723
-0.797243	e y d	-0.0639486
-1.08927	e y t	-0.0407989
-0.927568	e y q	-0.0788846
-0.567554	a y c	-0.0236723
-0.853477	a y t	-0.0236723
-1.41917	h y </unk>
-0.94326	h y k	-0.0639486
-0.539005	h y c	-0.0970368
-1.39841	h y y	-0.0407989
-1.21354	h y o	-0.0407989
-0.853091	h y d	-0.0721427
-1.08656	h y t	-0.0967525
-0.945371	h y s	-0.0537742
-1.0414	h y q	-0.0537742
-1.32079	d y </unk>
-0.598827	d y c	-0.108428
-1.03235	d y o	-0.0639486
-0.811996	d y d	-0.0537742
-0.864095	d y t	-0.0407989
-0.975986	d y s	-0.0537742
-1.58815	d y p	-0.0407989
-1.35911	d y q	-0.0236723
-1.31137	e o </unk>
-1.11356	e o r	-0.120873
-0.948628	e o d	-0.0537742
-1.59953	e o a	-0.0236723
-0.396374	e o l	-0.130583
-1.08368	e o m	-0.0537742
-1.22317	e o s	-0.0407989
-1.70673	e o p	-0.0236723
-1.19353	d o </unk>
-0.721133	d o r	-0.108428
-1.4817	d o a	-0.0236723
-1.58639	d o i	-0.0236723
-0.481869	d o l	-0.122861
-1.10585	d o t	-0.0236723
-1.29445	d o m	-0.0236723
-1.02194	a o c	-0.0236723
-0.847746	a o r	-0.0236723
-1.14038	y o </unk>
-1.03239	y o k	-0.0407989
-1.22049	y o c	-0.0236723
-0.767979	y o r	-0.0407989
-0.630736	y o l	-0.0236723
-0.793335	y o t	-0.0407989
-1.06691	k o r	-0.0407989
-1.62858	k o o	-0.0236723
-0.732828	k o d	-0.0788846
-1.18181	k o a	-0.0407989
-1.65758	k o i	-0.0236723
-0.491293	k o l	-0.153991
-1.17704	k o t	-0.0236723
-1.36564	k o m	-0.0236723
-1.1985	r o </unk>
-0.843333	r o k	-0.115798
-0.995802	r o r	-0.0407989
-0.494823	r o l	-0.0537742
-0.972098	r o t	-0.0721427
-1.75225	r o f	-0.0236723
-1.29465	r o m	-0.0236723
-1.10012	l o </unk>
-0.754251	l o k	-0.156967
-1.27563	l o c	-0.0236723
-0.985272	l o r	-0.0407989
-1.22326	l o d	-0.0236723
-0.591801	l o l	-0.0639486
-1.63086	l o e	-0.0236723
-1.28405	l o m	-0.0236723
-1.56832	l o p	-0.0236723
-1.22176	<unk> o c	-0.0236723
-0.739962	<unk> o r	-0.0537742
-1.17245	<unk> o d	-0.0236723
-0.520356	<unk> o l	-0.0639486
-1.22966	<unk> o m	-0.0236723
-1.38653	<unk> o s	-0.0236723
-0.812161	* o r	-0.0236723
-1.16997	m o </unk>
-1.08033	m o k	-0.0407989
-1.25663	m o c	-0.0236723
-1.4549	m o y	-0.0236723
-0.638953	m o t	-0.0721427
-1.26634	m o s	-0.0407989
-1.53119	m o p	-0.0236723
-1.06231	s o </unk>
-1.13545	s o c	-0.0236723
-0.396839	s o l	-0.0537742
-0.941393	f o d	-0.0236723
-1.24967	h o </unk>
-1.20384	h o k	-0.120873
-1.5214	h o c	-0.108428
-0.566363	h o r	-0.209595
-1.79732	h o y	-0.0407989
-0.812598	h o d	-0.114652
-1.85344	h o a	-0.0236723
-1.99697	h o i	-0.0236723
-0.658568	h o l	-0.19348
-1.37526	h o t	-0.0407989
-1.14877	h o m	-0.0934506
-1.83732	h o s	-0.0407989
-2.02015	h o q	-0.0407989
-2.35718	h o *	-0.0236723
-1.20998	o o i	-0.0236723
-0.493645	o o l	-0.0236723
-0.930422	p o r	-0.0236723
-0.410355	p o l	-0.0407989
-0.972167	p o t	-0.0236723
-1.33348	q o </unk>
-0.524082	q o k	-0.153029
-1.50224	q o c	-0.0236723
-1.72494	q o y	-0.0236723
-1.7818	q o o	-0.0236723
-1.298	q o d	-0.0537742
-0.653598	q o t	-0.185539
-1.88353	q o e	-0.0236723
-1.55713	q o s	-0.0407989
-1.39073	q o p	-0.0407989
-1.0705	t o </unk>
-1.15061	t o c	-0.0236723
-1.32857	t o y	-0.0407989
-1.10437	t o d	-0.0236723
-1.31214	t o a	-0.0236723
-0.522667	t o l	-0.0407989
-1.07702	n o k	-0.0236723
-1.10437	n o d	-0.0236723
-0.522667	n o l	-0.0407989
-0.817347	n o t	-0.0537742
-1.30307	o d </unk>
-0.432354	o d y	-0.197459
-0.97958	o d o	-0.0407989
-0.385198	o d a	-0.130583
-1.49618	y d </unk>
-1.74174	y d k	-0.0236723
-1.24841	y d c	-0.0407989
-0.86606	y d o	-0.0407989
-0.193725	y d a	-0.114652
-1.78402	y d l	-0.0236723
-1.38315	l d c	-0.0236723
-1.16273	l d y	-0.0236723
-0.65419	l d o	-0.100183
-0.213324	l d a	-0.15331
-0.199951	r d a	-0.0721427
-0.235818	m d a	-0.0236723
-1.12893	<unk> d c	-0.0236723
-0.934699	<unk> d y	-0.0236723
-0.756152	<unk> d o	-0.0236723
-0.261235	<unk> d a	-0.0537742
-0.719847	n d o	-0.0407989
-1.48889	n d d	-0.0236723
-0.244066	n d a	-0.0721427
-1.12274	i d </unk>
-0.849272	i d y	-0.0236723
-0.974688	d d c	-0.0236723
-0.849272	a d y	-0.0236723
-0.257764	a d a	-0.0236723
-0.373653	l a i	-0.0236723
-0.896926	p a </unk>
-1.18502	p a d	-0.0236723
-0.988193	o a </unk>
-0.851421	o a r	-0.0236723
-0.388447	o a i	-0.0537742
-0.892895	o a l	-0.0236723
-1.33599	d a </unk>
-0.910205	d a r	-0.0845294
-1.78998	d a o	-0.0236723
-0.281613	d a i	-0.218579
-1.364	d a n	-0.0537742
-1.07492	d a l	-0.0788846
-0.910885	d a m	-0.0788846
-1.25869	h a </unk>
-1.71558	h a c	-0.0236723
-0.898796	h a r	-0.0537742
-0.563389	h a i	-0.112487
-0.967917	h a n	-0.0537742
-0.967565	h a l	-0.0639486
-0.593385	h a m	-0.118549
-0.999593	r a </unk>
-1.19488	r a n	-0.0236723
-0.908581	r a l	-0.0236723
-0.686491	r a m	-0.0407989
-0.52002	e a r	-0.108428
-1.40045	e a y	-0.0236723
-0.52765	e a i	-0.0236723
-0.960631	e a m	-0.0407989
-0.707394	<unk> a r	-0.0537742
-0.418896	<unk> a i	-0.0407989
-0.892895	<unk> a l	-0.0236723
-1.32444	k a y	-0.0236723
-1.3331	k a d	-0.0236723
-0.418896	k a i	-0.0407989
-0.892895	k a l	-0.0407989
-0.98823	k a m	-0.0236723
-0.861798	t a </unk>
-1.26351	t a o	-0.0236723
-0.441893	t a i	-0.0236723
-0.877898	t a l	-0.0236723
-0.339626	s a i	-0.0845294
-0.916705	s a l	-0.0236723
-1.01539	s a m	-0.0236723
-1.64747	a i </unk>
-1.10143	a i r	-0.0788846
-0.185116	a i i	-0.23678
-0.875006	a i n	-0.0893253
-1.70852	a i m	-0.0236723
-1.91475	a i *	-0.0236723
-1.7686	i i </unk>
-1.43185	i i r	-0.0236723
-1.42382	i i d	-0.0407989
-0.772132	i i i	-0.0236723
-0.172338	i i n	-0.246578
-1.92665	i i l	-0.0236723
-1.81327	i i m	-0.0236723
-0.286484	o i i	-0.0407989
-1.30252	o i e	-0.0236723
-1.29648	o i s	-0.0236723
-0.258644	<unk> i i	-0.103335
-0.742581	<unk> i n	-0.0236723
-0.535904	o * o	-0.0236723
-0.655623	i * q	-0.0236723
-0.0202135	y q o	-0.100183
-0.0283068	s q o	-0.0407989
-0.0283068	o q o	-0.0407989
-0.0267912	n q o	-0.0639486
-0.0283068	<unk> q o	-0.0967525
-0.026275	l q o	-0.0721427
-0.0283068	m q o	-0.0407989
-0.0215721	r q o	-0.0845294
-0.0294849	* q o	-0.0236723
-0.504938	y p c	-0.0236723
-0.487908	y p o	-0.0407989
-0.99103	c p </unk>
-1.01926	c p h	-0.0236723
-0.425319	o p c	-0.0407989
-0.556835	o p o	-0.0407989
-0.880772	o p a	-0.0236723
-0.429688	m p c	-0.0407989
-0.460254	<unk> p c	-0.0236723
-0.752163	h p a	-0.0236723
-0.209625	k s h	-0.0537742
-0.522574	e s c	-0.0537742
-1.3081	e s e	-0.0236723
-1.31665	e s q	-0.0236723
-1.40169	l s </unk>
-1.16601	l s c	-0.0236723
-0.275278	l s h	-0.153991
-1.23019	l s o	-0.0236723
-0.853153	l s a	-0.108428
-1.52476	l s e	-0.0236723
-1.11408	l s s	-0.0407989
-1.08752	h s y	-0.0236723
-0.217874	t s h	-0.0967525
-0.229407	i s h	-0.0236723
-0.938635	y s c	-0.0537742
-0.251361	y s h	-0.0845294
-1.1479	y s o	-0.0236723
-1.04266	y s a	-0.0236723
-1.35038	y s s	-0.0407989
-0.156082	s s h	-0.0721427
-0.156439	<unk> s h	-0.0788846
-1.31628	n s </unk>
-0.277264	n s h	-0.0788846
-1.06026	n s o	-0.0407989
-0.778967	n s a	-0.0537742
-1.2473	m s </unk>
-0.244802	m s h	-0.0537742
-1.31575	m s y	-0.0236723
-1.10679	m s o	-0.0236723
-1.28001	m s s	-0.0236723
-0.138482	r s h	-0.0788846
-0.811697	o s c	-0.0407989
-0.253778	o s h	-0.112487
-1.05712	o s a	-0.0236723
-1.40628	o s q	-0.0236723
-1.28676	a m </unk>
-1.49553	a m k	-0.0236723
-0.77513	a m c	-0.0639486
-1.02752	a m y	-0.0407989
-0.523192	a m o	-0.0788846
-0.76904	a m s	-0.0537742
-1.35476	a m p	-0.0236723
-1.32643	a m q	-0.0236723
-0.658514	i m c	-0.0236723
-1.18546	i m m	-0.0236723
-0.96815	m m </unk>
-0.667317	o m c	-0.103335
-1.27228	o m y	-0.0236723
-0.537559	o m o	-0.0788846
-1.49347	o m d	-0.0236723
-1.49614	o m t	-0.0236723
-0.824104	o m s	-0.0537742
-1.32075	o m p	-0.0236723
-1.29206	o m q	-0.0236723
-0.658514	<unk> m c	-0.0236723
-0.5187	<unk> m o	-0.0236723
-0.713123	e m s	-0.0236723
-0.4577	c f h	-0.0407989
-0.649928	l f o	-0.0236723
-0.731179	o f </unk>
-0.331644	r e e	-0.0537742
-0.568259	y e e	-0.0236723
-0.525124	s e e	-0.0407989
-1.24512	h e </unk>
-1.44236	h e k	-0.0407989
-1.64176	h e c	-0.0236723
-0.599257	h e y	-0.105446
-0.532175	h e o	-0.25689
-1.08911	h e a	-0.0537742
-1.86026	h e t	-0.0236723
-0.71743	h e e	-0.118549
-1.17805	t e </unk>
-0.486138	t e o	-0.103335
-1.07501	t e a	-0.0236723
-0.497327	t e e	-0.0537742
-1.4202	k e c	-0.0236723
-0.810408	k e y	-0.0236723
-0.569348	k e o	-0.120873
-0.519757	k e e	-0.0639486
-1.19028	e e </unk>
-0.5799	e e y	-0.122861
-0.749742	e e o	-0.0537742
-0.988568	e e a	-0.0639486
-1.80464	e e n	-0.0236723
-0.64328	e e e	-0.108428
-1.78195	e e m	-0.0236723
-1.16747	e e s	-0.0537742
-0.69614	<unk> e y	-0.0236723
-0.595193	<unk> e o	-0.0236723
-1.13114	<unk> e s	-0.0236723
-1.04246	i e s	-0.0236723
-0.95141	o e </unk>
-0.595816	o e e	-0.0236723
-1.13629	l e k	-0.0236723
-0.552404	l e e	-0.0407989
-0.558928	l t c	-0.0236723
-1.00099	y t </unk>
-0.608068	y t c	-0.0721427
-1.00928	y t y	-0.0236723
-0.917482	y t o	-0.0537742
-1.0733	y t a	-0.0236723
-0.950234	y t e	-0.0537742
-1.34206	y t s	-0.0236723
-1.09221	c t </unk>
-0.265517	c t h	-0.151998
-0.815905	e t y	-0.0236723
-1.25099	o t </unk>
-0.339851	o t c	-0.260076
-1.25921	o t y	-0.0236723
-0.750637	o t o	-0.112487
-1.18062	o t a	-0.0537742
-1.26192	o t e	-0.0721427
-1.58789	o t s	-0.0236723
-0.767759	h t y	-0.0407989
-0.932954	h t a	-0.0236723
-0.844915	<unk> t </unk>
-0.58626	<unk> t c	-0.0236723
-0.558928	m t c	-0.0236723
-1.54279	o l </unk>
-1.41879	o l k	-0.115798
-0.611175	o l c	-0.190869
-1.0835	o l y	-0.118549
-0.809886	o l o	-0.174319
-0.690927	o l d	-0.171949
-1.92701	o l a	-0.0236723
-2.02662	o l t	-0.0236723
-1.62549	o l e	-0.0407989
-2.1053	o l f	-0.0236723
-0.830652	o l s	-0.111488
-1.45051	o l q	-0.0721427
-1.47734	a l </unk>
-0.618241	a l c	-0.0721427
-0.958226	a l y	-0.0407989
-0.840069	a l o	-0.0236723
-0.673776	a l d	-0.0721427
-1.42445	a l e	-0.0236723
-0.909719	a l s	-0.0407989
-0.583958	<unk> l c	-0.0967525
-1.06111	<unk> l y	-0.0236723
-0.676789	<unk> l o	-0.0407989
-0.797157	<unk> l d	-0.0236723
-0.692996	i l d	-0.0236723
-0.739289	d l s	-0.0236723
-0.739289	r l s	-0.0236723
-1.12526	i n </unk>
-1.64781	i n k	-0.0236723
-0.64012	i n c	-0.171949
-0.991338	i n y	-0.0537742
-1.15867	i n o	-0.0788846
-0.756275	i n d	-0.0788846
-0.64465	i n s	-0.0934506
-1.20952	i n q	-0.0537742
-0.599451	<unk> n s	-0.0236723
-1.04416	<unk> n q	-0.0236723
-0.609527	a n c	-0.0236723
-0.858286	a n y	-0.0236723
-0.988114	a n o	-0.0236723
-0.871531	a n d	-0.0407989
-0.624501	a n s	-0.0407989
-0.736573	e n y	-0.0236723

\4-grams:
-0.463506	a m k o	-0.0149174
-0.938821	s h k a	-0.0149174
-0.672308	c h k y	-0.0149174
-0.765137	i n k c	-0.0149174
-0.947212	o l k </unk>
-0.825962	o l k y	-0.0149174
-0.477079	o l k o	-0.0255741
-0.658232	o l k e	-0.0255741
-0.507866	y o k o	-0.0149174
-0.939205	y o k a	-0.0149174
-1.09617	h o k </unk>
-0.91116	h o k c	-0.0149174
-0.944271	h o k y	-0.0149174
-0.451465	h o k o	-0.0335695
-0.739099	h o k e	-0.0255741
-1.10753	l o k </unk>
-0.965999	l o k y	-0.0149174
-0.527916	l o k a	-0.0335695
-0.406363	r o k o	-0.0397908
-0.725613	r o k e	-0.0255741
-0.939205	m o k a	-0.0149174
-0.68851	m o k e	-0.0149174
-0.874454	q o k c	-0.0335695
-0.984074	q o k y	-0.0149174
-0.581944	q o k o	-0.0335695
-0.537919	q o k e	-0.0447701
-1.40568	q o k s	-0.0149174
-0.491163	n o k o	-0.0149174
-0.219709	o c k h	-0.0397908
-0.395402	y c k h	-0.0255741
-0.945375	r c k </unk>
-0.427417	r c k h	-0.0149174
-0.411731	h c k h	-0.0149174
-0.411731	a c k h	-0.0149174
-0.713114	h e k y	-0.0149174
-0.644141	h e k e	-0.0149174
-0.95502	l e k s	-0.0149174
-0.749756	y d k </unk>
-0.815847	h y k c	-0.0149174
-0.789023	h y k y	-0.0149174
-0.511344	h y k o	-0.0255741
-0.481116	y y k o	-0.0255741
-0.923868	s y k </unk>
-0.520442	<unk> y k o	-0.0149174
-1.14638	<unk> y k a	-0.0149174
-0.759619	n y k y	-0.0149174
-1.13313	n y k s	-0.0149174
-0.759619	l y k y	-0.0149174
-0.520442	l y k o	-0.0149174
-0.785494	e y k c	-0.0149174
-0.723473	e y k e	-0.0149174
-0.702927	o y k e	-0.0149174
-0.763449	t y k c	-0.0149174
-0.692798	a r k y	-0.0149174
-0.841218	o r k c	-0.0149174
-0.521542	o r k o	-0.0149174
-0.128455	k e c h	-0.0149174
-0.128455	h e c h	-0.0149174
-1.17902	o l c </unk>
-0.142955	o l c h	-0.0647133
-0.78793	o l c t	-0.0447701
-0.130105	<unk> l c h	-0.0255741
-0.145931	a l c h	-0.0447701
-0.774028	a o c k	-0.0149174
-0.561039	h o c k	-0.0335695
-0.225424	h o c h	-0.0149174
-0.147767	<unk> o c h	-0.0149174
-0.147767	t o c h	-0.0149174
-0.147767	s o c h	-0.0149174
-0.147767	y o c h	-0.0149174
-0.147767	l o c h	-0.0149174
-0.147767	q o c h	-0.0149174
-0.866726	m o c t	-0.0149174
-0.0921609	y d c h	-0.0255741
-0.0947189	<unk> d c h	-0.0149174
-0.0947189	d d c h	-0.0149174
-0.0947189	l d c h	-0.0149174
-0.852113	h a c k	-0.0149174
-0.112959	a m c h	-0.0335695
-0.872363	a m c t	-0.0149174
-0.089161	o m c h	-0.0335695
-0.107541	<unk> m c h	-0.0149174
-0.107541	i m c h	-0.0149174
-1.16698	a r c k	-0.0149174
-0.146449	a r c h	-0.0335695
-1.24079	a r c f	-0.0149174
-1.29827	i r c p	-0.0149174
-1.31166	o r c k	-0.0149174
-0.123769	o r c h	-0.0682801
-0.969336	o r c t	-0.0335695
-1.40318	o r c f	-0.0149174
-1.21506	h r c </unk>
-0.93643	c h c k	-0.0149174
-0.735257	c h c t	-0.0149174
-0.169752	s h c h	-0.0149174
-0.0934296	i n c h	-0.0660272
-0.979716	i n c t	-0.0255741
-1.59433	i n c p	-0.0149174
-0.107642	a n c h	-0.0149174
-0.0847132	y p c h	-0.0149174
-0.0824517	o p c h	-0.0255741
-0.0824517	m p c h	-0.0255741
-0.0847132	<unk> p c h	-0.0149174
-0.0954471	<unk> k c h	-0.0149174
-0.0954471	n k c h	-0.0149174
-0.0909826	y k c h	-0.0335695
-0.0895454	o k c h	-0.0397908
-0.0954471	r k c h	-0.0149174
-0.0721703	l t c h	-0.0149174
-1.55162	o t c </unk>
-0.0479081	o t c h	-0.0632452
-0.0669858	y t c h	-0.0447701
-0.0721703	<unk> t c h	-0.0149174
-0.0721703	m t c h	-0.0149174
-0.0896854	l y c h	-0.0335695
-0.0915403	<unk> y c h	-0.0255741
-0.0940791	y y c h	-0.0149174
-0.0940791	s y c h	-0.0149174
-0.0940791	r y c h	-0.0149174
-1.33132	e y c k	-0.0149174
-0.0868081	e y c h	-0.0488457
-1.00162	e y c t	-0.0149174
-0.0940791	a y c h	-0.0149174
-1.49398	h y c </unk>
-1.30386	h y c k	-0.0149174
-0.111859	h y c h	-0.0881139
-0.906482	h y c t	-0.0255741
-0.0782106	k y c h	-0.0335695
-0.107149	t y c h	-0.0149174
-0.869767	t y c t	-0.0149174
-0.0781586	d y c h	-0.0397908
-0.0940791	n y c h	-0.0149174
-0.0686156	e s c h	-0.0335695
-0.0686156	y s c h	-0.0335695
-0.0699989	o s c h	-0.0255741
-0.0718899	l s c h	-0.0149174
-0.923104	e c h y	-0.0149174
-0.295074	e c h o	-0.0149174
-0.28854	o c h o	-0.0397908
-0.668855	o c h e	-0.0335695
-1.18955	l c h </unk>
-1.87053	l c h k	-0.0149174
-0.958211	l c h y	-0.0447701
-0.261529	l c h o	-0.0575852
-1.11955	l c h a	-0.0149174
-0.809276	l c h e	-0.0255741
-1.26058	r c h </unk>
-0.214638	r c h o	-0.0672099
-1.09267	r c h a	-0.0255741
-0.827378	r c h e	-0.0335695
-0.280703	h c h o	-0.0149174
-0.257012	m c h o	-0.0447701
-0.981742	m c h a	-0.0255741
-0.776109	m c h e	-0.0149174
-1.1981	n c h </unk>
-1.78544	n c h c	-0.0255741
-0.266698	n c h o	-0.0575852
-1.02905	n c h a	-0.0255741
-0.765738	n c h e	-0.0255741
-1.13632	<unk> c h </unk>
-0.940796	<unk> c h y	-0.0255741
-0.321799	<unk> c h o	-0.0255741
-0.711102	<unk> c h e	-0.0255741
-1.7048	<unk> c h s	-0.0149174
-1.115	p c h </unk>
-0.295383	p c h o	-0.0335695
-0.693474	p c h e	-0.0255741
-1.17588	k c h </unk>
-1.69549	k c h r	-0.0149174
-1.03919	k c h y	-0.0149174
-0.283065	k c h o	-0.0397908
-1.05893	k c h a	-0.0149174
-0.749132	k c h e	-0.0255741
-1.21182	t c h </unk>
-1.02846	t c h y	-0.0255741
-0.288247	t c h o	-0.0551193
-0.979549	t c h a	-0.0447701
-0.738118	t c h e	-0.0397908
-1.27631	y c h </unk>
-1.1271	y c h y	-0.0149174
-0.224376	y c h o	-0.106388
-1.11563	y c h a	-0.0255741
-1.89469	y c h t	-0.0149174
-0.82156	y c h e	-0.0335695
-2.06411	y c h p	-0.0149174
-1.66452	s c h r	-0.0149174
-0.313617	s c h o	-0.0335695
-1.02796	s c h a	-0.0149174
-0.659654	s c h e	-0.0397908
-0.972886	d c h y	-0.0149174
-0.270842	d c h o	-0.0397908
-0.444667	c f h a	-0.0255741
-0.46243	c k h y	-0.0397908
-0.430102	c k h o	-0.0447701
-1.38191	c t h </unk>
-0.440685	c t h y	-0.0551193
-0.451285	c t h o	-0.0488457
-1.13427	c t h a	-0.0149174
-0.902856	c t h e	-0.0255741
-0.572777	i s h e	-0.0149174
-0.33986	m s h o	-0.0335695
-0.93117	r s h y	-0.0149174
-0.392462	r s h o	-0.0255741
-0.943058	r s h a	-0.0149174
-1.4586	r s h t	-0.0149174
-0.631078	r s h e	-0.0149174
-1.25847	y s h </unk>
-0.939828	y s h y	-0.0149174
-0.398896	y s h o	-0.0255741
-0.951863	y s h a	-0.0149174
-0.607635	y s h e	-0.0255741
-1.22751	s s h </unk>
-0.405946	s s h o	-0.0149174
-0.932638	s s h a	-0.0149174
-0.589509	s s h e	-0.0255741
-1.50218	<unk> s h k	-0.0149174
-0.392462	<unk> s h o	-0.0255741
-0.569763	<unk> s h e	-0.0335695
-0.373858	n s h o	-0.0335695
-0.880285	n s h a	-0.0255741
-0.631078	n s h e	-0.0149174
-1.48272	o s h c	-0.0149174
-0.956745	o s h y	-0.0149174
-0.317017	o s h o	-0.0335695
-1.01156	l s h y	-0.0149174
-0.437046	l s h o	-0.0397908
-0.443822	l s h e	-0.0447701
-0.893472	k s h y	-0.0149174
-0.364074	k s h o	-0.0255741
-0.420611	t s h e	-0.0255741
-0.375944	c p h o	-0.0149174
-0.449704	c h r c	-0.0149174
-0.812532	c h r y	-0.0149174
-1.16115	h a r </unk>
-0.504066	h a r c	-0.0149174
-1.13595	h a r a	-0.0149174
-0.985497	<unk> a r y	-0.0149174
-0.673077	<unk> a r o	-0.0149174
-1.09735	<unk> a r e	-0.0149174
-1.24571	d a r k	-0.0149174
-0.488225	d a r c	-0.0335695
-0.708203	d a r o	-0.0149174
-0.959561	d a r s	-0.0255741
-0.639245	o a r o	-0.0149174
-0.558233	e a r c	-0.0149174
-0.516193	e a r o	-0.0255741
-1.15152	e a r e	-0.0149174
-1.03578	p o r a	-0.0149174
-0.42559	k o r c	-0.0149174
-0.72915	k o r o	-0.0149174
-0.42559	r o r c	-0.0149174
-0.72915	r o r o	-0.0149174
-1.54556	h o r </unk>
-1.56041	h o r k	-0.0149174
-0.479839	h o r c	-0.0632452
-1.29012	h o r y	-0.0255741
-0.627426	h o r o	-0.124381
-1.03077	h o r d	-0.0397908
-1.33334	h o r a	-0.0149174
-1.87586	h o r l	-0.0149174
-1.27276	h o r s	-0.0149174
-1.05572	h o r q	-0.0397908
-0.409925	a o r c	-0.0149174
-0.992203	* o r s	-0.0149174
-0.31568	d o r c	-0.0397908
-1.06801	l o r a	-0.0149174
-1.02232	l o r s	-0.0149174
-1.21457	y o r </unk>
-1.06801	y o r a	-0.0149174
-0.744984	<unk> o r o	-0.0149174
-1.16003	<unk> o r d	-0.0149174
-0.930486	<unk> o r q	-0.0149174
-1.37856	e o r k	-0.0149174
-0.35707	e o r c	-0.0447701
-1.42253	e o r e	-0.0149174
-1.01552	e o r q	-0.0149174
-0.546879	a i r c	-0.0149174
-0.952552	a i r y	-0.0149174
-0.749433	a i r o	-0.0149174
-1.06334	a i r d	-0.0149174
-0.998128	a i r s	-0.0149174
-1.17348	a i r q	-0.0149174
-0.68377	i i r o	-0.0149174
-0.552614	e y y k	-0.0255741
-1.12093	n y y p	-0.0149174
-0.623461	h y y c	-0.0149174
-0.874106	h y y t	-0.0149174
-0.613146	o k y c	-0.0255741
-0.390883	o k y d	-0.0149174
-0.626365	l k y c	-0.0149174
-0.364239	r k y d	-0.0149174
-0.365173	y k y d	-0.0255741
-0.980106	y k y s	-0.0149174
-0.364239	e k y d	-0.0149174
-0.364239	h k y d	-0.0149174
-1.03509	t o y </unk>
-0.658767	t o y s	-0.0149174
-0.639576	q o y s	-0.0149174
-0.804957	h o y k	-0.0149174
-0.658767	h o y s	-0.0149174
-0.639576	m o y s	-0.0149174
-0.529737	h s y c	-0.0149174
-0.71852	m s y k	-0.0149174
-0.528796	e t y c	-0.0149174
-0.79305	h t y k	-0.0149174
-0.734831	h t y d	-0.0149174
-0.914053	o t y o	-0.0149174
-0.528796	y t y c	-0.0149174
-0.518366	a l y c	-0.0149174
-0.859114	a l y t	-0.0149174
-0.733339	o l y k	-0.0255741
-0.595448	o l y c	-0.0149174
-0.675232	o l y d	-0.0255741
-0.954004	o l y t	-0.0149174
-1.01501	o l y s	-0.0149174
-0.501516	<unk> l y c	-0.0149174
-0.737157	i n y k	-0.0149174
-0.606224	i n y c	-0.0149174
-1.08257	i n y y	-0.0149174
-0.700961	a n y k	-0.0149174
-1.14279	e n y e	-0.0149174
-0.584346	h r y c	-0.0149174
-1.0044	<unk> r y </unk>
-0.954927	o r y o	-0.0149174
-0.787561	o r y t	-0.0149174
-0.826621	a r y s	-0.0149174
-0.765462	i r y t	-0.0149174
-0.381895	a m y t	-0.0255741
-0.397372	o m y t	-0.0149174
-1.03041	h e y k	-0.0149174
-0.500324	h e y c	-0.0447701
-1.15593	h e y y	-0.0149174
-1.25762	h e y o	-0.0149174
-0.771176	h e y d	-0.0335695
-0.909772	h e y q	-0.0255741
-1.03626	e e y k	-0.0149174
-0.537373	e e y c	-0.0335695
-0.841938	e e y d	-0.0149174
-1.09576	e e y t	-0.0149174
-0.703575	e e y q	-0.0397908
-0.949092	<unk> e y t	-0.0149174
-0.999387	k e y y	-0.0149174
-0.529737	e a y c	-0.0149174
-0.771699	k a y t	-0.0149174
-1.36184	c h y </unk>
-0.922709	c h y k	-0.0255741
-0.504537	c h y c	-0.0488457
-1.34607	c h y y	-0.0149174
-0.847302	c h y d	-0.0255741
-1.09025	c h y t	-0.0149174
-0.544174	k h y c	-0.0149174
-1.10963	k h y o	-0.0149174
-1.01483	k h y t	-0.0149174
-0.90183	k h y s	-0.0149174
-0.938272	t h y k	-0.0149174
-0.569427	t h y c	-0.0149174
-1.30022	t h y y	-0.0149174
-1.16261	t h y o	-0.0149174
-0.858757	t h y d	-0.0149174
-0.887109	t h y s	-0.0255741
-1.02241	t h y q	-0.0149174
-0.442952	s h y c	-0.0255741
-0.813263	s h y d	-0.0255741
-1.02764	s h y q	-0.0149174
-0.866355	<unk> h y k	-0.0149174
-0.941947	<unk> h y q	-0.0149174
-1.37318	o d y </unk>
-0.615812	o d y c	-0.0335695
-0.881053	o d y o	-0.0335695
-0.901378	o d y d	-0.0255741
-0.945529	o d y t	-0.0255741
-0.881514	o d y s	-0.0255741
-1.12048	o d y p	-0.0255741
-1.40298	o d y q	-0.0149174
-0.557318	i d y c	-0.0149174
-0.738187	l d y d	-0.0149174
-0.908497	<unk> d y o	-0.0149174
-0.866838	a d y s	-0.0149174
-0.971703	k e o d	-0.0149174
-0.344813	k e o l	-0.0397908
-1.01283	k e o m	-0.0255741
-1.19584	k e o s	-0.0149174
-0.932489	t e o d	-0.0149174
-0.313505	t e o l	-0.0255741
-0.509054	h e o r	-0.0522434
-1.11755	h e o d	-0.0149174
-1.63444	h e o a	-0.0149174
-0.466195	h e o l	-0.0551193
-1.35399	h e o s	-0.0149174
-1.70194	h e o p	-0.0149174
-0.945172	<unk> e o m	-0.0149174
-1.15498	e e o </unk>
-1.01746	e e o r	-0.0149174
-0.40189	e e o l	-0.0149174
-0.723627	l d o r	-0.0255741
-0.417621	l d o l	-0.0551193
-1.25125	l d o m	-0.0149174
-1.01934	<unk> d o </unk>
-0.682407	n d o r	-0.0149174
-0.989358	n d o t	-0.0149174
-1.22409	o d o a	-0.0149174
-0.469228	o d o l	-0.0149174
-0.682407	y d o r	-0.0149174
-1.27548	y d o i	-0.0149174
-0.900907	d a o c	-0.0149174
-0.767106	t a o r	-0.0149174
-1.05586	d y o </unk>
-0.972343	d y o k	-0.0149174
-0.628149	d y o l	-0.0149174
-0.772789	d y o t	-0.0149174
-0.701975	r y o r	-0.0149174
-0.908526	e y o k	-0.0149174
-0.722915	t y o t	-0.0149174
-1.06885	h y o c	-0.0149174
-0.722499	h y o r	-0.0149174
-0.692475	l k o d	-0.0149174
-0.47785	l k o l	-0.0149174
-1.11373	o k o r	-0.0149174
-0.755472	o k o d	-0.0335695
-1.55058	o k o i	-0.0149174
-0.383698	o k o l	-0.0488457
-1.35358	o k o m	-0.0149174
-1.41177	y k o o	-0.0149174
-0.737431	y k o d	-0.0149174
-1.1162	y k o a	-0.0149174
-0.489764	y k o l	-0.0255741
-1.11253	y k o t	-0.0149174
-0.692475	<unk> k o d	-0.0149174
-0.47785	<unk> k o l	-0.0149174
-1.01171	m k o a	-0.0149174
-0.933331	r k o r	-0.0149174
-0.773221	a r o k	-0.0255741
-0.955965	a r o r	-0.0149174
-0.936364	a r o t	-0.0149174
-1.18469	a r o m	-0.0149174
-1.21016	o r o </unk>
-0.913012	o r o k	-0.0335695
-1.04533	o r o r	-0.0149174
-0.569611	o r o l	-0.0255741
-0.615808	o r o t	-0.0335695
-1.566	o r o f	-0.0149174
-0.785608	i r o k	-0.0149174
-0.481075	i r o l	-0.0149174
-0.863913	<unk> r o t	-0.0149174
-0.901984	o l o </unk>
-0.687109	o l o k	-0.0397908
-1.31794	o l o c	-0.0149174
-1.06958	o l o r	-0.0149174
-1.275	o l o d	-0.0149174
-0.593105	o l o l	-0.0335695
-1.57998	o l o e	-0.0149174
-1.32476	o l o m	-0.0149174
-1.53806	o l o p	-0.0149174
-0.710815	<unk> l o k	-0.0149174
-0.568748	<unk> l o l	-0.0149174
-0.873798	a l o r	-0.0149174
-0.738322	o * o r	-0.0149174
-1.10707	a m o </unk>
-1.0362	a m o k	-0.0149174
-1.1725	a m o c	-0.0149174
-1.30909	a m o y	-0.0149174
-0.651811	a m o t	-0.0149174
-1.17963	a m o s	-0.0149174
-1.0362	o m o k	-0.0149174
-0.587708	o m o t	-0.0335695
-1.17963	o m o s	-0.0149174
-1.35625	o m o p	-0.0149174
-0.592352	<unk> m o t	-0.0149174
-0.980881	y s o c	-0.0149174
-0.37547	l s o l	-0.0149174
-0.361242	n s o l	-0.0255741
-0.930056	m s o </unk>
-0.840587	l f o d	-0.0149174
-1.40485	c h o </unk>
-1.23433	c h o k	-0.0522434
-0.551883	c h o r	-0.0760692
-0.813064	c h o d	-0.0672099
-2.07811	c h o i	-0.0149174
-0.536922	c h o l	-0.0751893
-1.51561	c h o t	-0.0255741
-1.18282	c h o m	-0.0488457
-2.09551	c h o q	-0.0149174
-0.826441	k h o c	-0.0255741
-0.617528	k h o r	-0.0149174
-1.48659	k h o y	-0.0149174
-0.701471	k h o l	-0.0149174
-0.58457	t h o r	-0.0149174
-0.808801	t h o d	-0.0149174
-0.669833	t h o l	-0.0255741
-1.00479	t h o m	-0.0255741
-1.5807	t h o q	-0.0149174
-1.26172	s h o </unk>
-1.28212	s h o k	-0.0149174
-1.5408	s h o c	-0.0149174
-0.593595	s h o r	-0.0397908
-0.80694	s h o d	-0.0255741
-0.609858	s h o l	-0.0551193
-1.23407	s h o m	-0.0149174
-1.25774	s h o s	-0.0255741
-1.99094	s h o *	-0.0149174
-1.32508	p h o a	-0.0149174
-1.1527	<unk> h o </unk>
-1.33027	<unk> h o c	-0.0149174
-0.577703	<unk> h o r	-0.0149174
-1.46884	<unk> h o y	-0.0149174
-0.662364	<unk> h o l	-0.0149174
-0.46367	q o o l	-0.0149174
-1.0299	k o o i	-0.0149174
-0.403304	y p o l	-0.0149174
-0.889024	y p o t	-0.0149174
-0.856184	o p o r	-0.0149174
-0.403304	o p o l	-0.0149174
-0.479208	y q o k	-0.0488457
-1.57901	y q o o	-0.0149174
-0.618434	y q o t	-0.0397908
-0.623567	s q o t	-0.0149174
-1.17434	s q o p	-0.0149174
-0.507722	o q o k	-0.0149174
-0.623567	o q o t	-0.0149174
-1.19229	n q o </unk>
-0.49928	n q o k	-0.0255741
-1.40808	n q o y	-0.0149174
-0.370014	<unk> q o k	-0.0255741
-1.21151	l q o </unk>
-0.538417	l q o k	-0.0149174
-1.18703	l q o d	-0.0149174
-0.657839	l q o t	-0.0149174
-1.35067	l q o s	-0.0149174
-0.507722	m q o k	-0.0149174
-0.623567	m q o t	-0.0149174
-1.3557	r q o c	-0.0149174
-1.21585	r q o d	-0.0149174
-0.639703	r q o t	-0.0255741
-1.55619	r q o e	-0.0149174
-1.38961	r q o s	-0.0149174
-1.2819	r q o p	-0.0149174
-1.08399	* q o d	-0.0149174
-1.11167	o t o c	-0.0149174
-0.788161	o t o y	-0.0255741
-1.22626	o t o a	-0.0149174
-0.577221	o t o l	-0.0149174
-0.985115	y t o </unk>
-1.01063	y t o d	-0.0149174
-0.51911	y t o l	-0.0149174
-1.03353	i n o k	-0.0149174
-1.05551	i n o d	-0.0149174
-0.543715	i n o l	-0.0149174
-0.722912	i n o t	-0.0335695
-0.489754	a n o l	-0.0149174
-0.428974	h o d y	-0.0522434
-0.975706	h o d o	-0.0255741
-0.371563	h o d a	-0.0575852
-0.364751	f o d a	-0.0149174
-0.396709	k o d y	-0.0397908
-0.394102	k o d a	-0.0255741
-0.408029	t o d y	-0.0149174
-0.407125	e o d y	-0.0255741
-0.391405	e o d a	-0.0149174
-1.08698	n o d </unk>
-0.408029	<unk> o d y	-0.0149174
-0.408029	l o d y	-0.0149174
-1.14961	q o d </unk>
-0.365665	q o d a	-0.0255741
-1.44443	h y d k	-0.0149174
-1.1518	h y d c	-0.0149174
-0.1964	h y d a	-0.0335695
-0.192388	d y d a	-0.0255741
-1.39778	d y d l	-0.0149174
-1.13439	<unk> y d c	-0.0149174
-0.835363	<unk> y d o	-0.0149174
-0.202129	<unk> y d a	-0.0255741
-1.29246	e y d </unk>
-0.835363	e y d o	-0.0149174
-0.202129	e y d a	-0.0255741
-0.1685	k y d a	-0.0488457
-0.185558	t y d a	-0.0149174
-0.179983	l y d a	-0.0255741
-0.587077	a l d o	-0.0335695
-0.228311	a l d a	-0.0255741
-1.40875	o l d c	-0.0149174
-0.518369	o l d o	-0.0551193
-0.247925	o l d a	-0.0575852
-0.999161	i l d y	-0.0149174
-0.204121	<unk> l d a	-0.0149174
-0.19146	i r d a	-0.0149174
-0.175764	o r d a	-0.0397908
-0.225369	o m d a	-0.0149174
-0.686564	i n d o	-0.0255741
-1.33049	i n d d	-0.0149174
-0.249782	i n d a	-0.0335695
-0.225728	a n d a	-0.0255741
-1.00146	i i d </unk>
-0.790505	i i d y	-0.0149174
-0.865862	n d d c	-0.0149174
-0.246041	k a d a	-0.0149174
-0.76833	p a d y	-0.0149174
-0.354098	o l a i	-0.0149174
-0.806121	o p a </unk>
-1.01381	h p a d	-0.0149174
-0.802958	h o a l	-0.0149174
-0.367744	t o a i	-0.0149174
-0.353943	k o a i	-0.0255741
-0.770053	e o a r	-0.0149174
-0.875979	d o a </unk>
-1.32647	o d a </unk>
-0.889775	o d a r	-0.0335695
-0.307129	o d a i	-0.0551193
-1.34865	o d a n	-0.0149174
-0.888231	o d a l	-0.0255741
-0.960118	o d a m	-0.0149174
-0.916496	y d a r	-0.0255741
-1.65589	y d a o	-0.0149174
-0.264154	y d a i	-0.0632452
-1.05465	y d a l	-0.0255741
-0.947879	y d a m	-0.0149174
-0.275382	r d a i	-0.0397908
-0.824109	r d a m	-0.0255741
-0.817025	m d a m	-0.0149174
-1.3313	l d a </unk>
-0.932601	l d a r	-0.0255741
-0.229656	l d a i	-0.0551193
-0.977375	l d a m	-0.0149174
-0.293484	<unk> d a i	-0.0149174
-1.18823	<unk> d a n	-0.0149174
-0.988472	<unk> d a l	-0.0149174
-0.275382	n d a i	-0.0335695
-1.23206	n d a n	-0.0149174
-1.01999	n d a l	-0.0149174
-0.268433	a d a i	-0.0149174
-1.28545	c h a </unk>
-0.970759	c h a r	-0.0149174
-0.621336	c h a i	-0.0335695
-0.992863	c h a n	-0.0255741
-0.72111	c h a l	-0.0335695
-0.598108	c h a m	-0.0488457
-0.830867	f h a r	-0.0149174
-0.570164	f h a m	-0.0149174
-1.43234	s h a c	-0.0149174
-0.874627	s h a r	-0.0149174
-0.544099	s h a i	-0.0255741
-0.932888	s h a n	-0.0149174
-0.860494	t h a l	-0.0149174
-0.633305	a r a m	-0.0149174
-0.946084	o r a </unk>
-1.09614	o r a n	-0.0149174
-0.871243	o r a l	-0.0149174
-0.678407	o r a m	-0.0149174
-0.466984	e e a r	-0.0335695
-1.23526	e e a y	-0.0149174
-0.516679	h e a r	-0.0149174
-0.523683	h e a i	-0.0149174
-0.89915	h e a m	-0.0149174
-0.855248	t e a m	-0.0149174
-1.23447	o k a y	-0.0149174
-1.24019	o k a d	-0.0149174
-0.480335	o k a i	-0.0149174
-0.640062	o k a l	-0.0255741
-0.876007	y k a m	-0.0149174
-0.395717	h k a i	-0.0149174
-1.0633	y t a o	-0.0149174
-0.752438	o t a </unk>
-0.831483	o t a l	-0.0149174
-0.416736	h t a i	-0.0149174
-0.302913	n s a i	-0.0335695
-0.271782	l s a i	-0.0335695
-0.996749	l s a m	-0.0149174
-0.821549	y s a l	-0.0149174
-0.322575	o s a i	-0.0149174
-1.70466	d a i </unk>
-0.999333	d a i r	-0.0488457
-0.204969	d a i i	-0.0723981
-0.754477	d a i n	-0.0488457
-1.75104	d a i m	-0.0149174
-0.168277	o a i i	-0.0335695
-0.156777	h a i i	-0.0397908
-0.891112	h a i n	-0.0149174
-0.190973	<unk> a i i	-0.0149174
-0.811585	<unk> a i n	-0.0149174
-0.159712	s a i i	-0.0522434
-0.177391	l a i i	-0.0149174
-0.177391	e a i i	-0.0149174
-0.177391	t a i i	-0.0149174
-0.190973	k a i i	-0.0149174
-1.39722	k a i *	-0.0149174
-1.42345	a i i </unk>
-1.54934	a i i r	-0.0149174
-1.48324	a i i d	-0.0255741
-0.943169	a i i i	-0.0149174
-0.133474	a i i n	-0.0768487
-1.92504	a i i l	-0.0149174
-1.84837	a i i m	-0.0149174
-0.135366	<unk> i i n	-0.0335695
-0.160406	o i i n	-0.0255741
-0.165253	i i i n	-0.0149174
-1.08665	h o i e	-0.0149174
-0.272998	o o i i	-0.0149174
-1.08309	k o i s	-0.0149174
-0.272998	d o i i	-0.0149174
-0.501591	h o * o	-0.0149174
-0.606783	a i * q	-0.0149174
-0.0186771	h y q o	-0.0335695
-0.018018	e y q o	-0.0488457
-0.0195154	d y q o	-0.0149174
-0.0195154	<unk> y q o	-0.0149174
-0.0273203	e s q o	-0.0149174
-0.0273203	o s q o	-0.0149174
-0.0266373	h o q o	-0.0255741
-0.0247404	i n q o	-0.0335695
-0.0258591	<unk> n q o	-0.0149174
-0.0236299	o l q o	-0.0447701
-0.0273203	a m q o	-0.0149174
-0.0273203	o m q o	-0.0149174
-0.0192257	o r q o	-0.0488457
-0.020826	i r q o	-0.0149174
-0.028456	i * q o	-0.0149174
-0.439199	d y p o	-0.0255741
-0.47384	y y p c	-0.0149174
-0.89895	r c p h	-0.0149174
-0.878094	n c p </unk>
-0.401597	e o p c	-0.0149174
-0.537355	q o p o	-0.0149174
-0.816276	q o p a	-0.0149174
-0.52023	m o p o	-0.0149174
-0.401597	l o p c	-0.0149174
-0.405592	o m p c	-0.0149174
-0.405592	a m p c	-0.0149174
-0.688808	c h p a	-0.0149174
-0.200621	y k s h	-0.0149174
-0.200621	e k s h	-0.0149174
-0.200621	o k s h	-0.0149174
-0.489671	i e s c	-0.0149174
-0.519025	e e s c	-0.0149174
-1.15287	e e s e	-0.0149174
-1.15839	e e s q	-0.0149174
-0.489671	<unk> e s c	-0.0149174
-1.17135	o l s c	-0.0149174
-0.271489	o l s h	-0.0575852
-1.2263	o l s o	-0.0149174
-0.832362	o l s a	-0.0335695
-1.4607	o l s e	-0.0149174
-1.12608	o l s s	-0.0149174
-0.966304	d l s s	-0.0149174
-1.18058	a l s </unk>
-0.793699	a l s a	-0.0149174
-0.262493	r l s h	-0.0149174
-0.947869	c h s y	-0.0149174
-0.208424	y t s h	-0.0149174
-0.208424	o t s h	-0.0149174
-0.21932	o i s h	-0.0149174
-0.881391	h y s c	-0.0149174
-0.24529	h y s h	-0.0255741
-0.881391	d y s c	-0.0149174
-0.264658	d y s h	-0.0149174
-1.04268	d y s o	-0.0149174
-0.299457	o y s h	-0.0255741
-0.755444	o y s s	-0.0255741
-0.915967	k y s a	-0.0149174
-0.240016	<unk> y s h	-0.0149174
-0.838473	l y s c	-0.0149174
-0.240016	r y s h	-0.0149174
-0.145472	y s s h	-0.0255741
-0.145472	l s s h	-0.0255741
-0.149786	m s s h	-0.0149174
-1.25121	i n s </unk>
-0.274472	i n s h	-0.0447701
-0.983673	i n s o	-0.0255741
-0.797256	i n s a	-0.0149174
-0.264355	<unk> n s h	-0.0149174
-0.669532	a n s a	-0.0255741
-1.11255	a m s </unk>
-1.1578	a m s y	-0.0149174
-1.13448	a m s s	-0.0149174
-0.221007	o m s h	-0.0335695
-0.96128	e m s o	-0.0149174
-0.129253	a r s h	-0.0255741
-0.126516	o r s h	-0.0335695
-0.133009	i r s h	-0.0149174
-0.234497	h o s h	-0.0255741
-0.759331	e o s c	-0.0149174
-1.18318	e o s q	-0.0149174
-0.234497	m o s h	-0.0255741
-0.759331	q o s c	-0.0149174
-0.953679	q o s a	-0.0149174
-0.24229	<unk> o s h	-0.0149174
-1.23125	r a m k	-0.0149174
-0.931496	r a m y	-0.0149174
-0.470041	d a m o	-0.0397908
-0.77	d a m s	-0.0149174
-1.22278	d a m q	-0.0149174
-0.564973	h a m c	-0.0397908
-0.583614	h a m o	-0.0149174
-0.766282	h a m s	-0.0255741
-1.11659	s a m p	-0.0149174
-0.490224	k a m o	-0.0149174
-1.11178	e a m </unk>
-0.931496	e a m y	-0.0149174
-1.01409	a i m m	-0.0149174
-0.609278	i i m c	-0.0149174
-0.860936	i m m </unk>
-0.66554	h o m c	-0.0255741
-0.52958	h o m o	-0.0335695
-1.37765	h o m d	-0.0149174
-1.37944	h o m t	-0.0149174
-0.838298	h o m s	-0.0149174
-1.25458	h o m p	-0.0149174
-0.748033	r o m s	-0.0149174
-0.503069	<unk> o m o	-0.0149174
-1.12934	e o m y	-0.0149174
-0.532762	e o m o	-0.0149174
-1.14242	e o m q	-0.0149174
-0.748033	d o m s	-0.0149174
-0.503069	l o m o	-0.0149174
-0.616862	k o m c	-0.0149174
-0.655969	e e m s	-0.0149174
-0.413603	r c f h	-0.0255741
-0.601862	o l f o	-0.0149174
-0.671215	r o f </unk>
-0.304074	a r e e	-0.0255741
-0.315155	o r e e	-0.0149174
-0.530361	n y e e	-0.0149174
-0.491954	l s e e	-0.0149174
-0.491954	e s e e	-0.0149174
-1.29519	c h e </unk>
-1.51386	c h e k	-0.0149174
-0.611984	c h e y	-0.0551193
-0.395741	c h e o	-0.0647133
-1.20844	c h e a	-0.0149174
-1.8168	c h e t	-0.0149174
-0.842847	c h e e	-0.0255741
-1.43497	s h e k	-0.0149174
-1.57841	s h e c	-0.0149174
-0.654568	s h e y	-0.0335695
-0.497602	s h e o	-0.0488457
-1.14291	s h e a	-0.0149174
-0.638133	s h e e	-0.0447701
-0.531039	t h e y	-0.0255741
-0.948985	<unk> h e a	-0.0149174
-0.485461	y t e o	-0.0149174
-0.988538	y t e a	-0.0149174
-0.495791	y t e e	-0.0149174
-1.09987	o t e </unk>
-0.476663	o t e o	-0.0255741
-0.486524	o t e e	-0.0255741
-0.914654	o k e y	-0.0149174
-0.374847	o k e o	-0.0447701
-0.578421	o k e e	-0.0335695
-1.19097	l k e c	-0.0149174
-0.548619	l k e o	-0.0149174
-0.548619	y k e o	-0.0149174
-0.503794	y k e e	-0.0149174
-0.531326	e k e o	-0.0149174
-0.722407	t e e o	-0.0149174
-0.921451	t e e a	-0.0149174
-0.628478	t e e e	-0.0149174
-0.514681	k e e y	-0.0397908
-0.734609	k e e o	-0.0149174
-1.1621	h e e </unk>
-0.43626	h e e y	-0.0397908
-1.00009	h e e a	-0.0149174
-0.596105	o e e e	-0.0149174
-1.12721	e e e </unk>
-0.975619	e e e a	-0.0149174
-0.710607	e e e s	-0.0255741
-0.706966	l e e o	-0.0149174
-1.35488	l e e m	-0.0149174
-0.558092	s e e y	-0.0149174
-0.614475	s e e e	-0.0149174
-0.596105	y e e e	-0.0149174
-0.921451	r e e a	-0.0149174
-1.40551	r e e n	-0.0149174
-1.0568	r e e s	-0.0149174
-0.91582	o i e s	-0.0149174
-0.554672	l o e e	-0.0149174
-0.84824	q o e </unk>
-1.01109	o l e k	-0.0149174
-0.533358	o l e e	-0.0149174
-0.516292	a l e e	-0.0149174
-0.522089	o l t c	-0.0149174
-0.74913	m y t e	-0.0335695
-0.583263	r y t c	-0.0149174
-0.84587	r y t o	-0.0149174
-0.9113	e y t </unk>
-0.84587	e y t o	-0.0149174
-0.965647	d y t a	-0.0149174
-1.14579	d y t s	-0.0149174
-0.583263	l y t c	-0.0149174
-0.84587	l y t o	-0.0149174
-0.565423	a y t c	-0.0149174
-0.416209	h y t c	-0.0255741
-0.891619	y y t y	-0.0149174
-1.01919	y c t </unk>
-0.251222	y c t h	-0.0335695
-0.231061	l c t h	-0.0397908
-1.00153	<unk> c t </unk>
-0.258193	<unk> c t h	-0.0255741
-0.245071	n c t h	-0.0255741
-0.239105	r c t h	-0.0397908
-0.253329	m c t h	-0.0149174
-0.253329	h c t h	-0.0149174
-0.253329	o c t h	-0.0149174
-0.741371	h e t y	-0.0149174
-0.322785	k o t c	-0.0149174
-0.687532	p o t o	-0.0149174
-0.648592	y o t o	-0.0255741
-0.326769	r o t c	-0.0335695
-1.10181	r o t a	-0.0149174
-1.16151	r o t e	-0.0149174
-0.30908	m o t c	-0.0397908
-1.10181	m o t a	-0.0149174
-0.311329	h o t c	-0.0255741
-0.303105	n o t c	-0.0335695
-1.28131	q o t </unk>
-0.475539	q o t c	-0.0149174
-1.2875	q o t y	-0.0149174
-0.860818	q o t o	-0.0149174
-1.2272	q o t a	-0.0149174
-0.588653	q o t e	-0.0397908
-1.50835	q o t s	-0.0149174
-0.687532	d o t o	-0.0149174
-0.701792	s h t y	-0.0149174
-0.701792	<unk> h t y	-0.0149174
-0.834107	c h t a	-0.0149174
-0.522089	o m t c	-0.0149174
-0.599648	r o l c	-0.0149174
-0.994962	r o l y	-0.0149174
-1.23959	r o l q	-0.0149174
-1.46076	k o l </unk>
-1.37876	k o l k	-0.0149174
-0.674403	k o l c	-0.0255741
-0.884325	k o l o	-0.0149174
-0.603316	k o l d	-0.0335695
-0.712517	k o l s	-0.0255741
-0.641709	e o l c	-0.0335695
-0.783857	e o l o	-0.0397908
-0.710597	e o l d	-0.0335695
-1.53966	e o l e	-0.0149174
-0.719677	e o l s	-0.0335695
-1.41521	e o l q	-0.0149174
-0.757816	t o l o	-0.0149174
-0.656236	t o l d	-0.0149174
-0.994962	s o l y	-0.0149174
-1.3305	s o l e	-0.0149174
-0.791833	s o l s	-0.0149174
-0.945047	y o l y	-0.0149174
-0.757816	n o l o	-0.0149174
-0.775114	n o l s	-0.0149174
-0.61037	<unk> o l c	-0.0149174
-1.01245	<unk> o l y	-0.0149174
-1.53689	<unk> o l f	-0.0149174
-0.80508	<unk> o l s	-0.0149174
-0.61037	l o l c	-0.0149174
-1.01245	l o l y	-0.0149174
-1.51613	l o l t	-0.0149174
-0.80508	l o l s	-0.0149174
-1.60246	h o l </unk>
-1.07989	h o l k	-0.0397908
-0.68485	h o l c	-0.0882536
-1.16712	h o l y	-0.0255741
-0.889872	h o l o	-0.0447701
-0.688234	h o l d	-0.0575852
-1.8898	h o l a	-0.0149174
-0.756757	h o l s	-0.0522434
-1.23842	h o l q	-0.0335695
-1.34779	d o l k	-0.0149174
-0.617835	d o l c	-0.0335695
-0.642283	d o l o	-0.0335695
-0.712681	d o l d	-0.0255741
-0.568143	o o l c	-0.0149174
-0.586028	p o l c	-0.0149174
-0.757816	p o l o	-0.0149174
-0.600855	d a l c	-0.0255741
-0.935114	d a l y	-0.0149174
-0.833046	d a l o	-0.0149174
-0.68376	d a l d	-0.0149174
-0.893672	d a l s	-0.0149174
-0.622413	o a l d	-0.0149174
-1.22182	k a l </unk>
-0.64127	k a l d	-0.0149174
-0.622413	t a l d	-0.0149174
-0.574319	<unk> a l c	-0.0149174
-0.579145	h a l c	-0.0255741
-0.667003	h a l d	-0.0149174
-1.25008	h a l e	-0.0149174
-0.853424	r a l y	-0.0149174
-0.816117	s a l s	-0.0149174
-0.63886	i i l d	-0.0149174
-0.678031	y d l s	-0.0149174
-0.678031	o r l s	-0.0149174
-1.2465	i i n </unk>
-1.72446	i i n k	-0.0149174
-0.420985	i i n c	-0.0682801
-1.13172	i i n y	-0.0255741
-1.10875	i i n o	-0.0488457
-0.903587	i i n d	-0.0335695
-0.766453	i i n s	-0.0522434
-1.13673	i i n q	-0.0335695
-0.597292	<unk> i n s	-0.0149174
-1.09199	a i n </unk>
-0.635405	a i n c	-0.0255741
-0.979828	a i n y	-0.0149174
-0.700966	a i n d	-0.0335695
-0.668509	a i n s	-0.0149174
-0.815108	d a n y	-0.0149174
-0.921091	d a n o	-0.0149174
-0.611641	d a n s	-0.0149174
-0.75942	h a n d	-0.0255741
-0.611641	h a n s	-0.0149174
-0.5667	r a n c	-0.0149174
-0.67575	e e n y	-0.0149174

\5-grams:
-0.462121	r a m k o	-0.000727878
-0.933267	<unk> s h k a	-0.000727878
-0.669624	l c h k y	-0.000727878
-0.761644	i i n k c	-0.000727878
-0.824528	h o l k y	-0.000727878
-0.476015	h o l k o	-0.00129829
-0.657938	h o l k e	-0.000727878
-0.655656	k o l k e	-0.000727878
-0.941537	d o l k </unk>
-0.506255	d y o k o	-0.000727878
-0.933646	e y o k a	-0.000727878
-1.09387	c h o k </unk>
-0.910677	c h o k c	-0.000727878
-0.943517	c h o k y	-0.000727878
-0.45203	c h o k o	-0.00129829
-0.737436	c h o k e	-0.00129829
-0.450138	s h o k o	-0.000727878
-0.526194	<unk> l o k a	-0.000727878
-1.10287	o l o k </unk>
-0.963215	o l o k y	-0.000727878
-0.526457	o l o k a	-0.00129829
-0.403655	o r o k o	-0.00175736
-0.722485	i r o k e	-0.000727878
-0.406008	a r o k o	-0.000727878
-0.723469	a r o k e	-0.000727878
-0.685697	o m o k e	-0.000727878
-0.933646	a m o k a	-0.000727878
-0.58293	y q o k o	-0.000727878
-0.532866	y q o k e	-0.00245054
-0.977835	l q o k y	-0.000727878
-0.579898	o q o k o	-0.000727878
-0.87091	n q o k c	-0.000727878
-1.39074	n q o k s	-0.000727878
-0.866121	<unk> q o k c	-0.00129829
-0.579898	m q o k o	-0.000727878
-0.489639	i n o k o	-0.000727878
-0.21923	a o c k h	-0.000727878
-0.218555	h o c k h	-0.00175736
-0.394323	h y c k h	-0.000727878
-0.394323	e y c k h	-0.000727878
-0.939726	o r c k </unk>
-0.4262	a r c k h	-0.000727878
-0.410583	c h c k h	-0.000727878
-0.410583	h a c k h	-0.000727878
-0.710095	s h e k y	-0.000727878
-0.64167	c h e k e	-0.000727878
-0.949229	o l e k s	-0.000727878
-0.746409	h y d k </unk>
-0.509714	<unk> h y k o	-0.000727878
-0.812912	c h y k c	-0.000727878
-0.78634	c h y k y	-0.000727878
-0.509714	t h y k o	-0.000727878
-0.478496	e y y k o	-0.00129829
-0.918525	m s y k </unk>
-0.756179	i n y k y	-0.000727878
-1.12407	a n y k s	-0.000727878
-0.757196	o l y k y	-0.000727878
-0.519591	o l y k o	-0.000727878
-0.720364	h e y k e	-0.000727878
-0.781799	e e y k c	-0.000727878
-0.699994	h o y k e	-0.000727878
-0.759972	h t y k c	-0.000727878
-0.689949	d a r k y	-0.000727878
-0.519856	e o r k o	-0.000727878
-0.836921	h o r k c	-0.000727878
-0.128205	l k e c h	-0.000727878
-0.128205	s h e c h	-0.000727878
-0.143084	d o l c h	-0.00129829
-0.7861	d o l c t	-0.000727878
-1.20666	h o l c </unk>
-0.132508	h o l c h	-0.00175736
-0.814086	h o l c t	-0.00175736
-0.142672	l o l c h	-0.000727878
-0.142672	o o l c h	-0.000727878
-0.142672	p o l c h	-0.000727878
-1.17061	k o l c </unk>
-0.143351	k o l c h	-0.000727878
-0.143084	e o l c h	-0.00129829
-0.7861	e o l c t	-0.000727878
-0.142672	<unk> o l c h	-0.000727878
-0.142672	r o l c h	-0.000727878
-0.145641	<unk> a l c h	-0.000727878
-0.145414	d a l c h	-0.00129829
-0.145414	h a l c h	-0.00129829
-0.770448	d a o c k	-0.000727878
-0.557631	k h o c k	-0.00129829
-0.22493	<unk> h o c h	-0.000727878
-0.559124	s h o c k	-0.000727878
-0.147473	o t o c h	-0.000727878
-0.147473	y s o c h	-0.000727878
-0.147473	h y o c h	-0.000727878
-0.147473	o l o c h	-0.000727878
-0.147473	r q o c h	-0.000727878
-0.862127	a m o c t	-0.000727878
-0.091989	h y d c h	-0.000727878
-0.091989	<unk> y d c h	-0.000727878
-0.0945417	n d d c h	-0.000727878
-0.0945417	o l d c h	-0.000727878
-0.847689	s h a c k	-0.000727878
-0.113017	h a m c h	-0.00175736
-0.870529	h a m c t	-0.000727878
-0.0889953	k o m c h	-0.000727878
-0.0888657	h o m c h	-0.00129829
-0.107337	i i m c h	-0.000727878
-1.22902	h a r c f	-0.000727878
-0.145746	d a r c h	-0.00175736
-1.15714	e a r c k	-0.000727878
-1.28475	a i r c p	-0.000727878
-0.123529	a o r c h	-0.000727878
-0.123067	d o r c h	-0.00213477
-1.30903	h o r c k	-0.000727878
-0.124606	h o r c h	-0.00271863
-0.96441	h o r c t	-0.00175736
-1.39907	h o r c f	-0.000727878
-0.122964	e o r c h	-0.00175736
-0.123529	r o r c h	-0.000727878
-0.123529	k o r c h	-0.000727878
-1.204	c h r c </unk>
-0.932149	n c h c k	-0.000727878
-0.733036	n c h c t	-0.000727878
-0.169404	o s h c h	-0.000727878
-0.0933987	i i n c h	-0.0257975
-0.978923	i i n c t	-0.00129829
-1.58839	i i n c p	-0.000727878
-0.0931185	a i n c h	-0.00129829
-0.107438	r a n c h	-0.000727878
-0.0845566	y y p c h	-0.000727878
-0.0822997	e o p c h	-0.000727878
-0.0822997	l o p c h	-0.000727878
-0.0822997	o m p c h	-0.000727878
-0.0822997	a m p c h	-0.000727878
-0.0952684	i n k c h	-0.000727878
-0.0908131	t y k c h	-0.000727878
-0.0908131	e y k c h	-0.000727878
-0.0908131	h y k c h	-0.000727878
-0.0893789	h o k c h	-0.000727878
-0.089144	q o k c h	-0.00175736
-0.0952684	o r k c h	-0.000727878
-0.0720388	o l t c h	-0.000727878
-0.0478233	k o t c h	-0.000727878
-0.0477036	r o t c h	-0.0461323
-1.5351	m o t c </unk>
-0.0482543	m o t c h	-0.00175736
-0.0477569	h o t c h	-0.00129829
-0.0477036	n o t c h	-0.00175736
-0.0478233	q o t c h	-0.000727878
-0.0668645	l y t c h	-0.000727878
-0.0668645	a y t c h	-0.000727878
-0.0667696	h y t c h	-0.00129829
-0.0668645	r y t c h	-0.000727878
-0.0720388	o m t c h	-0.000727878
-0.0895186	o l y c h	-0.000727878
-0.0895186	a l y c h	-0.000727878
-0.0895186	<unk> l y c h	-0.000727878
-0.0939033	h y y c h	-0.000727878
-0.0939033	h s y c h	-0.000727878
-0.0939033	h r y c h	-0.000727878
-0.0862677	h e y c h	-0.00245054
-1.32067	e e y c k	-0.000727878
-0.0878492	e e y c h	-0.000727878
-0.997521	e e y c t	-0.000727878
-0.0939033	e a y c h	-0.000727878
-1.29017	k h y c k	-0.000727878
-0.901375	t h y c t	-0.000727878
-0.111478	s h y c h	-0.00129829
-1.48275	c h y c </unk>
-0.112232	c h y c h	-0.00213477
-0.905551	c h y c t	-0.000727878
-0.0779549	o k y c h	-0.00129829
-0.0780671	l k y c h	-0.000727878
-0.106946	e t y c h	-0.000727878
-0.865131	y t y c t	-0.000727878
-0.0778129	o d y c h	-0.00175736
-0.0780152	i d y c h	-0.000727878
-0.0939033	i n y c h	-0.000727878
-0.0684911	i e s c h	-0.000727878
-0.0684911	<unk> e s c h	-0.000727878
-0.0684911	e e s c h	-0.000727878
-0.0684911	d y s c h	-0.000727878
-0.0684911	h y s c h	-0.000727878
-0.0684911	l y s c h	-0.000727878
-0.0698718	e o s c h	-0.000727878
-0.0698718	q o s c h	-0.000727878
-0.071759	o l s c h	-0.000727878
-0.917772	k e c h y	-0.000727878
-0.294367	h e c h o	-0.000727878
-0.666197	<unk> o c h e	-0.000727878
-0.287854	t o c h o	-0.000727878
-0.287854	s o c h o	-0.000727878
-0.287854	y o c h o	-0.000727878
-0.287854	h o c h o	-0.000727878
-0.666197	l o c h e	-0.000727878
-0.666197	q o c h e	-0.000727878
-1.18429	o l c h </unk>
-0.954026	o l c h y	-0.00175736
-0.261593	o l c h o	-0.00294909
-0.811215	o l c h e	-0.000727878
-0.261642	<unk> l c h o	-0.000727878
-0.806404	<unk> l c h e	-0.000727878
-1.83795	a l c h k	-0.000727878
-0.951824	a l c h y	-0.00129829
-0.263083	a l c h o	-0.000727878
-1.11558	a l c h a	-0.000727878
-1.25177	a r c h </unk>
-0.214475	a r c h o	-0.00129829
-0.213696	o r c h o	-0.024843
-1.09043	o r c h a	-0.00129829
-0.828036	o r c h e	-0.00175736
-0.280043	s h c h o	-0.000727878
-0.25771	a m c h o	-0.000727878
-0.972386	a m c h a	-0.00129829
-0.256653	o m c h o	-0.00129829
-0.774376	o m c h e	-0.000727878
-0.256425	<unk> m c h o	-0.000727878
-0.256425	i m c h o	-0.000727878
-1.1976	i n c h </unk>
-1.77242	i n c h c	-0.00129829
-0.265958	i n c h o	-0.00332487
-1.02998	i n c h a	-0.000727878
-0.766396	i n c h e	-0.00129829
-1.02206	a n c h a	-0.000727878
-0.294675	y p c h o	-0.000727878
-1.10791	o p c h </unk>
-0.2954	o p c h o	-0.000727878
-0.6884	m p c h e	-0.00129829
-0.294675	<unk> p c h o	-0.000727878
-1.66151	<unk> k c h r	-0.000727878
-0.282398	n k c h o	-0.000727878
-0.282576	y k c h o	-0.00129829
-0.747608	y k c h e	-0.000727878
-1.17007	o k c h </unk>
-1.03551	o k c h y	-0.000727878
-0.284175	o k c h o	-0.000727878
-0.748275	o k c h e	-0.000727878
-1.05139	r k c h a	-0.000727878
-0.734879	l t c h e	-0.000727878
-1.21049	o t c h </unk>
-1.02887	o t c h y	-0.000727878
-0.288959	o t c h o	-0.00245054
-0.974419	o t c h a	-0.00213477
-0.738447	o t c h e	-0.00129829
-1.0257	y t c h y	-0.000727878
-0.288793	y t c h o	-0.000727878
-0.977336	y t c h a	-0.000727878
-0.737888	y t c h e	-0.000727878
-0.287563	<unk> t c h o	-0.000727878
-0.287563	m t c h o	-0.000727878
-0.22417	l y c h o	-0.00129829
-1.85267	l y c h t	-0.000727878
-0.2235	<unk> y c h o	-0.00129829
-0.817484	y y c h e	-0.000727878
-0.223885	s y c h o	-0.000727878
-0.223885	r y c h o	-0.000727878
-0.224815	e y c h o	-0.00175736
-1.11246	e y c h a	-0.000727878
-0.818292	e y c h e	-0.00129829
-1.26349	a y c h </unk>
-0.201934	h y c h o	-0.00245054
-2.04726	h y c h p	-0.000727878
-0.223192	k y c h o	-0.00175736
-1.11818	t y c h y	-0.000727878
-0.222938	d y c h o	-0.00213477
-1.10696	n y c h a	-0.000727878
-1.63998	e s c h r	-0.000727878
-0.314167	e s c h o	-0.000727878
-0.658739	e s c h e	-0.000727878
-0.314167	y s c h o	-0.000727878
-1.0235	y s c h a	-0.000727878
-0.658739	y s c h e	-0.000727878
-0.313579	o s c h o	-0.000727878
-0.657993	o s c h e	-0.000727878
-0.657067	l s c h e	-0.000727878
-0.269722	y d c h o	-0.00129829
-0.270213	<unk> d c h o	-0.000727878
-0.270213	d d c h o	-0.000727878
-0.966823	l d c h y	-0.000727878
-0.442361	r c f h a	-0.00129829
-0.459935	o c k h y	-0.00175736
-0.430799	o c k h o	-0.000727878
-0.427914	y c k h o	-0.00129829
-0.428873	h c k h o	-0.000727878
-0.428873	a c k h o	-0.000727878
-0.461051	r c k h y	-0.000727878
-0.448907	l c t h o	-0.00175736
-0.900734	l c t h e	-0.000727878
-0.439878	r c t h y	-0.00129829
-0.450406	r c t h o	-0.00129829
-1.36543	m c t h </unk>
-0.440826	y c t h y	-0.000727878
-0.451387	y c t h o	-0.000727878
-1.12811	y c t h a	-0.000727878
-0.440193	n c t h y	-0.000727878
-0.898988	n c t h e	-0.000727878
-0.438411	<unk> c t h y	-0.00129829
-0.439408	h c t h y	-0.000727878
-0.439408	o c t h y	-0.000727878
-0.57079	o i s h e	-0.000727878
-0.337783	o m s h o	-0.00175736
-0.390563	a r s h o	-0.00129829
-0.927946	o r s h y	-0.000727878
-0.939697	o r s h a	-0.000727878
-0.630333	o r s h e	-0.000727878
-1.43888	i r s h t	-0.000727878
-0.935503	h y s h y	-0.000727878
-0.398568	h y s h o	-0.000727878
-0.397802	<unk> y s h o	-0.000727878
-0.947381	o y s h a	-0.000727878
-0.606308	o y s h e	-0.000727878
-1.24619	r y s h </unk>
-0.605422	d y s h e	-0.000727878
-1.21797	y s s h </unk>
-0.588288	y s s h e	-0.000727878
-0.405592	l s s h o	-0.000727878
-0.588288	l s s h e	-0.000727878
-0.927172	m s s h a	-0.000727878
-0.372835	i n s h o	-0.00175736
-0.879021	i n s h a	-0.000727878
-0.631432	i n s h e	-0.000727878
-0.875518	<unk> n s h a	-0.000727878
-0.952198	h o s h y	-0.000727878
-0.316968	h o s h o	-0.000727878
-1.46469	m o s h c	-0.000727878
-0.316968	m o s h o	-0.000727878
-0.316236	<unk> o s h o	-0.000727878
-0.436332	o l s h o	-0.00213477
-0.442025	o l s h e	-0.00245054
-1.00487	r l s h y	-0.000727878
-0.36312	y k s h o	-0.000727878
-0.888536	e k s h y	-0.000727878
-0.36312	o k s h o	-0.000727878
-0.419424	y t s h e	-0.000727878
-0.419424	o t s h e	-0.000727878
-0.374944	r c p h o	-0.000727878
-0.808555	k c h r y	-0.000727878
-0.448385	s c h r c	-0.000727878
-0.502475	c h a r c	-0.000727878
-1.12683	f h a r a	-0.000727878
-1.15144	s h a r </unk>
-1.23726	o d a r k	-0.000727878
-0.488179	o d a r c	-0.000727878
-0.956003	o d a r s	-0.000727878
-0.487527	l d a r c	-0.000727878
-0.706194	l d a r o	-0.000727878
-0.487527	y d a r c	-0.000727878
-0.954976	y d a r s	-0.000727878
-0.63681	e o a r o	-0.000727878
-1.14204	h e a r e	-0.000727878
-0.557873	e e a r c	-0.000727878
-0.514114	e e a r o	-0.00129829
-1.02867	o p o r a	-0.000727878
-0.725991	o k o r o	-0.000727878
-0.424382	r k o r c	-0.000727878
-0.725991	a r o r o	-0.000727878
-0.424382	o r o r c	-0.000727878
-0.478756	s h o r c	-0.00129829
-0.625047	s h o r o	-0.00129829
-1.54435	c h o r </unk>
-1.559	c h o r k	-0.000727878
-0.479469	c h o r c	-0.00348008
-1.29157	c h o r y	-0.000727878
-0.628578	c h o r o	-0.00245054
-1.02825	c h o r d	-0.00213477
-1.33443	c h o r a	-0.000727878
-1.86795	c h o r l	-0.000727878
-1.27433	c h o r s	-0.000727878
-1.05469	c h o r q	-0.00175736
-0.625075	k h o r o	-0.000727878
-1.27687	t h o r y	-0.000727878
-1.04824	<unk> h o r q	-0.000727878
-0.408785	t a o r c	-0.000727878
-0.985834	o * o r s	-0.000727878
-0.314297	l d o r c	-0.00129829
-0.314904	y d o r c	-0.000727878
-0.314904	n d o r c	-0.000727878
-1.01545	a l o r s	-0.000727878
-1.0603	o l o r a	-0.000727878
-1.0603	r y o r a	-0.000727878
-1.20352	h y o r </unk>
-1.37152	h e o r k	-0.000727878
-0.355236	h e o r c	-0.00245054
-1.01411	h e o r q	-0.000727878
-1.4044	e e o r e	-0.000727878
-0.547999	d a i r c	-0.000727878
-0.951215	d a i r y	-0.000727878
-0.749607	d a i r o	-0.000727878
-1.06083	d a i r d	-0.000727878
-0.996344	d a i r s	-0.000727878
-1.16948	d a i r q	-0.000727878
-0.680995	a i i r o	-0.000727878
-0.550749	h e y y k	-0.000727878
-0.550749	k e y y k	-0.000727878
-1.11214	i n y y p	-0.000727878
-0.621139	t h y y c	-0.000727878
-0.869416	c h y y t	-0.000727878
-0.610895	h o k y c	-0.000727878
-0.610895	q o k y c	-0.000727878
-0.389823	l o k y d	-0.000727878
-0.624022	o l k y c	-0.000727878
-0.363285	a r k y d	-0.000727878
-0.364215	n y k y d	-0.000727878
-0.364215	l y k y d	-0.000727878
-0.973931	h y k y s	-0.000727878
-0.363285	h e k y d	-0.000727878
-0.363285	c h k y d	-0.000727878
-1.02939	o t o y </unk>
-0.657112	o t o y s	-0.000727878
-0.637139	n q o y s	-0.000727878
-0.801061	<unk> h o y k	-0.000727878
-0.656187	k h o y s	-0.000727878
-0.637139	a m o y s	-0.000727878
-0.528005	c h s y c	-0.000727878
-0.715454	a m s y k	-0.000727878
-0.52707	h e t y c	-0.000727878
-0.789277	s h t y k	-0.000727878
-0.731621	<unk> h t y d	-0.000727878
-0.908844	q o t y o	-0.000727878
-0.52707	y y t y c	-0.000727878
-0.854607	r a l y t	-0.000727878
-0.516698	d a l y c	-0.000727878
-0.727657	h o l y k	-0.00129829
-1.00826	l o l y s	-0.000727878
-0.593315	<unk> o l y c	-0.000727878
-0.672525	y o l y d	-0.000727878
-0.672525	s o l y d	-0.000727878
-0.948228	r o l y t	-0.000727878
-1.07457	a i n y y	-0.000727878
-0.734921	i i n y k	-0.000727878
-0.604904	i i n y c	-0.000727878
-0.698045	d a n y k	-0.000727878
-1.13352	e e n y e	-0.000727878
-0.582286	c h r y c	-0.000727878
-0.950404	h o r y o	-0.000727878
-0.784891	h o r y t	-0.000727878
-0.82249	<unk> a r y s	-0.000727878
-0.761966	a i r y t	-0.000727878
-0.380871	r a m y t	-0.000727878
-0.380871	e a m y t	-0.000727878
-0.396285	e o m y t	-0.000727878
-0.497266	c h e y c	-0.00245054
-0.769684	c h e y d	-0.00129829
-0.909724	c h e y q	-0.000727878
-1.02479	t h e y k	-0.000727878
-1.14802	t h e y y	-0.000727878
-1.24888	s h e y o	-0.000727878
-0.769481	s h e y d	-0.000727878
-0.906787	s h e y q	-0.000727878
-0.535835	h e e y c	-0.00129829
-0.840371	h e e y d	-0.000727878
-0.703015	h e e y q	-0.00129829
-0.537668	k e e y c	-0.000727878
-1.09127	k e e y t	-0.000727878
-0.700336	k e e y q	-0.00129829
-1.02914	s e e y k	-0.000727878
-0.992901	o k e y y	-0.000727878
-0.528005	e e a y c	-0.000727878
-0.768141	o k a y t	-0.000727878
-0.918599	<unk> c h y k	-0.000727878
-0.84405	<unk> c h y d	-0.000727878
-1.35313	l c h y </unk>
-0.502301	l c h y c	-0.00175736
-0.846308	l c h y d	-0.000727878
-0.502943	e c h y c	-0.000727878
-0.502943	d c h y c	-0.000727878
-0.917382	y c h y k	-0.000727878
-0.503763	t c h y c	-0.000727878
-1.08362	t c h y t	-0.000727878
-1.33093	k c h y y	-0.000727878
-0.54444	c k h y c	-0.000727878
-1.10493	c k h y o	-0.000727878
-1.01146	c k h y t	-0.000727878
-0.899718	c k h y s	-0.000727878
-0.938008	c t h y k	-0.000727878
-0.571112	c t h y c	-0.000727878
-1.29555	c t h y y	-0.000727878
-1.16005	c t h y o	-0.000727878
-0.859062	c t h y d	-0.000727878
-0.884207	c t h y s	-0.00129829
-1.02142	c t h y q	-0.000727878
-0.809277	y s h y d	-0.000727878
-0.441665	o s h y c	-0.000727878
-0.441665	l s h y c	-0.000727878
-0.809277	r s h y d	-0.000727878
-1.02068	k s h y q	-0.000727878
-1.36286	k o d y </unk>
-0.879138	k o d y o	-0.000727878
-0.879595	k o d y s	-0.000727878
-1.11561	k o d y p	-0.000727878
-0.876276	t o d y o	-0.000727878
-0.61702	h o d y c	-0.000727878
-0.880799	h o d y o	-0.000727878
-0.897642	h o d y d	-0.00129829
-0.944765	h o d y t	-0.000727878
-0.881257	h o d y s	-0.000727878
-1.11789	h o d y p	-0.000727878
-0.613543	<unk> o d y c	-0.000727878
-0.939878	l o d y t	-0.000727878
-0.614435	e o d y c	-0.000727878
-1.38814	e o d y q	-0.000727878
-0.555425	i i d y c	-0.000727878
-0.734947	i l d y d	-0.000727878
-0.862237	p a d y s	-0.000727878
-0.969573	o k e o d	-0.000727878
-0.346177	o k e o l	-0.000727878
-1.00527	o k e o m	-0.00129829
-1.19064	o k e o s	-0.000727878
-0.343932	y k e o l	-0.000727878
-0.343932	l k e o l	-0.000727878
-0.343932	e k e o l	-0.000727878
-0.312135	o t e o l	-0.00129829
-0.927025	y t e o d	-0.000727878
-0.507177	c h e o r	-0.00271863
-1.11752	c h e o d	-0.000727878
-0.465715	c h e o l	-0.00245054
-1.69105	c h e o p	-0.000727878
-0.510308	s h e o r	-0.000727878
-1.618	s h e o a	-0.000727878
-0.464942	s h e o l	-0.00175736
-1.34656	s h e o s	-0.000727878
-1.14543	k e e o </unk>
-0.400784	t e e o l	-0.000727878
-1.01067	l e e o r	-0.000727878
-0.719216	a l d o r	-0.00129829
-0.417846	a l d o l	-0.000727878
-0.413595	o l d o l	-0.00294909
-1.24741	o l d o m	-0.000727878
-0.680588	i n d o r	-0.000727878
-0.984358	i n d o t	-0.000727878
-1.21463	h o d o a	-0.000727878
-0.468615	h o d o l	-0.000727878
-0.679643	e y d o r	-0.000727878
-1.26269	<unk> y d o i	-0.000727878
-0.895875	y d a o c	-0.000727878
-0.763593	y t a o r	-0.000727878
-1.05099	o d y o </unk>
-0.968628	o d y o k	-0.000727878
-0.771081	o d y o t	-0.000727878
-0.625793	<unk> d y o l	-0.000727878
-0.69905	o r y o r	-0.000727878
-0.903392	h e y o k	-0.000727878
-0.719811	o t y o t	-0.000727878
-0.719399	k h y o r	-0.000727878
-1.06112	t h y o c	-0.000727878
-0.690582	o l k o d	-0.000727878
-0.477199	o l k o l	-0.000727878
-0.752071	y o k o d	-0.000727878
-0.7539	h o k o d	-0.000727878
-1.53196	h o k o i	-0.000727878
-0.384038	h o k o l	-0.000727878
-1.10897	r o k o r	-0.000727878
-0.383252	r o k o l	-0.00129829
-1.3438	r o k o m	-0.000727878
-0.7539	q o k o d	-0.000727878
-0.382624	q o k o l	-0.00129829
-0.382667	n o k o l	-0.000727878
-1.3966	h y k o o	-0.000727878
-1.10548	h y k o t	-0.000727878
-0.735192	y y k o d	-0.000727878
-0.489059	y y k o l	-0.000727878
-0.488247	<unk> y k o l	-0.000727878
-1.10751	l y k o a	-0.000727878
-1.00502	a m k o a	-0.000727878
-0.927855	o r k o r	-0.000727878
-0.95016	<unk> a r o r	-0.000727878
-1.17441	o a r o m	-0.000727878
-0.769649	d a r o k	-0.000727878
-0.77068	e a r o k	-0.000727878
-0.932083	e a r o t	-0.000727878
-1.19923	r o r o </unk>
-0.623503	h o r o k	-0.00175736
-1.10432	h o r o r	-0.000727878
-0.631935	h o r o l	-0.000727878
-0.67608	h o r o t	-0.00129829
-1.61359	h o r o f	-0.000727878
-0.613539	<unk> o r o t	-0.000727878
-0.567643	k o r o l	-0.000727878
-0.479603	i i r o l	-0.000727878
-0.781912	a i r o k	-0.000727878
-0.590988	n o l o l	-0.000727878
-0.899082	d o l o </unk>
-1.26584	d o l o d	-0.000727878
-0.592568	d o l o l	-0.000727878
-0.90053	h o l o </unk>
-0.684803	h o l o k	-0.00129829
-1.31029	h o l o c	-0.000727878
-1.56413	h o l o e	-0.000727878
-1.51434	p o l o p	-0.000727878
-1.31036	t o l o m	-0.000727878
-1.06184	k o l o r	-0.000727878
-0.89987	e o l o </unk>
-0.684069	e o l o k	-0.00129829
-0.593148	e o l o l	-0.000727878
-0.869112	d a l o r	-0.000727878
-0.73508	h o * o r	-0.000727878
-1.09857	h a m o </unk>
-1.16674	d a m o c	-0.000727878
-1.30046	d a m o y	-0.000727878
-0.651552	d a m o t	-0.000727878
-1.17374	d a m o s	-0.000727878
-1.02908	k a m o k	-0.000727878
-0.584946	h o m o t	-0.00129829
-1.1726	h o m o s	-0.000727878
-1.34074	<unk> o m o p	-0.000727878
-1.02908	e o m o k	-0.000727878
-0.585626	l o m o t	-0.000727878
-0.974693	d y s o c	-0.000727878
-0.374472	o l s o l	-0.000727878
-0.359563	i n s o l	-0.00129829
-0.924627	e m s o </unk>
-0.836297	o l f o d	-0.000727878
-0.550221	o c h o r	-0.00129829
-0.535389	o c h o l	-0.00129829
-0.551554	p c h o r	-0.000727878
-0.534656	p c h o l	-0.00129829
-1.23134	n c h o k	-0.000727878
-0.549953	n c h o r	-0.00213477
-0.538972	n c h o l	-0.000727878
-1.50694	n c h o t	-0.000727878
-1.17499	n c h o m	-0.00129829
-0.550871	<unk> c h o r	-0.000727878
-0.535988	<unk> c h o l	-0.000727878
-0.809081	h c h o d	-0.000727878
-0.550845	m c h o r	-0.00129829
-0.536002	m c h o l	-0.00129829
-2.04067	m c h o q	-0.000727878
-1.40206	r c h o </unk>
-0.553042	r c h o r	-0.00175736
-0.811855	r c h o d	-0.042393
-0.534485	r c h o l	-0.00271863
-1.51086	r c h o t	-0.000727878
-0.550022	e c h o r	-0.000727878
-1.22738	k c h o k	-0.000727878
-0.550221	k c h o r	-0.00129829
-1.17688	k c h o m	-0.000727878
-0.549437	t c h o r	-0.00245054
-0.811105	t c h o d	-0.00129829
-0.537359	t c h o l	-0.00129829
-0.901241	y c h o k	-0.00213477
-0.583295	y c h o r	-0.0366773
-0.844902	y c h o d	-0.00175736
-0.568499	y c h o l	-0.00271863
-1.21217	y c h o m	-0.00129829
-0.807254	s c h o d	-0.00129829
-1.17572	s c h o m	-0.000727878
-1.3936	d c h o </unk>
-0.552115	d c h o r	-0.000727878
-0.535389	d c h o l	-0.00129829
-1.23134	l c h o k	-0.000727878
-0.553888	l c h o r	-0.000727878
-0.806849	l c h o d	-0.00213477
-2.03916	l c h o i	-0.000727878
-0.537701	l c h o l	-0.00129829
-0.82235	c k h o c	-0.00129829
-0.617946	c k h o r	-0.000727878
-1.47423	c k h o y	-0.000727878
-0.701457	c k h o l	-0.000727878
-0.585545	c t h o r	-0.000727878
-0.808603	c t h o d	-0.000727878
-0.670431	c t h o l	-0.00129829
-0.998418	c t h o m	-0.00129829
-1.56644	c t h o q	-0.000727878
-0.59235	<unk> s h o r	-0.000727878
-0.608516	<unk> s h o l	-0.000727878
-0.593056	n s h o r	-0.000727878
-0.609231	n s h o l	-0.000727878
-1.249	n s h o s	-0.000727878
-1.25419	l s h o </unk>
-0.605505	l s h o l	-0.00175736
-0.80409	r s h o d	-0.000727878
-0.608516	r s h o l	-0.000727878
-0.593056	m s h o r	-0.000727878
-0.804951	m s h o d	-0.000727878
-1.22588	m s h o m	-0.000727878
-0.59235	y s h o r	-0.000727878
-1.24742	y s h o s	-0.000727878
-1.26912	s s h o k	-0.000727878
-1.2513	k s h o </unk>
-0.608516	k s h o l	-0.000727878
-1.52263	o s h o c	-0.000727878
-0.609231	o s h o l	-0.000727878
-1.93871	o s h o *	-0.000727878
-1.31068	c p h o a	-0.000727878
-0.462284	y q o o l	-0.000727878
-1.0229	y k o o i	-0.000727878
-0.40296	d y p o l	-0.000727878
-0.885317	d y p o t	-0.000727878
-0.851712	m o p o r	-0.000727878
-0.402192	q o p o l	-0.000727878
-0.477441	h y q o k	-0.00129829
-1.55905	h y q o o	-0.000727878
-0.477835	e y q o k	-0.00175736
-0.615526	e y q o t	-0.00175736
-0.477745	d y q o k	-0.000727878
-0.616147	<unk> y q o t	-0.000727878
-0.621244	e s q o t	-0.000727878
-1.16432	o s q o p	-0.000727878
-0.506932	h o q o k	-0.000727878
-0.622141	h o q o t	-0.000727878
-1.18501	i n q o </unk>
-0.499188	i n q o k	-0.000727878
-1.39507	i n q o y	-0.000727878
-0.497714	<unk> n q o k	-0.000727878
-1.20603	o l q o </unk>
-0.539173	o l q o k	-0.000727878
-1.18199	o l q o d	-0.000727878
-0.65806	o l q o t	-0.000727878
-1.34224	o l q o s	-0.000727878
-0.621244	a m q o t	-0.000727878
-0.506111	o m q o k	-0.000727878
-1.34823	o r q o c	-0.000727878
-1.21116	o r q o d	-0.000727878
-0.640443	o r q o t	-0.000727878
-1.54285	o r q o e	-0.000727878
-1.38132	o r q o s	-0.000727878
-1.27601	o r q o p	-0.000727878
-0.637265	i r q o t	-0.000727878
-1.07597	i * q o d	-0.000727878
-0.784439	p o t o y	-0.000727878
-1.21675	y o t o a	-0.000727878
-0.57607	y o t o l	-0.000727878
-1.10308	d o t o c	-0.000727878
-0.784439	q o t o y	-0.000727878
-1.00395	e y t o d	-0.000727878
-0.517437	l y t o l	-0.000727878
-0.97886	r y t o </unk>
-1.03137	i i n o k	-0.000727878
-1.05309	i i n o d	-0.000727878
-0.544847	i i n o l	-0.000727878
-0.718485	i i n o t	-0.00175736
-0.488238	d a n o l	-0.000727878
-0.428675	c h o d y	-0.00271863
-0.977198	c h o d o	-0.000727878
-0.370538	c h o d a	-0.0031493
-0.42853	s h o d y	-0.000727878
-0.371334	s h o d a	-0.000727878
-0.9696	t h o d o	-0.000727878
-0.363795	l f o d a	-0.000727878
-0.395624	l k o d y	-0.000727878
-0.395549	o k o d y	-0.00129829
-0.394407	o k o d a	-0.000727878
-0.395624	y k o d y	-0.000727878
-0.393028	<unk> k o d a	-0.000727878
-0.406897	y t o d y	-0.000727878
-0.390343	k e o d a	-0.000727878
-0.405997	t e o d y	-0.000727878
-0.405997	h e o d y	-0.000727878
-1.0789	i n o d </unk>
-0.406897	o l o d y	-0.000727878
-0.364705	l q o d a	-0.000727878
-0.364705	r q o d a	-0.000727878
-1.14017	* q o d </unk>
-1.14397	c h y d c	-0.000727878
-0.196678	c h y d a	-0.000727878
-1.42801	s h y d k	-0.000727878
-0.196678	s h y d a	-0.000727878
-0.195985	t h y d a	-0.000727878
-0.191666	o d y d a	-0.00129829
-1.38067	l d y d l	-0.000727878
-1.28286	h e y d </unk>
-0.833121	h e y d o	-0.000727878
-0.202953	h e y d a	-0.000727878
-0.201699	e e y d a	-0.000727878
-0.168156	r k y d a	-0.000727878
-0.167886	y k y d a	-0.00129829
-0.168156	e k y d a	-0.000727878
-0.168156	o k y d a	-0.000727878
-0.168156	h k y d a	-0.000727878
-0.185171	h t y d a	-0.000727878
-0.179318	o l y d a	-0.00129829
-0.584999	d a l d o	-0.000727878
-0.227808	o a l d a	-0.000727878
-0.584999	h a l d o	-0.000727878
-0.227808	t a l d a	-0.000727878
-0.584999	k a l d o	-0.000727878
-1.40267	h o l d c	-0.000727878
-0.519254	h o l d o	-0.00129829
-0.247329	h o l d a	-0.00271863
-0.516271	e o l d o	-0.00129829
-0.248644	e o l d a	-0.000727878
-0.516271	k o l d o	-0.00129829
-0.248644	k o l d a	-0.000727878
-0.5167	t o l d o	-0.000727878
-0.517528	d o l d o	-0.000727878
-0.248074	d o l d a	-0.000727878
-0.992678	i i l d y	-0.000727878
-0.191058	a i r d a	-0.000727878
-0.174703	h o r d a	-0.00175736
-0.175401	<unk> o r d a	-0.000727878
-0.224875	h o m d a	-0.000727878
-0.682654	i i n d o	-0.00129829
-0.250497	i i n d a	-0.000727878
-1.31986	a i n d d	-0.000727878
-0.249458	a i n d a	-0.00129829
-0.224846	h a n d a	-0.00129829
-0.996289	a i i d </unk>
-0.787809	a i i d y	-0.000727878
-0.861273	i n d d c	-0.000727878
-0.245487	o k a d a	-0.000727878
-0.764806	h p a d y	-0.000727878
-0.353182	h o l a i	-0.000727878
-0.802212	q o p a </unk>
-1.00708	c h p a d	-0.000727878
-0.799082	p h o a l	-0.000727878
-0.366777	o t o a i	-0.000727878
-0.353028	m k o a i	-0.000727878
-0.353028	y k o a i	-0.000727878
-0.766511	h e o a r	-0.000727878
-0.871266	o d o a </unk>
-1.322	h o d a </unk>
-0.887383	h o d a r	-0.00129829
-0.307455	h o d a i	-0.00245054
-0.888698	h o d a l	-0.000727878
-0.960073	h o d a m	-0.000727878
-1.33342	f o d a n	-0.000727878
-0.886058	k o d a r	-0.000727878
-0.884532	k o d a l	-0.000727878
-0.306381	e o d a i	-0.000727878
-0.305798	q o d a i	-0.00129829
-1.62871	d y d a o	-0.000727878
-1.04864	d y d a l	-0.000727878
-0.912463	<unk> y d a r	-0.000727878
-0.26426	<unk> y d a i	-0.000727878
-0.262718	k y d a i	-0.00245054
-0.946585	k y d a m	-0.000727878
-0.263546	t y d a i	-0.000727878
-0.263071	e y d a i	-0.00129829
-0.26376	h y d a i	-0.00129829
-1.04981	h y d a l	-0.000727878
-0.912463	l y d a r	-0.000727878
-0.26426	l y d a i	-0.000727878
-0.820005	i r d a m	-0.000727878
-0.274501	o r d a i	-0.00213477
-0.82269	o r d a m	-0.000727878
-0.812999	o m d a m	-0.000727878
-1.32674	o l d a </unk>
-0.932762	o l d a r	-0.000727878
-0.228598	o l d a i	-0.00294909
-0.928368	a l d a r	-0.000727878
-0.972546	a l d a m	-0.000727878
-0.22915	<unk> l d a i	-0.000727878
-0.274932	i n d a i	-0.00129829
-1.01564	i n d a l	-0.000727878
-0.275456	a n d a i	-0.000727878
-1.22241	a n d a n	-0.000727878
-0.267812	k a d a i	-0.000727878
-0.966022	y c h a r	-0.000727878
-0.619924	y c h a i	-0.000727878
-0.595958	s c h a m	-0.000727878
-1.27852	t c h a </unk>
-0.621736	t c h a i	-0.000727878
-0.718419	t c h a l	-0.00129829
-0.598615	t c h a m	-0.000727878
-0.595958	k c h a m	-0.000727878
-0.619924	n c h a i	-0.000727878
-0.987813	n c h a n	-0.000727878
-0.987813	r c h a n	-0.000727878
-0.719001	r c h a l	-0.000727878
-0.594283	m c h a m	-0.00129829
-0.595958	l c h a m	-0.000727878
-0.827784	c f h a r	-0.000727878
-0.569053	c f h a m	-0.000727878
-0.540869	n s h a i	-0.00129829
-0.927418	r s h a n	-0.000727878
-1.41379	y s h a c	-0.000727878
-0.869931	s s h a r	-0.000727878
-0.85597	c t h a l	-0.000727878
-0.630913	h a r a m	-0.000727878
-0.866589	h o r a l	-0.000727878
-1.08787	y o r a n	-0.000727878
-0.940425	p o r a </unk>
-0.675675	l o r a m	-0.000727878
-1.22365	t e e a y	-0.000727878
-0.465582	e e e a r	-0.000727878
-0.465582	r e e a r	-0.000727878
-0.465582	h e e a r	-0.000727878
-0.521984	<unk> h e a i	-0.000727878
-0.515019	c h e a r	-0.000727878
-0.89414	s h e a m	-0.000727878
-0.850787	y t e a m	-0.000727878
-1.22627	l o k a y	-0.000727878
-0.636724	l o k a l	-0.00129829
-1.22844	y o k a d	-0.000727878
-0.478867	m o k a i	-0.000727878
-0.871294	<unk> y k a m	-0.000727878
-0.394637	s h k a i	-0.000727878
-1.05568	d y t a o	-0.000727878
-0.749066	q o t a </unk>
-0.749066	r o t a </unk>
-0.827296	m o t a l	-0.000727878
-0.415566	c h t a i	-0.000727878
-0.301607	a n s a i	-0.00129829
-0.30218	i n s a i	-0.000727878
-0.270259	o l s a i	-0.00175736
-0.990306	a l s a m	-0.000727878
-0.817473	k y s a l	-0.000727878
-0.321775	q o s a i	-0.000727878
-0.990806	o d a i r	-0.00175736
-0.205592	o d a i i	-0.042393
-0.755387	o d a i n	-0.000727878
-1.68824	l d a i </unk>
-0.998555	l d a i r	-0.000727878
-0.204963	l d a i i	-0.00213477
-1.73247	l d a i m	-0.000727878
-0.204713	y d a i i	-0.0031493
-0.751159	y d a i n	-0.00213477
-0.204848	n d a i i	-0.00129829
-0.752912	n d a i n	-0.000727878
-0.204531	<unk> d a i i	-0.000727878
-0.990913	r d a i r	-0.00129829
-0.205392	r d a i i	-0.00129829
-0.204531	a d a i i	-0.000727878
-0.167933	t o a i i	-0.000727878
-0.167664	k o a i i	-0.00129829
-0.156854	c h a i i	-0.00129829
-0.888325	c h a i n	-0.000727878
-0.156214	s h a i i	-0.00129829
-0.158933	n s a i i	-0.00175736
-0.158933	l s a i i	-0.00175736
-0.159389	o s a i i	-0.000727878
-0.177025	o l a i i	-0.000727878
-0.177025	h e a i i	-0.000727878
-0.177025	h t a i i	-0.000727878
-1.38014	o k a i *	-0.000727878
-0.190572	h k a i i	-0.000727878
-1.42229	d a i i </unk>
-1.5463	d a i i r	-0.000727878
-1.48125	d a i i d	-0.000727878
-0.945762	d a i i i	-0.000727878
-0.133602	d a i i n	-0.0614462
-1.91189	d a i i l	-0.000727878
-1.83802	d a i i m	-0.000727878
-0.132844	o a i i n	-0.00175736
-1.41163	h a i i </unk>
-1.46939	h a i i d	-0.000727878
-0.134157	h a i i n	-0.00129829
-0.133213	<unk> a i i n	-0.000727878
-0.132418	s a i i n	-0.00271863
-0.133213	l a i i n	-0.000727878
-0.133213	e a i i n	-0.000727878
-0.133213	t a i i n	-0.000727878
-0.133213	k a i i n	-0.000727878
-0.160081	o o i i n	-0.000727878
-0.160081	d o i i n	-0.000727878
-0.164916	a i i i n	-0.000727878
-1.07858	c h o i e	-0.000727878
-0.272362	k o o i i	-0.000727878
-1.07509	o k o i s	-0.000727878
-0.272362	y d o i i	-0.000727878
-0.500013	s h o * o	-0.000727878
-0.604575	k a i * q	-0.000727878
-0.0186452	<unk> h y q o	-0.000727878
-0.0186452	t h y q o	-0.000727878
-0.0186452	s h y q o	-0.000727878
-0.0179278	e e y q o	-0.00213477
-0.0179631	h e y q o	-0.00129829
-0.019482	o d y q o	-0.000727878
-0.0272731	e e s q o	-0.000727878
-0.0272731	e o s q o	-0.000727878
-0.0265913	t h o q o	-0.000727878
-0.0265913	c h o q o	-0.000727878
-0.0246376	i i n q o	-0.00175736
-0.0235892	r o l q o	-0.000727878
-0.0235318	h o l q o	-0.00175736
-0.0235892	e o l q o	-0.000727878
-0.0272731	d a m q o	-0.000727878
-0.0272731	e o m q o	-0.000727878
-0.0191928	<unk> o r q o	-0.000727878
-0.0191293	h o r q o	-0.00213477
-0.0191928	e o r q o	-0.000727878
-0.0207902	a i r q o	-0.000727878
-0.0284068	a i * q o	-0.000727878
-0.436938	o d y p o	-0.00129829
-0.472404	n y y p c	-0.000727878
-0.893944	i r c p h	-0.000727878
-0.873355	i n c p </unk>
-0.400492	h e o p c	-0.000727878
-0.812258	s q o p a	-0.000727878
-0.53558	r q o p o	-0.000727878
-0.518551	o m o p o	-0.000727878
-0.400492	o l o p c	-0.000727878
-0.40447	h o m p c	-0.000727878
-0.40447	s a m p c	-0.000727878
-0.685992	y c h p a	-0.000727878
-0.200194	n y k s h	-0.000727878
-0.200194	l e k s h	-0.000727878
-0.200194	q o k s h	-0.000727878
-0.488155	o i e s c	-0.000727878
-0.51818	e e e s c	-0.000727878
-1.15042	e e e s q	-0.000727878
-1.14336	r e e s e	-0.000727878
-0.27129	h o l s h	-0.00213477
-1.22219	h o l s o	-0.000727878
-0.832447	h o l s a	-0.000727878
-1.45161	h o l s e	-0.000727878
-0.270365	k o l s h	-0.00129829
-0.271059	e o l s h	-0.00129829
-0.830147	e o l s a	-0.000727878
-0.828165	n o l s a	-0.000727878
-1.1614	<unk> o l s c	-0.000727878
-1.11717	s o l s s	-0.000727878
-0.270858	l o l s h	-0.000727878
-0.960343	y d l s s	-0.000727878
-1.1704	s a l s </unk>
-0.78992	d a l s a	-0.000727878
-0.261889	o r l s h	-0.000727878
-0.942184	<unk> c h s y	-0.000727878
-0.207977	d y t s h	-0.000727878
-0.207977	q o t s h	-0.000727878
-0.218842	k o i s h	-0.000727878
-0.244739	k h y s h	-0.000727878
-0.877769	t h y s c	-0.000727878
-0.245446	t h y s h	-0.000727878
-0.877769	o d y s c	-0.000727878
-1.03686	o d y s o	-0.000727878
-0.264048	a d y s h	-0.000727878
-0.752043	q o y s s	-0.000727878
-0.752043	h o y s s	-0.000727878
-0.298736	m o y s h	-0.000727878
-0.298736	t o y s h	-0.000727878
-0.910733	y k y s a	-0.000727878
-0.834207	o l y s c	-0.000727878
-0.23948	a r y s h	-0.000727878
-0.144956	o y s s h	-0.00129829
-0.145183	d l s s h	-0.000727878
-0.145183	o l s s h	-0.000727878
-0.149486	a m s s h	-0.000727878
-1.24668	i i n s </unk>
-0.275041	i i n s h	-0.00175736
-0.978555	i i n s o	-0.00129829
-0.797563	i i n s a	-0.000727878
-0.273831	<unk> i n s h	-0.000727878
-0.273831	a i n s h	-0.000727878
-0.666869	d a n s a	-0.000727878
-0.666869	h a n s a	-0.000727878
-1.10394	d a m s </unk>
-1.14985	h a m s y	-0.000727878
-1.127	h a m s s	-0.000727878
-0.220525	h o m s h	-0.000727878
-0.220525	r o m s h	-0.000727878
-0.220525	d o m s h	-0.000727878
-0.955395	e e m s o	-0.000727878
-0.128804	d a r s h	-0.00129829
-0.12627	l o r s h	-0.000727878
-0.12627	h o r s h	-0.000727878
-0.12627	* o r s h	-0.000727878
-0.132749	a i r s h	-0.000727878
-0.23357	s h o s h	-0.00129829
-0.755893	k e o s c	-0.000727878
-1.17294	h e o s q	-0.000727878
-0.233977	a m o s h	-0.000727878
-0.233977	o m o s h	-0.000727878
-0.755893	r q o s c	-0.000727878
-0.947908	l q o s a	-0.000727878
-0.926046	a r a m y	-0.000727878
-1.21974	o r a m k	-0.000727878
-0.767487	r d a m s	-0.000727878
-1.21335	r d a m q	-0.000727878
-0.468624	m d a m o	-0.000727878
-0.468624	l d a m o	-0.000727878
-0.468624	y d a m o	-0.000727878
-0.468624	o d a m o	-0.000727878
-0.561066	c h a m c	-0.00213477
-0.584594	c h a m o	-0.000727878
-0.766355	c h a m s	-0.000727878
-0.762778	f h a m s	-0.000727878
-1.1079	l s a m p	-0.000727878
-0.488705	y k a m o	-0.000727878
-0.926046	h e a m y	-0.000727878
-1.10318	t e a m </unk>
-1.00736	d a i m m	-0.000727878
-0.607054	a i i m c	-0.000727878
-0.856407	a i m m </unk>
-0.528683	t h o m o	-0.000727878
-1.24435	t h o m p	-0.000727878
-0.664071	c h o m c	-0.00129829
-0.529233	c h o m o	-0.00129829
-1.3714	c h o m t	-0.000727878
-0.837895	c h o m s	-0.000727878
-1.36133	s h o m d	-0.000727878
-0.744701	a r o m s	-0.000727878
-1.12197	k e o m y	-0.000727878
-1.13479	k e o m q	-0.000727878
-0.531013	<unk> e o m o	-0.000727878
-0.744701	l d o m s	-0.000727878
-0.501483	o l o m o	-0.000727878
-0.614585	o k o m c	-0.000727878
-0.65341	l e e m s	-0.000727878
-0.412447	a r c f h	-0.000727878
-0.412447	o r c f h	-0.000727878
-0.599687	<unk> o l f o	-0.000727878
-0.668539	o r o f </unk>
-0.303338	<unk> a r e e	-0.000727878
-0.303338	e a r e e	-0.000727878
-0.31438	e o r e e	-0.000727878
-0.528626	e n y e e	-0.000727878
-0.490426	o l s e e	-0.000727878
-0.490426	e e s e e	-0.000727878
-1.28552	r c h e </unk>
-1.49686	r c h e k	-0.000727878
-1.20081	r c h e a	-0.000727878
-0.838531	m c h e e	-0.000727878
-0.607599	t c h e y	-0.00175736
-0.841271	t c h e e	-0.000727878
-0.61063	k c h e y	-0.000727878
-0.395425	k c h e o	-0.000727878
-0.611346	o c h e y	-0.000727878
-0.394588	o c h e o	-0.00129829
-0.393817	p c h e o	-0.00129829
-0.61063	l c h e y	-0.000727878
-0.395425	l c h e o	-0.000727878
-1.28689	s c h e </unk>
-0.611935	s c h e y	-0.000727878
-0.395222	s c h e o	-0.00129829
-0.611346	y c h e y	-0.000727878
-0.394588	y c h e o	-0.00129829
-0.395425	n c h e o	-0.000727878
-1.77742	n c h e t	-0.000727878
-0.393817	<unk> c h e o	-0.00129829
-0.497517	<unk> s h e o	-0.000727878
-1.13659	<unk> s h e a	-0.000727878
-0.637347	<unk> s h e e	-0.000727878
-0.635706	n s h e e	-0.000727878
-1.42425	l s h e k	-0.000727878
-0.654806	l s h e y	-0.000727878
-0.634222	l s h e e	-0.00175736
-0.652942	s s h e y	-0.000727878
-0.496861	s s h e o	-0.000727878
-0.49483	y s h e o	-0.00129829
-1.55238	i s h e c	-0.000727878
-0.652942	t s h e y	-0.000727878
-0.496861	t s h e o	-0.000727878
-0.496045	r s h e o	-0.000727878
-0.527943	c t h e y	-0.00129829
-0.485427	m y t e o	-0.000727878
-0.984616	m y t e a	-0.000727878
-0.495714	m y t e e	-0.000727878
-1.09533	q o t e </unk>
-0.477197	q o t e o	-0.000727878
-0.48539	q o t e e	-0.00129829
-0.475213	r o t e o	-0.000727878
-0.373074	h o k e o	-0.00129829
-0.913086	q o k e y	-0.000727878
-0.376134	q o k e o	-0.000727878
-0.575322	q o k e e	-0.0461323
-0.374607	r o k e o	-0.000727878
-0.577264	r o k e e	-0.000727878
-0.373852	m o k e o	-0.000727878
-1.18229	o l k e c	-0.000727878
-0.547624	o l k e o	-0.000727878
-0.546778	e y k e o	-0.000727878
-0.502204	o y k e e	-0.000727878
-0.529585	h e k e o	-0.000727878
-0.916142	y t e e a	-0.000727878
-0.720288	o t e e o	-0.000727878
-0.627022	o t e e e	-0.000727878
-0.513032	y k e e y	-0.000727878
-0.512615	o k e e y	-0.00175736
-0.733192	o k e e o	-0.000727878
-0.432051	s h e e y	-0.0392915
-1.15405	c h e e </unk>
-0.994935	c h e e a	-0.000727878
-0.593968	l o e e e	-0.000727878
-0.70761	o e e e s	-0.000727878
-1.11828	t e e e </unk>
-0.70761	s e e e s	-0.000727878
-0.969513	y e e e a	-0.000727878
-1.33942	o l e e m	-0.000727878
-0.703999	a l e e o	-0.000727878
-0.612215	l s e e e	-0.000727878
-0.556194	e s e e y	-0.000727878
-0.593968	n y e e e	-0.000727878
-1.39058	a r e e n	-0.000727878
-1.05075	a r e e s	-0.000727878
-0.916142	o r e e a	-0.000727878
-0.910587	h o i e s	-0.000727878
-0.552795	o l o e e	-0.000727878
-0.843862	r q o e </unk>
-1.0044	e o l e k	-0.000727878
-0.531606	s o l e e	-0.000727878
-0.514635	h a l e e	-0.000727878
-0.5204	l o l t c	-0.000727878
-0.743192	a m y t e	-0.00129829
-0.745789	o m y t e	-0.000727878
-0.581209	i r y t c	-0.000727878
-0.841519	o r y t o	-0.000727878
-0.841519	<unk> e y t o	-0.000727878
-0.906129	e e y t </unk>
-0.960979	o d y t a	-0.000727878
-1.13809	o d y t s	-0.000727878
-0.581209	a l y t c	-0.000727878
-0.841519	o l y t o	-0.000727878
-0.563481	k a y t c	-0.000727878
-0.415041	k h y t c	-0.000727878
-0.415041	c h y t c	-0.000727878
-0.886707	h y y t y	-0.000727878
-1.01237	e y c t </unk>
-0.250208	h y c t h	-0.00129829
-0.250653	t y c t h	-0.000727878
-0.229348	o l c t h	-0.00213477
-0.244089	i n c t h	-0.00129829
-0.237819	o r c t h	-0.00213477
-0.252753	a m c t h	-0.000727878
-0.252753	c h c t h	-0.000727878
-0.252753	m o c t h	-0.000727878
-0.738101	c h e t y	-0.000727878
-0.321983	y k o t c	-0.000727878
-0.684727	y p o t o	-0.000727878
-0.646088	d y o t o	-0.000727878
-0.646088	t y o t o	-0.000727878
-0.326042	o r o t c	-0.00129829
-1.09621	o r o t a	-0.000727878
-1.1518	<unk> r o t e	-0.000727878
-0.325954	a r o t c	-0.000727878
-0.308452	o m o t c	-0.00129829
-1.09621	o m o t a	-0.000727878
-0.308326	a m o t c	-0.000727878
-0.308326	<unk> m o t c	-0.000727878
-0.309972	c h o t c	-0.00129829
-0.301338	i n o t c	-0.00175736
-1.21581	o q o t a	-0.000727878
-1.26834	s q o t </unk>
-0.584607	y q o t e	-0.00175736
-1.49357	y q o t s	-0.000727878
-0.474095	m q o t c	-0.000727878
-0.857424	r q o t o	-0.000727878
-0.587437	r q o t e	-0.000727878
-1.27433	l q o t y	-0.000727878
-0.684727	n d o t o	-0.000727878
-0.698869	r s h t y	-0.000727878
-0.829891	y c h t a	-0.000727878
-0.5204	h o m t c	-0.000727878
-1.22785	i r o l q	-0.000727878
-0.598368	o r o l c	-0.000727878
-0.989882	o r o l y	-0.000727878
-0.599429	y k o l d	-0.00129829
-0.709503	<unk> k o l s	-0.000727878
-1.36241	l k o l k	-0.000727878
-1.45054	o k o l </unk>
-0.672847	o k o l c	-0.00129829
-0.883575	o k o l o	-0.000727878
-0.604215	o k o l d	-0.000727878
-0.712897	o k o l s	-0.000727878
-0.782229	h e o l o	-0.00129829
-0.707701	h e o l d	-0.00175736
-1.52934	h e o l e	-0.000727878
-0.718702	h e o l s	-0.00129829
-0.63918	k e o l c	-0.00129829
-0.782751	k e o l o	-0.000727878
-0.719015	k e o l s	-0.000727878
-0.640168	t e o l c	-0.000727878
-1.39991	t e o l q	-0.000727878
-0.780178	e e o l o	-0.000727878
-0.754393	o t o l o	-0.000727878
-0.653675	y t o l d	-0.000727878
-0.788073	l s o l s	-0.000727878
-0.989882	n s o l y	-0.000727878
-1.3181	n s o l e	-0.000727878
-0.939403	d y o l y	-0.000727878
-0.754393	i n o l o	-0.000727878
-0.771523	a n o l s	-0.000727878
-0.60974	o l o l c	-0.000727878
-1.49904	o l o l t	-0.000727878
-0.803106	o l o l s	-0.000727878
-1.00575	<unk> l o l y	-0.000727878
-1.07809	c h o l k	-0.00175736
-0.684304	c h o l c	-0.00271863
-1.16915	c h o l y	-0.000727878
-0.888968	c h o l o	-0.00245054
-0.686774	c h o l d	-0.00294909
-1.88063	c h o l a	-0.000727878
-0.759382	c h o l s	-0.00129829
-1.23687	c h o l q	-0.00129829
-1.59007	s h o l </unk>
-1.07832	s h o l k	-0.000727878
-0.68946	s h o l d	-0.000727878
-0.750972	s h o l s	-0.00213477
-1.23478	s h o l q	-0.000727878
-0.683013	t h o l c	-0.000727878
-0.754358	t h o l s	-0.000727878
-1.15727	k h o l y	-0.000727878
-0.685423	<unk> h o l d	-0.000727878
-1.34223	l d o l k	-0.000727878
-0.616095	l d o l c	-0.00175736
-0.641978	l d o l o	-0.00129829
-0.711772	l d o l d	-0.00129829
-0.639826	o d o l o	-0.000727878
-0.566184	q o o l c	-0.000727878
-0.583957	y p o l c	-0.000727878
-0.754393	o p o l o	-0.000727878
-0.829941	y d a l o	-0.000727878
-0.681931	y d a l d	-0.000727878
-0.598687	n d a l c	-0.000727878
-0.888734	<unk> d a l s	-0.000727878
-0.599568	o d a l c	-0.000727878
-0.930849	o d a l y	-0.000727878
-0.620098	h o a l d	-0.000727878
-1.21241	o k a l </unk>
-0.639731	o k a l d	-0.000727878
-0.620098	o t a l d	-0.000727878
-0.578681	c h a l c	-0.000727878
-0.666042	c h a l d	-0.000727878
-1.24152	c h a l e	-0.000727878
-0.577118	t h a l c	-0.000727878
-0.848984	o r a l y	-0.000727878
-0.812101	y s a l s	-0.000727878
-0.636428	a i i l d	-0.000727878
-0.675301	d y d l s	-0.000727878
-0.675301	h o r l s	-0.000727878
-1.24565	a i i n </unk>
-1.72079	a i i n k	-0.000727878
-0.421146	a i i n c	-0.00361828
-1.13218	a i i n y	-0.00129829
-1.10944	a i i n o	-0.00245054
-0.904545	a i i n d	-0.00175736
-0.765645	a i i n s	-0.00294909
-1.13496	a i i n q	-0.00175736
-0.419659	<unk> i i n c	-0.00129829
-1.10303	<unk> i i n o	-0.000727878
-0.418869	o i i n c	-0.00129829
-0.419797	i i i n c	-0.000727878
-1.08913	d a i n </unk>
-0.636165	d a i n c	-0.000727878
-0.978229	d a i n y	-0.000727878
-0.699142	d a i n d	-0.00129829
-0.669114	d a i n s	-0.000727878
-0.69805	h a i n d	-0.000727878
-0.632997	<unk> a i n c	-0.000727878
-0.6094	<unk> d a n s	-0.000727878
-0.915787	n d a n o	-0.000727878
-0.811103	o d a n y	-0.000727878
-0.755981	s h a n d	-0.000727878
-0.756998	c h a n d	-0.000727878
-0.610289	c h a n s	-0.000727878
-0.56475	o r a n c	-0.000727878
-0.673039	r e e n y	-0.000727878

\6-grams:
-0.453008	o r a m k o	-0.004879
-0.652158	a l c h k y	-0.004879
-0.739068	a i i n k c	-0.004879
-0.81244	c h o l k y	-0.004879
-0.476041	c h o l k o	-0.004879
-0.652802	c h o l k e	-0.004879
-0.466455	s h o l k o	-0.004879
-0.63888	l k o l k e	-0.004879
-0.905518	l d o l k </unk>
-0.495671	o d y o k o	-0.004879
-0.89833	h e y o k a	-0.004879
-0.716305	l c h o k e	-0.004879
-1.07027	y c h o k </unk>
-0.929947	y c h o k y	-0.004879
-0.455412	y c h o k o	-0.004879
-0.733237	y c h o k e	-0.004879
-0.877344	k c h o k c	-0.004879
-0.443233	n c h o k o	-0.004879
-0.4414	s s h o k o	-0.004879
-1.06261	h o l o k </unk>
-0.935696	h o l o k y	-0.004879
-0.508184	e o l o k a	-0.00797766
-0.388584	h o r o k o	-0.0101201
-0.702209	a i r o k e	-0.004879
-0.398567	d a r o k o	-0.004879
-0.703138	e a r o k e	-0.004879
-0.667411	e o m o k e	-0.004879
-0.89833	k a m o k a	-0.004879
-0.580179	e y q o k o	-0.004879
-0.520306	e y q o k e	-0.00797766
-0.514214	h y q o k e	-0.00797766
-0.521323	d y q o k e	-0.004879
-0.938427	o l q o k y	-0.004879
-0.566517	h o q o k o	-0.004879
-0.840789	i n q o k c	-0.004879
-1.28916	<unk> n q o k s	-0.004879
-0.566517	o m q o k o	-0.004879
-0.479627	i i n o k o	-0.004879
-0.216056	d a o c k h	-0.004879
-0.213416	k h o c k h	-0.00797766
-0.215394	s h o c k h	-0.004879
-0.387205	k h y c k h	-0.004879
-0.387205	e e y c k h	-0.004879
-0.903869	h o r c k </unk>
-0.418182	e a r c k h	-0.004879
-0.403013	n c h c k h	-0.004879
-0.403013	s h a c k h	-0.004879
-0.690507	l s h e k y	-0.004879
-0.625564	r c h e k e	-0.004879
-0.912513	e o l e k s	-0.004879
-0.724751	s h y d k </unk>
-0.76221	y c h y k y	-0.004879
-0.787015	<unk> c h y k c	-0.004879
-0.499009	c t h y k o	-0.004879
-0.468854	h e y y k o	-0.004879
-0.468854	k e y y k o	-0.004879
-0.884525	a m s y k </unk>
-0.733936	i i n y k y	-0.004879
-1.06813	d a n y k s	-0.004879
-0.742746	h o l y k y	-0.004879
-0.514451	h o l y k o	-0.004879
-0.700208	t h e y k e	-0.004879
-0.757961	s e e y k c	-0.004879
-0.680954	<unk> h o y k e	-0.004879
-0.737498	s h t y k c	-0.004879
-0.671441	o d a r k y	-0.004879
-0.50879	h e o r k o	-0.004879
-0.809339	c h o r k c	-0.004879
-0.126542	o l k e c h	-0.004879
-0.126542	i s h e c h	-0.004879
-0.143817	l d o l c h	-0.00797766
-0.775849	l d o l c t	-0.004879
-1.18433	c h o l c </unk>
-0.140032	c h o l c h	-0.00797766
-0.784366	c h o l c t	-0.0101201
-0.130781	t h o l c h	-0.004879
-0.140789	o l o l c h	-0.004879
-0.140789	q o o l c h	-0.004879
-0.140789	y p o l c h	-0.004879
-1.12271	o k o l c </unk>
-0.145764	o k o l c h	-0.004879
-0.145501	k e o l c h	-0.004879
-0.770149	k e o l c t	-0.004879
-0.141195	t e o l c h	-0.004879
-0.140789	o r o l c h	-0.004879
-0.143489	n d a l c h	-0.004879
-0.143489	o d a l c h	-0.004879
-0.143489	c h a l c h	-0.004879
-0.143489	t h a l c h	-0.004879
-0.747328	y d a o c k	-0.004879
-0.537467	c k h o c k	-0.00797766
-0.546578	o s h o c k	-0.004879
-0.145515	d o t o c h	-0.004879
-0.145515	d y s o c h	-0.004879
-0.145515	t h y o c h	-0.004879
-0.145515	h o l o c h	-0.004879
-0.145515	o r q o c h	-0.004879
-0.83268	d a m o c t	-0.004879
-0.0908459	c h y d c h	-0.004879
-0.0933633	i n d d c h	-0.004879
-0.0933633	h o l d c h	-0.004879
-0.819322	y s h a c k	-0.004879
-0.113329	c h a m c h	-0.0101201
-0.860771	c h a m c t	-0.004879
-0.0878933	o k o m c h	-0.004879
-0.0870745	c h o m c h	-0.00797766
-0.105979	a i i m c h	-0.004879
-1.15783	c h a r c f	-0.004879
-0.143816	o d a r c h	-0.004879
-0.143816	l d a r c h	-0.004879
-0.143816	y d a r c h	-0.004879
-1.09673	e e a r c k	-0.004879
-1.20411	d a i r c p	-0.004879
-0.121936	t a o r c h	-0.004879
-0.120486	l d o r c h	-0.00797766
-0.121481	y d o r c h	-0.004879
-0.121481	n d o r c h	-0.004879
-1.24188	s h o r c k	-0.004879
-0.936798	s h o r c t	-0.004879
-0.12568	c h o r c h	-0.0577633
-0.951199	c h o r c t	-0.00797766
-1.37573	c h o r c f	-0.004879
-0.118827	h e o r c h	-0.128299
-0.121936	o r o r c h	-0.004879
-0.121936	r k o r c h	-0.004879
-1.13673	s c h r c </unk>
-0.906989	i n c h c k	-0.004879
-0.71977	i n c h c t	-0.004879
-0.167095	m o s h c h	-0.004879
-0.0915061	<unk> i i n c h	-0.00797766
-0.0950022	a i i n c h	-0.0152345
-0.967156	a i i n c t	-0.00797766
-1.5491	a i i n c p	-0.004879
-0.0915061	o i i n c h	-0.00797766
-0.0922361	i i i n c h	-0.004879
-0.0919599	<unk> a i n c h	-0.004879
-0.0919599	d a i n c h	-0.004879
-0.106078	o r a n c h	-0.004879
-0.083515	n y y p c h	-0.004879
-0.0812886	h e o p c h	-0.004879
-0.0812886	o l o p c h	-0.004879
-0.0812886	h o m p c h	-0.004879
-0.0812886	s a m p c h	-0.004879
-0.09408	i i n k c h	-0.004879
-0.0896862	h t y k c h	-0.004879
-0.0896862	e e y k c h	-0.004879
-0.0896862	c h y k c h	-0.004879
-0.0882717	c h o k c h	-0.004879
-0.08804	n q o k c h	-0.004879
-0.0873466	<unk> q o k c h	-0.00797766
-0.09408	h o r k c h	-0.004879
-0.0711643	l o l t c h	-0.004879
-0.0472589	y k o t c h	-0.004879
-0.0467868	o r o t c h	-0.00797766
-0.0471407	a r o t c h	-0.004879
-0.0476845	a m o t c h	-0.004879
-1.3978	<unk> m o t c </unk>
-0.0473264	o m o t c h	-0.00797766
-0.046839	c h o t c h	-0.00797766
-0.0465438	i n o t c h	-0.0101201
-0.0472589	m q o t c h	-0.004879
-0.0660577	a l y t c h	-0.004879
-0.0660577	k a y t c h	-0.004879
-0.0659641	k h y t c h	-0.004879
-0.0659641	c h y t c h	-0.004879
-0.0660577	i r y t c h	-0.004879
-0.0711643	h o m t c h	-0.004879
-0.0884095	<unk> o l y c h	-0.004879
-0.0884095	d a l y c h	-0.004879
-0.0927337	t h y y c h	-0.004879
-0.0927337	c h s y c h	-0.004879
-0.0927337	c h r y c h	-0.004879
-0.0834859	c h e y c h	-0.0128895
-1.25165	h e e y c k	-0.004879
-0.96721	h e e y c t	-0.004879
-0.0867628	k e e y c h	-0.004879
-0.0927337	e e a y c h	-0.004879
-1.20855	c k h y c k	-0.004879
-0.868818	c t h y c t	-0.004879
-0.110061	o s h y c h	-0.004879
-0.110061	l s h y c h	-0.004879
-0.110803	e c h y c h	-0.004879
-0.872647	d c h y c t	-0.004879
-1.39986	l c h y c </unk>
-0.113602	l c h y c h	-0.00797766
-0.110803	t c h y c h	-0.004879
-0.077002	h o k y c h	-0.004879
-0.077002	q o k y c h	-0.004879
-0.0771127	o l k y c h	-0.004879
-0.105593	h e t y c h	-0.004879
-0.835455	y y t y c t	-0.004879
-0.0768619	h o d y c h	-0.004879
-0.0768619	<unk> o d y c h	-0.004879
-0.0768619	e o d y c h	-0.004879
-0.0770615	i i d y c h	-0.004879
-0.0927337	i i n y c h	-0.004879
-0.0676631	o i e s c h	-0.004879
-0.0676631	e e e s c h	-0.004879
-0.0676631	o d y s c h	-0.004879
-0.0676631	t h y s c h	-0.004879
-0.0676631	o l y s c h	-0.004879
-0.0690257	k e o s c h	-0.004879
-0.0690257	r q o s c h	-0.004879
-0.0708882	<unk> o l s c h	-0.004879
-0.883836	l k e c h y	-0.004879
-0.289689	s h e c h o	-0.004879
-0.283316	o t o c h o	-0.004879
-0.283316	y s o c h o	-0.004879
-0.283316	h y o c h o	-0.004879
-0.283316	<unk> h o c h o	-0.004879
-0.648903	o l o c h e	-0.004879
-0.648903	r q o c h e	-0.004879
-0.255109	d o l c h o	-0.00797766
-0.91687	l o l c h y	-0.004879
-0.257602	o o l c h o	-0.004879
-0.257602	p o l c h o	-0.004879
-1.14514	h o l c h </unk>
-0.259422	h o l c h o	-0.00797766
-0.91687	k o l c h y	-0.004879
-1.13471	e o l c h </unk>
-0.927221	e o l c h y	-0.004879
-0.257602	<unk> o l c h o	-0.004879
-0.785434	r o l c h e	-0.004879
-0.259062	<unk> a l c h o	-0.004879
-0.893131	d a l c h y	-0.00797766
-1.63154	h a l c h k	-0.004879
-1.07396	h a l c h a	-0.004879
-1.20486	d a r c h </unk>
-0.213552	d a r c h o	-0.00797766
-0.210623	a o r c h o	-0.004879
-0.211089	d o r c h o	-0.0101201
-0.820234	d o r c h e	-0.004879
-0.207383	e o r c h o	-0.0128895
-0.216184	h o r c h o	-0.0101201
-1.05008	h o r c h a	-0.00797766
-0.826382	h o r c h e	-0.00797766
-0.210623	r o r c h o	-0.004879
-0.210623	k o r c h o	-0.004879
-0.275671	o s h c h o	-0.004879
-0.261696	h a m c h o	-0.004879
-0.922757	h a m c h a	-0.00797766
-0.252761	k o m c h o	-0.004879
-0.257422	h o m c h o	-0.004879
-0.759045	h o m c h e	-0.004879
-0.252538	i i m c h o	-0.004879
-1.10106	i i n c h c	-0.00797766
-0.289486	i i n c h o	-0.0152345
-1.0591	i i n c h a	-0.004879
-0.794171	i i n c h e	-0.00797766
-1.14636	a i n c h </unk>
-0.266572	a i n c h o	-0.004879
-0.978163	r a n c h a	-0.004879
-0.28999	y y p c h o	-0.004879
-1.05404	e o p c h </unk>
-0.290698	l o p c h o	-0.004879
-0.669973	o m p c h e	-0.004879
-0.669973	a m p c h e	-0.004879
-0.277976	i n k c h o	-0.004879
-0.278151	t y k c h o	-0.004879
-0.725879	e y k c h e	-0.004879
-0.278151	h y k c h o	-0.004879
-1.10783	h o k c h </unk>
-1.01009	q o k c h y	-0.004879
-0.287778	q o k c h o	-0.004879
-0.739687	q o k c h e	-0.004879
-1.00428	o r k c h a	-0.004879
