[unifb]
-0.697787

\data\
ngram 1=20
ngram 2=180
ngram 3=565
ngram 4=1012
ngram 5=1336
ngram 6=1516
ngram 7=1558
ngram 8=1540
ngram 9=1477
ngram 10=1403

\1-grams:
-1.03663	</unk>
-1.27291	k	-0.644725
-1.17135	c	-1.23046
-1.58808	h	-0.884823
-1.45721	r	-0.668044
-0.931934	y	-0.858022
-0.853561	o	-0.899527
-1.48909	d	-0.855479
-1.12754	a	-0.908822
-1.52772	i	-0.570816
-1.62703	n	-0.526425
-1.55685	l	-0.664958
-1.29598	t	-0.598041
-1.28187	e	-0.712057
-1.86362	f	-0.152548
-1.62703	m	-0.503182
-1.13393	s	-0.813865
-1.7358	p	-0.394386
-1.58808	q	-0.725062
-1.84667	*	-0.0700622

\2-grams:
-1.51778	<unk> k	-0.183209
-0.882775	<unk> c	-0.445979
-1.0275	<unk> h	-0.379241
-1.19721	<unk> r	-0.341727
-1.30361	<unk> y	-0.274848
-0.727791	<unk> o	-0.486063
-1.3986	<unk> d	-0.21831
-1.24857	<unk> a	-0.296879
-1.43425	<unk> i	-0.21831
-1.57865	<unk> n	-0.183209
-1.27613	<unk> l	-0.270587
-1.3082	<unk> t	-0.274848
-1.28247	<unk> e	-0.246861
-2.06322	<unk> f	-0.0806365
-1.53515	<unk> m	-0.250037
-1.25952	<unk> s	-0.274848
-1.70198	<unk> q	-0.138846
-1.60901	k </unk>
-0.694252	k c	-0.379241
-1.80851	k h	-0.402693
-0.88068	k y	-0.485508
-0.503739	k o	-0.491954
-1.29142	k a	-0.345006
-0.840031	k e	-0.450839
-1.16836	k s	-0.280355
-1.34369	c </unk>
-1.11507	c k	-0.578506
-0.133015	c h	-0.993267
-1.03633	c t	-0.628575
-2.22146	c f	-0.138846
-1.85779	c p	-0.138846
-1.05143	h </unk>
-1.68256	h k	-0.138846
-1.66004	h c	-0.248225
-1.71401	h r	-0.138846
-0.644988	h y	-0.609387
-0.495415	h o	-0.742154
-1.04444	h a	-0.541017
-1.75088	h t	-0.138846
-0.805892	h e	-0.681923
-1.89751	h s	-0.0806365
-2.0794	h p	-0.0806365
-1.30995	r </unk>
-1.35644	r k	-0.183209
-0.610421	r c	-0.540816
-1.00775	r y	-0.296879
-0.760781	r o	-0.481224
-1.33955	r d	-0.274848
-1.11113	r a	-0.246861
-1.83942	r l	-0.0806365
-1.31594	r e	-0.183209
-1.01294	r s	-0.341727
-1.12158	r q	-0.270587
-1.21322	y </unk>
-0.854122	y k	-0.428029
-0.657293	y c	-0.589837
-1.29636	y y	-0.246861
-1.18571	y o	-0.315435
-0.82955	y d	-0.592019
-0.958435	y t	-0.376947
-1.9446	y e	-0.0806365
-1.11592	y s	-0.435926
-1.73451	y p	-0.183209
-1.12218	y q	-0.397129
-1.03423	o </unk>
-1.04009	o k	-0.62594
-1.24397	o c	-0.404632
-0.89569	o r	-0.646379
-1.50837	o y	-0.341727
-1.73593	o o	-0.138846
-0.903566	o d	-0.540237
-1.50913	o a	-0.296879
-1.71569	o i	-0.21831
-0.667761	o l	-0.674171
-1.13656	o t	-0.600514
-1.76308	o e	-0.183209
-1.51833	o m	-0.38273
-1.49022	o s	-0.331292
-1.60327	o p	-0.270587
-2.27011	o q	-0.173544
-2.34101	o *	-0.0806365
-1.4713	d </unk>
-1.8123	d k	-0.0806365
-1.21234	d c	-0.274848
-0.792157	d y	-0.469045
-0.948604	d o	-0.520691
-1.86932	d d	-0.0806365
-0.257193	d a	-0.656593
-1.88318	d l	-0.0806365
-1.22683	a </unk>
-1.88355	a c	-0.0806365
-0.842793	a r	-0.411653
-1.60598	a y	-0.138846
-1.57578	a o	-0.138846
-1.66826	a d	-0.138846
-0.483479	a i	-0.726092
-1.26723	a n	-0.290644
-0.781884	a l	-0.486063
-0.88055	a m	-0.459165
-1.24378	i </unk>
-1.14453	i r	-0.290644
-1.64354	i d	-0.173544
-0.489738	i i	-0.822143
-0.550919	i n	-0.579186
-1.65893	i l	-0.0806365
-1.58384	i e	-0.0806365
-1.34191	i m	-0.138846
-1.52793	i s	-0.0806365
-1.70664	i *	-0.0806365
-0.691267	* </unk>
-0.622362	* o	-0.0806365
-1.47821	q </unk>
-0.0642282	q o	-0.652915
-1.16956	p </unk>
-0.454105	p c	-0.270587
-1.31226	p h	-0.0806365
-0.591774	p o	-0.21831
-0.982884	p a	-0.138846
-1.20092	s </unk>
-1.1909	s c	-0.368458
-0.259723	s h	-0.667359
-1.47401	s y	-0.138846
-1.07329	s o	-0.324866
-1.08599	s a	-0.419541
-1.56196	s e	-0.138846
-1.41162	s s	-0.280355
-1.60373	s q	-0.138846
-1.17541	m </unk>
-1.51241	m k	-0.173544
-0.925344	m c	-0.30784
-0.950405	m y	-0.21831
-0.560344	m o	-0.440544
-1.57517	m d	-0.0806365
-1.52019	m t	-0.0806365
-1.60463	m m	-0.0806365
-0.752553	m s	-0.290644
-1.28205	m p	-0.138846
-1.59705	m q	-0.0806365
-0.863823	f c	-0.0806365
-0.597931	f h	-0.0806365
-0.749874	f o	-0.0806365
-0.927184	e </unk>
-1.55279	e k	-0.183209
-1.52844	e c	-0.138846
-0.668857	e y	-0.588111
-0.649602	e o	-0.67861
-1.40312	e a	-0.270587
-1.92822	e n	-0.0806365
-1.82689	e t	-0.0806365
-0.594523	e e	-0.511785
-1.92822	e m	-0.0806365
-1.57493	e s	-0.248225
-1.02345	t </unk>
-0.700838	t c	-0.579001
-0.783305	t h	-0.486063
-1.00579	t y	-0.274848
-0.929285	t o	-0.315435
-1.09973	t a	-0.21831
-0.901181	t e	-0.331292
-1.19428	t s	-0.183209
-1.37119	l </unk>
-1.42387	l k	-0.296879
-0.706363	l c	-0.741609
-0.960016	l y	-0.356991
-0.843093	l o	-0.445047
-0.988453	l d	-0.767901
-1.7333	l a	-0.0806365
-1.8108	l t	-0.0806365
-1.47056	l e	-0.183209
-1.96616	l f	-0.0806365
-0.673961	l s	-0.488187
-1.29494	l q	-0.246861
-1.06449	n </unk>
-1.51866	n k	-0.0806365
-0.777796	n c	-0.404632
-0.830387	n y	-0.246861
-1.1241	n o	-0.296879
-0.853899	n d	-0.345006
-0.59654	n s	-0.376947
-1.60071	n q	-0.21831

\3-grams:
-0.323329	m k o	-0.0563295
-0.753426	h k y	-0.0332333
-0.975833	h k a	-0.0332333
-0.561691	<unk> k c	-0.0563295
-0.75978	<unk> k e	-0.0332333
-0.583429	n k c	-0.0332333
-0.632506	l k y	-0.0563295
-0.527529	l k o	-0.0563295
-0.755837	l k e	-0.0563295
-1.70867	o k </unk>
-0.907627	o k c	-0.186261
-0.998297	o k y	-0.073335
-0.534806	o k o	-0.159515
-0.804071	o k a	-0.112072
-0.618589	o k e	-0.153442
-1.41439	o k s	-0.0332333
-0.163911	c k h	-0.127235
-0.787918	e k y	-0.0332333
-0.75978	e k e	-0.0332333
-0.962135	e k s	-0.0332333
-0.864766	d k s	-0.0332333
-0.701249	y k c	-0.0863877
-0.775766	y k y	-0.073335
-0.473009	y k o	-0.105121
-1.30007	y k a	-0.0332333
-0.893584	y k e	-0.0563295
-1.21456	y k s	-0.0332333
-0.65255	r k c	-0.0332333
-0.787918	r k y	-0.0332333
-0.499495	r k o	-0.0332333
-0.114484	e c h	-0.0563295
-1.18819	<unk> c k	-0.0332333
-0.0820295	<unk> c h	-0.13431
-1.60095	l c </unk>
-0.12037	l c h	-0.186277
-0.73959	l c t	-0.0967266
-1.13771	d c </unk>
-0.114304	d c h	-0.0863877
-0.948877	o c k	-0.073335
-0.127945	o c h	-0.122921
-1.09292	o c t	-0.0332333
-1.19512	r c k	-0.0563295
-0.141681	r c h	-0.149661
-0.972785	r c t	-0.0863877
-1.30074	r c f	-0.0563295
-1.71473	r c p	-0.0332333
-0.839413	a c k	-0.0332333
-0.121699	f c h	-0.0332333
-0.993449	h c k	-0.0332333
-0.231729	h c h	-0.0332333
-0.616145	h c t	-0.0563295
-1.192	m c </unk>
-0.131081	m c h	-0.105121
-1.00075	m c t	-0.0332333
-0.115959	n c h	-0.159515
-0.993186	n c t	-0.0563295
-1.52465	n c p	-0.0332333
-1.14625	p c </unk>
-0.120865	p c h	-0.0967266
-1.26035	k c </unk>
-0.0953923	k c h	-0.157757
-0.053664	t c h	-0.148048
-1.50954	y c </unk>
-1.25799	y c k	-0.0563295
-0.106503	y c h	-0.157058
-0.968603	y c t	-0.139192
-0.0818671	s c h	-0.122921
-1.18747	c h </unk>
-2.1835	c h k	-0.0332333
-2.16875	c h c	-0.073335
-2.06776	c h r	-0.0563295
-1.09547	c h y	-0.159515
-0.268732	c h o	-0.229894
-0.971534	c h a	-0.16481
-2.22662	c h t	-0.0332333
-0.766121	c h e	-0.230884
-2.31045	c h s	-0.0332333
-0.803298	f h a	-0.0563295
-0.507052	k h y	-0.0967266
-0.382193	k h o	-0.0967266
-1.18338	t h </unk>
-0.533575	t h y	-0.122921
-0.392905	t h o	-0.117925
-1.17802	t h a	-0.0332333
-0.984112	t h e	-0.0563295
-1.20291	s h </unk>
-1.8153	s h k	-0.0332333
-1.80256	s h c	-0.0332333
-0.85507	s h y	-0.0967266
-0.420433	s h o	-0.153775
-1.01736	s h a	-0.0967266
-1.85218	s h t	-0.0332333
-0.597274	s h e	-0.142226
-0.43214	p h o	-0.0332333
-1.07965	<unk> h </unk>
-0.76226	<unk> h y	-0.0332333
-0.341686	<unk> h o	-0.105121
-0.895458	<unk> h e	-0.0332333
-1.51117	<unk> h p	-0.0332333
-0.558739	h r c	-0.0332333
-0.832375	h r y	-0.0332333
-1.21358	<unk> r k	-0.0332333
-0.421928	<unk> r c	-0.073335
-0.837258	<unk> r o	-0.0332333
-1.20558	<unk> r d	-0.0332333
-1.08138	<unk> r a	-0.0332333
-1.29879	a r </unk>
-0.661809	a r c	-0.073335
-1.07636	a r y	-0.0332333
-0.658873	a r o	-0.105121
-1.15694	a r a	-0.0332333
-1.17637	a r e	-0.0563295
-0.829356	a r s	-0.073335
-1.1956	o r </unk>
-1.49593	o r k	-0.0563295
-0.478622	o r c	-0.146286
-1.20702	o r y	-0.073335
-0.747856	o r o	-0.153442
-1.16384	o r d	-0.0863877
-1.27646	o r a	-0.073335
-1.89827	o r l	-0.0332333
-1.55974	o r e	-0.0332333
-1.21063	o r s	-0.073335
-1.02576	o r q	-0.0967266
-1.15283	i r </unk>
-0.653749	i r c	-0.0332333
-0.965045	i r y	-0.0332333
-0.701151	i r o	-0.0563295
-0.968672	i r s	-0.0332333
-1.04151	i r q	-0.0332333
-1.05102	y y </unk>
-0.717043	y y k	-0.0563295
-0.665301	y y c	-0.0332333
-1.26216	y y p	-0.0332333
-0.658257	k y c	-0.073335
-0.340155	k y d	-0.112072
-1.22184	k y s	-0.0332333
-1.14056	o y </unk>
-0.806585	o y k	-0.0563295
-0.521199	o y s	-0.0863877
-1.11857	h y </unk>
-0.854106	h y k	-0.0863877
-0.549635	h y c	-0.117925
-1.37086	h y y	-0.0563295
-1.4083	h y o	-0.0332333
-0.813635	h y d	-0.0967266
-1.22908	h y t	-0.0332333
-0.884441	h y s	-0.0863877
-1.27027	h y q	-0.0563295
-0.735841	s y k	-0.0332333
-0.594847	s y c	-0.0332333
-0.849293	t y k	-0.0332333
-0.450841	t y c	-0.073335
-0.831517	t y d	-0.0332333
-0.850898	l y </unk>
-0.828147	l y k	-0.0563295
-0.689114	l y c	-0.0563295
-0.811821	l y d	-0.0563295
-0.893908	l y t	-0.0563295
-0.717043	n y k	-0.0563295
-0.665301	n y c	-0.0332333
-1.09484	n y y	-0.0332333
-1.30958	n y e	-0.0332333
-1.05919	<unk> y o	-0.0332333
-0.831517	<unk> y d	-0.0332333
-1.01996	<unk> y s	-0.0332333
-0.679442	<unk> y q	-0.0563295
-0.712375	r y c	-0.0332333
-1.08272	r y o	-0.0332333
-0.662381	r y t	-0.0563295
-0.897394	r y s	-0.0563295
-0.646797	m y c	-0.0332333
-0.646893	m y t	-0.0563295
-1.06048	e y k	-0.073335
-0.501629	e y c	-0.117925
-1.33337	e y y	-0.0563295
-1.38362	e y o	-0.0332333
-0.770345	e y d	-0.0967266
-1.02076	e y t	-0.0563295
-0.79962	e y q	-0.0967266
-0.594847	a y c	-0.0332333
-0.802776	a y t	-0.0332333
-1.28657	d y </unk>
-0.687359	d y c	-0.0863877
-0.945397	d y o	-0.073335
-0.873007	d y d	-0.073335
-1.01754	d y t	-0.0563295
-0.979611	d y s	-0.073335
-1.15321	d y p	-0.0563295
-1.04165	d y q	-0.073335
-1.07703	e o </unk>
-0.708688	e o r	-0.112072
-1.02009	e o d	-0.073335
-0.461071	e o l	-0.137247
-1.09372	e o m	-0.073335
-1.28668	e o s	-0.0563295
-1.71319	e o p	-0.0332333
-1.10064	d o </unk>
-0.893182	d o r	-0.073335
-1.49316	d o a	-0.0332333
-1.57951	d o i	-0.0332333
-0.350631	d o l	-0.228733
-1.27648	d o t	-0.0332333
-1.49752	d o m	-0.0332333
-0.955042	a o c	-0.0332333
-0.763202	a o r	-0.0332333
-0.755256	s o c	-0.0563295
-0.502607	s o l	-0.073335
-1.32728	s o e	-0.0332333
-0.651595	y o k	-0.073335
-1.13617	y o c	-0.0332333
-0.910067	y o r	-0.0332333
-0.731707	y o l	-0.0332333
-1.07327	y o t	-0.0332333
-1.17572	k o </unk>
-0.90115	k o r	-0.0563295
-1.61761	k o o	-0.0332333
-0.720766	k o d	-0.143801
-1.34754	k o a	-0.0563295
-1.60862	k o i	-0.0332333
-0.54872	k o l	-0.117925
-1.25522	k o t	-0.0332333
-1.50872	k o m	-0.0332333
-1.06996	r o </unk>
-0.668508	r o k	-0.105121
-1.31352	r o c	-0.0332333
-0.866873	r o r	-0.0563295
-0.864801	r o l	-0.0332333
-0.767582	r o t	-0.0967266
-1.47227	r o m	-0.0332333
-1.13015	l o </unk>
-0.691569	l o k	-0.0967266
-0.949035	l o r	-0.0563295
-1.44312	l o y	-0.0332333
-0.846364	l o d	-0.0563295
-0.735978	l o l	-0.073335
-1.5604	l o e	-0.0332333
-1.4484	l o m	-0.0332333
-1.49115	l o p	-0.0332333
-0.717946	* o r	-0.0332333
-1.01697	m o k	-0.0563295
-0.927624	m o c	-0.0563295
-1.40012	m o y	-0.0332333
-0.671722	m o t	-0.0967266
-0.982523	m o s	-0.0563295
-1.43963	m o p	-0.0332333
-0.722775	f o d	-0.0332333
-1.19355	h o </unk>
-1.12362	h o k	-0.117925
-1.51638	h o c	-0.073335
-0.615376	h o r	-0.173954
-1.75264	h o y	-0.0563295
-1.03767	h o d	-0.16481
-1.83443	h o a	-0.0332333
-1.9897	h o i	-0.0332333
-0.516645	h o l	-0.175998
-1.47565	h o t	-0.0563295
-1.23958	h o m	-0.117925
-1.81934	h o s	-0.0332333
-1.86422	h o q	-0.0563295
-2.32549	h o *	-0.0332333
-1.10944	o o i	-0.0332333
-0.602787	o o l	-0.0332333
-0.917772	p o </unk>
-0.574584	p o l	-0.0563295
-0.979042	p o t	-0.0332333
-1.18119	q o </unk>
-0.526175	q o k	-0.130998
-1.65665	q o y	-0.0332333
-1.76863	q o o	-0.0332333
-1.0134	q o d	-0.073335
-0.703062	q o t	-0.122921
-1.78001	q o e	-0.0332333
-1.49036	q o s	-0.0563295
-1.24124	q o p	-0.073335
-1.17014	<unk> o </unk>
-1.20123	<unk> o c	-0.0563295
-0.834031	<unk> o r	-0.073335
-0.994531	<unk> o d	-0.0563295
-1.48351	<unk> o a	-0.0332333
-0.501959	<unk> o l	-0.112072
-0.997381	<unk> o t	-0.0563295
-1.47334	<unk> o s	-0.0332333
-0.994347	n o k	-0.0332333
-0.901365	n o d	-0.0332333
-0.645918	n o l	-0.0563295
-0.718983	n o t	-0.0332333
-1.00751	t o </unk>
-1.13617	t o c	-0.0332333
-0.830532	t o y	-0.0563295
-0.915848	t o d	-0.0332333
-1.26331	t o a	-0.0332333
-0.731707	t o l	-0.0332333
-1.55437	o d </unk>
-0.497949	o d y	-0.163692
-1.09518	o d o	-0.0563295
-0.302573	o d a	-0.208859
-1.56166	y d </unk>
-1.71324	y d k	-0.0332333
-1.40281	y d c	-0.0332333
-1.12686	y d o	-0.0563295
-0.137895	y d a	-0.228199
-1.73677	y d l	-0.0332333
-1.55231	l d c	-0.0563295
-1.27366	l d y	-0.0332333
-0.437171	l d o	-0.130998
-0.279737	l d a	-0.157757
-1.02063	<unk> d c	-0.0332333
-0.751136	<unk> d y	-0.0332333
-0.264781	<unk> d a	-0.0563295
-0.873418	n d o	-0.0563295
-1.43322	n d d	-0.0332333
-0.218999	n d a	-0.105121
-0.445367	i d y	-0.0563295
-0.884464	d d c	-0.0332333
-0.170279	r d a	-0.0967266
-0.232083	m d a	-0.0332333
-0.693427	a d y	-0.0332333
-0.262295	a d a	-0.0332333
-0.422556	l a i	-0.0332333
-1.09867	p a d	-0.0332333
-0.686213	p a l	-0.0332333
-0.857093	o a r	-0.0332333
-0.464216	o a i	-0.0563295
-0.589699	o a l	-0.0563295
-1.06361	d a </unk>
-0.872108	d a r	-0.105121
-1.75306	d a o	-0.0332333
-0.336279	d a i	-0.325902
-1.27038	d a n	-0.073335
-0.964681	d a l	-0.112072
-1.00225	d a m	-0.0967266
-1.36648	h a </unk>
-1.70662	h a c	-0.0332333
-0.95204	h a r	-0.073335
-0.59261	h a i	-0.0863877
-1.04194	h a n	-0.073335
-0.832816	h a l	-0.073335
-0.553444	h a m	-0.0967266
-0.810019	r a r	-0.0332333
-1.07994	r a n	-0.0332333
-0.764016	r a l	-0.0332333
-0.732274	r a m	-0.0563295
-0.734232	e a r	-0.0563295
-1.25744	e a y	-0.0332333
-0.532096	e a i	-0.0332333
-0.756924	e a m	-0.0563295
-0.556705	<unk> a r	-0.073335
-1.2604	<unk> a o	-0.0332333
-0.565868	<unk> a i	-0.0332333
-0.81109	<unk> a l	-0.0332333
-0.891907	k a r	-0.0332333
-1.34881	k a y	-0.0332333
-1.37196	k a d	-0.0332333
-0.504614	k a i	-0.073335
-0.653701	k a l	-0.0563295
-0.921321	k a m	-0.0332333
-0.393058	t a i	-0.073335
-0.743452	t a l	-0.0332333
-0.23913	s a i	-0.112072
-0.927755	s a l	-0.0332333
-1.00146	s a m	-0.0332333
-1.56405	a i </unk>
-1.20007	a i r	-0.105121
-0.179434	a i i	-0.176236
-0.823987	a i n	-0.117925
-1.83484	a i *	-0.0332333
-1.18608	i i </unk>
-1.58204	i i r	-0.0332333
-1.45851	i i d	-0.0563295
-1.03626	i i i	-0.0332333
-0.152803	i i n	-0.170896
-1.8798	i i l	-0.0332333
-1.71346	i i m	-0.0332333
-0.44907	o i i	-0.0563295
-1.17741	o i e	-0.0332333
-1.15864	o i s	-0.0332333
-0.44907	<unk> i i	-0.0563295
-0.55971	<unk> i n	-0.0332333
-1.0841	<unk> i m	-0.0332333
-0.530658	o * o	-0.0332333
-0.581285	i * </unk>
-0.0407325	y q o	-0.130998
-0.0558885	s q o	-0.0563295
-0.0482455	o q o	-0.0563295
-0.0519183	n q o	-0.0863877
-0.0558885	<unk> q o	-0.0563295
-0.0506228	l q o	-0.0863877
-0.0591586	m q o	-0.0332333
-1.20808	r q </unk>
-0.0673997	r q o	-0.105121
-0.457602	y p c	-0.0332333
-0.495122	y p o	-0.0563295
-0.919858	c p </unk>
-0.98456	c p h	-0.0332333
-0.416342	o p c	-0.073335
-0.564444	o p o	-0.0563295
-0.930008	o p a	-0.0332333
-0.366163	m p c	-0.0563295
-0.769488	h p a	-0.0332333
-0.794591	o s c	-0.0563295
-0.294553	o s h	-0.0863877
-1.05699	o s a	-0.0332333
-1.32492	o s q	-0.0332333
-0.654104	e s c	-0.0563295
-1.18536	e s e	-0.0332333
-1.19784	e s q	-0.0332333
-1.29658	l s </unk>
-1.28945	l s c	-0.0332333
-0.288475	l s h	-0.117925
-1.20237	l s o	-0.0332333
-0.794992	l s a	-0.0863877
-1.51864	l s e	-0.0332333
-1.10304	l s s	-0.0563295
-0.979772	h s y	-0.0332333
-0.20773	t s h	-0.073335
-0.150659	k s h	-0.0863877
-0.234294	i s h	-0.0332333
-1.11891	y s </unk>
-0.951893	y s c	-0.0563295
-0.253799	y s h	-0.117925
-1.15064	y s o	-0.0332333
-1.15995	y s a	-0.0332333
-1.3715	y s s	-0.0332333
-0.150659	s s h	-0.0863877
-1.0908	m s </unk>
-0.309977	m s h	-0.0332333
-1.23337	m s y	-0.0332333
-0.885243	m s o	-0.0563295
-1.20456	m s s	-0.0332333
-0.150656	r s h	-0.112072
-1.18194	n s </unk>
-0.270811	n s h	-0.105121
-1.09327	n s o	-0.0332333
-0.783284	n s a	-0.073335
-0.696413	<unk> s c	-0.0563295
-0.319693	<unk> s h	-0.0563295
-0.994646	<unk> s o	-0.0332333
-1.24603	a m </unk>
-1.06383	a m k	-0.0563295
-1.05962	a m c	-0.0863877
-0.995893	a m y	-0.0563295
-0.501108	a m o	-0.0967266
-0.722439	a m s	-0.073335
-1.31657	a m p	-0.0332333
-1.48846	a m q	-0.0332333
-0.782169	i m c	-0.0332333
-1.08275	i m m	-0.0332333
-0.750784	m m y	-0.0332333
-1.1756	o m </unk>
-0.910706	o m c	-0.073335
-1.00257	o m y	-0.0332333
-0.535453	o m o	-0.139192
-1.42266	o m d	-0.0332333
-1.3939	o m t	-0.0332333
-0.736912	o m s	-0.073335
-1.24977	o m p	-0.0332333
-0.277381	<unk> m o	-0.073335
-0.624465	e m s	-0.0332333
-0.464287	c f h	-0.0332333
-0.622615	l f o	-0.0332333
-0.698066	<unk> f c	-0.0332333
-0.431533	r e e	-0.073335
-0.73705	y e </unk>
-0.462084	s e e	-0.0563295
-1.21279	h e </unk>
-1.38121	h e k	-0.0563295
-1.71388	h e c	-0.0332333
-0.527298	h e y	-0.13431
-0.56718	h e o	-0.186276
-1.33737	h e a	-0.073335
-1.86379	h e t	-0.0332333
-0.655929	h e e	-0.117925
-0.945786	t e </unk>
-0.741805	t e y	-0.0332333
-0.606372	t e o	-0.073335
-1.23915	t e a	-0.0332333
-0.530601	t e e	-0.0563295
-1.05556	k e </unk>
-1.43438	k e c	-0.0332333
-0.843088	k e y	-0.0332333
-0.446567	k e o	-0.112072
-0.549705	k e e	-0.0967266
-0.992081	e e </unk>
-0.48508	e e y	-0.159515
-0.791874	e e o	-0.073335
-1.16981	e e a	-0.0563295
-1.73567	e e n	-0.0332333
-0.72416	e e e	-0.11645
-1.73567	e e m	-0.0332333
-1.21925	e e s	-0.073335
-1.00736	i e s	-0.0332333
-0.533364	o e o	-0.0563295
-0.574068	o e e	-0.0332333
-0.871034	<unk> e </unk>
-0.674705	<unk> e y	-0.0332333
-0.659021	<unk> e o	-0.0332333
-0.547521	<unk> e e	-0.0563295
-1.12238	l e k	-0.0332333
-0.496979	l e e	-0.0563295
-0.588146	l t c	-0.0332333
-1.05657	y t </unk>
-0.644747	y t c	-0.0863877
-0.722628	y t o	-0.073335
-0.881762	y t e	-0.073335
-1.0525	y t s	-0.0563295
-0.157828	c t h	-0.186278
-0.782322	e t y	-0.0332333
-1.12361	o t </unk>
-0.339681	o t c	-0.13987
-1.25963	o t y	-0.0332333
-0.931917	o t o	-0.0863877
-1.1648	o t a	-0.073335
-1.05076	o t e	-0.0863877
-1.40335	o t s	-0.0332333
-0.831226	h t y	-0.0332333
-0.883938	h t a	-0.0332333
-0.734082	<unk> t c	-0.0332333
-0.797322	<unk> t h	-0.0332333
-0.645826	<unk> t y	-0.0563295
-0.882545	<unk> t e	-0.0332333
-0.588146	m t c	-0.0332333
-1.57703	o l </unk>
-1.32389	o l k	-0.0967266
-0.66218	o l c	-0.168355
-1.04242	o l y	-0.112072
-0.806732	o l o	-0.142226
-0.717954	o l d	-0.148048
-1.91967	o l a	-0.0332333
-1.64375	o l e	-0.0563295
-2.06011	o l f	-0.0332333
-0.757759	o l s	-0.142226
-1.46796	o l q	-0.0863877
-1.18435	<unk> l k	-0.0332333
-0.828289	<unk> l o	-0.0332333
-0.933871	<unk> l d	-0.0332333
-1.31906	<unk> l t	-0.0332333
-0.694347	<unk> l s	-0.0332333
-1.12128	<unk> l q	-0.0332333
-1.40461	a l </unk>
-0.726168	a l c	-0.0967266
-0.966551	a l y	-0.073335
-1.01561	a l o	-0.0332333
-0.532657	a l d	-0.186266
-1.46254	a l e	-0.0332333
-0.82263	a l s	-0.0563295
-0.772635	i l d	-0.0332333
-0.568771	d l s	-0.0332333
-0.568771	r l s	-0.0332333
-1.00321	i n </unk>
-1.61049	i n k	-0.0332333
-0.689814	i n c	-0.186274
-0.994475	i n y	-0.073335
-0.989958	i n o	-0.0967266
-0.678978	i n d	-0.112072
-0.698653	i n s	-0.117925
-1.658	i n q	-0.0863877
-0.715169	<unk> n c	-0.0332333
-0.498339	<unk> n s	-0.0563295
-0.792213	a n c	-0.0332333
-0.83369	a n y	-0.0332333
-1.04313	a n o	-0.0332333
-0.761614	a n d	-0.0563295
-0.584036	a n s	-0.0563295
-0.676623	e n y	-0.0332333

\4-grams:
-0.313921	a m k o	-0.00869019
-0.935148	s h k a	-0.00507177
-0.730504	c h k y	-0.00507177
-0.569379	i n k c	-0.00507177
-0.634631	o l k y	-0.00507177
-0.522368	o l k o	-0.00869019
-0.737136	o l k e	-0.00869019
-0.616224	<unk> l k y	-0.00507177
-0.52059	y o k o	-0.00869019
-0.791614	y o k a	-0.00507177
-0.907435	h o k c	-0.00507177
-0.993835	h o k y	-0.00507177
-0.529626	h o k o	-0.0114018
-0.807818	h o k a	-0.00507177
-0.61788	h o k e	-0.00869019
-0.898513	l o k c	-0.00507177
-0.983729	l o k y	-0.00507177
-0.763862	l o k a	-0.0135095
-1.60091	r o k </unk>
-0.523362	r o k o	-0.0114018
-0.612372	r o k e	-0.00869019
-0.785672	m o k a	-0.00507177
-0.609415	m o k e	-0.00507177
-0.898154	q o k c	-0.00869019
-1.00023	q o k y	-0.00507177
-0.536145	q o k o	-0.0114018
-0.608296	q o k e	-0.0135095
-1.38751	q o k s	-0.00507177
-0.522741	n o k o	-0.00507177
-0.158781	o c k h	-0.0114018
-0.159983	y c k h	-0.00869019
-0.159983	r c k h	-0.00869019
-0.161605	h c k h	-0.00507177
-0.161605	a c k h	-0.00507177
-0.161605	<unk> c k h	-0.00507177
-0.770478	h e k y	-0.00507177
-0.743934	h e k e	-0.00507177
-0.922801	l e k s	-0.00507177
-0.833994	y d k s	-0.00507177
-0.697849	h y k c	-0.00507177
-0.769273	h y k y	-0.00507177
-0.466594	h y k o	-0.00869019
-0.456367	y y k o	-0.00869019
-0.681407	s y k c	-0.00507177
-0.468849	o y k o	-0.00507177
-0.869214	o y k e	-0.00507177
-0.759027	n y k y	-0.00507177
-1.15669	n y k s	-0.00507177
-0.759027	l y k y	-0.00507177
-0.468849	l y k o	-0.00507177
-0.693713	e y k c	-0.00507177
-1.24071	e y k a	-0.00507177
-0.875845	e y k e	-0.00507177
-0.681407	t y k c	-0.00507177
-0.762762	<unk> r k y	-0.00507177
-0.641955	o r k c	-0.00507177
-0.494539	o r k o	-0.00507177
-0.112966	k e c h	-0.00507177
-0.112966	h e c h	-0.00507177
-1.59383	o l c </unk>
-0.116975	o l c h	-0.0681487
-0.74718	o l c t	-0.0151948
-0.115627	a l c h	-0.0151948
-0.112789	y d c h	-0.00507177
-1.08997	l d c </unk>
-0.117321	l d c h	-0.00507177
-0.112789	d d c h	-0.00507177
-0.112789	<unk> d c h	-0.00507177
-0.126221	r o c h	-0.00507177
-0.130783	m o c h	-0.00507177
-1.05039	m o c t	-0.00507177
-0.910814	a o c k	-0.00507177
-0.896702	h o c k	-0.00869019
-0.134208	h o c h	-0.00507177
-0.125008	s o c h	-0.00869019
-0.126221	y o c h	-0.00507177
-0.126221	t o c h	-0.00507177
-0.125008	<unk> o c h	-0.00869019
-0.142539	<unk> r c h	-0.00869019
-1.24128	<unk> r c f	-0.00507177
-1.15002	a r c k	-0.00507177
-0.142539	a r c h	-0.00869019
-1.51324	i r c p	-0.00507177
-1.19691	o r c k	-0.00507177
-0.14218	o r c h	-0.0662543
-0.958023	o r c t	-0.0601997
-1.29674	o r c f	-0.00507177
-0.13974	h r c h	-0.00507177
-0.810596	h a c k	-0.00507177
-0.120071	<unk> f c h	-0.00507177
-0.968484	c h c k	-0.00507177
-0.596835	c h c t	-0.00869019
-0.228189	s h c h	-0.00507177
-0.130892	a m c h	-0.0114018
-0.981185	a m c t	-0.00507177
-1.14727	o m c </unk>
-0.13219	o m c h	-0.00869019
-0.129308	i m c h	-0.00507177
-0.102163	i n c h	-0.0752575
-1.02911	i n c t	-0.00869019
-1.53662	i n c p	-0.00507177
-0.114419	a n c h	-0.00507177
-0.114419	<unk> n c h	-0.00507177
-0.11925	y p c h	-0.00507177
-1.10682	o p c </unk>
-0.122211	o p c h	-0.00869019
-0.118113	m p c h	-0.00869019
-0.093284	<unk> k c h	-0.00869019
-0.0941555	n k c h	-0.00507177
-1.21549	y k c </unk>
-0.0962681	y k c h	-0.0114018
-0.0702824	o k c h	-0.0135095
-0.0941555	r k c h	-0.00507177
-0.0530013	l t c h	-0.00507177
-0.0508054	o t c h	-0.0475128
-0.051918	y t c h	-0.0135095
-0.0530013	m t c h	-0.00507177
-0.0530013	<unk> t c h	-0.00507177
-0.104119	l y c h	-0.00869019
-0.105104	n y c h	-0.00507177
-0.105104	y y c h	-0.00507177
-0.105104	s y c h	-0.00507177
-0.105104	r y c h	-0.00507177
-0.105104	m y c h	-0.00507177
-1.23545	e y c k	-0.00507177
-0.107264	e y c h	-0.0549955
-0.965635	e y c t	-0.00507177
-0.105104	a y c h	-0.00507177
-1.45719	h y c </unk>
-1.23545	h y c k	-0.00507177
-0.116138	h y c h	-0.00869019
-0.925305	h y c t	-0.0114018
-0.103387	k y c h	-0.0114018
-0.108173	t y c h	-0.00869019
-0.945583	t y c t	-0.00507177
-0.102822	d y c h	-0.0135095
-0.080086	e s c h	-0.00869019
-0.080086	y s c h	-0.00869019
-0.080086	o s c h	-0.00869019
-0.080086	<unk> s c h	-0.00869019
-0.0808224	l s c h	-0.00507177
-1.05266	e c h y	-0.00507177
-0.269349	e c h o	-0.00507177
-1.18158	<unk> c h </unk>
-1.98922	<unk> c h k	-0.00507177
-0.266998	<unk> c h o	-0.0177216
-0.959958	<unk> c h a	-0.00869019
-0.776998	<unk> c h e	-0.00507177
-1.20697	l c h </unk>
-1.09012	l c h y	-0.0151948
-0.240882	l c h o	-0.0513362
-1.02083	l c h a	-0.00507177
-0.812109	l c h e	-0.00869019
-1.19192	r c h </unk>
-0.264715	r c h o	-0.0782614
-0.971865	r c h a	-0.00869019
-0.760808	r c h e	-0.0601997
-1.06822	d c h y	-0.00507177
-0.263542	d c h o	-0.0114018
-0.264434	h c h o	-0.00507177
-1.78394	f c h s	-0.00507177
-0.264882	m c h o	-0.0135095
-0.962507	m c h a	-0.00507177
-0.766565	m c h e	-0.00507177
-1.99608	n c h c	-0.0114018
-0.243847	n c h o	-0.0177216
-0.984074	n c h a	-0.00869019
-0.802432	n c h e	-0.00507177
-0.267033	p c h o	-0.0114018
-0.746638	p c h e	-0.00869019
-1.14353	o c h </unk>
-0.272082	o c h o	-0.0135095
-0.748436	o c h e	-0.0114018
-1.20529	k c h </unk>
-1.92387	k c h r	-0.00507177
-1.0953	k c h y	-0.00869019
-0.253674	k c h o	-0.0135095
-1.00117	k c h a	-0.00507177
-0.791201	k c h e	-0.00869019
-1.19082	t c h </unk>
-1.08668	t c h y	-0.00869019
-0.272792	t c h o	-0.0208779
-0.958756	t c h a	-0.0114018
-0.75931	t c h e	-0.0135095
-1.18181	y c h </unk>
-1.10797	y c h y	-0.00507177
-0.267757	y c h o	-0.0441576
-0.968501	y c h a	-0.0114018
-2.10448	y c h t	-0.00507177
-0.767751	y c h e	-0.0135095
-1.1741	s c h </unk>
-1.88392	s c h r	-0.00507177
-0.27607	s c h o	-0.0114018
-0.970759	s c h a	-0.00507177
-0.748436	s c h e	-0.0114018
-0.77709	c f h a	-0.00869019
-0.495206	c k h y	-0.0151948
-0.378147	c k h o	-0.0151948
-1.22342	c t h </unk>
-0.502904	c t h y	-0.0195255
-0.427139	c t h o	-0.0530192
-1.2183	c t h a	-0.00507177
-0.87513	c t h e	-0.00869019
-0.385549	<unk> t h o	-0.00507177
-0.582618	i s h e	-0.00507177
-0.412276	m s h o	-0.00869019
-1.69036	r s h k	-0.00507177
-0.854667	r s h y	-0.00507177
-0.424756	r s h o	-0.00869019
-1.00899	r s h a	-0.00507177
-1.71659	r s h t	-0.00507177
-0.604891	r s h e	-0.00507177
-0.856989	y s h y	-0.00507177
-0.414681	y s h o	-0.0135095
-1.01189	y s h a	-0.00507177
-0.597475	y s h e	-0.00869019
-0.416244	s s h o	-0.00869019
-0.996558	s s h a	-0.00507177
-0.59742	s s h e	-0.00507177
-0.844678	k s h y	-0.00507177
-0.416244	k s h o	-0.00869019
-0.59742	k s h e	-0.00507177
-1.15685	t s h </unk>
-0.579227	t s h e	-0.00869019
-0.422427	n s h o	-0.0114018
-0.978956	n s h a	-0.00869019
-0.592122	n s h e	-0.00869019
-0.83341	<unk> s h y	-0.00507177
-0.588939	<unk> s h e	-0.00507177
-1.18509	l s h </unk>
-0.856989	l s h y	-0.00507177
-0.414681	l s h o	-0.0135095
-0.597475	l s h e	-0.0135095
-1.63959	o s h c	-0.00507177
-0.407658	o s h o	-0.0114018
-0.423628	c p h o	-0.00507177
-0.551824	c h r c	-0.00507177
-0.81221	c h r y	-0.00507177
-0.653064	h a r o	-0.00507177
-1.11631	h a r a	-0.00507177
-0.815509	h a r s	-0.00507177
-0.655885	<unk> a r c	-0.00507177
-0.636509	<unk> a r o	-0.00869019
-1.26267	d a r </unk>
-0.665647	d a r c	-0.00507177
-0.662796	d a r o	-0.00507177
-1.15262	d a r e	-0.00507177
-0.809487	d a r s	-0.00869019
-0.641288	o a r o	-0.00507177
-0.641288	r a r o	-0.00507177
-0.650808	e a r c	-0.00507177
-1.12373	e a r e	-0.00507177
-1.02451	k a r y	-0.00507177
-0.474297	r o r c	-0.00507177
-0.732657	r o r o	-0.00507177
-1.22011	h o r </unk>
-1.50711	h o r k	-0.00507177
-0.452495	h o r c	-0.0486226
-1.20417	h o r y	-0.0114018
-0.766615	h o r o	-0.0165733
-1.17684	h o r d	-0.00869019
-1.2982	h o r a	-0.00507177
-1.87108	h o r l	-0.00507177
-1.23467	h o r s	-0.00507177
-1.01908	h o r q	-0.0601997
-0.468602	a o r c	-0.00507177
-1.13987	* o r s	-0.00507177
-1.15043	d o r </unk>
-0.467436	d o r c	-0.00869019
-1.20924	l o r a	-0.00507177
-1.15332	l o r s	-0.00507177
-1.19446	y o r a	-0.00507177
-1.17456	e o r </unk>
-1.43942	e o r k	-0.00507177
-0.481058	e o r c	-0.00507177
-1.14542	e o r d	-0.00507177
-1.49256	e o r e	-0.00507177
-1.01689	e o r q	-0.00507177
-0.478583	<unk> o r c	-0.00507177
-0.738227	<unk> o r o	-0.00507177
-1.12243	<unk> o r d	-0.00507177
-0.474297	k o r c	-0.00507177
-0.732657	k o r o	-0.00507177
-1.13111	a i r </unk>
-0.657819	a i r c	-0.00507177
-0.956387	a i r y	-0.00507177
-0.703801	a i r o	-0.00507177
-0.959809	a i r s	-0.00507177
-1.02816	a i r q	-0.00507177
-0.681315	i i r o	-0.00507177
-0.682233	e y y k	-0.00869019
-1.18272	n y y p	-0.00507177
-1.01296	h y y </unk>
-0.654144	h y y c	-0.00507177
-0.635939	o k y c	-0.00869019
-0.34321	o k y d	-0.00507177
-0.647413	l k y c	-0.00507177
-0.339345	l k y d	-0.00507177
-0.334203	r k y d	-0.00507177
-0.33502	y k y d	-0.00869019
-1.17338	y k y s	-0.00507177
-0.334203	e k y d	-0.00507177
-0.334203	h k y d	-0.00507177
-1.09247	t o y </unk>
-0.515556	t o y s	-0.00507177
-0.780148	l o y k	-0.00507177
-0.509654	q o y s	-0.00507177
-0.788033	h o y k	-0.00507177
-0.515556	h o y s	-0.00507177
-0.509654	m o y s	-0.00507177
-1.09492	k h y </unk>
-0.554001	k h y c	-0.00507177
-0.809147	k h y d	-0.00507177
-1.19479	k h y t	-0.00507177
-0.876558	k h y s	-0.00507177
-0.843019	t h y k	-0.00869019
-0.561364	t h y c	-0.00507177
-1.34116	t h y y	-0.00507177
-1.37443	t h y o	-0.00507177
-0.818948	t h y d	-0.00507177
-0.871221	t h y s	-0.00869019
-1.2503	t h y q	-0.00507177
-0.543437	s h y c	-0.0740366
-0.790317	s h y d	-0.00869019
-1.23135	s h y q	-0.00507177
-0.867314	c h y </unk>
-0.887941	c h y k	-0.00507177
-0.563982	c h y c	-0.0151948
-1.37495	c h y y	-0.00507177
-0.84867	c h y d	-0.00507177
-0.917303	c h y s	-0.00507177
-0.824169	<unk> h y k	-0.00507177
-0.580299	h s y c	-0.00507177
-0.713997	m s y k	-0.00507177
-0.44174	e t y c	-0.00507177
-0.819726	h t y k	-0.00507177
-0.44174	o t y c	-0.00507177
-0.447311	<unk> t y c	-0.00507177
-0.811407	<unk> t y d	-0.00507177
-0.835805	a l y </unk>
-0.682089	a l y c	-0.00507177
-0.876148	a l y t	-0.00507177
-0.850664	o l y </unk>
-0.812401	o l y k	-0.00869019
-0.694385	o l y c	-0.00507177
-0.797265	o l y d	-0.00869019
-0.891847	o l y t	-0.00507177
-0.708822	i n y k	-0.00507177
-0.65924	i n y c	-0.00507177
-1.0608	i n y y	-0.00507177
-0.696306	a n y k	-0.00507177
-1.22137	e n y e	-0.00507177
-0.691906	h r y c	-0.00507177
-1.04987	o r y o	-0.00507177
-0.656435	o r y t	-0.00507177
-0.879407	o r y s	-0.00507177
-0.863946	a r y s	-0.00507177
-0.644618	i r y t	-0.00507177
-0.618301	a m y t	-0.0740366
-0.629818	m m y c	-0.00507177
-0.629909	o m y t	-0.00507177
-1.06137	h e y k	-0.00507177
-0.500417	h e y c	-0.0637231
-1.31705	h e y y	-0.00507177
-1.36288	h e y o	-0.00507177
-0.760558	h e y d	-0.0114018
-1.0234	h e y t	-0.00507177
-0.809663	h e y q	-0.00507177
-0.849296	e e y k	-0.00869019
-0.525131	e e y c	-0.0135095
-0.806548	e e y d	-0.00507177
-1.04834	e e y t	-0.00507177
-0.800679	e e y q	-0.0135095
-1.24046	k e y y	-0.00507177
-0.746348	t e y d	-0.00507177
-0.490802	<unk> e y c	-0.00507177
-0.580299	e a y c	-0.00507177
-0.776604	k a y t	-0.00507177
-1.30082	o d y </unk>
-0.716547	o d y c	-0.0114018
-0.962264	o d y o	-0.00869019
-0.894057	o d y d	-0.00869019
-1.02953	o d y t	-0.00869019
-0.828557	o d y s	-0.00869019
-1.15375	o d y p	-0.00869019
-1.05184	o d y q	-0.00869019
-0.675193	i d y c	-0.00507177
-1.00454	i d y q	-0.00507177
-0.841576	l d y d	-0.00507177
-0.907662	<unk> d y o	-0.00507177
-0.938547	a d y s	-0.00507177
-1.06495	k e o </unk>
-1.01156	k e o d	-0.00507177
-0.464102	k e o l	-0.00869019
-1.05163	k e o m	-0.00869019
-1.25708	k e o s	-0.00507177
-0.992924	t e o d	-0.00507177
-0.450758	t e o l	-0.00869019
-1.12414	h e o </unk>
-0.634205	h e o r	-0.0573492
-1.0695	h e o d	-0.00507177
-0.442246	h e o l	-0.0177216
-1.32231	h e o s	-0.00507177
-1.70205	h e o p	-0.00507177
-0.451639	<unk> e o l	-0.00507177
-0.695498	o e o r	-0.00507177
-1.05111	o e o m	-0.00507177
-1.04473	e e o </unk>
-0.700833	e e o r	-0.00507177
-0.46148	e e o l	-0.00507177
-1.09767	l d o </unk>
-0.899116	l d o r	-0.00869019
-0.337965	l d o l	-0.0165733
-1.4612	l d o m	-0.00507177
-1.38307	o d o a	-0.00507177
-0.349591	o d o l	-0.00507177
-1.05724	n d o </unk>
-1.20926	n d o t	-0.00507177
-0.868842	y d o r	-0.00507177
-1.44713	y d o i	-0.00507177
-0.916392	d a o c	-0.00507177
-0.739664	<unk> a o r	-0.00507177
-0.739658	m s o c	-0.00507177
-1.2515	m s o e	-0.00507177
-0.73222	y s o c	-0.00507177
-0.491745	l s o l	-0.00507177
-0.491745	n s o l	-0.00507177
-0.491745	<unk> s o l	-0.00507177
-0.629771	d y o k	-0.00869019
-0.722827	d y o l	-0.00507177
-0.875528	r y o r	-0.00507177
-0.634377	e y o k	-0.00507177
-1.0218	<unk> y o t	-0.00507177
-1.07651	h y o c	-0.00507177
-0.706974	l k o d	-0.00507177
-0.542155	l k o l	-0.00507177
-1.19503	o k o </unk>
-0.933447	o k o r	-0.00507177
-0.623402	o k o d	-0.0114018
-1.58359	o k o i	-0.00507177
-0.563134	o k o l	-0.0151948
-1.49764	o k o m	-0.00507177
-1.53079	y k o o	-0.00507177
-0.722783	y k o d	-0.00507177
-1.30557	y k o a	-0.00507177
-0.545815	y k o l	-0.00869019
-1.22386	y k o t	-0.00507177
-0.706974	m k o d	-0.00507177
-1.26811	m k o a	-0.00507177
-0.867381	r k o r	-0.00507177
-0.659595	a r o k	-0.00869019
-0.863203	a r o r	-0.00507177
-0.752373	a r o t	-0.00869019
-1.41245	a r o m	-0.00507177
-0.687676	o r o k	-0.0114018
-1.3183	o r o c	-0.00507177
-0.900983	o r o r	-0.00507177
-0.898991	o r o l	-0.00507177
-0.630948	o r o t	-0.0114018
-1.02993	i r o </unk>
-0.657207	i r o k	-0.00507177
-1.01889	<unk> r o </unk>
-1.13239	o l o </unk>
-0.684728	o l o k	-0.0601997
-0.958163	o l o r	-0.00507177
-1.42468	o l o y	-0.00507177
-0.847785	o l o d	-0.00869019
-0.734009	o l o l	-0.0114018
-1.52993	o l o e	-0.00507177
-1.42948	o l o m	-0.00507177
-1.46813	o l o p	-0.00507177
-0.910957	a l o r	-0.00507177
-0.672262	<unk> l o k	-0.00507177
-0.697157	o * o r	-0.00507177
-1.00114	a m o k	-0.00507177
-0.893382	a m o c	-0.00869019
-1.34382	a m o y	-0.00507177
-0.968982	a m o s	-0.00507177
-1.04289	o m o k	-0.00507177
-0.531366	o m o t	-0.00869019
-1.01096	o m o s	-0.00507177
-1.4144	o m o p	-0.00507177
-0.632003	<unk> m o t	-0.0114018
-0.701704	l f o d	-0.00507177
-1.251	c h o </unk>
-1.16917	c h o k	-0.0177216
-0.596474	c h o r	-0.0542669
-0.883083	c h o d	-0.0681487
-2.03348	c h o i	-0.00507177
-0.537299	c h o l	-0.0559784
-1.53415	c h o t	-0.00869019
-1.20361	c h o m	-0.0573492
-1.91748	c h o q	-0.00507177
-1.16295	k h o </unk>
-1.44031	k h o c	-0.00507177
-0.617999	k h o r	-0.00507177
-1.62081	k h o y	-0.00507177
-0.521795	k h o l	-0.00507177
-0.624331	t h o r	-0.00507177
-1.03107	t h o d	-0.00507177
-0.505039	t h o l	-0.0135095
-1.21868	t h o m	-0.00869019
-1.73612	t h o q	-0.00507177
-1.20059	s h o </unk>
-1.13324	s h o k	-0.00507177
-1.47109	s h o c	-0.00869019
-0.630669	s h o r	-0.00869019
-1.71641	s h o y	-0.00507177
-1.03788	s h o d	-0.00869019
-0.504939	s h o l	-0.0202468
-1.24468	s h o m	-0.00507177
-1.77377	s h o s	-0.00507177
-2.1561	s h o *	-0.00507177
-1.58367	p h o a	-0.00507177
-0.577451	<unk> h o r	-0.110413
-0.524064	<unk> h o l	-0.00507177
-0.587885	q o o l	-0.00507177
-1.05338	k o o i	-0.00507177
-0.5671	y p o l	-0.00507177
-0.947804	y p o t	-0.00507177
-0.891583	o p o </unk>
-0.5671	o p o l	-0.00507177
-1.17352	y q o </unk>
-0.509537	y q o k	-0.0165733
-1.68817	y q o o	-0.00507177
-0.695454	y q o t	-0.0637231
-0.690147	s q o t	-0.00507177
-1.17948	s q o p	-0.00507177
-0.520368	o q o k	-0.00507177
-0.690147	o q o t	-0.00507177
-1.14553	n q o </unk>
-0.528312	n q o k	-0.00869019
-1.53717	n q o y	-0.00507177
-1.19874	n q o p	-0.00507177
-0.520368	<unk> q o k	-0.00507177
-0.979032	<unk> q o d	-0.00507177
-0.528312	l q o k	-0.00507177
-0.992897	l q o d	-0.00507177
-0.699593	l q o t	-0.00869019
-1.40895	l q o s	-0.00507177
-0.683119	m q o t	-0.00507177
-1.157	r q o </unk>
-1.00186	r q o d	-0.00507177
-0.705652	r q o t	-0.00507177
-1.65337	r q o e	-0.00507177
-1.42757	r q o s	-0.00507177
-1.21132	r q o p	-0.00507177
-0.98004	i n o k	-0.00507177
-0.892589	i n o d	-0.00507177
-0.647638	i n o l	-0.00507177
-0.702943	i n o t	-0.00507177
-0.628982	a n o l	-0.00507177
-0.987448	o t o </unk>
-1.10511	o t o c	-0.00507177
-0.82142	o t o y	-0.00507177
-1.21808	o t o a	-0.00507177
-0.816619	y t o y	-0.00507177
-0.896629	y t o d	-0.00507177
-0.722827	y t o l	-0.00507177
-0.454361	h o d y	-0.0165733
-1.10216	h o d o	-0.00869019
-0.3224	h o d a	-0.0177216
-0.297524	f o d a	-0.00507177
-1.51299	k o d </unk>
-0.409332	k o d y	-0.0135095
-0.353759	k o d a	-0.00507177
-0.487254	t o d y	-0.00507177
-0.485763	e o d y	-0.00869019
-0.306313	e o d a	-0.00507177
-0.493041	<unk> o d y	-0.00507177
-0.302542	<unk> o d a	-0.00507177
-0.297524	n o d a	-0.00507177
-0.493041	l o d y	-0.00507177
-0.302542	l o d a	-0.00507177
-0.291385	q o d a	-0.0114018
-1.29495	<unk> y d c	-0.00507177
-0.138844	d y d a	-0.00869019
-1.57683	d y d l	-0.00507177
-1.59236	h y d k	-0.00507177
-0.13642	h y d a	-0.0135095
-0.131454	k y d a	-0.0177216
-0.136015	t y d a	-0.00507177
-1.06624	e y d o	-0.00869019
-0.140528	e y d a	-0.0114018
-1.43416	l y d </unk>
-0.140598	l y d a	-0.00507177
-0.313182	a l d o	-0.0637231
-0.369219	a l d a	-0.00869019
-1.53019	o l d c	-0.00869019
-0.435691	o l d o	-0.0177216
-0.2784	o l d a	-0.0498857
-0.428503	<unk> l d o	-0.00507177
-1.19216	i l d y	-0.00507177
-0.854147	i n d o	-0.00869019
-1.38598	i n d d	-0.00507177
-0.219935	i n d a	-0.0135095
-0.213393	a n d a	-0.00869019
-0.430245	i i d y	-0.00869019
-0.852098	n d d c	-0.00507177
-0.16394	o r d a	-0.0135095
-0.167865	<unk> r d a	-0.00507177
-0.228536	o m d a	-0.00507177
-0.258134	k a d a	-0.00507177
-0.674018	p a d y	-0.00507177
-0.414336	o l a i	-0.00507177
-0.667196	o p a l	-0.00507177
-1.04402	h p a d	-0.00507177
-0.575377	h o a l	-0.00507177
-0.45468	t o a i	-0.00507177
-0.448068	k o a i	-0.0740366
-0.826924	<unk> o a r	-0.00507177
-0.575377	d o a l	-0.00507177
-1.11482	o d a </unk>
-0.936603	o d a r	-0.00869019
-0.271241	o d a i	-0.116023
-1.32881	o d a n	-0.00507177
-1.02343	o d a l	-0.00869019
-1.07473	o d a m	-0.00507177
-1.15113	y d a </unk>
-0.954445	y d a r	-0.00869019
-1.775	y d a o	-0.00507177
-0.289621	y d a i	-0.0195255
-0.870588	y d a l	-0.0114018
-1.09217	y d a m	-0.00507177
-0.934686	<unk> d a l	-0.00507177
-0.968919	<unk> d a m	-0.00507177
-0.334906	n d a i	-0.0114018
-1.19295	n d a n	-0.00869019
-0.956044	n d a l	-0.00507177
-1.04562	l d a </unk>
-0.8909	l d a r	-0.00869019
-0.303841	l d a i	-0.0165733
-0.325436	r d a i	-0.0637231
-0.987414	r d a m	-0.00507177
-0.958846	m d a m	-0.00507177
-0.330424	a d a i	-0.00507177
-1.37583	c h a </unk>
-0.982461	c h a r	-0.00507177
-0.618843	c h a i	-0.0114018
-1.05305	c h a n	-0.00869019
-0.856264	c h a l	-0.00869019
-0.494738	c h a m	-0.140776
-0.923108	f h a r	-0.00507177
-0.546715	f h a m	-0.00507177
-1.58752	s h a c	-0.00507177
-0.940388	s h a r	-0.00507177
-0.584246	s h a i	-0.00507177
-1.02434	s h a n	-0.00507177
-0.804491	t h a l	-0.00507177
-0.710643	a r a m	-0.00507177
-1.04735	o r a n	-0.00507177
-0.753609	o r a l	-0.00507177
-0.723368	o r a m	-0.00507177
-0.783341	<unk> r a r	-0.00507177
-0.719751	e e a r	-0.00507177
-1.19321	e e a y	-0.00507177
-0.725237	h e a r	-0.00507177
-0.53058	h e a i	-0.00507177
-0.746862	h e a m	-0.00507177
-0.733783	t e a m	-0.00507177
-0.889936	o k a r	-0.00507177
-1.31236	o k a y	-0.00507177
-1.33273	o k a d	-0.00507177
-0.506125	o k a i	-0.00869019
-0.648742	o k a l	-0.00869019
-0.88579	y k a m	-0.00507177
-0.49368	h k a i	-0.00507177
-0.385826	o t a i	-0.00869019
-0.73403	o t a l	-0.00507177
-0.385698	h t a i	-0.00507177
-0.230944	n s a i	-0.0114018
-0.235148	l s a i	-0.0114018
-0.981847	l s a m	-0.00507177
-0.891646	y s a l	-0.00507177
-0.235443	o s a i	-0.00507177
-1.3346	d a i r	-0.0165733
-0.148313	d a i i	-0.0590598
-0.788003	d a i n	-0.0177216
-0.175055	o a i i	-0.0114018
-0.173715	t a i i	-0.0114018
-1.45325	k a i </unk>
-0.185054	k a i i	-0.00507177
-1.64044	k a i *	-0.00507177
-0.177659	h a i i	-0.0135095
-0.815204	h a i n	-0.00507177
-0.17064	s a i i	-0.0165733
-0.176862	l a i i	-0.00507177
-0.176862	e a i i	-0.00507177
-0.176862	<unk> a i i	-0.00507177
-1.19064	a i i </unk>
-1.59194	a i i r	-0.00507177
-1.45541	a i i d	-0.00869019
-1.06526	a i i i	-0.00507177
-0.145573	a i i n	-0.171359
-1.71421	a i i m	-0.00507177
-0.155298	<unk> i i n	-0.00507177
-1.64144	<unk> i i l	-0.00507177
-0.14919	o i i n	-0.00869019
-0.150682	i i i n	-0.00507177
-1.11181	h o i e	-0.00507177
-0.440027	o o i i	-0.00507177
-1.0958	k o i s	-0.00507177
-0.440027	d o i i	-0.00507177
-0.518753	h o * o	-0.00507177
-0.567327	a i * </unk>
-0.0398873	h y q o	-0.00869019
-0.0392667	e y q o	-0.0601997
-0.0398873	<unk> y q o	-0.00869019
-0.0396273	d y q o	-0.0114018
-0.0551966	e s q o	-0.00507177
-0.0551966	o s q o	-0.00507177
-0.0472357	h o q o	-0.00869019
-0.0502324	i n q o	-0.0135095
-0.0499999	<unk> l q o	-0.00507177
-0.0489815	o l q o	-0.0637231
-0.0584234	a m q o	-0.00507177
-1.17601	o r q </unk>
-0.0683817	o r q o	-0.0151948
-0.066554	i r q o	-0.00507177
-0.477198	d y p o	-0.00869019
-0.448283	y y p c	-0.00507177
-0.942995	r c p h	-0.00507177
-0.884457	n c p </unk>
-0.408307	e o p c	-0.00507177
-0.417814	q o p c	-0.00507177
-0.561945	q o p o	-0.00507177
-0.90981	q o p a	-0.00507177
-0.551195	m o p o	-0.00507177
-0.408307	l o p c	-0.00507177
-0.35954	o m p c	-0.00507177
-0.35954	a m p c	-0.00507177
-0.745546	<unk> h p a	-0.00507177
-0.289687	<unk> o s h	-0.00507177
-0.776759	e o s c	-0.00507177
-1.24956	e o s q	-0.00507177
-0.286283	m o s h	-0.00869019
-0.776759	q o s c	-0.00507177
-1.01832	q o s a	-0.00507177
-0.289687	h o s h	-0.00507177
-0.636761	i e s c	-0.00507177
-0.648479	e e s c	-0.00507177
-1.14143	e e s e	-0.00507177
-1.1524	e e s q	-0.00507177
-1.28954	o l s </unk>
-1.28288	o l s c	-0.00507177
-0.290549	o l s h	-0.0957715
-1.20099	o l s o	-0.00507177
-0.789537	o l s a	-0.0114018
-1.49279	o l s e	-0.00507177
-1.10649	o l s s	-0.00507177
-0.283746	<unk> l s h	-0.00507177
-1.04782	d l s s	-0.00507177
-0.28872	a l s h	-0.00507177
-0.777136	a l s a	-0.00507177
-0.283746	r l s h	-0.00507177
-0.938692	c h s y	-0.00507177
-0.202485	y t s h	-0.00869019
-0.204648	o t s h	-0.00507177
-0.148573	d k s h	-0.00507177
-0.148573	y k s h	-0.00507177
-0.148573	e k s h	-0.00507177
-0.148573	o k s h	-0.00507177
-0.230703	o i s h	-0.00507177
-1.0895	h y s </unk>
-0.935732	h y s c	-0.00507177
-0.255171	h y s h	-0.00869019
-1.0895	o y s </unk>
-0.255171	o y s h	-0.00869019
-1.31099	o y s s	-0.00507177
-0.930123	d y s c	-0.00507177
-0.258346	d y s h	-0.00507177
-1.11072	d y s o	-0.00507177
-0.247021	r y s h	-0.00869019
-1.09692	k y s a	-0.00507177
-0.249814	<unk> y s h	-0.00507177
-0.148573	y s s h	-0.00507177
-0.147106	l s s h	-0.00869019
-0.148573	m s s h	-0.00507177
-1.18341	a m s y	-0.00507177
-0.868041	a m s o	-0.00507177
-1.15829	a m s s	-0.00507177
-1.05715	o m s </unk>
-0.305932	o m s h	-0.0740366
-0.852813	e m s o	-0.00507177
-0.146014	a r s h	-0.0114018
-0.146014	o r s h	-0.0114018
-0.14857	i r s h	-0.00507177
-1.16577	i n s </unk>
-0.263568	i n s h	-0.0151948
-1.08333	i n s o	-0.00507177
-0.27139	<unk> n s h	-0.00507177
-0.766114	<unk> n s a	-0.00507177
-0.741707	a n s a	-0.00869019
-1.02445	r a m k	-0.00507177
-0.963148	r a m y	-0.00507177
-0.48784	d a m o	-0.0114018
-0.72161	d a m s	-0.00507177
-1.41754	d a m q	-0.00507177
-1.20989	h a m </unk>
-1.04071	h a m c	-0.0135095
-0.506606	h a m o	-0.00507177
-0.706158	h a m s	-0.00869019
-1.227	s a m p	-0.00507177
-0.4903	k a m o	-0.00507177
-1.02445	e a m k	-0.00507177
-0.963148	e a m y	-0.00507177
-1.03011	<unk> i m m	-0.00507177
-0.757396	i i m c	-0.00507177
-0.728027	i m m y	-0.00507177
-0.910383	h o m c	-0.00869019
-0.530239	h o m o	-0.0114018
-1.38236	h o m d	-0.00507177
-1.35715	h o m t	-0.00507177
-0.742769	h o m s	-0.00507177
-1.22797	h o m p	-0.00507177
-0.715003	r o m s	-0.00507177
-1.13283	e o m </unk>
-0.976866	e o m y	-0.00507177
-0.533839	e o m o	-0.00507177
-0.715003	d o m s	-0.00507177
-0.523364	l o m o	-0.00507177
-0.876112	k o m c	-0.00507177
-0.608565	e e m s	-0.00507177
-0.448135	r c f h	-0.0740366
-0.606802	o l f o	-0.00507177
-0.417138	a r e e	-0.00869019
-0.423039	o r e e	-0.00507177
-0.715133	n y e </unk>
-0.452618	l s e e	-0.00507177
-0.452618	e s e e	-0.00507177
-1.2933	c h e </unk>
-1.45323	c h e k	-0.00507177
-0.596199	c h e y	-0.018693
-0.411491	c h e o	-0.0475128
-1.41191	c h e a	-0.00869019
-1.88554	c h e t	-0.00507177
-0.739489	c h e e	-0.0114018
-1.21084	s h e </unk>
-1.36802	s h e k	-0.00507177
-1.66268	s h e c	-0.00507177
-0.539697	s h e y	-0.00869019
-0.562098	s h e o	-0.0151948
-1.32751	s h e a	-0.00507177
-0.651349	s h e e	-0.0135095
-0.507392	t h e y	-0.00869019
-0.638493	<unk> h e e	-0.00507177
-0.602488	y t e o	-0.00507177
-1.18842	y t e a	-0.00507177
-0.529129	y t e e	-0.00507177
-0.930026	o t e </unk>
-0.736785	o t e y	-0.00507177
-0.606239	o t e o	-0.00507177
-0.532624	o t e e	-0.00507177
-0.591308	<unk> t e o	-0.00507177
-0.878098	o k e y	-0.00507177
-0.387528	o k e o	-0.0151948
-0.576358	o k e e	-0.0114018
-1.01703	l k e </unk>
-1.33765	l k e c	-0.00507177
-0.443156	y k e o	-0.00507177
-0.543105	y k e e	-0.00507177
-0.537054	<unk> k e e	-0.00507177
-0.437604	e k e o	-0.00507177
-0.774202	t e e o	-0.00507177
-1.11802	t e e a	-0.00507177
-0.464031	k e e y	-0.0135095
-0.788326	k e e o	-0.00507177
-0.966247	h e e </unk>
-0.462069	h e e y	-0.0165733
-0.703009	o e e e	-0.00507177
-0.682699	e e e s	-0.00869019
-0.959682	<unk> e e </unk>
-0.480563	<unk> e e y	-0.00507177
-0.774202	l e e o	-0.00507177
-1.55407	l e e m	-0.00507177
-0.480563	s e e y	-0.00507177
-0.710197	s e e e	-0.00507177
-1.12771	r e e a	-0.00507177
-1.57609	r e e n	-0.00507177
-1.17113	r e e s	-0.00507177
-0.96342	o i e s	-0.00507177
-0.560417	l o e e	-0.00507177
-0.521356	s o e o	-0.00507177
-0.521356	q o e o	-0.00507177
-1.07647	o l e k	-0.00507177
-0.492101	o l e e	-0.00507177
-0.486319	a l e e	-0.00507177
-0.573892	<unk> l t c	-0.00507177
-0.828268	m y t e	-0.0114018
-0.634488	r y t c	-0.00507177
-0.708743	r y t o	-0.00507177
-0.708743	e y t o	-0.00507177
-1.01428	e y t s	-0.00507177
-1.01794	d y t </unk>
-1.01428	d y t s	-0.00507177
-0.634488	l y t c	-0.00507177
-0.708743	l y t o	-0.00507177
-0.627869	a y t c	-0.00507177
-0.627869	h y t c	-0.00507177
-0.133867	y c t h	-0.0151948
-0.151333	l c t h	-0.0151948
-0.152037	r c t h	-0.0601997
-0.155624	m c t h	-0.00507177
-0.154073	n c t h	-0.00869019
-0.154073	h c t h	-0.00869019
-0.155624	o c t h	-0.00507177
-0.757539	h e t y	-0.00507177
-0.333741	k o t c	-0.00507177
-0.895429	p o t o	-0.00507177
-0.338881	<unk> o t c	-0.00507177
-0.90462	<unk> o t o	-0.00507177
-0.333741	n o t c	-0.00869019
-1.09952	r o t </unk>
-0.34156	r o t c	-0.00869019
-1.13699	r o t a	-0.00507177
-1.03251	r o t e	-0.00507177
-0.32864	m o t c	-0.0135095
-1.13699	m o t a	-0.00507177
-0.329594	h o t c	-0.00869019
-1.1146	q o t </unk>
-0.349611	q o t c	-0.00869019
-1.24058	q o t y	-0.00507177
-0.932875	q o t o	-0.00507177
-1.15305	q o t a	-0.00507177
-1.02306	q o t e	-0.0114018
-1.37005	q o t s	-0.00507177
-0.895429	d o t o	-0.00507177
-1.06567	y o t </unk>
-0.803018	s h t y	-0.00507177
-0.851616	c h t a	-0.00507177
-0.573892	o m t c	-0.00507177
-0.994601	y o l y	-0.00507177
-0.660896	e o l c	-0.0114018
-0.796612	e o l o	-0.0114018
-0.722174	e o l d	-0.00869019
-1.59549	e o l e	-0.00507177
-0.750946	e o l s	-0.0114018
-1.44183	e o l q	-0.00507177
-1.29496	k o l k	-0.00507177
-0.659472	k o l c	-0.00869019
-0.810388	k o l o	-0.00507177
-0.700757	k o l d	-0.0114018
-0.762994	k o l s	-0.00507177
-0.697164	t o l d	-0.00507177
-0.994601	r o l y	-0.00507177
-1.01331	s o l y	-0.00507177
-1.512	s o l e	-0.00507177
-0.747656	s o l s	-0.00507177
-0.788171	n o l o	-0.00507177
-0.742024	n o l s	-0.00507177
-0.634839	<unk> o l c	-0.0637231
-0.792538	<unk> o l o	-0.00869019
-0.722384	<unk> o l d	-0.00507177
-1.58676	h o l </unk>
-1.31615	h o l k	-0.0135095
-0.679108	h o l c	-0.0165733
-1.05544	h o l y	-0.0114018
-0.825037	h o l o	-0.0135095
-0.724877	h o l d	-0.0498857
-1.89876	h o l a	-0.00507177
-2.01899	h o l f	-0.00507177
-0.761902	h o l s	-0.018693
-1.23827	h o l q	-0.0114018
-0.379722	d o l c	-0.0135095
-0.905629	d o l o	-0.0114018
-0.841171	d o l d	-0.00869019
-0.656242	l o l c	-0.00507177
-1.01331	l o l y	-0.00507177
-0.747656	l o l s	-0.00507177
-1.42267	o o l </unk>
-0.651162	p o l c	-0.00507177
-0.788171	p o l o	-0.00507177
-0.704469	d a l c	-0.0114018
-0.960984	d a l y	-0.00507177
-1.00734	d a l o	-0.00507177
-0.541657	d a l d	-0.00507177
-0.823507	d a l s	-0.00507177
-0.936397	o a l y	-0.00507177
-0.526637	o a l d	-0.00507177
-0.704899	p a l c	-0.00507177
-0.512408	k a l d	-0.00869019
-0.520676	t a l d	-0.00507177
-0.520676	<unk> a l d	-0.00507177
-0.926786	r a l y	-0.00507177
-0.795051	s a l s	-0.00507177
-1.32784	h a l </unk>
-0.71754	h a l c	-0.00507177
-1.37453	h a l e	-0.00507177
-0.74849	i i l d	-0.00507177
-0.555342	y d l s	-0.00507177
-0.555342	o r l s	-0.00507177
-1.01101	i i n </unk>
-1.60749	i i n k	-0.00507177
-0.698492	i i n c	-0.0465301
-1.01326	i i n y	-0.00869019
-0.998698	i i n o	-0.0151948
-0.703556	i i n d	-0.0114018
-0.64494	i i n s	-0.0165733
-1.65026	i i n q	-0.0135095
-0.998492	a i n </unk>
-0.696972	a i n c	-0.00507177
-0.990211	a i n y	-0.00507177
-0.664748	a i n d	-0.0114018
-0.69412	a i n s	-0.00869019
-0.660349	<unk> i n d	-0.00507177
-0.819597	d a n y	-0.00507177
-1.01396	d a n o	-0.00507177
-0.580906	d a n s	-0.00507177
-0.730665	h a n d	-0.00869019
-0.580906	h a n s	-0.00507177
-0.766767	r a n c	-0.00507177
-0.658119	e e n y	-0.00507177

\5-grams:
-0.30046	r a m k o	-0.0130898
-0.30046	e a m k o	-0.0130898
-0.846647	r s h k a	-0.0130898
-0.677448	<unk> c h k y	-0.0130898
-0.535769	i i n k c	-0.0130898
-0.63168	h o l k y	-0.0130898
-0.497811	h o l k o	-0.0236805
-0.723486	h o l k e	-0.0130898
-0.683136	k o l k e	-0.0130898
-0.470252	d y o k o	-0.0236805
-0.729385	e y o k a	-0.0130898
-0.899382	c h o k c	-0.0130898
-0.972842	c h o k y	-0.0130898
-0.531351	c h o k o	-0.0236805
-0.812171	c h o k a	-0.0130898
-0.608232	c h o k e	-0.0236805
-0.499906	s h o k o	-0.0130898
-0.899316	o l o k c	-0.0130898
-0.969766	o l o k y	-0.0130898
-0.57618	o l o k a	-0.0324278
-0.705935	<unk> l o k a	-0.0130898
-1.32564	o r o k </unk>
-0.486688	o r o k o	-0.0236805
-0.574179	i r o k e	-0.0130898
-0.508222	a r o k o	-0.0130898
-0.588866	a r o k e	-0.0130898
-0.571551	o m o k e	-0.0130898
-0.724383	a m o k a	-0.0130898
-0.882985	y q o k c	-0.0130898
-0.557378	y q o k o	-0.0130898
-0.532583	y q o k e	-0.0397759
-0.897323	l q o k y	-0.0130898
-0.505809	o q o k o	-0.0130898
-0.505809	<unk> q o k o	-0.0130898
-0.834896	n q o k c	-0.0130898
-1.18488	n q o k s	-0.0130898
-0.493663	i n o k o	-0.0130898
-0.153127	a o c k h	-0.0130898
-0.148726	h o c k h	-0.0236805
-0.154278	h y c k h	-0.0130898
-0.154278	e y c k h	-0.0130898
-0.154278	o r c k h	-0.0130898
-0.154278	a r c k h	-0.0130898
-0.155831	c h c k h	-0.0130898
-0.155831	h a c k h	-0.0130898
-0.711546	s h e k y	-0.0130898
-0.688955	c h e k e	-0.0130898
-0.836846	o l e k s	-0.0130898
-0.764734	h y d k s	-0.0130898
-0.424286	t h y k o	-0.0236805
-0.710525	c h y k y	-0.0130898
-0.64926	<unk> h y k c	-0.0130898
-0.415487	e y y k o	-0.0236805
-0.634959	m s y k c	-0.0130898
-0.444486	l o y k o	-0.0130898
-0.793663	h o y k e	-0.0130898
-0.701825	i n y k y	-0.0130898
-1.01174	a n y k s	-0.0130898
-0.717921	o l y k y	-0.0130898
-0.458112	o l y k o	-0.0130898
-0.799062	h e y k e	-0.0130898
-0.661093	e e y k c	-0.0130898
-1.09187	e e y k a	-0.0130898
-0.634959	h t y k c	-0.0130898
-0.467995	e o r k o	-0.0130898
-0.600365	h o r k c	-0.0130898
-0.109152	l k e c h	-0.0130898
-0.109152	s h e c h	-0.0130898
-0.117666	d o l c h	-0.0324278
-0.732356	d o l c t	-0.0130898
-0.108906	<unk> o l c h	-0.0324278
-0.760897	<unk> o l c t	-0.0130898
-0.113007	l o l c h	-0.0130898
-1.3846	h o l c </unk>
-0.134063	h o l c h	-0.0324278
-0.707245	h o l c t	-0.0236805
-0.109909	k o l c h	-0.0236805
-0.113007	p o l c h	-0.0130898
-0.12097	e o l c h	-0.0236805
-0.721038	e o l c t	-0.0130898
-0.106198	d a l c h	-0.0324278
-0.111711	p a l c h	-0.0130898
-0.111711	h a l c h	-0.0130898
-0.108982	<unk> y d c h	-0.0130898
-0.985024	o l d c </unk>
-0.125344	o l d c h	-0.0130898
-0.108982	n d d c h	-0.0130898
-0.121894	o r o c h	-0.0130898
-0.138322	a m o c h	-0.0130898
-0.955255	a m o c t	-0.0130898
-0.827277	d a o c k	-0.0130898
-0.815944	k h o c k	-0.0130898
-0.833707	s h o c k	-0.0130898
-0.141621	s h o c h	-0.0130898
-0.120728	m s o c h	-0.0130898
-0.120728	y s o c h	-0.0130898
-0.121894	h y o c h	-0.0130898
-0.121894	o t o c h	-0.0130898
-0.137558	<unk> a r c h	-0.0130898
-0.137558	d a r c h	-0.0130898
-1.00709	e a r c k	-0.0130898
-1.22582	a i r c p	-0.0130898
-0.137214	a o r c h	-0.0130898
-1.18685	h o r c k	-0.0130898
-0.185948	h o r c h	-0.0561381
-0.734617	h o r c t	-0.0460365
-1.26389	h o r c f	-0.0130898
-0.133344	d o r c h	-0.0236805
-0.137214	e o r c h	-0.0324278
-0.137214	r o r c h	-0.0130898
-0.137214	<unk> o r c h	-0.0130898
-0.137214	k o r c h	-0.0130898
-0.134873	c h r c h	-0.0130898
-0.745288	s h a c k	-0.0130898
-0.907374	n c h c k	-0.0130898
-0.548541	n c h c t	-0.0236805
-0.219367	o s h c h	-0.0130898
-0.130367	h a m c h	-0.0324278
-0.931192	h a m c t	-0.0130898
-1.00517	k o m c </unk>
-0.124067	h o m c h	-0.0236805
-0.124859	i i m c h	-0.0130898
-0.0997802	i i n c h	-0.0701373
-1.00144	i i n c t	-0.0236805
-1.4485	i i n c p	-0.0130898
-0.0987564	a i n c h	-0.0130898
-0.110549	r a n c h	-0.0130898
-0.115195	y y p c h	-0.0130898
-0.976482	e o p c </unk>
-0.118041	q o p c h	-0.0130898
-0.118041	l o p c h	-0.0130898
-0.114102	o m p c h	-0.0130898
-0.114102	a m p c h	-0.0130898
-0.091045	i n k c h	-0.0130898
-0.09308	t y k c h	-0.0130898
-0.09308	e y k c h	-0.0130898
-1.05174	s y k c </unk>
-0.09308	h y k c h	-0.0130898
-0.0680232	h o k c h	-0.0130898
-0.0662528	q o k c h	-0.0236805
-0.0680232	l o k c h	-0.0130898
-0.091045	o r k c h	-0.0130898
-0.0513308	<unk> l t c h	-0.0130898
-0.0492081	k o t c h	-0.0130898
-0.0479547	r o t c h	-0.0236805
-0.0461139	m o t c h	-0.10743
-0.0479547	h o t c h	-0.0236805
-0.0479547	n o t c h	-0.0236805
-0.0492081	<unk> o t c h	-0.0130898
-0.0479547	q o t c h	-0.0236805
-0.0502837	l y t c h	-0.0130898
-0.0502837	a y t c h	-0.0130898
-0.0502837	h y t c h	-0.0130898
-0.0502837	r y t c h	-0.0130898
-0.0513308	o m t c h	-0.0130898
-0.100639	o l y c h	-0.0130898
-0.100639	a l y c h	-0.0130898
-0.101588	i n y c h	-0.0130898
-0.101588	h y y c h	-0.0130898
-0.101588	h s y c h	-0.0130898
-0.101588	h r y c h	-0.0130898
-0.101588	m m y c h	-0.0130898
-0.0889977	h e y c h	-0.0397759
-1.12529	e e y c k	-0.0130898
-0.121165	e e y c h	-0.0236805
-0.918503	e e y c t	-0.0130898
-0.103667	<unk> e y c h	-0.0130898
-0.101588	e a y c h	-0.0130898
-1.06493	k h y c k	-0.0130898
-0.838838	t h y c t	-0.0130898
-0.0987961	s h y c h	-0.0619199
-1.28816	c h y c </unk>
-0.137507	c h y c h	-0.0619199
-0.832527	c h y c t	-0.0236805
-0.0972363	o k y c h	-0.0236805
-0.0999349	l k y c h	-0.0130898
-0.104541	e t y c h	-0.0130898
-0.104541	o t y c h	-0.0130898
-0.854884	<unk> t y c t	-0.0130898
-0.0945544	o d y c h	-0.0324278
-0.0993912	i d y c h	-0.0130898
-0.0774826	i e s c h	-0.0130898
-0.0774826	e e s c h	-0.0130898
-0.0774826	d y s c h	-0.0130898
-0.0774826	h y s c h	-0.0130898
-0.0774826	e o s c h	-0.0130898
-0.0774826	q o s c h	-0.0130898
-0.0781929	o l s c h	-0.0130898
-0.936886	k e c h y	-0.0130898
-0.258408	h e c h o	-0.0130898
-1.15595	o l c h </unk>
-0.888903	o l c h y	-0.0324278
-0.24991	o l c h o	-0.0852898
-0.852848	o l c h e	-0.0236805
-0.945701	a l c h y	-0.0236805
-0.254344	a l c h o	-0.0236805
-0.975326	a l c h a	-0.0130898
-0.266567	a r c h o	-0.0130898
-0.719454	a r c h e	-0.0130898
-1.22291	o r c h </unk>
-0.255946	o r c h o	-0.0875898
-0.987278	o r c h a	-0.0236805
-0.705984	o r c h e	-0.0324278
-0.245784	<unk> r c h o	-0.0236805
-0.70334	h r c h e	-0.0130898
-0.252911	y d c h o	-0.0130898
-0.252911	d d c h o	-0.0130898
-0.948395	l d c h y	-0.0130898
-0.252911	<unk> d c h o	-0.0130898
-0.253756	s h c h o	-0.0130898
-1.34057	<unk> f c h s	-0.0130898
-0.257851	a m c h o	-0.0236805
-0.902549	a m c h a	-0.0130898
-0.266727	o m c h o	-0.0130898
-0.724406	o m c h e	-0.0130898
-0.25418	i m c h o	-0.0130898
-0.907677	i n c h c	-0.0324278
-0.277166	i n c h o	-0.0514349
-1.03357	i n c h a	-0.0130898
-0.87305	i n c h e	-0.0130898
-0.884903	a n c h a	-0.0130898
-0.234241	<unk> n c h o	-0.0130898
-0.256216	y p c h o	-0.0130898
-0.652151	m p c h e	-0.0236805
-0.247885	o p c h o	-0.0236805
-1.00255	r o c h </unk>
-0.260994	m o c h o	-0.0130898
-0.273571	s o c h o	-0.0130898
-0.708782	s o c h e	-0.0130898
-1.00255	y o c h </unk>
-0.260994	t o c h o	-0.0130898
-0.260994	h o c h o	-0.0130898
-0.653519	<unk> o c h e	-0.0236805
-1.42231	<unk> k c h r	-0.0130898
-0.256061	<unk> k c h o	-0.0130898
-0.243562	n k c h o	-0.0130898
-0.247605	y k c h o	-0.0236805
-0.759252	y k c h e	-0.0130898
-1.10372	o k c h </unk>
-0.931704	o k c h y	-0.0236805
-0.770938	o k c h e	-0.0130898
-0.898043	r k c h a	-0.0130898
-0.702066	l t c h e	-0.0130898
-1.18799	o t c h </unk>
-1.1026	o t c h y	-0.0130898
-0.262452	o t c h o	-0.0602725
-0.94135	o t c h a	-0.0236805
-0.779411	o t c h e	-0.0236805
-1.01494	y t c h y	-0.0130898
-0.293478	y t c h o	-0.0130898
-0.912864	y t c h a	-0.0130898
-0.743035	y t c h e	-0.0130898
-0.261665	m t c h o	-0.0130898
-0.261665	<unk> t c h o	-0.0130898
-0.26946	l y c h o	-0.0130898
-1.46881	l y c h t	-0.0130898
-0.872829	n y c h a	-0.0130898
-0.709235	y y c h e	-0.0130898
-0.256901	s y c h o	-0.0130898
-0.256901	r y c h o	-0.0130898
-0.709235	m y c h e	-0.0130898
-0.245938	e y c h o	-0.0397759
-0.973858	e y c h a	-0.0130898
-0.755088	e y c h e	-0.0236805
-0.872829	a y c h a	-0.0130898
-0.248541	h y c h o	-0.0397759
-1.07036	k y c h </unk>
-0.260475	k y c h o	-0.0619199
-0.998343	t y c h y	-0.0130898
-0.26946	t y c h o	-0.0130898
-1.08663	d y c h </unk>
-0.253204	d y c h o	-0.0324278
-0.277359	e s c h o	-0.0130898
-0.708782	e s c h e	-0.0130898
-1.04599	y s c h </unk>
-0.277359	y s c h o	-0.0130898
-0.277359	o s c h o	-0.0130898
-0.708782	o s c h e	-0.0130898
-1.41001	<unk> s c h r	-0.0130898
-0.893395	<unk> s c h a	-0.0130898
-0.692801	l s c h e	-0.0130898
-0.556343	r c f h a	-0.0236805
-0.462561	o c k h y	-0.0236805
-0.384562	o c k h o	-0.0130898
-0.347269	y c k h o	-0.0236805
-0.448749	r c k h y	-0.0236805
-0.360601	h c k h o	-0.0130898
-0.360601	a c k h o	-0.0130898
-0.468604	<unk> c k h y	-0.0130898
-0.464866	y c t h y	-0.0324278
-0.447951	y c t h o	-0.0130898
-1.12771	y c t h a	-0.0130898
-0.380032	l c t h o	-0.0397759
-0.853811	l c t h e	-0.0130898
-0.415246	r c t h y	-0.0324278
-0.451024	r c t h o	-0.0236805
-0.406074	m c t h o	-0.0130898
-0.489476	n c t h y	-0.0130898
-0.815959	n c t h e	-0.0130898
-0.455291	h c t h y	-0.0236805
-1.05701	o c t h </unk>
-0.54764	o i s h e	-0.0130898
-0.329324	o m s h o	-0.0236805
-1.36739	a r s h k	-0.0130898
-0.401256	a r s h o	-0.0236805
-0.813404	o r s h y	-0.0130898
-0.939729	o r s h a	-0.0130898
-0.594333	o r s h e	-0.0130898
-1.31583	i r s h t	-0.0130898
-0.800915	h y s h y	-0.0130898
-0.407842	h y s h o	-0.0130898
-0.407842	o y s h o	-0.0130898
-0.575479	o y s h e	-0.0130898
-0.379326	r y s h o	-0.0236805
-0.906223	<unk> y s h a	-0.0130898
-0.560916	d y s h e	-0.0130898
-0.395994	y s s h o	-0.0130898
-0.409298	l s s h o	-0.0130898
-0.575429	l s s h e	-0.0130898
-0.894511	m s s h a	-0.0130898
-0.560867	d k s h e	-0.0130898
-0.395994	y k s h o	-0.0130898
-0.773554	e k s h y	-0.0130898
-0.395994	o k s h o	-0.0130898
-1.03375	y t s h </unk>
-0.559019	y t s h e	-0.0130898
-0.544603	o t s h e	-0.0130898
-0.419901	i n s h o	-0.0324278
-0.941106	i n s h a	-0.0130898
-0.568168	i n s h e	-0.0236805
-0.880946	<unk> n s h a	-0.0130898
-1.16814	o l s h </unk>
-0.477892	o l s h o	-0.0236805
-0.432751	o l s h e	-0.0397759
-0.394547	<unk> l s h o	-0.0130898
-0.394547	a l s h o	-0.0130898
-0.783669	r l s h y	-0.0130898
-0.388037	<unk> o s h o	-0.0130898
-1.31653	m o s h c	-0.0130898
-0.401291	m o s h o	-0.0130898
-0.388037	h o s h o	-0.0130898
-0.402828	r c p h o	-0.0130898
-0.746636	k c h r y	-0.0130898
-0.519972	s c h r c	-0.0130898
-0.983284	f h a r a	-0.0130898
-0.610145	c h a r o	-0.0130898
-0.749386	s h a r s	-0.0130898
-0.636344	l d a r c	-0.0130898
-0.63382	l d a r o	-0.0130898
-1.1065	y d a r </unk>
-0.761028	y d a r s	-0.0130898
-1.03073	o d a r e	-0.0130898
-0.761028	o d a r s	-0.0130898
-0.599778	<unk> o a r o	-0.0130898
-0.599778	<unk> r a r o	-0.0130898
-0.988572	h e a r e	-0.0130898
-0.608162	e e a r c	-0.0130898
-0.91579	o k a r y	-0.0130898
-0.679295	a r o r o	-0.0130898
-0.449482	o r o r c	-0.0130898
-0.475338	<unk> h o r o	-0.0397759
-1.02406	<unk> h o r q	-0.0130898
-1.27324	c h o r </unk>
-1.50669	c h o r k	-0.0130898
-0.394711	c h o r c	-0.13688
-1.20421	c h o r y	-0.0236805
-0.861087	c h o r o	-0.0130898
-1.18326	c h o r d	-0.0236805
-1.33951	c h o r a	-0.0130898
-1.75184	c h o r l	-0.0130898
-1.28573	c h o r s	-0.0130898
-0.988456	c h o r q	-0.0397759
-0.412147	s h o r c	-0.0236805
-0.708271	k h o r o	-0.0130898
-1.04417	t h o r y	-0.0130898
-0.44426	<unk> a o r c	-0.0130898
-0.999981	o * o r s	-0.0130898
-1.02917	l d o r </unk>
-0.456807	l d o r c	-0.0130898
-0.44319	y d o r c	-0.0130898
-1.00939	a l o r s	-0.0130898
-1.04757	o l o r a	-0.0130898
-1.03763	r y o r a	-0.0130898
-1.12902	h e o r </unk>
-1.31091	h e o r k	-0.0130898
-0.412544	h e o r c	-0.105811
-1.00581	h e o r q	-0.0130898
-1.00388	o e o r d	-0.0130898
-1.21535	e e o r e	-0.0130898
-0.679295	o k o r o	-0.0130898
-0.449482	r k o r c	-0.0130898
-1.07418	d a i r </unk>
-0.669719	d a i r c	-0.0130898
-0.932446	d a i r y	-0.0130898
-0.711501	d a i r o	-0.0130898
-0.935321	d a i r s	-0.0130898
-0.991959	d a i r q	-0.0130898
-0.634879	a i i r o	-0.0130898
-0.635679	h e y y k	-0.0130898
-0.635679	k e y y k	-0.0130898
-1.02966	i n y y p	-0.0130898
-0.611095	t h y y c	-0.0130898
-0.907038	c h y y </unk>
-0.595057	h o k y c	-0.0130898
-0.595057	q o k y c	-0.0130898
-0.327956	l o k y d	-0.0130898
-0.605174	o l k y c	-0.0130898
-0.324334	<unk> l k y d	-0.0130898
-0.319513	<unk> r k y d	-0.0130898
-0.320279	n y k y d	-0.0130898
-0.320279	l y k y d	-0.0130898
-1.02327	h y k y s	-0.0130898
-0.319513	h e k y d	-0.0130898
-0.319513	c h k y d	-0.0130898
-0.487138	o t o y s	-0.0130898
-0.966122	y t o y </unk>
-0.719724	o l o y k	-0.0130898
-0.48177	n q o y s	-0.0130898
-0.726372	s h o y k	-0.0130898
-0.487138	k h o y s	-0.0130898
-0.48177	a m o y s	-0.0130898
-1.03433	c k h y </unk>
-0.566578	c k h y c	-0.0130898
-0.796713	c k h y d	-0.0130898
-1.11042	c k h y t	-0.0130898
-0.855034	c k h y s	-0.0130898
-0.811597	c t h y k	-0.0236805
-0.598282	c t h y c	-0.0130898
-1.26315	c t h y y	-0.0130898
-1.28689	c t h y o	-0.0130898
-0.835161	c t h y d	-0.0130898
-0.834092	c t h y s	-0.0236805
-1.19577	c t h y q	-0.0130898
-0.728294	y s h y d	-0.0130898
-0.512402	<unk> s h y c	-0.0130898
-0.512402	l s h y c	-0.0130898
-0.728294	r s h y d	-0.0130898
-1.06224	k s h y q	-0.0130898
-0.847109	l c h y </unk>
-0.514552	l c h y c	-0.0324278
-0.831055	l c h y d	-0.0130898
-0.792113	e c h y </unk>
-0.530919	d c h y c	-0.0130898
-0.808871	y c h y k	-0.0130898
-1.17738	k c h y y	-0.0130898
-0.850507	k c h y s	-0.0130898
-0.80949	t c h y </unk>
-0.545216	t c h y c	-0.0130898
-0.545563	c h s y c	-0.0130898
-0.663235	a m s y k	-0.0130898
-0.419554	h e t y c	-0.0130898
-0.752898	s h t y k	-0.0130898
-0.419554	q o t y c	-0.0130898
-0.799308	r a l y t	-0.0130898
-0.635554	d a l y c	-0.0130898
-0.766232	o a l y </unk>
-0.719168	h o l y k	-0.0236805
-0.674561	h o l y c	-0.0130898
-0.778479	l o l y </unk>
-0.734131	y o l y d	-0.0130898
-0.734131	s o l y d	-0.0130898
-0.812028	r o l y t	-0.0130898
-0.94292	a i n y y	-0.0130898
-0.674337	i i n y k	-0.0130898
-0.630668	i i n y c	-0.0130898
-0.647921	d a n y k	-0.0130898
-1.05565	e e n y e	-0.0130898
-0.644099	c h r y c	-0.0130898
-0.971753	h o r y o	-0.0130898
-0.64075	h o r y t	-0.0130898
-0.83419	h o r y s	-0.0130898
-0.789363	k a r y s	-0.0130898
-0.602712	a i r y t	-0.0130898
-0.579444	r a m y t	-0.0130898
-0.579444	e a m y t	-0.0130898
-0.589646	i m m y c	-0.0130898
-0.589728	e o m y t	-0.0130898
-0.468805	c h e y c	-0.0397759
-0.736452	c h e y d	-0.0236805
-1.0058	c h e y t	-0.0130898
-0.820695	c h e y q	-0.0130898
-0.963577	t h e y k	-0.0130898
-1.14167	t h e y y	-0.0130898
-1.17008	s h e y o	-0.0130898
-0.719239	s h e y d	-0.0130898
-0.840747	h e e y k	-0.0130898
-0.519498	h e e y c	-0.0236805
-0.803283	h e e y d	-0.0130898
-0.750075	h e e y q	-0.0236805
-0.531346	k e e y c	-0.0130898
-0.984992	k e e y t	-0.0130898
-0.725492	k e e y q	-0.0236805
-0.495832	<unk> e e y c	-0.0130898
-0.777354	s e e y k	-0.0130898
-1.0682	o k e y y	-0.0130898
-0.691018	o t e y d	-0.0130898
-0.545563	e e a y c	-0.0130898
-0.71673	o k a y t	-0.0130898
-0.915742	k o d y o	-0.0130898
-0.803286	k o d y s	-0.0130898
-1.06589	k o d y p	-0.0130898
-0.987752	k o d y q	-0.0130898
-1.10663	t o d y </unk>
-0.723009	h o d y c	-0.0236805
-0.822168	h o d y d	-0.0236805
-0.99308	h o d y t	-0.0130898
-0.822628	h o d y s	-0.0130898
-1.09172	h o d y p	-0.0130898
-0.867965	<unk> o d y o	-0.0130898
-0.91958	l o d y t	-0.0130898
-0.681085	e o d y c	-0.0130898
-0.956357	e o d y q	-0.0130898
-0.644783	i i d y c	-0.0130898
-0.919943	i i d y q	-0.0130898
-0.770997	i l d y d	-0.0130898
-0.849334	p a d y s	-0.0130898
-0.967801	o k e o d	-0.0130898
-0.482743	o k e o l	-0.0130898
-0.920486	o k e o m	-0.0236805
-1.15567	o k e o s	-0.0130898
-0.44013	y k e o l	-0.0130898
-0.945985	e k e o </unk>
-0.427862	o t e o l	-0.0130898
-0.891721	y t e o d	-0.0130898
-0.427862	<unk> t e o l	-0.0130898
-1.13373	c h e o </unk>
-0.599197	c h e o r	-0.0460365
-1.08817	c h e o d	-0.0130898
-0.418378	c h e o l	-0.0397759
-1.53933	c h e o p	-0.0130898
-0.640299	s h e o r	-0.0130898
-0.414288	s h e o l	-0.0324278
-1.2011	s h e o s	-0.0130898
-0.935731	s o e o m	-0.0130898
-0.647219	q o e o r	-0.0130898
-0.930977	k e e o </unk>
-0.437721	t e e o l	-0.0130898
-0.651847	l e e o r	-0.0130898
-0.664784	a l d o r	-0.0236805
-0.363934	a l d o l	-0.0236805
-0.32304	<unk> l d o l	-0.0130898
-1.05799	o l d o </unk>
-0.30966	o l d o l	-0.108794
-1.32141	o l d o m	-0.0130898
-1.18224	h o d o a	-0.0130898
-0.346873	h o d o l	-0.0130898
-0.960456	i n d o </unk>
-1.07048	i n d o t	-0.0130898
-0.810756	e y d o r	-0.0130898
-1.21929	e y d o i	-0.0130898
-0.831736	y d a o c	-0.0130898
-0.685296	a m s o c	-0.0130898
-1.07537	e m s o e	-0.0130898
-0.678921	d y s o c	-0.0130898
-0.465444	o l s o l	-0.0130898
-0.465444	i n s o l	-0.0130898
-0.560405	o d y o k	-0.0236805
-0.670847	<unk> d y o l	-0.0130898
-0.798804	o r y o r	-0.0130898
-0.593677	h e y o k	-0.0130898
-0.954489	t h y o c	-0.0130898
-0.67272	o l k o d	-0.0130898
-0.525376	o l k o l	-0.0130898
-1.06064	y o k o </unk>
-0.598747	y o k o d	-0.0130898
-0.611065	h o k o d	-0.0130898
-1.31702	h o k o i	-0.0130898
-0.556344	h o k o l	-0.0130898
-0.878909	r o k o r	-0.0130898
-0.556344	r o k o l	-0.0130898
-1.27172	r o k o m	-0.0130898
-0.611065	q o k o d	-0.0130898
-0.520376	q o k o l	-0.0236805
-0.530157	n o k o l	-0.0130898
-1.26418	h y k o o	-0.0130898
-1.08047	h y k o t	-0.0130898
-0.686523	y y k o d	-0.0130898
-0.528709	y y k o l	-0.0130898
-0.51455	o y k o l	-0.0130898
-1.10957	l y k o a	-0.0130898
-0.67272	a m k o d	-0.0130898
-1.11009	a m k o a	-0.0130898
-0.792168	o r k o r	-0.0130898
-0.788755	h a r o r	-0.0130898
-1.17245	o a r o m	-0.0130898
-0.696159	r a r o t	-0.0130898
-0.615881	d a r o k	-0.0130898
-0.630983	<unk> a r o k	-0.0130898
-0.712183	<unk> a r o t	-0.0130898
-1.11739	r o r o c	-0.0130898
-0.658422	h o r o k	-0.0236805
-0.88541	h o r o r	-0.0130898
-0.579004	h o r o t	-0.0324278
-0.64042	<unk> o r o k	-0.0130898
-0.817787	k o r o l	-0.0130898
-0.919878	i i r o </unk>
-0.613785	a i r o k	-0.0130898
-0.994705	n o l o </unk>
-0.653191	<unk> o l o k	-0.0130898
-1.20931	<unk> o l o m	-0.0130898
-1.22997	d o l o y	-0.0130898
-0.807589	d o l o d	-0.0130898
-0.709506	d o l o l	-0.0130898
-0.676831	h o l o k	-0.0236805
-0.819788	h o l o d	-0.0130898
-0.72072	h o l o l	-0.0130898
-1.31146	h o l o e	-0.0130898
-1.20266	p o l o p	-0.0130898
-0.864759	k o l o r	-0.0130898
-0.620217	e o l o k	-0.0236805
-0.709506	e o l o l	-0.0130898
-0.827391	d a l o r	-0.0130898
-0.648659	h o * o r	-0.0130898
-0.813267	h a m o c	-0.0130898
-0.845845	d a m o c	-0.0130898
-1.18025	d a m o y	-0.0130898
-0.907776	d a m o s	-0.0130898
-0.898025	k a m o k	-0.0130898
-0.527229	h o m o t	-0.0130898
-0.94129	h o m o s	-0.0130898
-1.22385	h o m o p	-0.0130898
-0.929605	e o m o k	-0.0130898
-0.501483	l o m o t	-0.0130898
-0.652603	o l f o d	-0.0130898
-0.560932	o c h o r	-0.0236805
-0.510656	o c h o l	-0.0236805
-0.586702	p c h o r	-0.0130898
-0.498546	p c h o l	-0.0236805
-0.561462	<unk> c h o r	-0.0324278
-0.878296	<unk> c h o d	-0.0130898
-1.59418	<unk> c h o i	-0.0130898
-0.538114	<unk> c h o l	-0.0236805
-1.15134	l c h o k	-0.0130898
-0.653267	l c h o r	-0.0130898
-0.702524	l c h o d	-0.0324278
-0.525726	l c h o l	-0.0762825
-0.804938	h c h o d	-0.0130898
-0.560932	m c h o r	-0.0236805
-0.542597	m c h o l	-0.0130898
-1.48262	m c h o q	-0.0130898
-0.954454	r c h o </unk>
-0.681156	r c h o r	-0.0130898
-0.849645	r c h o d	-0.0324278
-0.497211	r c h o l	-0.0460365
-1.44315	r c h o t	-0.0130898
-0.560023	e c h o r	-0.0130898
-1.11438	n c h o k	-0.0130898
-0.561462	n c h o r	-0.0324278
-0.564896	n c h o l	-0.0130898
-1.36644	n c h o t	-0.0130898
-1.14081	n c h o m	-0.0236805
-1.25652	y c h o </unk>
-1.01478	y c h o k	-0.0397759
-0.541676	y c h o r	-0.0460365
-0.865341	y c h o d	-0.0324278
-0.597366	y c h o l	-0.0324278
-1.21785	y c h o m	-0.0130898
-0.770981	s c h o d	-0.0236805
-1.0859	s c h o m	-0.0130898
-1.1189	d c h o </unk>
-0.498546	d c h o l	-0.0236805
-1.21257	t c h o </unk>
-0.547818	t c h o r	-0.0460365
-0.858589	t c h o d	-0.0236805
-0.562188	t c h o l	-0.0236805
-1.17523	t c h o m	-0.0130898
-1.07733	k c h o k	-0.0130898
-0.560932	k c h o r	-0.0236805
-1.1025	k c h o m	-0.0130898
-1.08662	c k h o </unk>
-1.27779	c k h o c	-0.0130898
-0.625493	c k h o r	-0.0130898
-1.38037	c k h o y	-0.0130898
-0.53668	c k h o l	-0.0130898
-0.674993	c t h o r	-0.0130898
-1.03295	c t h o d	-0.0130898
-0.515076	c t h o l	-0.0324278
-0.883455	c t h o m	-0.0236805
-1.50467	c t h o q	-0.0130898
-0.477569	<unk> t h o l	-0.0130898
-0.589499	y s h o r	-0.0236805
-0.512623	y s h o l	-0.0130898
-1.42897	y s h o s	-0.0130898
-1.01678	s s h o k	-0.0130898
-0.491344	s s h o l	-0.0130898
-1.08376	n s h o </unk>
-1.25688	n s h o c	-0.0130898
-0.502877	n s h o l	-0.0130898
-1.40438	l s h o y	-0.0130898
-0.454782	l s h o l	-0.0324278
-0.945701	r s h o d	-0.0130898
-0.491344	r s h o l	-0.0130898
-0.945701	m s h o d	-0.0130898
-1.09453	m s h o m	-0.0130898
-0.457016	k s h o l	-0.0236805
-1.25688	o s h o c	-0.0130898
-0.502877	o s h o l	-0.0130898
-1.51625	o s h o *	-0.0130898
-1.25966	c p h o a	-0.0130898
-0.552352	y q o o l	-0.0130898
-0.937423	y k o o i	-0.0130898
-0.548043	d y p o l	-0.0130898
-0.875106	d y p o t	-0.0130898
-0.811815	m o p o </unk>
-0.533722	q o p o l	-0.0130898
-0.495562	h y q o k	-0.0130898
-1.33773	h y q o o	-0.0130898
-0.523231	e y q o k	-0.0236805
-0.5376	e y q o t	-0.0324278
-1.04558	<unk> y q o </unk>
-0.495562	<unk> y q o k	-0.0130898
-0.474869	d y q o k	-0.0236805
-0.675507	d y q o t	-0.0130898
-0.642569	e s q o t	-0.0130898
-1.02745	o s q o p	-0.0130898
-0.505484	h o q o k	-0.0130898
-0.657959	h o q o t	-0.0130898
-1.05975	i n q o </unk>
-0.534289	i n q o k	-0.0236805
-1.31544	i n q o y	-0.0130898
-1.09897	i n q o p	-0.0130898
-0.498716	<unk> l q o k	-0.0130898
-0.966807	o l q o d	-0.0130898
-0.554919	o l q o t	-0.0236805
-1.26044	o l q o s	-0.0130898
-0.636452	a m q o t	-0.0130898
-0.959902	o r q o d	-0.0130898
-0.704975	o r q o t	-0.0130898
-1.3969	o r q o e	-0.0130898
-1.26987	o r q o s	-0.0130898
-1.1226	o r q o p	-0.0130898
-1.01196	i r q o </unk>
-0.941999	i i n o k	-0.0130898
-0.868719	i i n o d	-0.0130898
-0.652535	i i n o l	-0.0130898
-0.660593	i i n o t	-0.0130898
-0.588908	d a n o l	-0.0130898
-0.754306	p o t o y	-0.0130898
-1.05347	<unk> o t o a	-0.0130898
-0.975253	d o t o c	-0.0130898
-0.887506	q o t o </unk>
-0.815885	e y t o d	-0.0130898
-0.670847	l y t o l	-0.0130898
-0.750311	r y t o y	-0.0130898
-0.432534	c h o d y	-0.0460365
-1.14463	c h o d o	-0.0130898
-0.312311	c h o d a	-0.111837
-0.444711	s h o d y	-0.0130898
-0.321239	s h o d a	-0.0130898
-0.973132	t h o d o	-0.0130898
-0.285019	l f o d a	-0.0130898
-0.389589	l k o d y	-0.0130898
-1.28013	o k o d </unk>
-0.387666	o k o d y	-0.0236805
-0.389589	y k o d y	-0.0130898
-0.337831	m k o d a	-0.0130898
-0.461341	y t o d y	-0.0130898
-0.2933	k e o d a	-0.0130898
-0.459977	t e o d y	-0.0130898
-0.459977	h e o d y	-0.0130898
-0.285019	i n o d a	-0.0130898
-0.480413	o l o d y	-0.0130898
-0.302462	o l o d a	-0.0130898
-0.279229	l q o d a	-0.0130898
-0.279229	r q o d a	-0.0130898
-0.279229	<unk> q o d a	-0.0130898
-0.130248	o d y d a	-0.0236805
-1.2565	l d y d l	-0.0130898
-1.29464	s h y d k	-0.0130898
-0.143752	s h y d a	-0.0130898
-0.131687	k h y d a	-0.0130898
-0.131687	t h y d a	-0.0130898
-0.131687	c h y d a	-0.0130898
-0.12692	l k y d a	-0.0130898
-0.12692	r k y d a	-0.0130898
-0.123383	y k y d a	-0.0236805
-0.12692	e k y d a	-0.0130898
-0.12692	o k y d a	-0.0130898
-0.12692	h k y d a	-0.0130898
-0.131299	<unk> t y d a	-0.0130898
-0.98439	h e y d o	-0.0130898
-0.142992	h e y d a	-0.0236805
-0.135629	e e y d a	-0.0130898
-0.946938	t e y d o	-0.0130898
-1.21198	o l y d </unk>
-0.147775	o l y d a	-0.0130898
-0.299765	d a l d o	-0.0130898
-0.352275	o a l d a	-0.0130898
-0.289486	k a l d o	-0.0236805
-0.352275	t a l d a	-0.0130898
-0.299765	<unk> a l d o	-0.0130898
-1.01866	h o l d c	-0.0236805
-0.48547	h o l d o	-0.0236805
-0.288588	h o l d a	-0.0514349
-0.410854	k o l d o	-0.0236805
-0.290027	k o l d a	-0.0130898
-0.413973	t o l d o	-0.0130898
-0.427393	d o l d o	-0.0130898
-0.279571	d o l d a	-0.0130898
-0.266966	<unk> o l d a	-0.0130898
-0.427393	e o l d o	-0.0130898
-0.279571	e o l d a	-0.0130898
-1.03608	i i l d y	-0.0130898
-0.781338	<unk> i n d o	-0.0130898
-0.812965	i i n d o	-0.0130898
-0.216629	i i n d a	-0.0236805
-1.20662	a i n d d	-0.0130898
-0.216629	a i n d a	-0.0236805
-0.19901	h a n d a	-0.0236805
-0.392881	a i i d y	-0.0236805
-0.779657	i n d d c	-0.0130898
-0.153497	h o r d a	-0.0236805
-0.158066	e o r d a	-0.0130898
-0.158066	<unk> o r d a	-0.0130898
-0.219697	h o m d a	-0.0130898
-0.247789	o k a d a	-0.0130898
-0.628509	h p a d y	-0.0130898
-0.394227	h o l a i	-0.0130898
-0.622543	q o p a l	-0.0130898
-0.930446	<unk> h p a d	-0.0130898
-0.541152	p h o a l	-0.0130898
-0.43147	o t o a i	-0.0130898
-0.425385	m k o a i	-0.0130898
-0.425385	y k o a i	-0.0130898
-0.541152	o d o a l	-0.0130898
-0.924424	h o d a r	-0.0130898
-0.267722	h o d a i	-0.0514349
-0.997484	h o d a l	-0.0130898
-1.0395	h o d a m	-0.0130898
-1.12378	f o d a n	-0.0130898
-0.260198	e o d a i	-0.0130898
-0.98222	<unk> o d a </unk>
-0.260198	n o d a i	-0.0130898
-0.88149	q o d a r	-0.0130898
-0.263654	q o d a i	-0.0236805
-0.98222	l o d a </unk>
-0.914978	k o d a l	-0.0130898
-1.37232	d y d a o	-0.0130898
-0.812202	d y d a l	-0.0130898
-0.939623	k y d a r	-0.0130898
-0.269477	k y d a i	-0.0397759
-1.05358	k y d a m	-0.0130898
-0.277564	t y d a i	-0.0130898
-1.04811	e y d a </unk>
-0.300717	e y d a i	-0.0130898
-0.826801	e y d a l	-0.0130898
-0.272439	h y d a i	-0.0324278
-0.839221	h y d a l	-0.0130898
-0.861847	l y d a r	-0.0130898
-0.331834	i n d a i	-0.0236805
-1.09477	i n d a n	-0.0130898
-0.910636	i n d a l	-0.0130898
-0.333041	a n d a i	-0.0130898
-1.05919	a n d a n	-0.0130898
-0.991776	o l d a </unk>
-0.924745	o l d a r	-0.0130898
-0.261528	o l d a i	-0.0826851
-0.951621	a l d a </unk>
-0.828949	a l d a r	-0.0130898
-0.284978	o r d a i	-0.0397759
-0.88748	<unk> r d a m	-0.0130898
-0.865294	o m d a m	-0.0130898
-0.315967	k a d a i	-0.0130898
-1.20036	y c h a </unk>
-0.918608	y c h a r	-0.0130898
-0.60695	y c h a i	-0.0130898
-0.468177	s c h a m	-0.0130898
-0.594666	n c h a i	-0.0130898
-0.957278	n c h a n	-0.0130898
-0.800312	<unk> c h a l	-0.0130898
-0.481973	<unk> c h a m	-0.0130898
-0.60695	t c h a i	-0.0130898
-0.462158	t c h a m	-0.0236805
-0.468177	k c h a m	-0.0130898
-0.957278	r c h a n	-0.0130898
-0.800312	r c h a l	-0.0130898
-0.468177	m c h a m	-0.0130898
-0.468177	l c h a m	-0.0130898
-0.855215	c f h a r	-0.0130898
-0.529529	c f h a m	-0.0130898
-0.523296	n s h a i	-0.0619199
-0.915663	r s h a n	-0.0130898
-1.26142	y s h a c	-0.0130898
-0.850788	s s h a r	-0.0130898
-0.740186	c t h a l	-0.0130898
-0.660338	h a r a m	-0.0130898
-0.697213	h o r a l	-0.0130898
-0.932936	y o r a n	-0.0130898
-0.671313	l o r a m	-0.0130898
-1.03679	t e e a y	-0.0130898
-0.668198	r e e a r	-0.0130898
-0.68866	c h e a r	-0.0130898
-0.514818	c h e a i	-0.0130898
-0.691457	s h e a m	-0.0130898
-0.680262	y t e a m	-0.0130898
-0.855589	l o k a r	-0.0130898
-1.1783	l o k a y	-0.0130898
-0.604445	l o k a l	-0.0236805
-0.478558	h o k a i	-0.0130898
-1.12615	y o k a d	-0.0130898
-0.478558	m o k a i	-0.0130898
-0.807131	e y k a m	-0.0130898
-0.467211	s h k a i	-0.0130898
-0.367753	q o t a i	-0.0130898
-0.367753	r o t a i	-0.0130898
-0.680474	m o t a l	-0.0130898
-0.367634	c h t a i	-0.0130898
-0.215061	a n s a i	-0.0236805
-0.221986	<unk> n s a i	-0.0130898
-0.213258	o l s a i	-0.0324278
-0.883182	a l s a m	-0.0130898
-0.811865	k y s a l	-0.0130898
-0.226261	q o s a i	-0.0130898
-0.788038	o d a i r	-0.0324278
-0.199508	o d a i i	-0.0460365
-0.832196	o d a i n	-0.0236805
-1.22383	l d a i r	-0.0130898
-0.140023	l d a i i	-0.0460365
-0.152013	y d a i i	-0.0514349
-0.72989	y d a i n	-0.0397759
-0.150254	n d a i i	-0.0236805
-0.756494	n d a i n	-0.0130898
-0.82752	r d a i r	-0.0236805
-0.190113	r d a i i	-0.0236805
-0.143096	a d a i i	-0.0130898
-0.1687	t o a i i	-0.0130898
-0.147312	k o a i i	-0.0236805
-0.162526	o t a i i	-0.0236805
-0.167419	h t a i i	-0.0130898
-1.22271	o k a i </unk>
-1.31691	o k a i *	-0.0130898
-0.178256	h k a i i	-0.0130898
-0.177546	c h a i i	-0.0236805
-0.779869	c h a i n	-0.0130898
-0.171191	s h a i i	-0.0236805
-0.155856	n s a i i	-0.0675711
-0.155856	l s a i i	-0.0324278
-0.164478	o s a i i	-0.0130898
-0.170428	o l a i i	-0.0130898
-0.170428	h e a i i	-0.0130898
-1.5482	d a i i r	-0.0130898
-1.12836	d a i i i	-0.0130898
-0.121229	d a i i n	-0.151787
-1.62871	d a i i m	-0.0130898
-0.133305	o a i i n	-0.0324278
-1.07668	t a i i </unk>
-0.147699	t a i i n	-0.0236805
-0.140468	k a i i n	-0.0130898
-1.09309	h a i i </unk>
-1.26877	h a i i d	-0.0130898
-0.157163	h a i i n	-0.0236805
-1.11985	s a i i </unk>
-0.137634	s a i i n	-0.0514349
-0.140468	l a i i n	-0.0130898
-0.140468	e a i i n	-0.0130898
-1.19591	<unk> a i i d	-0.0130898
-0.143936	o o i i n	-0.0130898
-0.143936	d o i i n	-0.0130898
-0.145366	a i i i n	-0.0130898
-0.980062	c h o i e	-0.0130898
-0.417974	k o o i i	-0.0130898
-0.968538	o k o i s	-0.0130898
-0.417974	y d o i i	-0.0130898
-0.490043	s h o * o	-0.0130898
-0.533926	k a i * </unk>
-0.0386487	t h y q o	-0.0130898
-0.0386487	s h y q o	-0.0130898
-0.0356848	e e y q o	-0.0397759
-0.0380482	h e y q o	-0.0130898
-0.0374311	o d y q o	-0.0236805
-0.0383972	i d y q o	-0.0130898
-0.0534526	e e s q o	-0.0130898
-0.0534526	e o s q o	-0.0130898
-0.0457567	t h o q o	-0.0130898
-0.0457567	c h o q o	-0.0130898
-0.0455967	i i n q o	-0.0762825
-0.0452668	h o l q o	-0.0324278
-0.0474447	e o l q o	-0.0130898
-0.0565706	d a m q o	-0.0130898
-1.11888	h o r q </unk>
-0.066681	h o r q o	-0.0397759
-0.0661884	e o r q o	-0.0130898
-0.0644237	a i r q o	-0.0130898
-0.433379	o d y p o	-0.0236805
-0.425583	n y y p c	-0.0130898
-0.852845	i r c p h	-0.0130898
-0.806051	i n c p </unk>
-0.388639	h e o p c	-0.0130898
-0.826473	s q o p a	-0.0130898
-0.397448	n q o p c	-0.0130898
-0.529088	r q o p o	-0.0130898
-0.519405	o m o p o	-0.0130898
-0.388639	o l o p c	-0.0130898
-0.343236	h o m p c	-0.0130898
-0.343236	s a m p c	-0.0130898
-0.716861	k e o s c	-0.0130898
-1.07412	h e o s q	-0.0130898
-0.274413	a m o s h	-0.0130898
-0.274413	o m o s h	-0.0130898
-0.716861	r q o s c	-0.0130898
-0.911107	l q o s a	-0.0130898
-0.277627	s h o s h	-0.0130898
-0.595782	o i e s c	-0.0130898
-0.621114	e e e s c	-0.0130898
-1.03058	e e e s q	-0.0130898
-1.00108	r e e s e	-0.0130898
-1.21059	h o l s c	-0.0130898
-0.291893	h o l s h	-0.0397759
-1.14879	h o l s o	-0.0130898
-0.802682	h o l s a	-0.0130898
-1.35474	h o l s e	-0.0130898
-0.27844	k o l s h	-0.0130898
-0.281228	e o l s h	-0.0236805
-0.757817	e o l s a	-0.0130898
-0.727638	n o l s a	-0.0130898
-0.976247	s o l s s	-0.0130898
-1.0996	l o l s </unk>
-0.933287	y d l s s	-0.0130898
-0.276714	s a l s h	-0.0130898
-0.71718	d a l s a	-0.0130898
-0.272018	o r l s h	-0.0130898
-0.849449	f c h s y	-0.0130898
-0.194892	d y t s h	-0.0130898
-0.194892	e y t s h	-0.0130898
-0.196955	q o t s h	-0.0130898
-0.143345	y d k s h	-0.0130898
-0.143345	n y k s h	-0.0130898
-0.143345	l e k s h	-0.0130898
-0.143345	q o k s h	-0.0130898
-0.221757	k o i s h	-0.0130898
-0.244982	k h y s h	-0.0130898
-0.86541	t h y s c	-0.0130898
-0.257487	t h y s h	-0.0130898
-0.963964	c h y s </unk>
-0.244982	t o y s h	-0.0130898
-1.11291	q o y s s	-0.0130898
-0.963964	h o y s </unk>
-0.244982	m o y s h	-0.0130898
-0.860887	o d y s c	-0.0130898
-1.00036	o d y s o	-0.0130898
-0.24799	a d y s h	-0.0130898
-0.237253	o r y s h	-0.0130898
-0.237253	a r y s h	-0.0130898
-0.969348	y k y s a	-0.0130898
-0.143345	o y s s h	-0.0130898
-0.141938	d l s s h	-0.0130898
-0.141938	o l s s h	-0.0130898
-0.143345	a m s s h	-0.0130898
-0.792706	d a m s o	-0.0130898
-1.05253	h a m s y	-0.0130898
-1.03478	h a m s s	-0.0130898
-0.292941	h o m s h	-0.0130898
-0.940221	r o m s </unk>
-0.292941	d o m s h	-0.0130898
-0.780244	e e m s o	-0.0130898
-0.1369	d a r s h	-0.0236805
-0.140892	h a r s h	-0.0130898
-0.140892	l o r s h	-0.0130898
-0.140892	h o r s h	-0.0130898
-0.140892	* o r s h	-0.0130898
-0.143342	a i r s h	-0.0130898
-1.10094	i i n s </unk>
-0.252877	i i n s h	-0.072287
-1.03651	i i n s o	-0.0130898
-0.244745	a i n s h	-0.0236805
-0.68705	d a n s a	-0.0130898
-0.68705	h a n s a	-0.0130898
-0.868656	a r a m y	-0.0130898
-0.915743	o r a m k	-0.0130898
-0.669799	<unk> d a m s	-0.0130898
-1.17529	r d a m q	-0.0130898
-0.461877	m d a m o	-0.0130898
-0.461877	y d a m o	-0.0130898
-0.461877	o d a m o	-0.0130898
-1.20846	c h a m </unk>
-0.535532	c h a m c	-0.0397759
-0.615602	c h a m o	-0.0130898
-0.797414	c h a m s	-0.0130898
-0.656459	f h a m s	-0.0130898
-1.05937	l s a m p	-0.0130898
-0.464124	y k a m o	-0.0130898
-0.868656	h e a m y	-0.0130898
-0.915743	t e a m k	-0.0130898
-0.700438	a i i m c	-0.0130898
-0.67532	<unk> i m m y	-0.0130898
-0.514506	t h o m o	-0.0130898
-1.08326	t h o m p	-0.0130898
-0.708786	c h o m c	-0.0236805
-0.54863	c h o m o	-0.0236805
-1.25817	c h o m t	-0.0130898
-0.771833	c h o m s	-0.0130898
-1.15539	s h o m d	-0.0130898
-0.664103	a r o m s	-0.0130898
-1.01649	k e o m </unk>
-0.898227	k e o m y	-0.0130898
-0.503722	o e o m o	-0.0130898
-0.664103	l d o m s	-0.0130898
-0.494229	o l o m o	-0.0130898
-0.799279	o k o m c	-0.0130898
-0.570794	l e e m s	-0.0130898
-0.425447	<unk> r c f h	-0.0130898
-0.425447	o r c f h	-0.0130898
-0.569226	h o l f o	-0.0130898
-0.396822	d a r e e	-0.0130898
-0.396822	e a r e e	-0.0130898
-0.402284	e o r e e	-0.0130898
-0.664215	e n y e </unk>
-0.429573	o l s e e	-0.0130898
-0.429573	e e s e e	-0.0130898
-0.39159	<unk> c h e o	-0.0130898
-0.685152	m c h e e	-0.0130898
-1.30399	r c h e k	-0.0130898
-0.633215	r c h e y	-0.0130898
-0.461712	r c h e o	-0.0130898
-0.875388	r c h e a	-0.0236805
-0.52745	t c h e y	-0.0324278
-0.725567	t c h e e	-0.0130898
-0.57433	k c h e y	-0.0130898
-0.404867	k c h e o	-0.0130898
-0.586452	o c h e y	-0.0130898
-0.389572	o c h e o	-0.0236805
-0.37654	p c h e o	-0.0236805
-0.57433	l c h e y	-0.0130898
-0.404867	l c h e o	-0.0130898
-1.14741	s c h e </unk>
-0.415896	s c h e o	-0.0130898
-0.71431	s c h e e	-0.0130898
-0.596709	y c h e y	-0.0130898
-0.377352	y c h e o	-0.0324278
-1.37346	n c h e t	-0.0130898
-0.608638	k s h e e	-0.0130898
-1.07156	t s h e </unk>
-0.543507	t s h e o	-0.0130898
-1.2148	l s h e k	-0.0130898
-0.544811	l s h e y	-0.0130898
-0.606592	l s h e e	-0.0236805
-1.14826	n s h e a	-0.0130898
-0.623665	n s h e e	-0.0130898
-0.509022	<unk> s h e y	-0.0130898
-1.29424	i s h e c	-0.0130898
-0.504988	y s h e o	-0.0236805
-0.529224	s s h e o	-0.0130898
-0.529224	r s h e o	-0.0130898
-0.459096	c t h e y	-0.0236805
-0.592155	m y t e o	-0.0130898
-1.0751	m y t e a	-0.0130898
-0.525172	m y t e e	-0.0130898
-0.876106	q o t e </unk>
-0.711941	q o t e y	-0.0130898
-0.528385	q o t e e	-0.0130898
-0.568725	r o t e o	-0.0130898
-0.355531	h o k e o	-0.0236805
-0.845588	q o k e y	-0.0130898
-0.402603	q o k e o	-0.0130898
-0.543957	q o k e e	-0.0236805
-0.382478	r o k e o	-0.0130898
-0.556425	r o k e e	-0.0130898
-0.369336	m o k e o	-0.0130898
-0.929648	o l k e </unk>
-1.15458	o l k e c	-0.0130898
-0.420859	e y k e o	-0.0130898
-0.512103	o y k e e	-0.0130898
-0.415739	h e k e o	-0.0130898
-0.984507	y t e e a	-0.0130898
-0.714699	o t e e o	-0.0130898
-0.440064	y k e e y	-0.0130898
-0.440064	<unk> k e e y	-0.0130898
-0.435591	o k e e y	-0.0236805
-0.756773	o k e e o	-0.0130898
-0.395336	s h e e y	-0.0397759
-0.828943	c h e e </unk>
-0.463134	c h e e y	-0.0130898
-0.438262	<unk> h e e y	-0.0130898
-0.653733	l o e e e	-0.0130898
-0.636085	o e e e s	-0.0130898
-0.636085	s e e e s	-0.0130898
-1.24579	o l e e m	-0.0130898
-0.714699	a l e e o	-0.0130898
-0.659952	l s e e e	-0.0130898
-0.45522	e s e e y	-0.0130898
-1.2868	a r e e n	-0.0130898
-1.04389	a r e e s	-0.0130898
-0.991397	o r e e a	-0.0130898
-0.868868	h o i e s	-0.0130898
-0.527712	o l o e e	-0.0130898
-0.492406	m s o e o	-0.0130898
-0.492406	r q o e o	-0.0130898
-0.95446	e o l e k	-0.0130898
-0.465769	s o l e e	-0.0130898
-0.460485	h a l e e	-0.0130898
-0.582283	a m y t e	-0.0236805
-0.759991	o m y t e	-0.0130898
-0.593775	i r y t c	-0.0130898
-0.658695	o r y t o	-0.0130898
-0.658695	h e y t o	-0.0130898
-0.908044	e e y t s	-0.0130898
-0.930349	o d y t </unk>
-0.92752	o d y t s	-0.0130898
-0.593775	a l y t c	-0.0130898
-0.658695	o l y t o	-0.0130898
-0.587923	k a y t c	-0.0130898
-0.587923	k h y t c	-0.0130898
-0.129236	e y c t h	-0.0130898
-0.12273	h y c t h	-0.0324278
-0.129236	t y c t h	-0.0130898
-0.133495	o l c t h	-0.0460365
-0.12366	o r c t h	-0.0460365
-0.150102	a m c t h	-0.0130898
-0.144368	i n c t h	-0.0236805
-0.144368	c h c t h	-0.0236805
-0.150102	m o c t h	-0.0130898
-0.70056	c h e t y	-0.0130898
-0.319079	y k o t c	-0.0130898
-0.814918	y p o t o	-0.0130898
-0.319079	i n o t c	-0.0236805
-0.327305	o r o t c	-0.0236805
-1.03772	o r o t a	-0.0130898
-0.99211	a r o t </unk>
-0.941586	a r o t e	-0.0130898
-0.32713	o m o t c	-0.0130898
-1.0195	o m o t a	-0.0130898
-0.294656	<unk> m o t c	-0.0324278
-0.304173	c h o t c	-0.0236805
-1.0092	o q o t a	-0.0130898
-1.0032	l q o t </unk>
-0.346892	l q o t c	-0.0130898
-1.06828	s q o t y	-0.0130898
-0.674196	y q o t e	-0.0324278
-1.23663	y q o t s	-0.0130898
-0.33395	m q o t c	-0.0130898
-0.844847	r q o t o	-0.0130898
-0.814918	n d o t o	-0.0130898
-0.946518	<unk> y o t </unk>
-0.738953	r s h t y	-0.0130898
-0.779261	y c h t a	-0.0130898
-0.539819	h o m t c	-0.0130898
-0.893009	d y o l y	-0.0130898
-0.632136	k e o l c	-0.0130898
-0.710951	k e o l s	-0.0130898
-0.632136	t e o l c	-0.0130898
-1.21631	t e o l q	-0.0130898
-0.617022	<unk> e o l c	-0.0130898
-0.756945	h e o l o	-0.0236805
-0.696265	h e o l d	-0.0236805
-1.40202	h e o l e	-0.0130898
-0.719946	h e o l s	-0.0236805
-0.733583	e e o l o	-0.0130898
-0.616767	y k o l d	-0.0236805
-1.10299	l k o l k	-0.0130898
-0.624807	o k o l c	-0.0236805
-0.797798	o k o l o	-0.0130898
-0.700577	o k o l d	-0.0130898
-0.756111	o k o l s	-0.0130898
-0.648665	y t o l d	-0.0130898
-0.893009	o r o l y	-0.0130898
-0.692135	l s o l s	-0.0130898
-1.22521	n s o l e	-0.0130898
-0.907307	<unk> s o l y	-0.0130898
-0.726488	i n o l o	-0.0130898
-0.687321	a n o l s	-0.0130898
-1.55806	c h o l </unk>
-1.07311	c h o l k	-0.0324278
-0.700805	c h o l c	-0.0460365
-1.12511	c h o l y	-0.0130898
-0.836504	c h o l o	-0.0762825
-0.683802	c h o l d	-0.0514349
-1.75549	c h o l a	-0.0130898
-0.830769	c h o l s	-0.0236805
-1.22267	c h o l q	-0.0236805
-1.25412	s h o l k	-0.0130898
-0.689487	s h o l d	-0.0324278
-1.64712	s h o l f	-0.0130898
-0.687059	s h o l s	-0.0397759
-1.19499	s h o l q	-0.0130898
-0.671792	t h o l c	-0.0130898
-0.990586	t h o l y	-0.0130898
-0.712629	t h o l d	-0.0130898
-0.745312	t h o l s	-0.0130898
-0.938954	k h o l y	-0.0130898
-0.70427	<unk> h o l s	-0.0130898
-0.351634	l d o l c	-0.0397759
-0.889389	l d o l o	-0.0236805
-0.833662	l d o l d	-0.0236805
-0.823121	o d o l o	-0.0130898
-0.640576	o l o l c	-0.0130898
-0.943148	o l o l y	-0.0130898
-0.721454	o l o l s	-0.0130898
-1.17813	q o o l </unk>
-0.608473	y p o l c	-0.0130898
-0.726488	o p o l o	-0.0130898
-0.683489	y d a l c	-0.0130898
-0.938421	y d a l o	-0.0130898
-0.53668	y d a l d	-0.0130898
-0.654997	n d a l c	-0.0130898
-0.75604	<unk> d a l s	-0.0130898
-0.670527	o d a l c	-0.0130898
-0.885631	o d a l y	-0.0130898
-0.497197	h o a l d	-0.0130898
-0.847634	d o a l y	-0.0130898
-0.65537	o p a l c	-0.0130898
-0.463342	o k a l d	-0.0236805
-0.491789	o t a l d	-0.0130898
-0.840015	o r a l y	-0.0130898
-0.732272	y s a l s	-0.0130898
-0.681952	c h a l c	-0.0130898
-1.17712	c h a l e	-0.0130898
-1.1232	t h a l </unk>
-0.692847	<unk> i i l d	-0.0130898
-0.523143	d y d l s	-0.0130898
-0.523143	h o r l s	-0.0130898
-1.14409	a i i n </unk>
-1.66826	a i i n k	-0.0130898
-0.607422	a i i n c	-0.0914676
-1.14592	a i i n y	-0.0236805
-0.874239	a i i n o	-0.0460365
-0.858239	a i i n d	-0.0324278
-0.708161	a i i n s	-0.0514349
-0.998767	a i i n q	-0.0397759
-0.924978	o i i n </unk>
-0.665288	o i i n c	-0.0130898
-0.649817	i i i n c	-0.0130898
-0.649817	<unk> i i n c	-0.0130898
-0.976738	d a i n </unk>
-0.712464	d a i n c	-0.0130898
-0.969806	d a i n y	-0.0130898
-0.648199	d a i n d	-0.0236805
-0.672912	d a i n s	-0.0236805
-0.620399	h a i n d	-0.0130898
-0.927267	n d a n o	-0.0130898
-0.560536	n d a n s	-0.0130898
-0.75279	o d a n y	-0.0130898
-0.677586	s h a n d	-0.0130898
-0.69338	c h a n d	-0.0130898
-0.560536	c h a n s	-0.0130898
-0.7084	o r a n c	-0.0130898
-0.614585	r e e n y	-0.0130898

\6-grams:
-0.287424	o r a m k o	-0.0134754
-0.287424	t e a m k o	-0.0134754
-0.773268	a r s h k a	-0.0134754
-0.504621	a i i n k c	-0.0134754
-0.61879	c h o l k y	-0.0134754
-0.49632	c h o l k o	-0.0134754
-0.700724	c h o l k e	-0.0134754
-0.470227	s h o l k o	-0.0134754
-0.635185	l k o l k e	-0.0134754
-0.427383	o d y o k o	-0.0237066
-0.675044	h e y o k a	-0.0134754
-0.569451	l c h o k e	-0.0134754
-0.926114	y c h o k y	-0.0134754
-0.536884	y c h o k o	-0.0134754
-0.789983	y c h o k a	-0.0134754
-0.607709	y c h o k e	-0.0134754
-0.815956	k c h o k c	-0.0134754
-0.500633	n c h o k o	-0.0134754
-0.472132	s s h o k o	-0.0134754
-0.540916	<unk> o l o k a	-0.0134754
-0.892532	h o l o k y	-0.0134754
-0.556243	h o l o k a	-0.0134754
-0.835784	e o l o k c	-0.0134754
-0.556243	e o l o k a	-0.0134754
-1.14693	h o r o k </unk>
-0.474552	h o r o k o	-0.0134754
-0.460095	<unk> o r o k o	-0.0134754
-0.539127	a i r o k e	-0.0134754
-0.479688	d a r o k o	-0.0134754
-0.552238	<unk> a r o k e	-0.0134754
-0.536776	e o m o k e	-0.0134754
-0.670762	k a m o k a	-0.0134754
-0.480291	e y q o k e	-0.0237066
-0.524072	<unk> y q o k o	-0.0134754
-0.822378	d y q o k c	-0.0134754
-0.51663	d y q o k e	-0.0134754
-0.501745	h y q o k e	-0.0134754
-0.814309	<unk> l q o k y	-0.0134754
-0.477497	h o q o k o	-0.0134754
-0.782397	i n q o k c	-0.0134754
-1.05344	i n q o k s	-0.0134754
-0.466452	i i n o k o	-0.0134754
-0.147553	d a o c k h	-0.0134754
-0.143341	k h o c k h	-0.0134754
-0.143341	s h o c k h	-0.0134754
-0.148655	k h y c k h	-0.0134754
-0.148655	e e y c k h	-0.0134754
-0.148655	h o r c k h	-0.0134754
-0.148655	e a r c k h	-0.0134754
-0.150141	n c h c k h	-0.0134754
-0.150141	s h a c k h	-0.0134754
-0.65974	l s h e k y	-0.0134754
-0.640232	r c h e k e	-0.0134754
-0.765227	e o l e k s	-0.0134754
-0.705101	s h y d k s	-0.0134754
-0.387661	c t h y k o	-0.0237066
-0.658861	y c h y k y	-0.0134754
-0.394721	h e y y k o	-0.0134754
-0.394721	k e y y k o	-0.0134754
-0.593064	a m s y k c	-0.0134754
-0.421452	o l o y k o	-0.0134754
-0.729421	s h o y k e	-0.0134754
-0.651362	i i n y k y	-0.0134754
-0.903399	d a n y k s	-0.0134754
-0.682247	h o l y k y	-0.0134754
-0.448173	h o l y k o	-0.0134754
-0.73393	t h e y k e	-0.0134754
-0.962519	h e e y k a	-0.0134754
-0.615986	s e e y k c	-0.0134754
-0.593064	s h t y k c	-0.0134754
-0.443018	h e o r k o	-0.0134754
-0.562469	c h o r k c	-0.0134754
-0.105377	o l k e c h	-0.0134754
-0.105377	i s h e c h	-0.0134754
-0.118274	l d o l c h	-0.0317414
-0.71974	l d o l c t	-0.0134754
-0.109082	o l o l c h	-0.0134754
-1.24875	c h o l c </unk>
-0.153355	c h o l c h	-0.0237066
-0.666211	c h o l c t	-0.0237066
-0.129291	t h o l c h	-0.0134754
-0.103315	o k o l c h	-0.0237066
-0.109082	y p o l c h	-0.0134754
-0.116728	<unk> e o l c h	-0.0134754
-0.116728	t e o l c h	-0.0134754
-0.667894	k e o l c t	-0.0134754
-0.102538	y d a l c h	-0.0134754
-0.102538	n d a l c h	-0.0134754
-0.102538	o d a l c h	-0.0134754
-0.107836	o p a l c h	-0.0134754
-0.107836	c h a l c h	-0.0134754
-0.904582	h o l d c </unk>
-0.133089	h o l d c h	-0.0134754
-0.105213	i n d d c h	-0.0134754
-0.117616	r o r o c h	-0.0134754
-0.133374	h a m o c h	-0.0134754
-0.860066	d a m o c t	-0.0134754
-0.757345	y d a o c k	-0.0134754
-0.747971	c k h o c k	-0.0134754
-0.136535	n s h o c h	-0.0134754
-0.762645	o s h o c k	-0.0134754
-0.116497	a m s o c h	-0.0134754
-0.116497	d y s o c h	-0.0134754
-0.117616	t h y o c h	-0.0134754
-0.117616	d o t o c h	-0.0134754
-0.132642	l d a r c h	-0.0134754
-0.899882	e e a r c k	-0.0134754
-1.05459	d a i r c p	-0.0134754
-0.132312	<unk> a o r c h	-0.0134754
-1.05482	s h o r c k	-0.0134754
-0.696774	s h o r c t	-0.0134754
-0.190925	c h o r c h	-0.0518223
-0.647765	c h o r c t	-0.0382195
-1.29173	c h o r c f	-0.0134754
-0.128601	y d o r c h	-0.0134754
-0.128601	l d o r c h	-0.0134754
-0.0979703	h e o r c h	-0.0317414
-0.132312	o r o r c h	-0.0134754
-0.132312	r k o r c h	-0.0134754
-0.130068	s c h r c h	-0.0134754
-0.688612	y s h a c k	-0.0134754
-0.858416	i n c h c k	-0.0134754
-0.508859	i n c h c t	-0.0237066
-0.210733	m o s h c h	-0.0134754
-0.129907	c h a m c h	-0.0317414
-0.891578	c h a m c t	-0.0134754
-0.89843	o k o m c </unk>
-0.116505	c h o m c h	-0.0237066
-0.120462	a i i m c h	-0.0134754
-0.0993668	a i i n c h	-0.0550916
-0.97496	a i i n c t	-0.0237066
-1.38374	a i i n c p	-0.0134754
-0.0963666	i i i n c h	-0.0134754
-0.0963666	<unk> i i n c h	-0.0134754
-0.0963666	o i i n c h	-0.0134754
-0.0953818	d a i n c h	-0.0134754
-0.10672	o r a n c h	-0.0134754
-0.111183	n y y p c h	-0.0134754
-0.876504	h e o p c </unk>
-0.113916	n q o p c h	-0.0134754
-0.113916	o l o p c h	-0.0134754
-0.110133	h o m p c h	-0.0134754
-0.110133	s a m p c h	-0.0134754
-0.0879613	i i n k c h	-0.0134754
-0.08992	h t y k c h	-0.0134754
-0.08992	e e y k c h	-0.0134754
-0.933273	m s y k c </unk>
-0.08992	<unk> h y k c h	-0.0134754
-0.0657792	c h o k c h	-0.0134754
-0.0640716	y q o k c h	-0.0134754
-0.0640716	n q o k c h	-0.0134754
-0.0657792	o l o k c h	-0.0134754
-0.0879613	h o r k c h	-0.0134754
-0.0476192	y k o t c h	-0.0134754
-0.0452695	o r o t c h	-0.0237066
-0.0426984	<unk> m o t c h	-0.0317414
-0.0446301	o m o t c h	-0.0134754
-0.0452695	c h o t c h	-0.0237066
-0.0452695	i n o t c h	-0.0237066
-0.0464084	l q o t c h	-0.0134754
-0.0464084	m q o t c h	-0.0134754
-0.048658	a l y t c h	-0.0134754
-0.048658	k a y t c h	-0.0134754
-0.048658	k h y t c h	-0.0134754
-0.048658	i r y t c h	-0.0134754
-0.0496693	h o m t c h	-0.0134754
-0.0971928	h o l y c h	-0.0134754
-0.0971928	d a l y c h	-0.0134754
-0.0981051	i i n y c h	-0.0134754
-0.0981051	t h y y c h	-0.0134754
-0.0981051	c h s y c h	-0.0134754
-0.0981051	c h r y c h	-0.0134754
-0.0981051	i m m y c h	-0.0134754
-0.0807555	c h e y c h	-0.0382195
-1.0109	h e e y c k	-0.0134754
-0.851415	h e e y c t	-0.0134754
-0.116916	k e e y c h	-0.0134754
-0.116916	<unk> e e y c h	-0.0134754
-0.0981051	e e a y c h	-0.0134754
-0.942963	c k h y c k	-0.0134754
-0.766864	c t h y c t	-0.0134754
-0.09542	<unk> s h y c h	-0.0134754
-0.09542	l s h y c h	-0.0134754
-1.1465	l c h y c </unk>
-0.154438	l c h y c h	-0.0134754
-0.795387	l c h y c t	-0.0134754
-0.761674	d c h y c t	-0.0134754
-0.132592	t c h y c h	-0.0134754
-0.0939194	h o k y c h	-0.0134754
-0.0939194	q o k y c h	-0.0134754
-0.0965154	o l k y c h	-0.0134754
-0.100945	h e t y c h	-0.0134754
-0.100945	q o t y c h	-0.0134754
-0.0889785	h o d y c h	-0.0237066
-0.0913389	e o d y c h	-0.0134754
-0.0959924	i i d y c h	-0.0134754
-0.0748988	o i e s c h	-0.0134754
-0.0748988	e e e s c h	-0.0134754
-0.0748988	o d y s c h	-0.0134754
-0.0748988	t h y s c h	-0.0134754
-0.0748988	k e o s c h	-0.0134754
-0.0748988	r q o s c h	-0.0134754
-0.0755832	h o l s c h	-0.0134754
-0.845697	l k e c h y	-0.0134754
-0.247752	s h e c h o	-0.0134754
-1.05353	d o l c h </unk>
-0.262562	d o l c h o	-0.0134754
-0.812667	d o l c h e	-0.0134754
-0.807553	l o l c h y	-0.0134754
-0.226729	h o l c h o	-0.0317414
-0.232324	k o l c h o	-0.0237066
-1.00767	p o l c h </unk>
-0.777193	<unk> o l c h y	-0.0237066
-0.812667	<unk> o l c h e	-0.0134754
-0.232324	e o l c h o	-0.0237066
-0.817248	d a l c h y	-0.0237066
-0.266804	d a l c h o	-0.0134754
-0.243906	p a l c h o	-0.0134754
-0.875613	h a l c h a	-0.0134754
-0.255466	<unk> a r c h o	-0.0134754
-0.666535	d a r c h e	-0.0134754
-0.245423	a o r c h o	-0.0134754
-0.258227	d o r c h o	-0.0134754
-0.671818	d o r c h e	-0.0134754
-1.15995	h o r c h </unk>
-0.267198	h o r c h o	-0.0237066
-0.908236	h o r c h a	-0.0237066
-0.719584	h o r c h e	-0.0134754
-0.232043	e o r c h o	-0.0317414
-0.245423	r o r c h o	-0.0134754
-0.65495	<unk> o r c h e	-0.0134754
-0.245423	k o r c h o	-0.0134754
-0.652669	c h r c h e	-0.0134754
-0.242551	<unk> y d c h o	-0.0134754
-0.242551	n d d c h o	-0.0134754
-0.854715	o l d c h y	-0.0134754
-0.24335	o s h c h o	-0.0134754
-0.251557	h a m c h o	-0.0237066
-0.854405	h a m c h a	-0.0134754
-0.268483	h o m c h o	-0.0134754
-0.687899	h o m c h e	-0.0134754
-0.243752	i i m c h o	-0.0134754
-0.881093	i i n c h c	-0.0237066
-0.265388	i i n c h o	-0.0480232
-1.03461	i i n c h a	-0.0134754
-0.89221	i i n c h e	-0.0134754
-0.82258	a i n c h c	-0.0134754
-0.804334	r a n c h a	-0.0134754
-0.245678	y y p c h o	-0.0134754
-0.608162	o m p c h e	-0.0134754
-0.608162	a m p c h e	-0.0134754
-0.237792	q o p c h o	-0.0134754
-0.237792	l o p c h o	-0.0134754
-0.896438	o r o c h </unk>
-0.250197	a m o c h o	-0.0134754
-0.65736	m s o c h e	-0.0134754
-0.262082	y s o c h o	-0.0134754
-0.896438	h y o c h </unk>
-0.250197	o t o c h o	-0.0134754
-0.250197	s h o c h o	-0.0134754
-0.233696	i n k c h o	-0.0134754
-0.237526	t y k c h o	-0.0134754
-0.700465	e y k c h e	-0.0134754
-0.237526	h y k c h o	-0.0134754
-0.84162	h o k c h y	-0.0134754
-0.862095	q o k c h y	-0.0134754
-0.728117	q o k c h e	-0.0134754
-0.971016	l o k c h </unk>
-0.814885	o r k c h a	-0.0134754
-0.65157	<unk> l t c h e	-0.0134754
-0.251576	k o t c h o	-0.0134754
-0.264417	r o t c h o	-0.0134754
-0.869859	r o t c h a	-0.0134754
-0.180795	m o t c h o	-0.0382195
-0.676791	h o t c h e	-0.0237066
-1.05561	n o t c h </unk>
-0.994276	n o t c h y	-0.0134754
-0.251576	<unk> o t c h o	-0.0134754
-0.264417	q o t c h o	-0.0134754
-0.869859	q o t c h a	-0.0134754
-0.826708	l y t c h a	-0.0134754
-0.686694	a y t c h e	-0.0134754
-0.280852	h y t c h o	-0.0134754
-0.905813	r y t c h y	-0.0134754
-0.250832	o m t c h o	-0.0134754
-1.19728	o l y c h t	-0.0134754
-0.258199	a l y c h o	-0.0134754
-0.794585	i n y c h a	-0.0134754
-0.65775	h y y c h e	-0.0134754
-0.246326	h s y c h o	-0.0134754
-0.246326	h r y c h o	-0.0134754
-0.65775	m m y c h e	-0.0134754
-0.250319	h e y c h o	-0.0237066
-0.926949	h e y c h a	-0.0134754
-0.739902	h e y c h e	-0.0134754
-0.248696	e e y c h o	-0.0134754
-0.714484	e e y c h e	-0.0134754
-0.235947	<unk> e y c h o	-0.0134754
-0.794585	e a y c h a	-0.0134754
-0.198789	s h y c h o	-0.0237066
-0.198789	c h y c h o	-0.0237066
-0.97026	o k y c h </unk>
-0.262537	o k y c h o	-0.0134754
