[unifb]
-0.516963

\data\
ngram 1=20
ngram 2=178
ngram 3=553
ngram 4=989
ngram 5=1319
ngram 6=1524
ngram 7=1592
ngram 8=1582
ngram 9=1542
ngram 10=1489

\1-grams:
-0.955352	</unk>
-1.24628	k	-0.648377
-1.04316	c	-1.1712
-1.46099	h	-0.827099
-1.57892	r	-0.532333
-1.0884	y	-0.602591
-0.754719	o	-0.748649
-1.36646	d	-0.696542
-1.35913	a	-0.7346
-1.36098	i	-0.537826
-1.65439	n	-0.477716
-1.42787	l	-0.492435
-1.54418	t	-0.448018
-1.45866	e	-0.581143
-1.77786	f	-0.090397
-1.72414	m	-0.413879
-1.25618	s	-0.595984
-1.74132	p	-0.352202
-1.51201	q	-0.959477
-1.79736	*	-0.0680245

\2-grams:
-1.13605	<unk> k	-0.261646
-0.991622	<unk> c	-0.310628
-0.956324	<unk> h	-0.329571
-1.96809	<unk> r	-0.0613888
-1.335	<unk> y	-0.202287
-0.738086	<unk> o	-0.400272
-1.51906	<unk> d	-0.144827
-0.938047	<unk> a	-0.290531
-1.35681	<unk> i	-0.199553
-1.42783	<unk> n	-0.174728
-1.30269	<unk> l	-0.199553
-1.67186	<unk> t	-0.108014
-1.17759	<unk> e	-0.261646
-2.01592	<unk> m	-0.0613888
-1.25256	<unk> s	-0.253026
-1.73912	<unk> q	-0.108014
-0.988345	k </unk>
-0.845752	k c	-0.400374
-1.49345	k h	-0.310628
-0.849892	k y	-0.365799
-0.657608	k o	-0.416556
-1.11649	k a	-0.244979
-0.713898	k e	-0.474712
-1.45281	k s	-0.139581
-1.36859	c </unk>
-1.37369	c k	-0.472701
-0.114261	c h	-0.921362
-1.05897	c t	-0.724026
-2.23536	c f	-0.108014
-1.87795	c p	-0.139581
-1.0448	h </unk>
-1.77566	h k	-0.108014
-1.64234	h c	-0.202287
-1.77636	h r	-0.108014
-0.915029	h y	-0.541218
-0.384653	h o	-0.677372
-1.03425	h a	-0.475474
-1.64492	h t	-0.144827
-0.79613	h e	-0.539011
-1.9612	h s	-0.0613888
-2.12971	h p	-0.0613888
-1.23104	r </unk>
-1.37503	r k	-0.108014
-0.636863	r c	-0.476225
-0.935571	r y	-0.244979
-0.816209	r o	-0.403551
-1.1487	r d	-0.298452
-1.23244	r a	-0.199553
-1.70651	r l	-0.0613888
-1.42004	r e	-0.144827
-0.93071	r s	-0.270893
-1.30237	r q	-0.312014
-1.31689	y </unk>
-1.02024	y k	-0.374496
-0.550692	y c	-0.522461
-1.46479	y y	-0.174728
-1.04669	y o	-0.349577
-0.818997	y d	-0.476122
-1.0876	y t	-0.392774
-1.94161	y e	-0.0613888
-1.036	y s	-0.356956
-1.54557	y p	-0.174254
-1.33296	y q	-0.372469
-1.27009	o </unk>
-1.19076	o k	-0.511484
-1.21241	o c	-0.40842
-0.88572	o r	-0.641533
-1.47691	o y	-0.299208
-1.6055	o o	-0.108014
-1.00784	o d	-0.673281
-1.69591	o a	-0.225467
-1.73197	o i	-0.202287
-0.603594	o l	-0.580578
-0.954066	o t	-0.532216
-1.79348	o e	-0.144827
-2.31956	o f	-0.0613888
-1.36385	o m	-0.379154
-1.46823	o s	-0.333779
-1.71488	o p	-0.220524
-2.21197	o q	-0.108014
-2.32595	o *	-0.0613888
-1.08249	d </unk>
-1.76007	d k	-0.0613888
-1.21754	d c	-0.174728
-1.03085	d y	-0.375824
-0.798443	d o	-0.456228
-1.80929	d d	-0.0613888
-0.294188	d a	-0.581325
-1.83139	d l	-0.0613888
-1.16116	a </unk>
-1.75598	a c	-0.0613888
-0.833178	a r	-0.43795
-1.78252	a y	-0.0613888
-1.46245	a o	-0.108014
-1.64704	a d	-0.108014
-0.440348	a i	-0.746924
-1.69637	a n	-0.270893
-0.839639	a l	-0.494555
-0.903351	a m	-0.411932
-0.92035	i </unk>
-0.924275	i r	-0.238495
-1.3063	i d	-0.139581
-0.626677	i i	-0.693016
-0.666377	i n	-0.575929
-1.62177	i l	-0.0613888
-1.63136	i e	-0.0613888
-1.35192	i m	-0.108014
-1.55931	i s	-0.0613888
-1.70941	i *	-0.0613888
-0.606828	* o	-0.0613888
-0.87262	* q	-0.0613888
-1.41579	q </unk>
-0.0690717	q o	-0.523629
-0.436241	p c	-0.244979
-1.26258	p h	-0.108014
-0.67421	p o	-0.174728
-0.919703	p a	-0.108014
-0.913708	s </unk>
-1.09441	s c	-0.323663
-0.370588	s h	-0.536411
-1.45225	s y	-0.108014
-0.999967	s o	-0.270893
-1.10679	s a	-0.310628
-1.48102	s e	-0.139581
-1.27731	s s	-0.253026
-1.79589	s q	-0.0613888
-1.01846	m </unk>
-1.24569	m k	-0.108014
-0.798356	m c	-0.358233
-0.942466	m y	-0.231714
-0.704633	m o	-0.310628
-1.55609	m d	-0.0613888
-1.61615	m t	-0.0613888
-1.66167	m m	-0.0613888
-0.848097	m s	-0.261646
-1.32599	m p	-0.108014
-1.3783	m q	-0.108014
-0.843573	f c	-0.0613888
-0.724103	f h	-0.139581
-0.697996	f o	-0.0613888
-1.2655	e </unk>
-1.34105	e k	-0.144827
-1.48429	e c	-0.108014
-0.823957	e y	-0.535866
-0.540028	e o	-0.543125
-1.27848	e a	-0.299208
-1.89642	e n	-0.0613888
-1.86269	e t	-0.0613888
-0.657579	e e	-0.568954
-1.91481	e m	-0.0613888
-1.13808	e s	-0.202287
-1.09089	t </unk>
-0.600632	t c	-0.475625
-1.19708	t h	-0.456228
-0.836606	t y	-0.220524
-0.98241	t o	-0.276057
-1.01193	t a	-0.174728
-1.02126	t e	-0.2861
-1.11793	t s	-0.144827
-1.17345	l </unk>
-1.34147	l k	-0.225467
-0.771578	l c	-0.476321
-0.995611	l y	-0.32067
-0.752223	l o	-0.417811
-0.716829	l d	-0.447514
-1.88575	l t	-0.0613888
-1.58694	l e	-0.108014
-1.964	l f	-0.0613888
-0.982553	l s	-0.535433
-1.34901	l q	-0.253026
-1.00117	n </unk>
-1.49885	n k	-0.0613888
-0.631455	n c	-0.374496
-0.990289	n y	-0.199553
-0.818423	n o	-0.253026
-0.95197	n d	-0.358233
-0.875793	n s	-0.390254
-1.27247	n q	-0.199553

\3-grams:
-0.704516	r k c	-0.0453869
-0.580144	r k o	-0.0453869
-0.707044	h k y	-0.0453869
-0.849419	h k a	-0.0453869
-0.877284	<unk> k c	-0.0453869
-1.23888	<unk> k h	-0.0453869
-0.775579	<unk> k y	-0.0723233
-0.732591	<unk> k o	-0.0453869
-0.563361	<unk> k e	-0.0723233
-0.6426	n k c	-0.0453869
-0.936571	l k </unk>
-0.847569	l k y	-0.0453869
-0.480425	l k o	-0.0723233
-0.750797	l k e	-0.0453869
-1.11159	o k </unk>
-0.907966	o k c	-0.112452
-1.01679	o k y	-0.0901912
-0.480333	o k o	-0.143533
-1.03983	o k a	-0.10292
-0.675271	o k e	-0.134659
-1.58044	o k s	-0.0453869
-0.130921	c k h	-0.17048
-0.751285	e k y	-0.0453869
-0.65854	e k e	-0.0453869
-1.04024	e k s	-0.0453869
-0.717245	d k </unk>
-1.09421	y k </unk>
-0.697847	y k c	-0.10292
-0.793464	y k y	-0.0723233
-0.575243	y k o	-0.112452
-1.18783	y k a	-0.0453869
-0.813205	y k e	-0.0723233
-0.46898	m k o	-0.0723233
-0.0875241	d c h	-0.10292
-0.0946604	e c h	-0.0723233
-0.109437	l c h	-0.157728
-0.823573	l c t	-0.119859
-0.0821887	<unk> c h	-0.130624
-1.07825	<unk> c t	-0.0453869
-0.985592	o c </unk>
-0.78495	o c k	-0.0901912
-0.195592	o c h	-0.130624
-1.18638	o c t	-0.0453869
-1.47286	r c </unk>
-1.1555	r c k	-0.0723233
-0.124904	r c h	-0.154824
-1.25299	r c t	-0.10292
-1.28636	r c f	-0.0723233
-1.72285	r c p	-0.0453869
-0.862228	a c k	-0.0453869
-0.101482	f c h	-0.0453869
-1.08752	h c k	-0.0453869
-0.236755	h c h	-0.0453869
-0.570656	h c t	-0.0723233
-0.0683152	m c h	-0.130624
-1.13446	m c t	-0.0453869
-1.34812	n c </unk>
-0.10525	n c h	-0.173067
-1.0422	n c t	-0.0723233
-1.56404	n c p	-0.0453869
-0.0743342	p c h	-0.119859
-1.35293	k c </unk>
-0.0637417	k c h	-0.140998
-1.4578	t c </unk>
-0.0564811	t c h	-0.155876
-1.25787	y c </unk>
-1.42315	y c k	-0.0723233
-0.114814	y c h	-0.162385
-0.953649	y c t	-0.10292
-0.0590226	s c h	-0.130624
-1.36234	c h </unk>
-2.25644	c h k	-0.0453869
-1.71899	c h c	-0.0901912
-2.11832	c h r	-0.0723233
-1.05138	c h y	-0.143533
-0.24103	c h o	-0.25258
-1.10381	c h a	-0.228711
-2.17031	c h t	-0.0453869
-0.788968	c h e	-0.191458
-2.36277	c h s	-0.0453869
-2.44231	c h p	-0.0453869
-0.434042	f h a	-0.0723233
-1.06905	k h </unk>
-0.653653	k h y	-0.10292
-0.33653	k h o	-0.112452
-1.22633	t h </unk>
-0.346329	t h y	-0.138072
-0.581612	t h o	-0.125781
-1.21869	t h a	-0.0453869
-0.962416	t h e	-0.157234
-0.755262	<unk> h y	-0.0723233
-0.339174	<unk> h o	-0.119859
-1.40521	<unk> h t	-0.0453869
-0.823379	<unk> h e	-0.0723233
-1.1588	s h </unk>
-1.83675	s h k	-0.0453869
-1.7564	s h c	-0.0453869
-1.07026	s h y	-0.10292
-0.407347	s h o	-0.155876
-1.04846	s h a	-0.112452
-1.75805	s h t	-0.0453869
-0.545066	s h e	-0.149448
-0.815126	p h </unk>
-0.370732	p h o	-0.0453869
-0.565349	h r c	-0.0453869
-0.757209	h r y	-0.0453869
-1.3339	a r </unk>
-0.633978	a r c	-0.112452
-0.562015	a r o	-0.119859
-1.3348	a r a	-0.0453869
-1.07135	a r e	-0.0723233
-0.848865	a r s	-0.0901912
-1.28609	o r </unk>
-1.55859	o r k	-0.0723233
-0.448919	o r c	-0.153672
-1.21641	o r y	-0.0901912
-0.672674	o r o	-0.171744
-1.35372	o r d	-0.112452
-1.15659	o r a	-0.10292
-1.87637	o r l	-0.0453869
-1.69865	o r e	-0.0453869
-1.21301	o r s	-0.161184
-1.17691	o r q	-0.119859
-0.680588	i r c	-0.0453869
-0.910987	i r y	-0.0453869
-0.730174	i r o	-0.0723233
-1.05025	i r d	-0.0453869
-0.907543	i r s	-0.0453869
-1.13529	i r q	-0.0453869
-0.690979	<unk> r y	-0.0453869
-0.609644	<unk> y c	-0.0453869
-0.498014	<unk> y t	-0.0901912
-0.892598	y y k	-0.0723233
-0.561037	y y c	-0.0453869
-0.930938	y y t	-0.0453869
-1.1237	y y p	-0.0453869
-0.700845	k y c	-0.0723233
-0.316804	k y d	-0.125781
-1.12751	k y s	-0.0453869
-0.727956	o y k	-0.0723233
-0.901499	o y d	-0.0453869
-0.549119	o y s	-0.112452
-0.802702	s y k	-0.0453869
-0.501793	s y c	-0.0453869
-0.948372	t y k	-0.0453869
-0.476107	t y c	-0.0901912
-0.965197	t y o	-0.0453869
-0.808788	t y d	-0.0453869
-0.860806	l y </unk>
-0.591056	l y c	-0.0901912
-0.827801	l y d	-0.0723233
-0.799702	l y t	-0.0723233
-1.07374	l y s	-0.0453869
-0.78272	n y k	-0.0723233
-0.580338	n y c	-0.0453869
-1.1421	n y y	-0.0453869
-1.26397	n y e	-0.0453869
-1.1368	r y </unk>
-0.635354	r y c	-0.0453869
-0.994529	r y o	-0.0453869
-0.668041	r y t	-0.0723233
-0.988049	r y s	-0.0453869
-0.664385	m y c	-0.0453869
-0.384449	m y t	-0.0901912
-1.49874	e y </unk>
-1.01308	e y k	-0.0901912
-0.593441	e y c	-0.125781
-1.22268	e y y	-0.157234
-1.30831	e y o	-0.0453869
-0.724334	e y d	-0.165932
-1.09805	e y t	-0.0723233
-0.777246	e y q	-0.119859
-0.452597	a y c	-0.0453869
-0.923197	h y k	-0.10292
-0.526154	h y c	-0.140998
-1.26904	h y y	-0.0723233
-1.23095	h y o	-0.0723233
-0.786513	h y d	-0.119859
-1.34275	h y t	-0.0453869
-0.86293	h y s	-0.10292
-1.16153	h y q	-0.0901912
-1.20527	d y </unk>
-0.588578	d y c	-0.0901912
-0.980186	d y o	-0.0901912
-0.841109	d y d	-0.0901912
-1.16782	d y t	-0.0453869
-0.863174	d y s	-0.0901912
-1.30331	d y p	-0.0723233
-1.21313	d y q	-0.0723233
-1.4797	e o </unk>
-0.75465	e o r	-0.21257
-0.912891	e o d	-0.10292
-1.72701	e o a	-0.0453869
-0.423134	e o l	-0.149448
-1.05287	e o m	-0.0901912
-1.60727	e o s	-0.0453869
-1.37623	d o </unk>
-0.714657	d o r	-0.10292
-1.59589	d o i	-0.0453869
-0.350555	d o l	-0.138072
-1.15905	d o t	-0.0453869
-1.43063	d o m	-0.0453869
-0.890716	a o c	-0.0453869
-0.72852	a o r	-0.0453869
-0.930854	s o c	-0.0723233
-0.368609	s o l	-0.0901912
-1.30217	s o e	-0.0453869
-0.591762	y o k	-0.0723233
-1.20586	y o c	-0.0453869
-0.717223	y o r	-0.0723233
-0.738576	y o t	-0.0723233
-1.34708	k o </unk>
-0.985729	k o r	-0.0723233
-1.55395	k o o	-0.0453869
-0.721587	k o d	-0.119859
-1.19015	k o a	-0.0723233
-1.6156	k o i	-0.0453869
-0.553774	k o l	-0.125781
-1.1031	k o t	-0.0453869
-1.41095	k o m	-0.0453869
-0.60298	r o k	-0.119859
-1.28701	r o c	-0.0453869
-0.968377	r o r	-0.0723233
-0.716228	r o l	-0.0901912
-0.83451	r o t	-0.112452
-1.71449	r o f	-0.0453869
-1.38392	r o m	-0.0453869
-1.01062	l o </unk>
-0.685304	l o k	-0.112452
-1.30001	l o c	-0.0453869
-0.982064	l o r	-0.0723233
-1.45348	l o y	-0.0453869
-0.916029	l o d	-0.0723233
-0.775463	l o l	-0.0723233
-1.58517	l o e	-0.0453869
-1.39267	l o m	-0.0453869
-1.55761	l o p	-0.0453869
-0.664698	* o r	-0.0453869
-1.1586	m o k	-0.0453869
-1.17088	m o c	-0.0453869
-1.29923	m o y	-0.0453869
-0.518229	m o t	-0.10292
-1.29565	m o s	-0.0453869
-1.38171	m o p	-0.0453869
-0.726544	f o d	-0.0453869
-1.45403	h o </unk>
-1.24428	h o k	-0.130624
-1.3883	h o c	-0.10292
-0.638154	h o r	-0.189855
-1.73255	h o y	-0.0723233
-0.977407	h o d	-0.154824
-2.002	h o i	-0.0453869
-0.516255	h o l	-0.176863
-1.32168	h o t	-0.0723233
-1.15666	h o m	-0.130624
-1.55813	h o s	-0.0901912
-1.84763	h o q	-0.0723233
-2.32101	h o *	-0.0453869
-1.03435	o o i	-0.0453869
-0.541205	o o l	-0.0453869
-0.808552	p o r	-0.0453869
-0.519917	p o l	-0.0723233
-0.852473	p o t	-0.0453869
-1.36275	q o </unk>
-0.566454	q o k	-0.171744
-1.4209	q o c	-0.0453869
-1.60635	q o y	-0.0453869
-1.6835	q o o	-0.0453869
-1.13432	q o d	-0.0901912
-0.749268	q o t	-0.134659
-1.77945	q o e	-0.0453869
-1.4672	q o s	-0.0723233
-1.14514	q o p	-0.0901912
-0.910331	<unk> o k	-0.0901912
-1.28225	<unk> o c	-0.0453869
-0.639908	<unk> o r	-0.112452
-1.53999	<unk> o a	-0.0453869
-0.753987	<unk> o l	-0.0723233
-1.09423	<unk> o t	-0.0453869
-1.37712	<unk> o m	-0.0453869
-1.05427	<unk> o s	-0.0723233
-1.54742	<unk> o p	-0.0453869
-0.983531	n o d	-0.0453869
-0.483582	n o l	-0.0723233
-0.608012	n o t	-0.0901912
-1.13102	t o c	-0.0453869
-0.736089	t o y	-0.0901912
-1.00472	t o d	-0.0453869
-1.33633	t o a	-0.0453869
-0.631727	t o l	-0.0723233
-0.717288	<unk> d o	-0.0453869
-0.269455	<unk> d a	-0.0723233
-1.14833	n d </unk>
-0.705491	n d o	-0.0723233
-1.42717	n d d	-0.0453869
-0.238934	n d a	-0.165932
-1.27157	y d </unk>
-1.67064	y d k	-0.0453869
-1.37031	y d c	-0.0453869
-1.04048	y d o	-0.0723233
-0.158777	y d a	-0.154824
-1.69783	y d l	-0.0453869
-1.38039	o d </unk>
-0.416542	o d y	-0.149448
-1.25415	o d o	-0.0453869
-0.325268	o d a	-0.152405
-1.15565	l d </unk>
-1.23813	l d c	-0.0723233
-1.19886	l d y	-0.0453869
-0.464205	l d o	-0.143533
-0.384187	l d a	-0.125781
-0.129058	r d a	-0.119859
-0.254326	m d a	-0.0453869
-0.433446	i d y	-0.0723233
-0.812996	d d c	-0.0453869
-0.808114	a d y	-0.0453869
-0.29523	a d a	-0.0453869
-1.32293	d a </unk>
-1.00442	d a r	-0.125781
-1.67947	d a o	-0.0453869
-0.297774	d a i	-0.231083
-1.50295	d a n	-0.0901912
-0.899598	d a l	-0.125781
-0.891313	d a m	-0.125781
-1.62485	h a c	-0.0453869
-0.717909	h a r	-0.10292
-0.515704	h a i	-0.112452
-0.92691	h a n	-0.0901912
-0.947582	h a l	-0.10292
-0.780502	h a m	-0.119859
-1.00488	r a </unk>
-0.798709	r a r	-0.0453869
-0.803306	r a l	-0.0453869
-0.726591	r a m	-0.0723233
-0.547411	e a r	-0.10292
-1.37076	e a y	-0.0453869
-0.593728	e a i	-0.0453869
-0.687915	e a m	-0.0723233
-0.836154	o a r	-0.0453869
-0.324325	o a i	-0.0901912
-0.840583	o a l	-0.0453869
-1.01871	p a d	-0.0453869
-0.700768	p a l	-0.0453869
-1.12452	<unk> a </unk>
-0.88164	<unk> a r	-0.0453869
-1.38202	<unk> a d	-0.0453869
-0.440066	<unk> a i	-0.10292
-0.809769	<unk> a l	-0.0723233
-0.851714	<unk> a m	-0.0723233
-1.0599	k a </unk>
-0.350582	k a i	-0.0901912
-0.858323	k a l	-0.0723233
-0.902572	k a m	-0.0453869
-1.09717	t a o	-0.0453869
-0.352141	t a i	-0.0901912
-0.261678	s a i	-0.125781
-0.924747	s a l	-0.0453869
-0.971693	s a m	-0.0453869
-1.35609	a i </unk>
-1.30128	a i r	-0.112452
-0.147381	a i i	-0.279697
-1.00009	a i n	-0.168684
-1.74671	a i m	-0.0453869
-1.94501	a i *	-0.0453869
-1.22323	i i </unk>
-1.38762	i i r	-0.0453869
-1.49886	i i d	-0.0723233
-1.14179	i i i	-0.0453869
-0.150135	i i n	-0.188618
-1.80582	i i l	-0.0453869
-1.67541	i i m	-0.0453869
-0.861648	<unk> i r	-0.0453869
-0.642142	<unk> i i	-0.0453869
-0.518155	<unk> i n	-0.0901912
-0.430803	o i i	-0.0723233
-1.1626	o i e	-0.0453869
-1.14471	o i s	-0.0453869
-0.492191	o * o	-0.0453869
-0.657555	i * q	-0.0453869
-1.34329	y q </unk>
-0.0469289	y q o	-0.138072
-0.0617053	s q o	-0.0453869
-0.057736	o q o	-0.0723233
-0.0523199	n q o	-0.112452
-0.057736	<unk> q o	-0.0723233
-0.0396232	l q o	-0.112452
-0.057736	m q o	-0.0723233
-0.0357436	r q o	-0.125781
-0.0617053	* q o	-0.0453869
-0.501426	y p c	-0.0453869
-0.404913	y p o	-0.0723233
-0.466249	c p h	-0.0723233
-0.399577	o p c	-0.0901912
-0.617873	o p o	-0.0723233
-0.88111	o p a	-0.0453869
-0.333992	m p c	-0.0723233
-0.682769	h p a	-0.0453869
-0.316088	i s h	-0.0453869
-0.578301	e s c	-0.0901912
-1.12264	e s e	-0.0453869
-1.19574	e s q	-0.0453869
-1.34935	l s c	-0.0453869
-0.252894	l s h	-0.138072
-1.28594	l s o	-0.0453869
-0.814903	l s a	-0.10292
-1.55799	l s e	-0.0453869
-1.08882	l s s	-0.0723233
-0.221593	k s h	-0.0723233
-0.27275	t s h	-0.0901912
-0.882639	h s y	-0.0453869
-0.868334	y s </unk>
-1.04705	y s c	-0.0723233
-0.37257	y s h	-0.119859
-1.08255	y s o	-0.0453869
-1.16183	y s a	-0.0453869
-0.957499	y s s	-0.0723233
-0.92826	s s </unk>
-0.211842	s s h	-0.10292
-0.92826	<unk> s </unk>
-0.211842	<unk> s h	-0.10292
-0.307508	n s h	-0.125781
-0.997634	n s o	-0.0723233
-0.648788	n s a	-0.0901912
-0.330623	m s h	-0.0901912
-1.22287	m s y	-0.0453869
-0.854921	m s o	-0.0723233
-1.14428	m s s	-0.0453869
-0.183834	r s h	-0.125781
-0.894635	o s </unk>
-0.789673	o s c	-0.0723233
-0.325286	o s h	-0.10292
-1.13459	o s a	-0.0453869
-1.07155	a m </unk>
-1.20747	a m k	-0.0723233
-0.654392	a m c	-0.112452
-1.01996	a m y	-0.0723233
-0.612634	a m o	-0.112452
-0.89923	a m s	-0.0901912
-1.37686	a m p	-0.0453869
-1.41046	a m q	-0.0453869
-0.674922	i m c	-0.0453869
-1.02158	i m m	-0.0453869
-0.694502	m m y	-0.0453869
-0.885932	o m </unk>
-0.729924	o m c	-0.0901912
-1.06214	o m y	-0.0453869
-0.717726	o m o	-0.10292
-1.48363	o m t	-0.0453869
-0.754636	o m s	-0.0901912
-1.33158	o m p	-0.0453869
-1.36253	o m q	-0.0453869
-0.90565	<unk> m d	-0.0453869
-0.643921	e m s	-0.0453869
-0.504176	c f h	-0.0723233
-0.553168	l f o	-0.0453869
-0.641369	o f c	-0.0453869
-0.972258	r e </unk>
-0.517467	r e e	-0.0723233
-0.526659	y e e	-0.0453869
-0.340157	s e e	-0.0723233
-1.19407	h e </unk>
-1.43327	h e k	-0.0723233
-0.679971	h e y	-0.147708
-0.505101	h e o	-0.173067
-1.10528	h e a	-0.0901912
-1.84789	h e t	-0.0453869
-0.692382	h e e	-0.125781
-0.895956	t e y	-0.0453869
-0.607124	t e o	-0.0723233
-1.16795	t e a	-0.0453869
-0.41761	t e e	-0.0901912
-1.48582	k e c	-0.0453869
-1.09651	k e y	-0.0453869
-0.335209	k e o	-0.130624
-0.522626	k e e	-0.112452
-0.40152	e e y	-0.172246
-0.782533	e e o	-0.0901912
-1.00336	e e a	-0.0901912
-0.760976	e e e	-0.10292
-1.79464	e e m	-0.0453869
-1.13544	e e s	-0.163922
-0.783106	i e s	-0.0453869
-0.444515	o e o	-0.0723233
-0.617528	o e e	-0.0453869
-1.2354	<unk> e c	-0.0453869
-0.427429	<unk> e o	-0.0901912
-1.14487	<unk> e a	-0.0453869
-1.35135	<unk> e n	-0.0453869
-0.732568	<unk> e e	-0.0453869
-0.938152	l e k	-0.0453869
-0.580123	l e e	-0.0453869
-0.487895	l t c	-0.0453869
-1.19001	y t </unk>
-0.504778	y t c	-0.112452
-0.997819	y t y	-0.0453869
-0.716042	y t o	-0.0901912
-1.13331	y t a	-0.0453869
-1.03703	y t e	-0.0723233
-1.09018	y t s	-0.0723233
-0.0701714	c t h	-0.174229
-0.637416	e t y	-0.0453869
-1.24564	o t </unk>
-0.368154	o t c	-0.145751
-1.13001	o t y	-0.0453869
-0.849991	o t o	-0.112452
-1.19493	o t a	-0.0723233
-0.897488	o t e	-0.112452
-1.3574	o t s	-0.0453869
-0.88446	<unk> t h	-0.0453869
-0.698901	<unk> t y	-0.0453869
-0.61372	h t y	-0.0723233
-0.849077	h t a	-0.0453869
-0.487895	m t c	-0.0453869
-1.30306	o l </unk>
-1.33076	o l k	-0.112452
-0.695195	o l c	-0.153672
-1.15853	o l y	-0.119859
-0.797959	o l o	-0.195806
-0.694814	o l d	-0.153672
-2.01047	o l t	-0.0453869
-1.80012	o l e	-0.0453869
-2.05806	o l f	-0.0453869
-0.767762	o l s	-0.147708
-1.36952	o l q	-0.10292
-0.537905	a l c	-0.119859
-0.917634	a l y	-0.0901912
-1.04388	a l o	-0.0453869
-0.52377	a l d	-0.119859
-1.57351	a l e	-0.0453869
-1.12226	a l s	-0.0723233
-0.653926	<unk> l c	-0.0723233
-0.907994	<unk> l y	-0.0453869
-0.899711	<unk> l s	-0.0453869
-1.09592	<unk> l q	-0.0453869
-0.565228	i l d	-0.0453869
-0.714441	d l s	-0.0453869
-0.714441	r l s	-0.0453869
-1.18459	i n </unk>
-1.67464	i n k	-0.0453869
-0.476745	i n c	-0.145751
-1.08596	i n y	-0.0901912
-0.925836	i n o	-0.165932
-0.850482	i n d	-0.125781
-0.823901	i n s	-0.125781
-1.26957	i n q	-0.10292
-0.992764	a n y	-0.0453869
-0.880978	a n o	-0.0453869
-0.645244	a n d	-0.0723233
-0.621216	a n s	-0.0723233
-0.537842	<unk> n c	-0.0723233
-0.801969	<unk> n s	-0.0453869
-1.02282	<unk> n q	-0.0453869
-0.718182	e n y	-0.0453869

\4-grams:
-0.694979	o r k c	-0.00361143
-0.574506	o r k o	-0.00361143
-0.828119	s h k a	-0.00361143
-0.692565	c h k y	-0.00361143
-0.630571	i n k c	-0.00361143
-0.928317	o l k </unk>
-0.842925	o l k y	-0.00361143
-0.478038	o l k o	-0.00633983
-0.749349	o l k e	-0.00361143
-1.07849	y o k </unk>
-0.477128	y o k o	-0.00633983
-0.907804	h o k c	-0.00361143
-1.01251	h o k y	-0.00361143
-0.478419	h o k o	-0.00847382
-1.03454	h o k a	-0.00361143
-0.672638	h o k e	-0.00633983
-1.09381	l o k </unk>
-0.900951	l o k c	-0.00361143
-1.00462	l o k y	-0.00361143
-1.00273	l o k a	-0.0574936
-0.467743	r o k o	-0.0101886
-0.668054	r o k e	-0.00633983
-1.00541	m o k a	-0.00361143
-1.13333	q o k </unk>
-0.75016	q o k c	-0.00847382
-1.0425	q o k y	-0.00361143
-0.512931	q o k o	-0.00633983
-0.695037	q o k e	-0.00847382
-1.56473	q o k s	-0.00361143
-0.480271	<unk> o k o	-0.00361143
-0.657543	<unk> o k e	-0.00633983
-0.127979	o c k h	-0.00847382
-0.128713	y c k h	-0.00633983
-0.128713	r c k h	-0.00633983
-0.129658	h c k h	-0.00361143
-0.129658	a c k h	-0.00361143
-0.739979	h e k y	-0.00361143
-0.650571	h e k e	-0.00361143
-1.00578	l e k s	-0.00361143
-0.702345	y d k </unk>
-0.695369	h y k c	-0.00361143
-0.787923	h y k y	-0.00361143
-0.566468	h y k o	-0.00633983
-0.558207	y y k o	-0.00633983
-0.683739	s y k c	-0.00361143
-0.569738	o y k o	-0.00361143
-0.799257	o y k e	-0.00361143
-1.06259	n y k </unk>
-0.780398	n y k y	-0.00361143
-0.692324	e y k c	-0.00361143
-1.15443	e y k a	-0.00361143
-0.803512	e y k e	-0.00361143
-0.683739	t y k c	-0.00361143
-0.456912	a m k o	-0.00633983
-0.0861212	l d c h	-0.00633983
-0.0867219	d d c h	-0.00361143
-0.0867219	y d c h	-0.00361143
-0.0937854	k e c h	-0.00361143
-0.0937854	<unk> e c h	-0.00361143
-0.110776	o l c h	-0.0179898
-0.807806	o l c t	-0.0127735
-0.107637	<unk> l c h	-0.00633983
-0.105845	a l c h	-0.0127735
-0.193551	r o c h	-0.00361143
-1.13758	m o c t	-0.00361143
-0.767003	a o c k	-0.00361143
-0.971539	h o c </unk>
-0.764807	h o c k	-0.00633983
-0.201756	h o c h	-0.00361143
-0.962091	s o c </unk>
-0.196951	s o c h	-0.00361143
-0.193551	y o c h	-0.00361143
-0.193551	t o c h	-0.00361143
-0.193551	l o c h	-0.00361143
-0.193551	<unk> o c h	-0.00361143
-0.193551	q o c h	-0.00361143
-1.13471	a r c k	-0.00361143
-0.127199	a r c h	-0.00847382
-1.25474	a r c f	-0.00361143
-1.56776	i r c p	-0.00361143
-1.46075	o r c </unk>
-1.15939	o r c k	-0.00361143
-0.124207	o r c h	-0.0385684
-1.25309	o r c t	-0.0101886
-1.28497	o r c f	-0.00361143
-0.123707	h r c h	-0.00361143
-0.840205	h a c k	-0.00361143
-0.100536	o f c h	-0.00361143
-1.06243	c h c k	-0.00361143
-0.558405	c h c t	-0.00633983
-0.234156	s h c h	-0.00361143
-0.069045	a m c h	-0.0101886
-1.11515	a m c t	-0.00361143
-0.066888	o m c h	-0.00847382
-0.067703	i m c h	-0.00361143
-1.33599	i n c </unk>
-0.107284	i n c h	-0.0171161
-1.03038	i n c t	-0.00633983
-1.53379	i n c p	-0.00361143
-0.103527	<unk> n c h	-0.00633983
-0.0736633	y p c h	-0.00361143
-0.0727704	o p c h	-0.00847382
-0.0731608	m p c h	-0.00633983
-0.0631736	<unk> k c h	-0.00361143
-0.0631736	n k c h	-0.00361143
-0.0621527	y k c h	-0.0101886
-1.31454	o k c </unk>
-0.064584	o k c h	-0.0101886
-0.0631736	r k c h	-0.00361143
-0.0559819	l t c h	-0.00361143
-1.43749	o t c </unk>
-0.0555987	o t c h	-0.0175757
-0.0548947	y t c h	-0.0115966
-0.0559819	m t c h	-0.00361143
-0.112282	d y c h	-0.00847382
-0.113727	n y c h	-0.00361143
-0.113727	<unk> y c h	-0.00361143
-0.113727	y y c h	-0.00361143
-0.113727	s y c h	-0.00361143
-1.21754	l y c </unk>
-0.11592	l y c h	-0.00633983
-0.113727	r y c h	-0.00361143
-0.113727	m y c h	-0.00361143
-1.38695	e y c k	-0.00361143
-0.115758	e y c h	-0.0127735
-0.949816	e y c t	-0.00361143
-0.113727	a y c h	-0.00361143
-1.24747	h y c </unk>
-1.40079	h y c k	-0.00361143
-0.11761	h y c h	-0.0137718
-0.94344	h y c t	-0.00633983
-0.112914	k y c h	-0.00633983
-0.11592	t y c h	-0.00633983
-0.937215	t y c t	-0.00361143
-0.0578027	e s c h	-0.00847382
-0.0581073	y s c h	-0.00633983
-0.0581073	o s c h	-0.00633983
-0.0584993	l s c h	-0.00361143
-1.03348	d c h y	-0.00361143
-0.237955	d c h o	-0.00847382
-1.02319	e c h y	-0.00361143
-0.241843	e c h o	-0.00361143
-1.36142	l c h </unk>
-2.13321	l c h k	-0.00361143
-1.0216	l c h y	-0.0101886
-0.240451	l c h o	-0.0166029
-0.797775	l c h e	-0.00633983
-1.3583	r c h </unk>
-0.239118	r c h o	-0.0166029
-1.1102	r c h a	-0.00633983
-0.777287	r c h e	-0.0115966
-1.64576	<unk> c h c	-0.00361143
-0.236644	<unk> c h o	-0.0127735
-1.09544	<unk> c h a	-0.00361143
-0.23837	h c h o	-0.00361143
-1.90023	f c h s	-0.00361143
-0.239756	m c h o	-0.0115966
-1.0736	m c h a	-0.00361143
-0.792305	m c h e	-0.00361143
-1.37153	n c h </unk>
-1.63412	n c h c	-0.00633983
-0.262069	n c h o	-0.0146293
-0.904015	n c h a	-0.00633983
-0.820415	n c h e	-0.00361143
-1.32801	p c h </unk>
-0.239005	p c h o	-0.0101886
-0.78865	p c h e	-0.00361143
-1.04556	o c h y	-0.00361143
-0.242891	o c h o	-0.0101886
-0.770565	o c h e	-0.00847382
-1.96902	k c h r	-0.00361143
-1.03466	k c h y	-0.00633983
-0.244436	k c h o	-0.0115966
-1.1013	k c h a	-0.00361143
-0.787043	k c h e	-0.00633983
-1.31723	t c h </unk>
-1.04895	t c h y	-0.00633983
-0.248656	t c h o	-0.0475362
-1.07497	t c h a	-0.0101886
-0.784531	t c h e	-0.00847382
-1.36666	y c h </unk>
-1.06433	y c h y	-0.00361143
-0.23934	y c h o	-0.0193037
-1.09731	y c h a	-0.00847382
-2.09217	y c h t	-0.00361143
-0.79214	y c h e	-0.0542323
-2.29292	y c h p	-0.00361143
-1.93917	s c h r	-0.00361143
-0.246048	s c h o	-0.00847382
-0.76009	s c h e	-0.0101886
-0.42337	c f h a	-0.00633983
-0.555027	c k h y	-0.0101886
-0.361396	c k h o	-0.0115966
-1.0321	<unk> k h </unk>
-1.24499	c t h </unk>
-0.361564	c t h y	-0.0153738
-0.535061	c t h o	-0.0137718
-1.23768	c t h a	-0.00361143
-0.979433	c t h e	-0.00633983
-0.341964	<unk> t h y	-0.00361143
-0.524514	t s h e	-0.00847382
-1.0406	k s h y	-0.00361143
-0.405605	k s h o	-0.00361143
-0.404563	<unk> s h o	-0.00633983
-0.537539	<unk> s h e	-0.00633983
-0.406062	n s h o	-0.00847382
-1.01969	n s h a	-0.00633983
-0.545035	n s h e	-0.00633983
-0.398585	y s h o	-0.0101886
-1.03773	y s h a	-0.00361143
-0.550326	y s h e	-0.00361143
-0.411001	s s h o	-0.00361143
-1.03075	s s h a	-0.00361143
-0.537539	s s h e	-0.00633983
-1.63992	o s h c	-0.00361143
-1.05116	o s h y	-0.00361143
-0.404563	o s h o	-0.00633983
-1.06751	l s h y	-0.00361143
-0.403004	l s h o	-0.00847382
-0.538768	l s h e	-0.0101886
-1.73125	r s h k	-0.00361143
-1.06115	r s h y	-0.00361143
-0.411023	r s h o	-0.00633983
-1.04044	r s h a	-0.00361143
-1.67019	r s h t	-0.00361143
-0.551882	r s h e	-0.00361143
-1.12799	m s h </unk>
-0.401486	m s h o	-0.00633983
-1.11305	i s h </unk>
-0.80109	c p h </unk>
-0.369638	c p h o	-0.00361143
-0.560107	c h r c	-0.00361143
-0.745666	c h r y	-0.00361143
-0.63321	h a r c	-0.00361143
-0.562903	h a r o	-0.00361143
-1.29257	h a r a	-0.00361143
-0.841227	h a r s	-0.00361143
-1.30656	d a r </unk>
-0.630871	d a r c	-0.00633983
-0.568556	d a r o	-0.00361143
-1.06218	d a r e	-0.00361143
-0.835288	d a r s	-0.00633983
-0.622251	<unk> a r c	-0.00361143
-0.552596	o a r o	-0.00361143
-0.552596	r a r o	-0.00361143
-0.63321	e a r c	-0.00361143
-0.553797	e a r o	-0.00633983
-1.05218	e a r e	-0.00361143
-1.11107	p o r a	-0.00361143
-0.446373	k o r c	-0.00361143
-0.66424	k o r o	-0.00361143
-1.23474	r o r </unk>
-0.66424	r o r o	-0.00361143
-1.31754	h o r </unk>
-0.47577	h o r c	-0.0989513
-1.22522	h o r y	-0.00847382
-0.693717	h o r o	-0.0146293
-1.00623	h o r d	-0.00847382
-1.19191	h o r a	-0.00361143
-1.86661	h o r l	-0.00361143
-1.24678	h o r s	-0.00361143
-1.18888	h o r q	-0.0115966
-0.442452	a o r c	-0.00361143
-1.1611	* o r s	-0.00361143
-0.431051	d o r c	-0.0101886
-1.11939	l o r a	-0.00361143
-1.1701	l o r s	-0.00361143
-0.446373	y o r c	-0.00361143
-1.11939	y o r a	-0.00361143
-1.25449	<unk> o r </unk>
-1.4925	<unk> o r k	-0.00361143
-0.453957	<unk> o r c	-0.00361143
-0.673347	<unk> o r o	-0.00361143
-1.31524	<unk> o r d	-0.00361143
-1.56642	e o r k	-0.00361143
-0.349511	e o r c	-0.00633983
-1.38721	e o r d	-0.00361143
-1.68197	e o r e	-0.00361143
-1.22532	e o r q	-0.00361143
-0.903844	a i r y	-0.00361143
-0.729322	a i r o	-0.00361143
-1.03623	a i r d	-0.00361143
-0.900545	a i r s	-0.00361143
-1.11592	a i r q	-0.00361143
-0.667157	<unk> i r c	-0.00361143
-0.714726	i i r o	-0.00361143
-0.613732	e y y k	-0.00633983
-1.08159	n y y p	-0.00361143
-0.555908	h y y c	-0.00361143
-0.910861	h y y t	-0.00361143
-0.681577	o k y c	-0.00633983
-0.319402	o k y d	-0.00361143
-0.312958	l k y d	-0.00361143
-0.310096	<unk> k y d	-0.00633983
-0.316571	y k y d	-0.00361143
-1.093	y k y s	-0.00361143
-0.312958	e k y d	-0.00361143
-0.312958	h k y d	-0.00361143
-0.887813	t o y d	-0.00361143
-0.537849	t o y s	-0.00633983
-0.712603	l o y k	-0.00361143
-0.540076	q o y s	-0.00361143
-0.717555	h o y k	-0.00361143
-0.544297	h o y s	-0.00361143
-0.540076	m o y s	-0.00361143
-0.494039	h s y c	-0.00361143
-0.783879	m s y k	-0.00361143
-0.468997	e t y c	-0.00361143
-0.927247	h t y k	-0.00361143
-0.795041	h t y d	-0.00361143
-0.468997	<unk> t y c	-0.00361143
-0.936564	o t y o	-0.00361143
-0.468997	y t y c	-0.00361143
-0.577833	a l y c	-0.00633983
-0.790554	a l y t	-0.00361143
-0.843299	o l y </unk>
-0.595484	o l y c	-0.00361143
-0.812439	o l y d	-0.00633983
-0.799062	o l y t	-0.00361143
-1.03637	<unk> l y s	-0.00361143
-0.774235	i n y k	-0.00361143
-0.578092	i n y c	-0.00361143
-1.11271	i n y y	-0.00361143
-0.764881	a n y k	-0.00361143
-1.20562	e n y e	-0.00361143
-0.62358	h r y c	-0.00361143
-0.975713	o r y o	-0.00361143
-0.663433	o r y t	-0.00361143
-0.969624	o r y s	-0.00361143
-1.09337	<unk> r y </unk>
-0.655087	i r y t	-0.00361143
-0.375581	a m y t	-0.00633983
-0.651567	m m y c	-0.00361143
-0.379359	o m y t	-0.00361143
-1.47721	h e y </unk>
-1.01776	h e y k	-0.00361143
-0.591324	h e y c	-0.00847382
-1.21929	h e y y	-0.00361143
-1.30041	h e y o	-0.00361143
-0.721946	h e y d	-0.00847382
-1.0999	h e y t	-0.00361143
-0.779803	h e y q	-0.00633983
-1.0239	e e y k	-0.00633983
-0.611381	e e y c	-0.0101886
-0.757681	e e y d	-0.00361143
-1.12061	e e y t	-0.00361143
-0.663467	e e y q	-0.0101886
-1.1696	k e y y	-0.00361143
-0.709136	t e y d	-0.00361143
-0.446046	e a y c	-0.00361143
-0.916592	c h y k	-0.00633983
-0.514901	c h y c	-0.0137718
-0.786186	c h y d	-0.00633983
-1.32896	c h y t	-0.00361143
-0.869563	c h y s	-0.00361143
-0.527772	k h y c	-0.00361143
-1.19935	k h y o	-0.00361143
-0.781216	k h y d	-0.00361143
-0.854717	k h y s	-0.00361143
-0.912691	t h y k	-0.00633983
-0.536732	t h y c	-0.00361143
-1.25574	t h y y	-0.00361143
-1.22004	t h y o	-0.00361143
-0.792666	t h y d	-0.00361143
-0.855773	t h y s	-0.00633983
-1.1326	t h y q	-0.00633983
-1.21976	<unk> h y y	-0.00361143
-0.773747	<unk> h y d	-0.00361143
-0.519367	s h y c	-0.00633983
-0.781216	s h y d	-0.00361143
-1.13586	s h y q	-0.00361143
-1.18526	o d y </unk>
-0.597351	o d y c	-0.00633983
-0.96411	o d y o	-0.00847382
-0.842463	o d y d	-0.00633983
-1.16816	o d y t	-0.00361143
-0.86366	o d y s	-0.00633983
-1.27409	o d y p	-0.00633983
-1.21153	o d y q	-0.00361143
-0.582709	i d y c	-0.00361143
-1.17021	i d y q	-0.00361143
-0.820268	l d y d	-0.00361143
-0.841096	a d y s	-0.00361143
-0.912563	k e o d	-0.00361143
-0.418489	k e o l	-0.0101886
-1.0274	k e o m	-0.00633983
-1.55247	k e o s	-0.00361143
-0.412876	t e o l	-0.00633983
-0.653447	h e o r	-0.0127735
-0.941598	h e o d	-0.00361143
-1.69888	h e o a	-0.00361143
-0.438125	h e o l	-0.0137718
-1.40965	<unk> e o </unk>
-0.898631	<unk> e o d	-0.00361143
-0.424116	<unk> e o l	-0.00361143
-0.743209	o e o r	-0.00361143
-1.02457	o e o m	-0.00361143
-0.747206	e e o r	-0.00361143
-0.898631	e e o d	-0.00361143
-0.424116	e e o l	-0.00361143
-0.716946	l d o r	-0.00633983
-0.339271	l d o l	-0.0153738
-1.4102	l d o m	-0.00361143
-0.346113	<unk> d o l	-0.00361143
-0.704751	n d o r	-0.00361143
-1.12161	n d o t	-0.00361143
-0.704751	y d o r	-0.00361143
-1.49165	y d o i	-0.00361143
-1.30118	o d o </unk>
-0.867008	d a o c	-0.00361143
-0.713143	t a o r	-0.00361143
-0.910782	m s o c	-0.00361143
-1.24878	m s o e	-0.00361143
-0.90459	y s o c	-0.00361143
-0.363828	l s o l	-0.00361143
-0.360276	n s o l	-0.00633983
-0.578505	d y o k	-0.00361143
-0.7317	d y o t	-0.00361143
-0.702323	r y o r	-0.00361143
-0.581434	e y o k	-0.00361143
-0.722764	t y o t	-0.00361143
-1.16372	h y o c	-0.00361143
-0.707223	h y o r	-0.00361143
-0.711425	l k o d	-0.00361143
-0.548833	l k o l	-0.00361143
-1.33299	o k o </unk>
-0.988991	o k o r	-0.00361143
-0.716302	o k o d	-0.00847382
-1.57649	o k o i	-0.00361143
-0.545605	o k o l	-0.0515821
-1.39211	o k o m	-0.00361143
-1.48862	y k o o	-0.00361143
-0.720976	y k o d	-0.00361143
-0.548862	y k o l	-0.00633983
-1.08587	y k o t	-0.00361143
-0.711425	m k o d	-0.00361143
-1.14964	m k o a	-0.00361143
-0.955594	r k o r	-0.00361143
-1.14093	<unk> k o a	-0.00361143
-0.598769	a r o k	-0.00633983
-0.961513	a r o r	-0.00361143
-0.818725	a r o t	-0.00633983
-1.34732	a r o m	-0.00361143
-0.534716	o r o k	-0.00847382
-1.29885	o r o c	-0.00361143
-0.995813	o r o r	-0.00361143
-0.74192	o r o l	-0.00633983
-0.844634	o r o t	-0.00847382
-1.67955	o r o f	-0.00361143
-0.596705	i r o k	-0.00361143
-0.706265	i r o l	-0.00361143
-1.0433	o l o </unk>
-0.561912	o l o k	-0.0493859
-1.3333	o l o c	-0.00361143
-1.02724	o l o r	-0.00361143
-1.47729	o l o y	-0.00361143
-0.953264	o l o d	-0.00633983
-0.817939	o l o l	-0.00633983
-1.59797	o l o e	-0.00361143
-1.42062	o l o m	-0.00361143
-1.57298	o l o p	-0.00361143
-0.952202	a l o r	-0.00361143
-0.651868	o * o r	-0.00361143
-0.511743	o m o t	-0.00633983
-1.25769	o m o s	-0.00361143
-1.33388	o m o p	-0.00361143
-1.13758	a m o k	-0.00361143
-1.14896	a m o c	-0.00361143
-1.26636	a m o y	-0.00361143
-0.514592	a m o t	-0.00633983
-0.711252	l f o d	-0.00361143
-1.52667	c h o </unk>
-1.22336	c h o k	-0.0137718
-0.566104	c h o r	-0.089521
-0.997303	c h o d	-0.018706
-2.06977	c h o i	-0.00361143
-0.496021	c h o l	-0.0345804
-1.40858	c h o t	-0.00633983
-1.22445	c h o m	-0.0137718
-1.92512	c h o q	-0.00361143
-1.29792	k h o c	-0.00633983
-0.639652	k h o r	-0.00361143
-1.63276	k h o y	-0.00361143
-0.520202	k h o l	-0.00361143
-0.643323	t h o r	-0.00361143
-0.972605	t h o d	-0.00361143
-0.510773	t h o l	-0.0101886
-1.14267	t h o m	-0.00361143
-1.73949	t h o q	-0.00361143
-1.4197	s h o </unk>
-1.36118	s h o c	-0.00633983
-0.644946	s h o r	-0.00847382
-1.7008	s h o y	-0.00361143
-0.97839	s h o d	-0.00633983
-0.513379	s h o l	-0.0153738
-1.47996	s h o s	-0.00847382
-1.2207	<unk> h o k	-0.00361143
-0.501545	<unk> h o l	-0.0101886
-2.02377	<unk> h o *	-0.00361143
-0.626282	p h o r	-0.00361143
-0.532386	q o o l	-0.00361143
-1.00039	k o o i	-0.00361143
-0.515812	y p o l	-0.00361143
-0.836653	y p o t	-0.00361143
-0.794815	o p o r	-0.00361143
-0.515812	o p o l	-0.00361143
-1.34268	y q o </unk>
-0.559058	y q o k	-0.0101886
-1.62714	y q o o	-0.00361143
-0.730099	y q o t	-0.0542323
-1.2899	s q o </unk>
-0.561183	o q o k	-0.00361143
-0.738042	o q o t	-0.00361143
-0.552812	n q o k	-0.00847382
-1.53207	n q o y	-0.00361143
-1.12509	n q o p	-0.00361143
-0.561183	<unk> q o k	-0.00361143
-1.10902	<unk> q o p	-0.00361143
-0.569474	l q o k	-0.00361143
-1.11502	l q o d	-0.00361143
-0.735244	l q o t	-0.00633983
-1.41482	l q o s	-0.00361143
-0.561183	m q o k	-0.00361143
-0.738042	m q o t	-0.00361143
-1.38495	r q o c	-0.00361143
-1.12168	r q o d	-0.00361143
-0.741157	r q o t	-0.00633983
-1.68704	r q o e	-0.00361143
-1.42599	r q o s	-0.00361143
-1.13185	r q o p	-0.00361143
-1.09114	* q o d	-0.00361143
-1.01098	i n o d	-0.00361143
-0.527387	i n o l	-0.00361143
-0.494265	i n o t	-0.00847382
-0.476289	a n o l	-0.00361143
-1.11194	o t o c	-0.00361143
-0.722809	o t o y	-0.00633983
-1.29971	o t o a	-0.00361143
-0.633372	o t o l	-0.00361143
-0.7293	y t o y	-0.00361143
-0.985278	y t o d	-0.00361143
-0.628154	y t o l	-0.00361143
-1.13484	i n d </unk>
-0.699431	i n d o	-0.00633983
-1.39053	i n d d	-0.00361143
-0.242433	i n d a	-0.00847382
-0.234342	a n d a	-0.00633983
-1.24574	h y d </unk>
-1.59244	h y d k	-0.00361143
-0.159269	h y d a	-0.0101886
-0.159105	d y d a	-0.00633983
-1.58326	d y d l	-0.00361143
-0.152835	k y d a	-0.0137718
-0.157193	t y d a	-0.00361143
-0.751833	e y d o	-0.00633983
-0.199356	e y d a	-0.00847382
-0.156008	l y d a	-0.00633983
-1.29623	o y d c	-0.00361143
-0.40733	k o d y	-0.0101886
-0.328999	k o d a	-0.00633983
-0.410792	t o d y	-0.00361143
-1.37537	h o d </unk>
-0.414658	h o d y	-0.0137718
-1.2552	h o d o	-0.00361143
-0.325235	h o d a	-0.0146293
-0.321278	f o d a	-0.00361143
-0.413484	e o d y	-0.00633983
-0.324691	e o d a	-0.00633983
-1.30464	n o d </unk>
-0.414628	l o d y	-0.00361143
-0.324907	l o d a	-0.00361143
-0.316013	q o d a	-0.00847382
-1.13856	a l d </unk>
-0.452514	a l d o	-0.0101886
-0.391759	a l d a	-0.00361143
-1.15954	o l d </unk>
-1.22105	o l d c	-0.00633983
-0.461711	o l d o	-0.0146293
-0.382745	o l d a	-0.0127735
-1.14863	i l d y	-0.00361143
-0.127815	i r d a	-0.00361143
-0.125116	o r d a	-0.0115966
-0.251472	<unk> m d a	-0.00361143
-0.422797	i i d y	-0.00633983
-0.793648	n d d c	-0.00361143
-0.291743	<unk> a d a	-0.00361143
-0.789017	p a d y	-0.00361143
-0.979648	<unk> d a r	-0.00361143
-0.297821	<unk> d a i	-0.00361143
-0.339243	n d a i	-0.00633983
-0.906326	n d a n	-0.00633983
-0.931194	n d a l	-0.00361143
-1.29632	o d a </unk>
-0.990098	o d a r	-0.0101886
-0.301185	o d a i	-0.0137718
-1.487	o d a n	-0.00361143
-0.89221	o d a l	-0.00847382
-0.901517	o d a m	-0.00361143
-1.00321	y d a r	-0.00633983
-1.65139	y d a o	-0.00361143
-0.292947	y d a i	-0.0160263
-0.894783	y d a l	-0.00847382
-0.902755	y d a m	-0.00361143
-0.293723	r d a i	-0.0101886
-0.871682	r d a m	-0.00633983
-0.867568	m d a m	-0.00361143
-1.29657	l d a </unk>
-0.295957	l d a i	-0.0127735
-0.875022	l d a m	-0.00633983
-0.294246	a d a i	-0.00361143
-0.789312	c h a r	-0.00633983
-0.588013	c h a i	-0.00847382
-0.988838	c h a n	-0.00633983
-0.829433	c h a l	-0.00847382
-0.617237	c h a m	-0.0115966
-0.707884	f h a r	-0.00361143
-0.767994	f h a m	-0.00361143
-1.54719	s h a c	-0.00361143
-0.717399	s h a r	-0.00361143
-0.512154	s h a i	-0.00633983
-0.919083	s h a n	-0.00361143
-0.920185	t h a l	-0.00361143
-0.711297	a r a m	-0.00361143
-0.989756	o r a </unk>
-0.79298	o r a r	-0.00361143
-0.79741	o r a l	-0.00361143
-0.72326	o r a m	-0.00361143
-0.536217	e e a r	-0.00633983
-1.31694	e e a y	-0.00361143
-0.54594	h e a r	-0.00361143
-0.591151	h e a i	-0.00361143
-0.682704	h e a m	-0.00361143
-0.538417	<unk> e a r	-0.00361143
-0.6742	t e a m	-0.00361143
-0.819771	<unk> o a l	-0.00361143
-0.32035	t o a i	-0.00361143
-0.317393	k o a i	-0.00633983
-0.815583	e o a r	-0.00361143
-0.686543	o p a l	-0.00361143
-0.986018	h p a d	-0.00361143
-1.04147	o k a </unk>
-0.349367	o k a i	-0.00633983
-0.8503	o k a l	-0.00633983
-0.878131	y k a m	-0.00361143
-0.346139	h k a i	-0.00361143
-1.05764	y t a o	-0.00361143
-0.344345	o t a i	-0.00633983
-0.347669	h t a i	-0.00361143
-0.254795	n s a i	-0.00847382
-0.257968	l s a i	-0.00847382
-0.958383	l s a m	-0.00361143
-0.898886	y s a l	-0.00361143
-0.258715	o s a i	-0.00361143
-1.00027	d a i r	-0.0115966
-0.155284	d a i i	-0.0202447
-1.06789	d a i n	-0.0101886
-1.78692	d a i m	-0.00361143
-0.144004	o a i i	-0.00633983
-1.31138	<unk> a i </unk>
-0.153966	<unk> a i i	-0.00361143
-0.961564	<unk> a i n	-0.00633983
-0.144004	t a i i	-0.0574936
-1.3042	k a i </unk>
-0.151868	k a i i	-0.00361143
-1.75519	k a i *	-0.00361143
-0.145973	h a i i	-0.0101886
-0.988794	h a i n	-0.00361143
-0.141938	s a i i	-0.0137718
-0.14593	e a i i	-0.00361143
-1.32729	a i i </unk>
-1.498	a i i r	-0.00361143
-1.58278	a i i d	-0.00633983
-1.25968	a i i i	-0.00361143
-0.112252	a i i n	-0.0562648
-1.88917	a i i l	-0.00361143
-1.76989	a i i m	-0.00361143
-0.147544	o i i n	-0.00633983
-0.148652	i i i n	-0.00361143
-1.17008	<unk> i i </unk>
-1.11644	h o i e	-0.00361143
-0.424744	o o i i	-0.00361143
-1.10046	k o i s	-0.00361143
-0.424744	d o i i	-0.00361143
-0.484683	h o * o	-0.00361143
-0.644988	a i * q	-0.00361143
-1.29305	h y q </unk>
-0.0490931	h y q o	-0.00633983
-0.0454949	e y q o	-0.0127735
-0.0462113	d y q o	-0.00633983
-0.0611566	e s q o	-0.00361143
-0.0568421	h o q o	-0.00633983
-0.0518597	<unk> n q o	-0.00361143
-0.0510326	i n q o	-0.0101886
-0.0386623	o l q o	-0.0101886
-0.0392797	<unk> l q o	-0.00361143
-0.057225	a m q o	-0.00361143
-0.057225	o m q o	-0.00361143
-0.0346651	o r q o	-0.0127735
-0.0354352	i r q o	-0.00361143
-0.0611566	i * q o	-0.00361143
-0.395324	d y p o	-0.00633983
-0.493681	y y p c	-0.00361143
-0.459377	r c p h	-0.00361143
-0.459377	n c p h	-0.00361143
-0.394182	<unk> o p c	-0.00361143
-0.400951	q o p c	-0.00361143
-0.614673	q o p o	-0.00361143
-0.868416	q o p a	-0.00361143
-0.606696	m o p o	-0.00361143
-0.394182	l o p c	-0.00361143
-0.329848	o m p c	-0.00361143
-0.329848	a m p c	-0.00361143
-0.669254	c h p a	-0.00361143
-0.312255	o i s h	-0.00361143
-0.568392	i e s c	-0.00361143
-0.469982	e e s c	-0.00633983
-1.1406	e e s e	-0.00361143
-1.20736	e e s q	-0.00361143
-1.33896	o l s c	-0.00361143
-0.254747	o l s h	-0.0137718
-1.2793	o l s o	-0.00361143
-0.807924	o l s a	-0.00847382
-1.53098	o l s e	-0.00361143
-1.09101	o l s s	-0.00361143
-1.05007	d l s s	-0.00361143
-0.250061	<unk> l s h	-0.00361143
-0.253555	a l s h	-0.00361143
-0.800877	a l s a	-0.00361143
-0.250061	r l s h	-0.00361143
-0.219206	e k s h	-0.00361143
-0.219206	o k s h	-0.00361143
-0.267284	y t s h	-0.00633983
-0.269618	o t s h	-0.00361143
-0.859419	c h s y	-0.00361143
-0.859896	h y s </unk>
-1.02942	h y s c	-0.00361143
-0.370771	h y s h	-0.00633983
-0.862911	o y s </unk>
-0.37322	o y s h	-0.00633983
-0.928432	o y s s	-0.00633983
-1.02484	d y s c	-0.00361143
-0.37437	d y s h	-0.00361143
-1.05783	d y s o	-0.00361143
-0.367713	r y s h	-0.00361143
-1.11576	k y s a	-0.00361143
-0.845958	l y s </unk>
-0.207903	y s s h	-0.00633983
-0.90834	l s s </unk>
-0.213012	l s s h	-0.00361143
-0.209587	m s s h	-0.00361143
-0.305344	i n s h	-0.0127735
-0.97336	i n s o	-0.00633983
-0.653746	i n s a	-0.00361143
-0.627573	a n s a	-0.00633983
-0.303819	<unk> n s h	-0.00361143
-1.18613	a m s y	-0.00361143
-0.843437	a m s o	-0.00361143
-1.11471	a m s s	-0.00361143
-0.321152	o m s h	-0.00847382
-0.833313	e m s o	-0.00361143
-0.179434	a r s h	-0.00847382
-0.156344	o r s h	-0.00847382
-0.181943	i r s h	-0.00361143
-0.316029	h o s h	-0.00847382
-0.771496	e o s c	-0.00361143
-0.853555	<unk> o s </unk>
-0.776771	q o s c	-0.00361143
-1.09944	q o s a	-0.00361143
-0.321294	m o s h	-0.00361143
-1.16515	r a m k	-0.00361143
-0.994091	r a m y	-0.00361143
-1.06237	d a m </unk>
-0.594813	d a m o	-0.0101886
-0.897434	d a m s	-0.00361143
-1.37563	d a m q	-0.00361143
-1.05957	h a m </unk>
-0.638862	h a m c	-0.00847382
-0.879025	h a m s	-0.00633983
-0.632831	<unk> a m c	-0.00633983
-1.3017	s a m p	-0.00361143
-0.601631	k a m o	-0.00361143
-1.16515	e a m k	-0.00361143
-0.994091	e a m y	-0.00361143
-0.988661	a i m m	-0.00361143
-0.661708	i i m c	-0.00361143
-0.680527	i m m y	-0.00361143
-0.702805	<unk> o m o	-0.00361143
-0.88649	h o m </unk>
-0.725027	h o m c	-0.00633983
-0.713358	h o m o	-0.00633983
-1.44502	h o m t	-0.00361143
-0.758821	h o m s	-0.00361143
-1.30803	h o m p	-0.00361143
-0.73811	r o m s	-0.00361143
-0.873007	e o m </unk>
-1.03889	e o m y	-0.00361143
-1.3098	e o m q	-0.00361143
-0.73811	d o m s	-0.00361143
-0.702805	l o m o	-0.00361143
-0.714487	k o m c	-0.00361143
-0.631846	e e m s	-0.00361143
-0.490589	r c f h	-0.00633983
-0.544008	o l f o	-0.00361143
-0.629384	r o f c	-0.00361143
-0.94963	a r e </unk>
-0.51342	a r e e	-0.00361143
-0.509301	o r e e	-0.00361143
-0.518245	n y e e	-0.00361143
-0.335903	l s e e	-0.00361143
-0.335903	e s e e	-0.00361143
-1.21592	c h e </unk>
-1.45867	c h e k	-0.00361143
-0.581345	c h e y	-0.0153738
-0.526325	c h e o	-0.0697322
-1.1321	c h e a	-0.00633983
-0.732914	c h e e	-0.00633983
-1.19331	s h e </unk>
-1.41898	s h e k	-0.00361143
-0.680741	s h e y	-0.00847382
-0.507748	s h e o	-0.0101886
-1.108	s h e a	-0.00361143
-0.680996	s h e e	-0.0115966
-0.503679	t h e y	-0.00633983
-0.501342	<unk> h e o	-0.00361143
-1.67296	<unk> h e t	-0.00361143
-1.12966	y t e a	-0.00361143
-0.415676	y t e e	-0.00361143
-0.889437	o t e y	-0.00361143
-0.6001	o t e o	-0.00633983
-0.41708	o t e e	-0.00633983
-0.332167	o k e o	-0.0115966
-0.515426	o k e e	-0.0101886
-1.39059	l k e c	-0.00361143
-1.06469	<unk> k e y	-0.00361143
-0.334694	<unk> k e o	-0.00361143
-0.334694	y k e o	-0.00361143
-0.518456	y k e e	-0.00361143
-0.331044	e k e o	-0.00361143
-0.774055	t e e o	-0.00361143
-0.983996	t e e a	-0.00361143
-0.753303	t e e e	-0.00361143
-0.390041	k e e y	-0.0101886
-0.780112	k e e o	-0.00361143
-0.386066	h e e y	-0.0127735
-1.12273	h e e s	-0.00361143
-0.74416	o e e e	-0.00361143
-0.405261	e e e y	-0.00361143
-0.988319	e e e a	-0.00361143
-1.08038	e e e s	-0.00633983
-1.61629	<unk> e e m	-0.00361143
-0.399885	s e e y	-0.00361143
-0.749279	s e e e	-0.00361143
-0.74416	y e e e	-0.00361143
-0.978653	r e e a	-0.00361143
-1.10022	r e e s	-0.00361143
-0.764703	l e e o	-0.00361143
-0.765248	o i e s	-0.00361143
-0.606362	l o e e	-0.00361143
-0.43815	s o e o	-0.00361143
-0.43815	q o e o	-0.00361143
-0.911399	o l e k	-0.00361143
-0.570158	a l e e	-0.00361143
-0.480495	o l t c	-0.00361143
-1.15641	m y t </unk>
-0.98744	m y t e	-0.00633983
-0.501027	r y t c	-0.00361143
-0.706085	r y t o	-0.00361143
-0.706085	e y t o	-0.00361143
-1.0589	e y t s	-0.00361143
-0.495385	<unk> y t c	-0.00633983
-1.10465	<unk> y t a	-0.00361143
-0.501027	l y t c	-0.00361143
-0.706085	l y t o	-0.00361143
-1.05131	d y t s	-0.00361143
-0.496947	h y t c	-0.00361143
-0.966768	y y t y	-0.00361143
-0.0684091	y c t h	-0.0101886
-0.0679696	l c t h	-0.00847382
-0.0684091	r c t h	-0.0101886
-0.0695412	m c t h	-0.00361143
-0.0690691	n c t h	-0.00633983
-0.0695412	<unk> c t h	-0.00361143
-0.0690691	h c t h	-0.00633983
-0.0695412	o c t h	-0.00361143
-0.62557	h e t y	-0.00361143
-1.18969	k o t </unk>
-0.82866	p o t o	-0.00361143
-0.813322	y o t o	-0.00633983
-0.363594	r o t c	-0.00847382
-1.17118	r o t a	-0.00361143
-0.890907	r o t e	-0.00361143
-1.21267	m o t </unk>
-0.360659	m o t c	-0.00847382
-0.359836	h o t c	-0.00633983
-0.357099	n o t c	-0.00633983
-0.363381	<unk> o t c	-0.00361143
-0.375485	q o t c	-0.00633983
-1.12254	q o t y	-0.00361143
-0.853227	q o t o	-0.00361143
-1.18388	q o t a	-0.00361143
-0.873504	q o t e	-0.0101886
-1.33488	q o t s	-0.00361143
-0.82866	d o t o	-0.00361143
-0.60268	s h t y	-0.00361143
-0.60268	c h t y	-0.00361143
-0.827797	<unk> h t a	-0.00361143
-0.480495	o m t c	-0.00361143
-0.689756	r o l c	-0.00361143
-1.12774	r o l y	-0.00361143
-1.31587	r o l q	-0.00361143
-1.3037	k o l k	-0.00361143
-0.69917	k o l c	-0.00361143
-0.799356	k o l o	-0.00361143
-0.679859	k o l d	-0.00847382
-0.769979	k o l s	-0.00361143
-0.784695	t o l o	-0.00361143
-0.685621	t o l d	-0.00361143
-1.2577	s o l </unk>
-1.12774	s o l y	-0.00361143
-0.75984	s o l s	-0.00361143
-0.784695	n o l o	-0.00361143
-0.755787	n o l s	-0.00361143
-0.685989	<unk> o l c	-0.00361143
-1.12115	<unk> o l y	-0.00361143
-1.77298	l o l t	-0.00361143
-0.755787	l o l s	-0.00361143
-1.31296	h o l </unk>
-1.3282	h o l k	-0.00847382
-0.710628	h o l c	-0.0127735
-1.16685	h o l y	-0.00847382
-0.755524	h o l o	-0.0137718
-0.697275	h o l d	-0.0166029
-2.03065	h o l f	-0.00361143
-0.774172	h o l s	-0.0146293
-1.37595	h o l q	-0.00633983
-1.28746	d o l </unk>
-1.31316	d o l k	-0.00361143
-0.680002	d o l c	-0.0101886
-0.784268	d o l o	-0.00847382
-0.70283	d o l d	-0.00361143
-0.681193	o o l c	-0.00361143
-0.685989	p o l c	-0.00361143
-0.784695	p o l o	-0.00361143
-1.29699	e o l </unk>
-0.69535	e o l c	-0.00847382
-0.785994	e o l o	-0.0101886
-0.694986	e o l d	-0.0574936
-1.74596	e o l e	-0.00361143
-0.771716	e o l s	-0.00633983
-1.35955	e o l q	-0.00361143
-0.531461	d a l c	-0.00847382
-0.915177	d a l y	-0.00361143
-1.03608	d a l o	-0.00361143
-0.530916	d a l d	-0.00361143
-1.11032	d a l s	-0.00361143
-0.515434	o a l d	-0.00361143
-0.529179	p a l c	-0.00361143
-0.509286	k a l d	-0.00633983
-0.530661	h a l c	-0.00633983
-0.525435	h a l d	-0.00361143
-1.49653	h a l e	-0.00361143
-0.892236	r a l y	-0.00361143
-1.08029	s a l s	-0.00361143
-0.898331	<unk> a l y	-0.00361143
-0.519573	<unk> a l d	-0.00361143
-0.555713	i i l d	-0.00361143
-0.699657	y d l s	-0.00361143
-0.699657	o r l s	-0.00361143
-1.20773	i i n </unk>
-1.68657	i i n k	-0.00361143
-0.429754	i i n c	-0.0405974
-1.11335	i i n y	-0.00633983
-0.946851	i i n o	-0.0101886
-0.875152	i i n d	-0.0101886
-0.849723	i i n s	-0.0127735
-1.30096	i i n q	-0.00847382
-0.517853	a i n c	-0.00361143
-1.10793	a i n y	-0.00361143
-0.673028	a i n d	-0.00847382
-0.843546	a i n s	-0.00361143
-1.15149	<unk> i n </unk>
-0.910906	<unk> i n o	-0.00361143
-1.22799	<unk> i n q	-0.00361143
-0.974055	d a n y	-0.00361143
-0.86829	d a n o	-0.00361143
-0.617927	d a n s	-0.00361143
-0.629218	h a n d	-0.00633983
-0.617927	h a n s	-0.00361143
-0.703243	<unk> e n y	-0.00361143

\5-grams:
-0.563307	e o r k o	-0.00413902
-0.678988	<unk> o r k c	-0.00413902
-0.805128	r s h k a	-0.00413902
-0.676683	l c h k y	-0.00413902
-0.6173	i i n k c	-0.00413902
-0.912106	h o l k </unk>
-0.469049	h o l k o	-0.00701966
-0.730742	k o l k e	-0.00413902
-0.819023	d o l k y	-0.00413902
-0.468966	d y o k o	-0.00701966
-1.03546	e y o k </unk>
-0.905675	c h o k c	-0.00413902
-1.00609	c h o k y	-0.00413902
-0.48035	c h o k o	-0.00701966
-1.02709	c h o k a	-0.00413902
-0.66793	c h o k e	-0.00701966
-0.470221	<unk> h o k o	-0.00413902
-1.12018	o l o k </unk>
-0.937612	o l o k c	-0.00413902
-1.03629	o l o k y	-0.00413902
-0.714618	o l o k a	-0.00914011
-0.450577	o r o k o	-0.00914011
-0.653247	i r o k e	-0.00413902
-0.464497	a r o k o	-0.00413902
-0.658902	a r o k e	-0.00413902
-0.969356	a m o k a	-0.00413902
-1.00304	l q o k y	-0.00413902
-1.08433	o q o k </unk>
-0.72597	n q o k c	-0.00701966
-1.47342	n q o k s	-0.00413902
-0.679043	<unk> q o k e	-0.00413902
-0.74586	y q o k c	-0.00413902
-0.514908	y q o k o	-0.00413902
-0.679603	y q o k e	-0.00701966
-0.503728	m q o k o	-0.00413902
-0.12657	a o c k h	-0.00413902
-0.125599	h o c k h	-0.00701966
-0.127294	h y c k h	-0.00413902
-0.127294	e y c k h	-0.00413902
-0.127294	o r c k h	-0.00413902
-0.127294	a r c k h	-0.00413902
-0.128227	c h c k h	-0.00413902
-0.128227	h a c k h	-0.00413902
-0.721846	s h e k y	-0.00413902
-0.636497	c h e k e	-0.00413902
-0.969698	o l e k s	-0.00413902
-0.686018	h y d k </unk>
-0.548161	t h y k o	-0.00701966
-0.685188	c h y k c	-0.00413902
-0.773755	c h y k y	-0.00413902
-0.540364	e y y k o	-0.00701966
-0.668251	m s y k c	-0.00413902
-0.558703	l o y k o	-0.00413902
-0.77796	h o y k e	-0.00413902
-0.760152	i n y k y	-0.00413902
-1.02117	a n y k </unk>
-0.781972	h e y k e	-0.00413902
-0.682261	e e y k c	-0.00413902
-1.11368	e e y k a	-0.00413902
-0.668251	h t y k c	-0.00413902
-0.449302	r a m k o	-0.00413902
-0.449302	e a m k o	-0.00413902
-0.0845966	o l d c h	-0.00701966
-0.0858124	n d d c h	-0.00413902
-0.0858124	o y d c h	-0.00413902
-0.0927936	l k e c h	-0.00413902
-0.111117	d o l c h	-0.00914011
-0.801409	d o l c t	-0.00413902
-0.115377	h o l c h	-0.00914011
-0.780168	h o l c t	-0.0107662
-0.109581	o o l c h	-0.00413902
-0.109581	p o l c h	-0.00413902
-0.109581	k o l c h	-0.00701966
-0.112041	e o l c h	-0.00701966
-0.797603	e o l c t	-0.00413902
-0.109581	<unk> o l c h	-0.00413902
-0.109581	r o l c h	-0.00413902
-0.103356	d a l c h	-0.00914011
-0.104709	p a l c h	-0.00413902
-0.103927	h a l c h	-0.00701966
-0.191244	o r o c h	-0.00413902
-1.08809	a m o c t	-0.00413902
-0.747478	d a o c k	-0.00413902
-0.946623	k h o c </unk>
-0.751713	k h o c k	-0.00413902
-0.751713	s h o c k	-0.00413902
-0.203181	s h o c h	-0.00413902
-0.194593	m s o c h	-0.00413902
-0.929699	y s o c </unk>
-0.191244	h y o c h	-0.00413902
-0.191244	o t o c h	-0.00413902
-0.191244	o l o c h	-0.00413902
-0.191244	r q o c h	-0.00413902
-1.18989	h a r c f	-0.00413902
-0.124836	d a r c h	-0.00701966
-0.1258	<unk> a r c h	-0.00413902
-1.08555	e a r c k	-0.00413902
-1.4403	<unk> i r c p	-0.00413902
-0.122845	a o r c h	-0.00413902
-1.39916	d o r c </unk>
-0.124224	d o r c h	-0.00914011
-1.24163	h o r c k	-0.00413902
-0.220336	h o r c h	-0.0120528
-0.618142	h o r c t	-0.0107662
-1.35878	h o r c f	-0.00413902
-0.121907	e o r c h	-0.0107662
-0.122845	y o r c h	-0.00413902
-0.122845	k o r c h	-0.00413902
-0.122845	<unk> o r c h	-0.00413902
-0.122351	c h r c h	-0.00413902
-0.816472	s h a c k	-0.00413902
-0.0994642	r o f c h	-0.00413902
-1.03041	n c h c k	-0.00413902
-0.55281	n c h c t	-0.00413902
-0.547754	<unk> c h c t	-0.00413902
-0.231222	o s h c h	-0.00413902
-0.0710253	h a m c h	-0.00701966
-1.0859	h a m c t	-0.00413902
-0.0678468	<unk> a m c h	-0.00701966
-0.0662027	k o m c h	-0.00413902
-0.0657301	h o m c h	-0.00701966
-0.0670086	i i m c h	-0.00413902
-1.34858	i i n c </unk>
-0.102604	i i n c h	-0.016304
-1.04328	i i n c t	-0.00701966
-1.53011	i i n c p	-0.00413902
-0.106131	a i n c h	-0.00413902
-0.0729025	y y p c h	-0.00413902
-0.0720196	<unk> o p c h	-0.00413902
-0.0720196	q o p c h	-0.00413902
-0.0720196	l o p c h	-0.00413902
-0.0724057	o m p c h	-0.00413902
-0.0724057	a m p c h	-0.00413902
-0.0625291	i n k c h	-0.00413902
-0.0615194	t y k c h	-0.00413902
-0.0615194	e y k c h	-0.00413902
-0.0615194	s y k c h	-0.00413902
-0.0615194	h y k c h	-0.00413902
-0.063924	h o k c h	-0.00413902
-1.26439	q o k c </unk>
-0.0666369	q o k c h	-0.00701966
-0.063924	l o k c h	-0.00413902
-0.0625291	o r k c h	-0.00413902
-0.0554155	o l t c h	-0.00413902
-0.0543652	r o t c h	-0.00914011
-1.36957	m o t c </unk>
-0.0577956	m o t c h	-0.00701966
-0.0546487	h o t c h	-0.00701966
-0.0546487	n o t c h	-0.00914011
-0.0550364	<unk> o t c h	-0.00413902
-0.0546487	q o t c h	-0.00701966
-0.05434	l y t c h	-0.00413902
-0.0539575	<unk> y t c h	-0.00701966
-0.05434	r y t c h	-0.00413902
-0.05434	h y t c h	-0.00413902
-0.0554155	o m t c h	-0.00413902
-0.111068	i d y c h	-0.00413902
-0.110232	o d y c h	-0.00701966
-0.112496	i n y c h	-0.00413902
-0.112496	h y y c h	-0.00413902
-0.112496	h s y c h	-0.00413902
-1.15796	o l y c </unk>
-0.113795	a l y c h	-0.00701966
-0.112496	h r y c h	-0.00413902
-0.112496	m m y c h	-0.00413902
-0.113004	h e y c h	-0.0107662
-1.3359	e e y c k	-0.00413902
-0.119467	e e y c h	-0.00701966
-0.936959	e e y c t	-0.00413902
-0.112496	e a y c h	-0.00413902
-1.31117	k h y c k	-0.00413902
-0.912523	t h y c t	-0.00413902
-0.115449	s h y c h	-0.00701966
-1.227	c h y c </unk>
-0.118484	c h y c h	-0.0120528
-0.939963	c h y c t	-0.00413902
-0.110851	o k y c h	-0.00701966
-0.114661	e t y c h	-0.00413902
-0.114661	<unk> t y c h	-0.00413902
-0.906777	y t y c t	-0.00413902
-0.0572167	i e s c h	-0.00413902
-0.0568125	e e s c h	-0.00701966
-0.057518	d y s c h	-0.00413902
-0.057518	h y s c h	-0.00413902
-0.057518	e o s c h	-0.00413902
-0.057518	q o s c h	-0.00413902
-0.0579058	o l s c h	-0.00413902
-1.00387	l d c h y	-0.00413902
-0.238898	l d c h o	-0.00413902
-0.23496	d d c h o	-0.00413902
-0.23496	y d c h o	-0.00413902
-0.985532	k e c h y	-0.00413902
-0.238784	<unk> e c h o	-0.00413902
-1.01313	o l c h y	-0.0771876
-0.236333	o l c h o	-0.079339
-0.79954	o l c h e	-0.00701966
-0.99294	<unk> l c h y	-0.00413902
-0.241358	<unk> l c h o	-0.00413902
-1.32635	a l c h </unk>
-1.91755	a l c h k	-0.00413902
-0.990451	a l c h y	-0.00701966
-0.245905	a l c h o	-0.00701966
-0.237708	a r c h o	-0.00701966
-0.768371	a r c h e	-0.00413902
-1.37112	o r c h </unk>
-0.258183	o r c h o	-0.0754717
-0.912718	o r c h a	-0.00701966
-0.795639	o r c h e	-0.00914011
-0.757211	h r c h e	-0.00413902
-0.235368	s h c h o	-0.00413902
-1.6586	o f c h s	-0.00413902
-0.241158	a m c h o	-0.00701966
-1.02417	a m c h a	-0.0771876
-0.238331	o m c h o	-0.00701966
-0.782766	o m c h e	-0.00413902
-0.236732	i m c h o	-0.00413902
-1.35606	i n c h </unk>
-1.54308	i n c h c	-0.00701966
-0.260979	i n c h o	-0.0139594
-0.909491	i n c h a	-0.00413902
-0.827838	i n c h e	-0.00413902
-0.262667	<unk> n c h o	-0.00413902
-0.883556	<unk> n c h a	-0.00413902
-0.235993	y p c h o	-0.00413902
-0.232418	o p c h o	-0.00914011
-1.26558	m p c h </unk>
-0.774448	m p c h e	-0.00413902
-1.00581	r o c h y	-0.00413902
-0.75085	s o c h e	-0.00413902
-0.239815	y o c h o	-0.00413902
-0.239815	t o c h o	-0.00413902
-0.239815	h o c h o	-0.00413902
-0.75085	l o c h e	-0.00413902
-0.239815	<unk> o c h o	-0.00413902
-0.75085	q o c h e	-0.00413902
-1.69631	<unk> k c h r	-0.00413902
-0.241334	n k c h o	-0.00413902
-1.01687	y k c h y	-0.00413902
-0.245737	y k c h o	-0.00701966
-0.781432	y k c h e	-0.00413902
-1.01687	o k c h y	-0.00413902
-0.245737	o k c h o	-0.00701966
-0.781432	o k c h e	-0.00413902
-1.05587	r k c h a	-0.00413902
-0.764059	l t c h e	-0.00413902
-1.30735	o t c h </unk>
-1.05129	o t c h y	-0.00413902
-0.251711	o t c h o	-0.0130962
-1.04673	o t c h a	-0.00914011
-0.785592	o t c h e	-0.00413902
-1.23808	y t c h </unk>
-1.03447	y t c h y	-0.00413902
-1.0589	y t c h a	-0.00413902
-0.781951	y t c h e	-0.00413902
-0.245484	m t c h o	-0.00413902
-0.232741	d y c h o	-0.00914011
-1.05231	n y c h a	-0.00413902
-0.236322	<unk> y c h o	-0.00413902
-1.2983	l y c h </unk>
-0.240263	l y c h o	-0.00413902
-0.771245	y y c h e	-0.00413902
-0.236322	s y c h o	-0.00413902
-0.236322	r y c h o	-0.00413902
-0.771245	m y c h e	-0.00413902
-0.241052	e y c h o	-0.00914011
-1.08353	e y c h a	-0.00413902
-0.778608	e y c h e	-0.00701966
-1.05231	a y c h a	-0.00413902
-0.236064	h y c h o	-0.0120528
-1.90831	h y c h t	-0.00413902
-2.02448	h y c h p	-0.00413902
-0.234251	k y c h o	-0.00701966
-1.03214	t y c h y	-0.00413902
-0.240263	t y c h o	-0.00413902
-1.73979	e s c h r	-0.00413902
-0.249796	e s c h o	-0.00413902
-0.751861	e s c h e	-0.00413902
-0.246877	y s c h o	-0.00413902
-0.747207	y s c h e	-0.00413902
-0.246877	o s c h o	-0.00413902
-0.747207	o s c h e	-0.00413902
-0.740929	l s c h e	-0.00413902
-0.412025	r c f h a	-0.00701966
-0.542608	o c k h y	-0.00701966
-0.363517	o c k h o	-0.00413902
-0.352449	y c k h o	-0.00701966
-0.537361	r c k h y	-0.00701966
-0.356081	h c k h o	-0.00413902
-0.356081	a c k h o	-0.00413902
-0.359977	y c t h y	-0.00701966
-0.536584	y c t h o	-0.00413902
-1.20372	y c t h a	-0.00413902
-0.523587	l c t h o	-0.0107662
-0.960158	l c t h e	-0.00413902
-1.21031	r c t h </unk>
-0.359977	r c t h y	-0.00701966
-0.536584	r c t h o	-0.00413902
-0.525172	m c t h o	-0.00413902
-0.360524	n c t h y	-0.00413902
-0.953953	n c t h e	-0.00413902
-0.356245	<unk> c t h y	-0.00413902
-0.352611	h c t h y	-0.00701966
-0.356245	o c t h y	-0.00413902
-0.508478	y t s h e	-0.00701966
-0.514956	o t s h e	-0.00413902
-1.00132	e k s h y	-0.00413902
-0.399288	o k s h o	-0.00413902
-0.408014	i n s h o	-0.00701966
-0.988724	i n s h a	-0.00701966
-0.542857	i n s h e	-0.00701966
-0.399735	<unk> n s h o	-0.00413902
-0.396835	o y s h o	-0.00413902
-1.00777	o y s h a	-0.00413902
-0.392434	r y s h o	-0.00413902
-0.388238	h y s h o	-0.00701966
-0.539943	d y s h e	-0.00413902
-0.408999	y s s h o	-0.00413902
-0.532527	y s s h e	-0.00413902
-0.527571	l s s h e	-0.00413902
-0.992398	m s s h a	-0.00413902
-1.02698	h o s h y	-0.00413902
-0.398346	h o s h o	-0.00701966
-1.4924	m o s h c	-0.00413902
-0.396929	o l s h o	-0.124169
-0.532199	o l s h e	-0.00914011
-0.528761	<unk> l s h e	-0.00413902
-0.39675	a l s h o	-0.00413902
-1.0256	r l s h y	-0.00413902
-1.59993	a r s h k	-0.00413902
-0.404581	a r s h o	-0.00701966
-1.03622	o r s h y	-0.00413902
-1.01704	o r s h a	-0.00413902
-0.550186	o r s h e	-0.00413902
-1.51353	i r s h t	-0.00413902
-1.09764	o m s h </unk>
-0.395376	o m s h o	-0.00701966
-1.06633	o i s h </unk>
-0.779689	r c p h </unk>
-0.364144	n c p h o	-0.00413902
-0.727246	k c h r y	-0.00413902
-0.549399	s c h r c	-0.00413902
-0.625284	c h a r c	-0.00413902
-0.557178	c h a r o	-0.00413902
-1.22196	f h a r a	-0.00413902
-0.81743	s h a r s	-0.00413902
-1.26536	o d a r </unk>
-0.630142	o d a r c	-0.00413902
-1.04259	o d a r e	-0.00413902
-0.827793	o d a r s	-0.00413902
-0.623024	y d a r c	-0.00413902
-0.818743	y d a r s	-0.00413902
-0.557562	<unk> d a r o	-0.00413902
-0.542138	e o a r o	-0.00413902
-0.542138	o r a r o	-0.00413902
-1.01178	h e a r e	-0.00413902
-0.625284	e e a r c	-0.00413902
-0.548333	e e a r o	-0.00413902
-0.5433	<unk> e a r o	-0.00413902
-1.06458	o p o r a	-0.00413902
-0.649595	o k o r o	-0.00413902
-0.439041	r k o r c	-0.00413902
-0.649595	a r o r o	-0.00413902
-1.17277	o r o r </unk>
-0.466873	s h o r c	-0.00701966
-0.687908	s h o r o	-0.00413902
-1.39202	c h o r </unk>
-0.464225	c h o r c	-0.0153044
-1.28928	c h o r y	-0.00701966
-0.693344	c h o r o	-0.0130962
-1.07284	c h o r d	-0.00914011
-1.27069	c h o r a	-0.00413902
-1.89971	c h o r l	-0.00413902
-1.32383	c h o r s	-0.00413902
-0.931103	c h o r q	-0.0107662
-0.677783	k h o r o	-0.00413902
-1.16458	t h o r y	-0.00413902
-1.1331	p h o r q	-0.00413902
-0.435222	t a o r c	-0.00413902
-1.1088	o * o r s	-0.00413902
-0.419385	l d o r c	-0.00701966
-0.424112	y d o r c	-0.00413902
-0.424112	n d o r c	-0.00413902
-1.1167	a l o r s	-0.00413902
-1.07197	o l o r a	-0.00413902
-1.07197	r y o r a	-0.00413902
-0.439041	h y o r c	-0.00413902
-1.50469	h e o r k	-0.00413902
-0.343225	h e o r c	-0.172693
-1.2027	h e o r q	-0.00413902
-1.30019	o e o r d	-0.00413902
-1.52163	e e o r e	-0.00413902
-0.896737	d a i r y	-0.00413902
-0.728462	d a i r o	-0.00413902
-1.02249	d a i r d	-0.00413902
-0.89358	d a i r s	-0.00413902
-1.09717	d a i r q	-0.00413902
-0.697821	a i i r o	-0.00413902
-0.601111	h e y y k	-0.00413902
-0.601111	k e y y k	-0.00413902
-1.03824	i n y y p	-0.00413902
-0.545341	t h y y c	-0.00413902
-0.882385	<unk> h y y t	-0.00413902
-0.666184	h o k y c	-0.00413902
-0.666184	q o k y c	-0.00413902
-0.314949	l o k y d	-0.00413902
-0.308631	o l k y d	-0.00413902
-0.312174	n y k y d	-0.00413902
-1.04846	h y k y s	-0.00413902
-0.308631	h e k y d	-0.00413902
-0.308631	c h k y d	-0.00413902
-0.521114	o t o y s	-0.00701966
-0.860963	y t o y d	-0.00413902
-0.695798	o l o y k	-0.00413902
-0.530027	n q o y s	-0.00413902
-0.700515	s h o y k	-0.00413902
-0.534111	k h o y s	-0.00413902
-0.530027	a m o y s	-0.00413902
-0.485396	c h s y c	-0.00413902
-0.763442	a m s y k	-0.00413902
-0.461061	h e t y c	-0.00413902
-0.897564	s h t y k	-0.00413902
-0.773983	c h t y d	-0.00413902
-0.906176	q o t y o	-0.00413902
-0.461061	y y t y c	-0.00413902
-0.769747	r a l y t	-0.00413902
-0.566518	d a l y c	-0.00413902
-0.566518	<unk> a l y c	-0.00413902
-0.811502	h o l y </unk>
-0.59266	h o l y c	-0.00413902
-0.790382	<unk> o l y d	-0.00413902
-0.790382	s o l y d	-0.00413902
-0.777776	r o l y t	-0.00413902
-1.06603	a i n y y	-0.00413902
-0.760709	i i n y k	-0.00413902
-0.571921	i i n y c	-0.00413902
-0.745469	d a n y k	-0.00413902
-1.14765	<unk> e n y e	-0.00413902
-0.610581	c h r y c	-0.00413902
-0.956672	h o r y o	-0.00413902
-0.658614	h o r y t	-0.00413902
-0.950964	h o r y s	-0.00413902
-0.640826	a i r y t	-0.00413902
-0.369955	r a m y t	-0.00413902
-0.369955	e a m y t	-0.00413902
-0.637451	i m m y c	-0.00413902
-0.373649	e o m y t	-0.00413902
-1.44346	c h e y </unk>
-0.580419	c h e y c	-0.0637765
-0.719375	c h e y d	-0.00701966
-1.09395	c h e y t	-0.00413902
-0.784806	c h e y q	-0.00413902
-0.989399	t h e y k	-0.00413902
-1.17132	t h e y y	-0.00413902
-1.25204	s h e y o	-0.00413902
-0.715151	s h e y d	-0.00413902
-0.770784	s h e y q	-0.00413902
-1.01419	h e e y k	-0.00413902
-0.606732	h e e y c	-0.00701966
-0.758275	h e e y d	-0.00413902
-0.656609	h e e y q	-0.00701966
-0.61115	k e e y c	-0.00413902
-1.09682	k e e y t	-0.00413902
-0.64982	k e e y q	-0.00701966
-0.598848	e e e y c	-0.00413902
-0.986184	s e e y k	-0.00413902
-1.11626	<unk> k e y y	-0.00413902
-0.692494	o t e y d	-0.00413902
-0.438723	e e a y c	-0.00413902
-0.765623	o c h y d	-0.00413902
-0.499703	l c h y c	-0.0107662
-0.780608	l c h y d	-0.00413902
-0.505638	e c h y c	-0.00413902
-0.505638	d c h y c	-0.00413902
-0.887699	y c h y k	-0.00413902
-0.895351	k c h y k	-0.00413902
-0.851139	k c h y s	-0.00413902
-0.510492	t c h y c	-0.00413902
-1.2664	t c h y t	-0.00413902
-0.529447	c k h y c	-0.00413902
-1.169	c k h y o	-0.00413902
-0.77582	c k h y d	-0.00413902
-0.846405	c k h y s	-0.00413902
-0.900568	c t h y k	-0.00701966
-0.54612	c t h y c	-0.00413902
-1.24093	c t h y y	-0.00413902
-1.20753	c t h y o	-0.00413902
-0.797363	c t h y d	-0.00413902
-0.846927	c t h y s	-0.00701966
-1.12503	c t h y q	-0.00413902
-1.08368	<unk> t h y q	-0.00413902
-0.509968	o s h y c	-0.00413902
-0.509968	l s h y c	-0.00413902
-0.760926	r s h y d	-0.00413902
-1.08656	k s h y q	-0.00413902
-0.950484	k o d y o	-0.00413902
-0.85496	k o d y s	-0.00413902
-1.23643	k o d y p	-0.00413902
-1.18007	k o d y q	-0.00413902
-0.931554	t o d y o	-0.00413902
-1.16923	h o d y </unk>
-0.603364	h o d y c	-0.00413902
-0.9598	h o d y o	-0.00413902
-0.829099	h o d y d	-0.00701966
-0.86306	h o d y s	-0.00413902
-1.25154	h o d y p	-0.00413902
-1.115	l o d y t	-0.00413902
-1.1412	e o d y </unk>
-0.590591	e o d y c	-0.00413902
-0.576399	i i d y c	-0.00413902
-1.12779	i i d y q	-0.00413902
-0.797748	i l d y d	-0.00413902
-0.817308	p a d y s	-0.00413902
-0.905076	o k e o d	-0.00413902
-0.424181	o k e o l	-0.00413902
-0.990274	o k e o m	-0.00701966
-1.48504	o k e o s	-0.00413902
-0.411861	y k e o l	-0.00413902
-0.411861	<unk> k e o l	-0.00413902
-0.411861	e k e o l	-0.00413902
-0.40196	o t e o l	-0.00701966
-0.482219	c h e o r	-0.0556965
-1.0022	c h e o d	-0.00413902
-0.495014	c h e o l	-0.0107662
-0.639253	<unk> h e o r	-0.00413902
-1.59116	s h e o a	-0.00413902
-0.42703	s h e o l	-0.00914011
-0.986786	s o e o m	-0.00413902
-0.724913	q o e o r	-0.00413902
-0.871028	k e e o d	-0.00413902
-0.41735	t e e o l	-0.00413902
-0.728709	l e e o r	-0.00413902
-0.700198	a l d o r	-0.00701966
-0.338293	a l d o l	-0.00701966
-0.32631	o l d o l	-0.0139594
-1.37935	o l d o m	-0.00413902
-0.694202	i n d o r	-0.00413902
-1.08417	i n d o t	-0.00413902
-0.694202	e y d o r	-0.00413902
-1.40081	e y d o i	-0.00413902
-1.22919	h o d o </unk>
-0.84156	y d a o c	-0.00413902
-0.696313	y t a o r	-0.00413902
-0.882311	a m s o c	-0.00413902
-1.1848	e m s o e	-0.00413902
-0.876564	d y s o c	-0.00413902
-0.35846	o l s o l	-0.00413902
-0.351369	i n s o l	-0.00701966
-0.564919	o d y o k	-0.0771876
-0.72455	o d y o t	-0.00413902
-0.685997	o r y o r	-0.00413902
-0.569992	h e y o k	-0.00413902
-0.705476	o t y o t	-0.00413902
-0.690669	k h y o r	-0.00413902
-1.1111	t h y o c	-0.00413902
-0.70061	o l k o d	-0.00413902
-0.543508	o l k o l	-0.00413902
-0.705289	y o k o d	-0.00413902
-0.540371	y o k o l	-0.00413902
-1.28045	h o k o </unk>
-0.709709	h o k o d	-0.00413902
-1.48272	h o k o i	-0.00413902
-0.973968	r o k o r	-0.00413902
-0.537638	r o k o l	-0.00701966
-1.34038	r o k o m	-0.00413902
-0.705289	q o k o d	-0.00413902
-0.540371	q o k o l	-0.00413902
-0.535377	<unk> o k o l	-0.00413902
-1.39839	h y k o o	-0.00413902
-1.05178	h y k o t	-0.00413902
-0.709772	y y k o d	-0.00413902
-0.543537	y y k o l	-0.00413902
-0.538528	o y k o l	-0.00413902
-0.70061	a m k o d	-0.00413902
-1.10939	a m k o a	-0.00413902
-0.923722	o r k o r	-0.00413902
-0.929168	h a r o r	-0.00413902
-1.26757	o a r o m	-0.00413902
-0.796297	r a r o t	-0.00413902
-0.586705	d a r o k	-0.00413902
-0.591965	e a r o k	-0.00413902
-0.803039	e a r o t	-0.00413902
-1.22723	r o r o c	-0.00413902
-0.530627	h o r o k	-0.00914011
-0.74642	h o r o l	-0.00413902
-0.821819	h o r o t	-0.00914011
-1.61305	h o r o f	-0.00413902
-0.960601	<unk> o r o r	-0.00413902
-0.723689	k o r o l	-0.00413902
-0.689756	i i r o l	-0.00413902
-0.584716	a i r o k	-0.00413902
-0.795557	n o l o l	-0.00413902
-1.03542	h o l o </unk>
-0.554247	h o l o k	-0.00914011
-1.30566	h o l o c	-0.00413902
-0.949396	h o l o d	-0.00413902
-1.53825	h o l o e	-0.00413902
-1.01969	d o l o </unk>
-1.40265	d o l o y	-0.00413902
-0.9356	d o l o d	-0.00413902
-1.44415	p o l o p	-0.00413902
-1.32707	t o l o m	-0.00413902
-0.989218	k o l o r	-0.00413902
-0.543842	e o l o k	-0.00914011
-0.811145	e o l o l	-0.00413902
-0.920599	d a l o r	-0.00413902
-0.63774	h o * o r	-0.00413902
-0.502576	<unk> o m o t	-0.00413902
-1.20497	h o m o s	-0.00413902
-1.27058	h o m o p	-0.00413902
-0.502576	l o m o t	-0.00413902
-1.12293	d a m o c	-0.00413902
-1.22952	d a m o y	-0.00413902
-0.50789	d a m o t	-0.00701966
-1.08808	k a m o k	-0.00413902
-0.69451	o l f o d	-0.00413902
-0.547764	o c h o r	-0.00914011
-0.498331	o c h o l	-0.00413902
-0.557251	p c h o r	-0.00701966
-0.490036	p c h o l	-0.00701966
-1.19635	k c h o k	-0.00413902
-0.551962	k c h o r	-0.00914011
-1.19734	k c h o m	-0.00413902
-0.595042	t c h o r	-0.00914011
-0.742566	t c h o d	-0.00701966
-0.541884	t c h o l	-0.00413902
-1.24155	t c h o m	-0.00413902
-0.961962	h c h o d	-0.00413902
-0.560519	m c h o r	-0.00701966
-0.49302	m c h o l	-0.00701966
-1.76877	m c h o q	-0.00413902
-0.566036	r c h o r	-0.00914011
-0.984579	r c h o d	-0.0107662
-0.489284	r c h o l	-0.0120528
-1.38782	r c h o t	-0.00413902
-0.555193	e c h o r	-0.00413902
-1.20789	n c h o k	-0.00413902
-0.56064	n c h o r	-0.00914011
-0.504895	n c h o l	-0.00413902
-1.37789	n c h o t	-0.00413902
-1.18065	n c h o m	-0.00701966
-0.56318	<unk> c h o r	-0.00701966
-0.988917	<unk> c h o d	-0.00413902
-0.488771	<unk> c h o l	-0.00914011
-1.47995	y c h o </unk>
-1.17697	y c h o k	-0.0107662
-0.569392	y c h o r	-0.0107662
-1.00545	y c h o d	-0.00413902
-0.498364	y c h o l	-0.0120528
-1.20917	y c h o m	-0.00701966
-0.94919	s c h o d	-0.00701966
-1.18481	s c h o m	-0.00413902
-1.21511	l c h o k	-0.00413902
-0.576882	l c h o r	-0.00413902
-0.970762	l c h o d	-0.0120528
-1.93736	l c h o i	-0.00413902
-0.489284	l c h o l	-0.0120528
-1.44295	d c h o </unk>
-0.564052	d c h o r	-0.00413902
-0.495619	d c h o l	-0.00413902
-1.22236	c k h o c	-0.00701966
-0.641172	c k h o r	-0.00413902
-1.55082	c k h o y	-0.00413902
-0.524232	c k h o l	-0.00413902
-0.648459	c t h o r	-0.00413902
-0.967943	c t h o d	-0.00413902
-0.505458	c t h o l	-0.0107662
-1.12936	c t h o m	-0.00413902
-1.65441	c t h o q	-0.00413902
-0.632291	y s h o r	-0.00701966
-0.515347	y s h o l	-0.00413902
-1.41537	y s h o s	-0.00413902
-0.504162	s s h o l	-0.00413902
-1.30479	n s h o c	-0.00413902
-0.640701	n s h o r	-0.00413902
-1.40485	n s h o s	-0.00413902
-0.50901	<unk> s h o l	-0.00413902
-1.39146	<unk> s h o s	-0.00413902
-1.57769	l s h o y	-0.00413902
-0.502887	l s h o l	-0.0107662
-0.952984	r s h o d	-0.00413902
-0.50901	r s h o l	-0.00413902
-1.34245	m s h o </unk>
-0.952984	m s h o d	-0.00413902
-1.34245	o s h o </unk>
-1.29369	o s h o c	-0.00413902
-0.504162	k s h o l	-0.00413902
-0.613179	c p h o r	-0.00413902
-0.522582	y q o o l	-0.00413902
-0.964778	y k o o i	-0.00413902
-0.511379	d y p o l	-0.00413902
-0.820036	d y p o t	-0.00413902
-0.77377	m o p o r	-0.00413902
-0.506521	q o p o l	-0.00413902
-0.553444	h y q o k	-0.00413902
-1.50535	h y q o o	-0.00413902
-1.30954	e y q o </unk>
-0.556388	e y q o k	-0.00701966
-0.708878	e y q o t	-0.00914011
-0.553444	d y q o k	-0.00413902
-0.718517	d y q o t	-0.00413902
-1.2197	e s q o </unk>
-0.555508	h o q o k	-0.00413902
-0.726123	h o q o t	-0.00413902
-1.41366	<unk> n q o y	-0.00413902
-0.535321	i n q o k	-0.00914011
-1.10094	i n q o p	-0.00413902
-0.570243	o l q o k	-0.00413902
-1.09165	o l q o d	-0.00413902
-0.731444	o l q o t	-0.00413902
-1.35998	o l q o s	-0.00413902
-0.717346	<unk> l q o t	-0.00413902
-0.720005	a m q o t	-0.00413902
-0.550439	o m q o k	-0.00413902
-1.34735	o r q o c	-0.00413902
-1.1064	o r q o d	-0.00413902
-0.742211	o r q o t	-0.00413902
-1.60385	o r q o e	-0.00413902
-1.38368	o r q o s	-0.00413902
-1.11592	o r q o p	-0.00413902
-0.722965	i r q o t	-0.00413902
-1.04679	i * q o d	-0.00413902
-0.994661	i i n o d	-0.00413902
-0.52907	i i n o l	-0.00413902
-0.488346	i i n o t	-0.00701966
-0.485616	<unk> i n o t	-0.00413902
-0.468151	d a n o l	-0.00413902
-0.705518	p o t o y	-0.00413902
-1.24135	y o t o a	-0.00413902
-0.62544	y o t o l	-0.00413902
-1.06535	d o t o c	-0.00413902
-0.705518	q o t o y	-0.00413902
-0.950968	e y t o d	-0.00413902
-0.614977	l y t o l	-0.00413902
-0.711695	r y t o y	-0.00413902
-1.10994	i i n d </unk>
-0.683739	i i n d o	-0.00701966
-0.248463	i i n d a	-0.00413902
-1.32991	a i n d d	-0.00413902
-0.240943	a i n d a	-0.00701966
-0.22939	h a n d a	-0.00701966
-1.19453	c h y d </unk>
-0.161213	c h y d a	-0.00413902
-1.45839	<unk> h y d k	-0.00413902
-0.157448	k h y d a	-0.00413902
-0.157448	t h y d a	-0.00413902
-0.157448	s h y d a	-0.00413902
-0.156035	o d y d a	-0.00701966
-1.45169	l d y d l	-0.00413902
-0.151101	l k y d a	-0.00413902
-0.149908	<unk> k y d a	-0.00701966
-0.151101	y k y d a	-0.00413902
-0.151101	e k y d a	-0.00413902
-0.151101	o k y d a	-0.00413902
-0.151101	h k y d a	-0.00413902
-0.1554	h t y d a	-0.00413902
-0.743924	h e y d o	-0.00413902
-0.198858	h e y d a	-0.00701966
-0.196962	e e y d a	-0.00413902
-0.733099	t e y d o	-0.00413902
-0.153009	o l y d a	-0.00701966
-1.22504	t o y d c	-0.00413902
-0.400973	l k o d y	-0.00413902
-0.401017	o k o d y	-0.00701966
-0.33162	o k o d a	-0.00413902
-0.400973	y k o d y	-0.00413902
-0.324356	m k o d a	-0.00413902
-0.404352	y t o d y	-0.00413902
-0.40943	c h o d y	-0.050295
-0.324228	c h o d a	-0.050295
-1.30562	s h o d </unk>
-0.324836	s h o d a	-0.00413902
-1.19029	t h o d o	-0.00413902
-0.316788	l f o d a	-0.00413902
-0.320134	k e o d a	-0.00413902
-0.406979	h e o d y	-0.00413902
-0.406979	<unk> e o d y	-0.00413902
-0.320134	e e o d a	-0.00413902
-1.2321	i n o d </unk>
-0.412552	o l o d y	-0.00413902
-0.324514	o l o d a	-0.00413902
-0.311626	l q o d a	-0.00413902
-0.311626	r q o d a	-0.00413902
-0.311626	* q o d a	-0.00413902
-0.445021	d a l d o	-0.00413902
-1.08895	o a l d </unk>
-0.439923	k a l d o	-0.00701966
-0.445021	h a l d o	-0.00413902
-0.385767	<unk> a l d a	-0.00413902
-1.15457	h o l d </unk>
-1.1898	h o l d c	-0.00701966
-0.469356	h o l d o	-0.00701966
-0.377706	h o l d a	-0.102934
-0.361231	e o l d o	-0.00701966
-0.443819	e o l d a	-0.00413902
-0.453377	k o l d o	-0.00701966
-0.384515	k o l d a	-0.00413902
-0.453972	t o l d o	-0.00413902
-0.453972	d o l d o	-0.00413902
-1.09783	i i l d y	-0.00413902
-0.126408	a i r d a	-0.00413902
-0.123743	<unk> o r d a	-0.00413902
-0.122106	h o r d a	-0.00914011
-0.123743	e o r d a	-0.00413902
-0.411475	a i i d y	-0.00701966
-0.772669	i n d d c	-0.00413902
-0.768296	h p a d y	-0.00413902
-0.34171	i n d a i	-0.00413902
-0.891333	i n d a n	-0.00413902
-0.91482	i n d a l	-0.00413902
-0.338603	a n d a i	-0.00413902
-0.885724	a n d a n	-0.00413902
-0.96384	k o d a r	-0.00413902
-0.872465	k o d a l	-0.00413902
-0.301183	e o d a i	-0.00413902
-0.872465	e o d a l	-0.00413902
-1.27555	h o d a </unk>
-0.986907	h o d a r	-0.00701966
-0.30118	h o d a i	-0.0107662
-0.892567	h o d a l	-0.00413902
-0.901569	h o d a m	-0.00413902
-1.37924	f o d a n	-0.00413902
-1.24846	q o d a </unk>
-0.970139	q o d a r	-0.00413902
-0.304209	q o d a i	-0.00413902
-0.297083	l o d a i	-0.00413902
-1.52325	d y d a o	-0.00413902
-0.874884	d y d a l	-0.00413902
-0.997221	k y d a r	-0.00413902
-0.287456	k y d a i	-0.112301
-0.900809	k y d a m	-0.00413902
-0.288997	t y d a i	-0.00413902
-0.290163	e y d a i	-0.00701966
-0.880406	e y d a l	-0.00413902
-0.287953	h y d a i	-0.00914011
-0.884671	h y d a l	-0.00413902
-0.975974	l y d a r	-0.00413902
-0.293075	l y d a i	-0.00413902
-0.845925	i r d a m	-0.00413902
-0.28696	o r d a i	-0.0107662
-0.865915	o r d a m	-0.00413902
-0.842084	<unk> m d a m	-0.00413902
-1.26787	o l d a </unk>
-0.291876	o l d a i	-0.0130962
-0.871811	o l d a m	-0.00413902
-0.849042	a l d a m	-0.00413902
-0.290272	<unk> a d a i	-0.00413902
-0.762107	y c h a r	-0.00701966
-0.58539	y c h a i	-0.00413902
-0.588352	t c h a i	-0.00413902
-0.804875	t c h a l	-0.00701966
-0.616859	t c h a m	-0.00413902
-0.604482	k c h a m	-0.00413902
-0.581542	n c h a i	-0.00413902
-0.962673	n c h a n	-0.00413902
-0.604482	<unk> c h a m	-0.00413902
-0.962673	r c h a n	-0.00413902
-0.813196	r c h a l	-0.00413902
-0.604482	m c h a m	-0.00701966
-0.69721	c f h a r	-0.00413902
-0.754754	c f h a m	-0.00413902
-0.49675	n s h a i	-0.00701966
-0.890006	r s h a n	-0.00413902
-1.42501	y s h a c	-0.00413902
-0.700367	s s h a r	-0.00413902
-0.891028	c t h a l	-0.00413902
-0.694553	h a r a m	-0.00413902
-0.776218	h o r a l	-0.00413902
-0.955065	y o r a </unk>
-0.772038	p o r a r	-0.00413902
-0.705947	l o r a m	-0.00413902
-1.24238	t e e a y	-0.00413902
-0.526291	e e e a r	-0.00413902
-0.526291	r e e a r	-0.00413902
-0.540696	c h e a r	-0.00413902
-0.584583	c h e a i	-0.00413902
-0.667261	s h e a m	-0.00413902
-0.659129	y t e a m	-0.00413902
-0.315879	o t o a i	-0.00413902
-0.31298	m k o a i	-0.00413902
-0.31298	<unk> k o a i	-0.00413902
-0.793341	h e o a r	-0.00413902
-0.670931	q o p a l	-0.00413902
-0.951646	c h p a d	-0.00413902
-1.07372	l o k a </unk>
-0.582901	l o k a l	-0.00701966
-0.344307	h o k a i	-0.00413902
-0.344307	m o k a i	-0.00413902
-0.851942	e y k a m	-0.00413902
-0.341147	s h k a i	-0.00413902
-1.01671	<unk> y t a o	-0.00413902
-0.33939	q o t a i	-0.00413902
-0.33939	r o t a i	-0.00413902
-0.342645	<unk> h t a i	-0.00413902
-0.249274	a n s a i	-0.00701966
-0.25152	i n s a i	-0.00413902
-0.250692	o l s a i	-0.00914011
-0.926288	a l s a m	-0.00413902
-0.871265	k y s a l	-0.00413902
-0.255374	q o s a i	-0.00413902
-0.153517	<unk> d a i i	-0.00413902
-0.152302	n d a i i	-0.00701966
-0.957296	o d a i r	-0.00914011
-0.157805	o d a i i	-0.00914011
-0.152821	l d a i i	-0.0120528
-1.68196	l d a i m	-0.00413902
-0.153053	y d a i i	-0.0146854
-1.04756	y d a i n	-0.0107662
-0.959662	r d a i r	-0.00701966
-0.158327	r d a i i	-0.00701966
-0.153517	a d a i i	-0.00413902
-0.142387	t o a i i	-0.00413902
-0.141274	k o a i i	-0.0771876
-0.141274	o t a i i	-0.00701966
-0.142387	h t a i i	-0.00413902
-0.153897	o k a i i	-0.00413902
-1.59677	o k a i *	-0.00413902
-1.23173	h k a i </unk>
-0.14658	c h a i i	-0.00701966
-0.968919	c h a i n	-0.00413902
-0.1432	s h a i i	-0.00701966
-0.138456	n s a i i	-0.00914011
-0.138456	l s a i i	-0.00914011
-0.140349	o s a i i	-0.00413902
-0.144288	h e a i i	-0.00413902
-1.32793	d a i i </unk>
-1.49002	d a i i r	-0.00413902
-1.56917	d a i i d	-0.00413902
-1.26293	d a i i i	-0.00413902
-0.113342	d a i i n	-0.0601791
-1.8444	d a i i l	-0.00413902
-1.73963	d a i i m	-0.00413902
-0.110203	o a i i n	-0.00914011
-0.0937031	t a i i n	-0.00914011
-0.111039	k a i i n	-0.00413902
-1.2837	h a i i </unk>
-1.50009	h a i i d	-0.00413902
-0.116017	h a i i n	-0.00701966
-0.108219	s a i i n	-0.0139594
-0.111039	<unk> a i i n	-0.00413902
-0.111039	e a i i n	-0.00413902
-0.14588	o o i i n	-0.00413902
-0.14588	d o i i n	-0.00413902
-0.146974	a i i i n	-0.00413902
-1.06935	c h o i e	-0.00413902
-0.417963	k o o i i	-0.00413902
-1.05511	o k o i s	-0.00413902
-0.417963	y d o i i	-0.00413902
-0.476308	<unk> h o * o	-0.00413902
-0.631141	k a i * q	-0.00413902
-1.23562	t h y q </unk>
-0.0521689	t h y q o	-0.00413902
-0.0486004	s h y q o	-0.00413902
-0.0443221	e e y q o	-0.0107662
-0.0447266	h e y q o	-0.00701966
-0.0457491	o d y q o	-0.00413902
-0.0457491	i d y q o	-0.00413902
-0.0605341	e e s q o	-0.00413902
-0.0562664	t h o q o	-0.00413902
-0.0562664	c h o q o	-0.00413902
-0.0499063	i i n q o	-0.00914011
-0.0505193	<unk> i n q o	-0.00413902
-0.0382789	r o l q o	-0.00413902
-0.0380144	h o l q o	-0.00701966
-0.0382789	e o l q o	-0.00413902
-0.0566452	d a m q o	-0.00413902
-0.0566452	e o m q o	-0.00413902
-0.0336785	h o r q o	-0.0120528
-0.034323	e o r q o	-0.00413902
-0.0350851	a i r q o	-0.00413902
-0.0605341	a i * q o	-0.00413902
-0.385105	o d y p o	-0.00701966
-0.485049	n y y p c	-0.00413902
-0.451702	i r c p h	-0.00413902
-0.451702	i n c p h	-0.00413902
-0.842875	<unk> q o p a	-0.00413902
-0.394745	n q o p c	-0.00413902
-0.602016	r q o p o	-0.00413902
-0.594338	o m o p o	-0.00413902
-0.388134	o l o p c	-0.00413902
-0.325188	h o m p c	-0.00413902
-0.325188	s a m p c	-0.00413902
-0.654396	y c h p a	-0.00413902
-0.307941	k o i s h	-0.00413902
-0.557403	o i e s c	-0.00413902
-0.466683	e e e s c	-0.00413902
-1.16079	e e e s q	-0.00413902
-0.462018	h e e s c	-0.00413902
-1.09075	r e e s e	-0.00413902
-1.3147	h o l s c	-0.00413902
-0.256209	h o l s h	-0.0107662
-1.25984	h o l s o	-0.00413902
-0.810775	h o l s a	-0.00413902
-1.48648	h o l s e	-0.00413902
-0.251473	k o l s h	-0.00413902
-0.255451	e o l s h	-0.00413902
-0.792782	e o l s a	-0.00413902
-0.78613	n o l s a	-0.00413902
-1.04667	s o l s s	-0.00413902
-0.251473	l o l s h	-0.00413902
-1.00988	y d l s s	-0.00413902
-0.250301	s a l s h	-0.00413902
-0.779488	d a l s a	-0.00413902
-0.246866	o r l s h	-0.00413902
-0.21651	l e k s h	-0.00413902
-0.21651	q o k s h	-0.00413902
-0.263795	d y t s h	-0.00413902
-0.263795	e y t s h	-0.00413902
-0.266088	q o t s h	-0.00413902
-0.834467	f c h s y	-0.00413902
-0.834913	k h y s </unk>
-1.00014	t h y s c	-0.00413902
-0.36956	t h y s h	-0.00413902
-0.365252	c h y s h	-0.00413902
-0.363841	t o y s h	-0.00701966
-0.89866	q o y s s	-0.00413902
-0.89866	h o y s s	-0.00413902
-0.837731	m o y s </unk>
-0.995925	o d y s c	-0.00413902
-1.0262	o d y s o	-0.00413902
-0.368771	a d y s h	-0.00413902
-0.362261	o r y s h	-0.00413902
-1.06874	y k y s a	-0.00413902
-0.821866	<unk> l y s </unk>
-0.203648	o y s s h	-0.00701966
-0.880046	d l s s </unk>
-0.210412	o l s s h	-0.00413902
-0.207039	a m s s h	-0.00413902
-0.305216	i i n s h	-0.0107662
-0.946655	i i n s o	-0.00701966
-0.656971	i i n s a	-0.00413902
-0.301163	a i n s h	-0.00701966
-0.61442	d a n s a	-0.00413902
-0.61442	h a n s a	-0.00413902
-0.819503	d a m s o	-0.00413902
-1.14197	h a m s y	-0.00413902
-1.07794	h a m s s	-0.00413902
-0.316665	h o m s h	-0.00413902
-0.316665	r o m s h	-0.00413902
-0.316665	d o m s h	-0.00413902
-0.810005	e e m s o	-0.00413902
-0.175886	d a r s h	-0.00701966
-0.177332	h a r s h	-0.00413902
-0.154563	l o r s h	-0.00413902
-0.154563	h o r s h	-0.00413902
-0.154563	* o r s h	-0.00413902
-0.179804	a i r s h	-0.00413902
-0.306455	s h o s h	-0.00914011
-0.751732	k e o s c	-0.00413902
-0.756723	r q o s c	-0.00413902
-1.05421	l q o s a	-0.00413902
-0.316805	o m o s h	-0.00413902
-0.959028	a r a m y	-0.00413902
-1.11236	o r a m k	-0.00413902
-0.877375	r d a m s	-0.00413902
-1.30583	r d a m q	-0.00413902
-0.582892	m d a m o	-0.00413902
-0.57485	l d a m o	-0.00701966
-1.02097	y d a m </unk>
-0.582892	o d a m o	-0.00413902
-1.04445	c h a m </unk>
-0.620108	c h a m c	-0.00914011
-0.87296	c h a m s	-0.00413902
-0.852775	f h a m s	-0.00413902
-1.22963	l s a m p	-0.00413902
-0.589461	y k a m o	-0.00413902
-0.959028	h e a m y	-0.00413902
-1.11236	t e a m k	-0.00413902
-0.954064	d a i m m	-0.00413902
-0.64717	a i i m c	-0.00413902
-0.665181	a i m m y	-0.00413902
-0.885118	c h o m </unk>
-0.717983	c h o m c	-0.00701966
-0.706858	c h o m o	-0.00701966
-1.4059	c h o m t	-0.00413902
-0.761303	c h o m s	-0.00413902
-1.23494	t h o m p	-0.00413902
-0.72007	a r o m s	-0.00413902
-1.00884	k e o m y	-0.00413902
-1.25002	k e o m q	-0.00413902
-0.847162	o e o m </unk>
-0.72007	l d o m s	-0.00413902
-0.686457	o l o m o	-0.00413902
-0.697593	o k o m c	-0.00413902
-0.618524	<unk> e e m s	-0.00413902
-0.482046	a r c f h	-0.00413902
-0.482046	o r c f h	-0.00413902
-0.533832	h o l f o	-0.00413902
-0.616159	o r o f c	-0.00413902
-0.504203	d a r e e	-0.00413902
-0.91823	e a r e </unk>
-0.500208	e o r e e	-0.00413902
-0.50888	e n y e e	-0.00413902
-0.331122	o l s e e	-0.00413902
-0.331122	e e s e e	-0.00413902
-1.17718	t c h e </unk>
-0.567614	t c h e y	-0.00914011
-0.575076	k c h e y	-0.00413902
-0.521616	k c h e o	-0.00413902
-0.578899	o c h e y	-0.00413902
-0.515252	o c h e o	-0.00701966
-0.516711	p c h e o	-0.00413902
-1.40559	r c h e k	-0.00413902
-0.584175	r c h e y	-0.00413902
-0.530241	r c h e o	-0.00413902
-1.08248	r c h e a	-0.00701966
-0.715131	m c h e e	-0.00413902
-0.575076	l c h e y	-0.00413902
-0.521616	l c h e o	-0.00413902
-0.581841	s c h e y	-0.00413902
-0.519154	s c h e o	-0.00701966
-0.729191	s c h e e	-0.00413902
-0.633536	y c h e y	-0.00413902
-0.4118	y c h e o	-0.00914011
-1.15656	n c h e </unk>
-0.671119	<unk> s h e y	-0.00413902
-0.671364	<unk> s h e e	-0.00413902
-1.07186	n s h e a	-0.00413902
-0.671364	n s h e e	-0.00413902
-1.36355	l s h e k	-0.00413902
-0.654212	l s h e e	-0.00914011
-0.671119	s s h e y	-0.00413902
-0.503524	s s h e o	-0.00413902
-0.498701	y s h e o	-0.00413902
-1.15688	t s h e </unk>
-0.675364	t s h e y	-0.00413902
-0.507088	t s h e o	-0.00413902
-0.498701	r s h e o	-0.00413902
-0.488696	c t h e y	-0.00701966
-1.09143	m y t e a	-0.00413902
-0.413578	m y t e e	-0.00413902
-0.879574	q o t e y	-0.00413902
-0.600148	q o t e o	-0.00413902
-0.413835	q o t e e	-0.00701966
-0.587987	r o t e o	-0.00413902
-0.324241	h o k e o	-0.00701966
-0.33165	<unk> o k e o	-0.00413902
-0.511004	<unk> o k e e	-0.00413902
-0.33165	r o k e o	-0.00413902
-0.511004	r o k e e	-0.00413902
-0.334741	q o k e o	-0.00413902
-0.504844	q o k e e	-0.00701966
-1.30293	o l k e c	-0.00413902
-0.329937	e y k e o	-0.00413902
-0.509085	o y k e e	-0.00413902
-0.32636	h e k e o	-0.00413902
-0.949795	y t e e a	-0.00413902
-0.760537	o t e e o	-0.00413902
-0.740722	o t e e e	-0.00413902
-0.384088	y k e e y	-0.00413902
-0.381186	o k e e y	-0.00914011
-0.774756	o k e e o	-0.00413902
-0.369362	s h e e y	-0.0120528
-0.384562	c h e e y	-0.00413902
-1.08518	c h e e s	-0.00413902
-0.725817	l o e e e	-0.00413902
-1.03715	o e e e s	-0.00413902
-0.398952	t e e e y	-0.00413902
-1.03715	s e e e s	-0.00413902
-0.953751	y e e e a	-0.00413902
-0.730676	l s e e e	-0.00413902
-0.393704	e s e e y	-0.00413902
-0.725817	n y e e e	-0.00413902
-1.0549	a r e e s	-0.00413902
-0.944901	o r e e a	-0.00413902
-0.7453	a l e e o	-0.00413902
-0.745816	h o i e s	-0.00413902
-0.594017	o l o e e	-0.00413902
-0.43103	m s o e o	-0.00413902
-0.43103	r q o e o	-0.00413902
-0.882884	e o l e k	-0.00413902
-0.559108	h a l e e	-0.00413902
-0.472239	l o l t c	-0.00413902
-0.930638	a m y t e	-0.00701966
-1.10468	o m y t </unk>
-0.492179	i r y t c	-0.00413902
-0.689585	o r y t o	-0.00413902
-0.689585	h e y t o	-0.00413902
-1.01784	e e y t s	-0.00413902
-0.492179	a l y t c	-0.00413902
-0.689585	o l y t o	-0.00413902
-1.011	o d y t s	-0.00413902
-0.488219	c h y t c	-0.00413902
-0.933997	h y y t y	-0.00413902
-0.0677069	e y c t h	-0.00413902
-0.0672228	h y c t h	-0.00701966
-0.0677069	t y c t h	-0.00413902
-0.0657895	o l c t h	-0.00914011
-0.0665987	o r c t h	-0.0107662
-0.0688264	a m c t h	-0.00413902
-0.0678704	i n c t h	-0.00701966
-0.0678704	c h c t h	-0.00701966
-0.0688264	m o c t h	-0.00413902
-0.612494	<unk> h e t y	-0.00413902
-1.1338	y k o t </unk>
-0.805636	y p o t o	-0.00413902
-0.791213	d y o t o	-0.00413902
-0.791213	t y o t o	-0.00413902
-0.358738	o r o t c	-0.00701966
-1.1369	o r o t a	-0.00413902
-0.362516	a r o t c	-0.00413902
-0.87124	a r o t e	-0.00413902
-1.16548	o m o t </unk>
-0.359636	o m o t c	-0.00413902
-0.351739	a m o t c	-0.00701966
-0.350945	c h o t c	-0.00701966
-0.345712	i n o t c	-0.00701966
-1.12875	o q o t a	-0.00413902
-0.374185	l q o t c	-0.00413902
-1.08501	l q o t y	-0.00413902
-0.609078	y q o t e	-0.00914011
-1.33672	y q o t s	-0.00413902
-0.369861	m q o t c	-0.00413902
-0.835716	r q o t o	-0.00413902
-0.854855	r q o t e	-0.00413902
-0.805636	n d o t o	-0.00413902
-0.590472	r s h t y	-0.00413902
-0.590472	y c h t y	-0.00413902
-0.472239	h o m t c	-0.00413902
-1.24149	i r o l q	-0.00413902
-0.679791	o r o l c	-0.00413902
-1.0897	o r o l y	-0.00413902
-0.654274	y k o l d	-0.00701966
-0.544261	o k o l c	-0.00413902
-0.841808	o k o l o	-0.00413902
-0.726303	o k o l d	-0.00413902
-0.813512	o k o l s	-0.00413902
-1.23131	l k o l k	-0.00413902
-0.764214	o t o l o	-0.00413902
-0.67005	y t o l d	-0.00413902
-0.740692	l s o l s	-0.00413902
-1.20497	n s o l </unk>
-1.0897	n s o l y	-0.00413902
-0.764214	i n o l o	-0.00413902
-0.73685	a n o l s	-0.00413902
-1.60884	o l o l t	-0.00413902
-0.743096	o l o l s	-0.00413902
-1.31533	c h o l </unk>
-1.32948	c h o l k	-0.00701966
-0.654888	c h o l c	-0.0556965
-0.763075	c h o l o	-0.0130962
-0.70806	c h o l d	-0.0130962
-0.794174	c h o l s	-0.00914011
-1.39139	c h o l q	-0.00413902
-1.30813	s h o l k	-0.00413902
-0.761081	s h o l o	-0.00413902
-0.687459	s h o l d	-0.00914011
-1.89133	s h o l f	-0.00413902
-0.759654	s h o l s	-0.00914011
-0.707618	t h o l c	-0.00413902
-1.13933	t h o l y	-0.00413902
-0.694676	t h o l d	-0.00413902
-0.769031	t h o l s	-0.00413902
-1.11385	k h o l y	-0.00413902
-1.13933	<unk> h o l y	-0.00413902
-0.694676	<unk> h o l d	-0.00413902
-0.769031	<unk> h o l s	-0.00413902
-1.32635	<unk> h o l q	-0.00413902
-1.27044	l d o l </unk>
-1.29425	l d o l k	-0.00413902
-0.663373	l d o l c	-0.0107662
-0.779003	l d o l o	-0.00701966
-0.70949	l d o l d	-0.00413902
-0.76381	<unk> d o l o	-0.00413902
-0.665817	q o o l c	-0.00413902
-0.670401	y p o l c	-0.00413902
-0.764214	o p o l o	-0.00413902
-1.27254	h e o l </unk>
-0.775871	h e o l o	-0.00701966
-0.689315	h e o l d	-0.00701966
-1.65956	h e o l e	-0.00413902
-0.773857	h e o l s	-0.00413902
-0.679898	k e o l c	-0.00701966
-0.780422	k e o l o	-0.00413902
-0.766663	k e o l s	-0.00413902
-0.68517	t e o l c	-0.00413902
-1.29232	t e o l q	-0.00413902
-0.678994	<unk> e o l d	-0.00413902
-0.765441	e e o l o	-0.00413902
-0.530257	y d a l c	-0.00413902
-1.01299	y d a l o	-0.00413902
-0.529725	y d a l d	-0.00413902
-0.521686	n d a l c	-0.00413902
-0.530257	o d a l c	-0.00413902
-0.899701	o d a l y	-0.00413902
-1.08148	o d a l s	-0.00413902
-0.506156	<unk> o a l d	-0.00413902
-0.519476	o p a l c	-0.00413902
-0.494025	o k a l d	-0.00701966
-0.529476	c h a l c	-0.00413902
-0.524372	c h a l d	-0.00413902
-1.41845	c h a l e	-0.00413902
-0.520911	t h a l c	-0.00413902
-0.865081	o r a l y	-0.00413902
-1.03708	y s a l s	-0.00413902
-0.545152	a i i l d	-0.00413902
-0.683453	d y d l s	-0.00413902
-0.683453	h o r l s	-0.00413902
-1.24251	a i i n </unk>
-1.71085	a i i n k	-0.00413902
-0.464522	a i i n c	-0.0448811
-1.15225	a i i n y	-0.00701966
-0.9796	a i i n o	-0.0107662
-0.911402	a i i n d	-0.0107662
-0.678238	a i i n s	-0.0527517
-1.34379	a i i n q	-0.00914011
-0.418143	o i i n c	-0.00701966
-0.422848	i i i n c	-0.00413902
-1.08509	d a i n y	-0.00413902
-0.671145	d a i n d	-0.00413902
-0.817868	d a i n s	-0.00413902
-0.513368	<unk> a i n c	-0.00413902
-0.663694	<unk> a i n d	-0.00413902
-0.658008	h a i n d	-0.00413902
-0.849938	n d a n o	-0.00413902
-0.610509	n d a n s	-0.00413902
-0.940685	o d a n y	-0.00413902
-0.616	s h a n d	-0.00413902
-0.621427	c h a n d	-0.00413902
-0.610509	c h a n s	-0.00413902

\6-grams:
-0.526663	h e o r k o	-0.0146254
-0.733868	a r s h k a	-0.0146254
-0.625847	a l c h k y	-0.0146254
-0.5743	a i i n k c	-0.0146254
-0.842367	c h o l k </unk>
-0.457613	c h o l k o	-0.0146254
-0.441943	s h o l k o	-0.0146254
-0.671926	l k o l k e	-0.0146254
-0.745237	l d o l k y	-0.0146254
-0.341526	o d y o k o	-0.0252506
-0.912846	h e y o k </unk>
-0.618309	l c h o k e	-0.0146254
-0.951481	y c h o k y	-0.0146254
-0.489715	y c h o k o	-0.0146254
-0.9683	y c h o k a	-0.0146254
-0.661766	y c h o k e	-0.0146254
-0.814575	k c h o k c	-0.0146254
-0.452197	n c h o k o	-0.0146254
-1.02299	h o l o k </unk>
-0.959361	h o l o k y	-0.0146254
-0.691879	h o l o k a	-0.0146254
-0.88094	e o l o k c	-0.0146254
-0.642235	e o l o k a	-0.0252506
-0.395744	h o r o k o	-0.0333216
-0.605616	a i r o k e	-0.0146254
-0.437806	d a r o k o	-0.0146254
-0.610511	e a r o k e	-0.0146254
-0.863683	k a m o k a	-0.0146254
-0.888974	o l q o k y	-0.0146254
-0.947922	h o q o k </unk>
-0.651109	i n q o k c	-0.0252506
-1.25372	i n q o k s	-0.0146254
-0.499572	e y q o k o	-0.0146254
-0.646756	e y q o k e	-0.0146254
-0.684656	d y q o k c	-0.0146254
-0.628358	h y q o k e	-0.0146254
-0.473328	o m q o k o	-0.0146254
-0.12173	d a o c k h	-0.0146254
-0.120803	k h o c k h	-0.0146254
-0.120803	s h o c k h	-0.0146254
-0.122423	k h y c k h	-0.0146254
-0.122423	e e y c k h	-0.0146254
-0.122423	h o r c k h	-0.0146254
-0.122423	e a r c k h	-0.0146254
-0.123315	n c h c k h	-0.0146254
-0.123315	s h a c k h	-0.0146254
-0.664401	l s h e k y	-0.0146254
-0.591065	r c h e k e	-0.0146254
-0.863942	e o l e k s	-0.0146254
-0.633864	<unk> h y d k </unk>
-0.490084	c t h y k o	-0.0252506
-0.70796	y c h y k y	-0.0146254
-0.633152	k c h y k c	-0.0146254
-0.506216	h e y y k o	-0.0146254
-0.506216	k e y y k o	-0.0146254
-0.618585	a m s y k c	-0.0146254
-0.522569	o l o y k o	-0.0146254
-0.711451	s h o y k e	-0.0146254
-0.696627	i i n y k y	-0.0146254
-0.902384	d a n y k </unk>
-0.714777	t h e y k e	-0.0146254
-0.968447	h e e y k a	-0.0146254
-0.63064	s e e y k c	-0.0146254
-0.618585	s h t y k c	-0.0146254
-0.423969	o r a m k o	-0.0146254
-0.423969	t e a m k o	-0.0146254
-0.0793529	h o l d c h	-0.0252506
-0.0826818	i n d d c h	-0.0146254
-0.0826818	t o y d c h	-0.0146254
-0.0893811	o l k e c h	-0.0146254
-0.112306	l d o l c h	-0.0333216
-0.779872	l d o l c t	-0.0146254
-0.178435	c h o l c h	-0.0252506
-0.550138	c h o l c t	-0.0396615
-0.111022	t h o l c h	-0.0146254
-0.105473	q o o l c h	-0.0146254
-0.105473	y p o l c h	-0.0146254
-0.105473	o k o l c h	-0.0252506
-0.120784	k e o l c h	-0.0146254
-0.748103	k e o l c t	-0.0146254
-0.107829	t e o l c h	-0.0146254
-0.105473	o r o l c h	-0.0146254
-0.0995086	y d a l c h	-0.0146254
-0.0995086	n d a l c h	-0.0146254
-0.0995086	o d a l c h	-0.0146254
-0.100806	o p a l c h	-0.0146254
-0.100056	c h a l c h	-0.0146254
-0.100056	t h a l c h	-0.0146254
-0.183359	r o r o c h	-0.0146254
-0.950573	d a m o c t	-0.0146254
-0.686015	y d a o c k	-0.0146254
-0.869883	c k h o c </unk>
-0.709153	c k h o c k	-0.0146254
-0.194685	n s h o c h	-0.0146254
-0.689566	o s h o c k	-0.0146254
-0.186539	a m s o c h	-0.0146254
-0.833294	d y s o c </unk>
-0.183359	t h y o c h	-0.0146254
-0.183359	d o t o c h	-0.0146254
-0.183359	h o l o c h	-0.0146254
-0.183359	o r q o c h	-0.0146254
-1.01973	c h a r c f	-0.0146254
-0.120073	o d a r c h	-0.0146254
-0.120073	y d a r c h	-0.0146254
-0.948781	e e a r c k	-0.0146254
-0.118168	t a o r c h	-0.0146254
-0.116176	l d o r c h	-0.0252506
-1.14459	y d o r c </unk>
-0.119488	n d o r c h	-0.0146254
-1.08443	s h o r c k	-0.0146254
-0.592531	s h o r c t	-0.0146254
-0.22456	c h o r c h	-0.0447738
-0.597768	c h o r c t	-0.0333216
-1.28229	c h o r c f	-0.0146254
-0.0758212	h e o r c h	-0.0396615
-0.118168	h y o r c h	-0.0146254
-0.118168	r k o r c h	-0.0146254
-0.117696	s c h r c h	-0.0146254
-0.743155	y s h a c k	-0.0146254
-0.0957783	o r o f c h	-0.0146254
-0.934745	i n c h c k	-0.0146254
-0.533954	i n c h c t	-0.0146254
-0.221227	m o s h c h	-0.0146254
-0.0779731	c h a m c h	-0.0252506
-0.997346	c h a m c t	-0.0146254
-0.0638408	o k o m c h	-0.0146254
-0.0617402	c h o m c h	-0.0252506
-0.0646158	a i i m c h	-0.0146254
-1.31263	a i i n c </unk>
-0.107978	a i i n c h	-0.05551
-1.00839	a i i n c t	-0.0252506
-1.44127	a i i n c p	-0.0146254
-0.0961154	o i i n c h	-0.0252506
-0.098788	i i i n c h	-0.0146254
-0.102168	<unk> a i n c h	-0.0146254
-0.0702818	n y y p c h	-0.0146254
-0.0694332	n q o p c h	-0.0146254
-0.0694332	o l o p c h	-0.0146254
-0.0698043	h o m p c h	-0.0146254
-0.0698043	s a m p c h	-0.0146254
-0.0603076	i i n k c h	-0.0146254
-0.0593363	h t y k c h	-0.0146254
-0.0593363	e e y k c h	-0.0146254
-0.0593363	m s y k c h	-0.0146254
-0.0593363	c h y k c h	-0.0146254
-0.0616494	c h o k c h	-0.0146254
-1.09925	n q o k c </unk>
-0.0769906	n q o k c h	-0.0146254
-0.0642584	y q o k c h	-0.0146254
-0.0616494	o l o k c h	-0.0146254
-0.0603076	<unk> o r k c h	-0.0146254
-0.0534626	l o l t c h	-0.0146254
-0.0511062	o r o t c h	-0.0252506
-0.0524515	a r o t c h	-0.0146254
-1.16412	a m o t c </unk>
-0.0684445	a m o t c h	-0.0146254
-0.0557533	o m o t c h	-0.0146254
-0.0513717	c h o t c h	-0.0252506
-0.0513717	i n o t c h	-0.0333216
-0.0527245	l q o t c h	-0.0146254
-0.0527245	m q o t c h	-0.0146254
-0.0524273	a l y t c h	-0.0146254
-0.0524273	i r y t c h	-0.0146254
-0.0524273	c h y t c h	-0.0146254
-0.0534626	h o m t c h	-0.0146254
-0.106897	i i d y c h	-0.0146254
-0.106097	h o d y c h	-0.0146254
-0.106097	e o d y c h	-0.0146254
-0.108264	i i n y c h	-0.0146254
-0.108264	t h y y c h	-0.0146254
-0.108264	c h s y c h	-0.0146254
-0.998603	h o l y c </unk>
-0.109508	d a l y c h	-0.0146254
-0.109508	<unk> a l y c h	-0.0146254
-0.108264	c h r y c h	-0.0146254
-0.108264	i m m y c h	-0.0146254
-0.0904746	c h e y c h	-0.0396615
-1.14401	h e e y c k	-0.0146254
-0.862224	h e e y c t	-0.0146254
-0.114937	k e e y c h	-0.0146254
-0.114937	e e e y c h	-0.0146254
-0.108264	e e a y c h	-0.0146254
-1.09504	c k h y c k	-0.0146254
-0.819934	c t h y c t	-0.0146254
-0.111092	o s h y c h	-0.0146254
-0.111092	l s h y c h	-0.0146254
-1.11955	l c h y c </unk>
-0.119043	l c h y c h	-0.0333216
-0.113996	e c h y c h	-0.0146254
-0.841221	d c h y c t	-0.0146254
-0.113996	t c h y c h	-0.0146254
-0.106689	h o k y c h	-0.0146254
-0.106689	q o k y c h	-0.0146254
-0.110337	h e t y c h	-0.0146254
-0.815438	y y t y c t	-0.0146254
-0.0551961	o i e s c h	-0.0146254
-0.0548072	h e e s c h	-0.0146254
-0.0548072	e e e s c h	-0.0146254
-0.0554861	o d y s c h	-0.0146254
-0.0554861	t h y s c h	-0.0146254
-0.0554861	k e o s c h	-0.0146254
-0.0554861	r q o s c h	-0.0146254
-0.0558593	h o l s c h	-0.0146254
-0.914511	o l d c h y	-0.0146254
-0.24218	o l d c h o	-0.0146254
-0.224758	n d d c h o	-0.0146254
-0.224758	o y d c h o	-0.0146254
-0.87589	l k e c h y	-0.0146254
-0.231587	d o l c h o	-0.0252506
-0.765588	d o l c h e	-0.0146254
-0.226055	o o l c h o	-0.0146254
-0.226055	p o l c h o	-0.0146254
-0.213735	h o l c h o	-0.0333216
-0.921604	k o l c h y	-0.0146254
-0.239742	k o l c h o	-0.0146254
-0.921604	e o l c h y	-0.0146254
-0.239742	e o l c h o	-0.0146254
-0.226055	<unk> o l c h o	-0.0146254
-0.729277	r o l c h e	-0.0146254
-0.841907	d a l c h y	-0.0252506
-0.259352	d a l c h o	-0.0146254
-0.235088	p a l c h o	-0.0146254
-1.13819	h a l c h </unk>
-1.40176	h a l c h k	-0.0146254
-0.220192	d a r c h o	-0.0252506
-0.703481	<unk> a r c h e	-0.0146254
-0.246657	a o r c h o	-0.0146254
-0.25156	d o r c h o	-0.0252506
-0.762245	d o r c h e	-0.0146254
-0.228442	e o r c h o	-0.0447738
-1.23678	h o r c h </unk>
-0.286191	h o r c h o	-0.0146254
-0.825456	h o r c h a	-0.0252506
-0.78516	h o r c h e	-0.0146254
-0.726066	y o r c h e	-0.0146254
-0.246657	k o r c h o	-0.0146254
-0.246657	<unk> o r c h o	-0.0146254
-0.694169	c h r c h e	-0.0146254
-0.225144	o s h c h o	-0.0146254
-1.2649	r o f c h s	-0.0146254
-0.244328	h a m c h o	-0.0146254
-0.930011	h a m c h a	-0.0146254
-0.244328	<unk> a m c h o	-0.0146254
-0.930011	<unk> a m c h a	-0.0146254
-0.227941	k o m c h o	-0.0146254
-0.241641	h o m c h o	-0.0146254
-0.735578	h o m c h e	-0.0146254
-0.226431	i i m c h o	-0.0146254
-1.30884	i i n c h c	-0.0252506
-0.251756	i i n c h o	-0.0525114
-0.924966	i i n c h a	-0.0146254
-0.850989	i i n c h e	-0.0146254
-1.12087	a i n c h </unk>
-0.225733	y y p c h o	-0.0146254
-0.222357	<unk> o p c h o	-0.0146254
-0.222357	q o p c h o	-0.0146254
-0.222357	l o p c h o	-0.0146254
-0.708535	o m p c h e	-0.0146254
-1.06767	a m p c h </unk>
-0.89103	o r o c h y	-0.0146254
-0.688843	m s o c h e	-0.0146254
-0.229342	h y o c h o	-0.0146254
-0.229342	o t o c h o	-0.0146254
-0.229342	s h o c h o	-0.0146254
-0.688843	o l o c h e	-0.0146254
-0.688843	r q o c h e	-0.0146254
-0.230775	i n k c h o	-0.0146254
-0.234929	t y k c h o	-0.0146254
-0.71433	e y k c h e	-0.0146254
-0.899213	s y k c h y	-0.0146254
-0.234929	h y k c h o	-0.0146254
-0.899213	h o k c h y	-0.0146254
-0.248679	q o k c h o	-0.0146254
-0.734449	q o k c h e	-0.0146254
-0.234929	l o k c h o	-0.0146254
-0.927628	o r k c h a	-0.0146254
-0.699888	o l t c h e	-0.0146254
-1.15331	r o t c h </unk>
-0.264896	r o t c h o	-0.0146254
-0.967439	r o t c h a	-0.0146254
-0.232862	m o t c h o	-0.0252506
-0.675583	h o t c h e	-0.0146254
-0.970952	n o t c h y	-0.0146254
-0.264896	n o t c h o	-0.0146254
-0.967439	n o t c h a	-0.0146254
-0.240561	<unk> o t c h o	-0.0146254
-0.254352	q o t c h o	-0.0146254
-0.947041	q o t c h a	-0.0146254
-0.929811	l y t c h a	-0.0146254
-1.08209	<unk> y t c h </unk>
-0.734887	<unk> y t c h e	-0.0146254
-0.912126	r y t c h y	-0.0146254
-1.05061	h y t c h </unk>
-0.234691	o m t c h o	-0.0146254
-0.222662	i d y c h o	-0.0146254
-0.215688	o d y c h o	-0.0252506
-0.925065	i n y c h a	-0.0146254
-1.12082	a l y c h </unk>
-0.243478	a l y c h o	-0.0146254
-0.705874	h y y c h e	-0.0146254
-0.226045	h s y c h o	-0.0146254
-0.226045	h r y c h o	-0.0146254
-0.705874	m m y c h e	-0.0146254
-0.245969	h e y c h o	-0.0252506
-1.01269	h e y c h a	-0.0146254
-0.76	h e y c h e	-0.0146254
-0.244228	e e y c h o	-0.0146254
-0.732056	e e y c h e	-0.0146254
-0.925065	e a y c h a	-0.0146254
-0.218701	s h y c h o	-0.0252506
-0.23465	c h y c h o	-0.0333216
-1.5124	c h y c h t	-0.0146254
-1.55102	c h y c h p	-0.0146254
-0.217058	o k y c h o	-0.0252506
-0.910425	e t y c h y	-0.0146254
-0.229765	<unk> t y c h o	-0.0146254
