[unifb]
-0.568441

\data\
ngram 1=20
ngram 2=176
ngram 3=562
ngram 4=992
ngram 5=1329
ngram 6=1507
ngram 7=1574
ngram 8=1559
ngram 9=1510
ngram 10=1452

\1-grams:
-0.989631	</unk>
-1.34348	k	-0.540973
-0.862214	c	-1.1582
-1.53885	h	-0.921298
-1.53885	r	-0.645277
-1.06745	y	-0.79971
-0.88009	o	-0.811891
-1.43746	d	-0.821571
-1.20072	a	-0.834867
-1.62772	i	-0.697378
-1.74406	n	-0.427491
-1.49211	l	-0.71726
-1.50888	t	-0.460516
-1.34348	e	-0.733574
-1.79692	f	-0.132862
-1.6508	m	-0.353554
-1.11258	s	-0.686659
-1.62772	p	-0.301791
-1.63466	q	-0.716106
-1.82598	*	-0.0540543

\2-grams:
-1.15331	<unk> k	-0.295167
-1.21691	<unk> c	-0.273733
-0.953571	<unk> h	-0.41494
-1.31643	<unk> r	-0.248705
-1.09918	<unk> y	-0.313632
-0.646478	<unk> o	-0.535484
-1.66497	<unk> d	-0.137236
-1.34892	<unk> a	-0.245375
-1.69586	<unk> i	-0.137236
-1.52919	<unk> n	-0.182496
-1.04142	<unk> l	-0.343958
-1.38605	<unk> t	-0.218817
-1.36899	<unk> e	-0.218817
-2.00238	<unk> m	-0.0788997
-1.26931	<unk> s	-0.273733
-1.52058	<unk> q	-0.182496
-1.21415	k </unk>
-0.839201	k c	-0.404294
-1.47578	k h	-0.371429
-0.734498	k y	-0.394601
-0.648319	k o	-0.584598
-1.05092	k a	-0.313632
-0.839504	k e	-0.403703
-1.15667	k s	-0.218817
-1.3057	c </unk>
-1.2931	c k	-0.497409
-0.121422	c h	-0.887199
-1.03602	c t	-0.625575
-2.22061	c f	-0.137236
-1.86596	c p	-0.167497
-1.08631	h </unk>
-1.77737	h k	-0.137236
-1.46564	h c	-0.218817
-1.80529	h r	-0.137236
-0.91801	h y	-0.492476
-0.344164	h o	-0.934936
-0.994478	h a	-0.480941
-1.80168	h t	-0.137236
-0.891696	h e	-0.665979
-1.96908	h s	-0.0788997
-2.13402	h p	-0.0788997
-1.62038	r </unk>
-1.35257	r k	-0.182496
-0.474735	r c	-0.542805
-1.15965	r y	-0.29745
-0.70602	r o	-0.472715
-1.10201	r d	-0.29745
-1.29471	r a	-0.248705
-1.35257	r e	-0.182496
-1.01972	r s	-0.29745
-1.52072	r q	-0.273786
-1.25866	y </unk>
-0.923369	y k	-0.427946
-0.537864	y c	-0.625941
-1.43644	y y	-0.218817
-1.27658	y o	-0.313632
-0.867183	y d	-0.52213
-1.02379	y t	-0.500933
-2.00368	y e	-0.0788997
-0.989838	y s	-0.411467
-1.59583	y p	-0.182496
-1.24104	y q	-0.363386
-1.29003	o </unk>
-0.941392	o k	-0.647235
-1.17389	o c	-0.47669
-0.862494	o r	-0.660919
-1.34946	o y	-0.35741
-1.76324	o o	-0.137236
-0.964746	o d	-0.681613
-1.54595	o a	-0.29745
-1.66341	o i	-0.218817
-0.766766	o l	-0.735304
-1.00692	o t	-0.583359
-1.74736	o e	-0.182496
-2.29474	o f	-0.0788997
-1.44026	o m	-0.450907
-1.39594	o s	-0.35741
-1.69293	o p	-0.273786
-1.96053	o q	-0.137236
-2.30107	o *	-0.0788997
-1.09255	d </unk>
-1.30291	d c	-0.218817
-0.859361	d y	-0.523894
-0.926861	d o	-0.518367
-1.87498	d d	-0.0788997
-0.25923	d a	-0.674639
-1.88747	d l	-0.0788997
-1.23065	a </unk>
-1.72705	a c	-0.0788997
-0.902903	a r	-0.445807
-1.596	a y	-0.137236
-1.58225	a o	-0.137236
-1.6684	a d	-0.137236
-0.434169	a i	-0.847833
-1.22211	a n	-0.273786
-0.825156	a l	-0.456236
-0.933023	a m	-0.485869
-1.12107	i </unk>
-1.14274	i r	-0.317608
-1.50534	i d	-0.167497
-0.625713	i i	-0.665979
-0.376893	i n	-0.763402
-1.76337	i l	-0.0788997
-1.46255	i m	-0.137236
-1.6481	i s	-0.0788997
-1.8173	i *	-0.0788997
-0.635339	* o	-0.0788997
-0.817078	* q	-0.0788997
-1.04132	q </unk>
-0.0934431	q o	-0.608854
-1.10988	p </unk>
-0.423418	p c	-0.273786
-1.26753	p h	-0.137236
-0.715092	p o	-0.182496
-0.900066	p a	-0.137236
-1.36357	s </unk>
-0.913359	s c	-0.371429
-0.298422	s h	-0.678991
-1.54661	s y	-0.137236
-1.11861	s o	-0.273786
-1.03903	s a	-0.417533
-1.83939	s e	-0.0788997
-1.19877	s s	-0.273733
-1.59891	s q	-0.137236
-0.881994	m </unk>
-1.47656	m k	-0.137236
-0.998099	m c	-0.393869
-1.01593	m y	-0.210786
-0.681788	m o	-0.343958
-1.50462	m d	-0.0788997
-1.52321	m t	-0.0788997
-1.55388	m m	-0.0788997
-0.806621	m s	-0.295167
-1.22865	m p	-0.137236
-1.2293	m q	-0.137236
-0.752012	f c	-0.0788997
-0.601755	f h	-0.167497
-0.759805	f o	-0.0788997
-1.18798	e </unk>
-1.58973	e k	-0.137236
-1.64959	e c	-0.0788997
-0.722815	e y	-0.554535
-0.563421	e o	-0.569432
-1.21452	e a	-0.341272
-1.96762	e n	-0.0788997
-1.91947	e t	-0.0788997
-0.571708	e e	-0.556412
-1.95097	e m	-0.0788997
-1.42206	e s	-0.218817
-0.996898	t </unk>
-0.585453	t c	-0.621398
-0.755704	t h	-0.496818
-0.966618	t y	-0.29745
-0.956723	t o	-0.273786
-1.18229	t a	-0.248705
-1.0438	t e	-0.35741
-1.52139	t s	-0.137236
-1.26285	l </unk>
-1.44291	l k	-0.273786
-0.723442	l c	-0.536925
-1.18279	l y	-0.313632
-1.05039	l o	-0.387224
-0.551524	l d	-0.631309
-1.80304	l a	-0.0788997
-1.57342	l e	-0.210786
-1.95951	l f	-0.0788997
-0.737668	l s	-0.480941
-1.61152	l q	-0.300291
-1.30561	n </unk>
-1.43386	n k	-0.0788997
-0.831991	n c	-0.547038
-0.925571	n y	-0.248705
-0.781457	n o	-0.29745
-0.840787	n d	-0.329752
-0.645441	n s	-0.427503
-1.49602	n q	-0.273733

\3-grams:
-1.09954	<unk> k </unk>
-0.840524	<unk> k c	-0.0301019
-0.683688	<unk> k y	-0.0523324
-0.995267	<unk> k a	-0.0301019
-0.84076	<unk> k e	-0.0301019
-1.06444	<unk> k s	-0.0301019
-0.694482	n k c	-0.0301019
-1.07875	l k </unk>
-0.665893	l k y	-0.0523324
-0.606041	l k o	-0.0523324
-0.825779	l k e	-0.0301019
-1.44733	o k </unk>
-0.87221	o k c	-0.0940824
-0.968383	o k y	-0.0694425
-0.480413	o k o	-0.136616
-0.862502	o k a	-0.0940824
-0.743221	o k e	-0.123319
-1.40508	o k s	-0.0301019
-0.232559	c k h	-0.154214
-0.732728	e k e	-0.0301019
-0.926054	e k s	-0.0301019
-0.768716	y k c	-0.0830284
-0.801582	y k y	-0.0523324
-0.515003	y k o	-0.103255
-1.11425	y k a	-0.0301019
-0.878845	y k e	-0.0523324
-1.1913	y k s	-0.0301019
-0.762788	r k c	-0.0301019
-0.685472	r k y	-0.0301019
-0.618367	r k o	-0.0301019
-0.504803	m k o	-0.0523324
-0.65732	h k y	-0.0301019
-0.867738	h k a	-0.0301019
-1.11567	<unk> c k	-0.0301019
-0.107542	<unk> c h	-0.0830284
-1.40097	l c </unk>
-0.141827	l c h	-0.207801
-0.733686	l c t	-0.137275
-0.0977028	d c h	-0.0830284
-0.0927455	p c h	-0.103255
-0.678426	o c k	-0.123374
-0.177768	o c h	-0.150863
-1.15062	o c t	-0.0301019
-1.40691	r c k	-0.0301019
-0.102013	r c h	-0.191756
-1.21054	r c t	-0.0940824
-1.34268	r c f	-0.0523324
-1.72451	r c p	-0.0301019
-0.941283	a c k	-0.0301019
-0.946469	f c </unk>
-1.06771	h c k	-0.0301019
-0.175205	h c h	-0.0301019
-0.787725	h c t	-0.0523324
-1.23778	m c </unk>
-0.084719	m c h	-0.117601
-0.946469	e c </unk>
-1.39501	n c </unk>
-0.0878822	n c h	-0.136616
-1.11221	n c t	-0.0523324
-1.63732	n c p	-0.0301019
-0.938419	k c </unk>
-0.120595	k c h	-0.123319
-0.0455223	t c h	-0.190046
-1.38742	y c k	-0.0523324
-0.0828675	y c h	-0.18202
-1.06452	y c t	-0.0940824
-1.22093	s c </unk>
-0.0907162	s c h	-0.117601
-1.31303	c h </unk>
-2.14537	c h k	-0.0301019
-1.76908	c h c	-0.0694425
-2.02975	c h r	-0.0523324
-1.05662	c h y	-0.136616
-0.266342	c h o	-0.238441
-1.03524	c h a	-0.232053
-2.16112	c h t	-0.0301019
-0.750079	c h e	-0.206303
-2.34357	c h p	-0.0301019
-0.538758	f h a	-0.0523324
-0.509191	k h y	-0.0940824
-0.3885	k h o	-0.0940824
-1.10759	t h </unk>
-0.463627	t h y	-0.154214
-0.454306	t h o	-0.0940824
-1.1356	t h a	-0.0301019
-1.05306	t h e	-0.0301019
-1.26266	s h </unk>
-1.86225	s h k	-0.0301019
-1.67549	s h c	-0.0301019
-1.0193	s h y	-0.0940824
-0.370298	s h o	-0.20758
-1.15834	s h a	-0.0940824
-1.87452	s h t	-0.0301019
-0.54438	s h e	-0.188354
-1.00742	<unk> h y	-0.0301019
-0.228258	<unk> h o	-0.147012
-0.987372	<unk> h e	-0.0301019
-1.51501	<unk> h s	-0.0301019
-0.288315	p h o	-0.0523324
-0.451141	h r c	-0.0301019
-0.927603	h r y	-0.0301019
-1.34439	a r k	-0.0301019
-0.548273	a r c	-0.0830284
-1.21239	a r y	-0.0301019
-0.594779	a r o	-0.103255
-1.30676	a r a	-0.0301019
-1.2093	a r e	-0.0523324
-0.856402	a r s	-0.0694425
-1.14051	o r </unk>
-1.47888	o r k	-0.0523324
-0.384343	o r c	-0.173192
-1.42827	o r y	-0.0694425
-0.75516	o r o	-0.117601
-1.25742	o r d	-0.0830284
-1.13883	o r a	-0.0830284
-1.57887	o r e	-0.0301019
-1.20384	o r s	-0.113924
-1.41539	o r q	-0.0940824
-0.562865	i r c	-0.0301019
-1.08574	i r y	-0.0301019
-0.584321	i r o	-0.0523324
-1.04982	i r d	-0.0301019
-0.995503	i r s	-0.0301019
-1.26816	i r q	-0.0301019
-0.412567	<unk> r c	-0.0694425
-0.704638	<unk> r o	-0.0301019
-0.988762	<unk> r d	-0.0301019
-0.847584	y y k	-0.0523324
-0.548375	y y c	-0.0301019
-0.914712	y y t	-0.0301019
-1.19076	y y p	-0.0301019
-1.22112	k y </unk>
-0.581777	k y c	-0.0694425
-0.503995	k y d	-0.103255
-1.0405	k y s	-0.0301019
-1.17918	o y </unk>
-0.858908	o y k	-0.0523324
-0.922067	o y d	-0.0301019
-0.543087	o y s	-0.0830284
-0.586219	d y c	-0.0830284
-1.03146	d y o	-0.0694425
-0.738035	d y d	-0.0694425
-0.944034	d y t	-0.0523324
-0.92968	d y s	-0.0523324
-1.51273	d y p	-0.0301019
-1.08169	d y q	-0.0694425
-0.789104	s y k	-0.0301019
-0.503506	s y c	-0.0301019
-0.565098	m y c	-0.0301019
-0.594647	m y t	-0.0523324
-0.608098	r y c	-0.0301019
-1.13178	r y o	-0.0301019
-0.701256	r y t	-0.0523324
-0.838155	r y s	-0.0523324
-0.912807	t y k	-0.0301019
-0.424252	t y c	-0.0694425
-1.13178	t y o	-0.0301019
-0.872099	t y d	-0.0301019
-1.14448	l y </unk>
-0.918472	l y k	-0.0301019
-0.508596	l y c	-0.0694425
-0.788156	l y d	-0.0523324
-0.991978	l y t	-0.0301019
-1.2759	e y </unk>
-0.924475	e y k	-0.0694425
-0.591375	e y c	-0.110989
-1.19449	e y y	-0.101895
-1.40194	e y o	-0.0301019
-0.763334	e y d	-0.0940824
-1.02675	e y t	-0.0523324
-0.922265	e y q	-0.0830284
-0.508596	<unk> y c	-0.0694425
-0.881019	<unk> y t	-0.0523324
-0.862048	<unk> y s	-0.0523324
-1.30983	<unk> y p	-0.0301019
-0.759523	n y k	-0.0523324
-0.564905	n y c	-0.0301019
-1.16474	n y y	-0.0301019
-1.32846	n y e	-0.0301019
-0.503506	a y c	-0.0301019
-0.851757	a y t	-0.0301019
-1.34248	h y </unk>
-0.931584	h y k	-0.123374
-0.51651	h y c	-0.123319
-1.3586	h y y	-0.0523324
-1.26591	h y o	-0.0523324
-0.809805	h y d	-0.0940824
-1.09188	h y t	-0.0523324
-0.973741	h y s	-0.0830284
-1.24339	h y q	-0.0694425
-0.57947	e o r	-0.123319
-1.05259	e o d	-0.0694425
-1.59169	e o a	-0.0301019
-0.594631	e o l	-0.166031
-1.15185	e o m	-0.0694425
-1.3697	e o s	-0.0523324
-1.66879	e o p	-0.0301019
-1.34864	d o </unk>
-0.605737	d o r	-0.0830284
-1.47118	d o a	-0.0301019
-1.51513	d o i	-0.0301019
-0.497449	d o l	-0.17856
-1.17039	d o t	-0.0301019
-1.42512	d o m	-0.0301019
-0.934941	a o c	-0.0301019
-0.748535	a o r	-0.0301019
-1.00691	y o </unk>
-0.833855	y o k	-0.0694425
-1.09279	y o c	-0.0301019
-0.871786	y o r	-0.0301019
-0.795448	y o l	-0.0301019
-0.979952	y o t	-0.0301019
-0.946402	k o r	-0.0523324
-1.66805	k o o	-0.0301019
-0.752826	k o d	-0.103255
-1.20118	k o a	-0.0523324
-1.62832	k o i	-0.0301019
-0.472128	k o l	-0.123319
-1.22963	k o t	-0.0301019
-1.51911	k o m	-0.0301019
-1.32305	r o </unk>
-0.673473	r o k	-0.0940824
-0.937358	r o r	-0.0523324
-0.815996	r o l	-0.0694425
-0.73198	r o t	-0.171342
-1.69317	r o f	-0.0301019
-1.41249	r o m	-0.0301019
-1.24456	l o </unk>
-0.912114	l o k	-0.0940824
-1.16591	l o c	-0.0301019
-0.857535	l o r	-0.0523324
-1.28211	l o y	-0.0301019
-0.927672	l o d	-0.0523324
-0.787385	l o l	-0.0830284
-1.48237	l o e	-0.0301019
-1.33574	l o m	-0.0301019
-1.46029	l o p	-0.0301019
-0.854085	<unk> o k	-0.0830284
-1.30736	<unk> o c	-0.0301019
-0.998888	<unk> o r	-0.0523324
-0.910961	<unk> o d	-0.0694425
-1.53773	<unk> o a	-0.0301019
-0.548717	<unk> o l	-0.110989
-0.930058	<unk> o t	-0.0694425
-1.70364	<unk> o q	-0.0301019
-0.709916	* o r	-0.0301019
-0.955648	m o k	-0.0301019
-0.995566	m o c	-0.0523324
-1.23015	m o y	-0.0301019
-0.823956	m o t	-0.0694425
-1.09116	m o s	-0.0523324
-1.3907	m o p	-0.0301019
-0.774282	f o d	-0.0301019
-1.21283	h o </unk>
-1.21817	h o k	-0.110989
-1.50816	h o c	-0.0830284
-0.690121	h o r	-0.206186
-1.76588	h o y	-0.0523324
-0.850922	h o d	-0.170695
-1.99815	h o a	-0.0301019
-2.07501	h o i	-0.0301019
-0.486501	h o l	-0.183572
-1.52116	h o t	-0.0523324
-1.14582	h o m	-0.123319
-1.89013	h o s	-0.0523324
-2.23545	h o q	-0.0301019
-2.35884	h o *	-0.0301019
-1.11917	o o i	-0.0301019
-0.681035	o o l	-0.0301019
-1.0317	p o </unk>
-0.709815	p o l	-0.0301019
-0.875718	p o t	-0.0301019
-1.46538	q o </unk>
-0.627922	q o k	-0.180274
-1.38158	q o c	-0.0301019
-1.50576	q o y	-0.0301019
-1.73352	q o o	-0.0301019
-1.08778	q o d	-0.0694425
-0.641842	q o t	-0.154214
-1.72657	q o e	-0.0301019
-1.40255	q o s	-0.0523324
-1.11854	q o p	-0.0694425
-1.05505	t o c	-0.0301019
-0.850593	t o y	-0.0694425
-0.687349	t o l	-0.0523324
-0.908821	s o c	-0.0523324
-0.61854	s o l	-0.0694425
-1.30652	s o e	-0.0301019
-0.925553	n o k	-0.0301019
-0.941836	n o d	-0.0301019
-0.594034	n o l	-0.0523324
-0.846854	n o t	-0.0694425
-1.1272	o d </unk>
-0.574712	o d y	-0.208912
-1.18955	o d o	-0.0523324
-0.259095	o d a	-0.170695
-1.14459	y d </unk>
-1.38696	y d c	-0.0301019
-1.03423	y d o	-0.0523324
-0.173573	y d a	-0.148657
-1.68455	y d l	-0.0301019
-0.891451	<unk> d </unk>
-0.263777	<unk> d a	-0.0301019
-0.841574	n d o	-0.0523324
-1.4259	n d d	-0.0301019
-0.23715	n d a	-0.103255
-1.33894	l d </unk>
-1.18291	l d c	-0.0523324
-1.15662	l d y	-0.0301019
-0.434029	l d o	-0.210601
-0.371825	l d a	-0.159757
-0.172418	r d a	-0.137275
-0.236111	m d a	-0.0301019
-0.496944	i d y	-0.0523324
-0.945328	d d c	-0.0301019
-0.746397	a d y	-0.0301019
-0.263777	a d a	-0.0301019
-0.386889	l a i	-0.0301019
-1.12042	p a d	-0.0301019
-0.722731	p a l	-0.0301019
-1.10718	o a </unk>
-0.898148	o a r	-0.0301019
-0.470064	o a i	-0.0523324
-0.621652	o a l	-0.0523324
-1.42682	d a </unk>
-0.958378	d a r	-0.110989
-1.76168	d a o	-0.0301019
-0.276889	d a i	-0.174982
-1.35766	d a n	-0.0694425
-0.940272	d a l	-0.0940824
-0.97297	d a m	-0.110989
-1.29515	h a </unk>
-1.56978	h a c	-0.0301019
-0.861988	h a r	-0.0830284
-0.47528	h a i	-0.0830284
-1.17274	h a n	-0.0523324
-0.818304	h a l	-0.0830284
-0.769838	h a m	-0.253818
-0.854955	r a r	-0.0301019
-1.05929	r a n	-0.0301019
-0.797533	r a l	-0.0301019
-0.764827	r a m	-0.0523324
-0.539912	e a r	-0.0830284
-1.30892	e a y	-0.0301019
-0.557086	e a i	-0.0301019
-0.847303	e a m	-0.0523324
-0.318058	<unk> a i	-0.0694425
-0.806636	<unk> a l	-0.0301019
-1.12783	k a </unk>
-0.902948	k a r	-0.0301019
-1.30989	k a y	-0.0301019
-1.33705	k a d	-0.0301019
-0.468525	k a i	-0.0523324
-0.842419	k a l	-0.0301019
-0.925734	k a m	-0.0301019
-1.22167	t a o	-0.0301019
-0.383865	t a i	-0.0694425
-0.797533	t a l	-0.0301019
-0.231923	s a i	-0.110989
-0.949294	s a l	-0.0301019
-1.02822	s a m	-0.0301019
-1.57574	a i </unk>
-1.07802	a i r	-0.103255
-0.191385	a i i	-0.214616
-0.74241	a i n	-0.117601
-1.81697	a i m	-0.0301019
-2.00197	a i *	-0.0301019
-1.31976	i i </unk>
-1.41638	i i r	-0.0301019
-1.53514	i i d	-0.0523324
-0.967502	i i i	-0.0301019
-0.160197	i i n	-0.229004
-1.81624	i i l	-0.0301019
-1.6473	i i m	-0.0301019
-0.574085	<unk> i i	-0.0301019
-0.367583	<unk> i n	-0.0301019
-0.974667	o i </unk>
-0.548892	o i i	-0.0523324
-1.20707	o i s	-0.0301019
-0.548188	o * o	-0.0301019
-0.679566	i * q	-0.0301019
-1.04901	y q </unk>
-0.076397	y q o	-0.123319
-0.081766	s q o	-0.0523324
-0.862131	o q </unk>
-0.112593	o q o	-0.0301019
-0.0671104	n q o	-0.0830284
-0.0783041	<unk> q o	-0.113924
-0.0607193	l q o	-0.0940824
-0.081766	m q o	-0.0523324
-0.970816	r q </unk>
-0.090386	r q o	-0.0940824
-0.0865171	* q o	-0.0301019
-0.430947	y p c	-0.0301019
-0.580462	y p o	-0.0523324
-0.598868	c p h	-0.0523324
-1.01555	o p </unk>
-0.394488	o p c	-0.0694425
-0.727693	o p o	-0.0301019
-0.871261	o p a	-0.0301019
-0.348809	m p c	-0.0523324
-0.734218	h p a	-0.0301019
-0.853159	o s c	-0.0523324
-0.258107	o s h	-0.0830284
-1.04458	o s a	-0.0301019
-1.33399	o s q	-0.0301019
-1.10092	e s </unk>
-0.726204	e s c	-0.0523324
-1.19176	e s q	-0.0301019
-1.38208	l s </unk>
-1.05446	l s c	-0.0301019
-0.28357	l s h	-0.123319
-1.21506	l s o	-0.0301019
-0.841395	l s a	-0.0830284
-1.6127	l s e	-0.0301019
-1.16022	l s s	-0.0523324
-1.02934	h s y	-0.0301019
-0.252254	t s h	-0.0301019
-1.10092	k s </unk>
-0.262814	k s h	-0.0694425
-0.270599	i s h	-0.0301019
-0.852569	y s c	-0.0694425
-0.262286	y s h	-0.117601
-1.14896	y s o	-0.0301019
-1.08934	y s a	-0.0301019
-1.20611	y s s	-0.0301019
-0.198993	s s h	-0.0940824
-0.313164	m s h	-0.0694425
-1.26587	m s y	-0.0301019
-0.908781	m s o	-0.0523324
-1.09032	m s s	-0.0301019
-0.195385	r s h	-0.110989
-0.243829	n s h	-0.147012
-1.16053	n s o	-0.0523324
-0.764226	n s a	-0.0694425
-0.888583	<unk> s c	-0.0301019
-0.256089	<unk> s h	-0.0694425
-1.06675	<unk> s s	-0.0301019
-0.960993	a m </unk>
-1.06876	a m k	-0.0523324
-1.13008	a m c	-0.0940824
-1.14348	a m y	-0.0301019
-0.459959	a m o	-0.103255
-0.909164	a m s	-0.0694425
-1.292	a m p	-0.0301019
-1.29242	a m q	-0.0301019
-0.836248	i m c	-0.0301019
-1.08872	i m m	-0.0301019
-0.804354	m m y	-0.0301019
-0.93031	o m </unk>
-0.750779	o m c	-0.0694425
-1.10931	o m y	-0.0301019
-0.737405	o m o	-0.0694425
-1.4263	o m d	-0.0301019
-1.43581	o m t	-0.0301019
-0.741313	o m s	-0.0694425
-1.26237	o m p	-0.0301019
-1.2628	o m q	-0.0301019
-0.67243	e m s	-0.0301019
-0.583189	<unk> m o	-0.0301019
-0.474569	c f h	-0.0523324
-0.639822	l f o	-0.0301019
-0.634292	o f c	-0.0301019
-1.28957	h e </unk>
-1.72494	h e k	-0.0301019
-1.75836	h e c	-0.0301019
-0.581506	h e y	-0.132711
-0.4135	h e o	-0.229216
-1.37969	h e a	-0.0694425
-1.88362	h e t	-0.0301019
-0.758306	h e e	-0.117601
-0.809256	t e y	-0.0301019
-0.494788	t e o	-0.0694425
-1.15426	t e a	-0.0301019
-0.499459	t e e	-0.0694425
-1.19033	k e </unk>
-0.824503	k e y	-0.0301019
-0.484486	k e o	-0.110989
-0.497771	k e e	-0.0940824
-1.34309	e e </unk>
-0.511397	e e y	-0.136616
-0.750234	e e o	-0.0694425
-0.942938	e e a	-0.123374
-1.77484	e e n	-0.0301019
-0.688676	e e e	-0.0830284
-1.76913	e e m	-0.0301019
-1.14271	e e s	-0.0694425
-0.699241	<unk> e y	-0.0301019
-0.569903	<unk> e o	-0.0301019
-0.576839	<unk> e e	-0.0301019
-1.12634	<unk> e s	-0.0301019
-0.479654	o e o	-0.0523324
-0.556366	o e e	-0.0301019
-1.16089	l e k	-0.0301019
-0.411486	l e e	-0.0523324
-0.498792	s e e	-0.0301019
-0.498792	y e e	-0.0301019
-0.424524	r e e	-0.0694425
-0.897242	<unk> t </unk>
-0.588297	<unk> t c	-0.0301019
-0.724757	<unk> t h	-0.0301019
-0.877123	<unk> t y	-0.0301019
-1.14504	y t </unk>
-0.485451	y t c	-0.0940824
-1.12261	y t y	-0.0301019
-1.01888	y t o	-0.0523324
-1.27291	y t a	-0.0301019
-0.773502	y t e	-0.0694425
-1.06616	y t s	-0.0523324
-1.0215	c t </unk>
-0.205887	c t h	-0.153161
-0.775408	e t y	-0.0301019
-1.21895	o t </unk>
-0.422314	o t c	-0.14608
-1.19443	o t y	-0.0523324
-0.919375	o t o	-0.0830284
-0.9711	o t a	-0.0694425
-0.8465	o t e	-0.0940824
-0.816754	h t y	-0.0301019
-0.939216	h t a	-0.0301019
-0.509598	m t c	-0.0301019
-1.35	o l </unk>
-1.25638	o l k	-0.0940824
-0.694913	o l c	-0.208042
-1.14837	o l y	-0.103255
-0.752649	o l o	-0.186125
-0.7138	o l d	-0.151008
-1.59232	o l e	-0.0523324
-2.07607	o l f	-0.0301019
-0.775534	o l s	-0.14608
-1.39959	o l q	-0.0940824
-1.2805	<unk> l k	-0.0301019
-0.66269	<unk> l c	-0.0694425
-1.03694	<unk> l o	-0.0301019
-0.544014	<unk> l d	-0.0694425
-1.42837	<unk> l a	-0.0301019
-0.791206	<unk> l s	-0.0301019
-1.29183	a l </unk>
-0.63358	a l c	-0.0940824
-1.12385	a l y	-0.0523324
-1.14029	a l o	-0.0301019
-0.496988	a l d	-0.0940824
-1.47101	a l e	-0.0301019
-0.830327	a l s	-0.0523324
-0.482792	i l d	-0.0301019
-0.624038	d l s	-0.0301019
-1.69249	i n k	-0.0301019
-0.480343	i n c	-0.151008
-1.03169	i n y	-0.0694425
-1.1072	i n o	-0.0940824
-0.804849	i n d	-0.110989
-0.582253	i n s	-0.147012
-1.72675	i n q	-0.0940824
-1.12917	a n </unk>
-0.889932	a n y	-0.0301019
-0.780756	a n o	-0.0301019
-0.826758	a n d	-0.0301019
-0.60398	a n s	-0.0523324
-0.757623	<unk> n c	-0.0301019
-0.763921	<unk> n d	-0.0301019
-0.616076	<unk> n s	-0.0301019
-0.750287	e n y	-0.0301019

\4-grams:
-0.663825	i n k c	-0.0081201
-0.582273	<unk> l k o	-0.0081201
-1.04796	o l k </unk>
-0.646839	o l k y	-0.013729
-0.610461	o l k o	-0.0081201
-0.818108	o l k e	-0.0081201
-0.463025	y o k o	-0.013729
-0.838227	y o k a	-0.0081201
-1.37486	h o k </unk>
-0.870521	h o k c	-0.0081201
-0.959842	h o k y	-0.0081201
-0.48401	h o k o	-0.013729
-0.728198	h o k e	-0.013729
-0.854896	<unk> o k c	-0.0081201
-0.470066	<unk> o k o	-0.013729
-0.735428	<unk> o k e	-0.0081201
-0.464438	n o k o	-0.0081201
-0.861163	l o k c	-0.0081201
-0.949193	l o k y	-0.0081201
-0.791647	l o k a	-0.0178359
-0.941596	q o k c	-0.013729
-1.03092	q o k y	-0.0081201
-0.555085	q o k o	-0.013729
-0.50903	q o k e	-0.020973
-1.41201	q o k s	-0.0081201
-0.462226	r o k o	-0.0178359
-0.716347	r o k e	-0.013729
-0.814666	m o k a	-0.0081201
-0.186878	o c k h	-0.020973
-0.223091	y c k h	-0.013729
-0.226898	<unk> c k h	-0.0081201
-0.226898	h c k h	-0.0081201
-0.226898	a c k h	-0.0081201
-0.226898	r c k h	-0.0081201
-0.870022	l e k s	-0.0081201
-0.698669	h e k e	-0.0081201
-0.808436	h y k c	-0.0081201
-0.838722	h y k y	-0.0081201
-0.408182	h y k o	-0.013729
-0.485317	y y k o	-0.013729
-0.731198	s y k c	-0.0081201
-0.506482	o y k o	-0.0081201
-0.842777	o y k e	-0.0081201
-0.773251	n y k y	-0.0081201
-1.10831	n y k s	-0.0081201
-0.752306	e y k c	-0.0081201
-1.05954	e y k a	-0.0081201
-0.853033	e y k e	-0.0081201
-0.731198	t y k c	-0.0081201
-0.497088	l y k o	-0.0081201
-0.655577	a r k y	-0.0081201
-0.737896	o r k c	-0.0081201
-0.604057	o r k o	-0.0081201
-0.476078	a m k o	-0.013729
-0.819265	s h k a	-0.0081201
-0.629716	c h k y	-0.0081201
-1.44211	o l c </unk>
-0.121837	o l c h	-0.0323568
-0.782214	o l c t	-0.0234476
-0.143154	<unk> l c h	-0.013729
-0.719836	<unk> l c t	-0.0081201
-0.133099	a l c h	-0.0234476
-0.095678	y d c h	-0.0081201
-0.0943067	l d c h	-0.013729
-0.095678	d d c h	-0.0081201
-0.0908345	y p c h	-0.0081201
-0.0886051	o p c h	-0.0178359
-0.08954	m p c h	-0.013729
-0.173718	<unk> o c h	-0.0081201
-0.649117	a o c k	-0.0081201
-0.628634	h o c k	-0.0178359
-0.190726	h o c h	-0.0081201
-0.170986	s o c h	-0.013729
-0.173718	y o c h	-0.0081201
-0.173718	t o c h	-0.0081201
-0.173718	l o c h	-0.0081201
-0.18112	m o c h	-0.0081201
-1.07545	m o c t	-0.0081201
-0.173718	q o c h	-0.0081201
-1.30873	a r c k	-0.0081201
-0.109606	a r c h	-0.013729
-1.25907	a r c f	-0.0081201
-1.43142	i r c p	-0.0081201
-0.104762	<unk> r c h	-0.013729
-1.24403	<unk> r c f	-0.0081201
-0.0908584	o r c h	-0.0359523
-1.23387	o r c t	-0.0234476
-0.0998883	h r c h	-0.0081201
-0.883128	h a c k	-0.0081201
-0.887576	o f c </unk>
-1.01984	c h c k	-0.0081201
-0.736843	c h c t	-0.013729
-0.171225	s h c h	-0.0081201
-1.18502	a m c </unk>
-0.0853513	a m c h	-0.020973
-0.0809712	o m c h	-0.0178359
-0.0829896	i m c h	-0.0081201
-0.887576	h e c </unk>
-1.37972	i n c </unk>
-0.090042	i n c h	-0.0315776
-1.09488	i n c t	-0.013729
-1.58783	i n c p	-0.0081201
-0.0860816	<unk> n c h	-0.0081201
-0.118027	<unk> k c h	-0.0081201
-0.118027	n k c h	-0.0081201
-0.11409	y k c h	-0.0739657
-0.885386	o k c </unk>
-0.125368	o k c h	-0.0178359
-0.118027	r k c h	-0.0081201
-0.0446342	<unk> t c h	-0.0081201
-0.0419015	o t c h	-0.0806935
-0.0430071	y t c h	-0.0234476
-0.0446342	m t c h	-0.0081201
-0.0785843	d y c h	-0.0739657
-0.0862564	t y c h	-0.013729
-1.0171	t y c t	-0.0081201
-0.0792093	k y c h	-0.0178359
-0.0811796	y y c h	-0.0081201
-0.0811796	s y c h	-0.0081201
-0.0792093	l y c h	-0.0178359
-0.0811796	r y c h	-0.0081201
-0.0811796	m y c h	-0.0081201
-1.32657	e y c k	-0.0081201
-0.0864437	e y c h	-0.0234476
-1.04758	e y c t	-0.0081201
-0.0811796	a y c h	-0.0081201
-1.34092	h y c k	-0.0081201
-0.0884438	h y c h	-0.0271025
-1.02146	h y c t	-0.013729
-0.0862564	<unk> y c h	-0.013729
-1.0171	<unk> y c t	-0.0081201
-0.0811796	n y c h	-0.0081201
-0.0875882	e s c h	-0.013729
-0.0866758	y s c h	-0.0178359
-1.13185	o s c </unk>
-0.0959349	o s c h	-0.0081201
-0.0888515	l s c h	-0.0081201
-0.0888515	<unk> s c h	-0.0081201
-1.02034	<unk> c h y	-0.0081201
-0.267917	<unk> c h o	-0.013729
-1.00154	<unk> c h a	-0.0081201
-1.36363	l c h </unk>
-2.00284	l c h k	-0.0081201
-0.771729	l c h y	-0.0234476
-0.287265	l c h o	-0.0315776
-1.10613	l c h a	-0.0081201
-0.832274	l c h e	-0.0081201
-0.260231	r c h o	-0.0568324
-1.06763	r c h a	-0.013729
-0.689617	r c h e	-0.0680385
-0.259586	h c h o	-0.0081201
-0.262115	m c h o	-0.0234476
-0.990441	m c h a	-0.0838662
-0.758346	m c h e	-0.0081201
-1.29134	n c h </unk>
-1.47178	n c h c	-0.0178359
-0.268743	n c h o	-0.0284903
-0.752035	n c h e	-0.013729
-1.79428	k c h r	-0.0081201
-1.01478	k c h y	-0.013729
-0.277513	k c h o	-0.020973
-1.0294	k c h a	-0.0081201
-0.742971	k c h e	-0.013729
-1.08502	t c h y	-0.013729
-0.271529	t c h o	-0.0315776
-0.882018	t c h a	-0.0234476
-0.779012	t c h e	-0.020973
-1.28813	y c h </unk>
-1.09269	y c h y	-0.0081201
-0.254413	y c h o	-0.0546704
-1.04462	y c h a	-0.0178359
-2.05102	y c h t	-0.0081201
-0.771927	y c h e	-0.020973
-2.16828	y c h p	-0.0081201
-1.77775	s c h r	-0.0081201
-0.281448	s c h o	-0.013729
-1.02554	s c h a	-0.0081201
-0.702778	s c h e	-0.020973
-1.30585	o c h </unk>
-1.07917	o c h y	-0.0081201
-0.302549	o c h o	-0.020973
-0.612439	o c h e	-0.0178359
-0.26067	p c h o	-0.020973
-0.728977	p c h e	-0.013729
-1.2356	d c h </unk>
-0.258533	d c h o	-0.0178359
-0.506756	c f h a	-0.013729
-0.518588	c k h y	-0.0234476
-0.344407	c k h o	-0.0234476
-1.09336	c t h </unk>
-0.448387	c t h y	-0.0306907
-0.461515	c t h o	-0.0706717
-1.14391	c t h a	-0.0081201
-1.06596	c t h e	-0.0081201
-0.4397	<unk> t h o	-0.0081201
-0.524701	i s h e	-0.0081201
-0.347394	m s h o	-0.0178359
-1.66667	r s h k	-0.0081201
-1.00652	r s h y	-0.0081201
-0.379049	r s h o	-0.013729
-1.13142	r s h a	-0.0081201
-1.67398	r s h t	-0.0081201
-0.55771	r s h e	-0.0081201
-1.01092	y s h y	-0.0081201
-0.365555	y s h o	-0.0706717
-1.13682	y s h a	-0.0081201
-0.547823	y s h e	-0.013729
-0.371707	s s h o	-0.013729
-1.11742	s s h a	-0.0081201
-0.535322	s s h e	-0.013729
-0.977915	k s h y	-0.0081201
-0.374125	k s h o	-0.0081201
-0.541463	k s h e	-0.0081201
-0.524701	t s h e	-0.013729
-1.25915	n s h </unk>
-0.407146	n s h o	-0.0178359
-0.825353	n s h a	-0.013729
-0.581351	n s h e	-0.013729
-1.18156	<unk> s h </unk>
-0.977915	<unk> s h y	-0.0081201
-0.541463	<unk> s h e	-0.0081201
-1.23396	l s h </unk>
-1.01469	l s h y	-0.0081201
-0.384249	l s h o	-0.013729
-0.518066	l s h e	-0.0234476
-1.49619	o s h c	-0.0081201
-0.355021	o s h o	-0.0178359
-0.275764	c p h o	-0.013729
-0.445597	c h r c	-0.0081201
-0.885981	c h r y	-0.0081201
-0.550665	h a r c	-0.0081201
-0.595119	h a r o	-0.0081201
-1.23059	h a r a	-0.0081201
-0.840399	h a r s	-0.0081201
-1.29112	d a r k	-0.0081201
-0.548017	d a r c	-0.013729
-0.606444	d a r o	-0.0081201
-1.1761	d a r e	-0.0081201
-0.829587	d a r s	-0.013729
-0.571799	o a r o	-0.0081201
-0.571799	r a r o	-0.0081201
-0.550665	e a r c	-0.0081201
-0.575423	e a r o	-0.013729
-1.15099	e a r e	-0.0081201
-1.10398	k a r y	-0.0081201
-1.06719	r o r </unk>
-0.381494	r o r c	-0.0081201
-1.1793	h o r </unk>
-1.51423	h o r k	-0.0081201
-0.431305	h o r c	-0.159239
-1.02605	h o r y	-0.0178359
-0.705409	h o r o	-0.0640921
-1.28451	h o r d	-0.0178359
-1.19732	h o r a	-0.0081201
-1.25911	h o r s	-0.0081201
-1.42154	h o r q	-0.0234476
-0.373044	a o r c	-0.0081201
-1.09742	* o r s	-0.0081201
-0.356144	d o r c	-0.020973
-1.06582	l o r a	-0.0081201
-1.11831	l o r s	-0.0081201
-1.04664	y o r a	-0.0081201
-1.12542	e o r </unk>
-1.4163	e o r k	-0.0081201
-0.374529	e o r c	-0.0234476
-1.22938	e o r d	-0.0081201
-1.49529	e o r e	-0.0081201
-0.381494	<unk> o r c	-0.0081201
-1.06582	<unk> o r a	-0.0081201
-0.381494	k o r c	-0.0081201
-0.730912	k o r o	-0.0081201
-0.572636	a i r c	-0.0081201
-1.06099	a i r y	-0.0081201
-0.593312	a i r o	-0.0081201
-1.02885	a i r d	-0.0081201
-0.979738	a i r s	-0.0081201
-1.21934	a i r q	-0.0081201
-0.562055	i i r o	-0.0081201
-0.533568	e y y k	-0.013729
-1.08734	n y y p	-0.0081201
-0.538125	h y y c	-0.0081201
-0.874613	h y y t	-0.0081201
-0.555585	o k y c	-0.013729
-0.502881	o k y d	-0.0081201
-0.569666	l k y c	-0.0081201
-0.496017	l k y d	-0.0081201
-0.486713	r k y d	-0.0081201
-0.496017	y k y d	-0.0081201
-0.983719	y k y s	-0.0081201
-1.132	<unk> k y </unk>
-0.496017	<unk> k y d	-0.0081201
-0.486713	h k y d	-0.0081201
-0.891931	t o y d	-0.0081201
-0.520478	t o y s	-0.013729
-0.811504	l o y k	-0.0081201
-1.07836	q o y </unk>
-0.824957	h o y k	-0.0081201
-0.53312	h o y s	-0.0081201
-0.523488	m o y s	-0.0081201
-0.576403	o d y c	-0.0178359
-0.728425	o d y o	-0.0739657
-0.814381	o d y d	-0.013729
-1.00335	o d y t	-0.013729
-1.01244	o d y s	-0.0081201
-1.53593	o d y p	-0.0081201
-1.12483	o d y q	-0.013729
-0.573851	i d y c	-0.0081201
-1.01848	i d y q	-0.0081201
-0.703483	l d y d	-0.0081201
-0.873148	a d y s	-0.0081201
-0.486253	h s y c	-0.0081201
-0.749509	m s y k	-0.0081201
-0.544105	m m y c	-0.0081201
-0.571676	o m y t	-0.0081201
-0.571676	a m y t	-0.0081201
-0.584184	h r y c	-0.0081201
-1.07433	o r y o	-0.0081201
-0.68961	o r y t	-0.0081201
-0.816073	o r y s	-0.0081201
-0.79319	a r y s	-0.0081201
-0.670016	i r y t	-0.0081201
-0.411129	e t y c	-0.0081201
-0.85857	h t y k	-0.0081201
-0.419841	o t y c	-0.0081201
-1.06004	o t y o	-0.0081201
-0.823091	<unk> t y d	-0.0081201
-0.411129	y t y c	-0.0081201
-1.11292	o l y </unk>
-0.909145	o l y k	-0.0081201
-0.520179	o l y c	-0.0081201
-0.763027	o l y d	-0.013729
-0.976532	o l y t	-0.0081201
-0.479515	a l y c	-0.013729
-0.931723	h e y k	-0.0081201
-0.600311	h e y c	-0.013729
-1.1818	h e y y	-0.0081201
-1.36422	h e y o	-0.0081201
-0.745976	h e y d	-0.0178359
-1.02776	h e y t	-0.0081201
-0.906703	h e y q	-0.013729
-1.21367	e e y </unk>
-0.912159	e e y k	-0.013729
-0.582091	e e y c	-0.020973
-0.779754	e e y d	-0.0081201
-1.03031	e e y t	-0.0081201
-0.910165	e e y q	-0.013729
-0.568629	<unk> e y c	-0.0081201
-1.09022	k e y y	-0.0081201
-0.72635	t e y d	-0.0081201
-0.743804	i n y k	-0.0081201
-0.561008	i n y c	-0.0081201
-1.10188	i n y y	-0.0081201
-0.722914	a n y k	-0.0081201
-1.18981	e n y e	-0.0081201
-0.486253	e a y c	-0.0081201
-0.805206	k a y t	-0.0081201
-0.918568	c h y k	-0.013729
-0.496927	c h y c	-0.0680385
-1.33132	c h y y	-0.0081201
-0.807454	c h y d	-0.013729
-1.09096	c h y t	-0.0081201
-0.524411	k h y c	-0.0081201
-1.20849	k h y o	-0.0081201
-0.803219	k h y d	-0.0081201
-1.05954	k h y t	-0.0081201
-0.954047	k h y s	-0.0081201
-0.938158	t h y k	-0.013729
-0.566719	t h y c	-0.0081201
-1.34821	t h y y	-0.0081201
-1.26841	t h y o	-0.0081201
-0.8496	t h y d	-0.0081201
-0.975106	t h y s	-0.013729
-0.897597	t h y q	-0.013729
-1.27107	s h y </unk>
-0.509403	s h y c	-0.013729
-0.803219	s h y d	-0.0081201
-1.18972	s h y q	-0.0081201
-0.910842	<unk> h y s	-0.0081201
-1.03679	k e o d	-0.0081201
-0.576991	k e o l	-0.0178359
-1.07824	k e o m	-0.013729
-1.31205	k e o s	-0.0081201
-1.00682	t e o d	-0.0081201
-0.567183	t e o l	-0.013729
-0.638017	h e o r	-0.0271025
-1.62276	h e o a	-0.0081201
-0.405287	h e o l	-0.0284903
-1.43548	h e o s	-0.0081201
-1.68396	h e o p	-0.0081201
-0.571661	<unk> e o l	-0.0081201
-0.567492	o e o r	-0.0081201
-1.07645	o e o m	-0.0081201
-0.57485	e e o r	-0.0081201
-1.00682	e e o d	-0.0081201
-0.589235	e e o l	-0.0081201
-1.39704	l d o </unk>
-0.70065	l d o r	-0.013729
-0.335798	l d o l	-0.0271025
-1.46042	l d o m	-0.0081201
-1.31606	o d o a	-0.0081201
-0.489788	o d o l	-0.0081201
-0.592206	n d o r	-0.0081201
-1.09149	n d o t	-0.0081201
-0.592206	y d o r	-0.0081201
-1.34536	y d o i	-0.0081201
-0.877678	d a o c	-0.0081201
-0.712989	t a o r	-0.0081201
-0.967081	d y o </unk>
-0.812149	d y o k	-0.013729
-0.776953	d y o l	-0.0081201
-0.822817	r y o r	-0.0081201
-0.789383	e y o k	-0.0081201
-0.91611	t y o t	-0.0081201
-0.954995	h y o </unk>
-1.02776	h y o c	-0.0081201
-0.728773	l k o d	-0.0081201
-0.465651	l k o l	-0.0081201
-0.954695	o k o r	-0.0081201
-0.740074	o k o d	-0.0178359
-1.55554	o k o i	-0.0081201
-0.457327	o k o l	-0.0254495
-1.46761	o k o m	-0.0081201
-1.52667	y k o o	-0.0081201
-0.754228	y k o d	-0.0081201
-1.16223	y k o a	-0.0081201
-0.472411	y k o l	-0.013729
-1.18664	y k o t	-0.0081201
-0.728773	m k o d	-0.0081201
-1.11619	m k o a	-0.0081201
-0.887519	r k o r	-0.0081201
-0.659568	a r o k	-0.013729
-0.926548	a r o r	-0.0081201
-0.712683	a r o t	-0.013729
-1.33756	a r o m	-0.0081201
-1.28028	o r o </unk>
-0.668572	o r o k	-0.013729
-0.9351	o r o r	-0.0081201
-0.798788	o r o l	-0.013729
-0.741054	o r o t	-0.013729
-1.56994	o r o f	-0.0081201
-0.655505	i r o k	-0.0081201
-0.786314	i r o l	-0.0081201
-0.697991	<unk> r o t	-0.0081201
-1.28076	o l o </unk>
-0.951406	o l o k	-0.0234476
-1.20948	o l o c	-0.0081201
-0.920597	o l o r	-0.0081201
-1.31434	o l o y	-0.0081201
-0.965458	o l o d	-0.013729
-0.593285	o l o l	-0.020973
-1.48751	o l o e	-0.0081201
-1.36174	o l o m	-0.0081201
-0.810296	a l o r	-0.0081201
-1.27957	<unk> l o p	-0.0081201
-0.677919	o * o r	-0.0081201
-0.943345	a m o k	-0.0081201
-0.942151	a m o c	-0.013729
-1.18709	a m o y	-0.0081201
-0.821215	a m o t	-0.0081201
-1.06581	a m o s	-0.0081201
-0.76758	o m o t	-0.013729
-1.28027	o m o p	-0.0081201
-1.00838	<unk> m o s	-0.0081201
-0.736206	l f o d	-0.0081201
-1.05688	c h o </unk>
-1.26567	c h o k	-0.0234476
-0.637995	c h o r	-0.135663
-0.794062	c h o d	-0.0771465
-2.1042	c h o i	-0.0081201
-0.538697	c h o l	-0.0688026
-1.57712	c h o t	-0.013729
-1.19264	c h o m	-0.0254495
-2.23912	c h o q	-0.0081201
-1.29734	k h o c	-0.013729
-0.690582	k h o r	-0.0081201
-1.5726	k h o y	-0.0081201
-0.495424	k h o l	-0.0081201
-1.16398	t h o </unk>
-0.467754	t h o l	-0.0178359
-1.1066	t h o m	-0.013729
-1.2208	<unk> h o k	-0.0081201
-0.550417	<unk> h o r	-0.020973
-0.887557	<unk> h o d	-0.0081201
-0.526765	<unk> h o l	-0.013729
-1.27153	s h o </unk>
-1.27647	s h o k	-0.0081201
-1.15286	s h o c	-0.013729
-0.592693	s h o r	-0.020973
-1.74803	s h o y	-0.0081201
-0.913901	s h o d	-0.013729
-0.5411	s h o l	-0.0254495
-1.2092	s h o m	-0.0081201
-1.84113	s h o s	-0.013729
-2.12228	s h o *	-0.0081201
-0.67096	p h o r	-0.0081201
-1.59707	p h o a	-0.0081201
-0.651511	q o o l	-0.0081201
-1.03096	k o o i	-0.0081201
-0.689187	y p o l	-0.0081201
-0.839988	y p o t	-0.0081201
-0.959546	o p o </unk>
-1.40535	y q o </unk>
-0.590606	y q o k	-0.0234476
-1.60926	y q o o	-0.0081201
-0.642584	y q o t	-0.013729
-0.626026	s q o t	-0.0081201
-1.04913	s q o p	-0.0081201
-0.61544	o q o t	-0.0081201
-0.605522	n q o k	-0.013729
-1.38173	n q o y	-0.0081201
-1.07411	n q o p	-0.0081201
-0.466094	<unk> q o t	-0.013729
-1.53629	<unk> q o e	-0.0081201
-0.63138	l q o k	-0.0081201
-1.05593	l q o d	-0.0081201
-0.624975	l q o t	-0.013729
-1.31868	l q o s	-0.0081201
-0.613008	m q o k	-0.0081201
-0.626026	m q o t	-0.0081201
-1.30221	r q o c	-0.0081201
-1.05593	r q o d	-0.0081201
-0.644664	r q o t	-0.0081201
-1.31868	r q o s	-0.0081201
-1.08289	r q o p	-0.0081201
-1.00564	* q o d	-0.0081201
-1.01896	o t o c	-0.0081201
-0.80139	o t o y	-0.013729
-0.682929	o t o l	-0.0081201
-0.817499	y t o y	-0.0081201
-0.66839	y t o l	-0.0081201
-0.869404	m s o c	-0.0081201
-1.19795	m s o e	-0.0081201
-0.855115	y s o c	-0.0081201
-0.593875	l s o l	-0.0081201
-0.577872	n s o l	-0.013729
-0.910194	i n o k	-0.0081201
-0.925061	i n o d	-0.0081201
-0.598961	i n o l	-0.0081201
-0.80736	i n o t	-0.0178359
-0.571105	a n o l	-0.0081201
-1.12811	h o d </unk>
-0.591164	h o d y	-0.0271025
-1.21257	h o d o	-0.0081201
-0.244657	h o d a	-0.0612756
-0.252581	f o d a	-0.0081201
-0.539044	k o d y	-0.020973
-0.268963	k o d a	-0.013729
-0.570331	e o d y	-0.0081201
-0.25543	e o d a	-0.013729
-0.549196	<unk> o d y	-0.013729
-1.12238	<unk> o d o	-0.0081201
-1.03738	n o d </unk>
-0.563007	l o d y	-0.0081201
-0.260341	l o d a	-0.0081201
-0.245067	q o d a	-0.0178359
-1.30645	h y d c	-0.0081201
-0.169189	h y d a	-0.0739657
-1.08508	d y d </unk>
-0.182451	d y d a	-0.0081201
-1.47814	d y d l	-0.0081201
-0.161595	k y d a	-0.0254495
-0.169639	t y d a	-0.0081201
-0.964221	e y d o	-0.013729
-0.175981	e y d a	-0.0178359
-0.166984	l y d a	-0.013729
-1.05121	o y d </unk>
-0.816465	i n d o	-0.013729
-1.35774	i n d d	-0.0081201
-0.237504	i n d a	-0.020973
-0.231345	a n d a	-0.0081201
-0.231345	<unk> n d a	-0.0081201
-0.419882	a l d o	-0.0178359
-0.373159	a l d a	-0.013729
-1.32946	o l d </unk>
-1.15693	o l d c	-0.013729
-0.435423	o l d o	-0.0254495
-0.368199	o l d a	-0.0296722
-0.420082	<unk> l d o	-0.013729
-0.375604	<unk> l d a	-0.0081201
-1.0607	i l d y	-0.0081201
-0.168515	i r d a	-0.0081201
-0.162553	o r d a	-0.020973
-0.168515	<unk> r d a	-0.0081201
-0.230339	o m d a	-0.0081201
-0.468944	i i d y	-0.013729
-0.886598	n d d c	-0.0081201
-0.257107	k a d a	-0.0081201
-0.711054	p a d y	-0.0081201
-0.375479	<unk> l a i	-0.0081201
-0.689588	o p a l	-0.0081201
-1.03197	h p a d	-0.0081201
-0.596761	h o a l	-0.0081201
-1.02134	<unk> o a </unk>
-0.845843	e o a r	-0.0081201
-0.444459	k o a i	-0.013729
-0.596761	d o a l	-0.0081201
-0.958431	o d a r	-0.020973
-0.259771	o d a i	-0.0306907
-1.36629	o d a n	-0.0081201
-0.942443	o d a l	-0.0178359
-1.00832	o d a m	-0.0081201
-0.953872	y d a r	-0.013729
-1.68231	y d a o	-0.0081201
-0.270846	y d a i	-0.0315776
-0.9373	y d a l	-0.013729
-0.986961	y d a m	-0.0081201
-0.238096	r d a i	-0.020973
-0.958759	r d a m	-0.013729
-0.910187	m d a m	-0.0081201
-1.41293	l d a </unk>
-0.991296	l d a r	-0.0081201
-0.293175	l d a i	-0.0271025
-0.794805	l d a m	-0.013729
-1.34889	n d a </unk>
-0.278228	n d a i	-0.0178359
-1.21924	n d a n	-0.013729
-0.269773	<unk> d a i	-0.0081201
-0.269773	a d a i	-0.0081201
-1.37279	c h a </unk>
-0.953426	c h a r	-0.013729
-0.590595	c h a i	-0.013729
-1.26328	c h a n	-0.0081201
-0.895918	c h a l	-0.0178359
-0.464632	c h a m	-0.0658854
-0.827715	f h a r	-0.0081201
-0.744341	f h a m	-0.0081201
-1.44339	s h a c	-0.0081201
-0.851713	s h a r	-0.0081201
-0.470854	s h a i	-0.013729
-1.12981	s h a n	-0.0081201
-0.775578	t h a l	-0.0081201
-0.727696	a r a m	-0.0081201
-0.83907	o r a r	-0.0081201
-1.02268	o r a n	-0.0081201
-0.786047	o r a l	-0.0081201
-0.755616	o r a m	-0.0081201
-0.411055	e e a r	-0.0178359
-1.27411	e e a y	-0.0081201
-0.537202	h e a r	-0.0081201
-0.553567	h e a i	-0.0081201
-0.82441	h e a m	-0.0081201
-0.801276	t e a m	-0.0081201
-0.889475	o k a r	-0.0081201
-1.24468	o k a y	-0.0081201
-1.26669	o k a d	-0.0081201
-0.478027	o k a i	-0.0081201
-0.833576	o k a l	-0.0081201
-0.869746	y k a m	-0.0081201
-1.03789	<unk> k a </unk>
-0.453183	h k a i	-0.0081201
-1.11105	y t a o	-0.0081201
-0.373274	o t a i	-0.013729
-0.77887	o t a l	-0.0081201
-0.372587	h t a i	-0.0081201
-0.219762	n s a i	-0.0178359
-0.226241	l s a i	-0.0178359
-0.995349	l s a m	-0.0081201
-0.889996	y s a l	-0.0081201
-0.226282	o s a i	-0.0081201
-1.57508	d a i </unk>
-1.04378	d a i r	-0.0254495
-0.19268	d a i i	-0.0528373
-0.746363	d a i n	-0.0254495
-1.78863	d a i m	-0.0081201
-0.181815	t a i i	-0.0178359
-0.194411	k a i i	-0.0081201
-1.59853	k a i *	-0.0081201
-0.190759	<unk> a i i	-0.013729
-0.727941	<unk> a i n	-0.0081201
-0.188013	h a i i	-0.0178359
-0.734669	h a i n	-0.0081201
-0.177074	s a i i	-0.0658854
-0.186953	l a i i	-0.0081201
-0.186953	e a i i	-0.0081201
-0.183965	o a i i	-0.013729
-1.3553	a i i </unk>
-1.46774	a i i r	-0.0081201
-1.5449	a i i d	-0.013729
-1.03648	a i i i	-0.0081201
-0.13905	a i i n	-0.0978346
-1.82888	a i i l	-0.0081201
-1.68024	a i i m	-0.0081201
-0.156623	<unk> i i n	-0.0081201
-0.15421	o i i n	-0.013729
-0.156623	i i i n	-0.0081201
-0.911628	h o i </unk>
-0.528931	o o i i	-0.0081201
-1.09991	k o i s	-0.0081201
-0.528931	d o i i	-0.0081201
-0.528271	h o * o	-0.0081201
-0.650163	a i * q	-0.0081201
-0.073049	h y q o	-0.0178359
-0.0724768	e y q o	-0.020973
-1.00373	d y q </unk>
-0.0799961	d y q o	-0.013729
-0.0801026	e s q o	-0.0081201
-0.0801026	o s q o	-0.0081201
-0.110218	<unk> o q o	-0.0081201
-0.814339	h o q </unk>
-0.0633127	i n q o	-0.020973
-0.0573076	o l q o	-0.0234476
-0.0801026	a m q o	-0.0081201
-0.0801026	o m q o	-0.0081201
-0.0851368	o r q o	-0.0234476
-0.908357	i r q </unk>
-0.0847473	i * q o	-0.0081201
-0.558456	d y p o	-0.0081201
-0.558456	<unk> y p o	-0.0081201
-0.417502	y y p c	-0.0081201
-0.575604	r c p h	-0.0081201
-0.575604	n c p h	-0.0081201
-0.382741	e o p c	-0.0081201
-0.397526	q o p c	-0.0081201
-0.714262	q o p o	-0.0081201
-0.846169	q o p a	-0.0081201
-0.946077	m o p </unk>
-0.382741	l o p c	-0.0081201
-0.339005	o m p c	-0.0081201
-0.339005	a m p c	-0.0081201
-0.700021	c h p a	-0.0081201
-0.247272	h o s h	-0.013729
-0.819802	e o s c	-0.0081201
-1.21852	e o s q	-0.0081201
-0.247272	m o s h	-0.013729
-0.819802	q o s c	-0.0081201
-0.987187	q o s a	-0.0081201
-0.692745	<unk> e s c	-0.0081201
-1.04824	e e s </unk>
-0.712876	e e s c	-0.0081201
-1.12419	e e s q	-0.0081201
-1.36256	o l s </unk>
-1.06257	o l s c	-0.0081201
-0.286987	o l s h	-0.0271025
-1.21199	o l s o	-0.0081201
-0.82881	o l s a	-0.0178359
-1.55914	o l s e	-0.0081201
-1.1614	o l s s	-0.0081201
-1.06353	d l s s	-0.0081201
-0.284103	a l s h	-0.0081201
-0.809232	a l s a	-0.0081201
-0.276222	<unk> l s h	-0.0081201
-0.957583	<unk> h s y	-0.0081201
-0.241739	y t s h	-0.0838662
-0.256176	<unk> k s h	-0.0081201
-0.256176	y k s h	-0.0081201
-0.256176	e k s h	-0.0081201
-1.01628	o k s </unk>
-0.263698	o i s h	-0.0081201
-0.836879	h y s c	-0.0081201
-0.254736	h y s h	-0.0178359
-0.254736	o y s h	-0.0178359
-1.14833	o y s s	-0.0081201
-0.776845	<unk> y s c	-0.013729
-0.251221	r y s h	-0.0838662
-0.263441	d y s h	-0.0081201
-1.07409	d y s o	-0.0081201
-1.00691	k y s a	-0.0081201
-0.194343	<unk> s s h	-0.0081201
-0.191209	l s s h	-0.013729
-0.194343	y s s h	-0.0081201
-0.194343	m s s h	-0.0081201
-1.18411	a m s y	-0.0081201
-0.880016	a m s o	-0.0081201
-1.03921	a m s s	-0.0081201
-0.295081	o m s h	-0.0178359
-0.855081	e m s o	-0.0081201
-0.185569	a r s h	-0.0178359
-0.156517	o r s h	-0.0178359
-0.190839	i r s h	-0.0081201
-0.212214	i n s h	-0.0271025
-1.17034	i n s o	-0.013729
-0.805703	i n s a	-0.0081201
-0.703643	a n s a	-0.013729
-0.237812	<unk> n s h	-0.0081201
-0.915238	r a m </unk>
-1.00762	r a m k	-0.0081201
-0.95303	d a m </unk>
-0.443262	d a m o	-0.020973
-0.905008	d a m s	-0.0081201
-1.2475	d a m q	-0.0081201
-0.493234	h a m c	-0.0234476
-0.651492	h a m o	-0.0081201
-0.76	h a m s	-0.013729
-1.1635	s a m p	-0.0081201
-0.445063	k a m o	-0.0081201
-1.00762	e a m k	-0.0081201
-1.06962	e a m y	-0.0081201
-1.0064	a i m m	-0.0081201
-0.791503	i i m c	-0.0081201
-0.763147	i m m y	-0.0081201
-0.931851	h o m </unk>
-0.743614	h o m c	-0.013729
-0.731312	h o m o	-0.013729
-1.37331	h o m d	-0.0081201
-1.38115	h o m t	-0.0081201
-0.752573	h o m s	-0.0081201
-1.23371	h o m p	-0.0081201
-0.706452	r o m s	-0.0081201
-0.899306	e o m </unk>
-1.05536	e o m y	-0.0081201
-1.18167	e o m q	-0.0081201
-0.706452	d o m s	-0.0081201
-0.702911	l o m o	-0.0081201
-0.715018	k o m c	-0.0081201
-0.643613	e e m s	-0.0081201
-0.448572	r c f h	-0.013729
-0.613575	o l f o	-0.0081201
-0.608463	r o f c	-0.0081201
-0.955694	c h e </unk>
-1.72859	c h e k	-0.0081201
-0.626968	c h e y	-0.0254495
-0.41442	c h e o	-0.0591645
-1.42359	c h e a	-0.013729
-1.85741	c h e t	-0.0081201
-0.812126	c h e e	-0.0178359
-1.32279	s h e </unk>
-1.71716	s h e c	-0.0081201
-0.632306	s h e y	-0.0178359
-0.455233	s h e o	-0.0254495
-1.40338	s h e a	-0.0081201
-0.595308	s h e e	-0.0234476
-0.55943	t h e y	-0.0081201
-0.55943	<unk> h e y	-0.0081201
-0.494063	y t e o	-0.0081201
-1.09316	y t e a	-0.0081201
-0.498537	y t e e	-0.0081201
-0.802707	o t e y	-0.0081201
-0.489123	o t e o	-0.013729
-0.493489	o t e e	-0.013729
-0.831973	o k e y	-0.0081201
-0.47439	o k e o	-0.020973
-0.486496	o k e e	-0.020973
-1.08701	l k e </unk>
-0.47744	y k e o	-0.0081201
-0.490095	y k e e	-0.0081201
-0.46829	<unk> k e o	-0.0081201
-0.46829	e k e o	-0.0081201
-0.735198	t e e o	-0.0081201
-0.910572	t e e a	-0.0081201
-0.677844	t e e e	-0.0081201
-0.476392	k e e y	-0.020973
-0.747383	k e e o	-0.0081201
-0.473532	h e e y	-0.0254495
-0.940296	h e e a	-0.0081201
-1.12286	h e e s	-0.0081201
-0.658511	o e e e	-0.0081201
-1.25939	e e e </unk>
-0.515272	e e e y	-0.0081201
-0.91919	e e e a	-0.0081201
-1.09482	e e e s	-0.0081201
-0.726396	l e e o	-0.0081201
-1.49423	l e e m	-0.0081201
-0.658511	s e e e	-0.0081201
-0.658511	y e e e	-0.0081201
-0.910572	r e e a	-0.0081201
-1.52973	r e e n	-0.0081201
-1.0835	r e e s	-0.0081201
-0.493692	<unk> e e y	-0.0081201
-0.535934	l o e e	-0.0081201
-0.46372	s o e o	-0.0081201
-0.46372	q o e o	-0.0081201
-1.0838	o l e k	-0.0081201
-0.40759	o l e e	-0.0081201
-0.398964	a l e e	-0.0081201
-0.481804	l s e e	-0.0081201
-0.481804	n y e e	-0.0081201
-0.402679	a r e e	-0.013729
-0.411388	o r e e	-0.0081201
-0.47836	<unk> y t c	-0.0081201
-0.747688	<unk> y t e	-0.0081201
-1.07089	e y t </unk>
-1.00543	e y t s	-0.0081201
-1.17235	d y t a	-0.0081201
-1.00543	d y t s	-0.0081201
-0.711446	m y t e	-0.013729
-0.47836	r y t c	-0.0081201
-0.965272	r y t o	-0.0081201
-0.948865	l y t o	-0.0081201
-0.469202	a y t c	-0.0081201
-0.458492	h y t c	-0.013729
-1.03371	y y t y	-0.0081201
-0.192259	y c t h	-0.0234476
-0.169278	l c t h	-0.0254495
-0.997056	r c t </unk>
-0.199425	r c t h	-0.0739657
-0.967511	n c t </unk>
-0.208554	n c t h	-0.0081201
-0.197767	h c t h	-0.013729
-0.201035	o c t h	-0.0081201
-0.737218	h e t y	-0.0081201
-0.409284	k o t c	-0.0081201
-0.864254	p o t o	-0.0081201
-0.291381	r o t c	-0.0178359
-1.0414	r o t a	-0.0081201
-0.929507	r o t e	-0.0081201
-0.409184	m o t c	-0.013729
-0.93557	m o t a	-0.0081201
-0.400642	h o t c	-0.013729
-0.394491	n o t c	-0.0178359
-0.409184	<unk> o t c	-0.013729
-0.823679	<unk> o t e	-0.0081201
-1.22712	q o t </unk>
-0.465909	q o t c	-0.013729
-0.877756	q o t y	-0.013729
-0.953197	q o t o	-0.0081201
-1.00157	q o t a	-0.0081201
-0.841254	q o t e	-0.0178359
-0.864254	d o t o	-0.0081201
-0.864254	y o t o	-0.0081201
-0.774198	s h t y	-0.0081201
-0.881353	c h t a	-0.0081201
-0.491996	o m t c	-0.0081201
-0.68368	r o l c	-0.0081201
-1.08824	r o l y	-0.0081201
-1.28687	r o l q	-0.0081201
-1.22847	k o l k	-0.0081201
-0.692032	k o l c	-0.013729
-0.763432	k o l o	-0.0081201
-0.693501	k o l d	-0.0178359
-0.766302	k o l s	-0.013729
-0.612219	e o l c	-0.020973
-0.756295	e o l o	-0.0739657
-0.745505	e o l d	-0.013729
-1.56096	e o l e	-0.0081201
-0.789792	e o l s	-0.0178359
-1.39782	e o l q	-0.0081201
-0.72861	t o l o	-0.0081201
-0.692868	t o l d	-0.0081201
-1.08824	s o l y	-0.0081201
-1.42078	s o l e	-0.0081201
-0.758603	s o l s	-0.0081201
-1.0542	y o l y	-0.0081201
-0.72861	n o l o	-0.0081201
-0.749542	n o l s	-0.0081201
-1.15897	<unk> o l k	-0.013729
-0.702663	<unk> o l c	-0.0081201
-0.757716	<unk> o l o	-0.0081201
-0.72071	<unk> o l d	-0.0081201
-0.75742	<unk> o l s	-0.013729
-1.17957	l o l </unk>
-0.690059	l o l c	-0.0081201
-0.765595	l o l s	-0.0081201
-0.577156	d o l c	-0.020973
-0.625274	d o l o	-0.0178359
-0.794643	d o l d	-0.0081201
-1.37371	h o l </unk>
-1.26439	h o l k	-0.013729
-0.66559	h o l c	-0.020973
-1.14955	h o l y	-0.0178359
-0.763082	h o l o	-0.115263
-0.710199	h o l d	-0.0612756
-1.9995	h o l f	-0.0081201
-0.790659	h o l s	-0.0234476
-1.39204	h o l q	-0.0178359
-0.664219	o o l c	-0.0081201
-1.20506	p o l </unk>
-0.480102	<unk> a l d	-0.0081201
-1.05351	o a l y	-0.0081201
-0.48935	o a l d	-0.0081201
-0.607804	p a l c	-0.0081201
-0.480102	k a l d	-0.0081201
-0.480102	t a l d	-0.0081201
-0.617439	d a l c	-0.013729
-1.08752	d a l y	-0.0081201
-1.10181	d a l o	-0.0081201
-0.822339	d a l s	-0.0081201
-0.610639	h a l c	-0.013729
-0.50141	h a l d	-0.0081201
-1.35656	h a l e	-0.0081201
-1.16337	r a l </unk>
-0.786256	s a l s	-0.0081201
-0.466688	i i l d	-0.0081201
-0.598971	y d l s	-0.0081201
-1.72834	i i n k	-0.0081201
-0.535828	i i n c	-0.0336621
-1.10214	i i n y	-0.013729
-0.829106	i i n o	-0.0234476
-0.800083	i i n d	-0.020973
-0.641103	i i n s	-0.0640921
-1.36039	i i n q	-0.0234476
-0.487136	a i n c	-0.013729
-1.02229	a i n y	-0.0081201
-0.768049	a i n d	-0.0178359
-0.583484	a i n s	-0.0081201
-0.464371	<unk> i n c	-0.0081201
-0.863048	d a n y	-0.0081201
-0.763421	d a n o	-0.0081201
-0.598092	d a n s	-0.0081201
-0.796041	h a n d	-0.0081201
-0.590556	h a n s	-0.0081201
-1.03895	r a n </unk>
-0.714573	e e n y	-0.0081201

\5-grams:
-0.630447	i i n k c	-0.00971479
-0.626477	<unk> o l k y	-0.00971479
-0.59302	<unk> o l k o	-0.00971479
-0.767575	k o l k e	-0.00971479
-0.975799	h o l k </unk>
-0.626477	h o l k y	-0.00971479
-0.43158	d y o k o	-0.0174731
-0.785035	e y o k a	-0.00971479
-0.688315	<unk> h o k e	-0.00971479
-1.26828	c h o k </unk>
-0.855155	c h o k c	-0.00971479
-0.934038	c h o k y	-0.00971479
-0.496803	c h o k o	-0.00971479
-0.725956	c h o k e	-0.00971479
-0.464768	s h o k o	-0.00971479
-0.446432	i n o k o	-0.00971479
-0.846784	o l o k c	-0.00971479
-0.924734	o l o k y	-0.00971479
-0.711829	o l o k a	-0.0238128
-0.564288	y q o k o	-0.00971479
-0.460706	y q o k e	-0.0290909
-0.946195	l q o k y	-0.00971479
-0.887393	n q o k c	-0.0174731
-1.24477	n q o k s	-0.00971479
-0.53089	m q o k o	-0.00971479
-0.430866	o r o k o	-0.0174731
-0.677728	i r o k e	-0.00971479
-0.454597	a r o k o	-0.00971479
-0.689742	a r o k e	-0.00971479
-0.764578	a m o k a	-0.00971479
-0.181743	a o c k h	-0.00971479
-0.174593	h o c k h	-0.0238128
-0.216688	h y c k h	-0.00971479
-0.216688	e y c k h	-0.00971479
-0.220356	c h c k h	-0.00971479
-0.220356	h a c k h	-0.00971479
-0.220356	a r c k h	-0.00971479
-0.812405	o l e k s	-0.00971479
-0.661878	c h e k e	-0.00971479
-0.38226	t h y k o	-0.0174731
-0.772041	c h y k c	-0.00971479
-0.798683	c h y k y	-0.00971479
-0.451442	e y y k o	-0.0174731
-0.69099	m s y k c	-0.00971479
-0.485755	l o y k o	-0.00971479
-0.788969	h o y k e	-0.00971479
-0.728274	i n y k y	-0.00971479
-1.00734	a n y k s	-0.00971479
-0.797815	h e y k e	-0.00971479
-0.722097	e e y k c	-0.00971479
-0.985194	e e y k a	-0.00971479
-0.69099	h t y k c	-0.00971479
-0.476991	o l y k o	-0.00971479
-0.622972	d a r k y	-0.00971479
-0.575986	e o r k o	-0.00971479
-0.696956	h o r k c	-0.00971479
-0.457343	r a m k o	-0.00971479
-0.457343	e a m k o	-0.00971479
-0.768583	r s h k a	-0.00971479
-0.599448	l c h k y	-0.00971479
-1.30113	d o l c </unk>
-0.131455	d o l c h	-0.0174731
-0.767984	d o l c t	-0.00971479
-0.131455	h o l c h	-0.0174731
-0.728595	h o l c t	-0.0238128
-0.118737	l o l c h	-0.00971479
-0.118737	o o l c h	-0.00971479
-0.118737	<unk> o l c h	-0.00971479
-0.116325	k o l c h	-0.0174731
-0.122037	e o l c h	-0.0622684
-0.767984	e o l c t	-0.00971479
-0.118737	r o l c h	-0.00971479
-0.127001	d a l c h	-0.0174731
-0.129668	p a l c h	-0.00971479
-0.127001	h a l c h	-0.0174731
-0.0933167	h y d c h	-0.00971479
-0.0901728	o l d c h	-0.0174731
-0.0933167	n d d c h	-0.00971479
-0.0886053	y y p c h	-0.00971479
-0.0864362	e o p c h	-0.00971479
-0.0864362	q o p c h	-0.00971479
-0.0864362	l o p c h	-0.00971479
-0.0873459	o m p c h	-0.00971479
-0.0873459	a m p c h	-0.00971479
-0.617108	d a o c k	-0.00971479
-0.576226	k h o c k	-0.0174731
-0.609763	s h o c k	-0.00971479
-0.194585	s h o c h	-0.00971479
-0.166375	m s o c h	-0.00971479
-0.166375	y s o c h	-0.00971479
-0.169018	h y o c h	-0.00971479
-0.169018	o t o c h	-0.00971479
-0.169018	o l o c h	-0.00971479
-0.185272	a m o c h	-0.00971479
-0.998024	a m o c t	-0.00971479
-0.169018	r q o c h	-0.00971479
-1.11933	h a r c f	-0.00971479
-0.104717	d a r c h	-0.0174731
-1.15394	e a r c k	-0.00971479
-1.23408	a i r c p	-0.00971479
-0.0886286	a o r c h	-0.00971479
-0.0843595	d o r c h	-0.0290909
-0.196424	h o r c h	-0.037377
-0.566759	h o r c t	-0.0335538
-0.0834086	e o r c h	-0.0335538
-0.0886286	<unk> o r c h	-0.00971479
-0.0886286	r o r c h	-0.00971479
-0.0886286	k o r c h	-0.00971479
-0.097411	c h r c h	-0.00971479
-0.823604	s h a c k	-0.00971479
-0.827394	r o f c </unk>
-0.965685	n c h c k	-0.00971479
-0.679672	n c h c t	-0.0174731
-0.166607	o s h c h	-0.00971479
-1.12306	h a m c </unk>
-0.0862002	h a m c h	-0.0290909
-0.0790066	k o m c h	-0.00971479
-0.0774752	h o m c h	-0.0174731
-0.0809714	i i m c h	-0.00971479
-0.827394	s h e c </unk>
-1.34415	i i n c </unk>
-0.0917766	i i n c h	-0.0461412
-1.10071	i i n c t	-0.00971479
-1.50451	i i n c p	-0.00971479
-0.996894	<unk> i n c t	-0.00971479
-0.0861141	a i n c h	-0.0174731
-0.115038	i n k c h	-0.00971479
-0.111214	t y k c h	-0.00971479
-0.111214	e y k c h	-0.00971479
-0.111214	s y k c h	-0.00971479
-0.111214	h y k c h	-0.00971479
-0.825529	h o k c </unk>
-0.119674	q o k c h	-0.0174731
-0.122165	<unk> o k c h	-0.00971479
-0.825529	l o k c </unk>
-0.115038	o r k c h	-0.00971479
-0.0409295	k o t c h	-0.00971479
-0.0395608	r o t c h	-0.0238128
-0.0401703	m o t c h	-0.0174731
-0.0401703	h o t c h	-0.0174731
-0.0395608	n o t c h	-0.0238128
-0.0401703	<unk> o t c h	-0.0174731
-0.0401703	q o t c h	-0.0174731
-0.0420082	<unk> y t c h	-0.00971479
-0.0420082	a y t c h	-0.00971479
-0.041228	h y t c h	-0.0174731
-0.0420082	r y t c h	-0.00971479
-0.0435955	o m t c h	-0.00971479
-0.0740123	o d y c h	-0.0238128
-0.076683	i d y c h	-0.00971479
-0.0841508	e t y c h	-0.00971479
-0.0841508	o t y c h	-0.00971479
-0.935045	y t y c t	-0.00971479
-0.0757962	o k y c h	-0.0174731
-0.0772914	l k y c h	-0.00971479
-0.0792095	h y y c h	-0.00971479
-0.0792095	h s y c h	-0.00971479
-0.0772914	o l y c h	-0.00971479
-0.0757962	a l y c h	-0.0174731
-0.0792095	h r y c h	-0.00971479
-0.0792095	m m y c h	-0.00971479
-0.0826881	h e y c h	-0.0174731
-1.21978	e e y c k	-0.00971479
-0.0975551	e e y c h	-0.0174731
-0.999941	e e y c t	-0.00971479
-0.084333	<unk> e y c h	-0.00971479
-0.0792095	e a y c h	-0.00971479
-1.17572	k h y c k	-0.00971479
-0.938572	t h y c t	-0.00971479
-0.0845927	s h y c h	-0.0174731
-0.0816442	c h y c h	-0.0335538
-1.02149	c h y c t	-0.00971479
-0.0792095	i n y c h	-0.00971479
-0.0854467	<unk> e s c h	-0.00971479
-0.0854467	e e s c h	-0.00971479
-0.0829092	<unk> y s c h	-0.0174731
-0.0845589	h y s c h	-0.00971479
-0.0935666	e o s c h	-0.00971479
-1.02547	q o s c </unk>
-0.086676	o l s c h	-0.00971479
-1.32031	o l c h </unk>
-0.748805	o l c h y	-0.0238128
-0.280896	o l c h o	-0.0435859
-0.854173	o l c h e	-0.00971479
-0.73946	<unk> l c h y	-0.00971479
-0.287799	<unk> l c h o	-0.00971479
-1.61859	a l c h k	-0.00971479
-0.765879	a l c h y	-0.00971479
-0.29459	a l c h o	-0.0174731
-1.05865	a l c h a	-0.00971479
-0.246399	a r c h o	-0.0174731
-0.627585	<unk> r c h e	-0.0174731
-0.241139	o r c h o	-0.053925
-1.05468	o r c h a	-0.0174731
-0.702807	o r c h e	-0.0238128
-0.653737	h r c h e	-0.00971479
-0.251798	s h c h o	-0.00971479
-0.264533	a m c h o	-0.0174731
-0.892799	a m c h a	-0.0174731
-0.257069	o m c h o	-0.0174731
-0.737737	o m c h e	-0.00971479
-0.254227	i m c h o	-0.00971479
-1.25578	i n c h </unk>
-1.2222	i n c h c	-0.0238128
-0.276238	i n c h o	-0.040689
-0.75074	i n c h e	-0.0174731
-0.260589	<unk> n c h o	-0.00971479
-1.42222	<unk> k c h r	-0.00971479
-0.269003	n k c h o	-0.00971479
-1.00205	y k c h y	-0.00971479
-0.251412	y k c h o	-0.0174731
-0.764437	y k c h e	-0.00971479
-0.961448	o k c h y	-0.00971479
-0.286136	o k c h o	-0.00971479
-0.723833	o k c h e	-0.00971479
-0.944973	r k c h a	-0.00971479
-0.73335	<unk> t c h e	-0.00971479
-1.1293	o t c h y	-0.00971479
-0.273818	o t c h o	-0.0435859
-0.756935	o t c h a	-0.0290909
-0.823831	o t c h e	-0.0174731
-1.04107	y t c h y	-0.00971479
-0.279761	y t c h o	-0.0174731
-0.865412	y t c h a	-0.00971479
-0.772525	y t c h e	-0.00971479
-0.263263	m t c h o	-0.00971479
-0.209173	d y c h o	-0.0290909
-1.01183	t y c h y	-0.00971479
-0.25616	t y c h o	-0.00971479
-0.23634	k y c h o	-0.0238128
-0.727107	y y c h e	-0.00971479
-0.246829	s y c h o	-0.00971479
-0.249858	l y c h o	-0.0174731
-1.58166	l y c h t	-0.00971479
-0.246829	r y c h o	-0.00971479
-0.727107	m y c h e	-0.00971479
-1.20379	e y c h </unk>
-0.263597	e y c h o	-0.0174731
-1.00702	e y c h a	-0.00971479
-0.76606	e y c h e	-0.00971479
-0.957189	a y c h a	-0.00971479
-1.15994	<unk> y c h </unk>
-0.739636	<unk> y c h e	-0.00971479
-0.957189	n y c h a	-0.00971479
-1.22419	h y c h </unk>
-0.243552	h y c h o	-0.0335538
-1.72223	h y c h p	-0.00971479
-1.44683	e s c h r	-0.00971479
-0.677464	e s c h e	-0.00971479
-0.289936	y s c h o	-0.00971479
-0.970443	y s c h a	-0.00971479
-0.68727	y s c h e	-0.00971479
-0.665568	o s c h e	-0.00971479
-0.665568	l s c h e	-0.00971479
-0.272776	<unk> s c h o	-0.00971479
-0.984586	<unk> o c h y	-0.00971479
-0.302489	s o c h o	-0.00971479
-0.594845	s o c h e	-0.00971479
-0.292981	y o c h o	-0.00971479
-0.292981	t o c h o	-0.00971479
-1.15196	h o c h </unk>
-0.583663	l o c h e	-0.00971479
-0.292981	m o c h o	-0.00971479
-0.583663	q o c h e	-0.00971479
-0.252839	y p c h o	-0.00971479
-0.242018	o p c h o	-0.0238128
-0.660107	m p c h e	-0.0174731
-0.250787	y d c h o	-0.00971479
-1.12174	l d c h </unk>
-0.260133	l d c h o	-0.00971479
-0.250787	d d c h o	-0.00971479
-0.470437	r c f h a	-0.0174731
-0.478939	o c k h y	-0.0238128
-0.357184	o c k h o	-0.00971479
-0.324162	y c k h o	-0.0174731
-0.49703	<unk> c k h y	-0.00971479
-0.332935	h c k h o	-0.00971479
-0.332935	a c k h o	-0.00971479
-0.49703	r c k h y	-0.00971479
-1.04804	y c t h </unk>
-0.42682	y c t h y	-0.0238128
-1.08976	y c t h a	-0.00971479
-1.05676	l c t h </unk>
-0.429443	l c t h o	-0.0290909
-1.03354	l c t h e	-0.00971479
-0.367854	r c t h y	-0.0238128
-0.502937	r c t h o	-0.00971479
-0.418477	h c t h y	-0.0174731
-0.431356	n c t h y	-0.00971479
-0.431356	o c t h y	-0.00971479
-0.502716	o i s h e	-0.00971479
-0.319891	o m s h o	-0.0238128
-1.41817	a r s h k	-0.00971479
-0.36546	a r s h o	-0.0174731
-0.954528	o r s h y	-0.00971479
-1.05684	o r s h a	-0.00971479
-0.553011	o r s h e	-0.00971479
-1.36818	i r s h t	-0.00971479
-0.958218	h y s h y	-0.00971479
-0.353064	h y s h o	-0.0174731
-0.370837	o y s h o	-0.00971479
-1.06115	o y s h a	-0.00971479
-0.543746	o y s h e	-0.00971479
-0.297557	r y s h o	-0.0174731
-0.52417	d y s h e	-0.00971479
-0.358896	<unk> s s h o	-0.00971479
-0.368691	l s s h o	-0.00971479
-0.523244	l s s h e	-0.00971479
-0.512581	y s s h e	-0.00971479
-1.01438	m s s h a	-0.00971479
-0.518277	<unk> k s h e	-0.00971479
-0.36119	y k s h o	-0.00971479
-0.903055	e k s h y	-0.00971479
-0.410314	y t s h e	-0.0174731
-1.20126	i n s h </unk>
-0.417779	i n s h o	-0.0174731
-0.791332	i n s h a	-0.0174731
-0.577883	i n s h e	-0.0174731
-0.392472	<unk> n s h o	-0.00971479
-1.18107	o l s h </unk>
-0.410422	o l s h o	-0.00971479
-0.468399	o l s h e	-0.0335538
-0.370795	a l s h o	-0.00971479
-0.933092	<unk> l s h y	-0.00971479
-0.333884	h o s h o	-0.0174731
-1.29791	m o s h c	-0.00971479
-0.35276	m o s h o	-0.00971479
-0.267326	r c p h o	-0.00971479
-0.267326	n c p h o	-0.00971479
-0.826035	k c h r y	-0.00971479
-0.428733	s c h r c	-0.00971479
-0.537561	c h a r c	-0.00971479
-0.578845	c h a r o	-0.00971479
-1.09895	f h a r a	-0.00971479
-0.786914	s h a r s	-0.00971479
-1.19357	o d a r k	-0.00971479
-0.551322	o d a r c	-0.00971479
-1.10489	o d a r e	-0.00971479
-0.810631	o d a r s	-0.00971479
-0.535093	y d a r c	-0.00971479
-0.790671	y d a r s	-0.00971479
-0.578174	l d a r o	-0.00971479
-0.546326	e o a r o	-0.00971479
-0.546326	o r a r o	-0.00971479
-1.04004	h e a r e	-0.00971479
-0.54641	e e a r c	-0.00971479
-0.541814	e e a r o	-0.0174731
-1.00398	o k a r y	-0.00971479
-0.975139	a r o r </unk>
-0.368183	o r o r c	-0.00971479
-1.10742	s h o r </unk>
-0.44055	s h o r c	-0.00971479
-0.664172	s h o r o	-0.0174731
-1.2807	c h o r </unk>
-1.56447	c h o r k	-0.00971479
-0.439739	c h o r c	-0.0461412
-1.14157	c h o r y	-0.00971479
-0.791063	c h o r o	-0.0290909
-1.10224	c h o r d	-0.0238128
-1.29674	c h o r a	-0.00971479
-1.35118	c h o r s	-0.00971479
-0.901142	c h o r q	-0.0290909
-0.667928	k h o r o	-0.00971479
-0.44055	<unk> h o r c	-0.00971479
-0.919117	<unk> h o r y	-0.0174731
-0.697914	<unk> h o r o	-0.00971479
-1.22792	p h o r q	-0.00971479
-0.360165	t a o r c	-0.00971479
-0.998876	o * o r s	-0.00971479
-0.334911	l d o r c	-0.0174731
-0.344106	y d o r c	-0.00971479
-0.344106	n d o r c	-0.00971479
-1.01507	a l o r s	-0.00971479
-0.974051	o l o r a	-0.00971479
-0.958801	r y o r a	-0.00971479
-1.09155	h e o r </unk>
-1.32156	h e o r k	-0.00971479
-0.34845	h e o r c	-0.0335538
-1.09808	o e o r d	-0.00971479
-1.27261	e e o r e	-0.00971479
-0.690735	o k o r o	-0.00971479
-0.368183	r k o r c	-0.00971479
-0.586352	d a i r c	-0.00971479
-1.0293	d a i r y	-0.00971479
-0.605907	d a i r o	-0.00971479
-1.00174	d a i r d	-0.00971479
-0.959083	d a i r s	-0.00971479
-1.16043	d a i r q	-0.00971479
-0.537333	a i i r o	-0.00971479
-0.510953	h e y y k	-0.00971479
-0.510953	k e y y k	-0.00971479
-0.991003	i n y y p	-0.00971479
-0.515182	t h y y c	-0.00971479
-0.816334	c h y y t	-0.00971479
-0.531353	h o k y c	-0.00971479
-0.531353	q o k y c	-0.00971479
-0.482397	l o k y d	-0.00971479
-0.555244	o l k y c	-0.00971479
-0.486419	o l k y d	-0.00971479
-0.467296	a r k y d	-0.00971479
-0.475991	n y k y d	-0.00971479
-0.907826	h y k y s	-0.00971479
-0.467296	c h k y d	-0.00971479
-0.482538	o t o y s	-0.0174731
-0.831099	y t o y d	-0.00971479
-0.761822	o l o y k	-0.00971479
-0.98395	n q o y </unk>
-0.773531	s h o y k	-0.00971479
-0.510537	k h o y s	-0.00971479
-0.501588	a m o y s	-0.00971479
-0.719025	k o d y o	-0.00971479
-0.970303	k o d y s	-0.00971479
-1.36228	k o d y p	-0.00971479
-1.06371	k o d y q	-0.00971479
-0.573411	h o d y c	-0.0174731
-0.708356	h o d y o	-0.0174731
-0.782076	h o d y d	-0.0174731
-0.986603	h o d y t	-0.00971479
-0.5615	<unk> o d y c	-0.00971479
-0.700639	<unk> o d y o	-0.00971479
-0.923881	l o d y t	-0.00971479
-1.02008	e o d y q	-0.00971479
-0.559131	i i d y c	-0.00971479
-0.951667	i i d y q	-0.00971479
-0.6662	i l d y d	-0.00971479
-0.81508	p a d y s	-0.00971479
-0.466866	<unk> h s y c	-0.00971479
-0.707275	a m s y k	-0.00971479
-0.520725	i m m y c	-0.00971479
-0.546213	e o m y t	-0.00971479
-0.546213	e a m y t	-0.00971479
-0.557735	c h r y c	-0.00971479
-1.01074	h o r y o	-0.00971479
-0.675227	h o r y t	-0.00971479
-0.789502	h o r y s	-0.00971479
-0.745806	k a r y s	-0.00971479
-0.63605	a i r y t	-0.00971479
-0.396237	h e t y c	-0.00971479
-0.802579	s h t y k	-0.00971479
-0.414485	q o t y c	-0.00971479
-0.985598	q o t y o	-0.00971479
-0.396237	y y t y c	-0.00971479
-1.04203	h o l y </unk>
-0.871351	h o l y k	-0.00971479
-0.51777	h o l y c	-0.00971479
-0.719248	y o l y d	-0.00971479
-0.719248	s o l y d	-0.00971479
-0.901916	r o l y t	-0.00971479
-0.460562	d a l y c	-0.00971479
-0.460562	o a l y c	-0.00971479
-0.588721	c h e y c	-0.0174731
-0.716313	c h e y d	-0.0174731
-1.0008	c h e y t	-0.00971479
-0.894538	c h e y q	-0.00971479
-1.06318	t h e y y	-0.00971479
-0.864687	<unk> h e y k	-0.00971479
-1.2313	s h e y o	-0.00971479
-0.726554	s h e y d	-0.00971479
-0.869231	s h e y q	-0.00971479
-1.15588	h e e y </unk>
-0.899403	h e e y k	-0.00971479
-0.572408	h e e y c	-0.0174731
-0.779622	h e e y d	-0.00971479
-0.897625	h e e y q	-0.00971479
-1.13444	k e e y </unk>
-0.583358	k e e y c	-0.00971479
-0.985419	k e e y t	-0.00971479
-0.882034	k e e y q	-0.00971479
-0.555809	e e e y c	-0.00971479
-0.848233	<unk> e e y k	-0.00971479
-0.993256	o k e y y	-0.00971479
-0.686666	o t e y d	-0.00971479
-1.00234	a i n y y	-0.00971479
-0.714471	i i n y k	-0.00971479
-0.547193	i i n y c	-0.00971479
-0.683598	d a n y k	-0.00971479
-1.06913	e e n y e	-0.00971479
-0.466866	e e a y c	-0.00971479
-0.756323	o k a y t	-0.00971479
-0.758287	o c h y d	-0.00971479
-0.450659	l c h y c	-0.0290909
-0.798386	l c h y d	-0.00971479
-0.476841	<unk> c h y c	-0.00971479
-0.853636	y c h y k	-0.00971479
-0.487274	t c h y c	-0.00971479
-1.01045	t c h y t	-0.00971479
-0.867791	k c h y k	-0.00971479
-1.19037	k c h y y	-0.00971479
-0.535233	c k h y c	-0.00971479
-1.1418	c k h y o	-0.00971479
-0.794546	c k h y d	-0.00971479
-1.01965	c k h y t	-0.00971479
-0.928978	c k h y s	-0.00971479
-0.905747	c t h y k	-0.0174731
-0.596646	c t h y c	-0.00971479
-1.29525	c t h y y	-0.00971479
-1.2309	c t h y o	-0.00971479
-0.86322	c t h y d	-0.00971479
-0.936196	c t h y s	-0.0174731
-0.871813	c t h y q	-0.0174731
-1.1278	y s h y </unk>
-0.488477	<unk> s h y c	-0.00971479
-0.488477	l s h y c	-0.00971479
-0.754587	r s h y d	-0.00971479
-1.06906	k s h y q	-0.00971479
-0.990876	o k e o d	-0.00971479
-0.578572	o k e o l	-0.00971479
-1.02548	o k e o m	-0.00971479
-1.20911	o k e o s	-0.00971479
-0.551112	y k e o l	-0.00971479
-0.983852	<unk> k e o m	-0.00971479
-0.551112	e k e o l	-0.00971479
-0.523376	o t e o l	-0.0174731
-0.926699	y t e o d	-0.00971479
-0.600451	c h e o r	-0.037377
-0.374892	c h e o l	-0.0335538
-1.56988	c h e o p	-0.00971479
-0.648008	s h e o r	-0.00971479
-1.44837	s h e o a	-0.00971479
-0.395677	s h e o l	-0.0238128
-1.32416	s h e o s	-0.00971479
-0.982444	s o e o m	-0.00971479
-0.542353	q o e o r	-0.00971479
-0.926699	k e e o d	-0.00971479
-0.56238	t e e o l	-0.00971479
-0.54914	l e e o r	-0.00971479
-0.685326	a l d o r	-0.00971479
-0.32562	a l d o l	-0.0174731
-1.29653	o l d o </unk>
-0.320165	o l d o l	-0.0290909
-1.34172	o l d o m	-0.00971479
-0.675535	<unk> l d o r	-0.00971479
-0.334373	<unk> l d o l	-0.00971479
-0.470171	h o d o l	-0.00971479
-1.15894	<unk> o d o a	-0.00971479
-0.576149	i n d o r	-0.00971479
-1.01087	i n d o t	-0.00971479
-0.576149	e y d o r	-0.00971479
-1.20007	e y d o i	-0.00971479
-0.818953	y d a o c	-0.00971479
-0.674722	y t a o r	-0.00971479
-0.961771	o d y o </unk>
-0.622828	o d y o k	-0.0174731
-0.795103	o d y o l	-0.00971479
-0.771672	o r y o r	-0.00971479
-0.742466	h e y o k	-0.00971479
-0.851566	o t y o t	-0.00971479
-0.884104	k h y o </unk>
-0.943649	t h y o c	-0.00971479
-0.688827	<unk> l k o d	-0.00971479
-0.44757	o l k o l	-0.00971479
-0.711121	y o k o d	-0.00971479
-0.449971	y o k o l	-0.00971479
-0.711121	<unk> o k o d	-0.00971479
-0.449971	<unk> o k o l	-0.00971479
-0.439758	n o k o l	-0.00971479
-1.33305	h o k o i	-0.00971479
-0.449971	h o k o l	-0.00971479
-0.910596	r o k o r	-0.00971479
-0.458361	r o k o l	-0.00971479
-1.30069	r o k o m	-0.00971479
-0.711121	q o k o d	-0.00971479
-0.449971	q o k o l	-0.00971479
-1.3162	h y k o o	-0.00971479
-1.08503	h y k o t	-0.00971479
-0.723819	y y k o d	-0.00971479
-0.464203	y y k o l	-0.00971479
-0.453907	o y k o l	-0.00971479
-1.04853	l y k o a	-0.00971479
-0.700952	a m k o d	-0.00971479
-1.03047	a m k o a	-0.00971479
-0.827345	o r k o r	-0.00971479
-0.860346	h a r o r	-0.00971479
-1.17347	o a r o m	-0.00971479
-0.674448	r a r o t	-0.00971479
-0.626591	d a r o k	-0.00971479
-0.63813	e a r o k	-0.00971479
-0.68643	e a r o t	-0.00971479
-1.24755	h o r o </unk>
-0.685412	h o r o k	-0.0174731
-0.955794	h o r o r	-0.00971479
-0.832282	h o r o l	-0.00971479
-0.634266	h o r o t	-0.0174731
-1.45798	h o r o f	-0.00971479
-0.75071	k o r o l	-0.00971479
-0.739771	i i r o l	-0.00971479
-0.622906	a i r o k	-0.00971479
-0.566101	n o l o l	-0.00971479
-1.08361	<unk> o l o c	-0.00971479
-0.595223	h o l o k	-0.0238128
-1.00144	h o l o d	-0.00971479
-0.665182	h o l o l	-0.00971479
-1.40263	h o l o e	-0.00971479
-1.19594	d o l o y	-0.00971479
-0.919784	d o l o d	-0.00971479
-0.586236	d o l o l	-0.00971479
-1.18953	t o l o m	-0.00971479
-0.855344	k o l o r	-0.00971479
-1.21208	e o l o </unk>
-0.694915	e o l o k	-0.0174731
-0.62684	e o l o l	-0.00971479
-0.760768	d a l o r	-0.00971479
-0.643191	h o * o r	-0.00971479
-0.873408	h a m o c	-0.00971479
-0.909941	d a m o c	-0.00971479
-1.11359	d a m o y	-0.00971479
-0.803128	d a m o t	-0.00971479
-1.01517	d a m o s	-0.00971479
-0.874405	k a m o k	-0.00971479
-0.735758	h o m o t	-0.00971479
-1.1543	h o m o p	-0.00971479
-0.72327	l o m o t	-0.00971479
-0.695452	o l f o d	-0.00971479
-0.578679	o c h o r	-0.0238128
-0.542534	o c h o l	-0.00971479
-1.00772	p c h o </unk>
-0.635574	p c h o r	-0.00971479
-0.518668	p c h o l	-0.0174731
-1.0396	n c h o </unk>
-1.21468	n c h o k	-0.00971479
-0.612648	n c h o r	-0.0238128
-0.562909	n c h o l	-0.00971479
-1.44508	n c h o t	-0.00971479
-1.15501	n c h o m	-0.00971479
-0.74657	h c h o d	-0.00971479
-1.0174	m c h o </unk>
-0.642245	m c h o r	-0.00971479
-0.526509	m c h o l	-0.0174731
-1.69449	m c h o q	-0.00971479
-1.08667	r c h o </unk>
-0.66161	r c h o r	-0.0238128
-0.689079	r c h o d	-0.0290909
-0.534348	r c h o l	-0.037377
-1.51672	r c h o t	-0.00971479
-1.17441	k c h o k	-0.00971479
-0.606195	k c h o r	-0.0174731
-1.11797	k c h o m	-0.00971479
-0.593879	t c h o r	-0.0335538
-0.762057	t c h o d	-0.0238128
-0.556758	t c h o l	-0.0174731
-1.17324	t c h o m	-0.00971479
-1.09492	y c h o </unk>
-1.17923	y c h o k	-0.0238128
-0.587474	y c h o r	-0.0335538
-0.808865	y c h o d	-0.0238128
-0.557837	y c h o l	-0.0335538
-1.17021	y c h o m	-0.0174731
-0.75932	s c h o d	-0.00971479
-1.08958	s c h o m	-0.00971479
-0.996414	d c h o </unk>
-0.627728	d c h o r	-0.00971479
-0.535181	d c h o l	-0.00971479
-1.05515	l c h o </unk>
-0.667807	l c h o r	-0.00971479
-0.73772	l c h o d	-0.0290909
-1.77024	l c h o i	-0.00971479
-0.526623	l c h o l	-0.0290909
-0.983039	<unk> c h o </unk>
-0.75932	<unk> c h o d	-0.00971479
-1.11681	c k h o c	-0.0174731
-0.6912	c k h o r	-0.00971479
-1.40191	c k h o y	-0.00971479
-0.507677	c k h o l	-0.00971479
-1.13237	c t h o </unk>
-0.491911	c t h o l	-0.0174731
-0.785202	c t h o m	-0.0174731
-0.449542	<unk> t h o l	-0.00971479
-0.603688	y s h o r	-0.0174731
-0.581931	y s h o l	-0.00971479
-0.961815	y s h o s	-0.0174731
-1.15157	s s h o k	-0.00971479
-0.52864	s s h o l	-0.00971479
-1.16466	n s h o </unk>
-1.07385	n s h o c	-0.00971479
-0.585685	n s h o r	-0.00971479
-1.43325	l s h o y	-0.00971479
-0.52864	l s h o l	-0.00971479
-0.8638	r s h o d	-0.00971479
-0.52864	r s h o l	-0.00971479
-0.585685	m s h o r	-0.00971479
-0.875475	m s h o d	-0.00971479
-1.11769	m s h o m	-0.00971479
-0.51794	k s h o l	-0.00971479
-1.07385	o s h o c	-0.00971479
-0.537438	o s h o l	-0.00971479
-1.60331	o s h o *	-0.00971479
-0.648534	c p h o r	-0.00971479
-1.35646	c p h o a	-0.00971479
-0.619282	y q o o l	-0.00971479
-0.946229	y k o o i	-0.00971479
-0.786559	d y p o t	-0.00971479
-0.653349	<unk> y p o l	-0.00971479
-0.88788	q o p o </unk>
-1.25956	h y q o </unk>
-0.583741	h y q o k	-0.00971479
-1.38656	h y q o o	-0.00971479
-0.539639	e y q o k	-0.0238128
-0.63984	e y q o t	-0.00971479
-0.574667	d y q o k	-0.00971479
-0.622576	d y q o t	-0.00971479
-0.596082	e s q o t	-0.00971479
-0.960785	o s q o p	-0.00971479
-0.586409	<unk> o q o t	-0.00971479
-0.577835	i n q o k	-0.0174731
-1.25941	i n q o y	-0.00971479
-1.02206	i n q o p	-0.00971479
-0.636059	o l q o k	-0.00971479
-1.0166	o l q o d	-0.00971479
-0.603349	o l q o t	-0.0174731
-1.22687	o l q o s	-0.00971479
-0.596082	a m q o t	-0.00971479
-0.584184	o m q o k	-0.00971479
-1.21448	o r q o c	-0.00971479
-1.0166	o r q o d	-0.00971479
-0.648477	o r q o t	-0.00971479
-1.22687	o r q o s	-0.00971479
-1.03928	o r q o p	-0.00971479
-0.925744	i * q o d	-0.00971479
-0.752987	p o t o y	-0.00971479
-0.936552	d o t o c	-0.00971479
-0.752987	q o t o y	-0.00971479
-0.64771	y o t o l	-0.00971479
-0.634579	l y t o l	-0.00971479
-0.767045	r y t o y	-0.00971479
-0.811875	a m s o c	-0.00971479
-1.07514	e m s o e	-0.00971479
-0.799607	d y s o c	-0.00971479
-0.566644	o l s o l	-0.00971479
-0.532643	i n s o l	-0.0174731
-0.890424	i i n o k	-0.00971479
-0.903547	i i n o d	-0.00971479
-0.605654	i i n o l	-0.00971479
-0.759499	i i n o t	-0.0238128
-0.545686	d a n o l	-0.00971479
-1.12538	c h o d </unk>
-0.496262	c h o d y	-0.037377
-1.24539	c h o d o	-0.00971479
-0.285491	c h o d a	-0.0435859
-0.575184	s h o d y	-0.00971479
-0.246747	s h o d a	-0.00971479
-0.237449	<unk> h o d a	-0.00971479
-0.245067	l f o d a	-0.00971479
-0.516033	l k o d y	-0.00971479
-0.509778	o k o d y	-0.0174731
-0.277877	o k o d a	-0.00971479
-0.516033	y k o d y	-0.00971479
-0.2608	m k o d a	-0.00971479
-0.247806	k e o d a	-0.00971479
-0.544973	t e o d y	-0.00971479
-0.247806	e e o d a	-0.00971479
-0.951387	i n o d </unk>
-0.549053	o l o d y	-0.00971479
-0.261875	o l o d a	-0.00971479
-0.237843	l q o d a	-0.00971479
-0.237843	r q o d a	-0.00971479
-0.237843	* q o d a	-0.00971479
-1.17296	c h y d c	-0.00971479
-0.173696	c h y d a	-0.00971479
-0.164636	k h y d a	-0.00971479
-0.164636	t h y d a	-0.00971479
-0.164636	s h y d a	-0.00971479
-1.00575	o d y d </unk>
-0.186563	o d y d a	-0.00971479
-1.26248	l d y d l	-0.00971479
-0.157286	l k y d a	-0.00971479
-0.157286	r k y d a	-0.00971479
-0.157286	y k y d a	-0.00971479
-0.157286	<unk> k y d a	-0.00971479
-0.157286	o k y d a	-0.00971479
-0.157286	h k y d a	-0.00971479
-0.165072	<unk> t y d a	-0.00971479
-0.91873	h e y d o	-0.00971479
-0.175987	h e y d a	-0.0174731
-0.171208	e e y d a	-0.00971479
-0.891753	t e y d o	-0.00971479
-0.159027	o l y d a	-0.0174731
-0.962446	t o y d </unk>
-0.75671	i i n d o	-0.0174731
-0.24135	i i n d a	-0.0174731
-1.22678	a i n d d	-0.00971479
-0.233999	a i n d a	-0.0174731
-0.224639	h a n d a	-0.00971479
-0.404503	<unk> a l d o	-0.00971479
-0.360274	o a l d a	-0.00971479
-0.404503	k a l d o	-0.00971479
-0.360274	t a l d a	-0.00971479
-0.404503	h a l d o	-0.00971479
-1.29919	h o l d </unk>
-1.09633	h o l d c	-0.0174731
-0.493075	h o l d o	-0.00971479
-0.324536	h o l d a	-0.037377
-0.429255	e o l d o	-0.00971479
-0.365343	e o l d a	-0.00971479
-0.416895	k o l d o	-0.0174731
-0.373369	k o l d a	-0.00971479
-0.419156	t o l d o	-0.00971479
-0.419156	<unk> o l d o	-0.00971479
-0.355564	d o l d a	-0.00971479
-0.969993	i i l d y	-0.00971479
-0.163985	a i r d a	-0.00971479
-0.152159	h o r d a	-0.0238128
-0.158213	e o r d a	-0.00971479
-0.22367	h o m d a	-0.00971479
-0.436864	a i i d y	-0.0174731
-0.826561	i n d d c	-0.00971479
-0.249417	o k a d a	-0.00971479
-0.672989	h p a d y	-0.00971479
-0.653711	q o p a l	-0.00971479
-0.94704	c h p a d	-0.00971479
-0.569293	p h o a l	-0.00971479
-0.791617	h e o a r	-0.00971479
-0.427662	m k o a i	-0.00971479
-0.427662	y k o a i	-0.00971479
-0.569293	o d o a l	-0.00971479
-0.790817	h o d a r	-0.0174731
-0.276575	h o d a i	-0.037377
-0.969626	h o d a l	-0.00971479
-1.02856	h o d a m	-0.00971479
-1.19251	f o d a n	-0.00971479
-0.901625	k o d a r	-0.00971479
-0.888112	k o d a l	-0.00971479
-0.261325	e o d a i	-0.00971479
-0.888112	e o d a l	-0.00971479
-0.913789	q o d a r	-0.00971479
-0.254874	q o d a i	-0.0174731
-0.251975	l o d a i	-0.00971479
-1.37219	d y d a o	-0.00971479
-0.936368	k y d a r	-0.00971479
-0.262201	k y d a i	-0.0290909
-0.965395	k y d a m	-0.00971479
-0.262607	t y d a i	-0.00971479
-0.265233	e y d a i	-0.0174731
-0.895676	e y d a l	-0.00971479
-0.233771	h y d a i	-0.0238128
-0.93628	h y d a l	-0.00971479
-0.897779	l y d a r	-0.00971479
-0.271997	l y d a i	-0.00971479
-0.887228	i r d a m	-0.00971479
-0.218021	o r d a i	-0.0290909
-0.887228	<unk> r d a m	-0.00971479
-0.846568	o m d a m	-0.00971479
-0.987415	o l d a r	-0.00971479
-0.27067	o l d a i	-0.037377
-0.808468	o l d a m	-0.00971479
-1.24537	a l d a </unk>
-0.759978	a l d a m	-0.00971479
-0.28401	<unk> l d a i	-0.00971479
-1.23599	i n d a </unk>
-0.279669	i n d a i	-0.0174731
-1.13878	i n d a n	-0.00971479
-1.09073	a n d a n	-0.00971479
-0.269688	<unk> n d a i	-0.00971479
-0.261578	k a d a i	-0.00971479
-0.850933	y c h a r	-0.0174731
-0.58373	y c h a i	-0.00971479
-0.446614	s c h a m	-0.00971479
-0.597785	t c h a i	-0.00971479
-0.831581	t c h a l	-0.0174731
-0.459305	t c h a m	-0.0174731
-0.446614	k c h a m	-0.00971479
-1.12232	<unk> c h a n	-0.00971479
-1.21874	r c h a </unk>
-0.848362	r c h a l	-0.00971479
-0.369176	m c h a m	-0.0174731
-0.446614	l c h a m	-0.00971479
-0.789027	c f h a r	-0.00971479
-0.714954	c f h a m	-0.00971479
-0.438568	n s h a i	-0.0174731
-1.0239	r s h a n	-0.00971479
-1.24147	y s h a c	-0.00971479
-0.796678	s s h a r	-0.00971479
-0.730325	c t h a l	-0.00971479
-0.687867	h a r a m	-0.00971479
-0.739537	h o r a l	-0.00971479
-0.939553	y o r a n	-0.00971479
-0.785765	<unk> o r a r	-0.00971479
-0.712689	l o r a m	-0.00971479
-1.12994	t e e a y	-0.00971479
-0.396166	e e e a r	-0.00971479
-0.396166	r e e a r	-0.00971479
-0.396166	h e e a r	-0.00971479
-0.525001	c h e a r	-0.00971479
-0.540266	c h e a i	-0.00971479
-0.773057	s h e a m	-0.00971479
-0.752888	y t e a m	-0.00971479
-0.854232	l o k a r	-0.00971479
-1.14464	l o k a y	-0.00971479
-0.805053	l o k a l	-0.00971479
-1.12472	y o k a d	-0.00971479
-0.459168	m o k a i	-0.00971479
-0.812168	e y k a m	-0.00971479
-0.435864	s h k a i	-0.00971479
-1.00946	d y t a o	-0.00971479
-0.360383	q o t a i	-0.00971479
-0.360383	r o t a i	-0.00971479
-0.733225	m o t a l	-0.00971479
-0.35973	c h t a i	-0.00971479
-0.208625	a n s a i	-0.0174731
-0.21348	i n s a i	-0.00971479
-0.210683	o l s a i	-0.0238128
-0.917353	a l s a m	-0.00971479
-0.829453	k y s a l	-0.00971479
-0.219762	q o s a i	-0.00971479
-0.948773	o d a i r	-0.0238128
-0.195666	o d a i i	-0.037377
-0.767115	o d a i n	-0.00971479
-1.02181	l d a i r	-0.00971479
-0.188308	l d a i i	-0.037377
-1.55924	l d a i m	-0.00971479
-0.193075	y d a i i	-0.040689
-0.699981	y d a i n	-0.0290909
-0.191779	n d a i i	-0.0174731
-0.726905	n d a i n	-0.00971479
-1.31754	<unk> d a i </unk>
-0.932006	r d a i r	-0.0174731
-0.198938	r d a i i	-0.0174731
-0.187349	a d a i i	-0.00971479
-0.173001	o t a i i	-0.0174731
-0.176848	h t a i i	-0.00971479
-1.33006	o k a i *	-0.00971479
-0.18902	h k a i i	-0.00971479
-0.178833	s h a i i	-0.0174731
-0.191955	c h a i i	-0.00971479
-0.706261	c h a i n	-0.00971479
-0.165563	n s a i i	-0.0238128
-0.165563	l s a i i	-0.0238128
-0.172265	o s a i i	-0.00971479
-0.181815	<unk> l a i i	-0.00971479
-0.181815	h e a i i	-0.00971479
-0.175025	k o a i i	-0.0174731
-1.31478	d a i i </unk>
-1.4656	d a i i r	-0.00971479
-1.52865	d a i i d	-0.00971479
-1.08347	d a i i i	-0.00971479
-0.136237	d a i i n	-0.0763826
-1.74026	d a i i l	-0.00971479
-1.63386	d a i i m	-0.00971479
-0.130393	t a i i n	-0.0238128
-0.13544	k a i i n	-0.00971479
-0.132635	<unk> a i i n	-0.0174731
-1.34892	h a i i d	-0.00971479
-0.140949	h a i i n	-0.0174731
-0.115593	s a i i n	-0.040689
-0.13544	l a i i n	-0.00971479
-0.13544	e a i i n	-0.00971479
-0.132635	o a i i n	-0.0174731
-0.150134	o o i i n	-0.00971479
-0.150134	d o i i n	-0.00971479
-0.152471	a i i i n	-0.00971479
-0.847785	c h o i </unk>
-0.506647	k o o i i	-0.00971479
-1.00081	o k o i s	-0.00971479
-0.506647	y d o i i	-0.00971479
-0.506034	s h o * o	-0.00971479
-0.618058	k a i * q	-0.00971479
-0.0699232	t h y q o	-0.0174731
-0.0712928	s h y q o	-0.00971479
-0.0693775	e e y q o	-0.0174731
-0.0693775	h e y q o	-0.0174731
-0.939479	o d y q </unk>
-0.0868816	o d y q o	-0.00971479
-0.0780574	i d y q o	-0.00971479
-0.0781611	e e s q o	-0.00971479
-0.0781611	e o s q o	-0.00971479
-0.764293	c h o q </unk>
-0.0582742	i i n q o	-0.0290909
-0.0559546	r o l q o	-0.00971479
-0.0540513	h o l q o	-0.0238128
-0.0559546	e o l q o	-0.00971479
-0.0781611	d a m q o	-0.00971479
-0.0781611	e o m q o	-0.00971479
-0.0781994	h o r q o	-0.0335538
-0.845022	a i r q </unk>
-0.0826821	a i * q o	-0.00971479
-0.534007	o d y p o	-0.00971479
-0.402256	n y y p c	-0.00971479
-0.549834	i r c p h	-0.00971479
-0.549834	i n c p h	-0.00971479
-0.369364	h e o p c	-0.00971479
-0.791898	s q o p a	-0.00971479
-0.383372	n q o p c	-0.00971479
-0.675861	r q o p o	-0.00971479
-0.876684	o m o p </unk>
-0.369364	<unk> l o p c	-0.00971479
-0.327788	h o m p c	-0.00971479
-0.327788	s a m p c	-0.00971479
-0.663093	y c h p a	-0.00971479
-0.234329	s h o s h	-0.0174731
-0.76905	k e o s c	-0.00971479
-1.0902	h e o s q	-0.00971479
-0.239964	a m o s h	-0.00971479
-0.239964	<unk> m o s h	-0.00971479
-0.76905	r q o s c	-0.00971479
-0.910672	l q o s a	-0.00971479
-1.0196	e e e s q	-0.00971479
-0.674621	h e e s c	-0.00971479
-0.960075	r e e s </unk>
-1.02221	h o l s c	-0.00971479
-0.294329	h o l s h	-0.0174731
-1.14457	h o l s o	-0.00971479
-0.817701	h o l s a	-0.00971479
-0.27124	k o l s h	-0.0174731
-0.287533	<unk> o l s h	-0.00971479
-1.33511	<unk> o l s e	-0.00971479
-0.776876	n o l s a	-0.00971479
-1.23014	e o l s </unk>
-0.295281	e o l s h	-0.00971479
-0.800826	e o l s a	-0.00971479
-1.04791	s o l s s	-0.00971479
-0.278084	l o l s h	-0.00971479
-0.972241	y d l s s	-0.00971479
-0.27532	s a l s h	-0.00971479
-0.759839	d a l s a	-0.00971479
-0.234643	d y t s h	-0.00971479
-0.234643	e y t s h	-0.00971479
-0.248522	n y k s h	-0.00971479
-0.248522	l e k s h	-0.00971479
-0.934382	q o k s </unk>
-0.255747	k o i s h	-0.00971479
-0.247139	k h y s h	-0.00971479
-0.797069	t h y s c	-0.00971479
-0.256471	t h y s h	-0.00971479
-0.247139	<unk> h y s h	-0.00971479
-0.241284	t o y s h	-0.0174731
-1.03803	h o y s s	-0.00971479
-0.247139	m o y s h	-0.00971479
-0.243761	o r y s h	-0.00971479
-0.243761	a r y s h	-0.00971479
-0.980587	o d y s o	-0.00971479
-0.255501	a d y s h	-0.00971479
-0.926773	y k y s a	-0.00971479
-0.185927	d l s s h	-0.00971479
-0.185927	o l s s h	-0.00971479
-0.188954	o y s s h	-0.00971479
-0.188954	a m s s h	-0.00971479
-0.82095	d a m s o	-0.00971479
-1.08311	h a m s y	-0.00971479
-0.968668	h a m s s	-0.00971479
-0.285835	h o m s h	-0.00971479
-0.285835	r o m s h	-0.00971479
-0.285835	d o m s h	-0.00971479
-0.799578	e e m s o	-0.00971479
-0.176534	d a r s h	-0.0174731
-0.180478	h a r s h	-0.00971479
-0.152368	l o r s h	-0.00971479
-0.152368	h o r s h	-0.00971479
-0.152368	* o r s h	-0.00971479
-0.18557	a i r s h	-0.00971479
-0.235425	i i n s h	-0.0335538
-0.869098	i i n s o	-0.0174731
-0.838632	i i n s a	-0.00971479
-0.206203	a i n s h	-0.0174731
-0.666344	d a n s a	-0.00971479
-0.666344	h a n s a	-0.00971479
-0.85083	a r a m </unk>
-0.927357	o r a m k	-0.00971479
-0.856177	r d a m s	-0.00971479
-1.1305	r d a m q	-0.00971479
-0.426536	m d a m o	-0.00971479
-0.897069	l d a m </unk>
-0.436676	l d a m o	-0.00971479
-0.426536	y d a m o	-0.00971479
-0.426536	o d a m o	-0.00971479
-0.402889	c h a m c	-0.0335538
-0.692353	c h a m o	-0.00971479
-0.793175	c h a m s	-0.00971479
-0.716571	f h a m s	-0.00971479
-1.04948	l s a m p	-0.00971479
-0.42823	y k a m o	-0.00971479
-0.97706	h e a m y	-0.00971479
-0.927357	t e a m k	-0.00971479
-0.926363	d a i m m	-0.00971479
-0.744326	a i i m c	-0.00971479
-0.719354	a i m m y	-0.00971479
-0.703239	t h o m o	-0.00971479
-1.12034	t h o m p	-0.00971479
-0.916904	c h o m </unk>
-0.714289	c h o m c	-0.0174731
-0.734989	c h o m o	-0.00971479
-1.2849	c h o m t	-0.00971479
-0.754626	c h o m s	-0.00971479
-1.1971	s h o m d	-0.00971479
-0.668864	a r o m s	-0.00971479
-0.981808	k e o m y	-0.00971479
-1.08125	k e o m q	-0.00971479
-0.837359	o e o m </unk>
-0.668864	l d o m s	-0.00971479
-0.665687	o l o m o	-0.00971479
-0.676538	o k o m c	-0.00971479
-0.612105	l e e m s	-0.00971479
-0.431531	a r c f h	-0.00971479
-0.431531	<unk> r c f h	-0.00971479
-0.584703	h o l f o	-0.00971479
-0.580023	o r o f c	-0.00971479
-0.569662	t c h e y	-0.0238128
-0.794967	t c h e e	-0.00971479
-0.899317	k c h e </unk>
-0.40934	k c h e o	-0.00971479
-0.91145	o c h e </unk>
-0.3978	o c h e o	-0.0174731
-0.899317	p c h e </unk>
-0.40934	p c h e o	-0.00971479
-1.52685	r c h e k	-0.00971479
-0.666134	r c h e y	-0.00971479
-0.447377	r c h e o	-0.0174731
-0.914568	r c h e a	-0.0174731
-0.762364	m c h e e	-0.00971479
-0.625311	s c h e y	-0.00971479
-0.406105	s c h e o	-0.0174731
-0.794967	s c h e e	-0.00971479
-0.921677	y c h e </unk>
-0.625311	y c h e y	-0.00971479
-0.406105	y c h e o	-0.0174731
-0.40934	n c h e o	-0.00971479
-1.48075	n c h e t	-0.00971479
-0.399345	l c h e o	-0.00971479
-0.56796	k s h e e	-0.00971479
-0.424612	t s h e o	-0.0174731
-1.22995	l s h e </unk>
-0.636926	l s h e y	-0.00971479
-0.553387	l s h e e	-0.0238128
-1.23911	n s h e a	-0.00971479
-0.57902	n s h e e	-0.00971479
-0.60181	<unk> s h e y	-0.00971479
-0.613139	s s h e y	-0.00971479
-0.447994	s s h e o	-0.00971479
-0.424612	y s h e o	-0.0174731
-1.38853	i s h e c	-0.00971479
-0.437791	r s h e o	-0.00971479
-0.534908	c t h e y	-0.00971479
-0.478344	<unk> y t e e	-0.00971479
-0.484583	m y t e o	-0.00971479
-1.0122	m y t e a	-0.00971479
-0.77758	q o t e y	-0.00971479
-0.469228	q o t e e	-0.0174731
-0.469549	r o t e o	-0.00971479
-0.469549	<unk> o t e o	-0.00971479
-0.44172	h o k e o	-0.0174731
-0.812767	q o k e y	-0.00971479
-0.451399	q o k e e	-0.0238128
-0.466068	r o k e o	-0.00971479
-0.477467	r o k e e	-0.00971479
-0.455762	<unk> o k e o	-0.00971479
-0.990737	o l k e </unk>
-0.458619	e y k e o	-0.00971479
-0.470458	o y k e e	-0.00971479
-0.450045	h e k e o	-0.00971479
-0.846894	y t e e a	-0.00971479
-0.706737	o t e e o	-0.00971479
-0.65481	o t e e e	-0.00971479
-0.457637	y k e e y	-0.00971479
-0.442669	o k e e y	-0.0238128
-0.736342	o k e e o	-0.00971479
-0.414019	s h e e y	-0.0335538
-0.473722	c h e e y	-0.00971479
-0.898252	c h e e a	-0.00971479
-1.05001	c h e e s	-0.00971479
-0.625633	l o e e e	-0.00971479
-0.996849	o e e e s	-0.00971479
-0.493944	t e e e y	-0.00971479
-1.11956	s e e e </unk>
-0.85416	y e e e a	-0.00971479
-1.27199	o l e e m	-0.00971479
-0.686707	a l e e o	-0.00971479
-0.625633	l s e e e	-0.00971479
-0.625633	n y e e e	-0.00971479
-1.31801	a r e e n	-0.00971479
-1.00449	a r e e s	-0.00971479
-0.846894	o r e e a	-0.00971479
-0.513149	o l o e e	-0.00971479
-0.445758	m s o e o	-0.00971479
-0.445758	<unk> q o e o	-0.00971479
-0.988222	e o l e k	-0.00971479
-0.392891	s o l e e	-0.00971479
-0.384733	h a l e e	-0.00971479
-0.462704	o l s e e	-0.00971479
-0.462704	e n y e e	-0.00971479
-0.388247	d a r e e	-0.00971479
-0.388247	e a r e e	-0.00971479
-0.396481	e o r e e	-0.00971479
-0.978064	h e y t </unk>
-0.925573	e e y t s	-0.00971479
-1.07413	o d y t a	-0.00971479
-0.94089	o d y t s	-0.00971479
-0.67334	o m y t e	-0.00971479
-0.67334	a m y t e	-0.00971479
-0.45948	i r y t c	-0.00971479
-0.892622	o r y t o	-0.00971479
-0.879006	o l y t o	-0.00971479
-0.4509	k a y t c	-0.00971479
-0.440851	k h y t c	-0.00971479
-0.440851	c h y t c	-0.00971479
-0.948443	h y y t y	-0.00971479
-0.186942	e y c t h	-0.00971479
-0.182825	h y c t h	-0.0174731
-0.186942	<unk> y c t h	-0.00971479
-0.186942	t y c t h	-0.00971479
-0.154153	o l c t h	-0.0335538
-0.164723	<unk> l c t h	-0.00971479
-0.966316	o r c t </unk>
-0.190912	o r c t h	-0.0290909
-0.909264	i n c t </unk>
-0.211852	i n c t h	-0.00971479
-0.188	c h c t h	-0.0174731
-0.195417	m o c t h	-0.00971479
-0.696352	c h e t y	-0.00971479
-0.394493	y k o t c	-0.00971479
-0.807461	y p o t o	-0.00971479
-0.275309	o r o t c	-0.0174731
-0.954608	<unk> r o t a	-0.00971479
-0.291758	a r o t c	-0.00971479
-0.877123	a r o t e	-0.00971479
-0.404368	o m o t c	-0.00971479
-0.882279	o m o t a	-0.00971479
-0.394398	a m o t c	-0.00971479
-0.375432	c h o t c	-0.0174731
-0.361479	i n o t c	-0.0238128
-0.922429	o q o t a	-0.00971479
-0.458072	l q o t c	-0.00971479
-0.832682	l q o t y	-0.00971479
-0.81902	s q o t y	-0.00971479
-0.749877	y q o t e	-0.0174731
-0.447812	m q o t c	-0.00971479
-0.88261	r q o t o	-0.00971479
-1.11546	<unk> q o t </unk>
-0.800901	<unk> q o t e	-0.00971479
-0.807461	n d o t o	-0.00971479
-0.807461	t y o t o	-0.00971479
-0.72911	r s h t y	-0.00971479
-0.82209	y c h t a	-0.00971479
-0.472234	h o m t c	-0.00971479
-1.13885	i r o l q	-0.00971479
-0.660123	o r o l c	-0.00971479
-1.00827	o r o l y	-0.00971479
-0.630817	y k o l d	-0.0174731
-0.669687	o k o l c	-0.0174731
-0.764627	o k o l o	-0.00971479
-0.69989	o k o l d	-0.00971479
-0.733673	o k o l s	-0.0174731
-1.09742	l k o l k	-0.00971479
-0.632951	h e o l c	-0.00971479
-0.738963	h e o l o	-0.0174731
-0.72957	h e o l d	-0.0174731
-1.43423	h e o l e	-0.00971479
-0.767927	h e o l s	-0.0174731
-0.603846	k e o l c	-0.00971479
-0.735885	k e o l o	-0.00971479
-0.766023	k e o l s	-0.00971479
-0.594643	t e o l c	-0.00971479
-1.23545	t e o l q	-0.00971479
-0.583463	<unk> e o l c	-0.00971479
-0.713291	e e o l o	-0.00971479
-0.688683	o t o l o	-0.00971479
-0.656662	y t o l d	-0.00971479
-0.715334	l s o l s	-0.00971479
-1.00827	n s o l y	-0.00971479
-1.25049	n s o l e	-0.00971479
-0.964825	d y o l y	-0.00971479
-0.688683	i n o l o	-0.00971479
-0.707304	a n o l s	-0.00971479
-1.02574	o l o l </unk>
-0.683785	o l o l c	-0.00971479
-0.752916	o l o l s	-0.00971479
-0.534346	l d o l c	-0.0290909
-0.61736	l d o l o	-0.0174731
-0.798924	l d o l d	-0.00971479
-0.595395	o d o l o	-0.00971479
-0.764306	s h o l o	-0.00971479
-0.685476	s h o l d	-0.0174731
-1.6396	s h o l f	-0.00971479
-0.789614	s h o l s	-0.00971479
-1.29288	s h o l q	-0.00971479
-1.39806	c h o l </unk>
-1.25504	c h o l k	-0.0174731
-0.691264	c h o l c	-0.0290909
-1.20015	c h o l y	-0.00971479
-0.773419	c h o l o	-0.0335538
-0.660363	c h o l d	-0.037377
-0.846282	c h o l s	-0.0174731
-1.15105	c h o l q	-0.0174731
-1.07124	t h o l y	-0.00971479
-0.694043	t h o l d	-0.00971479
-0.766801	t h o l s	-0.00971479
-1.03895	k h o l y	-0.00971479
-0.684183	<unk> h o l d	-0.00971479
-0.756301	<unk> h o l s	-0.00971479
-0.630804	q o o l c	-0.00971479
-1.08037	y p o l </unk>
-0.469761	h o a l d	-0.00971479
-0.964281	d o a l y	-0.00971479
-0.57942	o p a l c	-0.00971479
-0.461111	o k a l d	-0.00971479
-0.461111	o t a l d	-0.00971479
-0.599455	y d a l c	-0.00971479
-1.01909	y d a l o	-0.00971479
-0.60869	o d a l c	-0.00971479
-1.02149	o d a l y	-0.00971479
-0.795078	o d a l s	-0.00971479
-0.602378	c h a l c	-0.00971479
-0.500079	c h a l d	-0.00971479
-1.22595	c h a l e	-0.00971479
-0.582016	t h a l c	-0.00971479
-1.04939	o r a l </unk>
-0.73972	y s a l s	-0.00971479
-0.448543	a i i l d	-0.00971479
-0.571321	d y d l s	-0.00971479
-1.73598	a i i n k	-0.00971479
-0.521556	a i i n c	-0.0504435
-1.16697	a i i n y	-0.0174731
-0.862216	a i i n o	-0.067758
-0.865044	a i i n d	-0.0290909
-0.694527	a i i n s	-0.040689
-0.948836	a i i n q	-0.0335538
-0.609822	<unk> i i n s	-0.00971479
-0.496021	o i i n c	-0.0174731
-0.513051	i i i n c	-0.00971479
-0.504987	d a i n c	-0.00971479
-0.996075	d a i n y	-0.00971479
-0.73516	d a i n d	-0.0174731
-0.573658	d a i n s	-0.00971479
-0.723685	h a i n d	-0.00971479
-0.467692	<unk> a i n c	-0.00971479
-0.732044	n d a n o	-0.00971479
-0.581595	n d a n s	-0.00971479
-0.806425	o d a n y	-0.00971479
-0.748305	s h a n d	-0.00971479
-0.563594	c h a n s	-0.00971479
-0.952648	o r a n </unk>
-0.67614	r e e n y	-0.00971479

\6-grams:
-0.623561	a i i n k c	-0.00212775
-0.757389	l k o l k e	-0.00212775
-0.962167	c h o l k </unk>
-0.622354	c h o l k y	-0.00212775
-0.425307	o d y o k o	-0.0037297
-0.774352	h e y o k a	-0.00212775
-1.24335	y c h o k </unk>
-0.924908	y c h o k y	-0.00212775
-0.722143	y c h o k e	-0.00212775
-0.842265	k c h o k c	-0.00212775
-0.492286	n c h o k o	-0.00212775
-0.46072	s s h o k o	-0.00212775
-0.442638	i i n o k o	-0.00212775
-0.915898	h o l o k y	-0.00212775
-0.699945	h o l o k a	-0.0037297
-0.837548	e o l o k c	-0.00212775
-0.706018	e o l o k a	-0.00212775
-0.563189	e y q o k o	-0.00212775
-0.456147	e y q o k e	-0.0037297
-0.456716	h y q o k e	-0.00212775
-0.456716	d y q o k e	-0.00212775
-0.929875	o l q o k y	-0.00212775
-0.876907	i n q o k c	-0.0037297
-1.21678	i n q o k s	-0.00212775
-0.525835	o m q o k o	-0.00212775
-0.424609	h o r o k o	-0.0037297
-0.669817	a i r o k e	-0.00212775
-0.450691	d a r o k o	-0.00212775
-0.681553	e a r o k e	-0.00212775
-0.754475	k a m o k a	-0.00212775
-0.180641	d a o c k h	-0.00212775
-0.17276	k h o c k h	-0.0037297
-0.173544	s h o c k h	-0.00212775
-0.215317	k h y c k h	-0.00212775
-0.215317	e e y c k h	-0.00212775
-0.218955	n c h c k h	-0.00212775
-0.218955	s h a c k h	-0.00212775
-0.218955	e a r c k h	-0.00212775
-0.800901	e o l e k s	-0.00212775
-0.654323	r c h e k e	-0.00212775
-0.37705	c t h y k o	-0.0037297
-0.787597	y c h y k y	-0.00212775
-0.76173	k c h y k c	-0.00212775
-0.44758	h e y y k o	-0.00212775
-0.44758	k e y y k o	-0.00212775
-0.682771	a m s y k c	-0.00212775
-0.481404	o l o y k o	-0.00212775
-0.778171	s h o y k e	-0.00212775
-0.71914	i i n y k y	-0.00212775
-0.988296	d a n y k s	-0.00212775
-0.786755	<unk> h e y k e	-0.00212775
-0.967182	h e e y k a	-0.00212775
-0.71312	<unk> e e y k c	-0.00212775
-0.682771	s h t y k c	-0.00212775
-0.472768	h o l y k o	-0.00212775
-0.616238	o d a r k y	-0.00212775
-0.570153	h e o r k o	-0.00212775
-0.688596	c h o r k c	-0.00212775
-0.453399	o r a m k o	-0.00212775
-0.453399	t e a m k o	-0.00212775
-0.758369	a r s h k a	-0.00212775
-0.593177	a l c h k y	-0.00212775
-1.27799	l d o l c </unk>
-0.13338	l d o l c h	-0.0037297
-0.765229	l d o l c t	-0.00212775
-0.13338	c h o l c h	-0.0037297
-0.718749	c h o l c t	-0.00497932
-0.11807	o l o l c h	-0.00212775
-0.11807	q o o l c h	-0.00212775
-0.115186	o k o l c h	-0.0037297
-0.121349	<unk> e o l c h	-0.00212775
-0.121349	h e o l c h	-0.00212775
-0.121349	t e o l c h	-0.00212775
-0.757787	k e o l c t	-0.00212775
-0.11807	o r o l c h	-0.00212775
-0.12628	y d a l c h	-0.00212775
-0.12628	o d a l c h	-0.00212775
-0.12893	o p a l c h	-0.00212775
-0.12628	c h a l c h	-0.00212775
-0.12628	t h a l c h	-0.00212775
-0.0928082	c h y d c h	-0.00212775
-0.0893166	h o l d c h	-0.0037297
-0.0928082	i n d d c h	-0.00212775
-0.0881252	n y y p c h	-0.00212775
-0.0859691	h e o p c h	-0.00212775
-0.0859691	n q o p c h	-0.00212775
-0.0859691	<unk> l o p c h	-0.00212775
-0.0868733	h o m p c h	-0.00212775
-0.0868733	s a m p c h	-0.00212775
-0.610491	y d a o c k	-0.00212775
-0.566063	c k h o c k	-0.0037297
-0.193387	n s h o c h	-0.00212775
-0.603292	o s h o c k	-0.00212775
-0.165385	a m s o c h	-0.00212775
-0.165385	d y s o c h	-0.00212775
-0.16801	t h y o c h	-0.00212775
-0.16801	d o t o c h	-0.00212775
-0.16801	<unk> o l o c h	-0.00212775
-0.184144	h a m o c h	-0.00212775
-0.979422	d a m o c t	-0.00212775
-0.16801	o r q o c h	-0.00212775
-1.09425	c h a r c f	-0.00212775
-0.104138	o d a r c h	-0.00212775
-0.104138	y d a r c h	-0.00212775
-1.12668	e e a r c k	-0.00212775
-1.2011	d a i r c p	-0.00212775
-0.0881483	t a o r c h	-0.00212775
-0.083564	l d o r c h	-0.0037297
-0.0839047	y d o r c h	-0.00212775
-0.0839047	n d o r c h	-0.00212775
-0.561091	s h o r c t	-0.00212775
-0.197554	c h o r c h	-0.00680271
-0.561104	c h o r c t	-0.00598134
-0.195212	<unk> h o r c h	-0.00212775
-0.0819818	h e o r c h	-0.00680271
-0.0881483	o r o r c h	-0.00212775
-0.0881483	r k o r c h	-0.00212775
-0.0968777	s c h r c h	-0.00212775
-0.81175	y s h a c k	-0.00212775
-0.815418	o r o f c </unk>
-0.955507	i n c h c k	-0.00212775
-0.66897	i n c h c t	-0.0037297
-0.165616	m o s h c h	-0.00212775
-1.11203	c h a m c </unk>
-0.0863646	c h a m c h	-0.00598134
-0.0785834	o k o m c h	-0.00212775
-0.0767505	c h o m c h	-0.0037297
-0.0805366	a i i m c h	-0.00212775
-0.815418	i s h e c </unk>
-0.0916737	a i i n c h	-0.070266
-1.09931	a i i n c t	-0.00212775
-1.48659	a i i n c p	-0.00212775
-1.30837	o i i n c </unk>
-0.0931988	o i i n c h	-0.00212775
-0.0912774	i i i n c h	-0.00212775
-0.0856489	<unk> a i n c h	-0.00212775
-0.0856489	d a i n c h	-0.00212775
-0.114394	i i n k c h	-0.00212775
-0.110595	h t y k c h	-0.00212775
-0.110595	e e y k c h	-0.00212775
-0.110595	m s y k c h	-0.00212775
-0.110595	c h y k c h	-0.00212775
-0.813613	c h o k c </unk>
-0.118497	n q o k c h	-0.0037297
-0.813613	o l o k c </unk>
-0.114394	h o r k c h	-0.00212775
-0.0407198	y k o t c h	-0.00212775
-0.0392067	o r o t c h	-0.0037297
-0.0393584	a r o t c h	-0.00212775
-0.0399646	a m o t c h	-0.00212775
-0.0399646	o m o t c h	-0.00212775
-0.0398105	c h o t c h	-0.0037297
-0.0390889	i n o t c h	-0.00497932
-0.0399646	l q o t c h	-0.00212775
-0.0399646	m q o t c h	-0.00212775
-0.0417927	k a y t c h	-0.00212775
-0.0410166	k h y t c h	-0.00212775
-0.0410166	c h y t c h	-0.00212775
-0.0417927	i r y t c h	-0.00212775
-0.0433715	h o m t c h	-0.00212775
-0.0733229	h o d y c h	-0.0037297
-0.0736181	<unk> o d y c h	-0.00212775
-0.0762733	i i d y c h	-0.00212775
-0.0836972	h e t y c h	-0.00212775
-0.0836972	q o t y c h	-0.00212775
-0.919183	y y t y c t	-0.00212775
-0.0753916	h o k y c h	-0.00212775
-0.0753916	q o k y c h	-0.00212775
-0.0768782	o l k y c h	-0.00212775
-0.078785	t h y y c h	-0.00212775
-0.078785	<unk> h s y c h	-0.00212775
-0.0768782	h o l y c h	-0.00212775
-0.0753916	d a l y c h	-0.00212775
-0.0753916	o a l y c h	-0.00212775
-0.078785	c h r y c h	-0.00212775
-0.078785	i m m y c h	-0.00212775
-0.08191	c h e y c h	-0.0037297
-1.1935	h e e y c k	-0.00212775
-0.985337	h e e y c t	-0.00212775
-0.0970209	k e e y c h	-0.00212775
-0.0970209	e e e y c h	-0.00212775
-0.078785	e e a y c h	-0.00212775
-1.147	c k h y c k	-0.00212775
-0.922567	c t h y c t	-0.00212775
-0.0841365	<unk> s h y c h	-0.00212775
-0.0841365	l s h y c h	-0.00212775
-0.0822082	l c h y c h	-0.00497932
-1.01193	l c h y c t	-0.00212775
-0.0812055	<unk> c h y c h	-0.00212775
-0.0812055	t c h y c h	-0.00212775
-0.078785	i i n y c h	-0.00212775
-0.0849855	h e e s c h	-0.00212775
-0.0841029	t h y s c h	-0.00212775
-0.0930566	k e o s c h	-0.00212775
-1.00555	r q o s c </unk>
-0.0862074	h o l s c h	-0.00212775
-1.28654	d o l c h </unk>
-0.281064	d o l c h o	-0.00212775
-0.739133	l o l c h y	-0.00212775
-0.27897	o o l c h o	-0.00212775
-0.27897	<unk> o l c h o	-0.00212775
-0.742156	k o l c h y	-0.00212775
-0.281064	k o l c h o	-0.00212775
-0.277532	h o l c h o	-0.0037297
-0.793375	e o l c h y	-0.00212775
-0.239178	e o l c h o	-0.0037297
-0.841316	r o l c h e	-0.00212775
-0.75882	d a l c h y	-0.00212775
-0.294645	d a l c h o	-0.00212775
-0.292535	p a l c h o	-0.00212775
-1.55074	h a l c h k	-0.00212775
-1.04146	h a l c h a	-0.00212775
-0.243572	d a r c h o	-0.0037297
-0.239566	a o r c h o	-0.00212775
-0.239321	d o r c h o	-0.00497932
-0.701259	d o r c h e	-0.00212775
-0.236157	e o r c h o	-0.00598134
-0.242097	h o r c h o	-0.00497932
-1.04812	h o r c h a	-0.00212775
-0.697777	h o r c h e	-0.0037297
-1.03327	<unk> o r c h a	-0.00212775
-0.239566	r o r c h o	-0.00212775
-0.239566	k o r c h o	-0.00212775
-0.646359	c h r c h e	-0.00212775
-0.250133	o s h c h o	-0.00212775
-0.265013	h a m c h o	-0.0037297
-0.875869	h a m c h a	-0.0037297
-0.255358	k o m c h o	-0.00212775
-0.257426	h o m c h o	-0.00212775
-0.731347	h o m c h e	-0.00212775
-0.252541	i i m c h o	-0.00212775
-1.24694	i i n c h </unk>
-1.19873	i i n c h c	-0.0037297
-0.27767	i i n c h o	-0.00748825
-0.748503	i i n c h e	-0.0037297
-1.19576	a i n c h c	-0.00212775
-0.276444	a i n c h o	-0.00212775
-0.267186	i n k c h o	-0.00212775
-0.249751	t y k c h o	-0.00212775
-0.754339	e y k c h e	-0.00212775
-0.983261	s y k c h y	-0.00212775
-0.249751	h y k c h o	-0.00212775
-0.948369	q o k c h y	-0.00212775
-0.286261	q o k c h o	-0.00212775
-0.714812	<unk> o k c h e	-0.00212775
-0.928704	o r k c h a	-0.00212775
-0.271957	k o t c h o	-0.00212775
-0.275673	r o t c h o	-0.00212775
-0.743245	r o t c h a	-0.0037297
-0.270567	m o t c h o	-0.0037297
-0.803285	h o t c h e	-0.0037297
-1.11236	n o t c h y	-0.00212775
-0.275673	n o t c h o	-0.00212775
-0.752479	n o t c h a	-0.00212775
-0.270567	<unk> o t c h o	-0.0037297
-0.274044	q o t c h o	-0.00212775
-0.750093	q o t c h a	-0.00212775
-0.852169	<unk> y t c h a	-0.00212775
-0.7622	a y t c h e	-0.00212775
-0.276415	h y t c h o	-0.0037297
-1.02036	r y t c h y	-0.00212775
-0.261497	o m t c h o	-0.00212775
-0.206121	o d y c h o	-0.00497932
-0.207862	i d y c h o	-0.00212775
-0.992574	e t y c h y	-0.00212775
-0.254457	o t y c h o	-0.00212775
-0.233662	o k y c h o	-0.0037297
-0.234807	l k y c h o	-0.00212775
-0.718002	h y y c h e	-0.00212775
-0.245207	h s y c h o	-0.00212775
-1.50918	o l y c h t	-0.00212775
-0.246979	a l y c h o	-0.0037297
-0.245207	h r y c h o	-0.00212775
-0.718002	m m y c h e	-0.00212775
-1.17856	h e y c h </unk>
-0.992122	h e y c h a	-0.00212775
-0.261829	<unk> e y c h o	-0.00212775
-0.263904	e e y c h o	-0.00212775
-0.758996	e e y c h e	-0.00212775
-0.940407	e a y c h a	-0.00212775
-0.940407	i n y c h a	-0.00212775
-0.240768	s h y c h o	-0.0037297
-1.20861	c h y c h </unk>
-0.243206	c h y c h o	-0.00497932
-1.66213	c h y c h p	-0.00212775
-0.669559	<unk> e s c h e	-0.00212775
-1.39304	e e s c h r	-0.00212775
-0.290029	<unk> y s c h o	-0.00212775
-0.957019	<unk> y s c h a	-0.00212775
-0.679138	h y s c h e	-0.00212775
-0.657931	e o s c h e	-0.00212775
-0.657931	o l s c h e	-0.00212775
-0.588662	m s o c h e	-0.00212775
-0.300358	y s o c h o	-0.00212775
-0.290941	h y o c h o	-0.00212775
-0.290941	o t o c h o	-0.00212775
-1.12483	s h o c h </unk>
-0.577689	o l o c h e	-0.00212775
-0.290941	a m o c h o	-0.00212775
-0.577689	r q o c h e	-0.00212775
-0.251166	y y p c h o	-0.00212775
-0.240437	e o p c h o	-0.00212775
-0.240437	q o p c h o	-0.00212775
-0.240437	l o p c h o	-0.00212775
-0.652591	o m p c h e	-0.00212775
-0.652591	a m p c h e	-0.00212775
-0.249131	h y d c h o	-0.00212775
-1.10136	o l d c h </unk>
-0.260467	o l d c h o	-0.00212775
-0.249131	n d d c h o	-0.00212775
-0.466309	a r c f h a	-0.00212775
-0.466309	<unk> r c f h a	-0.00212775
-0.474688	a o c k h y	-0.00212775
-0.473975	h o c k h y	-0.0037297
-0.358381	h o c k h o	-0.00212775
-0.321814	h y c k h o	-0.00212775
-0.321814	e y c k h o	-0.00212775
-0.330495	c h c k h o	-0.00212775
-0.330495	h a c k h o	-0.00212775
