[unifb]
-0.632335

\data\
ngram 1=20
ngram 2=180
ngram 3=567
ngram 4=982
ngram 5=1311
ngram 6=1508
ngram 7=1566
ngram 8=1541
ngram 9=1485
ngram 10=1419

\1-grams:
-0.973631	</unk>
-1.32451	k	-0.662314
-0.982073	c	-1.1271
-1.3539	h	-0.848517
-1.6877	r	-0.487041
-1.06744	y	-0.89774
-0.836951	o	-0.827669
-1.29699	d	-0.766681
-1.16742	a	-0.863349
-1.62776	i	-0.72186
-1.68901	n	-0.654356
-1.52543	l	-0.64992
-1.54011	t	-0.510996
-1.28801	e	-0.828022
-1.84574	f	-0.0997733
-1.62548	m	-0.434168
-1.18726	s	-0.661725
-1.75879	p	-0.392369
-1.54011	q	-0.622702
-1.87907	*	-0.0690507

\2-grams:
-1.08522	<unk> k	-0.441756
-1.01716	<unk> c	-0.436066
-1.08771	<unk> h	-0.39769
-1.44347	<unk> r	-0.221642
-1.21898	<unk> y	-0.256733
-0.92657	<unk> o	-0.392518
-1.25898	<unk> d	-0.256733
-1.14102	<unk> a	-0.399658
-1.26077	<unk> i	-0.256733
-1.75371	<unk> n	-0.157629
-1.05198	<unk> l	-0.396062
-1.72361	<unk> t	-0.157629
-1.43339	<unk> e	-0.276943
-1.54038	<unk> m	-0.221642
-1.00933	<unk> s	-0.294318
-2.09784	<unk> p	-0.100223
-1.72361	<unk> q	-0.157629
-2.13398	<unk> *	-0.100223
-1.08946	k </unk>
-0.839341	k c	-0.471325
-1.60519	k h	-0.39769
-0.847345	k y	-0.441756
-0.588346	k o	-0.406291
-1.22163	k a	-0.315587
-0.717425	k e	-0.335904
-1.29813	k s	-0.195131
-1.32571	c </unk>
-1.27983	c k	-0.546105
-0.12544	c h	-0.667809
-0.983599	c t	-0.833428
-2.26474	c f	-0.157629
-2.25256	c p	-0.100223
-1.40069	h </unk>
-1.86437	h k	-0.157629
-1.57047	h c	-0.195131
-2.18419	h r	-0.157629
-0.858069	h y	-0.403131
-0.411355	h o	-0.709419
-0.9843	h a	-0.486703
-1.81486	h t	-0.195131
-0.643971	h e	-0.393539
-1.97402	h s	-0.100223
-2.20347	h p	-0.100223
-1.2496	r </unk>
-1.28543	r k	-0.195131
-0.70117	r c	-0.508897
-0.928668	r y	-0.3008
-0.815143	r o	-0.340789
-1.04058	r d	-0.405148
-1.19189	r a	-0.241411
-1.75517	r l	-0.100223
-1.38214	r e	-0.195131
-0.904164	r s	-0.353035
-1.43584	r q	-0.345759
-1.20148	y </unk>
-0.941463	y k	-0.364254
-0.622653	y c	-0.595407
-1.45806	y y	-0.290459
-1.15626	y o	-0.357686
-0.785887	y d	-0.5512
-0.976491	y t	-0.392518
-2.02944	y e	-0.100223
-0.970253	y s	-0.365107
-1.61771	y p	-0.157629
-1.32115	y q	-0.431321
-1.11256	o </unk>
-0.927767	o k	-0.457837
-1.24523	o c	-0.485985
-0.915818	o r	-0.696177
-1.44081	o y	-0.315587
-1.70472	o o	-0.157629
-1.00394	o d	-0.694161
-1.51775	o a	-0.256733
-1.7943	o i	-0.276943
-0.646285	o l	-0.570298
-1.07547	o t	-0.544528
-1.86343	o e	-0.195131
-2.36778	o f	-0.100223
-1.54926	o m	-0.390867
-1.65541	o s	-0.355591
-1.60717	o p	-0.3008
-1.97035	o q	-0.157629
-2.37808	o *	-0.100223
-1.0139	d </unk>
-1.82695	d k	-0.100223
-1.39335	d c	-0.345759
-0.736115	d y	-0.388078
-0.822196	d o	-0.363289
-1.8169	d d	-0.100223
-0.351954	d a	-0.64998
-1.88865	d l	-0.100223
-0.960589	a </unk>
-1.79311	a c	-0.100223
-1.04489	a r	-0.410395
-1.67325	a y	-0.157629
-1.57542	a o	-0.157629
-1.74289	a d	-0.157629
-0.418227	a i	-0.708921
-1.29802	a n	-0.3008
-0.899746	a l	-0.340789
-0.901643	a m	-0.389023
-1.17179	i </unk>
-1.00707	i r	-0.308969
-1.51321	i d	-0.157629
-0.610591	i i	-0.552157
-0.385074	i n	-0.441179
-1.79822	i l	-0.100223
-1.7296	i e	-0.100223
-1.56363	i m	-0.157629
-0.596113	* o	-0.100223
-0.763847	* q	-0.100223
-1.21785	q </unk>
-0.0869213	q o	-0.442249
-1.14154	p </unk>
-0.442546	p c	-0.221642
-0.896294	p h	-0.157629
-0.807846	p o	-0.221642
-0.873888	p a	-0.157629
-1.40477	s </unk>
-0.997413	s c	-0.315587
-0.274243	s h	-0.553094
-1.46641	s y	-0.157629
-1.23009	s o	-0.3008
-1.04748	s a	-0.27896
-1.53267	s e	-0.157629
-1.27356	s s	-0.290459
-1.69262	s q	-0.157629
-1.16285	m </unk>
-1.26402	m k	-0.157629
-0.627781	m c	-0.357686
-0.971898	m y	-0.276943
-0.693167	m o	-0.423857
-1.64212	m t	-0.100223
-1.66657	m m	-0.100223
-0.974154	m s	-0.349847
-1.32618	m p	-0.157629
-1.30144	m q	-0.157629
-0.785912	f </unk>
-0.789182	f c	-0.100223
-0.897901	f h	-0.100223
-0.727444	f o	-0.100223
-1.36717	e </unk>
-1.50529	e k	-0.195131
-1.57839	e c	-0.157629
-0.632907	e y	-0.436496
-0.576241	e o	-0.539503
-1.30476	e a	-0.3008
-2.09764	e n	-0.100223
-2.05578	e t	-0.100223
-0.58694	e e	-0.417568
-2.08103	e m	-0.100223
-1.36383	e s	-0.290459
-1.44116	t </unk>
-0.645541	t c	-0.457635
-1.05332	t h	-0.472557
-0.802533	t y	-0.256733
-0.827517	t o	-0.308969
-0.926712	t a	-0.241411
-1.04614	t e	-0.315587
-1.17041	t s	-0.195131
-0.999513	l </unk>
-1.25117	l k	-0.256733
-0.662222	l c	-0.4578
-0.946574	l y	-0.325657
-0.894294	l o	-0.364254
-0.778878	l d	-0.450223
-1.74731	l a	-0.100223
-1.91401	l t	-0.100223
-1.53425	l e	-0.195131
-1.99703	l f	-0.100223
-0.967248	l s	-0.423857
-1.91401	l q	-0.409143
-1.26456	n </unk>
-1.6732	n k	-0.100223
-0.539414	n c	-0.390867
-0.903683	n y	-0.241411
-1.22069	n o	-0.308969
-1.02152	n d	-0.399658
-0.732734	n s	-0.359435
-0.933756	n q	-0.221642

\3-grams:
-0.468167	m k o	-0.0510305
-0.893494	h k </unk>
-0.963348	h k a	-0.0296483
-0.412296	<unk> k c	-0.134633
-0.867486	<unk> k a	-0.0510305
-0.869988	<unk> k e	-0.0296483
-0.696371	n k c	-0.0296483
-0.74257	l k y	-0.0510305
-0.563372	l k o	-0.0510305
-0.656778	l k e	-0.0510305
-1.03366	o k </unk>
-1.00506	o k c	-0.0510305
-1.01146	o k y	-0.0510305
-0.515888	o k o	-0.128324
-0.806482	o k a	-0.129551
-0.760339	o k e	-0.145475
-1.42758	o k s	-0.0296483
-1.19184	c k </unk>
-0.286704	c k h	-0.116515
-0.929953	e k </unk>
-0.77075	e k y	-0.0296483
-0.673693	e k e	-0.0296483
-0.946911	d k s	-0.0296483
-0.873258	y k c	-0.0510305
-0.820682	y k y	-0.0671986
-0.447953	y k o	-0.134633
-1.23092	y k a	-0.0296483
-0.835668	y k e	-0.0296483
-1.28121	y k s	-0.0296483
-0.764987	r k c	-0.0296483
-0.77075	r k y	-0.0296483
-0.570544	r k o	-0.0296483
-0.109609	e c h	-0.0510305
-0.0799621	<unk> c h	-0.116515
-1.07644	<unk> c t	-0.0296483
-1.42359	l c </unk>
-0.133679	l c h	-0.220226
-0.762939	l c t	-0.0984274
-0.0801041	d c h	-0.0900495
-0.757401	o c k	-0.0798606
-0.152939	o c h	-0.145475
-1.13717	o c t	-0.0296483
-1.46464	r c </unk>
-1.16183	r c k	-0.0510305
-0.120755	r c h	-0.1983
-1.20669	r c t	-0.0900495
-1.33953	r c f	-0.0510305
-1.85907	r c p	-0.0296483
-0.939203	a c k	-0.0296483
-0.115948	f c h	-0.0296483
-1.03264	h c k	-0.0296483
-0.161448	h c h	-0.0296483
-0.864085	h c t	-0.0510305
-0.0932504	m c h	-0.105439
-1.02085	m c t	-0.0296483
-0.101674	p c h	-0.0900495
-1.32174	n c </unk>
-0.0934418	n c h	-0.152455
-1.0797	n c t	-0.0510305
-1.31851	k c </unk>
-0.0742426	k c h	-0.150422
-1.33687	t c </unk>
-0.0746505	t c h	-0.162831
-1.5513	y c </unk>
-1.40812	y c k	-0.105374
-0.0733032	y c h	-0.264481
-1.1621	y c t	-0.0798606
-0.0865701	s c h	-0.175842
-1.48701	c h </unk>
-2.14873	c h k	-0.0296483
-1.85235	c h c	-0.0510305
-1.92968	c h r	-0.0510305
-1.03319	c h y	-0.260051
-0.271246	c h o	-0.281022
-1.05636	c h a	-0.134158
-1.83147	c h t	-0.0510305
-0.732672	c h e	-0.221018
-2.2173	c h s	-0.0296483
-2.339	c h p	-0.0296483
-0.788268	f h a	-0.0296483
-0.539482	k h y	-0.0798606
-0.377542	k h o	-0.0900495
-1.05719	t h </unk>
-0.429351	t h y	-0.105439
-0.560669	t h o	-0.138858
-1.14068	t h a	-0.0296483
-0.860077	t h e	-0.0510305
-1.29535	<unk> h </unk>
-0.952126	<unk> h y	-0.0296483
-0.435401	<unk> h o	-0.115492
-0.617922	<unk> h a	-0.0671986
-0.779529	<unk> h e	-0.0296483
-1.62154	s h </unk>
-1.90894	s h k	-0.0296483
-1.73999	s h c	-0.0296483
-1.03216	s h y	-0.0900495
-0.311445	s h o	-0.180838
-0.995652	s h a	-0.0798606
-1.8839	s h t	-0.0296483
-0.639151	s h e	-0.134158
-0.341322	p h o	-0.0510305
-0.633839	h r c	-0.0296483
-0.795293	h r y	-0.0296483
-1.31049	a r </unk>
-1.33509	a r k	-0.0296483
-0.651907	a r c	-0.0900495
-1.06482	a r y	-0.0296483
-0.651229	a r o	-0.129551
-1.26956	a r a	-0.0296483
-1.081	a r e	-0.0510305
-0.920565	a r s	-0.0671986
-1.19541	o r </unk>
-1.64371	o r k	-0.0296483
-0.406775	o r c	-0.212434
-1.30063	o r y	-0.0510305
-0.818901	o r o	-0.111394
-1.19342	o r d	-0.0798606
-1.17803	o r a	-0.0798606
-1.93684	o r l	-0.0296483
-1.7134	o r e	-0.0296483
-1.23568	o r s	-0.0671986
-1.06911	o r q	-0.129551
-0.756147	i r c	-0.0296483
-0.934069	i r y	-0.0296483
-0.636653	i r o	-0.0510305
-1.01345	i r d	-0.0296483
-0.915915	i r s	-0.0296483
-1.24094	i r q	-0.0296483
-1.06999	<unk> r k	-0.0296483
-0.853724	<unk> r y	-0.0296483
-0.771236	<unk> r o	-0.0296483
-0.928951	<unk> r d	-0.0296483
-0.637366	y y k	-0.0510305
-0.668815	y y c	-0.0296483
-0.936337	y y t	-0.0296483
-1.2569	y y p	-0.0296483
-0.625445	k y c	-0.0510305
-0.400388	k y d	-0.0984274
-1.06095	k y s	-0.0296483
-0.991998	o y </unk>
-0.955792	o y k	-0.0296483
-0.83497	o y d	-0.0296483
-0.613281	o y s	-0.0798606
-0.650002	<unk> y c	-0.0296483
-1.04852	<unk> y o	-0.0296483
-0.784307	<unk> y d	-0.0296483
-0.928289	<unk> y t	-0.0296483
-0.815395	<unk> y s	-0.0510305
-0.803619	s y k	-0.0296483
-0.572804	s y c	-0.0296483
-0.903012	t y k	-0.0296483
-0.53541	t y c	-0.0671986
-1.04852	t y o	-0.0296483
-0.784307	t y d	-0.0296483
-0.886111	l y k	-0.0510305
-0.54012	l y c	-0.0671986
-0.782427	l y d	-0.0510305
-0.907704	l y t	-0.0510305
-0.998032	l y s	-0.0296483
-0.774934	n y k	-0.0510305
-0.635961	n y c	-0.0296483
-1.18204	n y y	-0.0296483
-1.34633	n y e	-0.0296483
-0.680545	r y c	-0.0296483
-1.07069	r y o	-0.0296483
-0.680297	r y t	-0.0510305
-0.835228	r y s	-0.0510305
-0.65467	m y c	-0.0296483
-0.545658	m y t	-0.169836
-1.22981	e y </unk>
-1.05341	e y k	-0.0510305
-0.516541	e y c	-0.145475
-1.36808	e y y	-0.0510305
-1.28896	e y o	-0.0296483
-0.855244	e y d	-0.0900495
-1.14328	e y t	-0.0296483
-0.825611	e y q	-0.0900495
-0.572804	a y c	-0.0296483
-0.825969	a y t	-0.0296483
-1.20531	h y </unk>
-0.975305	h y k	-0.0671986
-0.68669	h y c	-0.148115
-1.17111	h y y	-0.0510305
-1.26181	h y o	-0.0296483
-0.664813	h y d	-0.0984274
-1.05277	h y t	-0.0510305
-0.951395	h y s	-0.0510305
-1.27554	h y q	-0.0671986
-1.26667	d y </unk>
-0.712465	d y c	-0.0671986
-0.808974	d y o	-0.0798606
-0.83397	d y d	-0.0510305
-1.02028	d y t	-0.0510305
-0.861246	d y s	-0.0671986
-1.35806	d y p	-0.105374
-1.23056	d y q	-0.0671986
-1.34641	e o </unk>
-0.689546	e o r	-0.116515
-0.921358	e o d	-0.0798606
-1.62866	e o a	-0.0296483
-0.473356	e o l	-0.155875
-1.49357	e o m	-0.0671986
-1.32505	e o s	-0.0510305
-1.6795	e o p	-0.0296483
-0.85156	d o r	-0.0671986
-1.51241	d o i	-0.0296483
-0.436408	d o l	-0.145475
-1.12022	d o t	-0.0296483
-1.41112	d o m	-0.0296483
-0.974766	a o c	-0.0296483
-0.786846	a o r	-0.0296483
-1.11046	y o </unk>
-0.744065	y o k	-0.0296483
-1.19373	y o c	-0.0296483
-0.738811	y o r	-0.0510305
-0.753175	y o l	-0.0296483
-0.965492	y o t	-0.0510305
-1.00713	k o </unk>
-0.998049	k o r	-0.0510305
-1.59794	k o o	-0.0296483
-0.820044	k o d	-0.0900495
-1.34762	k o a	-0.0510305
-1.63839	k o i	-0.0296483
-0.552954	k o l	-0.212048
-1.19063	k o t	-0.0296483
-1.51683	k o m	-0.0296483
-0.967761	r o </unk>
-0.649487	r o k	-0.134633
-1.23978	r o c	-0.0296483
-0.989293	r o r	-0.0296483
-0.714062	r o l	-0.0510305
-1.02458	r o t	-0.123317
-1.01218	l o k	-0.0984274
-1.24676	l o c	-0.0296483
-0.926648	l o r	-0.0510305
-1.36657	l o y	-0.0296483
-0.98452	l o d	-0.0510305
-0.526991	l o l	-0.0798606
-1.55196	l o e	-0.0296483
-1.42378	l o m	-0.0296483
-1.45156	l o p	-0.0296483
-0.634494	<unk> o r	-0.0798606
-0.99086	<unk> o d	-0.0510305
-1.40823	<unk> o a	-0.0296483
-0.58603	<unk> o l	-0.0798606
-1.64276	<unk> o f	-0.0296483
-1.44939	<unk> o p	-0.0296483
-0.746253	* o r	-0.0296483
-1.18436	m o </unk>
-0.960464	m o k	-0.0510305
-0.952921	m o c	-0.0510305
-1.38332	m o y	-0.0296483
-0.687237	m o t	-0.0798606
-1.04076	m o s	-0.0510305
-1.46099	m o p	-0.0296483
-0.79984	f o d	-0.0296483
-1.07017	h o </unk>
-1.17092	h o k	-0.134633
-1.44138	h o c	-0.0798606
-0.849521	h o r	-0.181602
-1.75538	h o y	-0.0510305
-0.834674	h o d	-0.23932
-1.89996	h o a	-0.0296483
-2.08936	h o i	-0.0296483
-0.491432	h o l	-0.226066
-1.48887	h o t	-0.0510305
-1.07319	h o m	-0.148115
-1.99897	h o s	-0.0671986
-2.01698	h o q	-0.0510305
-2.35209	h o *	-0.0296483
-1.15671	o o i	-0.0296483
-0.591431	o o l	-0.0296483
-0.844687	p o r	-0.0296483
-0.565666	p o l	-0.0510305
-0.951082	p o t	-0.0296483
-1.13593	q o </unk>
-0.809002	q o k	-0.124871
-1.37694	q o c	-0.0296483
-1.51822	q o y	-0.0296483
-1.67799	q o o	-0.0296483
-1.1209	q o d	-0.0510305
-0.589968	q o t	-0.124871
-1.75515	q o e	-0.0296483
-1.65107	q o s	-0.0296483
-1.28258	q o p	-0.0510305
-1.14212	t o c	-0.0296483
-0.835621	t o y	-0.0671986
-0.988121	t o d	-0.0296483
-1.27701	t o a	-0.0296483
-0.646674	t o l	-0.0510305
-0.761796	s o c	-0.0510305
-0.573484	s o l	-0.0671986
-1.3581	s o e	-0.0296483
-0.933406	n o k	-0.0296483
-0.988121	n o d	-0.0296483
-0.646674	n o l	-0.0510305
-0.674633	n o t	-0.0671986
-1.28886	o d </unk>
-0.506272	o d y	-0.158638
-1.22335	o d o	-0.0296483
-0.271131	o d a	-0.158638
-1.03924	y d </unk>
-1.72162	y d k	-0.0296483
-1.18111	y d c	-0.0510305
-1.09577	y d o	-0.0296483
-0.209483	y d a	-0.179802
-1.74248	y d l	-0.0296483
-0.954644	<unk> d </unk>
-0.744317	<unk> d y	-0.0296483
-0.812896	<unk> d o	-0.0296483
-0.341133	<unk> d a	-0.0671986
-0.826878	n d o	-0.0510305
-1.4244	n d d	-0.0296483
-0.240814	n d a	-0.0900495
-0.178143	r d a	-0.134633
-1.1699	l d </unk>
-1.12019	l d c	-0.0510305
-0.935879	l d y	-0.0296483
-0.527077	l d o	-0.206531
-0.401362	l d a	-0.148115
-0.562072	i d y	-0.0510305
-0.984023	d d c	-0.0296483
-0.849109	a d </unk>
-0.660189	a d y	-0.0296483
-0.374129	l a i	-0.0296483
-1.14567	p a d	-0.0296483
-0.776161	p a l	-0.0296483
-0.975965	o a r	-0.0296483
-0.391768	o a i	-0.0671986
-0.774644	o a l	-0.0510305
-1.34265	d a </unk>
-0.825829	d a r	-0.111394
-1.80657	d a o	-0.0296483
-0.266175	d a i	-0.282999
-1.3217	d a n	-0.0671986
-1.00705	d a l	-0.134633
-1.15921	d a m	-0.0984274
-0.969308	h a </unk>
-1.67743	h a c	-0.0296483
-0.771308	h a r	-0.0798606
-0.606027	h a i	-0.0900495
-1.28911	h a n	-0.0510305
-0.941671	h a l	-0.0510305
-0.625439	h a m	-0.0984274
-0.955678	r a r	-0.0296483
-1.10584	r a n	-0.0296483
-0.8544	r a l	-0.0296483
-0.752429	r a m	-0.0510305
-0.873745	e a r	-0.0798606
-1.30661	e a y	-0.0296483
-0.503366	e a i	-0.0296483
-0.651015	e a m	-0.0510305
-0.751747	<unk> a </unk>
-0.342844	<unk> a i	-0.123317
-0.976399	<unk> a l	-0.0296483
-0.977787	<unk> a m	-0.0296483
-0.724001	k a </unk>
-1.03037	k a r	-0.0296483
-1.36084	k a y	-0.0296483
-1.38402	k a d	-0.0296483
-0.479424	k a i	-0.0510305
-0.924356	k a l	-0.0510305
-0.898093	t a </unk>
-1.22873	t a o	-0.0296483
-0.414356	t a i	-0.0510305
-0.8544	t a l	-0.0296483
-0.946898	s a </unk>
-0.332492	s a i	-0.134633
-0.90197	s a m	-0.0296483
-1.12467	a i </unk>
-1.28369	a i r	-0.0900495
-0.186625	a i i	-0.292766
-0.798917	a i n	-0.134633
-1.80692	a i m	-0.0296483
-1.27308	i i r	-0.0296483
-1.63778	i i d	-0.0296483
-0.924495	i i i	-0.0296483
-0.160895	i i n	-0.193053
-1.78461	i i l	-0.0296483
-1.66713	i i m	-0.0296483
-0.94988	<unk> i r	-0.0296483
-1.23468	<unk> i d	-0.0296483
-0.580007	<unk> i i	-0.0510305
-0.402229	<unk> i n	-0.0510305
-1.03302	o i </unk>
-0.458732	o i i	-0.0510305
-1.25163	o i e	-0.0296483
-0.518971	o * o	-0.0296483
-0.644222	<unk> * q	-0.0296483
-0.0481601	y q o	-0.177571
-0.96149	s q </unk>
-0.106077	s q o	-0.0296483
-0.076382	o q o	-0.0510305
-0.0710511	n q o	-0.0900495
-0.076382	<unk> q o	-0.0510305
-0.0501074	l q o	-0.0798606
-0.076382	m q o	-0.0510305
-0.0563998	r q o	-0.0984274
-0.911692	* q </unk>
-0.922216	y p </unk>
-0.712587	y p o	-0.0510305
-0.73381	c p h	-0.0296483
-0.436357	o p c	-0.115492
-0.609905	o p o	-0.0510305
-0.879902	o p a	-0.0296483
-0.364716	m p c	-0.0510305
-0.73381	<unk> p h	-0.0296483
-0.719282	h p a	-0.0296483
-0.246712	l s h	-0.176505
-1.26231	l s o	-0.0296483
-0.883694	l s a	-0.0510305
-1.42816	l s e	-0.0296483
-1.14599	l s s	-0.0510305
-0.588939	e s c	-0.0671986
-1.22754	e s e	-0.0296483
-1.27974	e s q	-0.0296483
-1.00921	h s y	-0.0296483
-0.222626	t s h	-0.0671986
-0.222626	k s h	-0.0671986
-1.35586	y s </unk>
-0.918655	y s c	-0.0671986
-0.290675	y s h	-0.105439
-1.24429	y s o	-0.0296483
-1.11152	y s a	-0.0296483
-0.977924	y s s	-0.0510305
-0.185375	s s h	-0.0900495
-0.312021	m s h	-0.0510305
-1.24658	m s y	-0.0296483
-0.767542	m s o	-0.0510305
-1.15821	m s s	-0.0296483
-0.162958	r s h	-0.105439
-0.918366	n s </unk>
-0.28303	n s h	-0.105439
-1.19743	n s o	-0.0510305
-0.965574	n s a	-0.0510305
-0.99804	<unk> s c	-0.0296483
-0.260912	<unk> s h	-0.0984274
-0.851448	<unk> s a	-0.0671986
-1.26324	o s </unk>
-1.02053	o s c	-0.0296483
-0.219788	o s h	-0.0798606
-1.37864	o s q	-0.0296483
-1.18356	a m k	-0.0510305
-0.675504	a m c	-0.0798606
-1.00646	a m y	-0.0510305
-0.552545	a m o	-0.0984274
-0.894321	a m s	-0.0510305
-1.34319	a m p	-0.0296483
-1.32678	a m q	-0.0296483
-0.576864	i m c	-0.0296483
-1.12731	i m m	-0.0296483
-0.78085	m m y	-0.0296483
-1.21345	o m </unk>
-0.694633	o m c	-0.0671986
-1.0705	o m y	-0.0296483
-0.495979	o m o	-0.0984274
-1.49057	o m t	-0.0296483
-0.98858	o m s	-0.0510305
-1.32204	o m p	-0.0296483
-1.30648	o m q	-0.0296483
-1.00359	<unk> m </unk>
-0.623353	<unk> m c	-0.0296483
-0.676466	<unk> m o	-0.0296483
-0.885064	<unk> m s	-0.0296483
-0.782205	e m s	-0.0296483
-0.696813	c f </unk>
-0.774926	c f h	-0.0296483
-0.618097	l f o	-0.0296483
-0.662034	o f c	-0.0296483
-0.437585	r e e	-0.0671986
-0.511781	y e e	-0.0296483
-0.467218	s e e	-0.0510305
-1.37693	h e </unk>
-1.46059	h e k	-0.0510305
-1.61811	h e c	-0.0296483
-0.626492	h e y	-0.155875
-0.492685	h e o	-0.160918
-1.16892	h e a	-0.0671986
-1.88535	h e t	-0.0296483
-0.682495	h e e	-0.0984274
-0.707672	t e y	-0.0296483
-0.559133	t e o	-0.0671986
-1.19387	t e a	-0.0296483
-0.488548	t e e	-0.0671986
-1.29944	k e </unk>
-1.41352	k e c	-0.0296483
-0.736779	k e y	-0.0296483
-0.438347	k e o	-0.142424
-0.616694	k e e	-0.0671986
-0.535367	e e y	-0.120966
-0.718026	e e o	-0.0671986
-0.936582	e e a	-0.171611
-1.80007	e e n	-0.0296483
-0.701909	e e e	-0.0798606
-1.79501	e e m	-0.0296483
-1.04072	e e s	-0.0798606
-0.973049	i e s	-0.0296483
-1.12892	<unk> e </unk>
-0.662961	<unk> e y	-0.0296483
-0.446021	<unk> e e	-0.0510305
-0.491001	o e o	-0.0510305
-0.569387	o e e	-0.0296483
-1.12757	l e k	-0.0296483
-0.498505	l e e	-0.0510305
-0.557134	l t c	-0.0296483
-0.498099	y t c	-0.0900495
-0.925905	y t y	-0.0296483
-0.718625	y t o	-0.0671986
-1.0264	y t a	-0.0296483
-1.11744	y t e	-0.0671986
-1.08408	y t s	-0.0510305
-0.11825	c t h	-0.179802
-0.671295	e t y	-0.0296483
-1.56455	o t </unk>
-0.382533	o t c	-0.360705
-1.02993	o t y	-0.0510305
-0.848279	o t o	-0.129551
-1.12222	o t a	-0.0510305
-0.868867	o t e	-0.0900495
-1.38149	o t s	-0.0296483
-0.590848	<unk> t c	-0.0296483
-0.794013	<unk> t a	-0.0296483
-0.637237	h t y	-0.0510305
-0.826241	h t a	-0.0296483
-0.557134	m t c	-0.0296483
-1.09956	o l </unk>
-1.31303	o l k	-0.0798606
-0.745808	o l c	-0.161915
-1.08993	o l y	-0.0984274
-0.732383	o l o	-0.241943
-0.752261	o l d	-0.201038
-1.92742	o l a	-0.0296483
-2.02715	o l t	-0.0296483
-1.54069	o l e	-0.0510305
-2.07097	o l f	-0.0296483
-0.841444	o l s	-0.178392
-1.47224	o l q	-0.0900495
-0.88867	<unk> l k	-0.0510305
-0.52366	<unk> l c	-0.0671986
-0.925704	<unk> l y	-0.0510305
-0.819116	<unk> l d	-0.0510305
-1.04052	<unk> l s	-0.0296483
-0.907711	a l </unk>
-0.687183	a l c	-0.0798606
-0.940379	a l y	-0.0510305
-0.971471	a l o	-0.0296483
-0.620228	a l d	-0.0900495
-1.41635	a l e	-0.0296483
-0.654827	i l d	-0.0296483
-0.778046	d l s	-0.0296483
-0.797252	r l </unk>
-1.3294	i n </unk>
-1.69816	i n k	-0.0296483
-0.52576	i n c	-0.179321
-1.02331	i n y	-0.0671986
-1.18558	i n o	-0.0984274
-0.789312	i n d	-0.0984274
-0.754371	i n s	-0.208105
-0.974449	i n q	-0.0798606
-0.609751	a n c	-0.0296483
-0.901863	a n y	-0.0296483
-1.10834	a n o	-0.0296483
-0.984656	a n d	-0.0296483
-0.573359	a n s	-0.0510305
-0.853732	<unk> n d	-0.0296483
-0.657662	<unk> n s	-0.0296483
-0.738543	e n y	-0.0296483

\4-grams:
-0.426191	a m k o	-0.0233485
-0.862313	s h k a	-0.0141151
-0.807753	c h k </unk>
-0.644462	i n k c	-0.0141151
-0.544913	<unk> l k o	-0.0141151
-0.628858	<unk> l k e	-0.0141151
-0.687398	o l k y	-0.0233485
-0.566224	o l k o	-0.0141151
-0.652323	o l k e	-0.0141151
-0.485322	y o k o	-0.0233485
-1.04118	h o k </unk>
-1.02261	h o k y	-0.0141151
-0.552828	h o k o	-0.0233485
-0.580757	h o k e	-0.0233485
-0.978763	l o k c	-0.0141151
-0.984234	l o k y	-0.0141151
-0.693413	l o k a	-0.0347006
-0.50818	r o k o	-0.0347006
-0.580757	r o k e	-0.0233485
-0.759102	m o k a	-0.0141151
-0.719589	m o k e	-0.0141151
-0.990132	q o k </unk>
-1.00888	q o k c	-0.0141151
-0.52092	q o k o	-0.0298606
-0.711291	q o k e	-0.0347006
-1.36439	q o k s	-0.0141151
-0.485322	n o k o	-0.0141151
-1.10484	o c k </unk>
-0.271907	o c k h	-0.0298606
-0.209592	y c k h	-0.0233485
-0.265951	r c k h	-0.0233485
-0.273908	h c k h	-0.0141151
-0.273908	a c k h	-0.0141151
-0.728556	h e k y	-0.0141151
-0.643857	h e k e	-0.0141151
-0.83647	l e k </unk>
-0.84965	y d k s	-0.0141151
-0.78721	h y k y	-0.0141151
-0.423543	h y k o	-0.0233485
-0.408743	y y k o	-0.0233485
-0.791598	s y k c	-0.0141151
-0.423579	o y k o	-0.0141151
-0.771138	n y k y	-0.0141151
-1.12052	n y k s	-0.0141151
-0.771138	l y k y	-0.0141151
-0.438897	l y k o	-0.0141151
-1.08695	e y k a	-0.0141151
-0.783774	e y k e	-0.0141151
-0.791598	t y k c	-0.0141151
-0.707548	a r k y	-0.0141151
-0.534321	o r k o	-0.0141151
-0.702719	<unk> r k c	-0.0141151
-0.10564	k e c h	-0.0141151
-0.10564	h e c h	-0.0141151
-0.131387	o l c h	-0.0523189
-0.736452	o l c t	-0.0414143
-1.24147	<unk> l c </unk>
-0.136372	<unk> l c h	-0.0233485
-0.121821	a l c h	-0.0298606
-0.0755239	y d c h	-0.0233485
-0.0755239	l d c h	-0.0233485
-0.0773001	d d c h	-0.0141151
-0.147116	r o c h	-0.0141151
-0.159558	m o c h	-0.0141151
-1.02103	m o c t	-0.0141151
-0.696347	a o c k	-0.0141151
-0.659571	h o c k	-0.0298606
-0.174983	h o c h	-0.0141151
-0.143448	s o c h	-0.0233485
-0.147116	y o c h	-0.0141151
-0.147116	t o c h	-0.0141151
-0.147116	l o c h	-0.0141151
-0.147116	q o c h	-0.0141151
-1.09692	a r c k	-0.0141151
-0.128462	a r c h	-0.0298606
-1.23045	a r c f	-0.0141151
-1.34323	i r c p	-0.0141151
-1.50919	o r c </unk>
-1.24493	o r c k	-0.0141151
-0.162429	o r c h	-0.0546315
-0.793469	o r c t	-0.0384393
-1.40287	o r c f	-0.0141151
-0.116325	h r c h	-0.0141151
-0.843673	h a c k	-0.0141151
-0.111718	o f c h	-0.0141151
-0.942808	c h c k	-0.0141151
-0.807545	c h c t	-0.0233485
-0.155239	s h c h	-0.0141151
-0.0956035	a m c h	-0.0233485
-0.969841	a m c t	-0.0141151
-0.0863932	o m c h	-0.0298606
-0.0899367	<unk> m c h	-0.0141151
-0.0899367	i m c h	-0.0141151
-0.0795641	o p c h	-0.0298606
-0.0957187	m p c h	-0.0233485
-1.34447	i n c </unk>
-0.0801328	i n c h	-0.0502563
-1.13384	i n c t	-0.0233485
-0.0901206	a n c h	-0.0141151
-0.0598305	<unk> k c h	-0.0414143
-0.0716611	n k c h	-0.0141151
-0.0700252	y k c h	-0.0233485
-0.0700252	o k c h	-0.0233485
-1.10529	r k c </unk>
-0.0720536	l t c h	-0.0141151
-0.0336199	o t c h	-0.0523189
-1.22856	y t c </unk>
-0.0764924	y t c h	-0.0347006
-0.0720536	<unk> t c h	-0.0141151
-0.0720536	m t c h	-0.0141151
-1.22783	n y c </unk>
-0.070757	<unk> y c h	-0.0141151
-0.0680294	d y c h	-0.0298606
-0.070757	y y c h	-0.0141151
-0.070757	s y c h	-0.0141151
-0.0680294	l y c h	-0.0298606
-0.070757	r y c h	-0.0141151
-0.070757	m y c h	-0.0141151
-1.35784	e y c k	-0.0141151
-0.0714101	e y c h	-0.043838
-1.16418	e y c t	-0.0141151
-0.070757	a y c h	-0.0141151
-1.36555	h y c k	-0.0141151
-0.110293	h y c h	-0.043838
-0.848173	h y c t	-0.0233485
-0.0691435	k y c h	-0.0233485
-0.0794279	t y c h	-0.0233485
-1.06337	t y c t	-0.0141151
-0.0802506	e s c h	-0.0298606
-0.0802506	y s c h	-0.0298606
-0.0835172	o s c h	-0.0141151
-0.0835172	<unk> s c h	-0.0141151
-0.943229	e c h y	-0.0141151
-0.272755	e c h o	-0.0141151
-1.39012	<unk> c h </unk>
-0.242496	<unk> c h o	-0.0458507
-1.52047	l c h </unk>
-1.92759	l c h k	-0.0141151
-0.875101	l c h y	-0.0384393
-0.247675	l c h o	-0.0475488
-1.15518	l c h a	-0.0141151
-0.833611	l c h e	-0.0233485
-1.09783	r c h </unk>
-0.263229	r c h o	-0.0502563
-1.13314	r c h a	-0.0141151
-0.747284	r c h e	-0.0414143
-0.992522	d c h y	-0.0141151
-0.253445	d c h o	-0.0347006
-0.259363	h c h o	-0.0141151
-1.42196	f c h s	-0.0141151
-0.257542	m c h o	-0.0384393
-1.03099	m c h a	-0.0233485
-0.742288	m c h e	-0.0141151
-0.266837	p c h o	-0.0298606
-0.691921	p c h e	-0.0233485
-1.05444	o c h y	-0.0141151
-0.244611	o c h o	-0.0384393
-0.726357	o c h e	-0.0298606
-1.02327	n c h c	-0.0233485
-0.299315	n c h o	-0.043838
-1.03729	n c h a	-0.0233485
-0.786465	n c h e	-0.0233485
-1.70524	k c h r	-0.0141151
-0.971203	k c h y	-0.0298606
-0.256448	k c h o	-0.0890151
-0.759969	k c h e	-0.0233485
-1.07551	t c h y	-0.0141151
-0.291033	t c h o	-0.0490007
-0.85101	t c h a	-0.0384393
-0.744343	t c h e	-0.0347006
-1.18007	y c h y	-0.0141151
-0.188866	y c h o	-0.0568079
-1.17295	y c h a	-0.0233485
-1.73451	y c h t	-0.0233485
-0.852099	y c h e	-0.0347006
-2.13342	y c h p	-0.0141151
-1.67051	s c h r	-0.0141151
-0.369344	s c h o	-0.0233485
-1.1052	s c h a	-0.0141151
-0.471266	s c h e	-0.0347006
-0.72216	c f h a	-0.0141151
-0.515851	c k h y	-0.0347006
-0.363139	c k h o	-0.0384393
-0.886022	c t h </unk>
-0.454444	c t h y	-0.0833238
-0.607752	c t h o	-0.043838
-1.1901	c t h a	-0.0141151
-0.786267	c t h e	-0.0233485
-1.01027	y s h y	-0.0141151
-0.304389	y s h o	-0.0919522
-0.97871	y s h a	-0.0141151
-0.655189	y s h e	-0.0141151
-0.318139	s s h o	-0.0233485
-0.961017	s s h a	-0.0141151
-0.612655	s s h e	-0.0233485
-0.301018	k s h o	-0.0233485
-0.626293	k s h e	-0.0141151
-0.551712	t s h e	-0.0233485
-1.45192	n s h </unk>
-0.304389	n s h o	-0.0347006
-0.925401	n s h a	-0.0141151
-0.940309	<unk> s h y	-0.0233485
-0.324157	<unk> s h o	-0.0233485
-0.621646	<unk> s h e	-0.0233485
-1.44372	o s h c	-0.0141151
-0.979105	o s h y	-0.0141151
-0.310636	o s h o	-0.0298606
-0.380068	l s h o	-0.0347006
-0.433208	l s h e	-0.0384393
-1.60442	r s h k	-0.0141151
-1.01027	r s h y	-0.0141151
-0.329091	r s h o	-0.0233485
-0.97871	r s h a	-0.0141151
-1.59301	r s h t	-0.0141151
-0.655189	r s h e	-0.0141151
-0.28824	m s h o	-0.0233485
-0.325042	c p h o	-0.0141151
-0.325042	<unk> p h o	-0.0141151
-0.608414	c h r c	-0.0141151
-0.749577	c h r y	-0.0141151
-1.19136	h a r </unk>
-0.647869	h a r c	-0.0141151
-1.16224	h a r a	-0.0141151
-0.885897	h a r s	-0.0141151
-1.26664	d a r k	-0.0141151
-0.623183	d a r c	-0.0298606
-0.670812	d a r o	-0.0141151
-1.05951	d a r e	-0.0141151
-0.87586	d a r s	-0.0233485
-0.605409	o a r o	-0.0141151
-0.605409	r a r o	-0.0141151
-0.647869	e a r c	-0.0141151
-0.611734	e a r o	-0.0233485
-1.01858	e a r e	-0.0141151
-0.937946	k a r y	-0.0141151
-1.01671	p o r a	-0.0141151
-0.400553	k o r c	-0.0141151
-0.769632	k o r o	-0.0141151
-0.397677	<unk> o r c	-0.0233485
-1.18441	<unk> o r y	-0.0141151
-0.797824	<unk> o r o	-0.0141151
-1.21681	h o r </unk>
-0.375221	h o r c	-0.0513529
-1.34428	h o r y	-0.0141151
-0.824996	h o r o	-0.0414143
-1.18631	h o r d	-0.0298606
-1.23165	h o r a	-0.0141151
-1.86421	h o r l	-0.0141151
-1.28493	h o r s	-0.0141151
-1.06188	h o r q	-0.0347006
-0.385747	a o r c	-0.0141151
-1.05434	* o r s	-0.0141151
-0.364167	d o r c	-0.0298606
-1.05028	l o r a	-0.0141151
-1.09018	l o r s	-0.0141151
-0.400553	y o r c	-0.0141151
-1.05028	y o r a	-0.0141151
-1.09583	e o r </unk>
-1.49647	e o r k	-0.0141151
-0.413563	e o r c	-0.0298606
-1.16154	e o r d	-0.0141151
-1.53966	e o r e	-0.0141151
-1.05569	e o r q	-0.0141151
-0.385747	r o r c	-0.0141151
-0.908417	a i r y	-0.0141151
-0.641599	a i r o	-0.0141151
-0.976013	a i r d	-0.0141151
-0.892709	a i r s	-0.0141151
-1.15803	a i r q	-0.0141151
-0.695292	<unk> i r c	-0.0141151
-0.592685	i i r o	-0.0141151
-0.567418	e y y k	-0.0233485
-1.06775	n y y p	-0.0141151
-0.639539	h y y c	-0.0141151
-0.866786	h y y t	-0.0141151
-0.600904	o k y c	-0.0141151
-0.394583	o k y d	-0.0141151
-0.600904	l k y c	-0.0141151
-0.394583	l k y d	-0.0141151
-0.379852	r k y d	-0.0141151
-0.381303	y k y d	-0.0233485
-0.985984	y k y s	-0.0141151
-0.379852	e k y d	-0.0141151
-0.799532	t o y d	-0.0141151
-0.565858	t o y s	-0.0233485
-0.856506	l o y k	-0.0141151
-0.572171	q o y s	-0.0141151
-0.911158	h o y </unk>
-0.589995	h o y s	-0.0141151
-0.88412	m o y </unk>
-0.536334	h s y c	-0.0141151
-0.734883	m s y k	-0.0141151
-0.502897	e t y c	-0.0141151
-0.839683	h t y k	-0.0141151
-0.740188	h t y d	-0.0141151
-0.519443	o t y c	-0.0141151
-0.954996	o t y o	-0.0141151
-0.502897	y t y c	-0.0141151
-0.523744	a l y c	-0.0141151
-0.843522	a l y t	-0.0141151
-0.828334	o l y k	-0.0233485
-0.557116	o l y c	-0.0141151
-0.743905	o l y d	-0.0233485
-0.972746	o l y s	-0.0141151
-0.523744	<unk> l y c	-0.0141151
-0.843522	<unk> l y t	-0.0141151
-0.747395	i n y k	-0.0141151
-0.623402	i n y c	-0.0141151
-1.07811	i n y y	-0.0141151
-0.711047	a n y k	-0.0141151
-1.12156	e n y e	-0.0141151
-0.630833	h r y c	-0.0141151
-0.971828	o r y o	-0.0141151
-0.783405	o r y s	-0.0141151
-0.760835	a r y s	-0.0141151
-0.630619	i r y t	-0.0141151
-0.630619	<unk> r y t	-0.0141151
-0.491993	a m y t	-0.0233485
-0.608405	m m y c	-0.0141151
-0.512091	o m y t	-0.0141151
-1.08542	h e y k	-0.0141151
-0.529289	h e y c	-0.0384393
-1.35609	h e y y	-0.0141151
-1.29071	h e y o	-0.0141151
-0.720704	h e y d	-0.0298606
-1.1654	h e y t	-0.0141151
-0.849696	h e y q	-0.0233485
-1.13098	e e y </unk>
-1.04739	e e y k	-0.0141151
-0.502229	e e y c	-0.0347006
-0.868582	e e y d	-0.0141151
-0.8102	e e y q	-0.0233485
-0.752975	<unk> e y q	-0.0141151
-1.13397	k e y y	-0.0141151
-0.777091	t e y d	-0.0141151
-0.536334	e a y c	-0.0141151
-0.753268	k a y t	-0.0141151
-1.32034	c h y </unk>
-1.12422	c h y k	-0.0141151
-0.347347	c h y c	-0.043838
-1.29218	c h y y	-0.0141151
-0.814815	c h y d	-0.0233485
-1.10302	c h y s	-0.0141151
-0.679573	k h y c	-0.0141151
-1.15663	k h y o	-0.0141151
-0.659659	k h y d	-0.0141151
-0.995868	k h y t	-0.0141151
-1.15452	t h y </unk>
-0.90967	t h y k	-0.0233485
-1.12681	t h y y	-0.0141151
-0.679216	t h y d	-0.0141151
-0.939983	t h y s	-0.0141151
-1.21008	t h y q	-0.0233485
-0.653273	s h y c	-0.0233485
-0.634662	s h y d	-0.0233485
-1.18394	s h y q	-0.0141151
-0.929204	<unk> h y t	-0.0141151
-1.27792	o d y </unk>
-0.751458	o d y c	-0.0233485
-0.817447	o d y o	-0.0298606
-0.861429	o d y d	-0.0141151
-1.02345	o d y t	-0.0233485
-0.885693	o d y s	-0.0233485
-1.28806	o d y p	-0.0233485
-0.966857	o d y q	-0.0233485
-0.677979	i d y c	-0.0141151
-1.08671	i d y q	-0.0141151
-0.759808	l d y d	-0.0141151
-0.739303	<unk> d y o	-0.0141151
-0.781937	a d y s	-0.0141151
-0.952912	k e o d	-0.0141151
-0.484612	k e o l	-0.0347006
-0.899891	k e o m	-0.0233485
-1.28757	k e o s	-0.0141151
-0.872778	t e o d	-0.0141151
-0.445885	t e o l	-0.0233485
-1.3515	h e o </unk>
-0.674062	h e o r	-0.043838
-0.969292	h e o d	-0.0141151
-1.57768	h e o a	-0.0141151
-0.432971	h e o l	-0.043838
-1.33328	h e o s	-0.0141151
-1.61507	h e o p	-0.0141151
-0.657853	o e o r	-0.0141151
-1.2473	o e o m	-0.0141151
-0.671712	e e o r	-0.0141151
-0.872778	e e o d	-0.0141151
-0.473605	e e o l	-0.0141151
-0.413002	<unk> d o l	-0.0141151
-0.797099	n d o r	-0.0141151
-1.00868	n d o t	-0.0141151
-0.919653	l d o r	-0.0233485
-0.285867	l d o l	-0.043838
-1.42447	l d o m	-0.0141151
-0.413002	o d o l	-0.0141151
-1.20952	y d o i	-0.0141151
-0.871045	d a o c	-0.0141151
-0.720978	t a o r	-0.0141151
-0.688612	d y o k	-0.0141151
-0.739513	d y o l	-0.0141151
-0.923892	d y o t	-0.0141151
-0.680659	r y o r	-0.0141151
-0.970448	e y o </unk>
-0.863957	t y o t	-0.0141151
-0.680659	h y o r	-0.0141151
-1.02713	<unk> y o c	-0.0141151
-0.923021	l k o </unk>
-0.770599	l k o d	-0.0141151
-1.0146	o k o </unk>
-1.00638	o k o r	-0.0141151
-0.815167	o k o d	-0.0233485
-1.52691	o k o i	-0.0141151
-0.516455	o k o l	-0.0414143
-1.43984	o k o m	-0.0141151
-1.44576	y k o o	-0.0141151
-0.856645	y k o d	-0.0141151
-1.28446	y k o a	-0.0141151
-0.456408	y k o l	-0.0233485
-1.16773	y k o t	-0.0141151
-0.770599	m k o d	-0.0141151
-1.16283	m k o a	-0.0141151
-0.888681	r k o r	-0.0141151
-0.913773	o r o </unk>
-0.644495	o r o k	-0.0233485
-1.19159	o r o c	-0.0141151
-0.979843	o r o r	-0.0141151
-0.729696	o r o l	-0.0141151
-1.01075	o r o t	-0.0233485
-0.603891	<unk> r o k	-0.0141151
-0.622373	i r o k	-0.0141151
-0.679377	i r o l	-0.0141151
-0.980109	a r o </unk>
-0.66458	a r o k	-0.0233485
-0.674718	a r o t	-0.0233485
-0.515203	o l o k	-0.0414143
-1.34439	o l o c	-0.0141151
-1.05918	o l o r	-0.0141151
-1.44424	o l o y	-0.0141151
-1.07618	o l o d	-0.0233485
-0.640166	o l o l	-0.0347006
-1.58854	o l o e	-0.0141151
-1.4902	o l o m	-0.0141151
-1.51208	o l o p	-0.0141151
-0.833888	a l o r	-0.0141151
-0.686952	o * o r	-0.0141151
-1.12715	a m o </unk>
-0.880642	a m o c	-0.0233485
-1.27765	a m o y	-0.0141151
-0.694763	a m o t	-0.0141151
-1.00913	a m o s	-0.0141151
-0.940332	o m o k	-0.0141151
-0.634016	o m o t	-0.0298606
-1.00913	o m o s	-0.0141151
-1.33154	o m o p	-0.0141151
-0.860099	<unk> m o k	-0.0141151
-0.731758	l f o d	-0.0141151
-1.09719	c h o </unk>
-1.27699	c h o k	-0.0384393
-0.565458	c h o r	-0.0881269
-0.823843	c h o d	-0.0546315
-2.15567	c h o i	-0.0141151
-0.569362	c h o l	-0.0572423
-1.60573	c h o t	-0.0233485
-1.17186	c h o m	-0.043838
-2.09825	c h o q	-0.0141151
-1.17387	k h o c	-0.0233485
-0.834541	k h o r	-0.0141151
-1.48126	k h o y	-0.0141151
-0.505637	k h o l	-0.0141151
-0.885961	t h o r	-0.0141151
-0.872656	t h o d	-0.0141151
-0.533549	t h o l	-0.0298606
-0.748622	t h o m	-0.0233485
-1.66502	t h o q	-0.0141151
-1.04391	<unk> h o </unk>
-0.361995	<unk> h o l	-0.0233485
-0.795395	p h o r	-0.0141151
-1.41905	p h o a	-0.0141151
-1.12885	s h o </unk>
-1.22168	s h o k	-0.0141151
-1.39938	s h o c	-0.0233485
-0.902025	s h o r	-0.0298606
-1.70993	s h o y	-0.0141151
-0.8884	s h o d	-0.0233485
-0.502665	s h o l	-0.0490007
-1.13166	s h o m	-0.0141151
-1.06505	s h o s	-0.0298606
-2.05311	s h o *	-0.0141151
-0.552873	q o o l	-0.0141151
-1.00236	k o o i	-0.0141151
-0.546995	y p o l	-0.0141151
-0.878652	y p o t	-0.0141151
-0.791347	o p o r	-0.0141151
-0.546995	o p o l	-0.0141151
-0.512159	y q o k	-0.043838
-1.58247	y q o o	-0.0141151
-0.641233	y q o t	-0.0298606
-0.551577	s q o t	-0.0141151
-0.761243	o q o k	-0.0141151
-0.568999	o q o t	-0.0141151
-0.99648	n q o </unk>
-0.798522	n q o k	-0.0141151
-1.34973	n q o y	-0.0141151
-1.18915	n q o p	-0.0141151
-1.00918	<unk> q o d	-0.0141151
-0.568999	<unk> q o t	-0.0141151
-1.06194	l q o </unk>
-0.789107	l q o k	-0.0141151
-1.0502	l q o d	-0.0141151
-0.590885	l q o t	-0.0233485
-0.761243	m q o k	-0.0141151
-0.568999	m q o t	-0.0141151
-1.27309	r q o c	-0.0141151
-0.578402	r q o t	-0.0233485
-1.50677	r q o e	-0.0141151
-1.45026	r q o s	-0.0141151
-1.20354	r q o p	-0.0141151
-1.12107	o t o c	-0.0141151
-0.596107	o t o y	-0.0233485
-1.22191	o t o a	-0.0141151
-0.697396	o t o l	-0.0141151
-0.800092	y t o y	-0.0141151
-0.927777	y t o d	-0.0141151
-0.633107	y t o l	-0.0141151
-0.720846	m s o c	-0.0141151
-1.16929	m s o e	-0.0141151
-0.700041	y s o c	-0.0141151
-0.536938	l s o l	-0.0141151
-0.515174	n s o l	-0.0233485
-0.916755	i n o k	-0.0141151
-0.964233	i n o d	-0.0141151
-0.657117	i n o l	-0.0141151
-0.623852	i n o t	-0.0298606
-0.601439	a n o l	-0.0141151
-1.03327	h o d </unk>
-0.420424	h o d y	-0.0458507
-1.32283	h o d o	-0.0141151
-0.345368	h o d a	-0.0848524
-0.259254	f o d a	-0.0141151
-0.473512	k o d y	-0.0298606
-0.280548	k o d a	-0.0233485
-0.476637	t o d y	-0.0141151
-0.486577	e o d y	-0.0233485
-0.273355	e o d a	-0.0233485
-0.492751	<unk> o d y	-0.0141151
-0.272646	<unk> o d a	-0.0141151
-0.259254	n o d a	-0.0141151
-0.492751	l o d y	-0.0141151
-0.272646	l o d a	-0.0141151
-0.251858	q o d a	-0.0233485
-1.48924	h y d k	-0.0141151
-1.12455	h y d c	-0.0141151
-0.206338	h y d a	-0.0347006
-0.213825	d y d a	-0.0233485
-1.36334	d y d l	-0.0141151
-1.00785	k y d </unk>
-0.195877	k y d a	-0.0384393
-0.200959	t y d a	-0.0141151
-0.997564	e y d </unk>
-1.04404	e y d o	-0.0141151
-0.210517	e y d a	-0.0298606
-0.195616	l y d a	-0.0233485
-0.200959	<unk> y d a	-0.0141151
-1.01876	o y d c	-0.0141151
-0.780557	i n d o	-0.0233485
-1.30653	i n d d	-0.0141151
-0.245958	i n d a	-0.0298606
-0.230642	<unk> n d a	-0.0141151
-0.230642	a n d a	-0.0141151
-0.171157	i r d a	-0.0141151
-0.171157	<unk> r d a	-0.0141151
-0.161552	o r d a	-0.0347006
-1.2357	o l d </unk>
-1.14475	o l d c	-0.0233485
-0.449814	o l d o	-0.043838
-0.405274	o l d a	-0.043838
-0.491107	a l d o	-0.0298606
-0.401071	a l d a	-0.0233485
-0.511826	<unk> l d o	-0.0141151
-0.395494	<unk> l d a	-0.0141151
-0.841089	i l d y	-0.0141151
-0.526769	<unk> i d y	-0.0141151
-0.526769	i i d y	-0.0141151
-0.878084	n d d c	-0.0141151
-0.772123	k a d </unk>
-0.613204	p a d y	-0.0141151
-0.355552	o l a i	-0.0141151
-0.712072	o p a l	-0.0141151
-0.99484	h p a d	-0.0141151
-0.710804	h o a l	-0.0141151
-0.371887	t o a i	-0.0141151
-0.359686	k o a i	-0.0233485
-0.871959	e o a r	-0.0141151
-0.710804	<unk> o a l	-0.0141151
-1.34242	o d a </unk>
-0.810554	o d a r	-0.0347006
-0.254185	o d a i	-0.0475488
-1.3248	o d a n	-0.0141151
-1.01225	o d a l	-0.0233485
-0.876668	y d a r	-0.0233485
-1.71701	y d a o	-0.0141151
-0.262157	y d a i	-0.0502563
-0.858265	y d a l	-0.0298606
-1.20667	y d a m	-0.0141151
-0.297258	r d a i	-0.0347006
-0.75174	r d a m	-0.0233485
-0.837794	l d a r	-0.0233485
-0.289323	l d a i	-0.0414143
-0.847006	l d a m	-0.0233485
-0.277422	<unk> d a i	-0.0141151
-0.943091	<unk> d a l	-0.0141151
-1.06122	<unk> d a m	-0.0141151
-0.26224	n d a i	-0.0298606
-1.11058	n d a n	-0.0233485
-0.986378	c h a </unk>
-0.779199	c h a r	-0.0233485
-0.627749	c h a i	-0.0233485
-1.20808	c h a n	-0.0233485
-0.929382	c h a l	-0.0233485
-0.60075	c h a m	-0.0384393
-0.708014	f h a r	-0.0141151
-0.927091	s h a </unk>
-1.4134	s h a c	-0.0141151
-0.755698	s h a r	-0.0141151
-0.605722	s h a i	-0.0233485
-0.91243	<unk> h a </unk>
-0.596168	<unk> h a i	-0.0141151
-0.613848	<unk> h a m	-0.0141151
-0.866878	t h a </unk>
-0.692162	a r a m	-0.0141151
-0.915644	o r a r	-0.0141151
-1.03833	o r a n	-0.0141151
-0.828888	o r a l	-0.0141151
-0.738845	o r a m	-0.0141151
-0.421808	e e a r	-0.0298606
-1.27154	e e a y	-0.0141151
-0.832681	h e a r	-0.0141151
-0.501572	h e a i	-0.0141151
-0.637033	h e a m	-0.0141151
-0.605223	t e a m	-0.0141151
-1.03196	o k a r	-0.0141151
-1.28038	o k a y	-0.0141151
-0.542022	o k a i	-0.0141151
-0.635508	o k a l	-0.0233485
-0.68806	<unk> k a </unk>
-1.18501	<unk> k a d	-0.0141151
-0.668087	y k a </unk>
-0.452292	h k a i	-0.0141151
-1.04989	y t a o	-0.0141151
-0.40763	o t a i	-0.0141151
-0.799472	o t a l	-0.0141151
-0.392733	<unk> t a i	-0.0141151
-0.811404	h t a </unk>
-0.307101	n s a i	-0.0233485
-0.320159	<unk> s a i	-0.0233485
-0.856534	<unk> s a m	-0.0141151
-0.307101	l s a i	-0.0233485
-0.84964	y s a </unk>
-1.28433	d a i </unk>
-1.00782	d a i r	-0.0384393
-0.194738	d a i i	-0.0568079
-0.778006	d a i n	-0.0384393
-1.85876	d a i m	-0.0141151
-0.171403	o a i i	-0.0298606
-0.17459	t a i i	-0.0233485
-1.01193	k a i </unk>
-0.191921	k a i i	-0.0141151
-1.06737	h a i </unk>
-0.1895	h a i i	-0.0298606
-0.7895	h a i n	-0.0141151
-0.146355	s a i i	-0.0414143
-0.179233	l a i i	-0.0141151
-0.144272	<unk> a i i	-0.0347006
-0.980362	e a i </unk>
-1.432	a i i r	-0.0141151
-1.74832	a i i d	-0.0141151
-1.10543	a i i i	-0.0141151
-0.103501	a i i n	-0.0599951
-1.86388	a i i l	-0.0141151
-1.77207	a i i m	-0.0141151
-0.150819	<unk> i i n	-0.0233485
-0.150819	o i i n	-0.0233485
-0.154711	i i i n	-0.0141151
-1.06444	h o i e	-0.0141151
-0.433434	o o i i	-0.0141151
-0.914732	k o i </unk>
-0.433434	d o i i	-0.0141151
-0.488103	h o * o	-0.0141151
-0.044789	h y q o	-0.0298606
-0.0438672	e y q o	-0.0384393
-0.044789	d y q o	-0.0298606
-0.102251	e s q o	-0.0141151
-0.860887	o s q </unk>
-0.0720327	h o q o	-0.0233485
-0.0651633	i n q o	-0.0384393
-0.0456317	o l q o	-0.0347006
-0.0737196	a m q o	-0.0141151
-0.0737196	o m q o	-0.0141151
-0.0453795	o r q o	-0.0384393
-0.0544781	i r q o	-0.0141151
-0.822151	<unk> * q </unk>
-0.442092	d y p o	-0.0233485
-0.830419	y y p </unk>
-0.676421	r c p h	-0.0141151
-0.412956	e o p c	-0.0141151
-0.796919	<unk> o p a	-0.0141151
-0.569196	m o p o	-0.0141151
-0.428125	q o p c	-0.0141151
-0.586961	q o p o	-0.0141151
-0.412956	l o p c	-0.0141151
-0.346815	o m p c	-0.0141151
-0.346815	a m p c	-0.0141151
-0.664068	c h p a	-0.0141151
-0.209648	o l s h	-0.0458507
-1.28802	o l s o	-0.0141151
-0.921616	o l s a	-0.0233485
-1.42093	o l s e	-0.0141151
-1.18935	o l s s	-0.0141151
-0.995054	d l s s	-0.0141151
-0.236217	<unk> l s h	-0.0141151
-0.550664	i e s c	-0.0141151
-0.558654	e e s c	-0.0233485
-1.13154	e e s e	-0.0141151
-1.16955	e e s q	-0.0141151
-0.897056	c h s y	-0.0141151
-0.207664	y t s h	-0.0233485
-0.213424	o t s h	-0.0141151
-0.213424	d k s h	-0.0141151
-0.213424	y k s h	-0.0141151
-0.213424	o k s h	-0.0141151
-0.852453	<unk> y s c	-0.0141151
-0.291211	<unk> y s h	-0.0141151
-1.2227	o y s </unk>
-0.308087	o y s h	-0.0141151
-0.867961	o y s s	-0.0233485
-0.87052	d y s c	-0.0141151
-0.300866	d y s h	-0.0141151
-1.12297	d y s o	-0.0141151
-0.269537	r y s h	-0.0233485
-0.269537	h y s h	-0.0233485
-0.971187	k y s a	-0.0141151
-0.827626	l y s c	-0.0141151
-0.173438	y s s h	-0.0233485
-0.173438	l s s h	-0.0233485
-0.178043	m s s h	-0.0141151
-0.725796	a m s o	-0.0141151
-1.0362	a m s s	-0.0141151
-0.288758	o m s h	-0.0233485
-0.704861	e m s o	-0.0141151
-1.06126	<unk> m s y	-0.0141151
-0.150014	a r s h	-0.0298606
-0.150014	o r s h	-0.0298606
-0.156681	i r s h	-0.0141151
-1.01986	i n s </unk>
-0.245726	i n s h	-0.043838
-0.888265	i n s o	-0.0233485
-0.809876	a n s a	-0.0233485
-0.827399	<unk> n s </unk>
-0.201181	h o s h	-0.0233485
-0.933442	e o s c	-0.0141151
-1.18178	e o s q	-0.0141151
-0.205065	m o s h	-0.0233485
-1.0717	q o s </unk>
-1.05418	r a m k	-0.0141151
-0.922495	r a m y	-0.0141151
-0.501217	d a m o	-0.0347006
-0.882373	d a m s	-0.0141151
-1.23661	d a m q	-0.0141151
-0.597671	h a m c	-0.0347006
-0.568852	h a m o	-0.0141151
-0.882373	h a m s	-0.0141151
-0.518257	<unk> a m o	-0.0141151
-1.11975	s a m p	-0.0141151
-1.05418	e a m k	-0.0141151
-0.922495	e a m y	-0.0141151
-0.982197	a i m m	-0.0141151
-0.539945	i i m c	-0.0141151
-0.715984	i m m y	-0.0141151
-1.21156	h o m </unk>
-0.723557	h o m c	-0.0233485
-0.430699	h o m o	-0.0347006
-1.42608	h o m t	-0.0141151
-1.0183	h o m s	-0.0141151
-1.29924	h o m p	-0.0141151
-0.993469	e o m y	-0.0141151
-0.4947	e o m o	-0.0141151
-1.16593	e o m q	-0.0141151
-0.881537	d o m s	-0.0141151
-0.46732	l o m o	-0.0141151
-0.642969	k o m c	-0.0141151
-0.717114	e e m s	-0.0141151
-0.664248	r c f </unk>
-0.732145	r c f h	-0.0141151
-0.576409	o l f o	-0.0141151
-0.614806	<unk> o f c	-0.0141151
-0.399752	a r e e	-0.0233485
-0.414081	o r e e	-0.0141151
-0.481615	n y e e	-0.0141151
-0.441178	l s e e	-0.0141151
-0.441178	e s e e	-0.0141151
-1.44971	c h e </unk>
-1.52234	c h e k	-0.0141151
-0.576026	c h e y	-0.0475488
-0.429955	c h e o	-0.0513529
-1.22931	c h e a	-0.0233485
-1.85453	c h e t	-0.0141151
-0.776503	c h e e	-0.0298606
-1.34317	s h e </unk>
-1.41041	s h e k	-0.0141151
-1.52947	s h e c	-0.0141151
-0.631185	s h e y	-0.0298606
-0.487188	s h e o	-0.0414143
-0.680919	s h e e	-0.0298606
-0.558625	t h e y	-0.0233485
-1.0106	<unk> h e a	-0.0141151
-0.553176	y t e o	-0.0141151
-1.08678	y t e a	-0.0141151
-0.48778	y t e e	-0.0141151
-0.706928	o t e y	-0.0141151
-0.542907	o t e o	-0.0233485
-0.480097	o t e e	-0.0233485
-1.27517	o k e </unk>
-0.787041	o k e y	-0.0141151
-0.368786	o k e o	-0.0384393
-0.651399	o k e e	-0.0233485
-1.20244	l k e c	-0.0141151
-0.429974	l k e o	-0.0141151
-0.41478	y k e o	-0.0141151
-0.575175	<unk> k e e	-0.0141151
-0.41478	e k e o	-0.0141151
-0.697141	t e e o	-0.0141151
-0.885449	t e e a	-0.0141151
-0.682772	t e e e	-0.0141151
-0.499729	k e e y	-0.0233485
-0.697141	k e e o	-0.0141151
-0.48729	h e e y	-0.0347006
-0.919531	h e e a	-0.0141151
-1.0091	h e e s	-0.0141151
-0.483358	<unk> e e y	-0.0233485
-0.649215	o e e e	-0.0141151
-0.540141	e e e y	-0.0141151
-0.899512	e e e a	-0.0141151
-0.912027	e e e s	-0.0233485
-0.682843	l e e o	-0.0141151
-1.38338	l e e m	-0.0141151
-0.519404	s e e y	-0.0141151
-0.668726	s e e e	-0.0141151
-0.649215	y e e e	-0.0141151
-0.885449	r e e a	-0.0141151
-1.43248	r e e n	-0.0141151
-0.970013	r e e s	-0.0141151
-0.869735	o i e s	-0.0141151
-0.533291	l o e e	-0.0141151
-0.462806	s o e o	-0.0141151
-0.462806	q o e o	-0.0141151
-1.01405	o l e k	-0.0141151
-0.485611	o l e e	-0.0141151
-0.469609	a l e e	-0.0141151
-0.522359	o l t c	-0.0141151
-0.419415	m y t e	-0.0298606
-0.485238	r y t c	-0.0141151
-0.683367	r y t o	-0.0141151
-0.663508	e y t o	-0.0141151
-0.937991	d y t a	-0.0141151
-0.981897	d y t s	-0.0141151
-0.485238	l y t c	-0.0141151
-0.683367	l y t o	-0.0141151
-0.951784	<unk> y t s	-0.0141151
-0.469241	a y t c	-0.0141151
-0.451817	h y t c	-0.0233485
-0.833307	y y t y	-0.0141151
-0.107936	y c t h	-0.0347006
-0.106061	l c t h	-0.0298606
-0.106887	r c t h	-0.0347006
-0.113925	m c t h	-0.0141151
-0.113925	<unk> c t h	-0.0141151
-0.111193	n c t h	-0.0233485
-0.111193	h c t h	-0.0233485
-0.113925	o c t h	-0.0141151
-0.622837	h e t y	-0.0141151
-0.363341	k o t c	-0.0141151
-0.77145	p o t o	-0.0141151
-0.728777	y o t o	-0.0233485
-0.295009	r o t c	-0.0298606
-0.890627	r o t e	-0.0141151
-1.353	m o t </unk>
-0.375702	m o t c	-0.0233485
-1.05123	m o t a	-0.0141151
-0.351548	h o t c	-0.0233485
-0.343563	n o t c	-0.0298606
-0.410022	q o t c	-0.0233485
-0.987128	q o t y	-0.0233485
-0.865658	q o t o	-0.0141151
-1.11262	q o t a	-0.0141151
-0.795322	q o t e	-0.0347006
-1.32847	q o t s	-0.0141151
-0.77145	d o t o	-0.0141151
-0.593196	s h t y	-0.0141151
-0.61145	c h t y	-0.0141151
-0.775833	c h t a	-0.0141151
-0.522359	o m t c	-0.0141151
-0.707023	r o l c	-0.0141151
-1.2357	r o l q	-0.0141151
-0.834034	k o l c	-0.0233485
-0.860646	k o l o	-0.0141151
-0.514215	k o l d	-0.0298606
-0.705723	k o l s	-0.0233485
-0.757516	e o l c	-0.0298606
-0.745963	e o l o	-0.0298606
-0.654716	e o l d	-0.0233485
-1.4908	e o l e	-0.0141151
-0.838293	e o l s	-0.0298606
-1.43879	e o l q	-0.0141151
-0.695364	t o l o	-0.0141151
-0.71261	t o l d	-0.0141151
-1.00858	s o l y	-0.0141151
-1.30954	s o l e	-0.0141151
-0.805096	s o l s	-0.0141151
-0.955947	y o l y	-0.0141151
-0.993436	n o l </unk>
-0.695364	n o l o	-0.0141151
-1.19314	<unk> o l k	-0.0141151
-0.679097	<unk> o l o	-0.0233485
-0.738695	<unk> o l d	-0.0141151
-0.732916	l o l c	-0.0141151
-1.02571	l o l y	-0.0141151
-1.55485	l o l t	-0.0141151
-0.817588	l o l s	-0.0141151
-1.11155	d o l </unk>
-1.28578	d o l k	-0.0141151
-0.737045	d o l c	-0.0298606
-0.753609	d o l o	-0.0298606
-0.623543	d o l d	-0.0233485
-1.15715	h o l </unk>
-1.36468	h o l k	-0.0233485
-0.713988	h o l c	-0.043838
-1.14898	h o l y	-0.0298606
-0.745186	h o l o	-0.0414143
-0.751478	h o l d	-0.043838
-1.9093	h o l a	-0.0141151
-2.00632	h o l f	-0.0141151
-0.892173	h o l s	-0.0414143
-1.10829	h o l q	-0.0298606
-0.686576	o o l c	-0.0141151
-0.707023	p o l c	-0.0141151
-0.695364	p o l o	-0.0141151
-0.833362	d a l </unk>
-0.539612	d a l c	-0.0233485
-0.988764	d a l o	-0.0141151
-0.870046	o a l y	-0.0141151
-0.596229	o a l d	-0.0141151
-0.636558	p a l c	-0.0141151
-0.55354	k a l d	-0.0233485
-0.578283	t a l d	-0.0141151
-0.596229	h a l d	-0.0141151
-1.20409	h a l e	-0.0141151
-0.844586	r a l y	-0.0141151
-0.636558	<unk> a l c	-0.0141151
-0.608542	i i l d	-0.0141151
-0.713645	y d l s	-0.0141151
-0.729615	o r l </unk>
-1.38382	i i n </unk>
-1.70292	i i n k	-0.0141151
-0.552415	i i n c	-0.0523189
-1.07819	i i n y	-0.0233485
-1.06658	i i n o	-0.0414143
-0.837737	i i n d	-0.0347006
-0.666266	i i n s	-0.0475488
-0.983772	i i n q	-0.0347006
-0.51062	<unk> i n c	-0.0141151
-0.935603	<unk> i n y	-0.0141151
-1.27149	a i n </unk>
-0.438384	a i n c	-0.0233485
-0.786863	a i n d	-0.0233485
-0.797665	a i n s	-0.0141151
-0.856444	d a n y	-0.0141151
-1.02276	d a n o	-0.0141151
-0.566259	d a n s	-0.0141151
-0.569061	r a n c	-0.0141151
-0.905372	h a n d	-0.0141151
-0.553974	h a n s	-0.0141151
-0.680432	e e n y	-0.0141151

\5-grams:
-0.424498	r a m k o	-0.00101818
-0.424498	e a m k o	-0.00101818
-0.85597	r s h k a	-0.00101818
-0.802273	l c h k </unk>
-0.641008	i i n k c	-0.00101818
-0.684781	h o l k y	-0.00101818
-0.564686	h o l k o	-0.00101818
-0.683481	d o l k y	-0.00101818
-0.648787	<unk> o l k e	-0.00101818
-0.483235	d y o k o	-0.0018339
-1.03699	c h o k </unk>
-1.01873	c h o k y	-0.00101818
-0.553834	c h o k o	-0.00101818
-0.57892	c h o k e	-0.0018339
-0.550221	s h o k o	-0.00101818
-0.976469	o l o k c	-0.00101818
-0.981861	o l o k y	-0.00101818
-0.684527	o l o k a	-0.00305945
-0.505926	<unk> r o k o	-0.00101818
-0.504132	o r o k o	-0.0018339
-0.57791	i r o k e	-0.00101818
-0.507063	a r o k o	-0.00101818
-0.579105	a r o k e	-0.00101818
-0.715295	o m o k e	-0.00101818
-0.754306	<unk> m o k a	-0.00101818
-0.988444	y q o k </unk>
-1.00693	y q o k c	-0.00101818
-0.52317	y q o k o	-0.00101818
-0.703095	y q o k e	-0.00305945
-0.981298	l q o k </unk>
-0.518569	o q o k o	-0.00101818
-0.518569	m q o k o	-0.00101818
-1.34244	n q o k s	-0.00101818
-0.483235	i n o k o	-0.00101818
-0.271023	a o c k h	-0.00101818
-1.09682	h o c k </unk>
-0.271292	h o c k h	-0.0018339
-0.208962	h y c k h	-0.00101818
-0.208962	e y c k h	-0.00101818
-0.265093	o r c k h	-0.00101818
-0.265093	a r c k h	-0.00101818
-0.273015	c h c k h	-0.00101818
-0.273015	h a c k h	-0.00101818
-0.724152	s h e k y	-0.00101818
-0.640409	c h e k e	-0.00101818
-0.830549	o l e k </unk>
-0.843516	h y d k s	-0.00101818
-0.420531	t h y k o	-0.0018339
-0.782028	c h y k y	-0.00101818
-0.405892	e y y k o	-0.0018339
-0.786353	m s y k c	-0.00101818
-0.421903	l o y k o	-0.00101818
-0.766179	i n y k y	-0.00101818
-1.10829	a n y k s	-0.00101818
-0.767581	o l y k y	-0.00101818
-0.438213	o l y k o	-0.00101818
-0.77864	h e y k e	-0.00101818
-1.07569	e e y k a	-0.00101818
-0.786353	h t y k c	-0.00101818
-0.703398	d a r k y	-0.00101818
-0.531865	e o r k o	-0.00101818
-0.10536	l k e c h	-0.00101818
-0.10536	s h e c h	-0.00101818
-0.131631	d o l c h	-0.0018339
-0.734419	d o l c t	-0.00101818
-0.133182	h o l c h	-0.00250209
-0.727523	h o l c t	-0.00305945
-0.131028	l o l c h	-0.00101818
-0.131028	o o l c h	-0.00101818
-0.131028	p o l c h	-0.00101818
-0.130741	k o l c h	-0.0018339
-0.131631	e o l c h	-0.0018339
-0.734419	e o l c t	-0.00101818
-0.131028	r o l c h	-0.00101818
-0.121229	d a l c h	-0.0469037
-0.121492	p a l c h	-0.00101818
-0.121492	<unk> a l c h	-0.00101818
-0.0753308	h y d c h	-0.00101818
-0.0753308	o y d c h	-0.00101818
-0.0751765	o l d c h	-0.0018339
-0.077102	n d d c h	-0.00101818
-0.146706	o r o c h	-0.00101818
-0.160067	a m o c h	-0.00101818
-1.01333	a m o c t	-0.00101818
-0.692329	d a o c k	-0.00101818
-0.653093	k h o c k	-0.0018339
-0.657229	s h o c k	-0.00101818
-0.175444	s h o c h	-0.00101818
-0.14305	m s o c h	-0.00101818
-0.14305	y s o c h	-0.00101818
-0.146706	<unk> y o c h	-0.00101818
-0.146706	o t o c h	-0.00101818
-0.146706	o l o c h	-0.00101818
-0.146706	r q o c h	-0.00101818
-1.21448	h a r c f	-0.00101818
-0.127604	d a r c h	-0.00250209
-1.08538	e a r c k	-0.00101818
-1.32234	<unk> i r c p	-0.00101818
-0.161968	a o r c h	-0.00101818
-0.161299	d o r c h	-0.00250209
-1.50001	h o r c </unk>
-1.24239	h o r c k	-0.00101818
-0.164597	h o r c h	-0.00353146
-0.787631	h o r c t	-0.00353146
-1.39684	h o r c f	-0.00101818
-0.1616	<unk> o r c h	-0.0018339
-0.161299	e o r c h	-0.0433313
-0.161968	r o r c h	-0.00101818
-0.161968	y o r c h	-0.00101818
-0.161968	k o r c h	-0.00101818
-0.116013	c h r c h	-0.00101818
-0.837637	s h a c k	-0.00101818
-0.11142	<unk> o f c h	-0.00101818
-0.936661	n c h c k	-0.00101818
-0.803519	n c h c t	-0.0018339
-0.154803	o s h c h	-0.00101818
-0.0958027	h a m c h	-0.0018339
-0.965799	h a m c t	-0.00101818
-0.0861694	k o m c h	-0.00101818
-0.0859906	h o m c h	-0.0018339
-0.0897028	i i m c h	-0.00101818
-0.0793597	e o p c h	-0.00101818
-0.0793597	q o p c h	-0.00101818
-0.0793597	l o p c h	-0.00101818
-0.095468	o m p c h	-0.00101818
-0.095468	a m p c h	-0.00101818
-1.34053	i i n c </unk>
-0.0800332	i i n c h	-0.0558272
-1.13357	i i n c t	-0.0018339
-0.0797621	a i n c h	-0.0018339
-0.0799267	<unk> i n c h	-0.00101818
-0.0898861	r a n c h	-0.00101818
-0.0714787	i n k c h	-0.00101818
-0.0698473	t y k c h	-0.00101818
-0.0698473	s y k c h	-0.00101818
-0.0698473	q o k c h	-0.00101818
-0.0698473	l o k c h	-0.00101818
-1.09351	<unk> r k c </unk>
-0.0718701	o l t c h	-0.00101818
-0.033538	k o t c h	-0.00101818
-0.0334191	r o t c h	-0.00250209
-0.0334726	m o t c h	-0.0018339
-0.0334726	h o t c h	-0.0018339
-0.0334191	n o t c h	-0.00250209
-0.0334726	q o t c h	-0.0018339
-0.0762966	l y t c h	-0.00101818
-0.0762966	a y t c h	-0.00101818
-0.0761401	h y t c h	-0.0018339
-1.21265	r y t c </unk>
-0.0718701	o m t c h	-0.00101818
-1.21195	i n y c </unk>
-0.0677192	o d y c h	-0.0018339
-0.067857	i d y c h	-0.00101818
-0.0705771	h y y c h	-0.00101818
-0.0705771	h s y c h	-0.00101818
-0.067857	o l y c h	-0.00101818
-0.067857	<unk> l y c h	-0.00101818
-0.067857	a l y c h	-0.00101818
-0.0705771	h r y c h	-0.00101818
-0.0705771	m m y c h	-0.00101818
-0.070782	h e y c h	-0.00353146
-1.34374	e e y c k	-0.00101818
-0.0726638	e e y c h	-0.0018339
-1.15618	e e y c t	-0.00101818
-0.0705771	e a y c h	-0.00101818
-1.34353	k h y c k	-0.00101818
-0.109764	s h y c h	-0.0018339
-0.110631	c h y c h	-0.00353146
-0.843868	c h y c t	-0.0018339
-0.068968	o k y c h	-0.00101818
-0.068968	l k y c h	-0.00101818
-0.0792239	e t y c h	-0.00101818
-0.0792239	o t y c h	-0.00101818
-1.05275	y t y c t	-0.00101818
-0.0800443	i e s c h	-0.00101818
-0.0798794	e e s c h	-0.0018339
-0.0800443	d y s c h	-0.00101818
-0.0800443	<unk> y s c h	-0.00101818
-0.0800443	l y s c h	-0.00101818
-0.0833016	e o s c h	-0.00101818
-0.935393	k e c h y	-0.00101818
-0.271867	h e c h o	-0.00101818
-1.51179	o l c h </unk>
-0.870986	o l c h y	-0.00250209
-0.247944	o l c h o	-0.00428739
-0.833335	o l c h e	-0.0018339
-0.871374	a l c h y	-0.0018339
-0.2487	a l c h o	-0.00101818
-1.14589	a l c h a	-0.00101818
-1.85788	<unk> l c h k	-0.00101818
-0.247887	<unk> l c h o	-0.00101818
-0.262675	a r c h o	-0.0018339
-0.745137	a r c h e	-0.00101818
-1.08969	o r c h </unk>
-0.263737	o r c h o	-0.00486607
-1.13406	o r c h a	-0.00101818
-0.744873	o r c h e	-0.00305945
-0.742643	h r c h e	-0.00101818
-0.251997	y d c h o	-0.0018339
-0.985417	l d c h y	-0.00101818
-0.253635	l d c h o	-0.00101818
-0.25264	d d c h o	-0.00101818
-0.258533	s h c h o	-0.00101818
-1.39684	o f c h s	-0.00101818
-0.257717	a m c h o	-0.00101818
-1.02307	a m c h a	-0.0018339
-0.257028	o m c h o	-0.0018339
-0.740193	o m c h e	-0.00101818
-0.25672	<unk> m c h o	-0.00101818
-0.25672	i m c h o	-0.00101818
-0.264725	o p c h o	-0.00250209
-0.684806	m p c h e	-0.0018339
-1.04406	r o c h y	-0.00101818
-0.243842	m o c h o	-0.00101818
-0.244834	s o c h o	-0.00101818
-0.723325	s o c h e	-0.00101818
-0.243842	y o c h o	-0.00101818
-0.243842	t o c h o	-0.00101818
-0.243842	h o c h o	-0.00101818
-0.72198	l o c h e	-0.00101818
-0.72198	q o c h e	-0.00101818
-1.01345	i n c h c	-0.0433313
-0.298857	i n c h o	-0.0323641
-1.03734	i n c h a	-0.00101818
-0.788821	i n c h e	-0.0018339
-1.02734	a n c h a	-0.00101818
-1.67697	<unk> k c h r	-0.00101818
-0.962976	<unk> k c h y	-0.0018339
-0.258012	<unk> k c h o	-0.0018339
-0.760129	<unk> k c h e	-0.00101818
-0.25563	n k c h o	-0.00101818
-0.964522	y k c h y	-0.00101818
-0.256626	y k c h o	-0.00101818
-0.256626	o k c h o	-0.00101818
-0.756547	o k c h e	-0.00101818
-0.73974	l t c h e	-0.00101818
-1.07599	o t c h y	-0.00101818
-0.291587	o t c h o	-0.00393631
-0.844367	o t c h a	-0.00305945
-0.74517	o t c h e	-0.0018339
-0.291102	y t c h o	-0.0018339
-0.848656	y t c h a	-0.00101818
-0.743163	y t c h e	-0.00101818
-0.290063	<unk> t c h o	-0.00101818
-0.290063	m t c h o	-0.00101818
-0.188792	l y c h o	-0.0018339
-1.69384	l y c h t	-0.00101818
-0.188313	<unk> y c h o	-0.00101818
-0.845926	y y c h e	-0.00101818
-0.188313	s y c h o	-0.00101818
-0.188313	r y c h o	-0.00101818
-0.845926	m y c h e	-0.00101818
-0.189367	e y c h o	-0.00305945
-1.16817	e y c h a	-0.00101818
-0.847716	e y c h e	-0.0018339
-1.15905	a y c h a	-0.00101818
-0.188425	h y c h o	-0.00353146
-1.70662	h y c h t	-0.00101818
-2.06118	h y c h p	-0.00101818
-0.18787	k y c h o	-0.0018339
-1.16821	t y c h y	-0.00101818
-0.189283	t y c h o	-0.00101818
-0.187509	d y c h o	-0.00250209
-1.63551	e s c h r	-0.00101818
-0.369893	e s c h o	-0.00101818
-0.471299	e s c h e	-0.00101818
-0.369893	y s c h o	-0.00101818
-1.09718	y s c h a	-0.00101818
-0.471299	y s c h e	-0.00101818
-0.469278	o s c h e	-0.00101818
-0.469278	<unk> s c h e	-0.00101818
-0.717835	r c f h a	-0.00101818
-0.512901	o c k h y	-0.0018339
-0.363715	o c k h o	-0.00101818
-0.360753	y c k h o	-0.0018339
-0.511699	r c k h y	-0.0018339
-0.361811	h c k h o	-0.00101818
-0.361811	a c k h o	-0.00101818
-0.450996	y c t h y	-0.00250209
-1.18143	y c t h a	-0.00101818
-0.882138	l c t h </unk>
-0.606877	l c t h o	-0.00250209
-0.783685	l c t h e	-0.00101818
-0.883217	r c t h </unk>
-0.453154	r c t h y	-0.0018339
-0.607711	r c t h o	-0.0018339
-0.604658	m c t h o	-0.00101818
-0.604658	<unk> c t h o	-0.00101818
-0.880845	n c t h </unk>
-0.782519	n c t h e	-0.00101818
-0.451076	h c t h y	-0.0018339
-0.452569	o c t h y	-0.00101818
-1.00098	<unk> y s h y	-0.00101818
-0.302534	r y s h o	-0.0018339
-0.302534	h y s h o	-0.0018339
-0.970129	o y s h a	-0.00101818
-0.651624	d y s h e	-0.00101818
-0.318066	y s s h o	-0.00101818
-0.610739	y s s h e	-0.00101818
-0.318066	l s s h o	-0.00101818
-0.610739	l s s h e	-0.00101818
-0.952815	m s s h a	-0.00101818
-0.623021	d k s h e	-0.00101818
-0.300002	y k s h o	-0.00101818
-0.300002	o k s h o	-0.00101818
-0.547048	y t s h e	-0.0469037
-0.549114	o t s h e	-0.00101818
-1.43913	i n s h </unk>
-0.303742	i n s h o	-0.00305945
-0.919443	i n s h a	-0.0469037
-0.972269	h o s h y	-0.00101818
-0.310595	h o s h o	-0.0018339
-1.42075	m o s h c	-0.00101818
-0.310595	m o s h o	-0.00101818
-0.380526	o l s h o	-0.00250209
-0.430044	o l s h e	-0.00353146
-0.378647	<unk> l s h o	-0.00101818
-1.57452	a r s h k	-0.00101818
-0.328038	a r s h o	-0.0018339
-1.0043	o r s h y	-0.00101818
-0.97332	o r s h a	-0.00101818
-0.653927	o r s h e	-0.00101818
-1.55582	i r s h t	-0.00101818
-0.28652	o m s h o	-0.0018339
-0.323911	r c p h o	-0.00101818
-0.744906	k c h r y	-0.00101818
-0.605315	s c h r c	-0.00101818
-1.17915	c h a r </unk>
-0.645638	c h a r c	-0.00101818
-1.1487	f h a r a	-0.00101818
-0.879147	s h a r s	-0.00101818
-1.25574	o d a r k	-0.00101818
-0.623031	o d a r c	-0.00101818
-1.05385	o d a r e	-0.00101818
-0.87319	o d a r s	-0.00101818
-0.621175	l d a r c	-0.00101818
-0.668361	l d a r o	-0.00101818
-0.621175	y d a r c	-0.00101818
-0.870844	y d a r s	-0.00101818
-0.602337	e o a r o	-0.00101818
-0.602337	o r a r o	-0.00101818
-1.00909	h e a r e	-0.00101818
-0.646669	e e a r c	-0.00101818
-0.607447	e e a r o	-0.0018339
-0.930217	o k a r y	-0.00101818
-1.00726	o p o r a	-0.00101818
-0.764693	o k o r o	-0.00101818
-0.399015	r k o r c	-0.00101818
-1.24019	c h o r </unk>
-0.370948	c h o r c	-0.00510735
-0.770018	c h o r o	-0.0378954
-1.20609	c h o r d	-0.00250209
-1.25943	c h o r a	-0.00101818
-1.87666	c h o r l	-0.00101818
-1.31209	c h o r s	-0.00101818
-1.08481	c h o r q	-0.00250209
-0.373773	s h o r c	-0.0018339
-0.821943	s h o r o	-0.00101818
-0.819254	k h o r o	-0.00101818
-1.32334	t h o r y	-0.00101818
-1.0513	p h o r q	-0.00101818
-0.384294	t a o r c	-0.00101818
-1.04395	o * o r s	-0.00101818
-0.361771	l d o r c	-0.0018339
-0.362834	n d o r c	-0.00101818
-1.07883	a l o r s	-0.00101818
-1.04001	o l o r a	-0.00101818
-1.04001	r y o r a	-0.00101818
-0.399015	h y o r c	-0.00101818
-1.08503	h e o r </unk>
-1.48186	h e o r k	-0.00101818
-0.413091	h e o r c	-0.00250209
-1.05303	h e o r q	-0.00101818
-1.14802	o e o r d	-0.00101818
-1.50672	e e o r e	-0.00101818
-0.384294	o r o r c	-0.00101818
-0.906243	d a i r y	-0.00101818
-0.642034	d a i r o	-0.00101818
-0.972885	d a i r d	-0.00101818
-0.890736	d a i r s	-0.00101818
-1.15148	d a i r q	-0.00101818
-0.589731	a i i r o	-0.00101818
-0.564687	h e y y k	-0.00101818
-0.564687	k e y y k	-0.00101818
-1.05701	i n y y p	-0.00101818
-0.636134	t h y y c	-0.00101818
-0.860367	c h y y t	-0.00101818
-0.597875	h o k y c	-0.00101818
-0.39308	l o k y d	-0.00101818
-0.599088	o l k y c	-0.00101818
-0.394143	o l k y d	-0.00101818
-0.378433	a r k y d	-0.00101818
-0.379876	n y k y d	-0.00101818
-0.379876	l y k y d	-0.00101818
-0.977243	h y k y s	-0.00101818
-0.378433	h e k y d	-0.00101818
-0.560981	o t o y s	-0.0018339
-0.794172	y t o y d	-0.00101818
-0.850259	o l o y k	-0.00101818
-0.5694	n q o y s	-0.00101818
-0.903947	s h o y </unk>
-0.587065	k h o y s	-0.00101818
-0.877401	a m o y </unk>
-0.533861	c h s y c	-0.00101818
-0.7304	<unk> m s y k	-0.00101818
-0.500682	h e t y c	-0.00101818
-0.83371	s h t y k	-0.00101818
-0.735638	c h t y d	-0.00101818
-0.518249	q o t y c	-0.00101818
-0.948623	q o t y o	-0.00101818
-0.500682	y y t y c	-0.00101818
-0.837488	r a l y t	-0.00101818
-0.521371	o a l y c	-0.00101818
-0.819713	h o l y k	-0.0018339
-0.556612	h o l y c	-0.00101818
-0.964295	l o l y s	-0.00101818
-0.739307	y o l y d	-0.00101818
-0.739307	s o l y d	-0.00101818
-1.0671	<unk> i n y y	-0.00101818
-0.744123	i i n y k	-0.00101818
-0.621392	i i n y c	-0.00101818
-0.706856	d a n y k	-0.00101818
-1.1093	e e n y e	-0.00101818
-0.627516	c h r y c	-0.00101818
-0.778276	<unk> o r y s	-0.00101818
-0.963396	h o r y o	-0.00101818
-0.756015	k a r y s	-0.00101818
-0.627304	a i r y t	-0.00101818
-0.489858	r a m y t	-0.00101818
-0.489858	e a m y t	-0.00101818
-0.605305	i m m y c	-0.00101818
-0.509807	e o m y t	-0.00101818
-0.525055	c h e y c	-0.00353146
-0.719891	c h e y d	-0.0018339
-1.16238	c h e y t	-0.00101818
-0.850732	c h e y q	-0.00101818
-1.07621	t h e y k	-0.00101818
-1.33755	t h e y y	-0.00101818
-1.27717	s h e y o	-0.00101818
-0.718831	s h e y d	-0.00101818
-0.846321	s h e y q	-0.00101818
-1.12378	h e e y </unk>
-1.04197	h e e y k	-0.00101818
-0.502855	h e e y c	-0.00101818
-0.866006	h e e y d	-0.00101818
-0.501152	<unk> e e y c	-0.00101818
-0.806138	<unk> e e y q	-0.00101818
-0.501152	k e e y c	-0.00101818
-0.806138	k e e y q	-0.00101818
-0.500019	e e e y c	-0.00101818
-1.11843	s e e y </unk>
-1.12133	o k e y y	-0.00101818
-0.77205	o t e y d	-0.00101818
-0.533861	e e a y c	-0.00101818
-0.748549	o k a y t	-0.00101818
-0.809228	o c h y d	-0.00101818
-0.344612	l c h y c	-0.00305945
-0.813741	l c h y d	-0.00101818
-0.346102	e c h y c	-0.00101818
-0.346102	d c h y c	-0.00101818
-1.11187	y c h y k	-0.00101818
-1.30569	k c h y </unk>
-1.2786	k c h y y	-0.00101818
-1.09505	k c h y s	-0.00101818
-0.346102	t c h y c	-0.00101818
-0.678978	c k h y c	-0.00101818
-1.14882	c k h y o	-0.00101818
-0.659227	c k h y d	-0.00101818
-0.991391	c k h y t	-0.00101818
-1.17819	c t h y </unk>
-0.932149	c t h y k	-0.0018339
-1.15101	c t h y y	-0.00101818
-0.708649	c t h y d	-0.00101818
-0.967019	c t h y s	-0.00101818
-0.916713	c t h y q	-0.0018339
-0.631307	y s h y d	-0.00101818
-0.649728	o s h y c	-0.00101818
-0.650991	<unk> s h y c	-0.00101818
-1.17196	<unk> s h y q	-0.00101818
-0.631307	r s h y d	-0.00101818
-0.81449	k o d y o	-0.00101818
-0.881813	k o d y s	-0.00101818
-0.961678	k o d y q	-0.00101818
-0.811821	t o d y o	-0.00101818
-1.2717	h o d y </unk>
-0.752807	h o d y c	-0.00101818
-0.818266	h o d y o	-0.00101818
-0.857711	h o d y d	-0.0469037
-1.02199	h o d y t	-0.00101818
-0.885872	h o d y s	-0.00101818
-1.28159	h o d y p	-0.00101818
-1.26973	<unk> o d y p	-0.00101818
-1.01384	l o d y t	-0.00101818
-0.748138	e o d y c	-0.00101818
-0.96026	e o d y q	-0.00101818
-0.674168	<unk> i d y c	-0.00101818
-1.07545	i i d y q	-0.00101818
-0.755003	i l d y d	-0.00101818
-0.776829	p a d y s	-0.00101818
-0.950127	o k e o d	-0.00101818
-0.485985	o k e o l	-0.00101818
-0.892303	o k e o m	-0.0018339
-1.27756	o k e o s	-0.00101818
-0.48253	y k e o l	-0.00101818
-0.48253	l k e o l	-0.00101818
-0.48253	e k e o l	-0.00101818
-0.442618	o t e o l	-0.0018339
-0.866256	y t e o d	-0.00101818
-1.34674	c h e o </unk>
-0.668791	c h e o r	-0.00393631
-0.97052	c h e o d	-0.00101818
-0.433501	c h e o l	-0.00305945
-1.60192	c h e o p	-0.00101818
-0.674898	s h e o r	-0.00101818
-1.55739	s h e o a	-0.00101818
-0.431582	s h e o l	-0.00250209
-1.32325	s h e o s	-0.00101818
-1.23066	s o e o m	-0.00101818
-0.654259	q o e o r	-0.00101818
-0.866256	k e e o d	-0.00101818
-0.471601	t e e o l	-0.00101818
-0.667969	l e e o r	-0.00101818
-0.793212	i n d o r	-0.00101818
-1.00124	i n d o t	-0.00101818
-0.90847	a l d o r	-0.0018339
-0.286757	a l d o l	-0.00101818
-0.28308	o l d o l	-0.0357794
-1.4127	o l d o m	-0.00101818
-0.284921	<unk> l d o l	-0.00101818
-0.41139	h o d o l	-0.00101818
-1.19433	e y d o i	-0.00101818
-0.864553	y d a o c	-0.00101818
-0.716667	y t a o r	-0.00101818
-0.683023	o d y o k	-0.0469037
-0.919431	o d y o t	-0.00101818
-0.734971	<unk> d y o l	-0.00101818
-0.676818	o r y o r	-0.00101818
-0.962046	h e y o </unk>
-0.857586	o t y o t	-0.00101818
-0.676818	k h y o r	-0.00101818
-0.765648	<unk> l k o d	-0.00101818
-0.915584	o l k o </unk>
-0.811038	y o k o d	-0.00101818
-0.515281	y o k o l	-0.00101818
-1.00979	r o k o </unk>
-1.00172	r o k o r	-0.00101818
-0.517001	r o k o l	-0.00101818
-1.42226	r o k o m	-0.00101818
-1.49888	h o k o i	-0.00101818
-0.515281	h o k o l	-0.00101818
-0.812238	q o k o d	-0.00101818
-0.513497	q o k o l	-0.0018339
-0.514138	n o k o l	-0.00101818
-1.42268	h y k o o	-0.00101818
-1.15625	h y k o t	-0.00101818
-0.851923	y y k o d	-0.00101818
-0.455622	y y k o l	-0.00101818
-0.454521	o y k o l	-0.00101818
-1.26629	l y k o a	-0.00101818
-0.767048	a m k o d	-0.00101818
-1.15149	a m k o a	-0.00101818
-0.881881	o r k o r	-0.00101818
-1.17705	<unk> o r o c	-0.00101818
-0.912339	h o r o </unk>
-0.642656	h o r o k	-0.0018339
-0.977533	h o r o r	-0.00101818
-0.73011	h o r o l	-0.00101818
-1.00799	h o r o t	-0.0018339
-0.906512	k o r o </unk>
-0.67555	i i r o l	-0.00101818
-0.619139	a i r o k	-0.00101818
-0.971498	o a r o </unk>
-0.670943	r a r o t	-0.00101818
-0.660915	d a r o k	-0.00101818
-0.66219	e a r o k	-0.00101818
-0.672228	e a r o t	-0.00101818
-0.636755	n o l o l	-0.00101818
-0.514038	<unk> o l o k	-0.00101818
-1.0672	<unk> o l o d	-0.00101818
-0.512713	h o l o k	-0.00250209
-1.334	h o l o c	-0.00101818
-0.641234	h o l o l	-0.00101818
-1.56764	h o l o e	-0.00101818
-1.42408	d o l o y	-0.00101818
-1.06883	d o l o d	-0.00101818
-0.639031	d o l o l	-0.00101818
-1.48115	p o l o p	-0.00101818
-1.46079	t o l o m	-0.00101818
-1.04867	k o l o r	-0.00101818
-0.512261	e o l o k	-0.0018339
-0.639031	e o l o l	-0.00101818
-0.828008	d a l o r	-0.00101818
-0.683041	h o * o r	-0.00101818
-0.873984	h a m o c	-0.00101818
-1.12005	d a m o </unk>
-0.877909	d a m o c	-0.00101818
-0.694038	d a m o t	-0.00101818
-1.00442	d a m o s	-0.00101818
-1.25977	<unk> a m o y	-0.00101818
-0.630516	h o m o t	-0.0018339
-1.00442	h o m o s	-0.00101818
-1.31844	h o m o p	-0.00101818
-0.932555	e o m o k	-0.00101818
-0.630667	l o m o t	-0.00101818
-0.727314	o l f o d	-0.00101818
-0.561852	p c h o r	-0.0018339
-0.568772	p c h o l	-0.00101818
-0.561236	o c h o r	-0.00250209
-0.567663	o c h o l	-0.0018339
-1.09384	n c h o </unk>
-1.26979	n c h o k	-0.00101818
-0.565242	n c h o r	-0.0018339
-0.571372	n c h o l	-0.00101818
-1.58587	n c h o t	-0.00101818
-1.1671	n c h o m	-0.00101818
-1.09462	<unk> c h o </unk>
-0.567935	<unk> c h o r	-0.00101818
-0.813309	<unk> c h o d	-0.00305945
-0.57182	<unk> c h o l	-0.00101818
-1.16796	<unk> c h o m	-0.00101818
-0.818119	h c h o d	-0.00101818
-0.563805	m c h o r	-0.0018339
-0.567663	m c h o l	-0.0018339
-2.02088	m c h o q	-0.00101818
-1.09646	r c h o </unk>
-0.565443	r c h o r	-0.00250209
-0.819537	r c h o d	-0.00250209
-0.569299	r c h o l	-0.00250209
-1.59185	r c h o t	-0.00101818
-0.562744	e c h o r	-0.00101818
-1.12559	k c h o </unk>
-0.482044	k c h o r	-0.00250209
-1.1985	k c h o m	-0.00101818
-1.08963	t c h o </unk>
-0.564935	t c h o r	-0.00250209
-0.822155	t c h o d	-0.0018339
-0.570674	t c h o l	-0.0018339
-1.1694	t c h o m	-0.00101818
-1.09964	y c h o </unk>
-1.26516	y c h o k	-0.00250209
-0.564786	y c h o r	-0.00393631
-0.826024	y c h o d	-0.0018339
-0.568625	y c h o l	-0.0701433
-1.1687	y c h o m	-0.0018339
-0.819595	s c h o d	-0.00101818
-1.16025	s c h o m	-0.00101818
-1.08146	d c h o </unk>
-0.565704	d c h o r	-0.00101818
-0.569583	d c h o l	-0.00101818
-1.27169	l c h o k	-0.00101818
-0.81797	l c h o d	-0.00250209
-2.08896	l c h o i	-0.00101818
-0.566233	l c h o l	-0.00305945
-1.15673	c k h o c	-0.0018339
-0.833254	c k h o r	-0.00101818
-1.46383	c k h o y	-0.00101818
-0.506903	c k h o l	-0.00101818
-0.88554	c t h o r	-0.00101818
-0.872376	c t h o d	-0.00101818
-0.533651	c t h o l	-0.00250209
-0.746063	c t h o m	-0.0018339
-1.64174	c t h o q	-0.00101818
-1.3941	c p h o a	-0.00101818
-0.790095	<unk> p h o r	-0.00101818
-1.12171	n s h o </unk>
-1.3836	n s h o c	-0.00101818
-0.503289	n s h o l	-0.00101818
-1.05929	n s h o s	-0.00101818
-0.896587	<unk> s h o r	-0.00101818
-0.501585	<unk> s h o l	-0.00101818
-1.67532	l s h o y	-0.00101818
-0.498459	l s h o l	-0.00250209
-0.883184	r s h o d	-0.00101818
-0.501585	r s h o l	-0.00101818
-0.883184	m s h o d	-0.00101818
-1.12122	m s h o m	-0.00101818
-0.700157	y s h o r	-0.0018339
-1.08642	y s h o s	-0.0018339
-1.20847	s s h o k	-0.00101818
-0.501585	s s h o l	-0.00101818
-0.49869	k s h o l	-0.0018339
-1.38139	o s h o c	-0.00101818
-0.502514	o s h o l	-0.00101818
-1.97009	o s h o *	-0.00101818
-0.550266	y q o o l	-0.00101818
-0.993246	y k o o i	-0.00101818
-0.545603	d y p o l	-0.00101818
-0.873592	d y p o t	-0.00101818
-0.786105	m o p o r	-0.00101818
-0.544436	q o p o l	-0.00101818
-0.509255	h y q o k	-0.0018339
-1.55411	h y q o o	-0.00101818
-0.508826	e y q o k	-0.00250209
-0.6386	e y q o t	-0.0018339
-0.509255	d y q o k	-0.0018339
-0.640089	d y q o t	-0.00101818
-0.54898	e s q o t	-0.00101818
-0.757806	h o q o k	-0.00101818
-0.56744	h o q o t	-0.00101818
-0.986166	i n q o </unk>
-0.797617	i n q o k	-0.00101818
-1.33768	i n q o y	-0.00101818
-1.18185	i n q o p	-0.00101818
-1.05624	o l q o </unk>
-0.787469	o l q o k	-0.00101818
-1.04472	o l q o d	-0.00101818
-0.590962	o l q o t	-0.0018339
-0.566255	a m q o t	-0.00101818
-0.756418	o m q o k	-0.00101818
-1.26352	o r q o c	-0.00101818
-0.579256	o r q o t	-0.00101818
-1.4881	o r q o e	-0.00101818
-1.43424	o r q o s	-0.00101818
-1.19588	o r q o p	-0.00101818
-0.575576	i r q o t	-0.00101818
-0.593121	p o t o y	-0.00101818
-1.20869	y o t o a	-0.00101818
-0.694676	y o t o l	-0.00101818
-1.10882	d o t o c	-0.00101818
-0.593121	q o t o y	-0.00101818
-0.920248	e y t o d	-0.00101818
-0.629767	l y t o l	-0.00101818
-0.794724	r y t o y	-0.00101818
-0.716536	a m s o c	-0.00101818
-1.15551	e m s o e	-0.00101818
-0.69598	d y s o c	-0.00101818
-0.534461	o l s o l	-0.00101818
-0.511031	i n s o l	-0.0018339
-0.915284	i i n o k	-0.00101818
-0.962142	i i n o d	-0.00101818
-0.658071	i i n o l	-0.00101818
-0.619551	i i n o t	-0.00250209
-0.598405	d a n o l	-0.00101818
-1.03525	c h o d </unk>
-0.419501	c h o d y	-0.00428739
-1.32092	c h o d o	-0.00101818
-0.345557	c h o d a	-0.00428739
-1.02529	s h o d </unk>
-0.419846	s h o d y	-0.00101818
-1.02342	t h o d </unk>
-0.258425	l f o d a	-0.00101818
-0.471508	l k o d y	-0.00101818
-0.472621	o k o d y	-0.00101818
-0.280632	o k o d a	-0.00101818
-0.471508	y k o d y	-0.00101818
-0.279625	m k o d a	-0.00101818
-0.474611	y t o d y	-0.00101818
-0.272465	k e o d a	-0.00101818
-0.484481	t e o d y	-0.00101818
-0.484481	h e o d y	-0.00101818
-0.272465	e e o d a	-0.00101818
-0.258425	i n o d a	-0.00101818
-0.491737	o l o d y	-0.00101818
-0.272762	o l o d a	-0.00101818
-0.251059	l q o d a	-0.00101818
-0.251059	<unk> q o d a	-0.00101818
-1.11432	c h y d c	-0.00101818
-0.206696	c h y d a	-0.00101818
-1.46361	s h y d k	-0.00101818
-0.206696	s h y d a	-0.00101818
-0.20572	k h y d a	-0.00101818
-0.20572	t h y d a	-0.00101818
-0.213179	o d y d a	-0.0018339
-1.34144	l d y d l	-0.00101818
-0.195298	l k y d a	-0.00101818
-0.998607	r k y d </unk>
-0.194836	y k y d a	-0.0018339
-0.195298	e k y d a	-0.00101818
-0.195298	o k y d a	-0.00101818
-0.200361	h t y d a	-0.00101818
-0.991827	h e y d </unk>
-0.210311	h e y d a	-0.0018339
-0.209883	e e y d a	-0.00101818
-1.03392	t e y d o	-0.00101818
-0.194576	o l y d a	-0.0018339
-1.00926	t o y d c	-0.00101818
-0.774452	i i n d o	-0.0018339
-0.246322	i i n d a	-0.0018339
-1.29014	a i n d d	-0.00101818
-0.246176	a i n d a	-0.00101818
-0.22993	h a n d a	-0.00101818
-0.170666	a i r d a	-0.00101818
-0.160429	h o r d a	-0.00250209
-0.161094	e o r d a	-0.00101818
-1.22952	h o l d </unk>
-1.13219	h o l d c	-0.0018339
-0.452371	h o l d o	-0.00101818
-0.404892	h o l d a	-0.00250209
-0.449067	e o l d o	-0.0018339
-0.404778	e o l d a	-0.00101818
-0.447629	k o l d o	-0.0018339
-0.405655	k o l d a	-0.00101818
-0.44797	t o l d o	-0.00101818
-0.449067	d o l d o	-0.00101818
-0.404778	d o l d a	-0.00101818
-0.403708	<unk> o l d a	-0.00101818
-0.39953	o a l d a	-0.00101818
-0.487284	k a l d o	-0.0018339
-0.39953	t a l d a	-0.00101818
-0.488978	h a l d o	-0.00101818
-0.835094	i i l d y	-0.00101818
-0.524372	a i i d y	-0.00101818
-0.871471	i n d d c	-0.00101818
-0.767151	<unk> k a d </unk>
-0.610058	h p a d y	-0.00101818
-0.354265	h o l a i	-0.00101818
-0.707868	<unk> o p a l	-0.00101818
-0.985899	c h p a d	-0.00101818
-0.706616	p h o a l	-0.00101818
-0.370512	o t o a i	-0.00101818
-0.358377	m k o a i	-0.00101818
-0.358377	y k o a i	-0.00101818
-0.865452	h e o a r	-0.00101818
-1.36211	h o d a </unk>
-0.83607	h o d a r	-0.0018339
-0.232059	h o d a i	-0.00305945
-1.3048	f o d a n	-0.00101818
-0.806488	k o d a r	-0.00101818
-1.00474	k o d a l	-0.00101818
-0.254372	e o d a i	-0.00101818
-1.00474	e o d a l	-0.00101818
-0.253376	n o d a i	-0.00101818
-0.805032	<unk> o d a r	-0.00101818
-0.252731	q o d a i	-0.0018339
-0.253376	l o d a i	-0.00101818
-1.67341	d y d a o	-0.00101818
-0.853519	d y d a l	-0.00101818
-0.874893	k y d a r	-0.00101818
-0.261815	k y d a i	-0.00250209
-1.19894	k y d a m	-0.00101818
-0.261315	t y d a i	-0.00101818
-0.26161	e y d a i	-0.0018339
-0.854773	e y d a l	-0.00101818
-0.261026	h y d a i	-0.00250209
-0.855821	h y d a l	-0.00101818
-0.871639	l y d a r	-0.00101818
-0.262314	l y d a i	-0.00101818
-0.261315	<unk> y d a i	-0.00101818
-0.74704	i r d a m	-0.00101818
-0.296259	<unk> r d a i	-0.00101818
-0.295775	o r d a i	-0.00250209
-0.750487	o r d a m	-0.00101818
-0.833349	a l d a r	-0.00101818
-0.842427	a l d a m	-0.00101818
-0.837865	o l d a r	-0.00101818
-0.28766	o l d a i	-0.00353146
-0.846987	o l d a m	-0.00101818
-0.288361	<unk> l d a i	-0.00101818
-0.261693	i n d a i	-0.0018339
-1.10243	i n d a n	-0.00101818
-1.09865	<unk> n d a n	-0.00101818
-0.261398	a n d a i	-0.00101818
-0.770118	y c h a r	-0.0018339
-0.597722	s c h a m	-0.00101818
-0.983091	t c h a </unk>
-0.628281	t c h a i	-0.00101818
-0.921023	t c h a l	-0.0018339
-0.601463	t c h a m	-0.00101818
-0.625701	n c h a i	-0.00101818
-1.19533	n c h a n	-0.00101818
-1.19295	r c h a n	-0.00101818
-0.595316	m c h a m	-0.0018339
-0.597722	l c h a m	-0.00101818
-0.703859	c f h a r	-0.00101818
-0.602647	n s h a i	-0.0018339
-0.919575	r s h a </unk>
-1.38878	y s h a c	-0.00101818
-0.750947	s s h a r	-0.00101818
-0.860457	c t h a </unk>
-0.688191	h a r a m	-0.00101818
-0.823086	h o r a l	-0.00101818
-1.02836	y o r a n	-0.00101818
-0.908349	p o r a r	-0.00101818
-0.734312	l o r a m	-0.00101818
-1.25392	t e e a y	-0.00101818
-0.420143	e e e a r	-0.00101818
-0.420143	r e e a r	-0.00101818
-0.420143	h e e a r	-0.00101818
-0.828309	c h e a r	-0.00101818
-0.500499	c h e a i	-0.00101818
-0.633654	<unk> h e a m	-0.00101818
-0.602153	y t e a m	-0.00101818
-1.02683	l o k a r	-0.00101818
-1.26905	l o k a y	-0.00101818
-0.631985	l o k a l	-0.0018339
-0.539504	m o k a i	-0.00101818
-0.664384	e y k a </unk>
-0.450431	s h k a i	-0.00101818
-1.03963	d y t a o	-0.00101818
-0.40605	q o t a i	-0.00101818
-0.794114	m o t a l	-0.00101818
-0.805869	c h t a </unk>
-0.305224	a n s a i	-0.0018339
-0.305224	o l s a i	-0.0018339
-0.843506	k y s a </unk>
-0.99639	o d a i r	-0.00250209
-0.196212	o d a i i	-0.00305945
-0.776398	o d a i n	-0.0018339
-0.194163	<unk> d a i i	-0.00101818
-0.194628	n d a i i	-0.0018339
-0.77552	n d a i n	-0.00101818
-0.193545	l d a i i	-0.00305945
-1.81752	l d a i m	-0.00101818
-1.28039	y d a i </unk>
-0.194004	y d a i i	-0.00459475
-0.777527	y d a i n	-0.0018339
-0.995526	r d a i r	-0.0018339
-0.1954	r d a i i	-0.00101818
-0.170912	t o a i i	-0.00101818
-0.170519	k o a i i	-0.0018339
-0.174087	o t a i i	-0.00101818
-0.174087	<unk> t a i i	-0.00101818
-1.0026	o k a i </unk>
-0.191357	h k a i i	-0.00101818
-0.1885	c h a i i	-0.0018339
-1.0586	s h a i </unk>
-0.189915	s h a i i	-0.00101818
-0.784285	<unk> h a i n	-0.00101818
-0.145622	n s a i i	-0.0018339
-0.145622	<unk> s a i i	-0.0018339
-0.145622	l s a i i	-0.0018339
-0.178713	o l a i i	-0.00101818
-0.971745	h e a i </unk>
-1.42971	d a i i r	-0.00101818
-1.73673	d a i i d	-0.00101818
-1.1078	d a i i i	-0.00101818
-0.103815	d a i i n	-0.147954
-1.8469	d a i i l	-0.00101818
-1.75948	d a i i m	-0.00101818
-0.10283	o a i i n	-0.00250209
-0.103008	t a i i n	-0.0018339
-0.103227	k a i i n	-0.00101818
-0.10283	h a i i n	-0.00250209
-0.102447	s a i i n	-0.00393631
-0.103227	l a i i n	-0.00101818
-0.102681	<unk> a i i n	-0.00305945
-0.150397	o o i i n	-0.00101818
-0.150397	d o i i n	-0.00101818
-0.154276	a i i i n	-0.00101818
-1.05379	c h o i e	-0.00101818
-0.431696	k o o i i	-0.00101818
-0.907453	o k o i </unk>
-0.431696	y d o i i	-0.00101818
-0.485996	s h o * o	-0.00101818
-0.0445902	t h y q o	-0.0018339
-0.0446785	s h y q o	-0.00101818
-0.0437591	<unk> e y q o	-0.00101818
-0.0436727	h e y q o	-0.0018339
-0.0436727	e e y q o	-0.0018339
-0.0445902	o d y q o	-0.0018339
-0.0446785	i d y q o	-0.00101818
-0.101981	e e s q o	-0.00101818
-0.854568	e o s q </unk>
-0.0718493	t h o q o	-0.00101818
-0.0718493	c h o q o	-0.00101818
-0.0646701	i i n q o	-0.00353146
-0.045519	r o l q o	-0.00101818
-0.0453553	h o l q o	-0.0433313
-0.045519	e o l q o	-0.00101818
-0.0735315	d a m q o	-0.00101818
-0.0735315	e o m q o	-0.00101818
-0.0450439	h o r q o	-0.00305945
-0.0452675	e o r q o	-0.00101818
-0.0543422	a i r q o	-0.00101818
-0.438869	o d y p o	-0.0018339
-0.824593	n y y p </unk>
-0.672627	i r c p h	-0.00101818
-0.411344	h e o p c	-0.00101818
-0.566451	o m o p o	-0.00101818
-0.42642	n q o p c	-0.00101818
-0.584059	r q o p o	-0.00101818
-0.411344	o l o p c	-0.00101818
-0.345573	h o m p c	-0.00101818
-0.345573	s a m p c	-0.00101818
-0.660408	y c h p a	-0.00101818
-0.208514	k o l s h	-0.0018339
-0.210393	h o l s h	-0.00250209
-1.27935	h o l s o	-0.00101818
-0.920085	h o l s a	-0.00101818
-1.40783	h o l s e	-0.00101818
-0.209448	e o l s h	-0.0018339
-0.917191	e o l s a	-0.00101818
-1.17488	s o l s s	-0.00101818
-0.209018	l o l s h	-0.00101818
-0.986109	y d l s s	-0.00101818
-0.548075	o i e s c	-0.00101818
-0.557175	e e e s c	-0.00101818
-1.15802	e e e s q	-0.00101818
-0.555998	h e e s c	-0.00101818
-1.11897	r e e s e	-0.00101818
-0.890105	f c h s y	-0.00101818
-0.207041	d y t s h	-0.00101818
-0.207041	<unk> y t s h	-0.00101818
-0.212779	q o t s h	-0.00101818
-0.212779	y d k s h	-0.00101818
-0.212779	n y k s h	-0.00101818
-0.212779	q o k s h	-0.00101818
-1.20945	t o y s </unk>
-0.308057	t o y s h	-0.00101818
-0.861522	q o y s s	-0.00101818
-0.861522	h o y s s	-0.00101818
-0.865587	o d y s c	-0.00101818
-1.11277	o d y s o	-0.00101818
-0.299851	a d y s h	-0.00101818
-0.268663	o r y s h	-0.00101818
-0.268663	a r y s h	-0.00101818
-0.268663	t h y s h	-0.00101818
-0.268663	c h y s h	-0.00101818
-0.962769	y k y s a	-0.00101818
-0.821843	o l y s c	-0.00101818
-0.17254	o y s s h	-0.0018339
-0.172939	d l s s h	-0.00101818
-0.172939	o l s s h	-0.00101818
-0.177528	a m s s h	-0.00101818
-0.721426	d a m s o	-0.00101818
-1.02627	h a m s s	-0.00101818
-0.287799	h o m s h	-0.00101818
-0.287799	d o m s h	-0.00101818
-0.700743	e e m s o	-0.00101818
-0.14926	d a r s h	-0.0018339
-0.149595	h a r s h	-0.00101818
-0.149595	l o r s h	-0.00101818
-0.149595	h o r s h	-0.00101818
-0.149595	* o r s h	-0.00101818
-0.156239	a i r s h	-0.00101818
-1.01907	i i n s </unk>
-0.244885	i i n s h	-0.00393631
-0.884804	i i n s o	-0.0018339
-0.244953	a i n s h	-0.00101818
-0.804364	d a n s a	-0.00101818
-0.804364	h a n s a	-0.00101818
-0.199714	s h o s h	-0.0018339
-0.925802	k e o s c	-0.00101818
-1.16757	h e o s q	-0.00101818
-0.204451	a m o s h	-0.00101818
-0.204451	o m o s h	-0.00101818
-1.06086	r q o s </unk>
-0.915068	a r a m y	-0.00101818
-1.0438	o r a m k	-0.00101818
-0.877254	r d a m s	-0.00101818
-1.22289	r d a m q	-0.00101818
-0.497262	l d a m o	-0.0018339
-0.499014	y d a m o	-0.00101818
-0.499014	<unk> d a m o	-0.00101818
-0.590113	c h a m c	-0.00305945
-0.569764	c h a m o	-0.00101818
-0.875685	<unk> h a m s	-0.00101818
-1.10754	<unk> s a m p	-0.00101818
-0.915068	h e a m y	-0.00101818
-1.0438	t e a m k	-0.00101818
-0.97354	d a i m m	-0.00101818
-0.537444	a i i m c	-0.00101818
-0.711734	a i m m y	-0.00101818
-0.430063	t h o m o	-0.00101818
-1.28314	t h o m p	-0.00101818
-0.721379	c h o m c	-0.0018339
-0.430037	c h o m o	-0.00250209
-1.41425	c h o m t	-0.00101818
-1.01621	c h o m s	-0.00101818
-1.1963	s h o m </unk>
-0.986345	k e o m y	-0.00101818
-1.15451	k e o m q	-0.00101818
-0.492546	o e o m o	-0.00101818
-0.874863	l d o m s	-0.00101818
-0.465359	o l o m o	-0.00101818
-0.63953	o k o m c	-0.00101818
-0.71285	l e e m s	-0.00101818
-0.727696	a r c f h	-0.00101818
-0.660587	o r c f </unk>
-0.5736	h o l f o	-0.00101818
-0.398218	d a r e e	-0.00101818
-0.398218	e a r e e	-0.00101818
-0.412463	e o r e e	-0.00101818
-0.479554	e n y e e	-0.00101818
-0.43939	o l s e e	-0.00101818
-0.43939	e e s e e	-0.00101818
-0.570496	t c h e y	-0.00250209
-0.774999	t c h e e	-0.00101818
-1.42641	k c h e </unk>
-0.574412	k c h e y	-0.00101818
-0.575388	o c h e y	-0.00101818
-0.427978	o c h e o	-0.0469037
-0.426871	p c h e o	-0.0018339
-1.50487	r c h e k	-0.00101818
-0.577486	r c h e y	-0.00101818
-0.430358	r c h e o	-0.0018339
-1.21146	r c h e a	-0.0018339
-0.771471	m c h e e	-0.00101818
-0.574412	l c h e y	-0.00101818
-0.429323	l c h e o	-0.00101818
-0.576203	s c h e y	-0.00101818
-0.428903	s c h e o	-0.0018339
-0.774999	s c h e e	-0.00101818
-0.576203	y c h e y	-0.00101818
-0.426861	y c h e o	-0.00250209
-0.429323	n c h e o	-0.00101818
-1.79515	n c h e t	-0.00101818
-0.677076	k s h e e	-0.00101818
-0.629106	t s h e y	-0.00101818
-0.48621	t s h e o	-0.0018339
-1.33135	l s h e </unk>
-1.39607	l s h e k	-0.00101818
-0.631693	l s h e y	-0.00101818
-0.677701	l s h e e	-0.0018339
-0.629106	s s h e y	-0.00101818
-0.48621	s s h e o	-0.00101818
-0.485088	y s h e o	-0.00101818
-1.50127	<unk> s h e c	-0.00101818
-0.48621	<unk> s h e o	-0.00101818
-0.485088	r s h e o	-0.00101818
-0.553857	c t h e y	-0.0018339
-0.552699	m y t e o	-0.00101818
-1.07918	m y t e a	-0.00101818
-0.487718	m y t e e	-0.00101818
-0.706096	q o t e y	-0.00101818
-0.543296	q o t e o	-0.00101818
-0.478544	q o t e e	-0.0018339
-0.540382	r o t e o	-0.00101818
-0.366344	h o k e o	-0.0018339
-1.264	q o k e </unk>
-0.785425	q o k e y	-0.00101818
-0.370054	q o k e o	-0.00101818
-0.651032	q o k e e	-0.00101818
-0.368477	r o k e o	-0.00101818
-0.649134	r o k e e	-0.00101818
-0.367427	m o k e o	-0.00101818
-1.18751	<unk> l k e c	-0.00101818
-0.428258	o l k e o	-0.00101818
-0.413157	e y k e o	-0.00101818
-0.413157	h e k e o	-0.00101818
-0.878706	y t e e a	-0.00101818
-0.694424	o t e e o	-0.00101818
-0.680202	o t e e e	-0.00101818
-0.497538	<unk> k e e y	-0.00101818
-0.498669	o k e e y	-0.00101818
-0.694424	o k e e o	-0.00101818
-0.482153	s h e e y	-0.00250209
-0.48723	c h e e y	-0.00101818
-0.915139	c h e e a	-0.00101818
-1.00314	c h e e s	-0.00101818
-0.645711	l o e e e	-0.00101818
-0.904799	o e e e s	-0.00101818
-0.537638	t e e e y	-0.00101818
-0.904799	s e e e s	-0.00101818
-0.892516	y e e e a	-0.00101818
-1.36042	o l e e m	-0.00101818
-0.678978	a l e e o	-0.00101818
-0.665016	l s e e e	-0.00101818
-0.517065	e s e e y	-0.00101818
-0.645711	n y e e e	-0.00101818
-1.41012	a r e e n	-0.00101818
-0.963355	a r e e s	-0.00101818
-0.878706	o r e e a	-0.00101818
-0.863266	h o i e s	-0.00101818
-0.530843	o l o e e	-0.00101818
-0.460876	m s o e o	-0.00101818
-0.460876	r q o e o	-0.00101818
-1.00467	e o l e k	-0.00101818
-0.483522	s o l e e	-0.00101818
-0.467631	h a l e e	-0.00101818
-0.519997	l o l t c	-0.00101818
-0.416448	a m y t e	-0.0018339
-0.417764	o m y t e	-0.00101818
-0.483152	i r y t c	-0.00101818
-0.679496	<unk> r y t o	-0.00101818
-0.659854	h e y t o	-0.00101818
-0.93193	o d y t a	-0.00101818
-0.975006	o d y t s	-0.00101818
-0.483152	a l y t c	-0.00101818
-0.679496	<unk> l y t o	-0.00101818
-0.467267	k a y t c	-0.00101818
-0.449959	k h y t c	-0.00101818
-0.449959	<unk> h y t c	-0.00101818
-0.827436	h y y t y	-0.00101818
-0.107649	e y c t h	-0.00101818
-0.10742	h y c t h	-0.0018339
-0.107649	t y c t h	-0.00101818
-0.104978	o l c t h	-0.0752138
-0.105907	o r c t h	-0.0378954
-0.11362	a m c t h	-0.00101818
-0.11066	i n c t h	-0.0018339
-0.11066	c h c t h	-0.0018339
-0.11362	m o c t h	-0.00101818
-0.619598	c h e t y	-0.00101818
-0.362012	y k o t c	-0.00101818
-0.766487	y p o t o	-0.00101818
-0.72437	d y o t o	-0.00101818
-0.72437	t y o t o	-0.00101818
-0.293233	o r o t c	-0.0018339
-0.295034	a r o t c	-0.00101818
-0.885375	a r o t e	-0.00101818
-1.33705	o m o t </unk>
-0.376222	o m o t c	-0.00101818
-1.04442	o m o t a	-0.00101818
-0.374306	a m o t c	-0.00101818
-0.349272	c h o t c	-0.0018339
-0.340565	i n o t c	-0.00250209
-1.10063	o q o t a	-0.00101818
-0.409501	l q o t c	-0.00101818
-0.980132	l q o t y	-0.00101818
-0.978361	s q o t y	-0.00101818
-0.787506	y q o t e	-0.0018339
-1.31351	y q o t s	-0.00101818
-0.408428	m q o t c	-0.00101818
-0.860799	r q o t o	-0.00101818
-0.791458	r q o t e	-0.00101818
-0.790024	<unk> q o t e	-0.00101818
-0.766487	n d o t o	-0.00101818
-0.590237	r s h t y	-0.00101818
-0.609544	y c h t y	-0.00101818
-0.772218	y c h t a	-0.00101818
-0.519997	h o m t c	-0.00101818
-1.21952	i r o l q	-0.00101818
-0.70288	o r o l c	-0.00101818
-0.510085	y k o l d	-0.0018339
-0.829068	o k o l c	-0.0018339
-0.859827	o k o l o	-0.00101818
-0.516004	o k o l d	-0.00101818
-0.703017	o k o l s	-0.0018339
-0.746834	h e o l o	-0.00101818
-0.650744	h e o l d	-0.0433313
-1.47643	h e o l e	-0.00101818
-0.834179	h e o l s	-0.0018339
-0.751879	k e o l c	-0.0018339
-0.744767	k e o l o	-0.00101818
-0.836095	k e o l s	-0.00101818
-0.754123	t e o l c	-0.00101818
-1.41609	t e o l q	-0.00101818
-0.741338	e e o l o	-0.00101818
-0.691357	o t o l o	-0.00101818
-0.7084	y t o l d	-0.00101818
-0.799655	l s o l s	-0.00101818
-1.00114	n s o l y	-0.00101818
-1.29302	n s o l e	-0.00101818
-0.947851	d y o l y	-0.00101818
-0.691357	i n o l o	-0.00101818
-0.984528	a n o l </unk>
-0.731846	o l o l c	-0.00101818
-1.0207	o l o l y	-0.00101818
-1.53121	o l o l t	-0.00101818
-0.815633	o l o l s	-0.00101818
-0.732535	<unk> d o l c	-0.00101818
-1.10795	l d o l </unk>
-1.27834	l d o l k	-0.00101818
-0.734665	l d o l c	-0.0018339
-0.75442	l d o l o	-0.0018339
-0.622687	l d o l d	-0.0018339
-0.748885	o d o l o	-0.00101818
-0.741939	<unk> h o l o	-0.00101818
-0.748158	<unk> h o l d	-0.00101818
-1.15472	c h o l </unk>
-1.364	c h o l k	-0.00101818
-0.714081	c h o l c	-0.00393631
-1.15116	c h o l y	-0.00101818
-0.744794	c h o l o	-0.00305945
-0.750984	c h o l d	-0.00305945
-1.89076	c h o l a	-0.00101818
-0.893876	c h o l s	-0.0018339
-1.10682	c h o l q	-0.0018339
-1.1478	t h o l </unk>
-0.712182	t h o l c	-0.00101818
-1.13985	t h o l y	-0.00101818
-1.13586	k h o l y	-0.00101818
-1.35805	s h o l k	-0.00101818
-0.747445	s h o l o	-0.00101818
-0.750826	s h o l d	-0.0018339
-1.9622	s h o l f	-0.00101818
-0.881537	s h o l s	-0.00305945
-1.10685	s h o l q	-0.00101818
-0.682669	q o o l c	-0.00101818
-0.70288	y p o l c	-0.00101818
-0.691357	o p o l o	-0.00101818
-0.824613	y d a l </unk>
-0.983191	y d a l o	-0.00101818
-0.537113	<unk> d a l c	-0.00101818
-0.82898	o d a l </unk>
-0.538274	o d a l c	-0.00101818
-0.593243	h o a l d	-0.00101818
-0.863572	<unk> o a l y	-0.00101818
-0.633184	o p a l c	-0.00101818
-0.548849	o k a l d	-0.0018339
-0.575458	o t a l d	-0.00101818
-0.594452	c h a l d	-0.00101818
-1.19147	c h a l e	-0.00101818
-0.838535	o r a l y	-0.00101818
-0.605441	a i i l d	-0.00101818
-0.709423	d y d l s	-0.00101818
-0.725198	h o r l </unk>
-1.38522	a i i n </unk>
-1.69803	a i i n k	-0.00101818
-0.553624	a i i n c	-0.00486607
-1.07964	a i i n y	-0.0018339
-1.06538	a i i n o	-0.00393631
-0.839991	a i i n d	-0.00250209
-0.664563	a i i n s	-0.00486607
-0.979428	a i i n q	-0.0378954
-0.550983	<unk> i i n c	-0.00101818
-0.833292	<unk> i i n d	-0.00101818
-0.547741	o i i n c	-0.0018339
-0.549812	i i i n c	-0.00101818
-0.438041	d a i n c	-0.0018339
-0.781798	d a i n d	-0.0018339
-0.796769	d a i n s	-0.00101818
-1.25386	h a i n </unk>
-1.01502	n d a n o	-0.00101818
-0.564721	n d a n s	-0.00101818
-0.850199	o d a n y	-0.00101818
-0.566317	o r a n c	-0.00101818
-0.899878	c h a n d	-0.00101818
-0.55253	c h a n s	-0.00101818
-0.676594	r e e n y	-0.00101818

\6-grams:
-0.406357	o r a m k o	-0.0113219
-0.406357	t e a m k o	-0.0113219
-0.7919	a r s h k a	-0.0113219
-0.746328	<unk> l c h k </unk>
-0.604836	a i i n k c	-0.0113219
-0.535826	s h o l k o	-0.0113219
-0.643864	c h o l k y	-0.0113219
-0.642711	l d o l k y	-0.0113219
-0.355922	o d y o k o	-0.019549
-0.548783	l c h o k e	-0.0113219
-0.975663	y c h o k </unk>
-0.960667	y c h o k y	-0.0113219
-0.572353	y c h o k e	-0.0113219
-0.525922	n c h o k o	-0.0113219
-0.52262	s s h o k o	-0.0113219
-0.93005	h o l o k y	-0.0113219
-0.632109	h o l o k a	-0.019549
-0.910346	e o l o k c	-0.0113219
-0.658229	e o l o k a	-0.0113219
-0.643639	<unk> o l o k a	-0.0113219
-0.464122	h o r o k o	-0.019549
-0.547865	a i r o k e	-0.0113219
-0.482998	d a r o k o	-0.0113219
-0.548951	e a r o k e	-0.0113219
-0.67081	e o m o k e	-0.0113219
-0.520377	e y q o k o	-0.0113219
-0.647561	e y q o k e	-0.019549
-0.920153	h y q o k </unk>
-0.674901	h y q o k e	-0.0113219
-0.935197	d y q o k c	-0.0113219
-0.674901	d y q o k e	-0.0113219
-0.894671	o l q o k </unk>
-0.493592	h o q o k o	-0.0113219
-0.493592	o m q o k o	-0.0113219
-1.1548	i n q o k s	-0.0113219
-0.460988	i i n o k o	-0.0113219
-0.261446	d a o c k h	-0.0113219
-1.00655	k h o c k </unk>
-0.272559	k h o c k h	-0.0113219
-0.261702	s h o c k h	-0.0113219
-0.20211	k h y c k h	-0.0113219
-0.20211	e e y c k h	-0.0113219
-0.255793	h o r c k h	-0.0113219
-0.255793	e a r c k h	-0.0113219
-0.263344	n c h c k h	-0.0113219
-0.263344	s h a c k h	-0.0113219
-0.67859	l s h e k y	-0.0113219
-0.604299	r c h e k e	-0.0113219
-0.770432	e o l e k </unk>
-0.781408	s h y d k s	-0.0113219
-0.390377	c t h y k o	-0.019549
-0.728931	y c h y k y	-0.0113219
-0.388947	h e y y k o	-0.0113219
-0.388947	k e y y k o	-0.0113219
-0.732657	<unk> m s y k c	-0.0113219
-0.403931	o l o y k o	-0.0113219
-0.715233	i i n y k y	-0.0113219
-0.992856	d a n y k s	-0.0113219
-0.732209	h o l y k y	-0.0113219
-0.43117	h o l y k o	-0.0113219
-0.726009	t h e y k e	-0.0113219
-0.968283	h e e y k a	-0.0113219
-0.732657	s h t y k c	-0.0113219
-0.660331	o d a r k y	-0.0113219
-0.505807	h e o r k o	-0.0113219
-0.102303	<unk> l k e c h	-0.0113219
-0.102303	<unk> s h e c h	-0.0113219
-0.127692	<unk> d o l c h	-0.0113219
-0.137849	l d o l c h	-0.0113219
-0.702856	l d o l c t	-0.0113219
-0.153518	c h o l c h	-0.019549
-0.643282	c h o l c t	-0.0307076
-0.12919	t h o l c h	-0.0113219
-0.12711	o l o l c h	-0.0113219
-0.12711	q o o l c h	-0.0113219
-0.12711	y p o l c h	-0.0113219
-0.124077	o k o l c h	-0.019549
-0.137849	k e o l c h	-0.0113219
-0.702856	k e o l c t	-0.0113219
-0.127692	t e o l c h	-0.0113219
-0.12711	o r o l c h	-0.0113219
-0.117646	<unk> d a l c h	-0.0113219
-0.117646	o d a l c h	-0.0113219
-0.1179	o p a l c h	-0.0113219
-0.0732192	c h y d c h	-0.0113219
-0.0732192	t o y d c h	-0.0113219
-0.0715789	h o l d c h	-0.019549
-0.0749363	i n d d c h	-0.0113219
-0.142238	<unk> o r o c h	-0.0113219
-0.155115	h a m o c h	-0.0113219
-0.920041	d a m o c t	-0.0113219
-0.65055	y d a o c k	-0.0113219
-0.590888	c k h o c k	-0.019549
-0.169917	n s h o c h	-0.0113219
-0.619348	o s h o c k	-0.0113219
-0.138712	a m s o c h	-0.0113219
-0.138712	d y s o c h	-0.0113219
-0.142238	d o t o c h	-0.0113219
-0.142238	h o l o c h	-0.0113219
-0.142238	o r q o c h	-0.0113219
-1.06961	c h a r c f	-0.0113219
-0.123804	o d a r c h	-0.0113219
-0.123804	l d a r c h	-0.0113219
-0.123804	y d a r c h	-0.0113219
-0.975633	e e a r c k	-0.0113219
-0.156946	t a o r c h	-0.0113219
-0.152785	l d o r c h	-0.019549
-0.156301	n d o r c h	-0.0113219
-1.11511	s h o r c k	-0.0113219
-0.749829	s h o r c t	-0.0113219
-1.41347	c h o r c </unk>
-0.176703	c h o r c h	-0.0346659
-0.751949	c h o r c t	-0.0307076
-1.33527	c h o r c f	-0.0113219
-0.150177	h e o r c h	-0.0257986
-0.156946	o r o r c h	-0.0113219
-0.156946	h y o r c h	-0.0113219
-0.156946	r k o r c h	-0.0113219
-0.112605	s c h r c h	-0.0113219
-0.776437	y s h a c k	-0.0113219
-0.93612	i n c h c k	-0.0113219
-0.557568	i n c h c t	-0.019549
-0.150043	m o s h c h	-0.0113219
-0.0977307	c h a m c h	-0.0782663
-0.928582	c h a m c t	-0.0113219
-0.0837237	o k o m c h	-0.0113219
-0.0818251	c h o m c h	-0.019549
-0.0871463	a i i m c h	-0.0113219
-0.0771248	h e o p c h	-0.0113219
-0.0771248	n q o p c h	-0.0113219
-0.0771248	o l o p c h	-0.0113219
-0.0927291	h o m p c h	-0.0113219
-0.0927291	s a m p c h	-0.0113219
-1.28322	a i i n c </unk>
-0.082812	a i i n c h	-0.0379254
-1.11226	a i i n c t	-0.019549
-0.0761821	o i i n c h	-0.019549
-0.0777776	i i i n c h	-0.0113219
-0.0777776	<unk> i i n c h	-0.0113219
-0.0759253	d a i n c h	-0.019549
-0.0873239	o r a n c h	-0.0113219
-0.0694839	i i n k c h	-0.0113219
-0.0679017	h t y k c h	-0.0113219
-0.0679017	m s y k c h	-0.0113219
-0.0679017	y q o k c h	-0.0113219
-0.0679017	o l o k c h	-0.0113219
-0.0698635	l o l t c h	-0.0113219
-0.0326417	y k o t c h	-0.0113219
-0.0318928	o r o t c h	-0.019549
-0.0325261	a r o t c h	-0.0113219
-0.0325781	a m o t c h	-0.0113219
-0.0325781	o m o t c h	-0.0113219
-0.0319437	c h o t c h	-0.019549
-0.0314202	i n o t c h	-0.0257986
-0.0325781	l q o t c h	-0.0113219
-0.0325781	m q o t c h	-0.0113219
-0.0741555	a l y t c h	-0.0113219
-0.0741555	k a y t c h	-0.0113219
-0.0740038	k h y t c h	-0.0113219
-0.0740038	<unk> h y t c h	-0.0113219
-1.06834	i r y t c </unk>
-0.0698635	h o m t c h	-0.0113219
-1.06785	i i n y c </unk>
-0.0658374	h o d y c h	-0.0113219
-0.0658374	e o d y c h	-0.0113219
-0.0659711	<unk> i d y c h	-0.0113219
-0.0686095	t h y y c h	-0.0113219
-0.0686095	c h s y c h	-0.0113219
-0.0659711	h o l y c h	-0.0113219
-0.0659711	o a l y c h	-0.0113219
-0.0686095	c h r y c h	-0.0113219
-0.0686095	i m m y c h	-0.0113219
-0.0649238	c h e y c h	-0.0346659
-1.02812	h e e y c t	-0.0113219
-1.15563	<unk> e e y c k	-0.0113219
-0.0706332	k e e y c h	-0.0113219
-0.0706332	e e e y c h	-0.0113219
-0.0686095	e e a y c h	-0.0113219
-1.1555	c k h y c k	-0.0113219
-0.106563	o s h y c h	-0.0113219
-0.106563	<unk> s h y c h	-0.0113219
-0.111593	l c h y c h	-0.0257986
-0.822323	l c h y c t	-0.0113219
-0.107401	e c h y c h	-0.0113219
-0.781704	d c h y c t	-0.0113219
-0.107401	t c h y c h	-0.0113219
-0.0670488	h o k y c h	-0.0113219
-0.0670488	o l k y c h	-0.0113219
-0.0769932	h e t y c h	-0.0113219
-0.0769932	q o t y c h	-0.0113219
-0.950719	y y t y c t	-0.0113219
-0.0777883	o i e s c h	-0.0113219
-0.0776285	h e e s c h	-0.0113219
-0.0776285	e e e s c h	-0.0113219
-0.0777883	o d y s c h	-0.0113219
-0.0777883	o l y s c h	-0.0113219
-0.0809451	k e o s c h	-0.0113219
-0.857653	l k e c h y	-0.0113219
-0.262251	s h e c h o	-0.0113219
-0.250149	d o l c h o	-0.0113219
-0.789611	d o l c h e	-0.0113219
-0.804488	l o l c h y	-0.0113219
-0.239425	o o l c h o	-0.0113219
-0.239425	p o l c h o	-0.0113219
-1.31673	h o l c h </unk>
-0.243461	h o l c h o	-0.019549
-0.821962	k o l c h y	-0.0113219
-0.250149	k o l c h o	-0.0113219
-0.821962	e o l c h y	-0.0113219
-0.250149	e o l c h o	-0.0113219
-0.772794	r o l c h e	-0.0113219
-0.554677	d a l c h y	-0.019549
-0.240147	p a l c h o	-0.0113219
-1.02063	<unk> a l c h a	-0.0113219
-0.257184	d a r c h o	-0.019549
-0.724266	d a r c h e	-0.0113219
-0.2545	a o r c h o	-0.0113219
-1.0183	d o r c h </unk>
-0.273571	d o r c h o	-0.0113219
-0.724029	d o r c h e	-0.0113219
-1.00101	<unk> o r c h </unk>
-0.265313	<unk> o r c h o	-0.0113219
-1.04362	h o r c h </unk>
-0.285354	h o r c h o	-0.0113219
-1.08014	h o r c h a	-0.0113219
-0.705925	h o r c h e	-0.019549
-0.207683	e o r c h o	-0.0257986
-0.2545	r o r c h o	-0.0113219
-0.696712	y o r c h e	-0.0113219
-0.2545	k o r c h o	-0.0113219
-0.694768	c h r c h e	-0.0113219
-0.243295	h y d c h o	-0.0113219
-0.243295	o y d c h o	-0.0113219
-0.917679	o l d c h y	-0.0113219
-0.255616	o l d c h o	-0.0113219
-0.243909	n d d c h o	-0.0113219
-0.249535	o s h c h o	-0.0113219
-1.18841	<unk> o f c h s	-0.0113219
-0.259535	h a m c h o	-0.0113219
-0.948229	h a m c h a	-0.019549
-0.248098	k o m c h o	-0.0113219
-0.258874	h o m c h o	-0.0113219
-0.707986	h o m c h e	-0.0113219
-0.247804	i i m c h o	-0.0113219
-0.255442	e o p c h o	-0.0113219
-0.255442	q o p c h o	-0.0113219
-0.255442	l o p c h o	-0.0113219
-0.643887	o m p c h e	-0.0113219
-0.643887	a m p c h e	-0.0113219
-0.944007	o r o c h y	-0.0113219
-0.235505	a m o c h o	-0.0113219
-0.677864	m s o c h e	-0.0113219
-0.236452	y s o c h o	-0.0113219
-0.235505	<unk> y o c h o	-0.0113219
-0.235505	o t o c h o	-0.0113219
-0.235505	s h o c h o	-0.0113219
-0.676684	o l o c h e	-0.0113219
-0.676684	r q o c h e	-0.0113219
-1.01579	i i n c h c	-0.019549
-0.299325	i i n c h o	-0.0379254
-1.08532	i i n c h a	-0.0113219
-0.688638	i i n c h e	-0.019549
-0.940469	a i n c h c	-0.0113219
-0.298953	a i n c h o	-0.0113219
-0.287932	<unk> i n c h o	-0.0113219
-0.931013	r a n c h a	-0.0113219
-0.246764	i n k c h o	-0.0113219
-0.247715	t y k c h o	-0.0113219
-0.881231	s y k c h y	-0.0113219
-0.706875	q o k c h e	-0.0113219
-0.247715	l o k c h o	-0.0113219
-0.692233	o l t c h e	-0.0113219
-0.281021	k o t c h o	-0.0113219
-0.300384	r o t c h o	-0.0113219
-0.761217	r o t c h a	-0.019549
-0.273668	m o t c h o	-0.019549
-0.665713	h o t c h e	-0.019549
-1.00731	n o t c h y	-0.0113219
-0.300384	n o t c h o	-0.0113219
-0.812284	n o t c h a	-0.0113219
-0.291998	q o t c h o	-0.0113219
-0.799131	q o t c h a	-0.0113219
-0.785744	l y t c h a	-0.0113219
-0.695221	a y t c h e	-0.0113219
-0.273224	h y t c h o	-0.019549
-0.279572	o m t c h o	-0.0113219
-1.34247	o l y c h t	-0.0113219
-0.182749	<unk> l y c h o	-0.0113219
-0.182749	a l y c h o	-0.0113219
-0.783441	h y y c h e	-0.0113219
-0.182288	h s y c h o	-0.0113219
-0.182288	h r y c h o	-0.0113219
-0.783441	m m y c h e	-0.0113219
-0.191775	h e y c h o	-0.0257986
-1.10775	h e y c h a	-0.0113219
-0.834316	h e y c h e	-0.0113219
-0.193723	e e y c h o	-0.0113219
-0.802014	e e y c h e	-0.0113219
-1.0302	e a y c h a	-0.0113219
-0.178164	s h y c h o	-0.019549
-0.1909	c h y c h o	-0.0257986
-1.47512	c h y c h t	-0.0113219
-1.63146	c h y c h p	-0.0113219
-0.181864	o k y c h o	-0.0113219
-0.181864	l k y c h o	-0.0113219
-1.03681	e t y c h y	-0.0113219
-0.183221	o t y c h o	-0.0113219
-0.177308	o d y c h o	-0.019549
-0.181516	i d y c h o	-0.0113219
-0.449929	i e s c h e	-0.0113219
-1.35521	e e s c h r	-0.0113219
-0.366621	e e s c h o	-0.0113219
-0.355131	d y s c h o	-0.0113219
-0.449929	<unk> y s c h e	-0.0113219
-0.984531	l y s c h a	-0.0113219
-0.448053	e o s c h e	-0.0113219
-0.673043	a r c f h a	-0.0113219
-0.488376	a o c k h y	-0.0113219
-0.501044	h o c k h y	-0.0113219
-0.360757	h o c k h o	-0.0113219
-0.346518	h y c k h o	-0.0113219
-0.346518	e y c k h o	-0.0113219
-0.48727	o r c k h y	-0.0113219
-0.48727	a r c k h y	-0.0113219
-0.347516	c h c k h o	-0.0113219
-0.347516	h a c k h o	-0.0113219
-0.431066	e y c t h y	-0.0113219
-0.417443	h y c t h y	-0.019549
-1.04629	t y c t h a	-0.0113219
-0.943082	o l c t h </unk>
-0.394522	o l c t h o	-0.0257986
-0.85665	o l c t h e	-0.0113219
-0.903236	o r c t h </unk>
-0.487101	o r c t h y	-0.019549
-0.490808	o r c t h o	-0.019549
-0.572113	a m c t h o	-0.0113219
-0.830367	i n c t h </unk>
-0.745346	i n c t h e	-0.0113219
-0.417514	c h c t h y	-0.019549
-0.43253	m o c t h y	-0.0113219
