[unifb]
-0.828164

\data\
ngram 1=20
ngram 2=177
ngram 3=554
ngram 4=999
ngram 5=1347
ngram 6=1549
ngram 7=1611
ngram 8=1604
ngram 9=1560
ngram 10=1506

\1-grams:
-1.01696	</unk>
-1.29443	k	-0.738959
-0.936818	c	-1.19997
-1.38699	h	-0.987228
-1.6857	r	-0.642317
-1.20529	y	-0.823655
-0.932415	o	-1.02933
-1.25463	d	-0.768159
-1.11229	a	-0.964888
-1.53881	i	-0.746478
-1.75132	n	-0.70146
-1.56533	l	-0.770317
-1.43238	t	-0.526391
-1.32234	e	-0.91057
-1.94268	f	-0.142363
-1.61894	m	-0.475425
-1.03574	s	-0.871872
-1.6801	p	-0.329419
-1.39966	q	-0.980242
-2.00152	*	-0.0975464

\2-grams:
-1.326	<unk> k	-0.21552
-1.08665	<unk> c	-0.280122
-1.19409	<unk> h	-0.262533
-1.4949	<unk> r	-0.182996
-1.10843	<unk> y	-0.280122
-0.650402	<unk> o	-0.415353
-1.09378	<unk> d	-0.3092
-1.32456	<unk> a	-0.251912
-0.975543	<unk> i	-0.343053
-1.37188	<unk> n	-0.21552
-1.39579	<unk> l	-0.21552
-1.90126	<unk> t	-0.0833898
-1.33018	<unk> e	-0.251912
-1.97045	<unk> m	-0.0833898
-1.68923	<unk> s	-0.0833898
-1.34069	<unk> q	-0.274983
-1.29737	k </unk>
-0.891151	k c	-0.43168
-1.01288	k h	-0.307768
-0.742863	k y	-0.401329
-0.678762	k o	-0.450375
-1.23132	k a	-0.322258
-0.788732	k e	-0.436818
-1.18004	k s	-0.21552
-1.85926	c </unk>
-1.33309	c k	-0.389744
-0.0973118	c h	-0.89746
-1.05795	c t	-0.67553
-2.28607	c f	-0.140766
-1.90039	c p	-0.184491
-0.992827	h </unk>
-1.75338	h k	-0.140766
-1.51191	h c	-0.182996
-1.89815	h r	-0.140766
-0.694406	h y	-0.494917
-0.458414	h o	-0.725664
-0.921738	h a	-0.466881
-1.6025	h t	-0.222719
-0.984415	h e	-0.585696
-1.90865	h s	-0.0833898
-2.14874	h p	-0.0833898
-1.10806	r </unk>
-1.30224	r k	-0.182996
-0.507377	r c	-0.543387
-1.33278	r y	-0.311375
-0.89187	r o	-0.46269
-1.29554	r d	-0.262533
-1.12519	r a	-0.241406
-1.83055	r l	-0.0833898
-1.54574	r e	-0.182996
-0.924023	r s	-0.340367
-1.19522	r q	-0.3092
-1.34936	y </unk>
-0.905681	y k	-0.385779
-0.554401	y c	-0.59349
-1.48756	y y	-0.241406
-1.11978	y o	-0.307768
-0.847183	y d	-0.466881
-1.02779	y t	-0.41019
-1.97038	y e	-0.0833898
-1.00229	y s	-0.420163
-1.5956	y p	-0.222719
-1.34925	y q	-0.488827
-1.42958	o </unk>
-0.930476	o k	-0.677784
-1.16703	o c	-0.365472
-0.895082	o r	-0.591158
-1.63455	o y	-0.351337
-1.83066	o o	-0.140766
-0.929342	o d	-0.616167
-1.56704	o a	-0.293699
-1.74161	o i	-0.21552
-0.638183	o l	-0.702183
-1.0257	o t	-0.609559
-1.87372	o e	-0.222719
-2.43379	o f	-0.0833898
-1.39725	o m	-0.440907
-1.48832	o s	-0.295005
-1.65616	o p	-0.293699
-2.26177	o q	-0.140766
-2.44466	o *	-0.0833898
-1.38537	d </unk>
-1.83666	d k	-0.0833898
-1.21868	d c	-0.274983
-1.07768	d y	-0.42754
-0.953401	d o	-0.485625
-1.81952	d d	-0.0833898
-0.211783	d a	-0.617516
-1.93068	d l	-0.0833898
-1.28855	a </unk>
-1.79874	a c	-0.0833898
-0.823749	a r	-0.464036
-1.66162	a y	-0.140766
-1.58322	a o	-0.140766
-1.74735	a d	-0.140766
-0.435808	a i	-0.801376
-1.41446	a n	-0.262533
-0.793995	a l	-0.445683
-0.933334	a m	-0.465148
-0.826693	i </unk>
-1.47228	i r	-0.280122
-1.70382	i d	-0.0833898
-0.599292	i i	-0.674381
-0.420003	i n	-0.511702
-1.79588	i l	-0.0833898
-1.72791	i e	-0.0833898
-1.80743	i m	-0.0833898
-1.60867	i s	-0.0833898
-1.86299	i *	-0.0833898
-0.651865	* o	-0.0833898
-0.776679	* q	-0.0833898
-0.0425189	q o	-0.554807
-0.478058	p c	-0.327276
-1.19699	p h	-0.140766
-0.626048	p o	-0.21552
-0.90215	p a	-0.140766
-1.41286	s </unk>
-0.952516	s c	-0.333412
-0.272128	s h	-0.61683
-1.56888	s y	-0.140766
-1.15546	s o	-0.262533
-1.04054	s a	-0.351337
-1.59274	s e	-0.140766
-1.3316	s s	-0.241406
-1.60587	s q	-0.140766
-0.914541	m </unk>
-1.28687	m k	-0.140766
-0.86548	m c	-0.382503
-0.908498	m y	-0.251912
-0.666659	m o	-0.375685
-1.54338	m t	-0.0833898
-1.59335	m m	-0.0833898
-0.955055	m s	-0.3092
-1.35208	m p	-0.140766
-1.22998	m q	-0.184491
-0.774142	f c	-0.0833898
-0.656454	f h	-0.0833898
-0.772293	f o	-0.0833898
-1.18682	e </unk>
-1.60711	e k	-0.182996
-1.51463	e c	-0.140766
-0.710394	e y	-0.515648
-0.612598	e o	-0.567612
-1.29029	e a	-0.351337
-2.01546	e n	-0.0833898
-1.94358	e t	-0.0833898
-0.537486	e e	-0.482782
-1.9905	e m	-0.0833898
-1.35123	e s	-0.241406
-1.10188	t </unk>
-0.680247	t c	-0.396723
-0.929705	t h	-0.502712
-0.944107	t y	-0.262533
-0.931864	t o	-0.351337
-0.999276	t a	-0.241406
-0.990408	t e	-0.295005
-1.06249	t s	-0.182996
-1.52356	l </unk>
-1.15345	l k	-0.293699
-0.705282	l c	-0.566546
-1.27309	l y	-0.307768
-1.08192	l o	-0.407161
-0.603174	l d	-0.535305
-1.73273	l a	-0.0833898
-1.86557	l t	-0.0833898
-1.37278	l e	-0.182996
-1.97736	l f	-0.0833898
-0.777818	l s	-0.447005
-1.38253	l q	-0.21552
-1.18554	n </unk>
-1.65558	n k	-0.0833898
-0.577453	n c	-0.463396
-1.17085	n y	-0.274983
-0.788095	n o	-0.3092
-0.904199	n d	-0.322258
-0.708659	n s	-0.434403
-1.37363	n q	-0.140766

\3-grams:
-0.539197	m k o	-0.0459795
-0.671939	h k y	-0.0257757
-0.987003	h k a	-0.0257757
-0.829994	<unk> k c	-0.0257757
-0.915323	<unk> k h	-0.0257757
-0.664356	<unk> k e	-0.0459795
-0.747865	n k c	-0.0257757
-0.695014	l k y	-0.0459795
-0.650972	l k o	-0.0459795
-0.620052	l k e	-0.0459795
-1.42632	o k </unk>
-0.815823	o k c	-0.086898
-1.02103	o k y	-0.062258
-0.493086	o k o	-0.133125
-0.795382	o k a	-0.096454
-0.836356	o k e	-0.104683
-1.46961	o k s	-0.0257757
-1.23171	c k </unk>
-0.401121	c k h	-0.111844
-0.696482	e k y	-0.0257757
-0.731773	e k e	-0.0257757
-0.992431	e k s	-0.0257757
-0.921252	d k s	-0.0257757
-0.806212	y k c	-0.0756628
-0.757728	y k y	-0.062258
-0.56463	y k o	-0.096454
-1.24281	y k a	-0.0257757
-0.838117	y k e	-0.0459795
-1.20631	y k s	-0.0257757
-0.807315	r k c	-0.0257757
-0.696482	r k y	-0.0257757
-0.645775	r k o	-0.0257757
-0.08649	e c h	-0.0459795
-0.0936954	l c h	-0.159152
-0.851047	l c t	-0.096454
-0.0721264	d c h	-0.086898
-0.895404	o c k	-0.0756628
-0.128183	o c h	-0.118135
-1.08721	o c t	-0.0257757
-1.46093	r c k	-0.0257757
-0.0899055	r c h	-0.159152
-1.17695	r c t	-0.062258
-1.35912	r c f	-0.0459795
-1.74916	r c p	-0.0257757
-1.17332	<unk> c k	-0.0257757
-0.0906268	<unk> c h	-0.096454
-0.994006	a c k	-0.0257757
-0.0910715	f c h	-0.0257757
-1.07182	h c k	-0.0257757
-0.132512	h c h	-0.0257757
-0.919596	h c t	-0.0459795
-0.0741594	m c h	-0.096454
-1.07346	m c t	-0.0257757
-0.0704191	n c h	-0.140791
-1.17101	n c t	-0.0459795
-1.61259	n c p	-0.0257757
-0.0655238	p c h	-0.096454
-1.51876	k c </unk>
-0.0666557	k c h	-0.128669
-0.0630201	t c h	-0.168592
-1.81402	y c </unk>
-1.52339	y c k	-0.0257757
-0.0799976	y c h	-0.172696
-1.00357	y c t	-0.086898
-0.0678686	s c h	-0.118135
-1.30224	c h </unk>
-2.19049	c h k	-0.0257757
-1.7466	c h c	-0.0459795
-2.11521	c h r	-0.0459795
-1.03473	c h y	-0.137145
-0.282972	c h o	-0.227105
-1.04999	c h a	-0.147153
-1.97812	c h t	-0.0459795
-0.718499	c h e	-0.206733
-2.28194	c h s	-0.0257757
-2.39635	c h p	-0.0257757
-0.768352	f h a	-0.0459795
-0.983322	k h </unk>
-0.631966	k h y	-0.062258
-0.400734	k h o	-0.086898
-1.16166	t h </unk>
-0.512016	t h y	-0.111844
-0.430716	t h o	-0.111844
-1.1047	t h a	-0.0257757
-0.969382	t h e	-0.0459795
-0.830313	<unk> h </unk>
-0.641596	<unk> h y	-0.0459795
-0.505998	<unk> h o	-0.0257757
-0.934781	<unk> h e	-0.0257757
-1.24407	s h </unk>
-1.84645	s h k	-0.0257757
-1.70157	s h c	-0.0257757
-0.884389	s h y	-0.086898
-0.380332	s h o	-0.162852
-1.02181	s h a	-0.086898
-1.75967	s h t	-0.0257757
-0.643548	s h e	-0.144113
-0.38352	p h o	-0.0459795
-0.919484	h r </unk>
-0.48162	h r c	-0.0257757
-0.445614	<unk> r c	-0.0459795
-0.960728	<unk> r a	-0.0257757
-1.2121	a r </unk>
-1.34514	a r k	-0.0257757
-0.528659	a r c	-0.0756628
-1.36431	a r y	-0.0257757
-0.68341	a r o	-0.086898
-1.22456	a r a	-0.0257757
-1.12567	a r e	-0.0459795
-0.928242	a r s	-0.062258
-1.14694	o r </unk>
-1.44858	o r k	-0.0459795
-0.439608	o r c	-0.157101
-1.55884	o r y	-0.062258
-0.753354	o r o	-0.118135
-1.1621	o r d	-0.086898
-1.27187	o r a	-0.062258
-1.88041	o r l	-0.0257757
-1.71202	o r e	-0.0257757
-1.13316	o r s	-0.062258
-1.09	o r q	-0.096454
-0.560813	i r c	-0.0257757
-1.17315	i r y	-0.0257757
-0.7905	i r o	-0.0459795
-1.1525	i r d	-0.0257757
-0.905869	i r s	-0.0257757
-1.09297	i r q	-0.0257757
-0.7588	y y k	-0.0459795
-0.577293	y y c	-0.0257757
-0.946694	y y t	-0.0257757
-1.24381	y y p	-0.0257757
-0.607199	k y c	-0.062258
-0.441117	k y d	-0.104683
-1.06317	k y s	-0.0257757
-0.848196	o y k	-0.0459795
-0.900564	o y d	-0.0257757
-0.52542	o y s	-0.086898
-1.4505	h y </unk>
-0.89284	h y k	-0.0756628
-0.547431	h y c	-0.118135
-1.40539	h y y	-0.0459795
-1.19821	h y o	-0.0459795
-0.828105	h y d	-0.086898
-1.04662	h y t	-0.0459795
-1.06015	h y s	-0.0756628
-1.0467	h y q	-0.062258
-0.790475	s y k	-0.0257757
-0.521147	s y c	-0.0257757
-0.877119	t y k	-0.0257757
-0.490782	t y c	-0.062258
-1.02699	t y o	-0.0257757
-0.832532	t y d	-0.0257757
-1.21794	l y </unk>
-0.916763	l y k	-0.0257757
-0.53471	l y c	-0.062258
-0.870389	l y d	-0.0257757
-0.905231	l y t	-0.0459795
-0.990357	l y s	-0.0257757
-1.04652	r y o	-0.0257757
-0.709672	r y t	-0.0459795
-0.70085	r y s	-0.0459795
-0.590026	m y c	-0.0257757
-0.593411	m y t	-0.0459795
-0.891974	<unk> y k	-0.0257757
-0.507192	<unk> y c	-0.062258
-0.846735	<unk> y d	-0.0257757
-0.981682	<unk> y t	-0.0257757
-1.18204	<unk> y q	-0.0257757
-0.650458	n y k	-0.0459795
-0.603903	n y c	-0.0257757
-1.21414	n y y	-0.0257757
-1.35233	n y e	-0.0257757
-1.31096	e y </unk>
-0.91002	e y k	-0.062258
-0.561092	e y c	-0.111844
-1.20592	e y y	-0.0459795
-1.27993	e y o	-0.0257757
-0.838262	e y d	-0.086898
-1.2085	e y t	-0.0257757
-0.834758	e y q	-0.086898
-0.521147	a y c	-0.0257757
-0.870931	a y t	-0.0257757
-1.35843	d y </unk>
-0.653404	d y c	-0.062258
-0.868896	d y o	-0.0756628
-0.793268	d y d	-0.062258
-1.12759	d y t	-0.0257757
-0.959893	d y s	-0.062258
-1.32356	d y p	-0.0459795
-1.07495	d y q	-0.0459795
-0.959721	e o </unk>
-0.734817	e o r	-0.104683
-1.05838	e o d	-0.062258
-1.63037	e o a	-0.0257757
-0.551191	e o l	-0.128669
-1.17163	e o m	-0.062258
-1.27457	e o s	-0.0459795
-1.67673	e o p	-0.0257757
-0.771668	d o r	-0.0756628
-1.48501	d o a	-0.0257757
-1.55527	d o i	-0.0257757
-0.38859	d o l	-0.123704
-1.15904	d o t	-0.0257757
-1.40012	d o m	-0.0257757
-0.952868	a o c	-0.0257757
-0.783135	a o r	-0.0257757
-0.917569	s o c	-0.0459795
-0.546971	s o l	-0.062258
-1.35749	s o e	-0.0257757
-0.772637	y o k	-0.062258
-1.10612	y o c	-0.0257757
-0.824122	y o r	-0.0459795
-0.695247	y o l	-0.0257757
-0.90403	y o t	-0.0459795
-1.0441	k o r	-0.0257757
-1.64786	k o o	-0.0257757
-0.710481	k o d	-0.096454
-1.36125	k o a	-0.0459795
-1.61042	k o i	-0.0257757
-0.499093	k o l	-0.123704
-1.15238	k o t	-0.0257757
-1.42315	k o m	-0.0257757
-0.587053	r o k	-0.096454
-1.24438	r o c	-0.0257757
-0.963048	r o r	-0.0459795
-0.67035	r o l	-0.062258
-0.867049	r o t	-0.062258
-1.38808	r o m	-0.0257757
-1.39013	l o </unk>
-0.644991	l o k	-0.096454
-1.2155	l o c	-0.0257757
-1.00192	l o r	-0.0257757
-1.5004	l o y	-0.0257757
-1.03033	l o d	-0.0257757
-0.665622	l o l	-0.0756628
-1.59891	l o e	-0.0257757
-1.37057	l o m	-0.0257757
-1.51062	l o p	-0.0257757
-0.750525	* o r	-0.0257757
-0.791505	m o k	-0.0459795
-1.03478	m o c	-0.0459795
-1.41029	m o y	-0.0257757
-0.715044	m o t	-0.0756628
-1.34571	m o s	-0.0257757
-1.41881	m o p	-0.0257757
-0.773371	f o d	-0.0257757
-1.65029	h o </unk>
-1.16977	h o k	-0.104683
-1.44228	h o c	-0.062258
-0.541028	h o r	-0.196798
-1.71197	h o y	-0.0459795
-0.874116	h o d	-0.168592
-1.90452	h o a	-0.0257757
-2.02652	h o i	-0.0257757
-0.611613	h o l	-0.177744
-1.41406	h o t	-0.0459795
-1.13655	h o m	-0.146542
-1.75618	h o s	-0.0459795
-1.87351	h o q	-0.0459795
-2.35041	h o *	-0.0257757
-1.17693	o o i	-0.0257757
-0.589785	o o l	-0.0257757
-1.14743	p o </unk>
-0.832859	p o r	-0.0257757
-0.632202	p o l	-0.0257757
-0.923887	p o t	-0.0257757
-1.56039	q o </unk>
-0.670883	q o k	-0.128669
-1.37068	q o c	-0.0257757
-1.68426	q o y	-0.0257757
-1.78055	q o o	-0.0257757
-1.06788	q o d	-0.062258
-0.575902	q o t	-0.123704
-1.79876	q o e	-0.0257757
-1.46107	q o s	-0.0459795
-1.27219	q o p	-0.062258
-1.41229	<unk> o </unk>
-0.851033	<unk> o r	-0.0756628
-0.976991	<unk> o d	-0.0459795
-0.486872	<unk> o l	-0.118135
-0.97929	<unk> o t	-0.062258
-1.76965	<unk> o f	-0.0257757
-1.44791	<unk> o s	-0.0257757
-0.930926	n o k	-0.0257757
-0.930088	n o d	-0.0257757
-0.555027	n o l	-0.0459795
-0.792157	n o t	-0.0459795
-1.12499	t o c	-0.0257757
-0.722937	t o y	-0.062258
-0.962773	t o d	-0.0257757
-1.32849	t o a	-0.0257757
-0.669021	t o l	-0.0459795
-1.11838	o d </unk>
-0.523012	o d y	-0.140791
-1.08898	o d o	-0.0459795
-0.319899	o d a	-0.152517
-1.66506	y d k	-0.0257757
-1.08665	y d c	-0.0459795
-1.04034	y d o	-0.0459795
-0.170103	y d a	-0.168592
-1.69956	y d l	-0.0257757
-1.47159	l d </unk>
-1.24758	l d c	-0.0459795
-1.25948	l d y	-0.0257757
-0.464371	l d o	-0.118135
-0.33101	l d a	-0.118135
-0.160565	r d a	-0.096454
-1.2147	<unk> d </unk>
-0.910338	<unk> d y	-0.0459795
-0.94775	<unk> d o	-0.0257757
-0.227169	<unk> d a	-0.062258
-0.960509	n d o	-0.0459795
-1.40424	n d d	-0.0257757
-0.17917	n d a	-0.096454
-0.865097	i d y	-0.0257757
-0.940889	d d c	-0.0257757
-0.901523	a d y	-0.0257757
-0.219964	a d a	-0.0257757
-0.394589	l a i	-0.0257757
-1.17833	p a d	-0.0257757
-0.71045	p a l	-0.0257757
-0.836777	o a r	-0.0257757
-0.370742	o a i	-0.062258
-0.728655	o a l	-0.0459795
-1.09888	d a </unk>
-0.937556	d a r	-0.104683
-1.76489	d a o	-0.0257757
-0.329407	d a i	-0.17381
-1.42345	d a n	-0.0459795
-0.888431	d a l	-0.104683
-0.944571	d a m	-0.096454
-1.24984	h a </unk>
-1.64978	h a c	-0.0257757
-0.896779	h a r	-0.062258
-0.574934	h a i	-0.0756628
-1.08473	h a n	-0.062258
-0.835149	h a l	-0.0756628
-0.616914	h a m	-0.137368
-0.798296	r a r	-0.0257757
-1.16882	r a n	-0.0257757
-0.775147	r a l	-0.0257757
-0.774728	r a m	-0.0459795
-0.516407	e a r	-0.0756628
-1.36347	e a y	-0.0257757
-0.553775	e a i	-0.0257757
-0.864571	e a m	-0.0459795
-1.18121	k a </unk>
-0.86092	k a r	-0.0257757
-1.35393	k a y	-0.0257757
-1.38279	k a d	-0.0257757
-0.434068	k a i	-0.0459795
-0.837131	k a l	-0.0459795
-0.945553	k a m	-0.0257757
-1.23926	t a o	-0.0257757
-0.388356	t a i	-0.062258
-0.775147	t a l	-0.0257757
-0.804901	<unk> a r	-0.0257757
-0.48788	<unk> a i	-0.0257757
-0.633041	<unk> a m	-0.0459795
-0.269284	s a i	-0.104683
-0.858825	s a l	-0.0257757
-1.09998	a i </unk>
-0.994377	a i r	-0.096454
-0.204228	a i i	-0.179447
-0.848979	a i n	-0.096454
-1.05167	i i </unk>
-1.68068	i i r	-0.0257757
-0.988179	i i i	-0.0257757
-0.15397	i i n	-0.184662
-1.84757	i i l	-0.0257757
-1.85242	i i m	-0.0257757
-0.782033	o i </unk>
-0.599733	o i i	-0.0257757
-1.25422	o i e	-0.0257757
-1.21711	o i s	-0.0257757
-1.41005	<unk> i d	-0.0257757
-0.595335	<unk> i i	-0.062258
-0.362744	<unk> i n	-0.086898
-1.46131	<unk> i *	-0.0257757
-0.572365	o * o	-0.0257757
-0.667118	i * q	-0.0257757
-0.0218523	y q o	-0.128669
-0.0380544	s q o	-0.0459795
-0.0380544	o q o	-0.0459795
-0.0380544	n q o	-0.0459795
-0.0320276	<unk> q o	-0.086898
-0.0354348	l q o	-0.0756628
-0.0346157	m q o	-0.0459795
-0.0309809	r q o	-0.104683
-0.0399525	* q o	-0.0257757
-0.509069	y p c	-0.0257757
-0.459871	y p o	-0.0459795
-0.636886	c p h	-0.0459795
-0.397518	o p c	-0.062258
-0.613267	o p o	-0.0459795
-0.896021	o p a	-0.0257757
-0.398309	m p c	-0.0459795
-0.755287	h p a	-0.0257757
-0.250855	i s h	-0.0257757
-0.698688	e s c	-0.062258
-1.24276	e s e	-0.0257757
-1.24752	e s q	-0.0257757
-1.11229	l s </unk>
-1.08438	l s c	-0.0257757
-0.283399	l s h	-0.123704
-1.24208	l s o	-0.0257757
-0.906696	l s a	-0.062258
-1.51491	l s e	-0.0257757
-1.2335	l s s	-0.0459795
-0.250855	<unk> s h	-0.0257757
-0.209969	n s h	-0.111844
-1.07788	n s o	-0.0459795
-0.931393	n s a	-0.062258
-1.08064	h s y	-0.0257757
-0.224325	t s h	-0.062258
-0.21549	k s h	-0.0756628
-1.374	y s </unk>
-0.906453	y s c	-0.062258
-0.271161	y s h	-0.111844
-1.20814	y s o	-0.0257757
-1.12354	y s a	-0.0257757
-1.03081	y s s	-0.0459795
-0.208422	s s h	-0.086898
-0.31308	m s h	-0.062258
-1.29654	m s y	-0.0257757
-0.794864	m s o	-0.0459795
-1.18707	m s s	-0.0257757
-1.2419	r s </unk>
-0.188541	r s h	-0.096454
-0.844704	o s c	-0.0459795
-0.278523	o s h	-0.0756628
-1.0053	o s a	-0.0257757
-1.32298	o s q	-0.0257757
-1.06749	a m </unk>
-1.22014	a m k	-0.0459795
-0.728747	a m c	-0.086898
-0.992375	a m y	-0.0459795
-0.621076	a m o	-0.096454
-0.80445	a m s	-0.062258
-1.38834	a m p	-0.0257757
-1.30766	a m q	-0.0257757
-1.08799	<unk> m m	-0.0257757
-0.759542	m m y	-0.0257757
-0.96224	o m </unk>
-0.785901	o m c	-0.062258
-1.03552	o m y	-0.0257757
-0.589797	o m o	-0.086898
-1.45397	o m t	-0.0257757
-0.82841	o m s	-0.062258
-1.34993	o m p	-0.0257757
-1.27288	o m q	-0.0257757
-0.790119	e m s	-0.0257757
-0.763574	i m </unk>
-0.524516	c f h	-0.0854158
-0.663902	l f o	-0.0257757
-0.665258	o f c	-0.0257757
-0.414663	r e e	-0.062258
-0.48019	y e e	-0.0257757
-0.442016	s e e	-0.0459795
-1.1829	h e </unk>
-1.40588	h e k	-0.0459795
-1.65992	h e c	-0.0257757
-0.576987	h e y	-0.133125
-0.50119	h e o	-0.147153
-1.40644	h e a	-0.062258
-1.88328	h e t	-0.0257757
-0.698391	h e e	-0.096454
-0.747248	t e y	-0.0257757
-0.562649	t e o	-0.062258
-1.16752	t e a	-0.0257757
-0.509538	t e e	-0.062258
-1.23055	k e </unk>
-1.41877	k e c	-0.0257757
-0.864267	k e y	-0.0257757
-0.485996	k e o	-0.096454
-0.475652	k e e	-0.0756628
-1.30654	e e </unk>
-0.600291	e e y	-0.118135
-0.755319	e e o	-0.062258
-0.856916	e e a	-0.0756628
-1.74109	e e n	-0.0257757
-0.695445	e e e	-0.062258
-1.73346	e e m	-0.0257757
-1.01901	e e s	-0.0756628
-1.00174	i e s	-0.0257757
-0.452506	o e o	-0.0459795
-0.559437	o e e	-0.0257757
-1.04301	<unk> e </unk>
-0.532189	<unk> e y	-0.0459795
-0.638645	<unk> e o	-0.0257757
-1.18093	l e k	-0.0257757
-0.468046	l e e	-0.0459795
-0.878912	l t </unk>
-0.521588	y t c	-0.086898
-1.03283	y t y	-0.0257757
-0.829786	y t o	-0.0459795
-1.07499	y t a	-0.0257757
-0.973556	y t e	-0.062258
-1.01594	y t s	-0.0459795
-1.3552	c t </unk>
-0.179333	c t h	-0.159152
-0.78303	e t y	-0.0257757
-1.34516	o t </unk>
-0.425119	o t c	-0.140791
-1.14704	o t y	-0.0459795
-0.798887	o t o	-0.086898
-1.02595	o t a	-0.062258
-0.907182	o t e	-0.086898
-1.31525	o t s	-0.0257757
-0.775029	<unk> t o	-0.0257757
-0.603951	h t y	-0.0459795
-0.905267	h t a	-0.0257757
-0.594479	m t c	-0.0257757
-1.40695	o l </unk>
-1.25665	o l k	-0.096454
-0.655055	o l c	-0.170396
-1.16753	o l y	-0.096454
-0.763557	o l o	-0.149944
-0.734206	o l d	-0.147153
-1.97362	o l a	-0.0257757
-2.05155	o l t	-0.0257757
-1.63494	o l e	-0.0459795
-2.10937	o l f	-0.0257757
-0.776486	o l s	-0.147153
-1.48062	o l q	-0.062258
-0.623591	a l c	-0.096454
-0.982958	a l y	-0.062258
-1.18292	a l o	-0.0257757
-0.569682	a l d	-0.096454
-1.38407	a l e	-0.0257757
-0.805473	a l s	-0.0459795
-0.609874	<unk> l c	-0.0459795
-0.602996	<unk> l d	-0.0257757
-1.12615	<unk> l q	-0.0257757
-0.533704	i l d	-0.0257757
-0.667952	d l s	-0.0257757
-0.667952	r l s	-0.0257757
-1.21954	i n </unk>
-1.69251	i n k	-0.0257757
-0.569831	i n c	-0.144113
-1.05779	i n y	-0.062258
-0.859646	i n o	-0.096454
-0.805397	i n d	-0.086898
-0.70214	i n s	-0.123704
-1.4026	i n q	-0.0459795
-0.581295	<unk> n c	-0.0257757
-0.752466	<unk> n o	-0.0257757
-0.839477	<unk> n d	-0.0257757
-0.689758	<unk> n s	-0.0257757
-0.610702	a n c	-0.0257757
-1.05933	a n y	-0.0257757
-0.779274	a n d	-0.0459795
-0.651654	a n s	-0.0459795
-0.916455	e n y	-0.0257757

\4-grams:
-0.535273	a m k o	-0.00160461
-0.979232	s h k a	-0.000901629
-0.668621	c h k y	-0.000901629
-0.743746	i n k c	-0.000901629
-0.692851	o l k y	-0.00160461
-0.649336	o l k o	-0.00160461
-0.618757	o l k e	-0.00160461
-0.490767	y o k o	-0.00160461
-0.79305	y o k a	-0.000901629
-0.816058	h o k c	-0.000901629
-1.01923	h o k y	-0.000901629
-0.491883	h o k o	-0.00216809
-0.795772	h o k a	-0.000901629
-0.836428	h o k e	-0.000901629
-0.815521	l o k c	-0.000901629
-1.01854	l o k y	-0.000901629
-0.784982	l o k a	-0.0434864
-1.41499	r o k </unk>
-0.491238	r o k o	-0.00216809
-0.832094	r o k e	-0.00160461
-1.40699	m o k </unk>
-0.791997	m o k a	-0.000901629
-0.812377	q o k c	-0.00216809
-1.02123	q o k y	-0.000901629
-0.493753	q o k o	-0.00216809
-0.832532	q o k e	-0.00262983
-1.46226	q o k s	-0.000901629
-0.491187	n o k o	-0.000901629
-1.22324	o c k </unk>
-0.398797	o c k h	-0.00216809
-0.399756	<unk> c k h	-0.000901629
-0.399756	y c k h	-0.000901629
-0.399756	h c k h	-0.000901629
-0.399756	a c k h	-0.000901629
-0.399756	r c k h	-0.000901629
-0.694109	h e k y	-0.000901629
-0.729065	h e k e	-0.000901629
-0.984552	l e k s	-0.000901629
-0.914689	y d k s	-0.000901629
-0.804642	h y k c	-0.000901629
-0.756599	h y k y	-0.000901629
-0.562447	h y k o	-0.00160461
-0.560375	y y k o	-0.00160461
-0.801375	s y k c	-0.000901629
-0.563295	o y k o	-0.000901629
-0.83422	o y k e	-0.000901629
-0.754756	n y k y	-0.000901629
-1.19518	n y k s	-0.000901629
-0.753494	<unk> y k y	-0.000901629
-0.803768	e y k c	-0.000901629
-1.23249	e y k a	-0.000901629
-0.835323	e y k e	-0.000901629
-0.801375	t y k c	-0.000901629
-0.562232	l y k o	-0.000901629
-0.692919	a r k y	-0.000901629
-0.803792	o r k c	-0.000901629
-0.643838	o r k o	-0.000901629
-0.0862915	k e c h	-0.000901629
-0.0862915	h e c h	-0.000901629
-0.0902095	o l c h	-0.0258855
-0.86305	o l c t	-0.00334147
-0.0928947	a l c h	-0.00334147
-0.09331	<unk> l c h	-0.00160461
-0.0718371	y d c h	-0.00160461
-0.0718371	l d c h	-0.00160461
-0.0719637	d d c h	-0.000901629
-0.127874	r o c h	-0.000901629
-0.128709	m o c h	-0.000901629
-1.07909	m o c t	-0.000901629
-0.889269	a o c k	-0.000901629
-0.88633	h o c k	-0.00216809
-0.129379	h o c h	-0.000901629
-0.127633	s o c h	-0.00160461
-0.127874	y o c h	-0.000901629
-0.127874	t o c h	-0.000901629
-0.127874	l o c h	-0.000901629
-0.127874	q o c h	-0.000901629
-0.0905225	<unk> r c h	-0.000901629
-1.34272	<unk> r c f	-0.000901629
-1.44491	a r c k	-0.000901629
-0.0901087	a r c h	-0.00216809
-1.70215	i r c p	-0.000901629
-0.0896623	o r c h	-0.0412332
-1.17427	o r c t	-0.081213
-1.35835	o r c f	-0.000901629
-0.0896984	h r c h	-0.000901629
-0.986096	h a c k	-0.000901629
-0.0908614	o f c h	-0.000901629
-1.06405	c h c k	-0.000901629
-0.914572	c h c t	-0.00160461
-0.132191	s h c h	-0.000901629
-0.0743128	a m c h	-0.0434864
-1.06937	a m c t	-0.000901629
-0.0737569	o m c h	-0.00216809
-0.0703245	i n c h	-0.026836
-1.17107	i n c t	-0.00160461
-1.60415	i n c p	-0.000901629
-0.0702606	a n c h	-0.000901629
-0.0702606	<unk> n c h	-0.000901629
-0.0653772	y p c h	-0.000901629
-0.0651718	o p c h	-0.00216809
-0.0652631	m p c h	-0.00160461
-0.0665063	<unk> k c h	-0.000901629
-1.49084	n k c </unk>
-0.066221	y k c h	-0.00262983
-0.0661576	o k c h	-0.00301511
-0.0665063	r k c h	-0.000901629
-0.0622695	o t c h	-0.0480058
-0.0625511	y t c h	-0.00301511
-0.0628794	m t c h	-0.000901629
-0.0795604	l y c h	-0.00216809
-0.0798155	m y c h	-0.000901629
-0.0798155	y y c h	-0.000901629
-0.0798155	s y c h	-0.000901629
-1.77137	<unk> y c </unk>
-0.0804271	<unk> y c h	-0.00160461
-0.0798155	n y c h	-0.000901629
-1.51136	e y c k	-0.000901629
-0.080376	e y c h	-0.00334147
-1.00257	e y c t	-0.000901629
-0.0798155	a y c h	-0.000901629
-0.0808038	h y c h	-0.00334147
-0.99409	h y c t	-0.00216809
-0.0795604	k y c h	-0.00216809
-0.0804271	t y c h	-0.00160461
-0.99849	t y c t	-0.000901629
-0.0795604	d y c h	-0.00216809
-0.067503	e s c h	-0.00216809
-0.067503	y s c h	-0.00216809
-0.0675978	o s c h	-0.00160461
-0.0677163	l s c h	-0.000901629
-1.02772	e c h y	-0.000901629
-0.283037	e c h o	-0.000901629
-1.30248	l c h </unk>
-2.15724	l c h k	-0.000901629
-1.02627	l c h y	-0.00301511
-0.282945	l c h o	-0.0525187
-1.05252	l c h a	-0.000901629
-0.721224	l c h e	-0.00160461
-0.281957	r c h o	-0.0681915
-1.04962	r c h a	-0.00160461
-0.715831	r c h e	-0.0377248
-1.03124	d c h y	-0.000901629
-0.281368	d c h o	-0.00262983
-1.29728	o c h </unk>
-0.282705	o c h o	-0.00301511
-0.715493	o c h e	-0.00216809
-1.28541	h c h </unk>
-2.13741	f c h s	-0.000901629
-1.29451	m c h </unk>
-0.283107	m c h o	-0.00216809
-1.0471	m c h a	-0.0519406
-0.718926	m c h e	-0.000901629
-1.69686	n c h c	-0.0472712
-0.283168	n c h o	-0.0335457
-1.0471	n c h a	-0.00160461
-0.719717	n c h e	-0.00160461
-0.282044	<unk> c h o	-0.00262983
-1.0471	<unk> c h a	-0.000901629
-0.718926	<unk> c h e	-0.000901629
-1.29451	p c h </unk>
-0.283107	p c h o	-0.00216809
-0.716032	p c h e	-0.00160461
-2.06982	k c h r	-0.000901629
-1.0262	k c h y	-0.00216809
-0.284307	k c h o	-0.00262983
-1.0499	k c h a	-0.000901629
-0.718715	k c h e	-0.00160461
-1.31306	t c h </unk>
-1.05105	t c h y	-0.00160461
-0.268308	t c h o	-0.00407697
-1.06272	t c h a	-0.00262983
-0.736608	t c h e	-0.00216809
-1.30419	y c h </unk>
-1.03849	y c h y	-0.000901629
-0.282088	y c h o	-0.00522765
-1.04928	y c h a	-0.00216809
-1.94794	y c h t	-0.00160461
-0.720274	y c h e	-0.00262983
-2.35558	y c h p	-0.000901629
-2.06367	s c h r	-0.000901629
-0.284437	s c h o	-0.0472712
-1.04899	s c h a	-0.000901629
-0.713157	s c h e	-0.00262983
-0.578434	c f h a	-0.00160461
-0.982542	c k h </unk>
-0.629638	c k h y	-0.00216809
-0.399742	c k h o	-0.00262983
-0.399371	<unk> k h o	-0.000901629
-1.16333	c t h </unk>
-0.509893	c t h y	-0.0318589
-0.43057	c t h o	-0.00386433
-1.10684	c t h a	-0.000901629
-0.969991	c t h e	-0.00160461
-0.640495	i s h e	-0.000901629
-0.379072	<unk> s h o	-0.000901629
-0.379562	n s h o	-0.00262983
-1.01558	n s h a	-0.00160461
-0.643162	n s h e	-0.00160461
-1.23124	y s h </unk>
-0.884551	y s h y	-0.000901629
-0.380715	y s h o	-0.00216809
-1.0206	y s h a	-0.000901629
-0.645282	y s h e	-0.000901629
-0.380451	s s h o	-0.00160461
-1.0185	s s h a	-0.000901629
-0.641269	s s h e	-0.00160461
-0.881994	k s h y	-0.000901629
-0.379807	k s h o	-0.00160461
-0.643285	k s h e	-0.000901629
-0.636254	t s h e	-0.00216809
-1.67224	o s h c	-0.000901629
-0.881994	o s h y	-0.000901629
-0.379807	o s h o	-0.00160461
-0.885382	l s h y	-0.000901629
-0.3805	l s h o	-0.00262983
-0.638483	l s h e	-0.00301511
-1.81221	r s h k	-0.000901629
-0.883467	r s h y	-0.000901629
-0.380997	r s h o	-0.00160461
-1.01931	r s h a	-0.000901629
-1.732	r s h t	-0.000901629
-0.377313	m s h o	-0.00216809
-0.381254	c p h o	-0.00160461
-0.914462	c h r </unk>
-0.480795	c h r c	-0.000901629
-0.682097	h a r o	-0.000901629
-1.21475	h a r a	-0.000901629
-0.924311	h a r s	-0.000901629
-1.33741	d a r k	-0.000901629
-0.527048	d a r c	-0.00216809
-0.684532	d a r o	-0.000901629
-1.1224	d a r e	-0.000901629
-0.927481	d a r s	-0.000901629
-0.921559	<unk> a r s	-0.000901629
-0.679979	o a r o	-0.000901629
-1.19853	r a r </unk>
-0.529067	e a r c	-0.000901629
-0.679723	e a r o	-0.00160461
-1.11958	e a r e	-0.000901629
-1.34481	k a r y	-0.000901629
-1.25621	p o r a	-0.000901629
-0.438033	k o r c	-0.000901629
-1.13741	r o r </unk>
-0.750427	r o r o	-0.000901629
-1.16976	h o r </unk>
-1.4714	h o r k	-0.000901629
-0.462013	h o r c	-0.0829546
-1.11764	h o r y	-0.00216809
-0.773975	h o r o	-0.00362147
-1.18198	h o r d	-0.00262983
-1.29648	h o r a	-0.000901629
-1.89422	h o r l	-0.000901629
-1.15874	h o r s	-0.000901629
-1.11114	h o r q	-0.00262983
-0.438033	a o r c	-0.000901629
-1.12196	* o r s	-0.000901629
-0.435039	d o r c	-0.00262983
-1.14042	<unk> o r </unk>
-0.440427	<unk> o r c	-0.000901629
-0.752262	<unk> o r o	-0.000901629
-1.08459	<unk> o r q	-0.000901629
-1.12196	l o r s	-0.000901629
-0.439007	y o r c	-0.000901629
-1.2587	y o r a	-0.000901629
-1.43784	e o r k	-0.000901629
-0.438962	e o r c	-0.00262983
-1.15824	e o r d	-0.000901629
-1.68967	e o r e	-0.000901629
-1.08727	e o r q	-0.000901629
-0.562126	a i r c	-0.000901629
-1.16824	a i r y	-0.000901629
-0.790404	a i r o	-0.000901629
-1.14797	a i r d	-0.000901629
-0.904733	a i r s	-0.000901629
-1.08945	a i r q	-0.000901629
-0.785866	i i r o	-0.000901629
-0.751276	e y y k	-0.00160461
-1.22917	n y y p	-0.000901629
-0.575871	h y y c	-0.000901629
-0.941247	h y y t	-0.000901629
-0.603541	o k y c	-0.00160461
-0.441289	o k y d	-0.000901629
-0.605562	l k y c	-0.000901629
-0.440507	l k y d	-0.000901629
-0.439533	r k y d	-0.000901629
-0.439302	y k y d	-0.00160461
-1.05703	y k y s	-0.000901629
-0.439533	e k y d	-0.000901629
-0.439533	h k y d	-0.000901629
-0.897008	t o y d	-0.000901629
-0.522756	t o y s	-0.00160461
-0.842781	l o y k	-0.000901629
-0.523306	q o y s	-0.000901629
-0.84417	h o y k	-0.000901629
-0.524338	h o y s	-0.000901629
-0.523306	m o y s	-0.000901629
-0.54621	<unk> h y c	-0.000901629
-1.05262	<unk> h y s	-0.000901629
-0.546199	s h y c	-0.00160461
-0.823049	s h y d	-0.00160461
-1.04303	s h y q	-0.000901629
-0.889188	t h y k	-0.00160461
-1.39709	t h y y	-0.000901629
-1.19449	t h y o	-0.000901629
-0.828716	t h y d	-0.000901629
-1.05848	t h y s	-0.00160461
-1.0399	t h y q	-0.00160461
-1.1891	k h y o	-0.000901629
-0.825424	k h y d	-0.000901629
-1.0408	k h y t	-0.000901629
-1.44505	c h y </unk>
-0.891894	c h y k	-0.00160461
-0.544496	c h y c	-0.00334147
-1.40093	c h y y	-0.000901629
-0.830373	c h y d	-0.000901629
-1.04729	c h y t	-0.000901629
-1.06069	c h y s	-0.000901629
-0.519062	h s y c	-0.000901629
-0.785841	m s y k	-0.000901629
-0.488898	e t y c	-0.000901629
-0.872709	h t y k	-0.000901629
-0.828704	h t y d	-0.000901629
-0.489905	o t y c	-0.000901629
-1.02013	o t y o	-0.000901629
-0.488898	y t y c	-0.000901629
-0.531943	a l y c	-0.00160461
-0.901613	a l y t	-0.000901629
-1.21214	o l y </unk>
-0.915513	o l y k	-0.000901629
-0.536141	o l y c	-0.000901629
-0.869602	o l y d	-0.000901629
-0.904101	o l y t	-0.000901629
-0.988265	o l y s	-0.000901629
-1.04069	o r y o	-0.000901629
-0.708143	o r y t	-0.000901629
-0.699395	o r y s	-0.000901629
-0.697243	a r y s	-0.000901629
-0.705973	i r y t	-0.000901629
-0.588758	a m y t	-0.0519406
-0.58743	m m y c	-0.000901629
-0.590788	o m y t	-0.000901629
-0.649399	i n y k	-0.000901629
-0.603171	i n y c	-0.000901629
-1.20461	i n y y	-0.000901629
-0.647343	a n y k	-0.000901629
-1.33338	e n y e	-0.000901629
-1.30011	h e y </unk>
-0.911492	h e y k	-0.000901629
-0.560121	h e y c	-0.00262983
-1.20438	h e y y	-0.000901629
-1.27726	h e y o	-0.000901629
-0.837586	h e y d	-0.00216809
-0.836724	h e y q	-0.000901629
-0.90676	e e y k	-0.00160461
-0.561868	e e y c	-0.00216809
-0.839214	e e y d	-0.000901629
-1.20528	e e y t	-0.000901629
-0.829601	e e y q	-0.00216809
-1.19256	k e y y	-0.000901629
-0.832988	t e y d	-0.000901629
-0.55978	<unk> e y c	-0.000901629
-0.830903	<unk> e y q	-0.000901629
-0.519062	e a y c	-0.000901629
-0.865179	k a y t	-0.000901629
-0.655125	o d y c	-0.00160461
-0.863576	o d y o	-0.00262983
-0.79381	o d y d	-0.00160461
-1.12779	o d y t	-0.000901629
-0.95844	o d y s	-0.00160461
-1.314	o d y p	-0.00160461
-1.07568	o d y q	-0.000901629
-0.650262	i d y c	-0.000901629
-0.788598	l d y d	-0.000901629
-1.34207	<unk> d y </unk>
-1.0671	<unk> d y q	-0.000901629
-0.952642	a d y s	-0.000901629
-1.05537	k e o d	-0.000901629
-0.548606	k e o l	-0.00216809
-1.16674	k e o m	-0.000901629
-1.26751	k e o s	-0.000901629
-0.94888	t e o </unk>
-0.550789	t e o l	-0.000901629
-0.959023	h e o </unk>
-0.731333	h e o r	-0.0377248
-1.05981	h e o d	-0.000901629
-1.62207	h e o a	-0.000901629
-0.55063	h e o l	-0.00334147
-1.27368	h e o s	-0.000901629
-1.66695	h e o p	-0.000901629
-0.732079	o e o r	-0.000901629
-1.16146	o e o m	-0.000901629
-1.15933	<unk> e o m	-0.000901629
-0.733069	e e o r	-0.000901629
-1.05233	e e o d	-0.000901629
-0.550789	e e o l	-0.000901629
-0.770397	l d o r	-0.00160461
-0.386036	l d o l	-0.00386433
-1.39291	l d o m	-0.000901629
-1.46273	o d o a	-0.000901629
-0.388232	o d o l	-0.000901629
-0.768547	n d o r	-0.000901629
-1.1492	n d o t	-0.000901629
-0.387289	<unk> d o l	-0.000901629
-0.768547	y d o r	-0.000901629
-1.52892	y d o i	-0.000901629
-0.945747	d a o c	-0.000901629
-0.778593	t a o r	-0.000901629
-0.912576	m s o c	-0.000901629
-1.34117	m s o e	-0.000901629
-0.911069	y s o c	-0.000901629
-0.544704	l s o l	-0.000901629
-0.542948	n s o l	-0.00160461
-0.767523	d y o k	-0.00160461
-0.69462	d y o l	-0.000901629
-0.901404	d y o t	-0.000901629
-0.819045	r y o r	-0.000901629
-0.768224	e y o k	-0.000901629
-0.897755	t y o t	-0.000901629
-1.09758	h y o c	-0.000901629
-0.820398	h y o r	-0.000901629
-0.707979	l k o d	-0.000901629
-0.498169	l k o l	-0.000901629
-0.709191	o k o d	-0.00216809
-1.59963	o k o i	-0.000901629
-0.495278	o k o l	-0.00362147
-1.41768	o k o m	-0.000901629
-1.62704	y k o o	-0.000901629
-0.710962	y k o d	-0.000901629
-1.35194	y k o a	-0.000901629
-0.49892	y k o l	-0.00160461
-1.14785	y k o t	-0.000901629
-0.707979	m k o d	-0.000901629
-1.34477	m k o a	-0.000901629
-1.03513	r k o r	-0.000901629
-0.585416	a r o k	-0.00160461
-0.960541	a r o r	-0.000901629
-0.865632	a r o t	-0.000901629
-1.37656	a r o m	-0.000901629
-0.585885	o r o k	-0.00216809
-1.24054	o r o c	-0.000901629
-0.962965	o r o r	-0.000901629
-0.670186	o r o l	-0.00160461
-0.864475	o r o t	-0.00160461
-0.585562	i r o k	-0.000901629
-0.668208	i r o l	-0.000901629
-1.38786	o l o </unk>
-0.642146	o l o k	-0.00334147
-1.21568	o l o c	-0.000901629
-1.49601	o l o y	-0.000901629
-1.03222	o l o d	-0.000901629
-0.665164	o l o l	-0.00262983
-1.59213	o l o e	-0.000901629
-1.36863	o l o m	-0.000901629
-1.50601	o l o p	-0.000901629
-0.99385	a l o r	-0.000901629
-0.746374	o * o r	-0.000901629
-0.791401	a m o k	-0.000901629
-1.02617	a m o c	-0.00160461
-1.39948	a m o y	-0.000901629
-0.712623	a m o t	-0.00160461
-0.790792	o m o k	-0.000901629
-0.711825	o m o t	-0.00160461
-1.33552	o m o s	-0.000901629
-1.40624	o m o p	-0.000901629
-0.768949	l f o d	-0.000901629
-1.67557	c h o </unk>
-1.19897	c h o k	-0.00334147
-0.569483	c h o r	-0.0312647
-0.864053	c h o d	-0.0427059
-2.0542	c h o i	-0.000901629
-0.547619	c h o l	-0.0496226
-1.44647	c h o t	-0.00160461
-1.16632	c h o m	-0.00362147
-1.90393	c h o q	-0.000901629
-1.41301	k h o c	-0.0519406
-0.541945	k h o r	-0.000901629
-1.68488	k h o y	-0.000901629
-0.612161	k h o l	-0.000901629
-0.543209	t h o r	-0.000901629
-0.874364	t h o d	-0.000901629
-0.609566	t h o l	-0.00216809
-1.12732	t h o m	-0.00160461
-1.84255	t h o q	-0.000901629
-1.17175	s h o k	-0.000901629
-1.43456	s h o c	-0.00160461
-0.544064	s h o r	-0.00216809
-1.70516	s h o y	-0.000901629
-0.876053	s h o d	-0.00160461
-0.60733	s h o l	-0.00426472
-1.13879	s h o m	-0.000901629
-1.7348	s h o s	-0.00160461
-2.30454	s h o *	-0.000901629
-0.539848	p h o r	-0.000901629
-1.84597	p h o a	-0.000901629
-0.538804	<unk> h o r	-0.000901629
-0.587191	q o o l	-0.000901629
-1.16447	k o o i	-0.000901629
-1.13789	y p o </unk>
-0.918798	y p o t	-0.000901629
-0.829028	o p o r	-0.000901629
-0.630374	o p o l	-0.000901629
-1.55035	y q o </unk>
-0.664074	y q o k	-0.0377248
-1.76121	y q o o	-0.000901629
-0.575783	y q o t	-0.0472712
-0.57449	s q o t	-0.000901629
-1.259	s q o p	-0.000901629
-0.668737	o q o k	-0.000901629
-0.57449	o q o t	-0.000901629
-0.668737	n q o k	-0.000901629
-1.64866	n q o y	-0.000901629
-0.668263	<unk> q o k	-0.00160461
-0.574383	<unk> q o t	-0.00160461
-1.26402	<unk> q o p	-0.000901629
-0.670433	l q o k	-0.000901629
-1.06287	l q o d	-0.000901629
-0.576056	l q o t	-0.000901629
-1.44504	l q o s	-0.000901629
-0.668737	m q o k	-0.000901629
-0.57449	m q o t	-0.000901629
-1.36228	r q o c	-0.000901629
-1.06547	r q o d	-0.000901629
-0.575628	r q o t	-0.00160461
-1.77086	r q o e	-0.000901629
-1.44993	r q o s	-0.000901629
-1.26619	r q o p	-0.000901629
-1.05835	* q o d	-0.000901629
-0.929525	i n o k	-0.000901629
-0.928696	i n o d	-0.000901629
-0.556366	i n o l	-0.000901629
-0.785227	i n o t	-0.0472712
-0.552701	<unk> n o l	-0.000901629
-1.12001	o t o c	-0.000901629
-0.719604	o t o y	-0.00160461
-1.3188	o t o a	-0.000901629
-0.669221	o t o l	-0.000901629
-0.955469	<unk> t o d	-0.000901629
-0.720316	y t o y	-0.000901629
-0.66689	y t o l	-0.000901629
-1.12941	h o d </unk>
-0.540826	h o d y	-0.00362147
-1.10443	h o d o	-0.00160461
-0.302057	h o d a	-0.00362147
-0.31892	f o d a	-0.000901629
-0.518961	k o d y	-0.00262983
-0.320912	k o d a	-0.00160461
-0.520915	t o d y	-0.000901629
-0.522772	e o d y	-0.000901629
-0.319051	e o d a	-0.00160461
-0.31892	n o d a	-0.000901629
-0.521945	<unk> o d y	-0.000901629
-0.319828	<unk> o d a	-0.000901629
-0.317551	q o d a	-0.00216809
-0.31892	l o d a	-0.000901629
-1.07667	<unk> y d c	-0.000901629
-0.170133	d y d a	-0.00160461
-1.66689	d y d l	-0.000901629
-1.64095	h y d k	-0.000901629
-0.169552	h y d a	-0.00262983
-0.168378	k y d a	-0.00362147
-0.169672	t y d a	-0.000901629
-1.03027	e y d o	-0.00160461
-0.170441	e y d a	-0.00216809
-0.169672	l y d a	-0.000901629
-1.07667	o y d c	-0.000901629
-0.461247	a l d o	-0.00262983
-0.331962	a l d a	-0.00160461
-1.46734	o l d </unk>
-1.24154	o l d c	-0.00160461
-0.463908	o l d o	-0.075066
-0.331324	o l d a	-0.00362147
-0.462652	<unk> l d o	-0.000901629
-1.24428	i l d y	-0.000901629
-0.160163	i r d a	-0.000901629
-0.159223	o r d a	-0.00301511
-0.958033	i n d o	-0.00160461
-1.39217	i n d d	-0.000901629
-0.179451	i n d a	-0.00216809
-0.17871	<unk> n d a	-0.000901629
-0.178352	a n d a	-0.00160461
-0.859433	<unk> i d y	-0.000901629
-0.933984	n d d c	-0.000901629
-0.21937	k a d a	-0.000901629
-0.895289	p a d y	-0.000901629
-0.393257	o l a i	-0.000901629
-0.706743	o p a l	-0.000901629
-1.16583	h p a d	-0.000901629
-0.724751	h o a l	-0.000901629
-0.369529	t o a i	-0.000901629
-0.368588	k o a i	-0.00160461
-0.831525	e o a r	-0.000901629
-0.724751	d o a l	-0.000901629
-0.935258	o d a r	-0.00216809
-0.328441	o d a i	-0.0551726
-1.421	o d a n	-0.000901629
-0.886932	o d a l	-0.00216809
-0.947234	o d a m	-0.000901629
-1.11042	y d a </unk>
-0.957786	y d a r	-0.000901629
-1.77039	y d a o	-0.000901629
-0.310115	y d a i	-0.00407697
-0.904285	y d a l	-0.00216809
-0.964758	y d a m	-0.000901629
-1.09526	r d a </unk>
-0.329182	r d a i	-0.00216809
-0.93818	r d a m	-0.00160461
-0.93382	l d a r	-0.00160461
-0.327692	l d a i	-0.00301511
-0.94466	l d a m	-0.000901629
-0.933494	<unk> d a r	-0.000901629
-0.330031	<unk> d a i	-0.000901629
-0.940408	<unk> d a m	-0.000901629
-1.09526	n d a </unk>
-0.329182	n d a i	-0.00216809
-1.41222	n d a n	-0.000901629
-0.88747	n d a l	-0.000901629
-0.328386	a d a i	-0.000901629
-1.24375	c h a </unk>
-0.899333	c h a r	-0.000901629
-0.577604	c h a i	-0.00160461
-1.08213	c h a n	-0.00160461
-0.833732	c h a l	-0.00216809
-0.614151	c h a m	-0.00362147
-0.892092	f h a r	-0.000901629
-0.615204	f h a m	-0.000901629
-1.62659	s h a c	-0.000901629
-0.895049	s h a r	-0.000901629
-0.573425	s h a i	-0.00160461
-1.08046	s h a n	-0.000901629
-0.82992	t h a l	-0.000901629
-0.77029	a r a m	-0.000901629
-0.795935	o r a r	-0.000901629
-1.16043	o r a n	-0.000901629
-0.773019	o r a l	-0.000901629
-0.77029	<unk> r a m	-0.000901629
-0.512588	e e a r	-0.00216809
-1.35113	e e a y	-0.000901629
-0.516203	h e a r	-0.000901629
-0.553358	h e a i	-0.000901629
-0.861467	h e a m	-0.000901629
-0.858915	t e a m	-0.000901629
-1.17615	o k a </unk>
-0.860222	o k a r	-0.000901629
-1.34482	o k a y	-0.000901629
-1.37284	o k a d	-0.000901629
-0.435893	o k a i	-0.000901629
-0.836647	o k a l	-0.00160461
-0.938564	y k a m	-0.000901629
-0.432525	h k a i	-0.000901629
-1.22478	y t a o	-0.000901629
-0.386995	o t a i	-0.00160461
-0.773019	o t a l	-0.000901629
-0.387056	h t a i	-0.000901629
-0.267431	n s a i	-0.00216809
-0.267431	l s a i	-0.00216809
-0.853255	y s a l	-0.000901629
-0.268511	o s a i	-0.000901629
-1.09869	d a i </unk>
-0.989047	d a i r	-0.00334147
-0.204645	d a i i	-0.0222484
-0.849502	d a i n	-0.00301511
-0.202932	o a i i	-0.00216809
-0.202932	t a i i	-0.00216809
-0.203268	k a i i	-0.00160461
-1.09438	h a i </unk>
-0.204753	h a i i	-0.0519406
-0.846976	h a i n	-0.000901629
-0.202068	s a i i	-0.00362147
-0.203688	l a i i	-0.000901629
-0.203688	e a i i	-0.000901629
-0.203688	<unk> a i i	-0.000901629
-1.05035	a i i </unk>
-1.67889	a i i r	-0.000901629
-0.992676	a i i i	-0.000901629
-0.153025	a i i n	-0.0653253
-1.84685	a i i m	-0.000901629
-0.154077	<unk> i i n	-0.00160461
-1.80151	<unk> i i l	-0.000901629
-0.153586	o i i n	-0.000901629
-0.153586	i i i n	-0.000901629
-1.23921	h o i e	-0.000901629
-0.597059	o o i i	-0.000901629
-1.20338	k o i s	-0.000901629
-0.777505	d o i </unk>
-0.569908	h o * o	-0.000901629
-0.663846	<unk> i * q	-0.000901629
-0.0217407	h y q o	-0.00216809
-0.0216973	e y q o	-0.00301511
-0.0218058	<unk> y q o	-0.000901629
-0.0217697	d y q o	-0.00160461
-0.0379719	e s q o	-0.000901629
-0.0379719	o s q o	-0.000901629
-0.0379078	h o q o	-0.00160461
-0.0379078	i n q o	-0.00160461
-0.035251	o l q o	-0.00216809
-0.0353583	<unk> l q o	-0.000901629
-0.034541	a m q o	-0.000901629
-0.034541	o m q o	-0.000901629
-0.0307348	o r q o	-0.00334147
-0.0309143	i r q o	-0.000901629
-0.0398657	i * q o	-0.000901629
-0.456865	d y p o	-0.00160461
-0.507066	y y p c	-0.000901629
-0.633894	r c p h	-0.000901629
-0.633894	n c p h	-0.000901629
-0.396172	e o p c	-0.000901629
-0.397881	q o p c	-0.000901629
-0.612472	q o p o	-0.000901629
-0.892524	q o p a	-0.000901629
-0.61048	m o p o	-0.000901629
-0.396172	l o p c	-0.000901629
-0.396958	o m p c	-0.000901629
-0.396958	a m p c	-0.000901629
-0.751081	c h p a	-0.000901629
-0.250151	o i s h	-0.000901629
-0.695103	i e s c	-0.000901629
-0.694777	e e s c	-0.00160461
-1.23401	e e s e	-0.000901629
-1.23864	e e s q	-0.000901629
-1.11324	o l s </unk>
-1.08559	o l s c	-0.000901629
-0.283599	o l s h	-0.00386433
-1.24162	o l s o	-0.000901629
-0.904131	o l s a	-0.00216809
-1.50969	o l s e	-0.000901629
-1.23315	o l s s	-0.000901629
-1.21922	d l s s	-0.000901629
-1.1036	a l s </unk>
-0.283463	a l s h	-0.000901629
-0.282571	r l s h	-0.000901629
-0.209396	i n s h	-0.00362147
-1.07201	i n s o	-0.00160461
-0.932014	i n s a	-0.000901629
-0.209409	<unk> n s h	-0.000901629
-0.919484	a n s a	-0.00160461
-1.07081	c h s y	-0.000901629
-0.223244	y t s h	-0.00160461
-0.223717	o t s h	-0.000901629
-0.214912	d k s h	-0.000901629
-0.214912	y k s h	-0.000901629
-0.214912	e k s h	-0.000901629
-0.214912	o k s h	-0.000901629
-0.903799	h y s c	-0.000901629
-0.270113	h y s h	-0.00216809
-1.36293	o y s </unk>
-0.271923	o y s h	-0.00160461
-1.02102	o y s s	-0.00160461
-0.902819	d y s c	-0.000901629
-0.271979	d y s h	-0.000901629
-1.19876	d y s o	-0.000901629
-0.269775	r y s h	-0.00160461
-1.11261	k y s a	-0.000901629
-0.900138	l y s c	-0.000901629
-0.207437	y s s h	-0.00160461
-0.207437	l s s h	-0.00160461
-0.207868	m s s h	-0.000901629
-1.2846	a m s y	-0.000901629
-0.792537	a m s o	-0.000901629
-1.17824	a m s s	-0.000901629
-0.310802	o m s h	-0.00216809
-0.790174	e m s o	-0.000901629
-0.187367	a r s h	-0.00216809
-1.2316	o r s </unk>
-0.188478	o r s h	-0.00160461
-0.188051	i r s h	-0.000901629
-0.277086	h o s h	-0.00160461
-0.840723	e o s c	-0.000901629
-1.308	e o s q	-0.000901629
-0.277714	<unk> o s h	-0.000901629
-0.840723	q o s c	-0.000901629
-0.998844	q o s a	-0.000901629
-0.277714	m o s h	-0.000901629
-1.2086	r a m k	-0.000901629
-0.986152	r a m y	-0.000901629
-1.06435	d a m </unk>
-0.617464	d a m o	-0.00216809
-0.804242	d a m s	-0.000901629
-1.29979	d a m q	-0.000901629
-0.612828	h a m c	-0.00301511
-0.652456	h a m o	-0.000901629
-0.831422	h a m s	-0.00160461
-0.619334	<unk> a m o	-0.000901629
-1.37072	<unk> a m p	-0.000901629
-0.618222	k a m o	-0.000901629
-1.2086	e a m k	-0.000901629
-0.986152	e a m y	-0.000901629
-0.755287	<unk> m m y	-0.000901629
-0.988463	h o m </unk>
-0.810752	h o m c	-0.00160461
-0.520744	h o m o	-0.00262983
-1.47159	h o m t	-0.000901629
-0.855731	h o m s	-0.000901629
-1.37023	h o m p	-0.000901629
-0.823274	r o m s	-0.000901629
-1.0299	e o m y	-0.000901629
-0.589156	e o m o	-0.000901629
-1.26168	e o m q	-0.000901629
-0.823274	d o m s	-0.000901629
-0.954945	l o m </unk>
-0.781325	k o m c	-0.000901629
-0.785489	e e m s	-0.000901629
-0.759271	i i m </unk>
-0.520775	r c f h	-0.00160461
-0.66066	o l f o	-0.000901629
-0.662004	<unk> o f c	-0.000901629
-0.412111	a r e e	-0.00160461
-0.413226	o r e e	-0.000901629
-0.478373	n y e e	-0.000901629
-0.440428	l s e e	-0.000901629
-0.440428	e s e e	-0.000901629
-1.21969	c h e </unk>
-1.44376	c h e k	-0.000901629
-0.613836	c h e y	-0.0335457
-0.428038	c h e o	-0.0501437
-1.44432	c h e a	-0.00160461
-1.91016	c h e t	-0.000901629
-0.738576	c h e e	-0.00216809
-1.18282	s h e </unk>
-1.40246	s h e k	-0.000901629
-1.64996	s h e c	-0.000901629
-0.578194	s h e y	-0.00216809
-0.50195	s h e o	-0.00262983
-1.40301	s h e a	-0.000901629
-0.696763	s h e e	-0.0434864
-0.572564	t h e y	-0.00160461
-0.499239	<unk> h e o	-0.000901629
-0.562179	y t e o	-0.000901629
-1.15916	y t e a	-0.000901629
-0.50937	y t e e	-0.000901629
-0.746895	o t e y	-0.000901629
-0.561266	o t e o	-0.00160461
-0.508658	o t e e	-0.00160461
-0.86003	<unk> k e y	-0.000901629
-0.485146	<unk> k e o	-0.000901629
-1.39979	l k e c	-0.000901629
-0.485146	l k e o	-0.000901629
-0.485146	y k e o	-0.000901629
-0.47486	y k e e	-0.000901629
-1.22542	o k e </unk>
-0.486447	o k e o	-0.00160461
-0.473105	o k e e	-0.0434864
-0.484142	e k e o	-0.000901629
-1.29427	t e e </unk>
-0.753382	t e e o	-0.000901629
-0.853904	t e e a	-0.000901629
-0.59511	k e e y	-0.00262983
-0.754211	k e e o	-0.000901629
-0.594814	h e e y	-0.0403564
-0.856255	h e e a	-0.000901629
-1.01655	h e e s	-0.000901629
-0.691894	o e e e	-0.000901629
-0.853904	e e e a	-0.000901629
-1.0063	e e e s	-0.00160461
-0.752371	l e e o	-0.000901629
-1.69359	l e e m	-0.000901629
-0.598705	s e e y	-0.000901629
-0.693082	s e e e	-0.000901629
-0.691894	y e e e	-0.000901629
-0.853904	r e e a	-0.000901629
-1.70507	r e e n	-0.000901629
-1.01368	r e e s	-0.000901629
-0.993676	o i e s	-0.000901629
-0.557078	l o e e	-0.000901629
-0.450856	s o e o	-0.000901629
-0.450856	q o e o	-0.000901629
-1.17051	o l e k	-0.000901629
-0.467295	o l e e	-0.000901629
-0.466304	a l e e	-0.000901629
-0.873038	o l t </unk>
-0.960292	m y t e	-0.00216809
-0.520529	r y t c	-0.000901629
-0.825992	r y t o	-0.000901629
-1.06529	<unk> y t a	-0.000901629
-0.520529	l y t c	-0.000901629
-0.825992	l y t o	-0.000901629
-1.00758	d y t s	-0.000901629
-1.00758	e y t s	-0.000901629
-0.5195	a y t c	-0.000901629
-0.517882	h y t c	-0.00160461
-1.02411	y y t y	-0.000901629
-0.1778	y c t h	-0.00301511
-0.177635	l c t h	-0.00334147
-1.34126	r c t </unk>
-0.179317	r c t h	-0.00262983
-0.178873	m c t h	-0.000901629
-0.178515	n c t h	-0.00160461
-0.178515	h c t h	-0.00160461
-0.178873	o c t h	-0.000901629
-0.778489	h e t y	-0.000901629
-0.423625	k o t c	-0.000901629
-0.794145	p o t o	-0.000901629
-0.79049	y o t o	-0.00160461
-1.33157	r o t </unk>
-0.425363	r o t c	-0.000901629
-1.02049	r o t a	-0.000901629
-0.422515	m o t c	-0.00216809
-1.02163	m o t a	-0.000901629
-0.422466	h o t c	-0.00160461
-0.422466	n o t c	-0.00216809
-0.423448	<unk> o t c	-0.00160461
-0.903538	<unk> o t e	-0.000901629
-0.427109	q o t c	-0.00160461
-1.13945	q o t y	-0.00160461
-0.800463	q o t o	-0.000901629
-1.02569	q o t a	-0.000901629
-0.901185	q o t e	-0.00262983
-1.31074	q o t s	-0.000901629
-0.794145	d o t o	-0.000901629
-0.601241	s h t y	-0.000901629
-0.602338	c h t y	-0.000901629
-0.900457	c h t a	-0.000901629
-0.591848	o m t c	-0.000901629
-1.15536	y o l y	-0.000901629
-0.654031	e o l c	-0.00216809
-0.758692	e o l o	-0.00262983
-0.736448	e o l d	-0.000901629
-1.62225	e o l e	-0.000901629
-0.776104	e o l s	-0.00160461
-0.653961	r o l c	-0.000901629
-1.15917	r o l y	-0.000901629
-1.46141	r o l q	-0.000901629
-0.760523	t o l o	-0.000901629
-0.731474	t o l d	-0.000901629
-1.25324	k o l k	-0.000901629
-0.653548	k o l c	-0.00216809
-0.765343	k o l o	-0.000901629
-0.731554	k o l d	-0.00216809
-0.775658	k o l s	-0.00160461
-0.759254	p o l o	-0.000901629
-0.651897	o o l c	-0.000901629
-1.15917	s o l y	-0.000901629
-1.60693	s o l e	-0.000901629
-0.774346	s o l s	-0.000901629
-0.760523	n o l o	-0.000901629
-0.773313	n o l s	-0.000901629
-0.653005	<unk> o l c	-0.00216809
-0.765002	<unk> o l o	-0.000901629
-0.735822	<unk> o l d	-0.000901629
-0.772478	<unk> o l s	-0.00216809
-1.47114	<unk> o l q	-0.000901629
-0.654715	l o l c	-0.000901629
-1.16057	l o l y	-0.000901629
-1.98563	l o l t	-0.000901629
-0.775192	l o l s	-0.000901629
-1.39987	h o l </unk>
-1.2503	h o l k	-0.00262983
-0.658756	h o l c	-0.0434864
-1.16849	h o l y	-0.00160461
-0.76359	h o l o	-0.00334147
-0.732768	h o l d	-0.00386433
-1.96358	h o l a	-0.000901629
-2.09356	h o l f	-0.000901629
-0.776338	h o l s	-0.00334147
-1.48144	h o l q	-0.000901629
-1.40042	d o l </unk>
-1.25324	d o l k	-0.000901629
-0.651641	d o l c	-0.00262983
-0.762877	d o l o	-0.00160461
-0.733848	d o l d	-0.00160461
-0.620711	d a l c	-0.00216809
-0.981612	d a l y	-0.000901629
-1.1787	d a l o	-0.000901629
-0.571379	d a l d	-0.000901629
-0.805787	d a l s	-0.000901629
-0.976902	o a l y	-0.000901629
-0.568313	o a l d	-0.000901629
-0.620716	p a l c	-0.000901629
-0.565359	k a l d	-0.00160461
-0.567246	t a l d	-0.000901629
-0.620712	h a l c	-0.00160461
-0.56987	h a l d	-0.000901629
-1.37102	h a l e	-0.000901629
-0.975267	r a l y	-0.000901629
-0.800645	s a l s	-0.000901629
-0.531532	i i l d	-0.000901629
-0.664672	y d l s	-0.000901629
-0.664672	o r l s	-0.000901629
-1.22728	i i n </unk>
-1.70035	i i n k	-0.000901629
-0.58074	i i n c	-0.0480058
-1.073	i i n y	-0.000901629
-0.86861	i i n o	-0.00334147
-0.819092	i i n d	-0.00160461
-0.658279	i i n s	-0.00386433
-1.4151	i i n q	-0.000901629
-0.570605	<unk> i n c	-0.000901629
-1.04719	<unk> i n y	-0.00160461
-0.804563	<unk> i n d	-0.000901629
-1.39058	<unk> i n q	-0.000901629
-0.56904	a i n c	-0.00160461
-0.801653	a i n d	-0.00160461
-0.699887	a i n s	-0.00160461
-1.05182	d a n y	-0.000901629
-0.64967	d a n s	-0.000901629
-0.772812	h a n d	-0.00160461
-0.650586	h a n s	-0.000901629
-0.607936	r a n c	-0.000901629
-0.909974	e e n y	-0.000901629

\5-grams:
-0.512232	r a m k o	-0.00984969
-0.512232	e a m k o	-0.00984969
-0.903193	r s h k a	-0.00984969
-0.634341	l c h k y	-0.00984969
-0.701613	i i n k c	-0.00984969
-0.686534	h o l k y	-0.00984969
-0.616916	h o l k o	-0.0174129
-0.617685	h o l k e	-0.00984969
-0.589053	k o l k e	-0.00984969
-0.65617	d o l k y	-0.00984969
-0.456393	d y o k o	-0.0174129
-0.745068	e y o k a	-0.00984969
-0.812945	c h o k c	-0.00984969
-0.994523	c h o k y	-0.00984969
-0.490701	c h o k o	-0.0174129
-0.794356	c h o k a	-0.00984969
-0.831536	c h o k e	-0.00984969
-0.471864	s h o k o	-0.00984969
-0.812454	o l o k c	-0.00984969
-0.993923	o l o k y	-0.00984969
-0.690988	o l o k a	-0.0282671
-1.26817	o r o k </unk>
-0.467603	o r o k o	-0.0174129
-0.779047	i r o k e	-0.00984969
-0.481958	a r o k o	-0.00984969
-0.792999	a r o k e	-0.00984969
-1.21666	o m o k </unk>
-0.744146	a m o k a	-0.00984969
-0.937349	l q o k y	-0.00984969
-0.473609	o q o k o	-0.00984969
-0.761937	n q o k c	-0.00984969
-0.77564	<unk> q o k c	-0.00984969
-1.27746	<unk> q o k s	-0.00984969
-0.8407	y q o k c	-0.00984969
-0.543146	y q o k o	-0.00984969
-0.606591	y q o k e	-0.0282671
-0.473609	m q o k o	-0.00984969
-0.471214	i n o k o	-0.00984969
-0.384383	a o c k h	-0.00984969
-1.12984	h o c k </unk>
-0.383795	h o c k h	-0.0174129
-0.385289	e y c k h	-0.00984969
-0.385289	c h c k h	-0.00984969
-0.385289	h a c k h	-0.00984969
-0.385289	a r c k h	-0.00984969
-0.6573	s h e k y	-0.00984969
-0.688565	c h e k e	-0.00984969
-0.907554	o l e k s	-0.00984969
-0.849547	h y d k s	-0.00984969
-0.519399	t h y k o	-0.0174129
-0.768804	c h y k c	-0.00984969
-0.726042	c h y k y	-0.00984969
-0.517596	e y y k o	-0.0174129
-0.752346	m s y k c	-0.00984969
-0.538147	l o y k o	-0.00984969
-0.780887	h o y k e	-0.00984969
-0.711368	i n y k y	-0.00984969
-1.07163	a n y k s	-0.00984969
-0.78184	h e y k e	-0.00984969
-0.768031	e e y k c	-0.00984969
-1.11977	e e y k a	-0.00984969
-0.752346	h t y k c	-0.00984969
-0.537167	o l y k o	-0.00984969
-0.656232	d a r k y	-0.00984969
-0.611892	e o r k o	-0.00984969
-0.754456	h o r k c	-0.00984969
-0.0841561	l k e c h	-0.00984969
-0.0841561	s h e c h	-0.00984969
-0.0923178	d o l c h	-0.0234039
-0.841069	d o l c t	-0.00984969
-0.103858	<unk> o l c h	-0.00984969
-0.782894	<unk> o l c t	-0.0174129
-0.087967	l o l c h	-0.00984969
-0.087967	o o l c h	-0.00984969
-0.149211	h o l c h	-0.00984969
-0.606126	h o l c t	-0.0234039
-0.084981	k o l c h	-0.0234039
-0.084981	e o l c h	-0.0234039
-0.087967	r o l c h	-0.00984969
-0.0874944	d a l c h	-0.0234039
-0.0905782	p a l c h	-0.00984969
-0.0888429	h a l c h	-0.0174129
-0.0700889	<unk> y d c h	-0.00984969
-0.0700889	o y d c h	-0.00984969
-0.0687777	o l d c h	-0.0174129
-0.0702121	n d d c h	-0.00984969
-0.124552	o r o c h	-0.00984969
-0.134336	a m o c h	-0.00984969
-1.0012	a m o c t	-0.00984969
-0.82806	d a o c k	-0.00984969
-0.594077	k h o c k	-0.0174129
-0.840243	s h o c k	-0.00984969
-0.134987	s h o c h	-0.00984969
-0.124319	m s o c h	-0.00984969
-0.124319	y s o c h	-0.00984969
-0.124552	h y o c h	-0.00984969
-0.124552	o t o c h	-0.00984969
-0.124552	o l o c h	-0.00984969
-0.124552	r q o c h	-0.00984969
-0.0848867	d a r c h	-0.0234039
-1.24019	e a r c k	-0.00984969
-1.37848	a i r c p	-0.00984969
-0.0874348	a o r c h	-0.00984969
-0.0834316	d o r c h	-0.0282671
-1.05616	<unk> o r c t	-0.00984969
-0.140002	h o r c h	-0.038575
-0.753074	h o r c t	-0.0282671
-1.37507	h o r c f	-0.00984969
-0.0834316	e o r c h	-0.0282671
-0.0874348	y o r c h	-0.00984969
-0.0874348	k o r c h	-0.00984969
-0.0874698	c h r c h	-0.00984969
-0.908817	s h a c k	-0.00984969
-0.0886009	<unk> o f c h	-0.00984969
-1.03972	n c h c k	-0.00984969
-0.635179	n c h c t	-0.0174129
-0.12874	o s h c h	-0.00984969
-0.0758936	h a m c h	-0.0282671
-1.02937	h a m c t	-0.00984969
-0.0719579	k o m c h	-0.00984969
-0.0706089	h o m c h	-0.0174129
-0.0893915	i i n c h	-0.0451648
-0.950688	i i n c t	-0.0174129
-1.55361	i i n c p	-0.00984969
-0.0673346	a i n c h	-0.0174129
-0.068616	<unk> i n c h	-0.00984969
-0.0685538	r a n c h	-0.00984969
-0.0637979	y y p c h	-0.00984969
-0.0635978	e o p c h	-0.00984969
-0.0635978	q o p c h	-0.00984969
-0.0635978	l o p c h	-0.00984969
-0.0636868	o m p c h	-0.00984969
-0.0636868	a m p c h	-0.00984969
-1.26763	i n k c </unk>
-0.0646198	t y k c h	-0.00984969
-0.0646198	e y k c h	-0.00984969
-0.0646198	s y k c h	-0.00984969
-0.0646198	h y k c h	-0.00984969
-0.064558	h o k c h	-0.00984969
-0.0624245	q o k c h	-0.0234039
-0.064558	l o k c h	-0.00984969
-0.0648977	o r k c h	-0.00984969
-0.0607706	k o t c h	-0.00984969
-0.0607706	r o t c h	-0.00984969
-0.0587709	m o t c h	-0.0234039
-0.059646	h o t c h	-0.0174129
-0.0587709	n o t c h	-0.0234039
-0.059646	<unk> o t c h	-0.0174129
-0.059646	q o t c h	-0.0174129
-0.061045	l y t c h	-0.00984969
-0.061045	a y t c h	-0.00984969
-0.0599149	h y t c h	-0.0174129
-0.061045	r y t c h	-0.00984969
-0.0613649	o m t c h	-0.00984969
-0.0776068	o l y c h	-0.00984969
-0.0761423	a l y c h	-0.0174129
-0.0778551	m m y c h	-0.00984969
-0.0778551	h y y c h	-0.00984969
-0.0778551	h s y c h	-0.00984969
-0.0778551	i n y c h	-0.00984969
-0.0748475	h e y c h	-0.0282671
-1.33089	e e y c k	-0.00984969
-0.0942405	e e y c h	-0.00984969
-0.952012	e e y c t	-0.00984969
-0.0784005	<unk> e y c h	-0.00984969
-0.0778551	e a y c h	-0.00984969
-0.0773274	s h y c h	-0.0174129
-0.0876055	c h y c h	-0.0282671
-0.922026	c h y c t	-0.0174129
-0.915347	<unk> h y c t	-0.00984969
-0.0761423	o k y c h	-0.0174129
-0.0776068	l k y c h	-0.00984969
-0.0784503	e t y c h	-0.00984969
-0.0784503	o t y c h	-0.00984969
-0.918932	y t y c t	-0.00984969
-0.0761423	o d y c h	-0.0174129
-0.0776068	i d y c h	-0.00984969
-0.0658683	i e s c h	-0.00984969
-0.0646421	e e s c h	-0.0174129
-0.0658683	d y s c h	-0.00984969
-0.0658683	h y s c h	-0.00984969
-0.0658683	l y s c h	-0.00984969
-0.0659607	e o s c h	-0.00984969
-0.0659607	q o s c h	-0.00984969
-0.0660761	o l s c h	-0.00984969
-0.942569	k e c h y	-0.00984969
-0.27418	h e c h o	-0.00984969
-1.29984	o l c h </unk>
-0.985082	o l c h y	-0.0234039
-0.262119	o l c h o	-0.0410717
-0.752443	o l c h e	-0.0174129
-1.70864	a l c h k	-0.00984969
-0.946926	a l c h y	-0.0174129
-0.295474	a l c h o	-0.0174129
-1.02334	a l c h a	-0.00984969
-0.267545	<unk> l c h o	-0.0174129
-0.275713	a r c h o	-0.0174129
-0.699451	a r c h e	-0.00984969
-0.2419	o r c h o	-0.0483795
-1.06766	o r c h a	-0.0174129
-0.738763	o r c h e	-0.0282671
-0.67676	h r c h e	-0.00984969
-0.273145	<unk> r c h o	-0.00984969
-0.266082	y d c h o	-0.0174129
-0.962365	l d c h y	-0.00984969
-0.282124	l d c h o	-0.00984969
-0.27258	d d c h o	-0.00984969
-1.14432	r o c h </unk>
-0.273861	m o c h o	-0.00984969
-0.28341	s o c h o	-0.00984969
-0.689057	s o c h e	-0.00984969
-0.273861	y o c h o	-0.00984969
-0.273861	t o c h o	-0.00984969
-0.273861	h o c h o	-0.00984969
-0.676457	l o c h e	-0.00984969
-0.676457	q o c h e	-0.00984969
-1.13612	s h c h </unk>
-1.52946	o f c h s	-0.00984969
-0.32214	a m c h o	-0.0174129
-0.717834	a m c h a	-0.0174129
-1.18322	o m c h </unk>
-0.291395	o m c h o	-0.00984969
-0.702274	o m c h e	-0.00984969
-1.47255	i n c h c	-0.0174129
-0.257809	i n c h o	-0.0410717
-1.07375	i n c h a	-0.00984969
-0.748893	i n c h e	-0.0174129
-0.958076	a n c h a	-0.00984969
-1.37601	<unk> n c h c	-0.00984969
-0.274247	y p c h o	-0.00984969
-1.18322	o p c h </unk>
-0.276787	o p c h o	-0.0174129
-0.649676	m p c h e	-0.0174129
-1.51218	<unk> k c h r	-0.00984969
-0.983106	y k c h y	-0.00984969
-0.285342	y k c h o	-0.0174129
-0.710363	y k c h e	-0.00984969
-0.935304	o k c h y	-0.0174129
-0.291532	o k c h o	-0.0174129
-0.71727	o k c h e	-0.00984969
-0.960306	r k c h a	-0.00984969
-1.32712	o t c h </unk>
-1.09948	o t c h y	-0.00984969
-0.274482	o t c h o	-0.038575
-0.868616	o t c h a	-0.0234039
-0.786359	o t c h e	-0.0174129
-1.0138	y t c h y	-0.00984969
-0.276415	y t c h o	-0.0174129
-1.02373	y t c h a	-0.00984969
-0.7338	y t c h e	-0.00984969
-1.1551	m t c h </unk>
-0.275835	l y c h o	-0.0174129
-1.55022	l y c h t	-0.00984969
-0.680727	m y c h e	-0.00984969
-0.680727	y y c h e	-0.00984969
-0.273271	s y c h o	-0.00984969
-0.266751	<unk> y c h o	-0.0174129
-0.959809	n y c h a	-0.00984969
-0.283553	e y c h o	-0.0234039
-1.02055	e y c h a	-0.00984969
-0.695298	e y c h e	-0.0174129
-0.959809	a y c h a	-0.00984969
-0.27272	h y c h o	-0.0282671
-1.62836	h y c h t	-0.00984969
-1.76426	h y c h p	-0.00984969
-1.1903	k y c h </unk>
-0.275835	k y c h o	-0.0174129
-0.968297	t y c h y	-0.00984969
-0.282817	t y c h o	-0.00984969
-0.261733	d y c h o	-0.0234039
-1.59056	e s c h r	-0.00984969
-0.292679	e s c h o	-0.00984969
-0.697011	e s c h e	-0.00984969
-0.292679	y s c h o	-0.00984969
-0.990832	y s c h a	-0.00984969
-0.697011	y s c h e	-0.00984969
-0.285077	o s c h o	-0.00984969
-0.686945	o s c h e	-0.00984969
-0.67437	l s c h e	-0.00984969
-0.533275	r c f h a	-0.0174129
-0.935063	o c k h </unk>
-0.620155	o c k h y	-0.00984969
-0.403477	o c k h o	-0.00984969
-0.598976	<unk> c k h y	-0.00984969
-0.385276	y c k h o	-0.00984969
-0.385276	h c k h o	-0.00984969
-0.385276	a c k h o	-0.00984969
-0.598976	r c k h y	-0.00984969
-0.481549	y c t h y	-0.0234039
-0.445159	y c t h o	-0.00984969
-1.06087	y c t h a	-0.00984969
-1.11699	l c t h </unk>
-0.404101	l c t h o	-0.0282671
-0.95137	l c t h e	-0.00984969
-0.499478	n c t h y	-0.00984969
-0.911532	n c t h e	-0.00984969
-0.493312	r c t h y	-0.0174129
-0.421162	r c t h o	-0.0174129
-0.414368	m c t h o	-0.00984969
-0.473326	h c t h y	-0.0174129
-0.488653	o c t h y	-0.00984969
-0.608855	o i s h e	-0.00984969
-0.378565	i n s h o	-0.0234039
-0.94862	i n s h a	-0.0174129
-0.633803	i n s h e	-0.0174129
-0.366171	<unk> n s h o	-0.00984969
-0.850487	h y s h y	-0.00984969
-0.367215	h y s h o	-0.0174129
-0.377292	o y s h o	-0.00984969
-0.95362	o y s h a	-0.00984969
-1.01904	r y s h </unk>
-0.613203	d y s h e	-0.00984969
-0.377039	y s s h o	-0.00984969
-0.621435	y s s h e	-0.00984969
-0.377039	l s s h o	-0.00984969
-0.621435	l s s h e	-0.00984969
-0.935152	m s s h a	-0.00984969
-0.61139	d k s h e	-0.00984969
-0.366403	y k s h o	-0.00984969
-0.821876	e k s h y	-0.00984969
-0.366403	o k s h o	-0.00984969
-0.582875	y t s h e	-0.0174129
-0.604999	o t s h e	-0.00984969
-0.836495	h o s h y	-0.00984969
-0.376425	h o s h o	-0.00984969
-0.366403	<unk> o s h o	-0.00984969
-1.36434	m o s h c	-0.00984969
-0.384413	o l s h o	-0.0234039
-0.575866	o l s h e	-0.0322939
-0.36706	a l s h o	-0.00984969
-0.824758	r l s h y	-0.00984969
-1.49365	a r s h k	-0.00984969
-0.367473	a r s h o	-0.0174129
-0.837769	o r s h y	-0.00984969
-0.952558	o r s h a	-0.00984969
-1.39207	i r s h t	-0.00984969
-0.346871	o m s h o	-0.0234039
-0.367775	r c p h o	-0.00984969
-0.367775	n c p h o	-0.00984969
-0.849356	k c h r </unk>
-0.461504	s c h r c	-0.00984969
-1.08594	f h a r a	-0.00984969
-0.646497	c h a r o	-0.00984969
-0.857629	s h a r s	-0.00984969
-1.21426	o d a r k	-0.00984969
-0.524281	o d a r c	-0.00984969
-1.05076	o d a r e	-0.00984969
-0.515548	l d a r c	-0.00984969
-0.660975	l d a r o	-0.00984969
-0.860286	y d a r s	-0.00984969
-0.504601	<unk> d a r c	-0.00984969
-0.644589	e o a r o	-0.00984969
-1.0741	o r a r </unk>
-1.01478	h e a r e	-0.00984969
-0.526182	e e a r c	-0.00984969
-0.632514	e e a r o	-0.0174129
-1.17642	o k a r y	-0.00984969
-1.11568	o p o r a	-0.00984969
-0.421393	r k o r c	-0.00984969
-0.707536	a r o r o	-0.00984969
-1.02841	o r o r </unk>
-1.0884	s h o r </unk>
-0.71125	s h o r o	-0.0174129
-1.22084	c h o r </unk>
-1.48997	c h o r k	-0.00984969
-0.475828	c h o r c	-0.0468632
-1.14342	c h o r y	-0.0174129
-0.805058	c h o r o	-0.0282671
-1.01206	c h o r d	-0.0282671
-1.3363	c h o r a	-0.00984969
-1.82032	c h o r l	-0.00984969
-0.990734	c h o r q	-0.0234039
-0.728326	k h o r o	-0.00984969
-1.01329	t h o r y	-0.00984969
-1.04454	<unk> h o r s	-0.00984969
-1.00829	p h o r q	-0.00984969
-0.421393	t a o r c	-0.00984969
-1.01661	o * o r s	-0.00984969
-0.406584	l d o r c	-0.0174129
-0.418576	y d o r c	-0.00984969
-0.418576	n d o r c	-0.00984969
-1.01661	a l o r s	-0.00984969
-1.11743	r y o r a	-0.00984969
-0.422309	h y o r c	-0.00984969
-1.35441	h e o r k	-0.00984969
-0.364419	h e o r c	-0.0282671
-1.08199	h e o r q	-0.00984969
-1.04417	o e o r d	-0.00984969
-1.37264	e e o r e	-0.00984969
-0.575763	d a i r c	-0.00984969
-1.12105	d a i r y	-0.00984969
-0.789425	d a i r o	-0.00984969
-1.10423	d a i r d	-0.00984969
-0.893293	d a i r s	-0.00984969
-1.05496	d a i r q	-0.00984969
-0.738773	a i i r o	-0.00984969
-0.708288	h e y y k	-0.00984969
-0.708288	k e y y k	-0.00984969
-1.09637	i n y y p	-0.00984969
-0.549737	t h y y c	-0.00984969
-0.871784	c h y y t	-0.00984969
-0.575141	h o k y c	-0.00984969
-0.575141	q o k y c	-0.00984969
-0.424455	l o k y d	-0.00984969
-0.588555	o l k y c	-0.00984969
-0.434091	o l k y d	-0.00984969
-0.422804	a r k y d	-0.00984969
-0.422587	n y k y d	-0.00984969
-0.422587	<unk> y k y d	-0.00984969
-0.965969	h y k y s	-0.00984969
-0.422804	h e k y d	-0.00984969
-0.422804	c h k y d	-0.00984969
-0.484666	o t o y s	-0.0174129
-0.834622	y t o y d	-0.00984969
-0.788278	o l o y k	-0.00984969
-0.501126	n q o y s	-0.00984969
-0.789476	s h o y k	-0.00984969
-0.502084	k h o y s	-0.00984969
-0.501126	a m o y s	-0.00984969
-0.771211	y s h y d	-0.00984969
-0.522351	o s h y c	-0.00984969
-0.522351	l s h y c	-0.00984969
-0.771211	r s h y d	-0.00984969
-0.954834	k s h y q	-0.00984969
-0.883727	c t h y k	-0.0174129
-1.35089	c t h y y	-0.00984969
-1.18834	c t h y o	-0.00984969
-0.864717	c t h y d	-0.00984969
-0.820825	c t h y s	-0.0174129
-1.00633	c t h y q	-0.0174129
-1.10351	c k h y o	-0.00984969
-0.798266	c k h y d	-0.00984969
-0.984029	c k h y t	-0.00984969
-1.32195	l c h y </unk>
-0.511484	l c h y c	-0.0234039
-0.819513	l c h y d	-0.00984969
-0.520775	e c h y c	-0.00984969
-0.520775	d c h y c	-0.00984969
-0.830288	y c h y k	-0.00984969
-0.856913	k c h y k	-0.00984969
-1.25862	k c h y y	-0.00984969
-1.00051	k c h y s	-0.00984969
-0.531851	t c h y c	-0.00984969
-0.97548	t c h y t	-0.00984969
-0.497183	c h s y c	-0.00984969
-0.738751	a m s y k	-0.00984969
-0.469076	h e t y c	-0.00984969
-0.81396	s h t y k	-0.00984969
-0.776113	c h t y d	-0.00984969
-0.480704	q o t y c	-0.00984969
-0.953233	q o t y o	-0.00984969
-0.469076	y y t y c	-0.00984969
-0.838519	r a l y t	-0.00984969
-0.509143	d a l y c	-0.00984969
-0.509143	o a l y c	-0.00984969
-0.910591	l o l y s	-0.00984969
-0.86534	h o l y k	-0.00984969
-0.52405	h o l y c	-0.00984969
-1.08405	y o l y </unk>
-0.811306	s o l y d	-0.00984969
-0.840622	r o l y t	-0.00984969
-0.983944	h o r y o	-0.00984969
-0.692431	h o r y t	-0.00984969
-0.684429	h o r y s	-0.00984969
-0.660114	k a r y s	-0.00984969
-0.667941	a i r y t	-0.00984969
-0.561584	r a m y t	-0.00984969
-0.561584	e a m y t	-0.00984969
-0.560365	<unk> m m y c	-0.00984969
-0.563449	e o m y t	-0.00984969
-0.628891	<unk> i n y k	-0.00984969
-1.09894	<unk> i n y y	-0.00984969
-0.574801	i i n y c	-0.00984969
-0.615074	d a n y k	-0.00984969
-1.1688	e e n y e	-0.00984969
-1.18608	c h e y </unk>
-0.554124	c h e y c	-0.0282671
-0.686486	c h e y d	-0.0174129
-0.861896	t h e y k	-0.00984969
-1.09877	t h e y y	-0.00984969
-1.17051	s h e y o	-0.00984969
-0.809075	s h e y d	-0.00984969
-0.80831	s h e y q	-0.00984969
-0.920845	h e e y k	-0.00984969
-0.470665	h e e y c	-0.0174129
-0.860836	h e e y d	-0.00984969
-0.852214	h e e y q	-0.00984969
-0.564294	k e e y c	-0.00984969
-1.12984	k e e y t	-0.00984969
-0.768977	k e e y q	-0.0174129
-0.842866	s e e y k	-0.00984969
-1.06971	<unk> k e y y	-0.00984969
-0.779821	o t e y d	-0.00984969
-0.497183	e e a y c	-0.00984969
-0.807522	o k a y t	-0.00984969
-0.841538	k o d y o	-0.00984969
-0.924958	k o d y s	-0.00984969
-1.21308	k o d y p	-0.00984969
-1.02471	k o d y q	-0.00984969
-0.80615	t o d y o	-0.00984969
-0.668403	h o d y c	-0.00984969
-0.825203	h o d y o	-0.0174129
-0.766029	h o d y d	-0.0174129
-0.94757	h o d y s	-0.00984969
-1.2476	h o d y p	-0.00984969
-1.02108	<unk> o d y t	-0.00984969
-0.622131	e o d y c	-0.00984969
-0.617722	<unk> i d y c	-0.00984969
-0.741168	i l d y d	-0.00984969
-0.881256	p a d y s	-0.00984969
-0.964648	<unk> k e o d	-0.00984969
-0.524578	y k e o l	-0.00984969
-0.524578	l k e o l	-0.00984969
-1.07012	o k e o m	-0.00984969
-1.14545	o k e o s	-0.00984969
-0.524578	e k e o l	-0.00984969
-0.893736	o t e o </unk>
-0.537721	o t e o l	-0.00984969
-0.878133	y t e o </unk>
-1.01484	c h e o </unk>
-0.614026	c h e o r	-0.035683
-1.10597	c h e o d	-0.00984969
-0.517787	c h e o l	-0.0282671
-1.59131	c h e o p	-0.00984969
-1.41881	s h e o a	-0.00984969
-0.52988	s h e o l	-0.0174129
-1.18278	s h e o s	-0.00984969
-0.886541	<unk> h e o </unk>
-1.04658	s o e o m	-0.00984969
-0.691247	q o e o r	-0.00984969
-0.962239	k e e o d	-0.00984969
-0.526597	t e e o l	-0.00984969
-0.692128	l e e o r	-0.00984969
-0.72014	a l d o r	-0.0174129
-0.38016	a l d o l	-0.0174129
-0.372306	<unk> l d o l	-0.00984969
-0.278688	o l d o l	-0.0322939
-1.34885	o l d o m	-0.00984969
-1.27775	h o d o a	-0.00984969
-0.384453	h o d o l	-0.00984969
-0.736725	i n d o r	-0.00984969
-1.05657	i n d o t	-0.00984969
-0.736725	e y d o r	-0.00984969
-1.31809	e y d o i	-0.00984969
-0.875529	y d a o c	-0.00984969
-0.732387	y t a o r	-0.00984969
-0.847769	a m s o c	-0.00984969
-1.174	e m s o e	-0.00984969
-0.8465	d y s o c	-0.00984969
-0.520968	o l s o l	-0.00984969
-0.502385	i n s o l	-0.0174129
-0.717739	o d y o k	-0.0174129
-0.688168	o d y o l	-0.00984969
-0.875065	o d y o t	-0.00984969
-0.767735	o r y o r	-0.00984969
-0.723261	h e y o k	-0.00984969
-0.835255	o t y o t	-0.00984969
-0.76891	k h y o r	-0.00984969
-0.997789	t h y o c	-0.00984969
-0.682258	o l k o d	-0.00984969
-0.488472	o l k o l	-0.00984969
-0.683356	y o k o d	-0.00984969
-0.485756	y o k o l	-0.00984969
-0.693388	h o k o d	-0.00984969
-1.38395	h o k o i	-0.00984969
-0.494307	h o k o l	-0.00984969
-0.471227	r o k o l	-0.0174129
-1.26998	r o k o m	-0.00984969
-0.693388	q o k o d	-0.00984969
-0.471227	q o k o l	-0.0174129
-0.475033	n o k o l	-0.00984969
-1.3734	h y k o o	-0.00984969
-1.05552	h y k o t	-0.00984969
-0.684959	y y k o d	-0.00984969
-0.489178	y y k o l	-0.00984969
-0.47843	o y k o l	-0.00984969
-1.18114	l y k o a	-0.00984969
-0.682258	a m k o d	-0.00984969
-1.20009	a m k o a	-0.00984969
-0.948515	o r k o r	-0.00984969
-0.887797	h a r o r	-0.00984969
-1.19722	o a r o m	-0.00984969
-0.558515	d a r o k	-0.00984969
-0.569911	e a r o k	-0.00984969
-0.822303	e a r o t	-0.00984969
-1.10453	r o r o c	-0.00984969
-0.562476	h o r o k	-0.0234039
-0.951606	h o r o r	-0.00984969
-0.682599	h o r o l	-0.00984969
-0.825955	h o r o t	-0.0174129
-0.635755	<unk> o r o l	-0.00984969
-0.633968	i i r o l	-0.00984969
-0.558649	a i r o k	-0.00984969
-0.631218	n o l o l	-0.00984969
-0.631218	<unk> o l o l	-0.00984969
-0.603076	h o l o k	-0.0234039
-1.15986	h o l o c	-0.00984969
-1.00581	h o l o d	-0.00984969
-1.43525	h o l o e	-0.00984969
-1.29834	d o l o y	-0.00984969
-0.643316	d o l o l	-0.00984969
-1.27643	p o l o p	-0.00984969
-1.19207	t o l o m	-0.00984969
-1.2045	k o l o </unk>
-0.583603	e o l o k	-0.0234039
-0.660905	e o l o l	-0.00984969
-0.915151	d a l o r	-0.00984969
-0.703945	h o * o r	-0.00984969
-0.941327	h a m o c	-0.00984969
-0.971835	d a m o c	-0.00984969
-1.25763	d a m o y	-0.00984969
-0.696522	d a m o t	-0.00984969
-0.673892	<unk> a m o t	-0.00984969
-0.743624	k a m o k	-0.00984969
-0.670727	h o m o t	-0.0174129
-1.22895	h o m o s	-0.00984969
-1.27964	h o m o p	-0.00984969
-0.74309	e o m o k	-0.00984969
-0.7239	o l f o d	-0.00984969
-1.18681	n c h o k	-0.00984969
-0.47638	n c h o r	-0.0234039
-0.598304	n c h o l	-0.00984969
-1.38001	n c h o t	-0.00984969
-1.15965	n c h o m	-0.0174129
-0.523235	<unk> c h o r	-0.0234039
-0.550855	<unk> c h o l	-0.00984969
-0.532895	o c h o r	-0.0234039
-0.534997	o c h o l	-0.0174129
-0.537135	m c h o r	-0.0174129
-1.533	m c h o q	-0.00984969
-0.63946	r c h o r	-0.0234039
-0.869435	r c h o d	-0.0282671
-0.409084	r c h o l	-0.038575
-1.45616	r c h o t	-0.00984969
-0.543853	e c h o r	-0.00984969
-1.12486	k c h o k	-0.00984969
-0.546681	k c h o r	-0.0174129
-1.09886	k c h o m	-0.00984969
-0.543544	t c h o r	-0.0282671
-0.80858	t c h o d	-0.0234039
-0.573394	t c h o l	-0.00984969
-1.14114	t c h o m	-0.00984969
-1.59864	y c h o </unk>
-1.08554	y c h o k	-0.0282671
-0.57862	y c h o r	-0.0282671
-0.852919	y c h o d	-0.0234039
-0.558893	y c h o l	-0.0282671
-1.13501	y c h o m	-0.0174129
-0.611751	s c h o d	-0.0174129
-1.12044	s c h o m	-0.00984969
-1.44939	d c h o </unk>
-0.571465	d c h o r	-0.00984969
-0.527188	d c h o l	-0.0174129
-1.59001	l c h o </unk>
-0.648233	l c h o r	-0.00984969
-0.813772	l c h o d	-0.0322939
-1.7997	l c h o i	-0.00984969
-0.449388	l c h o l	-0.0282671
-0.564117	p c h o r	-0.00984969
-0.517847	p c h o l	-0.0174129
-1.22045	<unk> k h o c	-0.00984969
-1.28438	c k h o c	-0.00984969
-0.545497	c k h o r	-0.00984969
-1.45455	c k h o y	-0.00984969
-0.611518	c k h o l	-0.00984969
-0.565868	c t h o r	-0.00984969
-0.87688	c t h o d	-0.00984969
-0.589421	c t h o l	-0.0234039
-1.04375	c t h o m	-0.0174129
-1.61345	c t h o q	-0.00984969
-0.540283	y s h o r	-0.00984969
-0.599437	y s h o l	-0.00984969
-1.45671	y s h o s	-0.00984969
-1.07396	s s h o k	-0.00984969
-0.590188	s s h o l	-0.00984969
-1.29927	n s h o c	-0.00984969
-0.547499	n s h o r	-0.00984969
-0.606996	n s h o l	-0.00984969
-1.48137	n s h o s	-0.00984969
-1.23384	<unk> s h o c	-0.00984969
-1.46562	l s h o y	-0.00984969
-0.554891	l s h o l	-0.0234039
-0.83135	r s h o d	-0.00984969
-0.590188	r s h o l	-0.00984969
-0.540283	m s h o r	-0.00984969
-0.843034	m s h o d	-0.00984969
-1.06388	m s h o m	-0.00984969
-0.55818	k s h o l	-0.0174129
-0.590188	o s h o l	-0.00984969
-1.61233	o s h o *	-0.00984969
-0.527512	c p h o r	-0.00984969
-1.47694	c p h o a	-0.00984969
-0.560146	y q o o l	-0.00984969
-1.04884	y k o o i	-0.00984969
-1.04776	d y p o </unk>
-0.86815	d y p o t	-0.00984969
-0.776393	m o p o r	-0.00984969
-0.599646	q o p o l	-0.00984969
-0.619177	h y q o k	-0.0174129
-1.4697	h y q o o	-0.00984969
-1.39281	e y q o </unk>
-0.638524	e y q o k	-0.0174129
-0.560312	e y q o t	-0.0174129
-0.549655	<unk> y q o t	-0.00984969
-0.606395	d y q o k	-0.0174129
-0.548465	e s q o t	-0.00984969
-1.11765	o s q o p	-0.00984969
-0.646579	h o q o k	-0.00984969
-0.559774	h o q o t	-0.00984969
-0.646579	i n q o k	-0.00984969
-1.38484	i n q o y	-0.00984969
-0.657843	o l q o k	-0.00984969
-1.0023	o l q o d	-0.00984969
-0.570265	o l q o t	-0.00984969
-1.24027	<unk> l q o s	-0.00984969
-0.548465	a m q o t	-0.00984969
-0.634446	o m q o k	-0.00984969
-1.27454	o r q o c	-0.00984969
-1.03447	o r q o d	-0.00984969
-0.588587	o r q o t	-0.00984969
-1.54124	o r q o e	-0.00984969
-1.33881	o r q o s	-0.00984969
-1.20032	o r q o p	-0.00984969
-0.549513	i r q o t	-0.00984969
-0.967015	i * q o d	-0.00984969
-0.915469	i i n o k	-0.00984969
-0.91473	i i n o d	-0.00984969
-0.570287	i i n o l	-0.00984969
-0.720154	i i n o t	-0.0234039
-0.680129	p o t o y	-0.00984969
-1.18204	y o t o a	-0.00984969
-0.647021	y o t o l	-0.00984969
-1.01512	d o t o c	-0.00984969
-0.680129	q o t o y	-0.00984969
-0.632778	l y t o l	-0.00984969
-0.680764	r y t o y	-0.00984969
-1.13135	c h o d </unk>
-0.450692	c h o d y	-0.038575
-1.15132	c h o d o	-0.00984969
-0.34459	c h o d a	-0.035683
-1.04112	s h o d </unk>
-0.302017	s h o d a	-0.00984969
-1.0031	t h o d o	-0.00984969
-0.308488	l f o d a	-0.00984969
-0.497089	l k o d y	-0.00984969
-0.492397	o k o d y	-0.0174129
-0.32785	o k o d a	-0.00984969
-0.497089	y k o d y	-0.00984969
-0.310389	m k o d a	-0.00984969
-0.498905	<unk> t o d y	-0.00984969
-0.308614	k e o d a	-0.00984969
-0.50063	h e o d y	-0.00984969
-0.308614	e e o d a	-0.00984969
-0.308488	i n o d a	-0.00984969
-0.307182	l q o d a	-0.00984969
-0.307182	r q o d a	-0.00984969
-0.307182	* q o d a	-0.00984969
-0.308488	o l o d a	-0.00984969
-0.162024	o d y d a	-0.0174129
-1.36176	l d y d l	-0.00984969
-1.38079	s h y d k	-0.00984969
-0.174034	s h y d a	-0.00984969
-0.164926	k h y d a	-0.00984969
-0.164926	t h y d a	-0.00984969
-0.164926	c h y d a	-0.00984969
-0.16379	l k y d a	-0.00984969
-0.16379	r k y d a	-0.00984969
-0.160368	y k y d a	-0.0174129
-0.16379	e k y d a	-0.00984969
-0.16379	o k y d a	-0.00984969
-0.16379	h k y d a	-0.00984969
-0.165041	h t y d a	-0.00984969
-0.975263	h e y d o	-0.00984969
-0.170736	h e y d a	-0.0174129
-0.165785	e e y d a	-0.00984969
-0.944623	t e y d o	-0.00984969
-0.165041	o l y d a	-0.00984969
-0.981463	t o y d c	-0.00984969
-0.443198	d a l d o	-0.00984969
-0.320927	o a l d a	-0.00984969
-0.430092	k a l d o	-0.0174129
-0.320927	t a l d a	-0.00984969
-0.443198	h a l d o	-0.00984969
-1.12654	h o l d c	-0.0174129
-0.489586	h o l d o	-0.00984969
-0.318188	h o l d a	-0.0322939
-0.443	k o l d o	-0.0174129
-0.33787	k o l d a	-0.00984969
-0.445693	t o l d o	-0.00984969
-0.456209	d o l d o	-0.00984969
-0.330092	d o l d a	-0.00984969
-1.25373	<unk> o l d </unk>
-0.445693	e o l d o	-0.00984969
-1.1072	i i l d y	-0.00984969
-0.155841	a i r d a	-0.00984969
-0.14727	h o r d a	-0.0282671
-0.154932	e o r d a	-0.00984969
-0.901469	i i n d o	-0.0174129
-0.183639	i i n d a	-0.00984969
-1.23216	a i n d d	-0.00984969
-0.183639	a i n d a	-0.00984969
-0.174496	<unk> i n d a	-0.00984969
-0.16977	h a n d a	-0.0174129
-0.865725	i n d d c	-0.00984969
-0.213017	o k a d a	-0.00984969
-0.833167	h p a d y	-0.00984969
-0.379142	h o l a i	-0.00984969
-0.66863	q o p a l	-0.00984969
-1.04986	c h p a d	-0.00984969
-0.68472	p h o a l	-0.00984969
-0.356656	o t o a i	-0.00984969
-0.355762	m k o a i	-0.00984969
-0.355762	y k o a i	-0.00984969
-0.778555	h e o a r	-0.00984969
-0.68472	o d o a l	-0.00984969
-0.926824	h o d a r	-0.00984969
-0.320492	h o d a i	-0.0322939
-0.883215	h o d a l	-0.00984969
-0.937556	h o d a m	-0.00984969
-1.22545	f o d a n	-0.00984969
-0.882183	k o d a r	-0.00984969
-0.840763	k o d a l	-0.00984969
-0.32733	e o d a i	-0.00984969
-0.840763	e o d a l	-0.00984969
-0.31757	n o d a i	-0.00984969
-0.31757	<unk> o d a i	-0.00984969
-0.894578	q o d a r	-0.00984969
-0.318971	q o d a i	-0.0174129
-0.31757	l o d a i	-0.00984969
-1.44429	d y d a o	-0.00984969
-0.855712	d y d a l	-0.00984969
-1.02117	k y d a </unk>
-0.946986	k y d a r	-0.00984969
-0.314744	k y d a i	-0.0234039
-0.953204	k y d a m	-0.00984969
-0.300082	t y d a i	-0.00984969
-1.04111	e y d a </unk>
-0.317451	e y d a i	-0.00984969
-0.867726	e y d a l	-0.00984969
-0.295803	h y d a i	-0.0234039
-0.877604	h y d a l	-0.00984969
-0.300082	l y d a i	-0.00984969
-0.869228	i r d a m	-0.00984969
-1.05118	o r d a </unk>
-0.320543	o r d a i	-0.0234039
-0.915898	o r d a m	-0.00984969
-0.925533	o l d a r	-0.00984969
-0.298335	o l d a i	-0.0322939
-0.88096	a l d a r	-0.00984969
-0.890163	a l d a m	-0.00984969
-0.33581	i n d a i	-0.00984969
-1.2663	i n d a n	-0.00984969
-0.853044	i n d a l	-0.00984969
-0.318277	<unk> n d a i	-0.00984969
-1.01413	a n d a </unk>
-0.32804	a n d a i	-0.00984969
-0.317517	k a d a i	-0.00984969
-1.14543	y c h a </unk>
-0.86341	y c h a r	-0.00984969
-0.571713	y c h a i	-0.00984969
-0.584846	s c h a m	-0.00984969
-0.579105	t c h a i	-0.00984969
-0.81486	t c h a l	-0.00984969
-0.58616	t c h a m	-0.0174129
-0.584846	k c h a m	-0.00984969
-1.12809	n c h a </unk>
-1.00364	n c h a n	-0.00984969
-0.780464	<unk> c h a l	-0.00984969
-1.00364	r c h a n	-0.00984969
-0.794437	r c h a l	-0.00984969
-0.453918	m c h a m	-0.0174129
-0.584846	l c h a m	-0.00984969
-0.845217	c f h a r	-0.00984969
-0.597455	c f h a m	-0.00984969
-0.528934	n s h a i	-0.0174129
-0.984429	r s h a n	-0.00984969
-1.34178	y s h a c	-0.00984969
-0.832964	s s h a r	-0.00984969
-0.777166	c t h a l	-0.00984969
-0.725081	h a r a m	-0.00984969
-0.727485	h o r a l	-0.00984969
-1.04581	y o r a n	-0.00984969
-0.747591	p o r a r	-0.00984969
-1.1806	t e e a y	-0.00984969
-0.491162	e e e a r	-0.00984969
-0.491162	r e e a r	-0.00984969
-0.491162	h e e a r	-0.00984969
-0.505393	c h e a r	-0.00984969
-0.540115	c h e a i	-0.00984969
-0.804343	s h e a m	-0.00984969
-0.802154	y t e a m	-0.00984969
-0.874453	l o k a r	-0.00984969
-1.26489	l o k a y	-0.00984969
-0.621148	l o k a l	-0.0174129
-0.41938	h o k a i	-0.00984969
-1.19481	y o k a d	-0.00984969
-1.05756	m o k a </unk>
-0.869548	e y k a m	-0.00984969
-0.416209	s h k a i	-0.00984969
-1.09321	<unk> y t a o	-0.00984969
-0.373214	q o t a i	-0.00984969
-0.373214	r o t a i	-0.00984969
-0.727485	m o t a l	-0.00984969
-0.373272	c h t a i	-0.00984969
-0.253141	a n s a i	-0.0174129
-0.25922	i n s a i	-0.00984969
-0.248459	o l s a i	-0.0234039
-0.797295	k y s a l	-0.00984969
-0.260257	q o s a i	-0.00984969
-0.95915	o d a i r	-0.0234039
-0.218998	o d a i i	-0.0322939
-0.742665	o d a i n	-0.0174129
-1.05406	l d a i </unk>
-0.960438	l d a i r	-0.00984969
-0.205856	l d a i i	-0.0282671
-0.198822	<unk> d a i i	-0.00984969
-0.2031	n d a i i	-0.0174129
-0.819632	n d a i n	-0.00984969
-1.08274	y d a i </unk>
-0.201857	y d a i i	-0.035683
-0.826595	y d a i n	-0.0174129
-0.878936	r d a i r	-0.0174129
-0.215395	r d a i i	-0.00984969
-0.998654	a d a i </unk>
-0.19717	t o a i i	-0.00984969
-0.192883	k o a i i	-0.0174129
-0.192883	o t a i i	-0.0174129
-0.19717	h t a i i	-0.00984969
-0.197494	o k a i i	-0.00984969
-0.197494	h k a i i	-0.00984969
-1.01343	s h a i </unk>
-0.20816	s h a i i	-0.00984969
-0.20816	c h a i i	-0.00984969
-0.806038	c h a i n	-0.00984969
-0.188775	n s a i i	-0.0234039
-0.188775	l s a i i	-0.0234039
-0.196337	o s a i i	-0.00984969
-0.197899	o l a i i	-0.00984969
-0.197899	h e a i i	-0.00984969
-1.02525	d a i i </unk>
-1.61876	d a i i r	-0.00984969
-1.03439	d a i i i	-0.00984969
-0.144445	d a i i n	-0.0520874
-0.143505	o a i i n	-0.0234039
-0.143505	t a i i n	-0.0234039
-0.145874	k a i i n	-0.0174129
-0.127494	h a i i n	-0.0174129
-1.0286	s a i i </unk>
-0.145008	s a i i n	-0.0322939
-0.14893	l a i i n	-0.00984969
-0.14893	e a i i n	-0.00984969
-1.43969	<unk> a i i m	-0.00984969
-0.149474	o o i i n	-0.00984969
-0.149474	a i i i n	-0.00984969
-1.10358	c h o i e	-0.00984969
-0.569201	k o o i i	-0.00984969
-1.07766	o k o i s	-0.00984969
-0.731431	y d o i </unk>
-0.544245	s h o * o	-0.00984969
-0.0208654	t h y q o	-0.0174129
-0.0212411	s h y q o	-0.00984969
-0.0205316	e e y q o	-0.0234039
-0.0211987	h e y q o	-0.00984969
-0.0211987	<unk> e y q o	-0.00984969
-0.0212694	o d y q o	-0.00984969
-0.0212694	<unk> d y q o	-0.00984969
-0.037083	e e s q o	-0.00984969
-0.037083	e o s q o	-0.00984969
-0.0370204	t h o q o	-0.00984969
-0.0370204	c h o q o	-0.00984969
-0.0370204	i i n q o	-0.00984969
-0.0370204	<unk> i n q o	-0.00984969
-0.0344283	r o l q o	-0.00984969
-0.0344283	h o l q o	-0.00984969
-0.0344283	<unk> o l q o	-0.00984969
-0.0337355	d a m q o	-0.00984969
-0.0337355	e o m q o	-0.00984969
-0.0287325	h o r q o	-0.0282671
-0.0300212	<unk> o r q o	-0.00984969
-0.0300212	e o r q o	-0.00984969
-0.0301964	a i r q o	-0.00984969
-0.0389304	<unk> i * q o	-0.00984969
-0.426172	o d y p o	-0.0174129
-0.486021	n y y p c	-0.00984969
-0.602851	i r c p h	-0.00984969
-0.602851	i n c p h	-0.00984969
-0.381899	h e o p c	-0.00984969
-0.830823	s q o p a	-0.00984969
-0.383516	<unk> q o p c	-0.00984969
-0.583311	r q o p o	-0.00984969
-0.58149	o m o p o	-0.00984969
-0.381899	o l o p c	-0.00984969
-0.382643	h o m p c	-0.00984969
-0.382643	<unk> a m p c	-0.00984969
-0.708115	y c h p a	-0.00984969
-0.242631	k o i s h	-0.00984969
-0.658193	o i e s c	-0.00984969
-0.670288	e e e s c	-0.00984969
-1.12432	e e e s q	-0.00984969
-0.6579	h e e s c	-0.00984969
-1.09986	r e e s e	-0.00984969
-1.05167	h o l s c	-0.00984969
-0.284949	h o l s h	-0.0234039
-1.18076	h o l s o	-0.00984969
-0.892753	h o l s a	-0.00984969
-0.268151	k o l s h	-0.0174129
-0.284271	e o l s h	-0.00984969
-0.85558	e o l s a	-0.00984969
-0.840647	n o l s a	-0.00984969
-1.04339	<unk> o l s </unk>
-0.29187	<unk> o l s h	-0.00984969
-1.32985	<unk> o l s e	-0.00984969
-1.09924	s o l s s	-0.00984969
-0.274718	l o l s h	-0.00984969
-1.08919	y d l s s	-0.00984969
-0.274587	s a l s h	-0.00984969
-1.00246	d a l s </unk>
-0.273733	o r l s h	-0.00984969
-0.208917	i i n s h	-0.0322939
-1.00158	i i n s o	-0.0174129
-0.929323	i i n s a	-0.00984969
-0.198948	a i n s h	-0.0174129
-0.853578	d a n s a	-0.00984969
-0.853578	h a n s a	-0.00984969
-0.976852	f c h s y	-0.00984969
-0.216748	d y t s h	-0.00984969
-0.216748	e y t s h	-0.00984969
-0.217203	q o t s h	-0.00984969
-0.208721	y d k s h	-0.00984969
-0.208721	n y k s h	-0.00984969
-0.208721	l e k s h	-0.00984969
-0.208721	q o k s h	-0.00984969
-0.261793	<unk> h y s h	-0.00984969
-0.855294	t h y s c	-0.00984969
-0.271288	t h y s h	-0.00984969
-0.261793	c h y s h	-0.00984969
-0.257316	t o y s h	-0.0174129
-0.93718	q o y s s	-0.00984969
-0.93718	h o y s s	-0.00984969
-1.18836	m o y s </unk>
-0.854452	o d y s c	-0.00984969
-1.09453	o d y s o	-0.00984969
-0.263582	a d y s h	-0.00984969
-0.261468	o r y s h	-0.00984969
-0.261468	a r y s h	-0.00984969
-1.00942	y k y s a	-0.00984969
-0.837272	o l y s c	-0.00984969
-0.19711	o y s s h	-0.0174129
-0.201515	d l s s h	-0.00984969
-0.201515	o l s s h	-0.00984969
-0.20193	a m s s h	-0.00984969
-0.744619	d a m s o	-0.00984969
-1.15778	h a m s y	-0.00984969
-1.07893	h a m s s	-0.00984969
-0.300737	h o m s h	-0.00984969
-0.300737	r o m s h	-0.00984969
-0.300737	d o m s h	-0.00984969
-0.742549	e e m s o	-0.00984969
-0.182144	d a r s h	-0.00984969
-0.182144	<unk> a r s h	-0.00984969
-0.182144	h a r s h	-0.00984969
-0.183218	l o r s h	-0.00984969
-0.183218	h o r s h	-0.00984969
-1.09812	* o r s </unk>
-0.182806	a i r s h	-0.00984969
-0.26211	s h o s h	-0.0174129
-0.786503	k e o s c	-0.00984969
-1.15165	h e o s q	-0.00984969
-0.786503	r q o s c	-0.00984969
-0.919219	l q o s a	-0.00984969
-0.26908	o m o s h	-0.00984969
-0.908863	a r a m y	-0.00984969
-1.08146	<unk> r a m k	-0.00984969
-0.768451	r d a m s	-0.00984969
-1.16862	r d a m q	-0.00984969
-0.587873	l d a m o	-0.00984969
-0.587873	<unk> d a m o	-0.00984969
-0.971755	y d a m </unk>
-0.587873	o d a m o	-0.00984969
-0.546899	c h a m c	-0.0322939
-0.665885	c h a m o	-0.00984969
-0.832568	c h a m s	-0.00984969
-0.778466	f h a m s	-0.00984969
-0.588565	y k a m o	-0.00984969
-0.908863	h e a m y	-0.00984969
-1.08146	t e a m k	-0.00984969
-0.509648	t h o m o	-0.00984969
-1.21745	t h o m p	-0.00984969
-0.780531	c h o m c	-0.0174129
-0.505456	c h o m o	-0.0234039
-1.3662	c h o m t	-0.00984969
-0.854817	c h o m s	-0.00984969
-0.910753	s h o m </unk>
-0.771407	a r o m s	-0.00984969
-1.11953	k e o m q	-0.00984969
-0.561951	o e o m o	-0.00984969
-0.94432	<unk> e o m y	-0.00984969
-0.771407	l d o m s	-0.00984969
-0.883165	o l o m </unk>
-0.734787	o k o m c	-0.00984969
-0.738442	l e e m s	-0.00984969
-0.715359	a i i m </unk>
-0.498774	<unk> r c f h	-0.00984969
-0.498774	o r c f h	-0.00984969
-0.627144	h o l f o	-0.00984969
-0.396963	d a r e e	-0.00984969
-0.396963	e a r e e	-0.00984969
-0.398015	e o r e e	-0.00984969
-0.459239	e n y e e	-0.00984969
-0.423645	o l s e e	-0.00984969
-0.423645	e e s e e	-0.00984969
-0.596193	k c h e y	-0.00984969
-0.422279	k c h e o	-0.00984969
-0.697024	m c h e e	-0.00984969
-1.35856	r c h e k	-0.00984969
-0.656924	r c h e y	-0.00984969
-0.463323	r c h e o	-0.0174129
-0.897886	r c h e a	-0.0174129
-0.584558	<unk> c h e y	-0.00984969
-0.422279	n c h e o	-0.00984969
-1.50216	n c h e t	-0.00984969
-0.605487	o c h e y	-0.00984969
-0.410483	o c h e o	-0.0174129
-1.11025	p c h e </unk>
-0.422279	p c h e o	-0.00984969
-0.596193	l c h e y	-0.00984969
-0.422279	l c h e o	-0.00984969
-0.613085	s c h e y	-0.00984969
-0.41884	s c h e o	-0.0174129
-0.728584	s c h e e	-0.00984969
-0.613085	y c h e y	-0.00984969
-0.401253	y c h e o	-0.0234039
-1.12713	t c h e </unk>
-0.605487	t c h e y	-0.00984969
-0.720157	t c h e e	-0.00984969
-0.659683	k s h e e	-0.00984969
-0.572264	t s h e y	-0.00984969
-0.477203	t s h e o	-0.0174129
-1.12338	l s h e </unk>
-1.29174	l s h e k	-0.00984969
-0.585816	l s h e y	-0.00984969
-0.667	l s h e e	-0.0174129
-1.23933	n s h e a	-0.00984969
-0.672091	n s h e e	-0.00984969
-0.563212	s s h e y	-0.00984969
-0.492024	s s h e o	-0.00984969
-0.481255	y s h e o	-0.00984969
-1.35348	i s h e c	-0.00984969
-0.528188	c t h e y	-0.0174129
-0.557277	m y t e o	-0.00984969
-1.08004	m y t e a	-0.00984969
-0.507617	m y t e e	-0.00984969
-0.736195	q o t e y	-0.00984969
-0.563726	q o t e o	-0.00984969
-0.492199	q o t e e	-0.0174129
-0.536275	<unk> o t e o	-0.00984969
-1.2372	o l k e c	-0.00984969
-0.476226	o l k e o	-0.00984969
-0.465571	e y k e o	-0.00984969
-0.455952	o y k e e	-0.00984969
-0.466787	h o k e o	-0.00984969
-0.492891	q o k e o	-0.00984969
-0.440702	q o k e e	-0.0234039
-1.11453	r o k e </unk>
-0.464884	r o k e e	-0.00984969
-0.464633	h e k e o	-0.00984969
-0.797852	y t e e a	-0.00984969
-1.1647	o t e e </unk>
-0.72316	o t e e o	-0.00984969
-0.567414	y k e e y	-0.00984969
-0.459039	o k e e y	-0.0234039
-0.779685	o k e e o	-0.00984969
-0.439607	s h e e y	-0.0282671
-0.587779	c h e e y	-0.00984969
-0.8256	c h e e a	-0.00984969
-0.963778	c h e e s	-0.00984969
-0.65531	l o e e e	-0.00984969
-0.925278	o e e e s	-0.00984969
-0.925278	s e e e s	-0.00984969
-0.797852	y e e e a	-0.00984969
-1.37449	o l e e m	-0.00984969
-0.709258	a l e e o	-0.00984969
-0.656378	l s e e e	-0.00984969
-0.57071	e s e e y	-0.00984969
-0.65531	n y e e e	-0.00984969
-1.41345	a r e e n	-0.00984969
-0.947912	a r e e s	-0.00984969
-0.797852	o r e e a	-0.00984969
-0.915009	h o i e s	-0.00984969
-0.532409	o l o e e	-0.00984969
-0.433447	m s o e o	-0.00984969
-0.433447	r q o e o	-0.00984969
-1.05335	e o l e k	-0.00984969
-0.448868	s o l e e	-0.00984969
-0.447939	h a l e e	-0.00984969
-0.814241	l o l t </unk>
-0.624867	a m y t e	-0.0174129
-0.887591	o m y t e	-0.00984969
-0.498546	i r y t c	-0.00984969
-0.773764	o r y t o	-0.00984969
-0.498546	a l y t c	-0.00984969
-0.773764	o l y t o	-0.00984969
-0.926315	o d y t s	-0.00984969
-0.926315	e e y t s	-0.00984969
-0.49759	k a y t c	-0.00984969
-0.496086	k h y t c	-0.00984969
-0.496086	c h y t c	-0.00984969
-0.939668	h y y t y	-0.00984969
-0.1729	e y c t h	-0.00984969
-0.166423	h y c t h	-0.0234039
-0.1729	t y c t h	-0.00984969
-0.16066	o l c t h	-0.035683
-1.30342	o r c t </unk>
-0.140874	o r c t h	-0.0282671
-0.173938	a m c t h	-0.00984969
-0.169923	i n c t h	-0.0174129
-0.169923	c h c t h	-0.0174129
-0.173938	m o c t h	-0.00984969
-0.732296	c h e t y	-0.00984969
-0.407825	y k o t c	-0.00984969
-0.746026	y p o t o	-0.00984969
-0.742826	d y o t o	-0.00984969
-0.742826	t y o t o	-0.00984969
-0.419742	o r o t c	-0.00984969
-0.953532	o r o t a	-0.00984969
-1.16759	a r o t </unk>
-0.417041	o m o t c	-0.00984969
-0.954471	o m o t a	-0.00984969
-0.395299	a m o t c	-0.0174129
-0.395255	c h o t c	-0.0174129
-0.329519	i n o t c	-0.0234039
-0.940936	o q o t a	-0.00984969
-0.411107	l q o t c	-0.00984969
-1.02996	s q o t y	-0.00984969
-0.629113	y q o t e	-0.0174129
-1.22702	y q o t s	-0.00984969
-0.411107	m q o t c	-0.00984969
-0.765105	r q o t o	-0.00984969
-0.853048	r q o t e	-0.00984969
-1.04897	<unk> q o t y	-0.00984969
-0.853048	<unk> q o t e	-0.00984969
-0.746026	n d o t o	-0.00984969
-0.573034	r s h t y	-0.00984969
-0.585576	y c h t y	-0.00984969
-0.852421	y c h t a	-0.00984969
-0.564421	h o m t c	-0.00984969
-1.04199	d y o l y	-0.00984969
-0.642723	k e o l c	-0.00984969
-0.738386	k e o l o	-0.00984969
-0.754101	k e o l s	-0.00984969
-0.62114	t e o l c	-0.00984969
-0.662631	h e o l c	-0.00984969
-0.728511	h e o l o	-0.0174129
-0.739596	h e o l d	-0.00984969
-1.45434	h e o l e	-0.00984969
-0.776265	h e o l s	-0.00984969
-0.714848	e e o l o	-0.00984969
-1.25018	i r o l q	-0.00984969
-0.63307	o r o l c	-0.00984969
-1.06428	o r o l y	-0.00984969
-0.716466	o t o l o	-0.00984969
-0.690709	y t o l d	-0.00984969
-0.662435	y k o l d	-0.0174129
-0.620507	o k o l c	-0.0234039
-0.77158	o k o l o	-0.00984969
-0.74013	o k o l d	-0.00984969
-0.750404	o k o l s	-0.0174129
-1.11357	l k o l k	-0.00984969
-0.715344	o p o l o	-0.00984969
-0.619205	q o o l c	-0.00984969
-0.728652	l s o l s	-0.00984969
-1.06428	n s o l y	-0.00984969
-1.3625	n s o l e	-0.00984969
-0.716466	i n o l o	-0.00984969
-0.727743	<unk> n o l s	-0.00984969
-0.651201	o l o l c	-0.00984969
-1.09424	o l o l y	-0.00984969
-1.5945	o l o l t	-0.00984969
-0.76199	o l o l s	-0.00984969
-0.964665	c h o l </unk>
-1.22039	c h o l k	-0.0234039
-0.653108	c h o l c	-0.0282671
-0.78927	c h o l o	-0.0322939
-0.763311	c h o l d	-0.0322939
-1.85807	c h o l a	-0.00984969
-0.845649	c h o l s	-0.0174129
-1.33945	s h o l </unk>
-1.21809	s h o l k	-0.00984969
-0.781981	s h o l o	-0.00984969
-0.72931	s h o l d	-0.0174129
-1.76592	s h o l f	-0.00984969
-0.743608	s h o l s	-0.0234039
-1.40207	s h o l q	-0.00984969
-1.08739	t h o l y	-0.00984969
-0.714879	t h o l d	-0.00984969
-0.754312	t h o l s	-0.00984969
-1.05185	k h o l y	-0.00984969
-1.2072	l d o l k	-0.00984969
-0.605511	l d o l c	-0.0282671
-0.773827	l d o l o	-0.00984969
-0.720172	l d o l d	-0.0174129
-0.718544	o d o l o	-0.00984969
-1.2125	<unk> d o l </unk>
-0.611873	y d a l c	-0.00984969
-1.0954	y d a l o	-0.00984969
-0.565891	y d a l d	-0.00984969
-0.590836	n d a l c	-0.00984969
-0.611873	o d a l c	-0.00984969
-0.934274	o d a l y	-0.00984969
-0.780745	o d a l s	-0.00984969
-0.542774	h o a l d	-0.00984969
-0.90128	d o a l y	-0.00984969
-0.590841	o p a l c	-0.00984969
-0.521932	o k a l d	-0.0174129
-0.541791	o t a l d	-0.00984969
-0.611875	c h a l c	-0.00984969
-0.564479	c h a l d	-0.00984969
-1.23798	c h a l e	-0.00984969
-0.590838	t h a l c	-0.00984969
-0.899936	o r a l y	-0.00984969
-0.751709	y s a l s	-0.00984969
-0.508763	<unk> i i l d	-0.00984969
-0.630772	d y d l s	-0.00984969
-0.630772	h o r l s	-0.00984969
-1.24173	a i i n </unk>
-1.71568	a i i n k	-0.00984969
-0.444883	a i i n c	-0.0483795
-1.16697	a i i n y	-0.00984969
-0.909469	a i i n o	-0.0322939
-0.895541	a i i n d	-0.06806
-0.718742	a i i n s	-0.038575
-1.4783	a i i n q	-0.00984969
-0.824892	<unk> i i n o	-0.00984969
-0.637022	<unk> i i n s	-0.00984969
-0.554216	o i i n c	-0.00984969
-0.554216	i i i n c	-0.00984969
-0.554266	d a i n c	-0.0174129
-0.793431	d a i n d	-0.00984969
-0.669706	d a i n s	-0.0174129
-0.752589	h a i n d	-0.00984969
-0.617186	n d a n s	-0.00984969
-0.961828	o d a n y	-0.00984969
-0.727302	s h a n d	-0.00984969
-0.740531	c h a n d	-0.00984969
-0.629979	c h a n s	-0.00984969
-0.579163	o r a n c	-0.00984969
-0.845576	r e e n y	-0.00984969

\6-grams:
-0.507307	<unk> r a m k o	-0.00220437
-0.507307	t e a m k o	-0.00220437
-0.888064	a r s h k a	-0.00220437
-0.627127	a l c h k y	-0.00220437
-0.69284	a i i n k c	-0.00220437
-0.683917	c h o l k y	-0.00220437
-0.61531	c h o l k o	-0.00220437
-0.616069	c h o l k e	-0.00220437
-0.610068	s h o l k o	-0.00220437
-0.582762	l k o l k e	-0.00220437
-0.648476	l d o l k y	-0.00220437
-0.450041	o d y o k o	-0.00345327
-0.735155	h e y o k a	-0.00220437
-0.987543	y c h o k y	-0.00220437
-0.491786	y c h o k o	-0.00220437
-0.791695	y c h o k a	-0.00220437
-0.828213	y c h o k e	-0.00220437
-0.801016	k c h o k c	-0.00220437
-0.486118	n c h o k o	-0.00220437
-0.467567	s s h o k o	-0.00220437
-0.984341	h o l o k y	-0.00220437
-0.681465	h o l o k a	-0.00345327
-0.807549	e o l o k c	-0.00220437
-0.681465	e o l o k a	-0.00345327
-1.24676	h o r o k </unk>
-0.463569	h o r o k o	-0.00345327
-0.768164	a i r o k e	-0.00220437
-0.47751	d a r o k o	-0.00220437
-0.781694	e a r o k e	-0.00220437
-1.18391	e o m o k </unk>
-0.734259	k a m o k a	-0.00220437
-0.920832	o l q o k y	-0.00220437
-0.469286	h o q o k o	-0.00220437
-0.751552	i n q o k c	-0.00220437
-0.596252	h y q o k e	-0.00345327
-0.540587	e y q o k o	-0.00220437
-0.603093	e y q o k e	-0.00220437
-0.832304	d y q o k c	-0.00220437
-0.603093	d y q o k e	-0.00220437
-0.469286	o m q o k o	-0.00220437
-0.466927	i i n o k o	-0.00220437
-0.381265	d a o c k h	-0.00220437
-1.11052	k h o c k </unk>
-0.383073	k h o c k h	-0.00220437
-0.380684	s h o c k h	-0.00220437
-0.38216	e e y c k h	-0.00220437
-0.38216	n c h c k h	-0.00220437
-0.38216	s h a c k h	-0.00220437
-0.38216	e a r c k h	-0.00220437
-0.64958	l s h e k y	-0.00220437
-0.680112	r c h e k e	-0.00220437
-0.892253	e o l e k s	-0.00220437
-0.836397	s h y d k s	-0.00220437
-0.511537	c t h y k o	-0.00345327
-0.716642	y c h y k y	-0.00220437
-0.758221	k c h y k c	-0.00220437
-0.512583	h e y y k o	-0.00220437
-0.512583	k e y y k o	-0.00220437
-0.742232	a m s y k c	-0.00220437
-0.532788	o l o y k o	-0.00220437
-0.769948	s h o y k e	-0.00220437
-0.702348	<unk> i n y k y	-0.00220437
-1.04853	d a n y k s	-0.00220437
-0.770873	t h e y k e	-0.00220437
-1.09379	h e e y k a	-0.00220437
-0.757471	s e e y k c	-0.00220437
-0.742232	s h t y k c	-0.00220437
-0.531824	h o l y k o	-0.00220437
-0.648536	o d a r k y	-0.00220437
-0.605147	h e o r k o	-0.00220437
-0.744282	c h o r k c	-0.00220437
-0.0836862	o l k e c h	-0.00220437
-0.0836862	i s h e c h	-0.00220437
-0.0926647	l d o l c h	-0.00425727
-0.837567	l d o l c t	-0.00220437
-0.0874736	o l o l c h	-0.00220437
-0.0874736	q o o l c h	-0.00220437
-0.152324	c h o l c h	-0.00220437
-0.596515	c h o l c t	-0.00425727
-0.0840664	o k o l c h	-0.00425727
-0.0845061	k e o l c h	-0.00220437
-0.0845061	t e o l c h	-0.00220437
-0.0845061	h e o l c h	-0.00220437
-0.0874736	o r o l c h	-0.00220437
-0.0870039	y d a l c h	-0.00220437
-0.0870039	n d a l c h	-0.00220437
-0.0870039	o d a l c h	-0.00220437
-0.0900686	o p a l c h	-0.00220437
-0.0883441	c h a l c h	-0.00220437
-0.0883441	t h a l c h	-0.00220437
-0.0697039	t o y d c h	-0.00220437
-0.0681879	h o l d c h	-0.00345327
-0.0698264	i n d d c h	-0.00220437
-0.123822	r o r o c h	-0.00220437
-0.133539	h a m o c h	-0.00220437
-0.981786	d a m o c t	-0.00220437
-0.815639	y d a o c k	-0.00220437
-0.587688	<unk> k h o c k	-0.00220437
-0.587688	c k h o c k	-0.00220437
-0.134187	n s h o c h	-0.00220437
-0.827413	<unk> s h o c k	-0.00220437
-0.123591	a m s o c h	-0.00220437
-0.123591	d y s o c h	-0.00220437
-0.123822	t h y o c h	-0.00220437
-0.123822	d o t o c h	-0.00220437
-0.123822	h o l o c h	-0.00220437
-0.123822	o r q o c h	-0.00220437
-0.0844123	o d a r c h	-0.00220437
-0.0844123	l d a r c h	-0.00220437
-0.0844123	<unk> d a r c h	-0.00220437
-1.20558	e e a r c k	-0.00220437
-1.33083	d a i r c p	-0.00220437
-0.0869447	t a o r c h	-0.00220437
-0.0827037	l d o r c h	-0.00345327
-0.0829662	y d o r c h	-0.00220437
-0.0829662	n d o r c h	-0.00220437
-0.140779	c h o r c h	-0.00580075
-0.749608	c h o r c t	-0.00481815
-1.36775	c h o r c f	-0.00220437
-0.082418	h e o r c h	-0.00481815
-0.0869447	h y o r c h	-0.00220437
-0.0869447	r k o r c h	-0.00220437
-0.0869795	s c h r c h	-0.00220437
-0.893466	y s h a c k	-0.00220437
-0.627947	<unk> n c h c t	-0.00220437
-1.02458	i n c h c k	-0.00220437
-0.631213	i n c h c t	-0.00220437
-0.127982	m o s h c h	-0.00220437
-0.0761393	c h a m c h	-0.00481815
-1.02348	c h a m c t	-0.00220437
-0.0715619	o k o m c h	-0.00220437
-0.0700021	c h o m c h	-0.00345327
-0.0899021	a i i n c h	-0.00600486
-0.947532	a i i n c t	-0.00345327
-1.54093	a i i n c p	-0.00220437
-0.0888893	o i i n c h	-0.00220437
-0.0888893	i i i n c h	-0.00220437
-0.0667581	d a i n c h	-0.00345327
-0.0681779	o r a n c h	-0.00220437
-0.0634501	n y y p c h	-0.00220437
-0.0632512	h e o p c h	-0.00220437
-0.0632512	<unk> q o p c h	-0.00220437
-0.0632512	o l o p c h	-0.00220437
-0.0633396	h o m p c h	-0.00220437
-0.0633396	<unk> a m p c h	-0.00220437
-1.23072	i i n k c </unk>
-0.0642672	h t y k c h	-0.00220437
-0.0642672	e e y k c h	-0.00220437
-0.0642672	m s y k c h	-0.00220437
-0.0642672	c h y k c h	-0.00220437
-0.0642058	c h o k c h	-0.00220437
-0.0620848	n q o k c h	-0.00220437
-0.0620848	<unk> q o k c h	-0.00220437
-0.0620848	y q o k c h	-0.00220437
-0.0642058	o l o k c h	-0.00220437
-0.0645434	h o r k c h	-0.00220437
-0.0604405	y k o t c h	-0.00220437
-0.0604405	o r o t c h	-0.00220437
-0.0582728	a m o t c h	-0.00345327
-0.0584524	o m o t c h	-0.00220437
-0.0591399	c h o t c h	-0.00345327
-0.0581575	i n o t c h	-0.00425727
-0.0593224	l q o t c h	-0.00220437
-0.0593224	m q o t c h	-0.00220437
-0.0607133	a l y t c h	-0.00220437
-0.0607133	k a y t c h	-0.00220437
-0.0595898	k h y t c h	-0.00220437
-0.0595898	c h y t c h	-0.00220437
-0.0607133	i r y t c h	-0.00220437
-0.0610313	h o m t c h	-0.00220437
-0.0771769	h o l y c h	-0.00220437
-0.0757212	d a l y c h	-0.00220437
-0.0757212	o a l y c h	-0.00220437
-0.0774236	<unk> m m y c h	-0.00220437
-0.0774236	t h y y c h	-0.00220437
-0.0774236	c h s y c h	-0.00220437
-0.0774236	i i n y c h	-0.00220437
-0.0739472	c h e y c h	-0.00481815
-1.29871	h e e y c k	-0.00220437
-0.940214	h e e y c t	-0.00220437
-0.093708	k e e y c h	-0.00220437
-0.0774236	e e a y c h	-0.00220437
-0.0768991	o s h y c h	-0.00220437
-0.0768991	l s h y c h	-0.00220437
-0.0883871	l c h y c h	-0.00345327
-0.914527	l c h y c t	-0.00220437
-0.0871144	e c h y c h	-0.00220437
-0.906144	d c h y c t	-0.00220437
-0.0871144	t c h y c h	-0.00220437
-0.0757212	h o k y c h	-0.00220437
-0.0757212	q o k y c h	-0.00220437
-0.0771769	o l k y c h	-0.00220437
-0.0780152	h e t y c h	-0.00220437
-0.0780152	q o t y c h	-0.00220437
-0.903176	y y t y c t	-0.00220437
-0.0757212	h o d y c h	-0.00220437
-0.0757212	e o d y c h	-0.00220437
-0.0771769	<unk> i d y c h	-0.00220437
-0.0655084	o i e s c h	-0.00220437
-0.0642894	h e e s c h	-0.00220437
-0.0642894	e e e s c h	-0.00220437
-0.0655084	o d y s c h	-0.00220437
-0.0655084	t h y s c h	-0.00220437
-0.0655084	o l y s c h	-0.00220437
-0.0656002	k e o s c h	-0.00220437
-0.0656002	r q o s c h	-0.00220437
-0.0657149	h o l s c h	-0.00220437
-0.925831	l k e c h y	-0.00220437
-0.272249	s h e c h o	-0.00220437
-0.261192	d o l c h o	-0.00345327
-0.748709	d o l c h e	-0.00220437
-0.966441	l o l c h y	-0.00220437
-0.260301	o o l c h o	-0.00220437
-0.260301	<unk> o l c h o	-0.00220437
-1.27655	k o l c h </unk>
-0.975774	k o l c h y	-0.00220437
-0.263777	k o l c h o	-0.00220437
-0.260301	h o l c h o	-0.00220437
-0.975774	e o l c h y	-0.00220437
-0.261192	e o l c h o	-0.00345327
-0.742326	r o l c h e	-0.00220437
-0.926649	d a l c h y	-0.00345327
-0.296925	d a l c h o	-0.00220437
-0.293337	p a l c h o	-0.00220437
-1.63144	h a l c h k	-0.00220437
-1.00888	h a l c h a	-0.00220437
-0.274622	d a r c h o	-0.00345327
-0.696628	d a r c h e	-0.00220437
-0.240264	a o r c h o	-0.00220437
-0.240422	d o r c h o	-0.00425727
-0.736994	d o r c h e	-0.00220437
-0.238343	e o r c h o	-0.00481815
-0.243355	h o r c h o	-0.00425727
-1.05439	h o r c h a	-0.00345327
-0.735516	h o r c h e	-0.00345327
-0.729023	y o r c h e	-0.00220437
-0.240264	k o r c h o	-0.00220437
-0.66859	c h r c h e	-0.00220437
-0.264228	<unk> y d c h o	-0.00220437
-0.264228	o y d c h o	-0.00220437
-0.950206	o l d c h y	-0.00220437
-0.28227	o l d c h o	-0.00220437
-0.270665	n d d c h o	-0.00220437
-1.11676	o r o c h </unk>
-0.271933	a m o c h o	-0.00220437
