[unifb]
-0.251127

\data\
ngram 1=5847
ngram 2=11632
ngram 3=8263

\1-grams:
-0.367255	</unk>
-4.01768	kchry	-0.000526003
-4.01632	chodaiin	-0.030232
-4.01768	ololtchey	-0.000526003
-4.01677	char	-0.000588454
-4.01768	cfhar	-0.000526003
-4.01768	am	-0.000526003
-4.01768	yteeay	-0.000526003
-4.01677	or	-0.000609562
-4.01768	ochydcho	-0.000526003
-4.01768	lkody	-0.000526003
-4.01768	okodar	-0.000526003
-4.01722	chody	-0.000566052
-4.01768	dao	-0.000526003
-4.01722	ckhy	-0.000566052
-4.01677	ckho	-0.000580792
-4.01768	shydksheey	-0.000526003
-4.01677	cthy	-0.000580792
-4.01768	kotchody	-0.000526003
-4.01541	dal	-0.0774599
-4.01722	dol	-0.000566052
-4.01768	chokeo	-0.000526003
-4.01722	dair	-0.000607143
-4.01768	damsochey	-0.000526003
-4.01677	chokody	-0.000580792
-4.01768	potoy	-0.000526003
-4.01677	shol	-0.0693293
-4.01768	cphoaldar	-0.000526003
-4.01586	chey	-0.000610803
-4.01768	tody	-0.000526003
-4.01768	otoaiin	-0.000526003
-4.01722	shoshy	-0.000566052
-4.01722	choky	-0.000566052
-4.01677	chol	-0.334524
-4.01722	cthol	-0.000566052
-4.01768	okaldolchey	-0.000526003
-4.01768	chodo	-0.000526003
-4.01722	lol	-0.000566052
-4.01722	chy	-0.000607143
-4.01722	qo	-0.000566052
-4.01768	ol	-0.000605031
-4.01768	choies	-0.000526003
-3.77628	cheol	-0.000605031
-4.01768	ctheyykol	-0.000526003
-4.01768	dolo	-0.000526003
-4.01722	ykol	-0.000566052
-4.01722	okol	-0.000588454
-4.01632	kol	-0.000588454
-4.01722	kechy	-0.000566052
-4.01768	kychol	-0.000526003
-4.01586	daiin	-0.0362154
-4.01677	shor	-0.000609462
-4.01677	ky	-0.000580792
-4.01768	darshol	-0.000526003
-4.01632	dchor	-0.000588454
-4.01768	otcho	-0.000526003
-4.01677	dar	-0.000604401
-4.01677	shody	-0.000580792
-4.01768	taor	-0.000526003
-4.01722	chotchey	-0.000588454
-4.01768	chodyschody	-0.000526003
-3.62203	pol	-0.434642
-4.01722	chodar	-0.000566052
-4.01768	kydainy	-0.000526003
-4.01722	ypchol	-0.000566052
-4.01677	otchal	-0.000580792
-4.01768	dorchoryshor	-0.000526003
-4.01586	ctho	-0.000593149
-4.01768	qotaiinchaiin	-0.000526003
-4.01768	shaiidychokaiin	-0.000526003
-4.01768	d	-0.000526003
-4.01768	otochor	-0.000526003
-4.01768	alytchaiin	-0.000526003
-4.01722	dan	-0.000566052
-4.01632	saiin	-0.000588454
-4.01768	dainddchol	-0.000526003
-4.01632	dchy	-0.000588454
-4.01677	daiiny	-0.000580792
-4.01768	kydain	-0.000526003
-4.01722	shaiin	-0.000580792
-4.01768	qoy	-0.000526003
-4.01768	s	-0.000526003
-4.01768	fodanyksh	-0.000526003
-4.01677	olsheey	-0.000580792
-4.01768	daiildy	-0.000526003
-4.01768	dlssho	-0.000526003
-4.01586	sheey	-0.000593149
-4.01632	qokey	-0.000588454
-4.01722	ykody	-0.000566052
-4.01768	sochol	-0.000526003
-4.01677	yky	-0.000580792
-4.01586	dain	-0.000601683
-4.01768	daiirol	-0.000526003
-4.01722	qoky	-0.000566052
-4.01722	cholaiin	-0.000566052
-4.01768	sheky	-0.000598607
-4.01768	daiincthey	-0.000526003
-4.01677	keol	-0.000580792
-2.43594	aiin	-0.220504
-4.01768	ychain	-0.000526003
-4.01768	dalor	-0.000526003
-4.01677	shan	-0.000580792
-4.01768	danolsaiin	-0.000526003
-4.01768	ckhor	-0.000526003
-4.01496	chor	-0.000598607
-4.01632	cthor	-0.000588454
-4.01722	yor	-0.000566052
-4.01722	an	-0.000566052
-4.01768	chansaiin	-0.000526003
-4.01677	chety	-0.000580792
-4.01722	chyky	-0.000566052
-4.01722	sal	-0.269708
-4.01768	sho	-0.000526003
-4.01722	ykeey	-0.000566052
-4.01677	chcthy	-0.000580792
-4.01722	kooiin	-0.000566052
-4.01586	cheo	-0.000593149
-4.01768	pchor	-0.000526003
-4.01768	otaiin	-0.000593149
-4.01722	odain	-0.000566052
-4.01768	chordair	-0.000526003
-4.01677	shty	-0.000580792
-4.01677	kcho	-0.000580792
-4.01632	kchy	-0.000588454
-4.01722	qotcho	-0.000566052
-4.01722	loeees	-0.000566052
-4.01768	qotychor	-0.000526003
-4.01722	otchy	-0.000566052
-4.01677	lshy	-0.1655
-4.01768	chodainchcthy	-0.000526003
-4.01768	cholo	-0.000526003
-4.01768	cheor	-0.294642
-4.01677	kchor	-0.000580792
-4.01632	shy	-0.000588454
-4.01722	daiiin	-0.000566052
-4.01768	chckhoysshey	-0.000526003
-4.01677	dor	-0.000580792
-4.01768	chtydaiin	-0.000526003
-4.01677	otchor	-0.000580792
-4.01722	chan	-0.000566052
-4.01722	qoteeey	-0.000566052
-4.01768	chokeoschees	-0.000526003
-4.01768	chr	-0.000526003
-4.01768	cheaiin	-0.000526003
-4.01768	chokoishe	-0.000526003
-4.01768	dolody	-0.000526003
-4.01768	tsheos	-0.000526003
-4.01722	qopal	-0.000566052
-4.01768	daimm	-0.000526003
-4.01722	ycheor	-0.000566052
-4.01677	dam	-0.000580792
-4.01768	qotcham	-0.000526003
-4.01677	cham	-0.000580792
-4.01677	ochor	-0.000580792
-4.01768	qocheor	-0.000526003
-4.01722	schey	-0.434642
-4.01677	chal	-0.000580792
-4.01632	cho	-0.000603657
-4.01586	qokol	-0.000593149
-4.01768	chololy	-0.000526003
-4.01768	ychtaiin	-0.000526003
-4.01677	cthom	-0.434642
-4.01722	otal	-0.000566052
-4.01632	otchol	-0.000588454
-4.01677	qodaiin	-0.1655
-3.22479	chom	-0.000603657
-4.01722	shom	-0.000566052
-4.01768	damo	-0.000526003
-4.01768	ysheor	-0.000526003
-4.01768	oky	-0.000566052
-4.01768	*or	-0.000526003
-4.01768	sheoldam	-0.000526003
-4.01722	otchody	-0.000566052
-4.01722	ydar	-0.000566052
-4.01722	pcheol	-0.000566052
-4.01768	sols	-0.000526003
-4.01586	sheol	-0.000593149
-3.13159	shey	-0.0152507
-4.01768	okadaiin	-0.000526003
-4.01677	qokchor	-0.000580792
-4.01768	qoschodam	-0.000526003
-4.01677	octhy	-0.000580792
-4.01768	qokeey	-0.000606043
-4.01722	qotshey	-0.000566052
-4.01722	qokody	-0.000580792
-4.01722	qokchey	-0.000566052
-4.01768	cheody	-0.000526003
-4.01722	qodair	-0.000566052
-4.01722	okeey	-0.000566052
-4.01768	tsheoarom	-0.000526003
-4.01768	ofchsy	-0.000526003
-4.01768	otchomoporar	-0.000526003
-4.01768	oteol	-0.000526003
-4.01768	ekshy	-0.000526003
-4.01768	qokeom	-0.000526003
-4.01768	daiinsoleem	-0.000526003
-4.01768	soeom	-0.000526003
-4.01677	okeom	-0.000580792
-4.01722	yteody	-0.269708
-4.01768	qokeeo	-0.000526003
-4.01722	sam	-0.000566052
-4.01768	pcheoldom	-0.000526003
-4.01722	shodaiin	-0.000593149
-4.01677	qopchor	-0.000580792
-4.01677	qopol	-0.000580792
-4.01632	opchol	-0.000593149
-4.01768	qotyotolom	-0.000526003
-4.01722	qoeor	-0.000566052
-4.01586	qoteol	-0.000593149
-4.01768	qosaiinchor	-0.000526003
-4.01586	odaiin	-0.000593149
-4.01722	okolor	-0.000566052
-4.01768	koaiin	-0.000526003
-4.01586	cphor	-0.000593149
-4.01768	qotoy	-0.000526003
-4.01722	sha	-0.000566052
-4.01722	ckhol	-0.219317
-4.01768	ykoaiin	-0.000526003
-4.01677	oly	-0.000580792
-4.01768	daiidy	-0.000526003
-4.01632	qoteeol	-0.000588454
-4.01768	okchor	-0.000580792
-4.01768	okor	-0.000526003
-4.01768	olytol	-0.000526003
-4.01677	okom	-0.000580792
-4.01768	seees	-0.000526003
-4.01768	cheeykam	-0.000526003
-4.01768	okai*	-0.000526003
-4.01768	qodar	-0.000526003
-4.01722	ees	-0.000580792
-4.01677	eey	-0.000580792
-4.01768	kcheol	-0.000526003
-4.01768	okal	-0.000580792
-4.01768	chear	-0.000526003
-4.01768	een	-0.000526003
-4.01768	yeeear	-0.000526003
-4.01677	eeor	-0.1655
-4.01768	eear	-0.000526003
-4.01722	kor	-0.000566052
-4.01677	chodaly	-0.000580792
-4.01768	tchor	-0.000526003
-4.01768	otcham	-0.000526003
-4.01768	cfham	-0.000526003
-4.01677	ykchy	-0.000580792
-4.01768	kchom	-0.000526003
-4.01768	chekeol	-0.000526003
-4.01768	oka	-0.000526003
-4.01768	ytcheear	-0.000526003
-4.01677	okeol	-0.000580792
-4.01768	cthodoaly	-0.000526003
-4.01768	qokshol	-0.000526003
-4.01722	daiim	-0.000566052
-4.01632	okary	-0.000588454
-4.01768	shockho	-0.000526003
-4.01722	osh	-0.000566052
-4.01768	chodair	-0.000526003
-4.01722	ytchy	-0.000566052
-4.01768	kcham	-0.000526003
-4.01722	shar	-0.000566052
-4.01722	shkaiin	-0.000566052
-4.01677	qokchy	-0.0658823
-4.01722	yty	-0.000566052
-4.01722	cthal	-0.000566052
-4.01722	chky	-0.000566052
-4.01768	sheam	-0.000526003
-4.01768	yteam	-0.000526003
-4.01768	kodalchy	-0.000526003
-4.01768	chpady	-0.000526003
-4.01768	qoteydoiin	-0.000526003
-4.01768	ytoy	-0.000526003
-4.01677	shtchy	-0.000580792
-4.01768	chaiinchoraiin	-0.000526003
-4.01722	chaiin	-0.000580792
-4.01768	qotaiindaiin	-0.000526003
-4.01632	shain	-0.000588454
-4.01722	qotchol	-0.000566052
-4.01768	okaiin	-0.0189631
-4.01768	pydaiin	-0.000526003
-4.01677	qotchy	-0.0829321
-2.9897	dy	-0.124071
-4.01768	tydy	-0.000526003
-4.01677	tchy	-0.000580792
-4.01768	tcheey	-0.000596321
-4.01768	qotaiin	-0.000607143
-4.01722	cpholdy	-0.000566052
-4.01768	ckhochy	-0.000526003
-4.01722	koraiin	-0.000566052
-4.01768	odal	-0.000526003
-4.01768	shyshol	-0.000526003
-4.01541	cphaiin	-0.000596321
-4.01768	qotchoiin	-0.000526003
-4.01677	shear	-0.000580792
-4.01677	qoty	-0.000607143
-4.01722	soiin	-0.1655
-4.01722	cthey	-0.000566052
-4.01768	pchooiin	-0.000526003
-4.01768	kshea	-0.000526003
-4.01722	kchoy	-0.000566052
-4.01722	chapchy	-0.000566052
-4.01768	doldsdlod	-0.000526003
-4.01768	olchey	-0.000526003
-4.01768	shkchor	-0.000526003
-4.01496	sheo	-0.0658823
-4.01768	cheorycholdy	-0.000526003
-4.01768	qodaiinoaram	-0.000526003
-4.01768	qokshy	-0.000526003
-4.01677	qocthy	-0.000580792
-4.01768	choteol	-0.000526003
-4.01768	ctheychoaiin	-0.000526003
-4.01768	cth*	-0.000526003
-4.01722	otoiin	-0.000566052
-4.01768	qotchoiinchodain	-0.000526003
-4.01722	ytchoy	-0.000566052
-4.01768	shokchy	-0.000526003
-4.01768	cph	-0.000526003
-4.01768	ody	-0.000526003
-4.01722	torchy	-0.000566052
-4.01677	sheeor	-0.000580792
-4.01722	chokchy	-0.0573408
-4.01768	cphydy	-0.000526003
-4.01768	olen	-0.000526003
-4.01677	otor	-0.000593149
-4.01722	cthory	-0.000566052
-4.01768	qooko	-0.000526003
-4.01768	iiincheom	-0.000526003
-4.01722	shoky	-0.000566052
-4.01677	okeody	-0.000580792
-4.01722	chokeody	-0.000566052
-4.01768	kcheor	-0.000526003
-4.01768	shtaiin	-0.000526003
-4.01722	qotol	-0.000566052
-4.01722	keey	-0.000566052
-4.01768	ochody	-0.000526003
-4.01586	key	-0.000601683
-4.01768	chtody	-0.000526003
-4.01722	kshody	-0.000566052
-4.01768	pchoy	-0.000526003
-4.01768	chkoy	-0.000526003
-4.01722	oaiin	-0.000566052
-4.01768	oar	-0.000526003
-4.01768	olsy	-0.000526003
-4.01768	dkshy	-0.000526003
-4.01722	ochey	-0.000580792
-4.01768	okey	-0.000526003
-4.01586	qokaiin	-0.000610416
-4.01768	ckhoy	-0.000526003
-4.01768	ok**or	-0.000526003
-4.01722	otol	-0.000566052
-4.01768	qoaiin	-0.000526003
-4.01722	otan	-0.000566052
-4.01768	oteeen	-0.000526003
-4.01722	qotchody	-0.000566052
-4.01722	otain	-0.000566052
-4.01541	sheody	-0.000598607
-4.01496	chocthy	-0.000598607
-4.01768	tshy	-0.000526003
-4.01722	cholols	-0.000566052
-4.01677	qotcheo	-0.000588454
-4.01722	qoeeey	-0.000566052
-4.01768	qoykeeey	-0.000526003
-4.01768	shotshy	-0.000526003
-4.01768	qotoeey	-0.000526003
-4.01768	k	-0.000526003
-4.01632	o	-0.000588454
-4.01677	ytchey	-0.000593149
-4.01768	pshod	-0.000526003
-4.01722	chols	-0.000566052
-4.01768	ytoiiin	-0.000526003
-4.01632	dchol	-0.000588454
-4.01768	chots	-0.000526003
-4.01768	ychopordm	-0.000526003
-4.01722	ytor	-0.000566052
-4.01768	darchor	-0.000526003
-4.01586	do	-0.000593149
-3.62166	qotor	-0.000593149
-4.01586	shees	-0.000598607
-4.01722	otof	-0.000566052
-4.01722	ykoiin	-0.000566052
-4.01768	okchy	-0.000526003
-4.01722	taiin	-0.000566052
-4.01768	shokeeol	-0.000526003
-4.01722	cheotol	-0.000566052
-4.01722	chotaiin	-0.000566052
-4.01768	dairodd	-0.000526003
-4.01768	foar	-0.000526003
-4.01677	y	-0.000580792
-4.01722	cholor	-0.000566052
-4.01677	cphol	-0.000600333
-4.01768	chckhchopchol	-0.000526003
-4.01722	chckhy	-0.000566052
-4.01677	kar	-0.000596321
-4.01768	cthycthor	-0.000526003
-4.01722	chotols	-0.000566052
-4.01768	poeear	-0.000526003
-4.01768	kshor	-0.000526003
-4.01722	os	-0.000566052
-4.01768	cheoeesykeor	-0.000526003
-4.01586	ytaiin	-0.000593149
-4.01722	sheor	-0.000566052
-4.01768	tar	-0.000526003
-4.01677	okoiin	-0.000580792
-4.01722	ytaly	-0.000566052
-4.01722	cthaiin	-0.000566052
-4.01722	al	-0.181479
-4.01677	ckham	-0.000580792
-4.01722	ychol	-0.000566052
-4.01677	pchar	-0.000580792
-4.01722	shea	-0.000566052
-4.01768	ckhaiin	-0.000526003
-4.01722	sheeol	-0.000580792
-4.01768	skaiiodar	-0.000526003
-4.01722	chory	-0.000566052
-4.01768	ctheod	-0.000526003
-4.01768	odshe	-0.000526003
-4.01677	od	-0.000580792
-4.01722	ychar	-0.000566052
-4.01768	olchad	-0.000526003
-4.01768	olchokaiin	-0.000526003
-4.01722	qocthol	-0.000566052
-4.01722	ysho	-0.000566052
-4.01768	ykaiim	-0.000526003
-4.01768	koary	-0.000526003
-4.01677	sar	-0.000603657
-4.01768	cheekar	-0.000526003
-4.01722	qoor	-0.000566052
-4.01768	oees	-0.000526003
-4.01768	qoekchar	-0.000526003
-4.01768	cheas	-0.000526003
-4.01677	kchey	-0.0349139
-4.01677	qoair	-0.000580792
-4.01768	oochockhy	-0.000526003
-4.01768	chekchoy	-0.000526003
-4.01768	okolsychos	-0.000526003
-4.01722	ychckhy	-0.000566052
-4.01768	sos	-0.000526003
-4.01677	dady	-0.000580792
-4.01768	dey	-0.000526003
-4.01768	okodyytody	-0.000526003
-4.01768	sh**	-0.000526003
-4.01768	chodam	-0.000526003
-4.01768	oty	-0.000526003
-4.01722	dom	-0.000566052
-4.01768	tchody	-0.000526003
-4.01768	shocthol	-0.000526003
-4.01768	ychos	-0.000526003
-4.01768	ychor	-0.000526003
-4.01677	okchey	-0.000580792
-4.01768	qokom	-0.000526003
-4.01768	oeeo	-0.000526003
-4.01722	qokchod	-0.000566052
-4.01768	ychear	-0.000526003
-4.01677	kchdy	-0.000580792
-4.01677	lor	-0.000598607
-4.01768	otam	-0.000526003
-4.01722	ytchor	-0.000566052
-4.01722	qokam	-0.000566052
-4.01768	yodaiin	-0.000526003
-4.01722	qokor	-0.000566052
-4.01768	tchalody	-0.000526003
-4.01722	chockhy	-0.000566052
-4.01768	sain	-0.000526003
-4.01768	ochy	-0.000526003
-4.01677	cthar	-0.000580792
-4.01722	ychaiin	-0.000566052
-4.01722	ckhal	-0.000580792
-4.01768	cthodam	-0.000526003
-4.01768	ytcho	-0.000526003
-4.01768	ches	-0.000526003
-4.01768	ocholy	-0.000526003
-4.01768	choldar	-0.000526003
-4.01768	octham	-0.000526003
-4.01768	fchodaiin	-0.000526003
-4.01722	chopchey	-0.000566052
-4.01768	qkochey	-0.000526003
-4.01722	qoos	-0.000566052
-4.01768	chorochy	-0.000526003
-4.01768	dcheey	-0.000526003
-4.01677	keor	-0.000580792
-4.01768	dolddchey	-0.000526003
-4.01768	ochees	-0.000526003
-4.01768	cheodaiin	-0.000566052
-4.01768	sheeyytcheey	-0.000526003
-4.01768	chald	-0.000526003
-4.01677	qokcho	-0.000588454
-4.01768	lochey	-0.000526003
-4.01768	daiinodaiin	-0.000526003
-4.01768	oainsotaiin	-0.000526003
-4.01768	ksholo	-0.000526003
-4.01768	qotoees	-0.000526003
-4.01768	chkoldyotchor	-0.000526003
-4.01677	choaiin	-0.1655
-4.01768	dshoy	-0.000526003
-4.01768	dainshody	-0.000526003
-4.01677	chotchy	-0.000580792
-4.01768	deeeese	-0.000526003
-4.01722	choty	-0.000566052
-4.01768	qokchyshol	-0.000526003
-4.01722	qokechy	-0.000593149
-4.01768	olchoiin	-0.000526003
-4.01768	cpheyshckhy	-0.000526003
-4.01722	chochy	-0.000566052
-4.01722	kchod	-0.000580792
-4.01768	schain	-0.000526003
-4.01768	polyshy	-0.000526003
-4.01677	qopchy	-0.000600333
-4.01722	otshol	-0.000566052
-4.01768	tshodody	-0.000526003
-4.01768	chcphey	-0.000526003
-4.01768	cthd	-0.000526003
-4.01677	chkeey	-0.000580792
-4.01677	kshy	-0.000580792
-4.01677	ty	-0.292944
-4.01768	cheey	-0.000526003
-4.01677	cheoldy	-0.000580792
-4.01768	choteeen	-0.000526003
-4.01722	ochar	-0.000566052
-4.01768	choschy	-0.000526003
-4.01768	deees	-0.000526003
-4.01722	dchodaiin	-0.000566052
-4.01677	sheod	-0.000600333
-4.01677	sheodaiin	-0.000580792
-4.01722	oksho	-0.000593149
-4.01768	lshol	-0.000526003
-4.01722	qos	-0.000566052
-4.01768	deeen	-0.000526003
-4.01768	shotchdol	-0.000526003
-4.01632	doraiin	-0.000588454
-4.01768	qoteeeo	-0.000526003
-4.01768	rcho	-0.000526003
-4.01677	cheeody	-0.000580792
-4.01768	qotchey	-0.000600333
-4.01768	teyokchor	-0.000526003
-4.01768	keeo	-0.000526003
-4.01768	daiir	-0.000526003
-4.01768	deol	-0.000526003
-4.01768	dydol	-0.000526003
-4.01768	cthod	-0.000526003
-4.01768	soocthsol	-0.000526003
-4.01768	opcheaiin	-0.000526003
-4.01722	opydaiin	-0.000566052
-4.01722	shcthal	-0.000566052
-4.01768	sarchor	-0.000526003
-4.01768	sheaiin	-0.000526003
-4.01722	chykchy	-0.000566052
-4.01722	ety	-0.000566052
-4.01677	qody	-0.000596321
-4.01768	cheal	-0.000526003
-4.01768	sychear	-0.000526003
-4.01722	dolar	-0.000566052
-4.01768	dshol	-0.000526003
-4.01768	sholchean	-0.000526003
-4.01768	shealy	-0.000526003
-4.01677	chary	-0.1655
-4.01768	darotchar	-0.000526003
-4.01768	etaiin	-0.000526003
-4.01768	cthanytchy	-0.000526003
-4.01722	kaiin	-0.000588454
-4.01722	ar	-0.173394
-4.01768	kcholdar	-0.000526003
-4.01768	chotain	-0.000526003
-4.01722	ry	-0.000566052
-4.01722	okchol	-0.000593149
-4.01768	kshchol	-0.000526003
-4.01768	orchlchokchy	-0.000526003
-4.01768	scharchyoeesody	-0.000526003
-4.01677	pchy	-0.000580792
-4.01768	cpharom	-0.000526003
-4.01768	sorain	-0.000526003
-4.01722	rol	-0.000566052
-4.01768	dalshear	-0.000526003
-4.01768	cheeotaiin	-0.000526003
-4.01722	otchar	-0.000566052
-4.01768	okychokain	-0.000526003
-4.01768	keoky	-0.000526003
-4.01722	otorchy	-0.000566052
-4.01768	satar	-0.000526003
-4.01768	lokaiinshol	-0.000526003
-4.01768	chiin	-0.000526003
-4.01768	chekychor	-0.000526003
-4.01768	cheain	-0.000526003
-4.01722	cheeky	-0.000566052
-4.01768	chearoteey	-0.000526003
-4.01768	chodey	-0.000526003
-4.01677	raiin	-0.000580792
-4.01768	tydlo	-0.000526003
-4.01677	choly	-0.000593149
-4.01677	orchey	-0.000580792
-4.01768	sshy	-0.000526003
-4.01768	saryshor	-0.000526003
-4.01768	oykeey	-0.000526003
-4.01768	okchody	-0.000580792
-4.01768	toeoky	-0.000526003
-4.01768	dyor	-0.000526003
-4.01768	toiin	-0.000526003
-3.17586	cphy	-0.000601683
-4.01722	qotod	-0.000566052
-4.01768	cheycthod	-0.000526003
-4.01722	ram	-0.269708
-4.01768	yshy	-0.000526003
-4.01768	chcthod	-0.000526003
-4.01722	otar	-0.000566052
-4.01768	dorytol	-0.000526003
-4.01768	dayty	-0.000526003
-4.01722	sor	-0.000566052
-4.01768	chokoiin	-0.000526003
-4.01768	dsholdyotchol	-0.000526003
-4.01722	otdy	-0.000566052
-4.01768	pshoain	-0.000526003
-4.01768	cthoaiin	-0.000526003
-4.01677	okaiir	-0.000580792
-4.01768	cfhodoral	-0.000526003
-4.01768	sharshydal	-0.000526003
-4.01677	chdy	-0.000580792
-4.01677	tchol	-0.000580792
-4.01768	chykychodar	-0.000526003
-4.01768	okaind	-0.000526003
-4.01768	dalolsho	-0.000526003
-4.01768	ocho	-0.000526003
-4.01768	chocthoy	-0.000526003
-4.01768	chodykchy	-0.000526003
-4.01768	dchydaiin	-0.000526003
-4.01768	ytchar	-0.000526003
-4.01677	oraiin	-0.000580792
-4.01722	chkar	-0.000566052
-4.01768	fochor	-0.000526003
-4.01768	oporody	-0.000526003
-4.01632	opy	-0.000588454
-4.01768	qopchypcho	-0.000526003
-4.01768	qofol	-0.000526003
-4.01677	cfhol	-0.000580792
-4.01677	chkaiin	-0.000580792
-4.01768	dyoty	-0.000526003
-4.01677	ykey	-0.000580792
-4.01768	ykaiin	-0.000526003
-4.01768	okyoeees	-0.000526003
-4.01768	ytey	-0.000526003
-4.01768	toldy	-0.000526003
-4.01768	ypcheey	-0.000526003
-4.01677	ypchy	-0.000580792
-4.01768	olcfholy	-0.000526003
-4.01722	to	-0.000566052
-4.01768	odol	-0.000526003
-4.01722	choy	-0.000566052
-4.01768	ksheody	-0.000526003
-4.01722	qochol	-0.269708
-4.01768	rokyd	-0.000526003
-4.01722	tor	-0.000566052
-4.01768	chyty	-0.000526003
-4.01768	dary	-0.000526003
-4.01722	kchol	-0.000566052
-4.01768	chykyty	-0.000526003
-4.01768	chshoty	-0.000526003
-4.01768	pchocthy	-0.000526003
-4.01722	octhody	-0.000566052
-4.01768	chorchy	-0.000526003
-4.01768	pchodolchopchal	-0.000526003
-4.01768	yrch	-0.000526003
-4.01768	kom	-0.000526003
-4.01632	dchey	-0.000600333
-4.01768	cthoor	-0.000526003
-4.01768	chty	-0.000526003
-4.01768	chair	-0.000526003
-4.01768	etyd	-0.000526003
-4.01768	chtchor	-0.000526003
-4.01722	doiir	-0.000566052
-4.01768	qoctholy	-0.000526003
-4.01722	dychy	-0.000566052
-4.01632	qokchol	-0.000588454
-4.01768	ykchaiin	-0.000526003
-4.01768	cthdain	-0.000526003
-4.01722	qotchor	-0.000580792
-4.01768	cholorchol	-0.000526003
-4.01768	oykchor	-0.000526003
-4.01768	kaiiin	-0.000526003
-4.01768	oqotar	-0.000526003
-4.01632	cfhy	-0.000588454
-4.01768	osain	-0.000526003
-4.01768	rotcho	-0.000526003
-4.01722	cthyd	-0.000566052
-4.01768	paiin	-0.000526003
-4.01722	pcheey	-0.000566052
-4.01722	otydy	-0.000566052
-4.01768	chcthor	-0.000526003
-4.01722	choiin	-0.000566052
-4.01677	qot	-0.000580792
-4.01632	dsho	-0.000588454
-4.01768	olty	-0.000526003
-4.01768	shoiin	-0.000526003
-4.01722	shcthey	-0.000566052
-4.01768	shcthy	-0.000526003
-4.01722	qotoiin	-0.000566052
-4.01677	cheky	-0.000580792
-4.01768	chckhan	-0.000526003
-4.01768	tshol	-0.000526003
-4.01768	schoal	-0.000526003
-4.01768	shfydaiin	-0.000526003
-4.01768	shoyty	-0.000526003
-4.01768	socthody	-0.000526003
-4.01768	qodory	-0.000526003
-4.01768	ytchoky	-0.000526003
-4.01768	ykychy	-0.000526003
-4.01768	ded	-0.000526003
-4.01768	dky	-0.000526003
-4.01722	shcphy	-0.000566052
-4.01768	chodl	-0.000526003
-4.01722	odl	-0.000566052
-4.01768	dsy	-0.000526003
-4.01722	ykchor	-0.000566052
-4.01768	poldchody	-0.000526003
-4.01768	shordy	-0.000526003
-4.01768	qotyshol	-0.000526003
-4.01632	cphar	-0.000588454
-4.01768	dany	-0.000526003
-4.01768	damykchy	-0.000526003
-4.01768	qokchdoky	-0.000526003
-4.01768	chololor	-0.000526003
-4.01768	qokyctho	-0.000526003
-4.01632	tchey	-0.000588454
-4.01768	ton	-0.000526003
-4.01768	soydy	-0.000526003
-4.01722	qoteey	-0.000566052
-4.01768	ddycthor	-0.000526003
-4.01768	arm	-0.000526003
-4.01722	ksho	-0.000566052
-4.01768	schold	-0.000526003
-4.01768	torshor	-0.000526003
-4.01632	opchy	-0.000588454
-4.01768	sholdy	-0.000526003
-4.01677	opchor	-0.000580792
-4.01768	dchm	-0.000526003
-4.01677	shkchy	-0.000580792
-4.01722	ydal	-0.000566052
-4.01768	qotey	-0.000596321
-4.01768	sy	-0.000526003
-4.01768	sydchor	-0.000526003
-4.01722	oeees	-0.000566052
-4.01722	ykor	-0.000566052
-4.01722	ytshy	-0.000566052
-4.01768	qodchy	-0.000526003
-4.01768	shorodo	-0.000526003
-4.01722	dpchy	-0.000566052
-4.01768	cfholdy	-0.000526003
-4.01768	oiin	-0.000526003
-4.01768	doldyokchor	-0.000526003
-4.01768	doaiin	-0.000526003
-4.01768	shochy	-0.000526003
-4.01768	keckhys	-0.000526003
-4.01768	oldy	-0.000526003
-4.01722	doiin	-0.000566052
-4.01768	ykolyokchal	-0.000526003
-4.01677	daldy	-0.000580792
-4.01768	sotchy	-0.000526003
-4.01768	okorory	-0.000526003
-4.01768	koair	-0.000526003
-4.01768	chtoiin	-0.000526003
-4.01768	octhos	-0.000526003
-4.01677	oko	-0.000580792
-4.01722	chodal	-0.000566052
-4.01768	*tchol	-0.000526003
-4.01677	qokod	-0.000580792
-4.01632	cthody	-0.000588454
-4.01768	olschey	-0.000526003
-4.01768	okos	-0.000526003
-4.01722	okshy	-0.000566052
-4.01768	qockhy	-0.000526003
-4.01768	fol	-0.000566052
-4.01768	olcphy	-0.000526003
-4.01768	sholdairod	-0.000526003
-4.01768	qokchoryshon	-0.000526003
-4.01722	ydain	-0.000566052
-4.01768	ykolytaiin	-0.000526003
-4.01768	tchtod	-0.000526003
-4.01768	ytalsho	-0.000526003
-4.01722	yol	-0.000566052
-4.01768	pcho	-0.000526003
-4.01768	chopol	-0.000526003
-4.01722	soiiin	-0.000566052
-4.01722	chok	-0.000566052
-4.01768	da	-0.000526003
-4.01677	ydaiin	-0.000580792
-4.01677	olchy	-0.000580792
-4.01677	olol	-0.000580792
-4.01768	ochkchar	-0.000526003
-4.01768	dorody	-0.000526003
-4.01722	dala	-0.000566052
-4.01768	qotolo	-0.000526003
-4.01768	oir	-0.000526003
-4.01768	choor	-0.000526003
-4.01586	ockhy	-0.000593149
-4.01722	soshy	-0.000566052
-4.01768	*chol	-0.000526003
-4.01722	sody	-0.000566052
-4.01722	koiin	-0.000566052
-4.01768	syshoty	-0.000526003
-4.01768	chod	-0.000526003
-4.01722	shoty	-0.000596321
-4.01768	dyokchydy	-0.000526003
-4.01768	dcho	-0.000526003
-4.01768	schol	-0.000526003
-4.01768	qotyykeeyky	-0.000526003
-4.01768	oeeen	-0.000526003
-4.01768	teor	-0.000526003
-4.01768	kychodalm	-0.000526003
-4.01768	sodaiin	-0.000526003
-4.01722	ykeody	-0.000566052
-4.01768	pdychoiin	-0.000526003
-4.01768	yfodain	-0.000526003
-4.01768	otyshy	-0.000526003
-4.01768	ypchor	-0.000526003
-4.01722	ychy	-0.000566052
-4.01722	dytchy	-0.000566052
-4.01768	ytychy	-0.000526003
-4.01722	ykshy	-0.000566052
-4.01722	shok	-0.1655
-4.01722	darody	-0.000566052
-4.01768	dyotyds	-0.000526003
-4.01722	dydydy	-0.000566052
-4.01768	dchyd	-0.000526003
-4.01677	n	-0.000580792
-4.01768	oykshy	-0.000526003
-4.01768	dydyodyd	-0.000526003
-4.01722	dshy	-0.000566052
-4.01768	dardy	-0.000526003
-4.01768	chokshor	-0.000526003
-4.01768	daiindoldair	-0.000526003
-4.01768	dykchy	-0.000526003
-4.01768	ctholdmdchckhy	-0.000526003
-4.01768	tshor	-0.000526003
-4.01768	tchalydaiin	-0.000526003
-4.01768	scheaiin	-0.000526003
-4.01768	chl	-0.000526003
-4.01768	rshor	-0.000526003
-4.01768	ko	-0.000526003
-4.01677	shocthy	-0.000580792
-4.01632	tol	-0.000588454
-4.01768	octhain	-0.000526003
-4.01722	chos	-0.000566052
-4.01768	chckhey	-0.000526003
-4.01768	ykshol	-0.000526003
-4.01768	dainshor	-0.000526003
-4.01768	ctharytol	-0.000526003
-4.01768	daky	-0.000526003
-4.01768	poror	-0.000526003
-4.01768	orshy	-0.000526003
-4.01768	dtchan	-0.000526003
-4.01768	opchordy	-0.000526003
-4.01768	*chor	-0.000526003
-4.01677	oro	-0.000580792
-4.01768	*ain	-0.000526003
-4.01768	okeor	-0.000526003
-4.01768	qotchod	-0.000526003
-4.01768	cthys	-0.000526003
-4.01677	*	-0.000580792
-4.01722	schy	-0.000566052
-4.01632	ols	-0.000593149
-4.01768	otcholo	-0.000526003
-4.01768	kan	-0.000566052
-4.01722	cthoiin	-0.000566052
-4.01768	soloiin	-0.000526003
-4.01768	pchraiin	-0.000526003
-4.01768	chpchol	-0.000526003
-4.01768	chpchey	-0.000526003
-4.01768	spchocthy	-0.000526003
-4.01722	shory	-0.000566052
-4.01768	koshet	-0.000526003
-4.01722	chcthody	-0.000566052
-4.01768	cphod	-0.000526003
-4.01632	chotol	-0.000588454
-4.01768	dairin	-0.000526003
-4.01768	chypchy	-0.000526003
-4.01768	chcfhey	-0.000580792
-4.01768	qotchar	-0.000526003
-4.01768	sholo	-0.000526003
-4.01768	chydy	-0.000526003
-4.01768	okytaiin	-0.000526003
-4.01722	chkchy	-0.000566052
-4.01768	sokar	-0.000526003
-4.01768	oaorar	-0.000526003
-4.01768	fshody	-0.000526003
-4.01677	daram	-0.000580792
-4.01722	opydy	-0.000566052
-4.01768	ypod	-0.000526003
-4.01768	chop	-0.000526003
-4.01722	dody	-0.000566052
-4.01768	oldckhy	-0.000526003
-4.01768	ydair	-0.000526003
-4.01768	chokoky	-0.000526003
-4.01722	ckhody	-0.000566052
-4.01768	qodcthy	-0.000526003
-4.01768	ods	-0.000526003
-4.01722	qodam	-0.000566052
-4.01722	okchom	-0.000566052
-4.01768	tcho*	-0.000526003
-4.01768	qor	-0.000526003
-4.01632	olaiin	-0.000593149
-4.01768	opydmsom	-0.000526003
-4.01768	ypaim	-0.000526003
-4.01722	ychekchy	-0.000566052
-4.01768	cphaldydair	-0.000526003
-4.01768	tsho	-0.000526003
-4.01768	qofcho	-0.000526003
-4.01768	qokcheor	-0.000526003
-4.01768	chekem	-0.000526003
-4.01768	ksheo	-0.000526003
-4.01768	choldshy	-0.000526003
-4.01768	**pchy	-0.000526003
-4.01768	dchchy	-0.000526003
-4.01768	dychear	-0.000526003
-4.01768	schar	-0.000526003
-4.01722	soy	-0.000566052
-4.01768	chckho	-0.000526003
-4.01586	odar	-0.000593149
-4.01768	chypcham	-0.000526003
-4.01722	dsheor	-0.000566052
-4.01768	ymol	-0.000526003
-4.01722	ychody	-0.000566052
-4.01722	chotom	-0.000566052
-4.01768	pchodol	-0.000526003
-4.01677	fchy	-0.000580792
-4.01768	odaldy	-0.000526003
-4.01722	ycheey	-0.000566052
-4.01768	keeor	-0.000526003
-4.01768	oldaim	-0.000526003
-4.01677	oldaiin	-0.000580792
-4.01768	chockhol	-0.000526003
-4.01768	fchol	-0.000526003
-4.01632	olcheol	-0.000588454
-4.01722	okeeey	-0.000566052
-4.01768	dolcheey	-0.000526003
-4.01768	oekor	-0.000526003
-4.01768	poiis	-0.000526003
-4.01768	kcha	-0.000526003
-4.01768	ycheol	-0.000526003
-4.01768	oytor	-0.000526003
-4.01722	okar	-0.000566052
-4.01722	qokcheo	-0.000566052
-4.01768	qokoiir	-0.000526003
-4.01722	ctheol	-0.1655
-4.01722	oy	-0.000566052
-4.01768	keaiin	-0.000526003
-4.01722	ykeor	-0.000566052
-4.01768	chkor	-0.000526003
-4.01768	olor	-0.000526003
-4.01768	okeeol	-0.000526003
-4.01768	tchory	-0.000526003
-4.01768	okcheol	-0.000526003
-4.01768	otcheolom	-0.000526003
-4.01722	qoain	-0.000566052
-4.01722	she	-0.000566052
-4.01768	qopchaiin	-0.000526003
-4.01632	cheeor	-0.000588454
-4.01768	oreees	-0.000526003
-4.01768	cholchom	-0.000526003
-4.01722	oal	-0.000566052
-4.01768	sholor	-0.000526003
-4.01632	shecthy	-0.000588454
-4.01722	cpheor	-0.000566052
-4.01768	qokeee	-0.000526003
-4.01768	cheeol	-0.000526003
-4.01722	ctheey	-0.000596321
-4.01768	pdrairdy	-0.000526003
-4.01768	darode	-0.000526003
-4.01768	fyoar	-0.000526003
-4.01632	ykchol	-0.000588454
-4.01768	chckhyockhor	-0.000526003
-4.01722	okchal	-0.000566052
-4.01722	dychol	-0.000566052
-4.01768	diiin	-0.000526003
-4.01768	dyytcharm	-0.000526003
-4.01722	okain	-0.000566052
-4.01768	chlol	-0.000526003
-4.01768	ytol	-0.29016
-4.01768	oshor	-0.000526003
-4.01768	doldy	-0.000526003
-4.01768	doldaiin	-0.000526003
-4.01768	olody	-0.000526003
-4.01722	okaldy	-0.000566052
-4.01768	chcthal	-0.000526003
-4.01768	okshal	-0.000526003
-4.01768	chykald	-0.000526003
-4.01768	olydaiin	-0.000526003
-4.01768	sotchaiin	-0.000526003
-4.01677	chckhol	-0.000580792
-4.01768	chorm	-0.000526003
-4.01768	ychair	-0.000526003
-4.01722	kchaiin	-0.000566052
-4.01768	tofd	-0.000526003
-4.01768	otchdal	-0.000526003
-4.01722	dchal	-0.000566052
-4.01768	ytdm	-0.000526003
-4.01677	qoeees	-0.000580792
-4.01768	oroaiin	-0.000526003
-4.01768	sm	-0.000526003
-4.01722	qokay	-0.000566052
-4.01722	ykcho	-0.000566052
-4.01768	ydl	-0.000526003
-4.01768	ychoees	-0.000526003
-4.01722	qol	-0.000566052
-4.01768	om	-0.000526003
-6.99728	qokeees	-0.000526003
-6.99728	ykar	-0.000526003
-6.99728	tolol	-0.000526003
-6.52016	sh	-0.000580792
-6.99728	cphoy	-0.000526003
-6.69625	daror	-0.000566052
-6.99728	ddy	-0.000526003
-6.99728	ykam	-0.000526003
-6.99728	doky	-0.000526003
-6.99728	yka	-0.000526003
-6.69625	qotshy	-0.000580792
-6.99728	dchydy	-0.000526003
-6.52016	chordy	-0.000580792
-6.69625	dyty	-0.000566052
-6.69625	cho*	-0.000566052
-6.99728	oscheor	-0.000526003
-0.339174	tdaiin	-0.000526003
-0.273506	qokorar	-0.000526003
-0.252619	r	-0.000526003
-6.99728	yshor	-0.000526003
-0.058839	otytchy	-0.000526003
0.374344	dorl	-0.000526003
-0.199578	shdaiin	-0.000566052
-6.99728	qolody	-0.000526003
-6.69625	choldy	-0.000596321
-nan	daiinol	-0.000526003
-6.99728	osocthor	-0.000526003
-6.99728	pochaiin	-0.000526003
-6.99728	chpcheos	-0.000526003
-3.19206	opchey	-0.000604401
-6.99728	pykchy	-0.000526003
-6.99728	qokchos	-0.000526003
-6.52016	darom	-0.000580792
-6.99728	ytch	-0.000526003
-6.99728	doty	-0.000526003
-6.99728	ychoy	-0.000526003
-6.52016	toy	-0.000580792
-6.99728	qokchs	-0.000526003
-6.69625	ytal	-0.000566052
-6.99728	okyddor	-0.000526003
-6.99728	yokchan	-0.000526003
-6.99728	otch	-0.000526003
-6.99728	okchod	-0.000526003
-6.99728	yees	-0.000526003
-6.69625	ytar	-0.000580792
-6.99728	kdchody	-0.000526003
-6.99728	chopy	-0.000526003
-6.69625	odaiir	-0.000566052
-6.69625	chodchy	-0.000566052
-6.99728	chochodaiin	-0.000526003
-6.69625	qochy	-0.000566052
-6.69625	tcheo	-0.000566052
-6.69625	daral	-0.000566052
-6.99728	ochol	-0.000526003
-6.99728	olteey	-0.000526003
-6.99728	otalchey	-0.000526003
-6.99728	chokoaiin	-0.000526003
-6.99728	cheeen	-0.000526003
-6.52016	shosaiin	-0.000580792
-6.99728	choees	-0.000526003
-6.39522	shod	-0.000596321
-6.99728	schodain	-0.000526003
-6.99728	fchodees	-0.000526003
-6.69625	qocphy	-0.000566052
-6.99728	chokoldy	-0.000526003
-6.99728	ochoaiin	-0.000526003
-6.69625	pchodaiin	-0.000566052
-6.99728	chetody	-0.000526003
-6.99728	dchod	-0.000526003
-6.52016	qoteeody	-0.000580792
-6.52016	dchaiin	-0.000580792
-6.52016	otchey	-0.000580792
-0.25174	ochaiin	-0.000526003
-0.268966	faiis	-0.000526003
-0.254626	okoy	-0.000566052
-6.99728	po	-0.000526003
-1.03441	fochey	-0.000526003
-0.020592	qopy	-0.000580792
-0.0089775	checthy	-0.000566052
-6.99728	shos	-0.000526003
-6.99728	fshodchy	-0.000526003
-6.99728	chcphy	-0.000526003
-6.99728	doiiin	-0.000526003
-6.69625	cheockhy	-0.000588454
-6.39522	cheos	-0.000588454
-6.99728	sheoy	-0.000526003
-6.99728	tey	-0.000526003
-6.99728	choraly	-0.000526003
-6.99728	ds	-0.000526003
-6.39522	keody	-0.000588454
-6.52016	shd	-0.0940496
-6.99728	d*	-0.000526003
-6.52016	shokaiin	-0.000580792
-6.99728	oeeockhy	-0.000526003
-6.99728	ofychey	-0.000526003
-6.99728	ypchey	-0.000526003
-6.69625	qopcheody	-0.000566052
-6.69625	oteos	-0.000566052
-6.99728	pchofy	-0.000526003
-6.52016	cthain	-0.000588454
-6.99728	otolosheey	-0.000526003
-6.69625	qocthey	-0.000566052
-6.99728	chosy	-0.000526003
-6.69625	qokoiin	-0.000566052
-6.99728	qotcheol	-0.000526003
-6.99728	okeoaiin	-0.000526003
-6.99728	kolyky	-0.000526003
-6.99728	qokeal	-0.000580792
-6.69625	cholol	-0.000566052
-6.99728	shoeor	-0.000526003
-6.52016	fcho	-0.000580792
-6.99728	ocphal	-0.000526003
-6.99728	opsheas	-0.000526003
-6.99728	cthodaiin	-0.000526003
-6.99728	tshaiin	-0.000526003
-6.99728	totchy	-0.000526003
-6.99728	otyky	-0.000526003
-6.69625	yteol	-0.000566052
-6.69625	ysheol	-0.000566052
-6.99728	toldshy	-0.000526003
-6.99728	chofchy	-0.000526003
-6.99728	qofshey	-0.000526003
-6.99728	shckhal	-0.000526003
-6.99728	ckholy	-0.000526003
-6.99728	oeeesoy	-0.000526003
-6.99728	qotof	-0.000526003
-6.99728	keeees	-0.000526003
-6.69625	tcho	-0.000566052
-6.99728	chtychtol	-0.000526003
-6.69625	oshy	-0.000566052
-6.52016	deey	-0.000580792
-6.99728	daitoky	-0.000526003
-6.99728	chotshol	-0.000526003
-6.99728	todaiin	-0.000566052
-6.69625	lchol	-0.000566052
-6.99728	kchochaiin	-0.000526003
-6.99728	pololshy	-0.000526003
-6.99728	fcholy	-0.000526003
-6.99728	okoly	-0.000526003
-6.99728	opchys	-0.000526003
-6.99728	ocphy	-0.000526003
-6.99728	oloiin	-0.000526003
-6.99728	dykaiin	-0.000526003
-6.99728	ctholo	-0.000526003
-6.99728	pchaiin	-0.000526003
-6.99728	syschor	-0.000526003
-6.99728	oldor	-0.000526003
-6.99728	okyycholdchy	-0.000526003
-6.99728	ychokshchy	-0.000526003
-6.99728	ctheen	-0.000526003
-6.69625	shka	-0.000566052
-6.99728	chdoly	-0.000526003
-6.99728	olotchy	-0.000526003
-6.99728	cphal	-0.000526003
-6.69625	ctholy	-0.000566052
-6.99728	chocthydo*iin	-0.000526003
-6.69625	ctheor	-0.000588454
-6.99728	oraiiny	-0.000526003
-6.99728	qokoldyopchol	-0.000526003
-6.69625	oldam	-0.000566052
-6.99728	yckhody	-0.000526003
-6.39522	otoldy	-0.000588454
-6.99728	ordachy	-0.000526003
-6.99728	odchaiin	-0.000526003
-6.99728	daiinydaiin	-0.000526003
-6.69625	dydain	-0.000566052
-6.69625	ykal	-0.000588454
-6.99728	pysaiinor	-0.000526003
-6.69625	ofchar	-0.000566052
-6.99728	otdysor	-0.000526003
-6.69625	qod	-0.000566052
-6.99728	otchyddshor	-0.000526003
-6.99728	kchorl	-0.000526003
-6.99728	kyytchol	-0.000526003
-6.99728	otchaiin	-0.000526003
-6.99728	qokyodaiin	-0.000526003
-6.52016	ykcheor	-0.000580792
-6.99728	fshor	-0.000526003
-6.99728	okshor	-0.000526003
-6.69625	teeol	-0.000566052
-6.99728	sokaiin	-0.000526003
-6.99728	ychky	-0.000526003
-6.99728	okchain	-0.000526003
-6.99728	chkoldy	-0.000526003
-6.99728	shotoly	-0.000526003
-6.99728	olshly	-0.000526003
-6.69625	dory	-0.000566052
-6.99728	daldalol	-0.000526003
-6.99728	pydchdom	-0.000526003
-6.69625	fcholdy	-0.000566052
-6.99728	opyaiin	-0.000526003
-6.99728	*yfchy	-0.000526003
-6.69625	ololdy	-0.000566052
-6.99728	toar	-0.000526003
-6.69625	chk	-0.000566052
-6.99728	lolchor	-0.000526003
-6.99728	dainm	-0.000526003
-6.69625	dchar	-0.000566052
-6.69625	qokoldy	-0.000566052
-6.99728	ykaiilm	-0.000526003
-6.99728	ofchol	-0.000526003
-6.99728	yfchor	-0.000526003
-6.99728	olfchor	-0.000526003
-6.99728	otchald	-0.000526003
-6.69625	ytam	-0.000566052
-6.69625	of	-0.000566052
-6.99728	daindal	-0.000526003
-6.69625	ytchol	-0.000566052
-6.52016	dals	-0.000588454
-6.99728	olchar	-0.000526003
-6.99728	dairo	-0.000526003
-6.99728	alm	-0.000526003
-6.69625	sdal	-0.000566052
-6.69625	dydaiin	-0.000566052
-6.99728	qyk	-0.000526003
-6.99728	sdar	-0.000526003
-6.39522	ykain	-0.000588454
-6.99728	ykyka	-0.000526003
-6.99728	dalory	-0.000526003
-6.99728	podairol	-0.000526003
-6.99728	odaiinly	-0.000526003
-6.99728	opcholotol	-0.000526003
-6.69625	qoteo	-0.000580792
-6.99728	okchafdy	-0.000526003
-6.99728	dolotchol	-0.000526003
-6.69625	otchm	-0.000566052
-6.99728	ycho	-0.000526003
-6.52016	eees	-0.000580792
-6.99728	okeeordaiin	-0.000526003
-6.99728	qotchold	-0.000526003
-6.99728	sholol	-0.000526003
-6.99728	oldalotchor	-0.000526003
-6.99728	oaldary	-0.000526003
-6.99728	shkshy	-0.000526003
-6.99728	daiinotshor	-0.000526003
-6.99728	olsar	-0.000526003
-6.99728	daiinsol	-0.000526003
-6.99728	yly	-0.000526003
-6.99728	okald	-0.000526003
-6.99728	damchor	-0.000526003
-6.52016	otshy	-0.1655
-6.69625	oldar	-0.000566052
-6.99728	orqoto	-0.000526003
-6.99728	l	-0.000580792
-6.69625	chees	-0.0940496
-6.69625	m	-0.000566052
-6.69625	dorchy	-0.000566052
-6.69625	kshol	-0.000566052
-6.99728	ctho*otol	-0.000526003
-6.99728	oloiir	-0.000526003
-6.99728	yokaiin	-0.000526003
-6.99728	olols	-0.000526003
-6.99728	oiinol	-0.000526003
-6.52016	cheen	-0.1655
-6.99728	ofainos	-0.000526003
-6.99728	oloro	-0.000526003
-6.99728	eeeoly	-0.000526003
-6.99728	porory	-0.000526003
-6.69625	opchar	-0.000566052
-6.99728	okaickhal	-0.000526003
-6.99728	ycthar	-0.000526003
-6.99728	qotar	-0.000526003
-6.99728	chckhaly	-0.000526003
-6.52016	rchey	-0.000588454
-6.99728	keom	-0.000526003
-6.69625	oeeeos	-0.000566052
-6.99728	eteor	-0.000526003
-6.99728	qekar	-0.000526003
-6.52016	chtar	-0.000580792
-6.99728	qodol	-0.000526003
-6.99728	qoear	-0.000526003
-6.69625	qokeol	-0.000566052
-6.99728	qodaickhy	-0.000526003
-6.99728	qlor	-0.000526003
-6.99728	cheoiees	-0.000526003
-6.99728	okeer	-0.000526003
-6.99728	qokain	-0.000526003
-6.99728	tod	-0.000526003
-6.99728	chcth	-0.000526003
-6.99728	ockhoes	-0.000526003
-6.99728	sham	-0.000526003
-6.69625	okeal	-0.269708
-6.99728	sshey	-0.000526003
-6.99728	otacphy	-0.000526003
-6.99728	chorly	-0.000526003
-6.69625	tchodar	-0.000566052
-6.99728	chocfhy	-0.000526003
-6.99728	opom	-0.000526003
-6.99728	opshody	-0.000526003
-6.99728	ocpho	-0.000526003
-6.99728	oko*am	-0.000526003
-6.99728	ydals	-0.000526003
-6.52016	otaiir	-0.000580792
-6.99728	otchos	-0.000526003
-6.52016	okcho	-0.000593149
-6.99728	octhol	-0.000526003
-6.99728	odchees	-0.000526003
-6.99728	osearies	-0.000526003
-6.99728	okam	-0.000526003
-6.99728	dlos	-0.000526003
-6.99728	oeor	-0.000526003
-6.39522	tchar	-0.000588454
-6.99728	tochol	-0.000526003
-6.99728	cfharar	-0.000526003
-6.99728	daid	-0.000526003
-6.69625	olom	-0.000566052
-6.99728	kochky	-0.000526003
-6.99728	chorom	-0.000526003
-6.99728	okoeos	-0.000526003
-6.99728	ckheod	-0.000526003
-6.99728	qodom	-0.000526003
-6.99728	okodaiin	-0.000526003
-6.99728	qokch	-0.000526003
-6.99728	okokchal	-0.000526003
-6.99728	oeeey	-0.000526003
-6.39522	odor	-0.000588454
-6.99728	otolodal	-0.000526003
-6.99728	cheekdam	-0.000526003
-6.99728	ochdy	-0.000526003
-6.99728	odaiim	-0.000526003
-6.99728	ocholdy	-0.000526003
-6.99728	chrky	-0.000526003
-6.99728	shair	-0.000526003
-6.69625	chkain	-0.000566052
-6.99728	cheesees	-0.000526003
-6.69625	sheear	-0.000566052
-6.39522	chain	-0.000588454
-6.99728	dchckhy	-0.000526003
-6.99728	qotchain	-0.000526003
-6.69625	qotcheaiin	-0.000566052
-6.99728	dchain	-0.000526003
-6.99728	otosy	-0.000526003
-6.99728	poeeaiin	-0.000526003
-6.52016	qopchey	-0.000593149
-6.99728	qofchor	-0.000526003
-6.99728	okeeaiin	-0.000526003
-6.99728	ckhey	-0.000526003
-6.99728	orcho	-0.000526003
-6.99728	shckhor	-0.000526003
-6.39522	dshey	-0.000588454
-6.99728	dainty	-0.000526003
-6.99728	ckhear	-0.000526003
-6.99728	chkear	-0.000526003
-6.29831	chokeey	-0.000593149
-6.52016	dshor	-0.000593149
-6.99728	rochy	-0.000526003
-6.99728	qokoral	-0.000526003
-6.99728	deeaiir	-0.000526003
-6.52016	chkey	-0.000580792
-6.99728	dainol	-0.000526003
-6.99728	shckhyorchaiin	-0.000526003
-6.99728	psheoky	-0.000526003
-6.99728	qoychofo	-0.000526003
-6.69625	chcphdy	-0.000566052
-6.99728	adeeodychecthedy	-0.000526003
-6.39522	lr	-0.000588454
-6.52016	cthedy	-0.000580792
-6.99728	oloyy	-0.000526003
-3.30108	qokedy	-0.000602767
-6.52016	ytedy	-0.000580792
-6.69625	qokedydaiin	-0.000566052
-6.99728	odam	-0.000526003
-6.52016	aldy	-0.000580792
-6.52016	shedy	-0.300592
-6.69625	eedy	-0.000566052
-6.99728	schyqokeedy	-0.000526003
-6.99728	rchedy	-0.000526003
-6.99728	ypchseds	-0.000526003
-6.99728	sshapchedy	-0.000526003
-6.99728	chedy	-0.000606043
-6.69625	qokeedy	-0.000566052
-6.69625	qoteedar	-0.000566052
-6.99728	sotedy	-0.000526003
-6.99728	qokoedy	-0.000526003
-6.52016	deedy	-0.000580792
-6.52016	okedy	-0.000580792
-6.99728	sykeechy	-0.000526003
-6.99728	okeedy	-0.000608689
-6.99728	chek	-0.000526003
-6.99728	shese	-0.000526003
-6.69625	sheos	-0.000566052
-6.99728	pchedar	-0.000526003
-6.99728	qodary	-0.000526003
-6.99728	d*rin	-0.000526003
-6.99728	pcheety	-0.000526003
-6.99728	sair	-0.000526003
-6.29831	ypchedy	-0.000596321
-6.52016	ypchdy	-0.000580792
-6.99728	shdy	-0.000606819
-6.99728	saraiir	-0.000526003
-6.52016	chekedy	-0.000580792
-6.52016	otedy	-0.1319
-6.99728	sary	-0.000526003
-6.39522	cthdy	-0.000588454
-6.99728	aree	-0.000526003
-6.99728	alys	-0.000526003
-6.69625	pchdar	-0.000566052
-6.69625	opar	-0.000588454
-6.52016	ofchdy	-0.000580792
-6.69625	ckhdy	-0.000588454
-6.99728	okchdym	-0.000526003
-6.99728	yckheody	-0.000526003
-6.99728	saldy	-0.000526003
-6.69625	okedor	-0.000566052
-6.99728	okea	-0.000526003
-6.69625	chekaiin	-0.000566052
-6.99728	deeol	-0.000526003
-6.39522	qoteedy	-0.000588454
-6.52016	qotedy	-0.000580792
-6.69625	pchedy	-0.000605031
-6.69625	ofchy	-0.000566052
-6.29831	chs	-0.000593149
-6.99728	toeedy	-0.000526003
-6.69625	sches	-0.000566052
-6.99728	ch*ky	-0.000526003
-6.52016	ytchdy	-0.000596321
-6.99728	cheoet	-0.000526003
-6.99728	odaiiin	-0.000526003
-6.99728	chkeeey	-0.000526003
-6.69625	tchedy	-0.000566052
-6.99728	okeeoscheeos	-0.000526003
-6.52016	ysaiin	-0.000580792
-6.21913	okcheey	-0.000596321
-6.52016	cheeos	-0.000593149
-6.99728	qokes	-0.000526003
-6.99728	ory	-0.000526003
-6.69625	ysheey	-0.000566052
-6.99728	okeshy	-0.000526003
-6.99728	pshey	-0.000526003
-6.99728	todydy	-0.000526003
-6.99728	ksor	-0.000526003
-6.99728	shoteo	-0.000526003
-6.99728	chfo	-0.000526003
-6.99728	shyshod	-0.000526003
-6.99728	shokyddchol	-0.000526003
-6.99728	ctheyds	-0.000526003
-6.99728	chydaiin	-0.000526003
-6.99728	keeychos	-0.000526003
-6.99728	cpharydaiin	-0.000526003
-6.99728	tchols	-0.000526003
-6.99728	chaiinshy	-0.000526003
-6.99728	kchaldy	-0.000526003
-6.52016	ly	-0.000580792
-6.99728	keeod	-0.000526003
-6.52016	shes	-0.000580792
-6.99728	otchodeey	-0.000526003
-6.99728	fochof	-0.000526003
-6.99728	chof	-0.000526003
-6.99728	chosho	-0.000526003
-6.69625	soly	-0.000566052
-6.99728	opchory	-0.000526003
-6.99728	daidy	-0.000526003
-6.99728	dchir	-0.000526003
-6.99728	ctheeody	-0.000526003
-6.99728	shld	-0.000526003
-6.99728	kch*d	-0.000526003
-6.99728	kodo	-0.000526003
-6.99728	docheesm	-0.000526003
-6.99728	shkeeo	-0.000526003
-6.99728	rchod	-0.000526003
-6.99728	shkofchotchy	-0.000526003
-6.99728	kchrrr	-0.000526003
-6.99728	okeedysotchdy	-0.000526003
-6.69625	shoy	-0.000566052
-6.99728	shdyotchdy	-0.000526003
-6.99728	okshes	-0.000526003
-6.69625	pchodar	-0.000566052
-6.69625	chocphy	-0.000566052
-6.99728	daiinotchol	-0.000526003
-6.99728	chyqoldy	-0.000526003
-6.99728	dydchar	-0.000526003
-6.99728	chakod	-0.000526003
-6.99728	dly	-0.000526003
-6.69625	qotchaiin	-0.000566052
-6.99728	shorchotchy	-0.000526003
-6.52016	chtol	-0.000580792
-6.99728	ctholotol	-0.000526003
-6.99728	chodaiinsho	-0.000526003
-6.99728	otcholchy	-0.000526003
-6.99728	daiincho	-0.000526003
-6.52016	shockhy	-0.000580792
-6.99728	otoldydshor	-0.000526003
-6.99728	oschotshl	-0.000526003
-6.69625	daiinshol	-0.000566052
-6.99728	deaiin	-0.000526003
-6.99728	poraiin	-0.000526003
-6.99728	chep	-0.000526003
-6.99728	cheecthy	-0.000526003
-6.99728	dshe	-0.000526003
-6.99728	chchoty	-0.000526003
-6.99728	cthordchor	-0.000526003
-6.52016	teey	-0.000580792
-6.99728	da*shos	-0.000526003
-6.99728	chokshy	-0.000526003
-6.99728	daiinqokaiiin	-0.000526003
-6.99728	choetychoty	-0.000526003
-6.99728	kodydaiin	-0.000526003
-6.99728	qokshe	-0.000526003
-6.69625	cheod	-0.000566052
-6.99728	ychom	-0.000526003
-6.39522	chetchy	-0.000588454
-6.99728	olals	-0.000526003
-6.99728	cthyshycho	-0.000526003
-6.99728	ctholdytchor	-0.000526003
-6.99728	taiins	-0.000526003
-6.39522	otey	-0.000588454
-6.69625	oltchy	-0.000566052
-6.99728	cthsshot	-0.000526003
-6.99728	tochon	-0.000526003
-6.99728	cthodshody	-0.000526003
-6.99728	dychocthy	-0.000526003
-6.52016	cholody	-0.000580792
-6.99728	dainchy	-0.000526003
-6.99728	chokor	-0.000566052
-6.99728	chooaiin	-0.000526003
-6.99728	chteor	-0.000526003
-6.99728	qekeochor	-0.000526003
-6.99728	okchesy	-0.000526003
-6.99728	fcheody	-0.000526003
-6.39522	cher	-0.000588454
-6.69625	che	-0.000566052
-6.99728	keeodol	-0.000526003
-6.99728	chorain	-0.000526003
-6.99728	keim	-0.000526003
-6.99728	qoko	-0.000526003
-6.99728	qopchar	-0.000566052
-6.99728	soin	-0.000526003
-6.69625	choko	-0.000566052
-6.99728	qokochy	-0.000526003
-6.99728	deeey	-0.000526003
-6.99728	dkeeor	-0.000526003
-6.99728	cheoldain	-0.000526003
-6.99728	dchorol	-0.000526003
-6.69625	ro	-0.000566052
-6.99728	chseeordy	-0.000526003
-6.99728	cthorchy	-0.000526003
-6.99728	chesey	-0.000526003
-6.69625	scheo	-0.000566052
-6.99728	okealdcheo	-0.000526003
-6.99728	qochar	-0.000526003
-6.99728	keeaiin	-0.000526003
-6.99728	chctheychor	-0.000526003
-6.69625	chokchaiin	-0.000566052
-6.99728	chkchean	-0.000526003
-6.99728	qotchychctho	-0.000526003
-6.99728	rchody	-0.000526003
-6.99728	soiinsor	-0.000526003
-6.99728	chkeaiin	-0.000526003
-6.99728	darychdaiin	-0.000526003
-6.99728	chtchey	-0.000526003
-6.99728	cthscthain	-0.000526003
-6.39522	chocthey	-0.000588454
-6.69625	chepchy	-0.000566052
-6.99728	ctholdy	-0.000526003
-6.69625	chotchol	-0.000566052
-6.99728	chokeor	-0.000526003
-6.99728	chtocthy	-0.000526003
-6.69625	checkhy	-0.000566052
-6.39522	chkol	-0.000588454
-6.99728	cheofdy	-0.000526003
-6.69625	qokeeor	-0.000566052
-6.99728	chokol	-0.000526003
-6.69625	dairy	-0.000566052
-6.99728	oyshy	-0.000526003
-6.99728	cphoaiin	-0.000526003
-6.69625	cphey	-0.000566052
-6.99728	sheoldy	-0.000526003
-6.69625	otcheor	-0.000566052
-6.52016	sol	-0.000580792
-6.99728	chokcheey	-0.000526003
-6.69625	kchody	-0.000566052
-6.99728	keedey	-0.000526003
-6.39522	qofchedy	-0.000588454
-6.69625	shee	-0.000566052
-6.99728	qokeefch	-0.000526003
-6.99728	chepa	-0.000526003
-6.69625	keo	-0.000566052
-6.99728	qokees	-0.000526003
-6.99728	***in	-0.000526003
-6.29831	shckhey	-0.000598607
-6.99728	qef	-0.000526003
-6.39522	rair	-0.000588454
-6.99728	lqotar	-0.000526003
-6.99728	dir	-0.000526003
-6.99728	lk	-0.000526003
-6.39522	keeol	-0.000588454
-6.99728	sheoody	-0.000526003
-6.99728	qokeor	-0.000526003
-6.99728	tshoteody	-0.000526003
-6.69625	chepar	-0.000566052
-6.69625	cheda	-0.000566052
-6.99728	ykeedar	-0.000526003
-6.69625	checkhey	-0.000566052
-6.99728	ykeedy	-0.000566052
-6.99728	ldy	-0.000526003
-6.69625	qokeody	-0.000588454
-6.69625	sheeo	-0.000566052
-6.99728	tolshso	-0.000526003
-6.52016	shed	-0.000580792
-6.99728	olsheol	-0.000526003
-6.69625	yches	-0.000566052
-6.52016	chedaiin	-0.000580792
-6.69625	olsheor	-0.000566052
-6.69625	ykedy	-0.000566052
-6.99728	saiir	-0.000526003
-6.99728	yshedair	-0.000526003
-6.29831	okedar	-0.000593149
-6.99728	oteor	-0.000598607
-6.99728	aiicthy	-0.000526003
-6.99728	podair	-0.000526003
-6.99728	sheedy	-0.026675
-6.29831	oteedy	-0.000593149
-6.99728	arar	-0.000526003
-6.29831	oteey	-0.455079
-6.99728	dkarar	-0.000526003
-6.69625	als	-0.000566052
-6.99728	ytchos	-0.000526003
-6.99728	acthey	-0.000526003
-6.99728	okeeos	-0.000526003
-6.99728	ykeeo	-0.000526003
-6.99728	shedal	-0.000526003
-6.99728	okeeso	-0.000526003
-6.99728	lkedy	-0.000526003
-6.99728	chedar	-0.000526003
-6.69625	oked	-0.000566052
-6.69625	ockhedy	-0.000566052
-6.99728	yteos	-0.000526003
-6.99728	cheeoy	-0.000526003
-6.69625	pcheeody	-0.000566052
-6.52016	qop	-0.000580792
-6.69625	chedal	-0.000566052
-6.99728	checfhy	-0.000526003
-6.99728	chefchol	-0.000526003
-6.99728	cheef	-0.000526003
-6.52016	alaiin	-0.000596321
-6.99728	opal	-0.000526003
-6.99728	olteedam	-0.000526003
-6.99728	cheokar	-0.000526003
-6.39522	ary	-0.000588454
-6.69625	chee	-0.000566052
-6.69625	ksheey	-0.000566052
-6.99728	ychek	-0.000526003
-6.99728	okecho	-0.000526003
-6.69625	ked	-0.000566052
-6.52016	lchey	-0.000580792
-6.99728	ytecheol	-0.000526003
-6.99728	sheoeky	-0.000526003
-6.99728	okeos	-0.000526003
-6.99728	acthedy	-0.000526003
-6.99728	chetchey	-0.000526003
-6.52016	okear	-0.000580792
-6.99728	choar	-0.000526003
-6.69625	octhey	-0.000566052
-6.99728	okeo	-0.000526003
-6.52016	ain	-0.000580792
-6.69625	ckheos	-0.000566052
-6.99728	cheam	-0.000526003
-6.99728	fchaiin	-0.000526003
-6.99728	shykeody	-0.000526003
-6.99728	dainody	-0.000526003
-6.99728	dainsho	-0.000526003
-6.99728	daldshodar	-0.000526003
-6.99728	qotchof	-0.000526003
-6.99728	doldcheodain	-0.000526003
-6.69625	schor	-0.000566052
-6.69625	ytsho	-0.000566052
-6.99728	daindaiin	-0.000526003
-6.99728	choddal	-0.000526003
-6.99728	tcheychedy	-0.000526003
-6.99728	oldair	-0.000526003
-6.52016	qoar	-0.000580792
-6.99728	dytchor	-0.000526003
-6.99728	cths	-0.000526003
-6.99728	soty	-0.000526003
-6.99728	chokeol	-0.000566052
-6.99728	dchoty	-0.000526003
-6.99728	dcholdar	-0.000526003
-6.99728	kcheodaiin	-0.000526003
-6.99728	dainoamocho	-0.000526003
-6.69625	fchody	-0.000566052
-6.99728	ldydain	-0.000526003
-6.99728	sshokey	-0.000526003
-6.52016	ka	-0.000580792
-6.99728	orchr	-0.000526003
-6.99728	rchydcho	-0.000526003
-6.99728	daindchol	-0.000526003
-6.99728	dorm	-0.000526003
-6.99728	okchan	-0.000526003
-6.39522	shal	-0.051267
-6.99728	dchcthy	-0.000526003
-6.99728	otshchor	-0.000526003
-6.99728	dainshckhy	-0.000526003
-6.99728	odan	-0.000526003
-6.99728	qotaiinshar	-0.000526003
-6.99728	tshdar	-0.000526003
-4.14461	shdar	-0.000588454
-6.99728	shepchdy	-0.000526003
-6.99728	cphody	-0.000526003
-6.99728	yfoldy	-0.000526003
-6.99728	qofockhdy	-0.000526003
-6.52016	otchedy	-0.000580792
-6.99728	lfchdy	-0.000526003
-6.69625	ytchedy	-0.000566052
-6.99728	qokar	-0.000526003
-6.52016	qokaldy	-0.000580792
-6.99728	otardam	-0.000526003
-6.69625	laiin	-0.000566052
-6.69625	chdal	-0.000566052
-6.99728	chech	-0.000526003
-6.99728	chekeedy	-0.000526003
-6.39522	chekey	-0.000588454
-6.99728	alaiiin	-0.000526003
-6.69625	cheedy	-0.000566052
-6.52016	far	-0.000580792
-6.99728	pair	-0.000526003
-6.99728	olkor	-0.000526003
-6.99728	shekal	-0.000526003
-6.15219	yteey	-0.000598607
-6.99728	tchedydy	-0.000526003
-6.99728	chekar	-0.000526003
-6.99728	cheekaiin	-0.000580792
-6.99728	daiinsheky	-0.000526003
-6.52016	araiin	-0.000580792
-6.99728	es	-0.000526003
-6.99728	dyytam	-0.000526003
-6.99728	dyokardy	-0.000526003
-6.99728	kamdy	-0.000526003
-6.69625	tokar	-0.000566052
-6.99728	dalykedy	-0.000526003
-6.99728	dodl	-0.000526003
-6.99728	tchdy	-0.000526003
-6.99728	okaiinykar	-0.000526003
-6.99728	ycheo	-0.000526003
-6.99728	tshdy	-0.000526003
-6.99728	shefchdy	-0.000526003
-6.99728	shckhdy	-0.000526003
-6.52016	oltedy	-0.000580792
-6.99728	okychdyshdy	-0.000526003
-6.99728	porar	-0.000526003
-6.99728	darar	-0.000526003
-6.99728	keedy	-0.000526003
-6.99728	chydar	-0.000526003
-6.69625	shkair	-0.000566052
-6.99728	chckhyokain	-0.000526003
-6.99728	lchoar	-0.000526003
-6.52016	lodaiin	-0.000580792
-6.99728	oor	-0.000526003
-6.99728	okaly	-0.000526003
-6.99728	taral	-0.000526003
-6.99728	keeyoram	-0.000526003
-6.99728	pcheoepchy	-0.000526003
-6.99728	olarylyfody	-0.000526003
-6.99728	okedody	-0.000526003
-6.99728	olamocthede	-0.000526003
-6.52016	chdain	-0.000580792
-6.99728	oltey	-0.000526003
-6.99728	chdalydar	-0.000526003
-6.99728	chd	-0.000526003
-6.99728	kam	-0.000526003
-6.99728	ytede	-0.000526003
-6.99728	aiinoltchedy	-0.000526003
-6.99728	olykeedlchedy	-0.000526003
-6.69625	chetey	-0.000566052
-6.99728	olldaiin	-0.000526003
-6.99728	fchs	-0.000526003
-6.21913	aiir	-0.000596321
-6.99728	amm	-0.000526003
-6.99728	chdykedy	-0.000526003
-6.52016	qokchdy	-0.1655
-6.69625	shotchy	-0.000566052
-6.99728	qokyysair	-0.000526003
-6.52016	air	-0.000580792
-6.99728	tam	-0.000526003
-6.39522	ykchdy	-0.119832
-6.99728	qodor	-0.000526003
-6.99728	todaly	-0.000526003
-6.99728	olchckhy	-0.000526003
-6.99728	olyotchdy	-0.000526003
-6.99728	chfalas	-0.000526003
-6.99728	kaldaiinotchedy	-0.000526003
-6.99728	okorar	-0.000526003
-6.99728	tolqokar	-0.000526003
-6.99728	ykeo	-0.000526003
-6.99728	olyokaly	-0.000526003
-6.69625	kechdy	-0.000566052
-6.99728	aiiin	-0.000526003
-6.69625	daly	-0.000566052
-6.99728	okychody	-0.000526003
-6.99728	qokal	-0.000526003
-6.99728	chcthedy	-0.000526003
-6.99728	shekcholchedy	-0.000526003
-6.99728	ykcheolchcthy	-0.000526003
-6.69625	chefchy	-0.000566052
-6.39522	qopchdy	-0.000588454
-6.99728	shdydy	-0.000526003
-6.99728	chdalchdy	-0.000526003
-6.39522	chcthdy	-0.000588454
-6.99728	spaiin	-0.000526003
-6.99728	tal	-0.000526003
-6.99728	dychedy	-0.000526003
-6.69625	chckhdy	-0.000566052
-6.69625	chdaiin	-0.000566052
-6.99728	loees	-0.000526003
-6.69625	olchdy	-0.000566052
-6.99728	kedaiiin	-0.000526003
-6.69625	okchdy	-0.000566052
-6.99728	dasam	-0.000526003
-6.99728	tchdaiin	-0.000526003
-6.69625	chekal	-0.000566052
-6.99728	qokedar	-0.000526003
-6.99728	qoldar	-0.000526003
-6.99728	lshaiir	-0.000526003
-6.29831	orair	-0.000600333
-6.69625	chechey	-0.000566052
-6.99728	dykey	-0.000526003
-6.99728	kair	-0.000601683
-6.99728	chekaly	-0.000526003
-6.52016	cholky	-0.000580792
-6.99728	ypchdaiin	-0.000526003
-6.69625	lrar	-0.000566052
-6.52016	chedain	-0.000580792
-6.99728	olchdaiin	-0.000566052
-6.69625	kedy	-0.000566052
-6.99728	ysheos	-0.000526003
-6.52016	chdar	-0.000580792
-6.69625	lsheody	-0.000566052
-6.99728	kal	-0.000588454
-6.99728	shs	-0.000526003
-6.69625	tedy	-0.000588454
-6.99728	kain	-0.000526003
-6.99728	akedy	-0.000526003
-6.99728	yshos	-0.000526003
-6.99728	cthoo	-0.000526003
-6.99728	rcholy	-0.000526003
-6.99728	qokeeaiin	-0.000526003
-6.39522	chokaiin	-0.000588454
-6.99728	shetchy	-0.000526003
-6.99728	dainl	-0.000526003
-6.99728	scheey	-0.000526003
-6.99728	schaiin	-0.000526003
-6.99728	kykaiin	-0.000526003
-6.69625	rchl	-0.000566052
-6.99728	schochy	-0.000526003
-6.99728	shcheaiin	-0.000526003
-6.69625	lchaiin	-0.000566052
-6.69625	lchal	-0.000596321
-6.99728	daldair	-0.000526003
-6.99728	koldychetchaiin	-0.000526003
-6.69625	qokchaiin	-0.000566052
-6.99728	lodalyoteey	-0.000526003
-6.99728	schiin	-0.000526003
-6.99728	ytain	-0.000526003
-6.99728	parchor	-0.000526003
-6.99728	roaiin	-0.000526003
-6.99728	dchokchy	-0.000526003
-6.69625	chckhor	-0.000566052
-6.99728	chkcheeen	-0.000526003
-6.69625	chcthaiin	-0.000566052
-6.99728	dchold	-0.000526003
-6.99728	chosar	-0.000526003
-6.99728	qotcheeaiin	-0.000526003
-6.99728	tcheain	-0.000526003
-6.99728	tch	-0.000526003
-6.69625	chkaly	-0.000566052
-6.99728	qokeeen	-0.000526003
-6.99728	chokeea	-0.000526003
-6.99728	schokey	-0.000526003
-6.39522	ykeol	-0.000588454
-6.99728	pchafdan	-0.000526003
-6.99728	qorain	-0.000526003
-6.99728	chcfhal	-0.000526003
-6.69625	oral	-0.000566052
-6.99728	qooldy	-0.000526003
-6.99728	dolsain	-0.000526003
-6.99728	podaiir	-0.000526003
-6.99728	cphyqoypchol	-0.000526003
-6.99728	romchy	-0.000526003
-6.99728	fchom	-0.000526003
-6.99728	qorchol	-0.000526003
-6.99728	schytaroiin	-0.000526003
-6.99728	sdan	-0.000526003
-6.99728	okoldy	-0.000580792
-6.99728	okchysold	-0.000526003
-6.99728	yd	-0.000526003
-6.99728	ytodaly	-0.000526003
-6.99728	otaro	-0.000526003
-6.99728	pcharasy	-0.000526003
-6.99728	qoforom	-0.000526003
-6.69625	shoaiin	-0.000566052
-6.99728	dchytchy	-0.000526003
-6.99728	ytorsotaiin	-0.000526003
-6.99728	ykyty	-0.000526003
-6.99728	ckhoiin	-0.000526003
-6.99728	cphchar	-0.000526003
-6.99728	dys	-0.000526003
-6.69625	ytydy	-0.000566052
-6.99728	ykcholqod	-0.000526003
-6.99728	daiinld	-0.000526003
-6.99728	otychcthy	-0.000526003
-6.99728	ytoryd	-0.000526003
-6.99728	chtain	-0.000526003
-6.99728	tocphol	-0.000526003
-6.99728	ofchor	-0.000526003
-6.99728	otod	-0.000526003
-6.99728	qtody	-0.000526003
-6.99728	qoshy	-0.000526003
-6.99728	pchotchy	-0.000526003
-6.69625	otoly	-0.000566052
-6.99728	qotom	-0.000526003
-6.99728	odydchol	-0.000526003
-6.99728	chorody	-0.000526003
-6.99728	otalshor	-0.000526003
-6.69625	ykchody	-0.000566052
-6.99728	qotordyotcholol	-0.000526003
-6.99728	qoto	-0.000588454
-6.99728	okchochor	-0.000526003
-6.99728	chydaiinychey	-0.000526003
-6.99728	qotoldy	-0.000526003
-6.99728	chopdain	-0.000526003
-6.99728	oschochor	-0.000526003
-6.99728	qokchon	-0.000526003
-6.99728	chon	-0.000526003
-6.99728	dytory	-0.000526003
-6.99728	ykchon	-0.000526003
-6.99728	yokor	-0.000526003
-6.99728	tom	-0.000526003
-6.69625	choror	-0.000566052
-6.99728	ctholdaiin	-0.000526003
-6.99728	shyly	-0.000526003
-6.99728	dotody	-0.000526003
-6.99728	sotoiiin	-0.000526003
-6.99728	todain	-0.000526003
-6.99728	cphorods	-0.000526003
-6.52016	cheoky	-0.000580792
-6.99728	sokchor	-0.000526003
-6.99728	qokoiiin	-0.000526003
-6.99728	ykeeols	-0.000526003
-6.99728	ychockhey	-0.000526003
-6.99728	oshcthodo	-0.000526003
-6.99728	cthols	-0.000526003
-6.99728	ytoiin	-0.000526003
-6.99728	yto	-0.000526003
-6.99728	tolor	-0.000526003
-6.99728	chockhyoky	-0.000526003
-6.99728	okshol	-0.000526003
-6.29831	okshey	-0.000593149
-6.99728	chodysytoiin	-0.000526003
-6.99728	okaiinotaiin	-0.000526003
-6.99728	chokokor	-0.000526003
-6.99728	ychokchey	-0.000526003
-6.99728	chckhchy	-0.000526003
-6.99728	chka	-0.000526003
-6.39522	rodaiin	-0.000588454
-6.99728	kainchor	-0.000526003
-6.99728	ckholdy	-0.000526003
-6.99728	kosdaiin	-0.000526003
-6.69625	chochor	-0.000566052
-6.99728	okchop	-0.000526003
-6.69625	shotol	-0.000566052
-6.99728	ldyokeaiin	-0.000526003
-6.99728	keordaiin	-0.000526003
-6.99728	daiindair	-0.000526003
-6.69625	chotey	-0.000566052
-6.99728	todyoky	-0.000526003
-6.39522	oteeol	-0.000588454
-6.99728	dodycheod	-0.000526003
-6.99728	keeey	-0.000566052
-6.99728	daiiindain	-0.000526003
-6.69625	qolchy	-0.000566052
-6.99728	daiindain	-0.000526003
-6.99728	chshol	-0.000526003
-6.69625	tedo	-0.000566052
-6.99728	chshd	-0.000526003
-6.99728	cphiofy	-0.000526003
-6.99728	fshy	-0.000526003
-6.39522	orain	-0.000588454
-6.99728	cheepaiin	-0.000526003
-6.99728	ofy	-0.000526003
-6.69625	kaly	-0.000566052
-6.99728	shekshey	-0.000526003
-6.52016	qolain	-0.000580792
-6.99728	chckhshy	-0.000526003
-6.99728	dold	-0.000526003
-6.99728	qokalchdy	-0.000526003
-6.69625	qokeedar	-0.000566052
-6.99728	shckhdchy	-0.000526003
-6.99728	ordy	-0.000526003
-6.99728	aly	-0.000526003
-6.99728	okalchem	-0.000526003
-6.69625	dchdy	-0.000566052
-6.99728	pchdaiin	-0.000526003
-6.52016	shedam	-0.000580792
-6.99728	dydy	-0.000526003
-6.99728	ofchekaiin	-0.000526003
-6.69625	shockhey	-0.000566052
-6.99728	shdalo	-0.000526003
-6.69625	dchdar	-0.000566052
-6.69625	cholal	-0.000566052
-6.69625	ydy	-0.000580792
-6.99728	eeesaiin	-0.000526003
-6.39522	lchedy	-0.000588454
-6.69625	fchedy	-0.000598607
-6.99728	dairom	-0.000526003
-6.69625	okair	-0.000566052
-6.99728	ykeols	-0.000526003
-6.99728	qockhdy	-0.000526003
-6.99728	shyky	-0.000526003
-6.69625	dshdy	-0.000566052
-6.99728	olkaiin	-0.217779
-6.99728	qokaldar	-0.000526003
-6.99728	tolchdaiin	-0.000526003
-6.69625	chls	-0.000566052
-6.52016	shckhy	-0.000602767
-6.99728	chekl	-0.000526003
-6.39522	chdam	-0.000588454
-6.69625	qolkain	-0.000566052
-6.99728	dld	-0.000526003
-6.99728	iir	-0.000526003
-6.99728	ador	-0.000526003
-6.99728	ofchee	-0.000526003
-6.99728	cholkalqokal	-0.000526003
-6.99728	ykdy	-0.000526003
-6.99728	pdair	-0.000526003
-6.99728	fdykain	-0.000526003
-6.99728	shykaiiin	-0.000526003
-6.99728	ashdy	-0.000526003
-6.69625	olky	-0.0658823
-6.99728	olkedaiin	-0.000526003
-6.99728	odydy	-0.000526003
-6.69625	ytodaiin	-0.000566052
-6.99728	yokeey	-0.000526003
-6.99728	okody	-0.000526003
-6.52016	shky	-0.142746
-6.69625	chockh	-0.000566052
-6.99728	cfhey	-0.000526003
-6.99728	pardy	-0.000526003
-6.99728	oralyolainr	-0.000526003
-6.99728	oekar	-0.000526003
-6.99728	aldshek	-0.000526003
-6.99728	ydymshody	-0.000526003
-6.99728	fchorqokain	-0.000526003
-6.99728	olchep	-0.000526003
-6.99728	sarol	-0.000526003
-6.99728	shekam	-0.000526003
-6.99728	chlykeedy	-0.000526003
-6.99728	otafchm	-0.000526003
-6.99728	okaramokar	-0.000526003
-6.69625	cheodal	-0.000566052
-6.99728	okedylchdy	-0.000526003
-6.99728	daiiiny	-0.000526003
-6.99728	taraiin	-0.000526003
-6.69625	pchey	-0.000593149
-6.99728	keodar	-0.000526003
-6.99728	aldydyqoky	-0.000526003
-6.69625	olkedy	-0.000580792
-6.99728	opches	-0.000526003
-6.99728	ordaiin	-0.000526003
-6.99728	darykchey	-0.000526003
-6.99728	aralor	-0.000526003
-6.99728	chckhdotor	-0.000526003
-6.99728	okolchy	-0.000526003
-6.99728	chekody	-0.000526003
-6.99728	darqokol	-0.000526003
-6.99728	lokar	-0.000526003
-6.99728	okarokol	-0.000526003
-6.29831	qokchd	-0.000596321
-6.99728	shokoramolshedy	-0.000526003
-6.52016	qokaim	-0.000580792
-6.99728	yaiin	-0.000566052
-6.99728	okyycheey	-0.000526003
-6.99728	aimkcheo	-0.000526003
-6.99728	cfhdy	-0.000526003
-6.99728	chefal	-0.000526003
-6.52016	dm	-0.000580792
-6.99728	ordain	-0.000526003
-6.52016	olcheey	-0.000580792
-6.99728	chdyychey	-0.000526003
-6.99728	kamar	-0.000526003
-6.99728	pchedain	-0.000526003
-6.99728	chefaiin	-0.000526003
-6.99728	todar	-0.000526003
-6.69625	aram	-0.000566052
-6.99728	sairain	-0.000526003
-6.99728	taraiinokaiin	-0.000526003
-6.69625	chcfhy	-0.000566052
-6.99728	solaiin	-0.000526003
-6.69625	qoeedaiin	-0.000566052
-6.99728	chkalykedy	-0.000526003
-6.52016	pchody	-0.000580792
-6.39522	pchdy	-0.000596321
-6.99728	tchkaiin	-0.000526003
-6.99728	schedy	-0.000526003
-6.69625	acthy	-0.000566052
-6.99728	ycheekeey	-0.000526003
-6.99728	toees	-0.000526003
-6.39522	olfchedy	-0.000588454
-6.99728	chefain	-0.000526003
-6.39522	kchedy	-0.000588454
-6.99728	dyqokees	-0.000526003
-6.99728	ockhysheod	-0.000526003
-6.99728	faiily	-0.000526003
-6.99728	ryteey	-0.000526003
-6.99728	tochey	-0.000526003
-6.99728	qokarokeesar	-0.000526003
-6.69625	o*y	-0.000566052
-6.99728	arolqokey	-0.000526003
-6.69625	chetar	-0.000566052
-6.99728	ofair	-0.000526003
-6.69625	arody	-0.000566052
-6.99728	p*ey	-0.000526003
-6.99728	kedaleey	-0.000526003
-6.99728	shekcheyopshes	-0.000526003
-6.99728	ypchd	-0.000526003
-6.99728	qotcheedy	-0.000588454
-6.99728	yteeo	-0.000526003
-6.69625	alshey	-0.000566052
-6.99728	keshdy	-0.000526003
-6.99728	dydor	-0.000526003
-6.52016	ycheoky	-0.000580792
-6.69625	qokeed	-0.000566052
-6.99728	chpy	-0.000526003
-6.99728	qokra*	-0.000526003
-6.99728	yekedy	-0.000526003
-6.69625	ychdy	-0.000566052
-6.99728	kchdyqokedy	-0.000526003
-6.99728	shekchy	-0.000526003
-6.99728	chdchy	-0.000526003
-6.99728	ytcheeky	-0.000526003
-6.99728	schdyytedy	-0.000526003
-6.69625	yteedy	-0.000566052
-6.99728	kchdydchedy	-0.000526003
-6.52016	dchedy	-0.000580792
-6.99728	dalain	-0.000526003
-6.99728	shedey	-0.000526003
-6.69625	polchedy	-0.000566052
-6.99728	yteyypchedpy	-0.000526003
-6.99728	shepy	-0.000526003
-6.99728	porchdy	-0.000526003
-6.99728	qokeodyykedy	-0.000526003
-6.69625	chkedy	-0.000566052
-6.99728	dchdyqokedy	-0.000526003
-6.99728	qokyl	-0.000526003
-6.69625	cheked	-0.000566052
-6.99728	qodorym	-0.000526003
-6.99728	chedychckheody	-0.000526003
-6.99728	chekyl	-0.000526003
-6.99728	cheoal	-0.000526003
-6.99728	sseok	-0.000526003
-6.52016	qekchdy	-0.000580792
-6.99728	dchdyldyykedy	-0.000526003
-6.69625	qoked	-0.000566052
-6.99728	ykeod	-0.000526003
-6.99728	teerodal	-0.000526003
-6.99728	pcheody	-0.000526003
-6.99728	qofcheepy	-0.000526003
-6.99728	cfhekchdyypchedy	-0.000526003
-6.99728	chepchefy	-0.000526003
-6.99728	shdchdy	-0.000526003
-6.69625	qotal	-0.000593149
-6.69625	dshedy	-0.000566052
-6.52016	shekey	-0.000580792
-6.99728	okalydaiin	-0.000526003
-6.39522	ykeeody	-0.000588454
-6.99728	keoy	-0.000526003
-6.99728	oleeol	-0.000526003
-6.99728	lkedylkeeody	-0.000526003
-6.99728	sheols	-0.000526003
-6.99728	ycheos	-0.000526003
-6.99728	alaiinoteedy	-0.000526003
-6.99728	oteodar	-0.000526003
-6.99728	tadaiin	-0.000526003
-6.99728	olcheos	-0.000526003
-6.99728	oldoteol	-0.000526003
-6.69625	oteody	-0.000566052
-6.69625	olkeeo	-0.000566052
-6.99728	lkol	-0.000526003
-6.69625	qocho	-0.000566052
-6.99728	sholschol	-0.000526003
-6.52016	chtchy	-0.000580792
-6.99728	dandain	-0.000526003
-6.99728	chotody	-0.000526003
-6.99728	choldlchcthy	-0.000526003
-6.99728	otoy	-0.000526003
-6.99728	dyykchy	-0.000526003
-6.99728	okoldm	-0.000526003
-6.99728	chokeeor	-0.000526003
-6.99728	chetanokol	-0.000526003
-6.99728	chetaiin	-0.000588454
-6.99728	okeokear	-0.000526003
-6.99728	tcharsaiin	-0.000526003
-6.99728	keeeydchckhesshy	-0.000526003
-6.99728	sodal	-0.000526003
-6.99728	posheor	-0.000526003
-6.99728	chekchey	-0.000526003
-6.99728	qokodsho	-0.000526003
-6.52016	cpheo	-0.000580792
-6.99728	rchy	-0.000526003
-6.99728	cheaiincthey	-0.000526003
-6.99728	tcheen	-0.000526003
-6.99728	oteoldshey	-0.000526003
-6.99728	teaiind	-0.000526003
-6.99728	chotcheey	-0.000526003
-6.99728	oteeaiinchkchy	-0.000526003
-6.99728	taiiny	-0.000526003
-6.69625	checthey	-0.000588454
-6.99728	daiinchokeey	-0.000526003
-6.99728	cthsees	-0.000526003
-6.99728	cholysarar	-0.000526003
-6.39522	aral	-0.000588454
-6.52016	chokey	-0.000580792
-6.99728	odeey	-0.000526003
-6.99728	tarodaiin	-0.000526003
-6.99728	ofchtar	-0.000526003
-6.52016	chcphedy	-0.000588454
-6.69625	ypar	-0.000566052
-6.99728	folor	-0.000526003
-6.99728	daraiir	-0.000526003
-6.99728	otchdy	-0.000580792
-6.99728	daiinr	-0.000526003
-6.99728	qotydy	-0.000526003
-6.99728	yrar	-0.000526003
-6.99728	shekalchdy	-0.000526003
-6.99728	cholty	-0.000526003
-6.69625	qotaly	-0.000566052
-6.99728	chidy	-0.000526003
-6.99728	shekody	-0.000526003
-6.29831	qotody	-0.000593149
-6.99728	keepchy	-0.000526003
-6.99728	pshesy	-0.000526003
-6.69625	kshdy	-0.000566052
-6.52016	opchdy	-0.000580792
-6.52016	kedar	-0.000580792
-6.99728	shocphey	-0.000526003
-6.99728	dytydy	-0.000526003
-6.99728	qoiiin	-0.000526003
-6.99728	sheeeky	-0.000526003
-6.99728	ykolar	-0.000526003
-6.69625	akaiin	-0.000566052
-6.99728	old	-0.000526003
-6.69625	pshdar	-0.000566052
-6.99728	yfchdy	-0.000526003
-6.39522	qockhedy	-0.000588454
-6.99728	otolol	-0.000526003
-6.99728	otary	-0.000526003
-6.99728	tshed	-0.000526003
-6.99728	qosheckhey	-0.000526003
-6.69625	odeedy	-0.000566052
-6.99728	qeokeey	-0.000526003
-6.99728	shodody	-0.000526003
-6.99728	shochol	-0.000526003
-6.99728	ykedydy	-0.000526003
-6.99728	choteey	-0.000526003
-6.99728	pdsairy	-0.000526003
-6.99728	dalteoshy	-0.000526003
-6.52016	doly	-0.000580792
-6.52016	sheet	-0.000580792
-6.69625	arodl	-0.000566052
-6.52016	lkeo	-0.000580792
-6.52016	raraiin	-0.000580792
-6.99728	opoldy	-0.000526003
-6.99728	qocthedy	-0.000526003
-6.99728	qokchedy	-0.000526003
-6.99728	oralody	-0.000526003
-6.69625	otedol	-0.000566052
-6.69625	chtey	-0.000566052
-6.99728	tolkchdy	-0.000526003
-6.99728	qokedol	-0.000526003
-6.99728	okedal	-0.000526003
-6.69625	pchdol	-0.000566052
-6.99728	dalorain	-0.000526003
-6.99728	ytshedy	-0.000526003
-6.99728	oykeedy	-0.000526003
-6.99728	chef	-0.000526003
-6.99728	olos	-0.000526003
-6.99728	tarchor	-0.000526003
-6.69625	aldar	-0.000566052
-6.99728	daldar	-0.000526003
-6.52016	chepy	-0.000580792
-6.99728	sypchey	-0.000526003
-6.99728	yfor	-0.000526003
-6.99728	yshyey	-0.000526003
-6.99728	yshee	-0.000526003
-6.69625	ckhedy	-0.000566052
-6.99728	chekcheey	-0.000526003
-6.99728	cheetam	-0.000526003
-6.69625	amam	-0.000566052
-6.99728	dykeedain	-0.000526003
-6.69625	olkey	-0.000566052
-6.99728	choyl	-0.000526003
-6.69625	oteo	-0.000566052
-6.99728	rom	-0.000526003
-6.99728	oteod	-0.000526003
-6.39522	qolkeey	-0.000588454
-6.99728	taldy	-0.000526003
-6.99728	taros	-0.000526003
-6.99728	oloaiin	-0.000526003
-6.99728	tshodpy	-0.000526003
-6.99728	oracphy	-0.000526003
-6.99728	koees	-0.000526003
-6.99728	ypsholy	-0.000526003
-6.99728	otoloaiin	-0.000526003
-6.99728	ydsh	-0.000526003
-6.99728	dyeees	-0.000526003
-6.99728	qykchey	-0.000526003
-6.52016	oair	-0.000580792
-6.99728	ekokeey	-0.000526003
-6.99728	kshotol	-0.000526003
-6.99728	ototay	-0.000526003
-6.69625	ykchey	-0.000566052
-6.99728	shysho	-0.000526003
-6.99728	o*cheekchy	-0.000526003
-6.69625	qotes	-0.000566052
-6.99728	oqd	-0.000526003
-6.99728	oyty	-0.000526003
-6.99728	pshy	-0.000526003
-6.69625	ofchey	-0.000566052
-6.99728	roiry	-0.000526003
-6.99728	oldchckhy	-0.000526003
-6.99728	qokyd	-0.000526003
-6.99728	qotshol	-0.000526003
-6.99728	yolkol	-0.000526003
-6.99728	qokchain	-0.000526003
-6.29831	rar	-0.000593149
-6.99728	yokalod	-0.000526003
-6.99728	shorody	-0.000526003
-6.99728	opchod	-0.000526003
-6.69625	oain	-0.000566052
-6.99728	ytcheor	-0.000526003
-6.99728	qtaiin	-0.000526003
-6.99728	kchain	-0.000526003
-6.99728	otykeey	-0.000526003
-6.99728	tchaiin	-0.000526003
-6.99728	ololy	-0.000526003
-6.69625	tsheody	-0.000566052
-6.99728	cthyytoda	-0.000526003
-6.99728	cthees	-0.000526003
-6.99728	keees	-0.000526003
-6.99728	lo	-0.000526003
-6.99728	lsho	-0.000526003
-6.99728	ychey	-0.000526003
-6.99728	teol	-0.000526003
-6.69625	lchor	-0.000566052
-6.99728	dairl	-0.000526003
-6.99728	pykydal	-0.000526003
-6.69625	shackhy	-0.000566052
-6.99728	opchal	-0.000526003
-6.99728	ypchar	-0.000526003
-6.69625	lory	-0.000566052
-6.99728	kolsho	-0.000526003
-6.99728	opchaldy	-0.000526003
-6.99728	okchar	-0.000588454
-6.69625	ytchody	-0.000566052
-6.69625	tcholol	-0.269708
-6.99728	lchar	-0.000526003
-6.99728	qory	-0.000526003
-6.99728	otydal	-0.000526003
-6.99728	doror	-0.000526003
-6.99728	ykolody	-0.000526003
-6.99728	laldan	-0.000526003
-6.99728	daldaiin	-0.000526003
-6.99728	korary	-0.000526003
-6.99728	kolchey	-0.000526003
-6.99728	fsholom	-0.000526003
-6.99728	dod	-0.000526003
-6.99728	opchaiin	-0.000526003
-6.99728	olald	-0.000526003
-6.99728	dyokchol	-0.000526003
-6.99728	cthodykaryd	-0.000526003
-6.99728	dail	-0.000526003
-6.99728	otyotytam	-0.000526003
-6.99728	toddy	-0.000526003
-6.52016	chem	-0.000580792
-6.99728	tchtcho	-0.000526003
-6.99728	otyolytchom	-0.000526003
-6.99728	pchom	-0.000526003
-6.99728	tsholol	-0.000526003
-6.99728	orchor	-0.000526003
-6.99728	dcholdy	-0.000526003
-6.99728	pcheocphy	-0.000526003
-6.99728	chete	-0.000526003
-6.99728	chepchx	-0.000526003
-6.99728	yfcheky	-0.000526003
-6.29831	osaiin	-0.000593149
-6.99728	sheeoly	-0.000526003
-6.99728	teoly	-0.000526003
-6.99728	sheksheet	-0.000526003
-6.99728	xoraiin	-0.000526003
-6.69625	sheckhy	-0.000566052
-6.99728	tshedar	-0.000526003
-6.52016	kaldy	-0.1655
-6.99728	dalocthey	-0.000526003
-6.69625	shekeey	-0.000566052
-6.99728	qoksheod	-0.000526003
-6.99728	dotedy	-0.000526003
-6.99728	chdalor	-0.000526003
-2.94225	opchedy	-0.000607433
-6.99728	dykedy	-0.000526003
-6.99728	xolshol	-0.000526003
-6.69625	dsheol	-0.000566052
-6.99728	feeedy	-0.000526003
-6.99728	dyfchdy	-0.000526003
-6.99728	kees	-0.000526003
-6.39522	fchdy	-0.000588454
-6.99728	karal	-0.000526003
-6.52016	chkal	-0.000588454
-6.99728	qokdy	-0.000526003
-6.99728	aloldy	-0.000526003
-6.99728	olaiir	-0.000526003
-6.99728	pchdair	-0.000526003
-6.99728	shep	-0.000526003
-6.99728	ocfhedy	-0.000526003
-6.99728	opdar	-0.000526003
-6.99728	sayfchedy	-0.000526003
-6.69625	techy	-0.000566052
-6.69625	sheockhy	-0.000566052
-6.99728	chckham	-0.000526003
-6.99728	arakaiin	-0.000526003
-6.99728	lain	-0.000526003
-6.99728	otcheal	-0.000526003
-6.99728	sholkshy	-0.000526003
-6.99728	alkeody	-0.000526003
-6.99728	pody	-0.000566052
-6.52016	lshed	-0.000580792
-6.99728	ypdy	-0.000526003
-6.69625	yfchey	-0.000566052
-6.99728	tochsy	-0.000526003
-6.69625	okas	-0.000566052
-6.99728	ytairaiin	-0.000526003
-6.99728	saim	-0.000526003
-6.52016	yteeey	-0.000580792
-6.99728	chockhdy	-0.000526003
-6.99728	chotal	-0.000526003
-6.99728	okalshdy	-0.000526003
-6.69625	olar	-0.0573408
-6.99728	chdody	-0.000526003
-6.99728	shckhfy	-0.000526003
-6.99728	dykalydaiin	-0.000526003
-6.99728	sarair	-0.000526003
-6.99728	tosaiirchar	-0.000526003
-6.99728	sheedyqokaldy	-0.000526003
-6.99728	eeody	-0.000526003
-6.99728	ctheym	-0.000526003
-6.52016	ched	-0.000580792
-6.99728	chedyokeedchsy	-0.000526003
-6.99728	chcthedar	-0.000526003
-6.99728	aickhy	-0.000526003
-6.99728	checkhdy	-0.000526003
-6.52016	chtedy	-0.000580792
-6.29831	daim	-0.000593149
-6.99728	otyom	-0.000526003
-6.99728	tolchey	-0.000526003
-6.99728	choctheod	-0.000526003
-6.99728	pchair	-0.000526003
-6.99728	chokchol	-0.000526003
-6.99728	chadaiin	-0.000526003
-6.99728	chokain	-0.000526003
-6.69625	kchdal	-0.000566052
-6.99728	chokolm	-0.000526003
-6.99728	folr	-0.000526003
-6.99728	so	-0.000526003
-6.69625	sholaiin	-0.000566052
-6.99728	schesy	-0.000526003
-6.99728	shokeey	-0.000526003
-6.69625	tchod	-0.000566052
-6.69625	ctham	-0.000566052
-6.99728	pcheot	-0.000526003
-6.99728	cholsho	-0.000526003
-6.52016	chopchy	-0.000580792
-6.99728	daindy	-0.000526003
-6.99728	chorydainy	-0.000526003
-6.99728	chkchydaiin	-0.000526003
-6.99728	teechy	-0.000526003
-6.99728	qotycthy	-0.000526003
-6.99728	dsholy	-0.000526003
-6.99728	sysary	-0.000526003
-6.99728	saiinchol	-0.000526003
-6.99728	dcthy	-0.000526003
-6.99728	cheotar	-0.000526003
-6.99728	qotcheey	-0.000526003
-6.99728	chdychy	-0.000526003
-6.99728	chykydchy	-0.000526003
-6.99728	chokeesy	-0.000526003
-6.99728	chekychochy	-0.000526003
-6.99728	chdlety	-0.000526003
-6.99728	chaiindcheey	-0.000526003
-6.99728	otald	-0.000526003
-6.99728	cthchey	-0.000526003
-6.99728	pshdaiin	-0.000526003
-6.99728	opaldy	-0.000526003
-6.99728	yteeol	-0.000526003
-6.99728	choody	-0.000526003
-6.99728	kechod	-0.000526003
-6.69625	chtaiin	-0.1655
-6.99728	tedain	-0.000526003
-6.99728	teo	-0.000566052
-6.69625	oteodaiin	-0.000566052
-6.99728	opchety	-0.000526003
-6.69625	chet	-0.000566052
-6.52016	chetedy	-0.000580792
-6.99728	ctheety	-0.000526003
-6.99728	qoekaiin	-0.000526003
-6.52016	lkeedy	-0.000580792
-6.99728	lotal	-0.000526003
-6.99728	da*dy	-0.000526003
-6.99728	tocthy	-0.000526003
-6.99728	lolkeol	-0.000526003
-6.99728	otolches	-0.000526003
-6.99728	ykeeodam	-0.000526003
-6.99728	otchdain	-0.000526003
-6.99728	oteoly	-0.000526003
-6.99728	damdr	-0.000526003
-6.99728	yteched	-0.000526003
-6.69625	alkey	-0.000566052
-6.99728	okeoam	-0.000526003
-6.99728	pcheodchy	-0.000526003
-6.52016	los	-0.000580792
-6.52016	ykeeedy	-0.000580792
-6.99728	ypair	-0.000526003
-6.99728	chedyty	-0.000526003
-6.99728	yotedy	-0.000526003
-6.99728	cthdyokain	-0.000526003
-6.99728	choolkeey	-0.000526003
-6.52016	alchey	-0.000580792
-6.99728	kory	-0.000526003
-6.99728	olkchey	-0.000526003
-6.99728	dalyokeeor	-0.000526003
-6.99728	otarair	-0.000526003
-6.99728	tchddy	-0.000526003
-6.99728	otsh	-0.000526003
-6.99728	alchdyyteedy	-0.000526003
-6.52016	lkeey	-0.000580792
-6.99728	talkain	-0.000526003
-6.69625	otees	-0.000566052
-6.99728	orainotal	-0.000526003
-6.99728	okytar	-0.000526003
-6.99728	cheyshedy	-0.000526003
-6.99728	fcheodal	-0.000526003
-6.99728	cpheey	-0.000526003
-6.99728	chkeyotoly	-0.000526003
-6.69625	taly	-0.000566052
-6.99728	okalotchdy	-0.000526003
-6.99728	ytedyytchedal	-0.000526003
-6.99728	ykeedal	-0.000526003
-6.99728	pychol	-0.000526003
-6.99728	choshy	-0.000580792
-6.99728	qodain	-0.000526003
-6.99728	chotshy	-0.000526003
-6.99728	dodar	-0.000526003
-6.99728	qotan	-0.000526003
-6.99728	shshes	-0.000526003
-6.99728	sheoty	-0.000526003
-6.99728	chotchor	-0.000526003
-6.99728	cheet	-0.000526003
-6.99728	qolsor	-0.000526003
-6.99728	oykeeey	-0.000526003
-6.99728	kshey	-0.000526003
-6.99728	choroiin	-0.000526003
-6.99728	shorshy	-0.000526003
-6.99728	chotcheol	-0.000526003
-6.99728	podaiin	-0.000526003
-6.69625	tcheol	-0.000566052
-6.99728	cthodd	-0.000526003
-6.99728	shoqoky	-0.000526003
-6.99728	chosory	-0.000526003
-6.99728	dcheeey	-0.000526003
-6.99728	dcheo	-0.000526003
-6.69625	chokan	-0.000566052
-6.69625	chodr	-0.000566052
-6.99728	oriin	-0.000526003
-6.99728	odchy	-0.000526003
-6.99728	f	-0.000526003
-6.99728	p	-0.000526003
-6.99728	{label	-0.000526003
-6.99728	"{label	-0.000526003
-6.99728	psheor	-0.000526003
-6.39522	olkair	-0.119832
-6.99728	qopchedar	-0.000526003
-6.99728	chspchdy	-0.000526003
-6.99728	orsheckhy	-0.000526003
-6.99728	ockhody	-0.000526003
-6.52016	alol	-0.000580792
-6.69625	keodaiin	-0.000566052
-6.52016	olr	-0.000580792
-6.99728	solkchy	-0.000526003
-6.99728	olkady	-0.000526003
-6.99728	todalain	-0.000526003
-6.99728	chriin	-0.000526003
-6.69625	okchedy	-0.000566052
-6.99728	dariin	-0.000526003
-6.99728	ykakaiin	-0.000526003
-6.69625	sheekar	-0.000566052
-6.99728	shelain	-0.000526003
-6.99728	taipar	-0.000526003
-6.99728	orolkain	-0.000526003
-6.99728	kchedyykeey	-0.000526003
-6.99728	aldal	-0.000526003
-6.99728	osam	-0.000526003
-6.99728	solkaiinopal	-0.000526003
-6.99728	kechckhy	-0.000526003
-6.99728	dario	-0.000526003
-6.39522	ldar	-0.000588454
-6.99728	shotchdy	-0.000526003
-6.52016	ofar	-0.000580792
-6.99728	fardam	-0.000526003
-6.99728	tchodain	-0.000526003
-6.99728	reedy	-0.000526003
-6.69625	qokaly	-0.000566052
-6.52016	kody	-0.000580792
-6.99728	pochedy	-0.000566052
-6.52016	dalol	-0.000580792
-6.99728	ykeeey	-0.000526003
-6.99728	olraiin	-0.000526003
-6.99728	tair	-0.000526003
-6.99728	qekaiin	-0.000526003
-6.99728	olcheky	-0.000526003
-6.99728	okedyd	-0.000526003
-6.99728	kedair	-0.000526003
-6.99728	tedaiin	-0.000526003
-6.99728	qotchdy	-0.000526003
-6.99728	dairam	-0.000526003
-6.99728	okainqod	-0.000526003
-6.99728	ytsheod	-0.000526003
-6.99728	sheshy	-0.000526003
-6.99728	echedy	-0.000526003
-6.99728	kchdyotaiin	-0.000526003
-6.52016	aky	-0.000580792
-6.99728	oloeedyykeeodar	-0.000526003
-6.99728	arad	-0.000526003
-6.99728	tcholdchy	-0.000526003
-6.69625	opchear	-0.000566052
-6.99728	dcheodaiin	-0.000526003
-6.99728	ckheody	-0.000526003
-6.99728	ydchodyckhey	-0.000526003
-6.99728	ckheadar	-0.000526003
-6.99728	cthis	-0.000526003
-6.99728	cheeey	-0.000526003
-6.52016	tcheody	-0.000580792
-6.69625	qockhey	-0.000588454
-6.99728	ychodaiin	-0.000526003
-6.99728	ykald	-0.000526003
-6.99728	oshol	-0.000526003
-6.99728	qchodal	-0.000526003
-6.99728	qoetam	-0.000526003
-6.69625	tchodaiin	-0.000580792
-6.69625	cpheady	-0.000566052
-6.69625	otodaiin	-0.000566052
-6.99728	yoas	-0.000526003
-6.52016	ckheey	-0.000580792
-6.52016	cheeal	-0.000580792
-6.99728	pchodal	-0.000526003
-6.52016	ykeeol	-0.000580792
-6.99728	ykeoldy	-0.000526003
-6.99728	daincthy	-0.000526003
-6.99728	kaiindal	-0.000526003
-6.99728	poshody	-0.000526003
-6.99728	qokodar	-0.000526003
-6.99728	seodaiin	-0.000526003
-6.99728	qotaldscheey	-0.000526003
-6.99728	dshody	-0.000526003
-6.99728	chyqokey	-0.000526003
-6.99728	ytchodydchol	-0.000526003
-6.99728	qodal	-0.000526003
-6.39522	cheodar	-0.119832
-6.99728	sodyoteodaiin	-0.000526003
-6.99728	shakom	-0.000526003
-6.99728	ytady	-0.000526003
-6.69625	shodol	-0.000566052
-6.99728	qockhyykol	-0.000526003
-6.52016	ctheody	-0.000580792
-6.99728	qotaiinotykal	-0.000526003
-6.69625	qokcheody	-0.000566052
-6.99728	chodycthol	-0.000526003
-6.99728	solcheety	-0.000526003
-6.52016	olkeeody	-0.000580792
-6.99728	cfhl	-0.000526003
-6.99728	fold	-0.000526003
-6.99728	ochockhy	-0.000526003
-6.99728	chockhey	-0.000526003
-6.99728	cheodain	-0.000526003
-6.99728	tdokchcfhy	-0.000526003
-6.99728	ycphko	-0.000526003
-6.99728	ytair	-0.000526003
-6.99728	qofy	-0.000526003
-6.99728	koldal	-0.000526003
-6.99728	oteees	-0.000526003
-6.99728	dalsotardl	-0.000526003
-6.99728	tchot	-0.000526003
-6.39522	qotam	-0.000593149
-6.99728	okyytoldy	-0.000526003
-6.99728	lshopchy	-0.000526003
-6.99728	damychcthod	-0.000526003
-6.99728	ykairytchdam	-0.000526003
-6.52016	shedaiin	-0.000580792
-6.69625	chokam	-0.000566052
-6.99728	otchordyokchol	-0.000526003
-6.99728	qockhom	-0.000526003
-6.99728	shodaim	-0.000526003
-6.99728	tcham	-0.000526003
-6.99728	dodyykeey	-0.000526003
-6.99728	orcheey	-0.000526003
-6.99728	sheykom	-0.000526003
-6.69625	dchom	-0.000566052
-6.99728	chcphol	-0.000526003
-6.99728	chocphor	-0.000526003
-6.99728	esechor	-0.000526003
-6.99728	oorchor	-0.000526003
-6.99728	chochar	-0.000526003
-6.39522	ls	-0.000588454
-6.99728	chteeor	-0.000526003
-6.99728	chckheey	-0.000526003
-6.99728	sady	-0.000526003
-6.99728	cpheodar	-0.000526003
-6.69625	qotodaiin	-0.269708
-6.99728	kcholy	-0.000526003
-6.99728	sholoiin	-0.000526003
-6.99728	kodaiin	-0.000526003
-6.69625	ckheol	-0.000566052
-6.99728	qokeyl	-0.000526003
-6.99728	qoekar	-0.000526003
-6.99728	ckheeey	-0.000526003
-6.99728	cheokor	-0.000526003
-6.99728	kadam	-0.000526003
-6.99728	chocthody	-0.000526003
-6.99728	scho	-0.000526003
-6.69625	shoar	-0.000566052
-6.99728	ytchodaiin	-0.000526003
-6.99728	okod	-0.000526003
-6.99728	oksh	-0.000526003
-6.99728	cphodol	-0.000526003
-6.99728	qokchodotcho	-0.000526003
-6.99728	ykeodar	-0.000526003
-6.99728	oqoor	-0.000526003
-6.99728	ockh	-0.000526003
-6.99728	qokodykchdy	-0.000526003
-6.69625	sodar	-0.000566052
-6.99728	otos	-0.000526003
-6.99728	okodykchody	-0.000526003
-6.99728	chtor	-0.000526003
-6.99728	oltsho	-0.000526003
-6.99728	cthoykeeod	-0.000526003
-6.99728	oytoyd	-0.000526003
-6.99728	ctheees	-0.000526003
-6.69625	orol	-0.000566052
-6.99728	qodckhy	-0.000526003
-6.99728	cpho	-0.000526003
-6.69625	oltshey	-0.000566052
-6.99728	sheekol	-0.000526003
-6.99728	etey	-0.000526003
-6.99728	dcham	-0.000526003
-6.99728	cpham	-0.000526003
-6.99728	dockhy	-0.000526003
-6.99728	qockhor	-0.000526003
-6.99728	ochoiky	-0.000526003
-6.99728	qkcheody	-0.000526003
-6.99728	choldam	-0.000526003
-6.69625	qotea	-0.000566052
305.896	sheee	-0.000526003
305.896	kshady	-0.000526003
-6.99728	sheetchy	-0.000526003
-6.99728	opod	-0.000526003
-6.69625	octheody	-0.000566052
-6.99728	ychocthy	-0.000566052
-6.99728	otsho	-0.000526003
-6.99728	chkodal	-0.000526003
-6.99728	kady	-0.000526003
-6.99728	ycthadaiin	-0.000526003
-6.39522	otaldy	-0.000588454
-6.52016	shodal	-0.000580792
305.896	qopchol	-0.000588454
-6.99728	qockho	-0.000526003
-6.99728	ockhol	-0.000526003
-6.99728	okeodaiin	-0.000566052
-6.99728	korari	-0.000526003
-6.39522	ckhos	-0.000588454
-6.99728	shofam	-0.000526003
-6.99728	kcheorshe	-0.000526003
-6.99728	yckheol	-0.000526003
-6.99728	chetysol	-0.000526003
-6.99728	d*sh	-0.000526003
-6.99728	toshey	-0.000526003
-6.99728	kodl	-0.000526003
-6.99728	sheekal	-0.000526003
-6.99728	saiinokeam	-0.000526003
-6.99728	etchal	-0.000526003
-6.99728	sssho	-0.000526003
-6.99728	okyytchor	-0.000526003
-6.99728	damor	-0.000526003
-6.99728	pcheodar	-0.000526003
-6.69625	chpal	-0.000566052
-6.99728	cpheeaiin	-0.000526003
-6.99728	cpheiin	-0.000526003
-6.99728	ctha*ldy	-0.000526003
-6.99728	ypchal	-0.000526003
-6.69625	yar	-0.000566052
-6.69625	aim	-0.000566052
-6.99728	o*aiin	-0.000526003
-6.99728	qodaim	-0.000526003
-6.99728	qoctheol	-0.000526003
-6.99728	odaim	-0.000526003
-6.99728	yteal	-0.000526003
-6.69625	yckhey	-0.269708
-6.69625	aldam	-0.000566052
-6.99728	alchy	-0.000526003
-6.99728	dalchodoldy	-0.000526003
-6.99728	qofair	-0.000526003
-6.69625	yk	-0.000566052
-6.99728	chepaiin	-0.000526003
-6.99728	arod	-0.000526003
-6.99728	ykairy	-0.000526003
-6.99728	ykainr	-0.000526003
-6.99728	chas	-0.000526003
-6.99728	chdolaiin	-0.000526003
-6.99728	yoraiin	-0.000526003
-6.99728	pchtchdy	-0.000526003
-6.99728	oekaiin	-0.000526003
-6.99728	okaror	-0.000526003
-6.69625	olkam	-0.000566052
-6.99728	tchedar	-0.000526003
-6.69625	olkar	-0.000566052
-6.99728	dchykey	-0.000526003
-6.69625	*ar	-0.000566052
-6.99728	*aloeees	-0.000526003
-6.99728	cpheody	-0.000526003
-6.99728	qokeeody	-0.000526003
-6.99728	oeckhy	-0.000526003
-6.99728	arin	-0.000526003
-6.99728	oas	-0.000526003
-6.69625	chdol	-0.000566052
-6.99728	chay	-0.000526003
-6.99728	okad	-0.000526003
-6.99728	otaldiin	-0.000526003
-6.99728	dl	-0.000526003
-6.52016	oiiin	-0.000580792
-6.99728	chelal	-0.000526003
-6.69625	lchdal	-0.000566052
-6.99728	kcheedchdy	-0.000526003
-6.69625	oedaiin	-0.000566052
-6.99728	chckhyotol	-0.000526003
-6.99728	dodyd	-0.000526003
-6.99728	oeeed	-0.000526003
-6.99728	qoaiinokeody	-0.000526003
-6.99728	ykeesan	-0.000526003
-6.99728	qokeeey	-0.000526003
-6.69625	qool	-0.000566052
-6.99728	chedycharaiin	-0.000526003
-6.99728	karam	-0.000526003
-6.99728	cheady	-0.000526003
-6.99728	faralychedy	-0.000526003
-6.99728	ykan	-0.000526003
-6.99728	odydaiin	-0.000526003
-6.99728	talam	-0.000526003
-6.69625	ykair	-0.000566052
-6.52016	okchd	-0.000580792
-6.99728	sheakey	-0.000526003
-6.99728	air**	-0.000526003
-6.52016	pchal	-0.000580792
-6.69625	araldy	-0.000566052
-6.99728	qolotarcho	-0.000526003
-6.99728	talody	-0.000526003
-6.99728	ykaky	-0.000526003
-6.99728	ororaiin	-0.000526003
-6.99728	otaky	-0.000526003
-6.99728	okyytaiin	-0.000526003
-6.69625	cheoar	-0.000566052
-6.99728	oldyaiin	-0.000526003
-6.69625	olkeechy	-0.000566052
-6.99728	slar	-0.000526003
-6.99728	chchsy	-0.000526003
-6.99728	esedy	-0.000526003
-6.69625	chokchey	-0.000566052
-6.99728	choksy	-0.000526003
-6.99728	chyokar	-0.000526003
-6.99728	ykcha	-0.000526003
-6.99728	cheeckhody	-0.000526003
-6.99728	tchoky	-0.000526003
-6.99728	rokak	-0.000526003
-6.69625	kcheey	-0.000566052
-6.99728	shcho	-0.000526003
-6.99728	qokokchy	-0.000526003
-6.99728	chokcheo	-0.000526003
-6.99728	kchal	-0.000526003
-6.99728	kcharm	-0.000526003
-6.99728	qoke	-0.000526003
-6.99728	eeey	-0.000526003
-6.99728	kchoar	-0.000526003
-6.99728	kcheat	-0.000526003
-6.99728	choteeey	-0.000526003
-6.99728	tad	-0.000526003
-6.99728	qoteees	-0.000526003
-6.99728	oteeyd	-0.000526003
-6.99728	shotchot	-0.000526003
-6.99728	chokcho	-0.000526003
-6.69625	olkchy	-0.000566052
-6.52016	chotor	-0.000580792
-6.99728	tchain	-0.000526003
-6.99728	chorol	-0.000566052
-6.99728	sokchol	-0.000526003
-6.99728	poeeo	-0.000526003
-6.99728	cheop	-0.000526003
-6.99728	shocphy	-0.000526003
-6.99728	sheep	-0.000526003
-6.69625	che*dy	-0.000566052
-6.99728	yodam	-0.000526003
-6.99728	cheotey	-0.000526003
-6.99728	shkchey	-0.000526003
-6.99728	cheooky	-0.000526003
-6.99728	dchos	-0.000526003
-6.99728	cheocthy	-0.000526003
-3.8448	okeeody	-0.000588454
-6.99728	chteody	-0.000526003
-6.99728	cheodys	-0.000526003
-6.69625	cheeo	-0.000566052
-6.69625	tcheodar	-0.000566052
-6.99728	doctho	-0.000526003
-6.69625	kedaiin	-0.000566052
-6.99728	oforam	-0.000526003
-6.99728	cheteyoteod	-0.000526003
-6.99728	okaldm	-0.000526003
-6.52016	*chedy	-0.000580792
-6.99728	okedyokchy	-0.000526003
-6.99728	qoked*m	-0.000526003
-6.52016	odair	-0.000580792
-6.99728	sheeockhy	-0.000526003
-6.99728	daiindydcheckhey	-0.000526003
-6.99728	shedaiinschos	-0.000526003
-6.99728	ykeos	-0.000526003
-6.99728	qcthchy	-0.000526003
-6.99728	tcfhy	-0.000526003
-6.99728	cphedam	-0.000526003
-6.99728	cholfy	-0.000526003
-6.99728	shopchy	-0.000526003
-6.99728	otoralchy	-0.000526003
-6.99728	chofchol	-0.000526003
-6.99728	sholy	-0.000526003
-6.69625	otaly	-0.000566052
-6.99728	dalm	-0.000526003
-6.99728	dshodal	-0.000526003
-6.99728	olchear	-0.000526003
-6.99728	olchokal	-0.000526003
-6.99728	ykechod	-0.000526003
-6.39522	dalal	-0.000588454
-6.99728	sholar	-0.000526003
-6.99728	shalom	-0.000526003
-6.99728	shaly	-0.000526003
-6.99728	dalchy	-0.000526003
-6.99728	oteom	-0.000526003
-6.99728	sholalam	-0.000526003
-6.99728	dchairam	-0.000526003
-6.69625	arary	-0.000566052
-6.99728	ytalar	-0.000526003
-6.99728	torchey	-0.000526003
-6.99728	oteory	-0.000526003
-6.99728	dalchor	-0.000526003
-6.99728	choltam	-0.000526003
-6.99728	ytalody	-0.000526003
-6.99728	cheoly	-0.000526003
-6.99728	toleeshal	-0.000526003
-6.99728	oleeam	-0.000526003
-6.99728	oteodchy	-0.000526003
-6.99728	yteochy	-0.000526003
-6.99728	alam	-0.000526003
-6.69625	yteo	-0.000566052
-6.99728	ealam	-0.000526003
-6.99728	chepchey	-0.000526003
-6.99728	otery	-0.000526003
-6.99728	qocphody	-0.000526003
-6.99728	qokalam	-0.000526003
-6.99728	chairal	-0.000526003
-6.99728	qocthaiin	-0.000526003
-6.99728	otalal	-0.000526003
-6.52016	orar	-0.000580792
-6.99728	shoarar	-0.000526003
-6.99728	choldal	-0.000526003
-6.99728	otalchal	-0.000526003
-6.99728	okalys	-0.000526003
-6.99728	qkeol	-0.000526003
-6.99728	sharam	-0.000526003
-6.99728	qtchaly	-0.000526003
-6.52016	okalal	-0.000588454
-6.99728	qopaim	-0.000526003
-6.99728	cholaly	-0.000526003
-6.99728	{7pt	-0.000526003
-6.99728	ysholshy	-0.000526003
-6.99728	qotoly	-0.000526003
-6.99728	dalchdy	-0.000526003
-6.99728	solaraly	-0.000526003
-6.99728	cholraly	-0.000526003
-6.69625	chaly	-0.000566052
-6.69625	dalar	-0.000566052
-6.99728	todal	-0.000526003
-6.99728	achaly	-0.000526003
-6.99728	ysheockhy	-0.000526003
-6.99728	oleeey	-0.000526003
-6.99728	oleesey	-0.000526003
-6.99728	olkeal	-0.000526003
-6.69625	otalar	-0.000566052
-6.99728	aroda*m	-0.000526003
-6.99728	tcheos	-0.000526003
-6.99728	sheain	-0.000526003
-6.39522	olkeol	-0.000588454
-6.99728	dcholy	-0.000526003
-6.99728	qtar	-0.000526003
-6.99728	qoainr	-0.000526003
-6.99728	chalolky	-0.000526003
-6.69625	osal	-0.000566052
-6.52016	chotam	-0.000580792
-6.99728	olseem	-0.000526003
-6.99728	aleedy	-0.000526003
-6.69625	chotar	-0.000566052
-6.99728	ta*eiin	-0.000526003
-6.99728	oteeor	-0.000526003
-6.52016	otalor	-0.000580792
-6.99728	cheoekar	-0.000526003
-6.99728	otakar	-0.000526003
-6.99728	oteeoaly	-0.000526003
-6.69625	alkar	-0.000580792
-6.99728	oraldar	-0.000526003
-6.99728	{8pt	-0.000526003
-6.69625	yteor	-0.000566052
-6.99728	sheeetchy	-0.000526003
-6.69625	ysheal	-0.000566052
-6.99728	odalaly	-0.000526003
-6.52016	shokar	-0.000580792
-6.99728	olaldy	-0.000526003
-6.99728	okalody	-0.000526003
-6.99728	odalar	-0.000526003
-6.69625	cheom	-0.000566052
-6.99728	som*	-0.000526003
-6.99728	alom	-0.000526003
-6.99728	qokalor	-0.000526003
-6.99728	odshchol	-0.000526003
-6.69625	okalor	-0.000566052
-6.99728	olekar	-0.000526003
-6.99728	otarchol	-0.000526003
-6.99728	oqotaltaly	-0.000526003
-6.99728	yssheol	-0.000526003
-6.99728	shokalol	-0.000526003
-6.99728	ytaipam	-0.000526003
-6.99728	dtor	-0.000526003
-6.99728	sharal	-0.000526003
-6.99728	sheoctham	-0.000526003
-6.39522	skaiin	-0.000588454
-6.69625	shokal	-0.000566052
-6.99728	ykeesey	-0.000526003
-6.99728	shoekar	-0.000526003
-6.99728	opolkeor	-0.000526003
-6.99728	olchocfhy	-0.000526003
-6.99728	chypaldy	-0.000526003
-6.99728	olfcham	-0.000526003
-6.99728	sysheos	-0.000526003
-6.99728	dtshol	-0.000526003
-6.99728	dytal	-0.000526003
-6.99728	salol	-0.000526003
-6.69625	dalam	-0.000566052
-6.99728	yroleeey	-0.000526003
-6.99728	arairaly	-0.000526003
-6.99728	tshaly	-0.000526003
-6.99728	alols	-0.000526003
-6.69625	ykaly	-0.000566052
-6.99728	chokal	-0.000526003
-6.99728	okals	-0.000526003
-6.69625	rary	-0.000566052
-6.99728	rals	-0.000526003
-6.99728	syly	-0.000526003
-6.99728	salf	-0.000526003
-6.99728	fary	-0.000526003
-6.99728	qotesy	-0.000526003
-6.99728	qols*	-0.000526003
-6.52016	raral	-0.000580792
-6.99728	x	-0.000526003
-6.99728	e	-0.000526003
-6.99728	t	-0.000526003
-6.99728	pdaiin	-0.000526003
-6.99728	chyp	-0.000526003
-6.99728	shddy	-0.000526003
-6.99728	ypcher	-0.000526003
-6.99728	cholpchd	-0.000526003
-6.99728	okeals	-0.000526003
-6.69625	qokshd	-0.000566052
-6.69625	ykshedy	-0.000566052
-6.39522	chady	-0.119832
-6.69625	chekeey	-0.000566052
-6.52016	qotedal	-0.000580792
-6.99728	chcpheor	-0.000526003
-6.99728	kodary	-0.000526003
-6.99728	choekchy	-0.000526003
-6.99728	chekeody	-0.000526003
-6.69625	dyky	-0.000566052
-6.99728	chctho	-0.000526003
-6.99728	rotaiin	-0.000526003
-6.99728	tocphey	-0.000526003
-6.52016	qopaiin	-0.000580792
-6.99728	ykodar	-0.000526003
-6.99728	okyd	-0.000526003
-6.99728	*shol	-0.000526003
-6.99728	shekair	-0.000526003
-6.99728	qocheky	-0.000526003
-6.69625	shetey	-0.000566052
-6.99728	checth	-0.000526003
-6.99728	shokair	-0.000526003
-6.99728	dard	-0.000526003
-6.99728	qofchy	-0.000526003
-6.99728	chedair	-0.000526003
-6.69625	cheer	-0.000566052
-6.99728	kardy	-0.000526003
-6.69625	qokair	-0.000566052
-6.99728	ltar	-0.000526003
-6.99728	axor	-0.000526003
-6.69625	akar	-0.000566052
-6.99728	pchof	-0.000526003
-6.99728	fos	-0.000526003
-6.99728	fchedys	-0.000526003
-6.99728	ofaram	-0.000526003
-6.99728	dalcheeeky	-0.000526003
-6.69625	dairody	-0.000566052
-6.99728	chekchy	-0.000526003
-6.99728	yksheo	-0.000526003
-6.99728	cheyl	-0.000526003
-6.39522	kcheody	-0.000588454
-6.99728	chxar	-0.000526003
-6.99728	fchdar	-0.000526003
-6.99728	shekeeody	-0.000526003
-6.99728	alshes	-0.000526003
-6.99728	psheody	-0.000526003
-6.99728	shofol	-0.000526003
-6.99728	ytarody	-0.000526003
-6.99728	dairaly	-0.000526003
-6.69625	dairal	-0.000566052
-6.99728	tosheo	-0.000526003
-6.99728	kcheeky	-0.000526003
-6.69625	okees	-0.000566052
-6.99728	todeeey	-0.000526003
-6.99728	shekeefy	-0.000526003
-6.99728	kechody	-0.000526003
-6.99728	sshedy	-0.000526003
-6.69625	sheocthy	-0.000566052
-6.99728	olld	-0.000526003
-6.52016	lshedy	-0.000580792
-6.99728	ysheeod	-0.000526003
-6.99728	qoteeod	-0.000526003
-6.99728	chckhedy	-0.000600333
-6.99728	dcheol	-0.000580792
-6.99728	oteochey	-0.000526003
-6.99728	tolchedy	-0.000526003
-6.99728	lpchees	-0.000526003
-6.99728	ltsholy	-0.000526003
-6.99728	sheeeol	-0.000526003
-6.99728	shekol	-0.000526003
-6.69625	ldaiin	-0.000566052
-6.69625	okalchedy	-0.269708
-6.69625	qotchedy	-0.000566052
-6.39522	cphedy	-0.000588454
-6.99728	qoteoly	-0.000526003
-6.52016	lkeol	-0.119832
-6.99728	dkar	-0.000526003
-6.99728	shekaly	-0.000526003
-6.99728	shckhar	-0.000526003
-6.99728	okeodof	-0.000526003
-6.99728	ychoopy	-0.000526003
-6.99728	opch	-0.000526003
-6.99728	dorshefy	-0.000526003
-6.99728	ytody	-0.000526003
-6.99728	da*deam	-0.000526003
-6.99728	teodal	-0.000526003
-6.52016	okshedy	-0.000580792
-6.99728	dcheeky	-0.000526003
-6.99728	ytos	-0.000526003
-6.99728	sheeky	-0.000526003
-6.69625	okechdy	-0.000580792
-6.69625	okchdal	-0.000566052
-6.99728	shokeshy	-0.000526003
-6.99728	fam	-0.000526003
-6.99728	shckhed	-0.000526003
-6.99728	chpar	-0.000526003
-6.99728	sheopam	-0.000526003
-6.99728	qokeos	-0.000526003
-6.99728	cheke*r	-0.000526003
-6.99728	dchckheedy	-0.000526003
-6.99728	chpa	-0.000526003
-6.99728	feedly	-0.000526003
-6.99728	eesey	-0.000526003
-6.99728	aopchal	-0.000526003
-6.99728	dshal	-0.000526003
-6.99728	qokyr	-0.000526003
-6.99728	dakar	-0.000526003
-6.99728	yteeod	-0.000526003
-6.99728	shekeod	-0.000526003
-6.99728	ykofar	-0.000526003
-6.99728	kara	-0.000526003
-6.99728	chkchody	-0.000526003
-6.99728	ydees	-0.000526003
-6.99728	kalykedaiin	-0.000526003
-6.69625	shedar	-0.000566052
-6.99728	tcheeos	-0.000526003
-6.99728	opaiin	-0.000526003
-6.99728	ot	-0.000526003
-6.99728	sheosaiin	-0.000526003
-6.99728	cheotam	-0.000526003
-6.99728	ycheyotaiin	-0.000526003
-6.99728	karyokeey	-0.000526003
-6.99728	lyssheol	-0.000526003
-6.52016	qolchedy	-0.000580792
-6.99728	chedykar	-0.000526003
-6.69625	ror	-0.000566052
-6.99728	chalorchey	-0.000526003
-6.99728	qey	-0.000526003
-6.99728	ltaiin	-0.000526003
-6.99728	cheyckhey	-0.000526003
-6.69625	olshedy	-0.000566052
-6.99728	olkydar	-0.000526003
-6.99728	{skipped	-0.000526003
-6.99728	qokardydcheckhy	-0.000526003
-6.99728	olyqokeedy	-0.000526003
-6.99728	chekam	-0.000526003
-6.99728	ssheckhy	-0.000526003
-6.99728	olyshey	-0.000526003
-6.99728	dyol	-0.000526003
-6.99728	qokedyqokedy	-0.000526003
-6.69625	olkeshy	-0.000566052
-6.99728	dyolshedy	-0.000526003
-6.99728	qolkeeolysol	-0.000526003
-6.99728	lchotshedy	-0.000526003
-6.99728	shepchy	-0.000526003
-6.99728	lshedaryshy	-0.000526003
-6.99728	qolotain	-0.000526003
-6.99728	qokshedy	-0.000526003
-6.99728	qokyshey	-0.000526003
-6.99728	dyydaiin	-0.000526003
-6.99728	okokaiin	-0.000526003
-6.99728	qokesy	-0.000526003
-6.99728	orysheor	-0.000526003
-6.99728	chedyor	-0.000526003
-6.99728	qokal*shey	-0.000526003
-6.99728	olkeey	-0.000526003
-6.99728	qolkarysaiin	-0.000526003
-6.99728	dyqokeedy	-0.000526003
-6.99728	qolydarady	-0.000526003
-6.99728	pdalshor	-0.000526003
-6.99728	shtol	-0.000526003
-6.99728	pshar	-0.000526003
-6.69625	lolkaiin	-0.000566052
-6.69625	qokan	-0.000566052
-6.99728	okalol	-0.000526003
-6.99728	okarolom	-0.000526003
-6.52016	qokas	-0.000580792
-6.69625	polshy	-0.000566052
-6.99728	chsdy	-0.000526003
-6.99728	qokeeylshedy	-0.000526003
-6.99728	solkedy	-0.000526003
-6.99728	otyotar	-0.000526003
-6.69625	olkain	-0.000566052
-6.99728	sheety	-0.000526003
-6.69625	qokechdy	-0.000566052
-6.99728	yshedy	-0.000526003
-6.52016	olkeedy	-0.000580792
-6.69625	koldy	-0.000566052
-6.52016	rshed	-0.000580792
-6.99728	sokeedy	-0.000526003
-6.69625	dykeedy	-0.000566052
-6.99728	atol	-0.000526003
-6.99728	q	-0.000526003
-6.99728	o{label	-0.000526003
-6.99728	opshey	-0.000526003
-6.99728	qofshy	-0.000526003
-6.99728	asy	-0.000526003
-6.99728	qotd	-0.000526003
-6.99728	dyar	-0.000526003
-6.99728	cthas	-0.000526003
-6.99728	sheals	-0.000526003
-6.99728	yshey	-0.000526003
-6.99728	aiiny	-0.000526003
-6.52016	qopchedy	-0.000580792
-6.52016	lkar	-0.000580792
-6.99728	lkain	-0.000526003
-6.99728	qctheed	-0.000526003
-6.99728	qa	-0.000526003
-6.99728	sheckhey	-0.000580792
-6.99728	chckhair	-0.000526003
-6.99728	chckh	-0.000526003
-6.69625	qeeey	-0.000580792
-6.69625	lkaiin	-0.000566052
-6.99728	okeed	-0.000526003
-6.99728	orro	-0.000526003
-6.69625	qolchey	-0.000566052
-6.69625	alchdy	-0.000566052
-6.99728	qokchsdy	-0.000526003
-6.69625	olain	-0.000566052
-6.99728	oleed	-0.000526003
-6.99728	dalshedy	-0.000526003
-6.99728	alolor	-0.000526003
-6.99728	qaloiin	-0.000526003
-6.99728	qolal	-0.000526003
-6.99728	lklchey	-0.000526003
-6.99728	llaiinry	-0.000526003
-6.99728	loly	-0.000526003
-6.99728	lshcthy	-0.000526003
-6.99728	darchey	-0.000526003
-6.99728	cheolchey	-0.000526003
-6.99728	dalaiin	-0.000526003
-6.52016	lkey	-0.000580792
-6.99728	ral	-0.000526003
-6.69625	qoal	-0.000566052
-6.99728	ollchy	-0.000526003
-6.99728	shlchos	-0.000526003
-6.69625	lshey	-0.000566052
-6.99728	okeolor	-0.000526003
-6.99728	polalchdy	-0.000526003
-6.69625	psheedy	-0.000566052
-6.69625	yksheol	-0.000566052
-6.99728	chpsheedy	-0.000526003
-6.69625	lchy	-0.000566052
-6.69625	lcheey	-0.000580792
-6.99728	qokchdyl	-0.000526003
-6.99728	lsh	-0.000526003
-6.99728	otalam	-0.000526003
-6.99728	sheealdy	-0.000526003
-6.99728	poleedaran	-0.000526003
-6.99728	kolpy	-0.000526003
-6.99728	ysheedy	-0.000526003
-6.99728	arain	-0.000526003
-6.52016	otaraiin	-0.000580792
-6.99728	olchdar	-0.000526003
-6.99728	loral	-0.000526003
-6.69625	ch	-0.000566052
-6.69625	rory	-0.000566052
-6.99728	qkor	-0.000526003
-6.69625	rorol	-0.000566052
-6.99728	olsheed	-0.000526003
-6.69625	lsheedy	-0.000566052
-6.69625	chedor	-0.000566052
-6.69625	chedyl	-0.000566052
-6.69625	qolaiin	-0.000566052
-6.69625	olchedy	-0.000566052
-6.99728	solshey	-0.000526003
-6.99728	okedalor	-0.000526003
-6.99728	polarar	-0.000526003
-6.52016	opcheey	-0.000580792
-6.99728	opchaly	-0.000526003
-6.99728	qopchdal	-0.000526003
-6.99728	lkodal	-0.000526003
-6.99728	opa	-0.000526003
-6.99728	korols	-0.000526003
-6.99728	cholkeeey	-0.000526003
-6.99728	otedor	-0.000526003
-6.99728	qoyky	-0.000526003
-6.99728	salkeey	-0.000526003
-6.99728	chpchedy	-0.000526003
-6.99728	epchy	-0.000526003
-6.99728	ralchl	-0.000526003
-6.52016	qoteed	-0.000580792
-6.99728	teytem	-0.000526003
-6.99728	qotees	-0.000526003
-6.69625	qoeeedy	-0.000566052
-6.99728	doteey	-0.000526003
-6.99728	cheolchdy	-0.000526003
-6.69625	ochedy	-0.000566052
-6.69625	roiin	-0.000566052
-6.99728	qolkeeey	-0.000526003
-6.99728	cphdor	-0.000526003
-6.99728	lsheetal	-0.000526003
-6.52016	shecphy	-0.000580792
-6.99728	oekeedy	-0.000526003
-6.39522	lteedy	-0.000588454
-6.99728	otedeey	-0.000526003
-6.69625	okeeedy	-0.000566052
-6.99728	oleeedy	-0.000526003
-6.99728	shcthedy	-0.000526003
-6.99728	qoeekeedy	-0.000526003
-6.99728	polshdal	-0.000526003
-6.99728	otedair	-0.000526003
-6.99728	opshedal	-0.000526003
-6.99728	pschedal	-0.000526003
-6.99728	tsheokeedy	-0.000526003
-6.99728	oshepols	-0.000526003
-6.99728	sheolol	-0.000526003
-6.69625	qodeey	-0.000566052
-6.99728	qolkeedy	-0.000526003
-6.99728	chedcheydaiin	-0.000526003
-6.69625	lky	-0.000566052
-6.99728	sheetey	-0.000526003
-6.69625	shl	-0.000566052
-6.99728	loiinm	-0.000526003
-6.69625	salkeedy	-0.000566052
-6.52016	lcheedy	-0.000580792
-6.99728	dytey	-0.000526003
-6.52016	teedy	-0.000601683
-6.52016	lal	-0.000580792
-6.99728	olchedr	-0.000526003
-6.39522	lsheey	-0.000588454
-6.99728	olshey	-0.000596321
-6.99728	pshealdy	-0.000526003
-6.99728	opalshedy	-0.000526003
-6.99728	fcham	-0.000526003
-6.99728	oteoldy	-0.000526003
-6.99728	chckhyd	-0.000526003
-6.99728	lar	-0.000526003
-6.69625	a	-0.000566052
-6.99728	ka*	-0.000526003
-6.99728	chlaiiin	-0.000526003
-6.69625	qolkey	-0.000566052
-6.69625	lchdy	-0.000566052
-6.99728	scheer	-0.000526003
-6.99728	alaldy	-0.000526003
-6.99728	lshee	-0.000526003
-6.69625	shtal	-0.000566052
-6.99728	lsan	-0.000526003
-6.99728	shekaiiin	-0.000526003
-6.99728	shets	-0.000526003
-6.69625	shety	-0.000580792
-6.69625	shckhedy	-0.000566052
-6.99728	sakaiin	-0.000526003
-6.99728	ytary	-0.000526003
-6.52016	ychees	-0.1655
