[unifb]
-0.991537

\data\
ngram 1=20
ngram 2=180
ngram 3=557

\1-grams:
-1.02854	</unk>
-1.32125	k	-0.626077
-0.871509	c	-1.23821
-1.48819	h	-1.00829
-1.60222	r	-0.706912
-0.927261	y	-0.83961
-0.819538	o	-0.957928
-1.40857	d	-0.786899
-1.21239	a	-0.842483
-1.89259	i	-0.784451
-1.84718	n	-0.453491
-1.68755	l	-0.721749
-1.50437	t	-0.642808
-1.29248	e	-0.838766
-1.90023	f	-0.16436
-1.62747	m	-0.52018
-1.19134	s	-0.769705
-1.62747	p	-0.362723
-1.52766	q	-0.693259
-2.09017	*	-0.0813479

\2-grams:
-1.27353	<unk> k	-0.292038
-1.01143	<unk> c	-0.381159
-0.852191	<unk> h	-0.414787
-1.23809	<unk> r	-0.280921
-1.294	<unk> y	-0.267463
-0.873389	<unk> o	-0.387904
-1.13794	<unk> d	-0.32838
-1.06809	<unk> a	-0.315083
-1.72831	<unk> i	-0.151843
-1.40529	<unk> n	-0.231283
-1.39766	<unk> l	-0.267463
-1.28857	<unk> t	-0.258642
-1.5236	<unk> e	-0.196804
-2.01577	<unk> m	-0.0903552
-1.18478	<unk> s	-0.345327
-2.01577	<unk> p	-0.0903552
-1.51151	<unk> q	-0.196804
-1.56317	k </unk>
-0.70622	k c	-0.422778
-1.75564	k h	-0.476848
-0.754167	k y	-0.422778
-0.530368	k o	-0.541598
-1.15211	k a	-0.354025
-1.00386	k e	-0.380818
-1.14911	k s	-0.267463
-1.08756	c </unk>
-1.47089	c k	-0.629313
-0.128993	c h	-0.740894
-1.02677	c t	-0.65012
-2.2592	c f	-0.151843
-1.87817	c p	-0.195262
-1.35782	h </unk>
-2.11449	h k	-0.0903552
-1.74682	h c	-0.196804
-2.20785	h r	-0.0903552
-0.776136	h y	-0.506866
-0.345939	h o	-0.87245
-1.01168	h a	-0.578565
-1.74934	h t	-0.236274
-0.787688	h e	-0.63868
-2.05697	h s	-0.0903552
-2.21436	h p	-0.0903552
-1.63165	r </unk>
-1.47832	r k	-0.196804
-0.588113	r c	-0.558817
-1.03887	r y	-0.345327
-0.534117	r o	-0.469486
-1.4936	r d	-0.345327
-1.08136	r a	-0.292038
-1.86371	r l	-0.0903552
-1.30423	r e	-0.279693
-1.28903	r s	-0.359391
-1.32963	r q	-0.392787
-1.16049	y </unk>
-1.01776	y k	-0.404739
-0.584074	y c	-0.69084
-1.33731	y y	-0.292038
-1.14229	y o	-0.381159
-0.812162	y d	-0.472386
-1.06869	y t	-0.538196
-1.96704	y e	-0.0903552
-1.0659	y s	-0.459345
-1.64837	y p	-0.196804
-1.11513	y q	-0.546424
-1.1946	o </unk>
-0.946254	o k	-0.680025
-1.17462	o c	-0.538196
-0.913289	o r	-0.65362
-1.46986	o y	-0.392787
-1.73376	o o	-0.151843
-0.976436	o d	-0.618994
-1.46007	o a	-0.311931
-1.81846	o i	-0.196804
-0.75752	o l	-0.707661
-0.96397	o t	-0.608787
-1.78652	o e	-0.196804
-2.33992	o f	-0.0903552
-1.33601	o m	-0.446288
-1.37489	o s	-0.381159
-1.70713	o p	-0.292038
-2.2342	o q	-0.151843
-2.37232	o *	-0.0903552
-1.11258	d </unk>
-1.84428	d k	-0.0903552
-1.25808	d c	-0.328218
-0.890776	d y	-0.455687
-1.03344	d o	-0.608045
-1.87417	d d	-0.0903552
-0.243427	d a	-0.669836
-1.94559	d l	-0.0903552
-1.30562	a </unk>
-1.69151	a c	-0.0903552
-0.999107	a r	-0.529951
-1.58156	a y	-0.151843
-1.53152	a o	-0.151843
-1.73067	a d	-0.151843
-0.378043	a i	-0.723379
-1.51755	a n	-0.299437
-0.803794	a l	-0.486696
-0.9422	a m	-0.453631
-1.09522	i </unk>
-1.03735	i r	-0.280921
-1.76088	i d	-0.151843
-0.404221	i i	-0.846983
-0.615299	i n	-0.868446
-1.81501	i l	-0.0903552
-1.72916	i e	-0.0903552
-1.46049	i m	-0.151843
-1.69624	i s	-0.0903552
-1.85551	i *	-0.0903552
-0.594589	* o	-0.0903552
-0.773548	* q	-0.0903552
-1.14476	q </unk>
-0.0833554	q o	-0.645865
-0.389099	p c	-0.381507
-1.24454	p h	-0.151843
-0.637907	p o	-0.231283
-0.947854	p a	-0.151843
-1.14942	s </unk>
-0.96567	s c	-0.354025
-0.309307	s h	-0.668608
-1.48939	s y	-0.151843
-1.11076	s o	-0.328218
-1.02352	s a	-0.410102
-1.53702	s e	-0.151843
-1.39766	s s	-0.292038
-1.57499	s q	-0.151843
-1.43069	m </unk>
-1.5587	m k	-0.151843
-0.626591	m c	-0.441113
-0.952018	m y	-0.267463
-0.686462	m o	-0.427923
-1.58784	m d	-0.0903552
-1.61549	m t	-0.0903552
-1.64503	m m	-0.0903552
-0.794823	m s	-0.299437
-1.31415	m p	-0.151843
-1.30305	m q	-0.151843
-0.754886	f c	-0.0903552
-0.567147	f h	-0.151843
-0.732665	f o	-0.0903552
-1.20795	e </unk>
-1.62596	e k	-0.196804
-1.54448	e c	-0.151843
-0.723287	e y	-0.478807
-0.54349	e o	-0.736632
-1.12887	e a	-0.435567
-2.0394	e n	-0.0903552
-1.96698	e t	-0.0903552
-0.622912	e e	-0.507214
-1.99824	e m	-0.0903552
-1.32027	e s	-0.231283
-1.03754	t </unk>
-0.706028	t c	-0.453631
-0.690404	t h	-0.567128
-1.01997	t y	-0.258642
-0.997266	t o	-0.342218
-0.960003	t a	-0.258642
-0.93849	t e	-0.342218
-1.38297	t s	-0.196804
-1.12159	l </unk>
-1.81521	l k	-0.345327
-0.678384	l c	-0.553843
-1.01637	l y	-0.381159
-1.13216	l o	-0.486696
-0.549636	l d	-0.656673
-1.76853	l a	-0.0903552
-1.87922	l t	-0.0903552
-1.37152	l e	-0.196804
-1.96597	l f	-0.0903552
-0.970611	l s	-0.529951
-1.44856	l q	-0.258642
-1.32227	n </unk>
-1.43826	n k	-0.0903552
-0.810542	n c	-0.529951
-0.821736	n y	-0.292038
-0.911195	n o	-0.32838
-0.920086	n d	-0.381159
-0.589359	n s	-0.403804
-1.49396	n q	-0.231283

\3-grams:
-0.386864	m k o
-0.758746	h k a
-0.751485	<unk> k c
-0.78662	<unk> k y
-0.614404	<unk> k o
-0.584831	<unk> k e
-0.542998	n k c
-0.740093	l k y
-0.46758	l k o
-0.644872	l k e
-1.74587	o k </unk>
-0.983502	o k c
-0.97344	o k y
-0.507788	o k o
-0.767655	o k a
-0.632852	o k e
-1.46903	o k s
-0.0990628	c k h
-0.684861	e k y
-0.840074	e k e
-0.914336	e k s
-0.757668	d k s
-0.690922	y k c
-0.763486	y k y
-0.462714	y k o
-1.18376	y k a
-1.06997	y k e
-1.18155	y k s
-0.651349	r k c
-0.684861	r k y
-0.519523	r k o
-1.10384	<unk> c </unk>
-0.178147	<unk> c h
-0.682192	<unk> c t
-0.10507	e c h
-1.29141	l c </unk>
-0.118854	l c h
-0.82942	l c t
-0.0684041	d c h
-0.623792	o c k
-0.185728	o c h
-1.23322	o c t
-1.22714	r c </unk>
-1.26102	r c k
-0.159738	r c h
-0.909778	r c t
-1.39352	r c f
-1.80784	r c p
-0.848513	a c k
-0.112532	f c h
-1.03679	h c k
-0.178087	h c h
-0.852594	h c t
-1.16632	m c </unk>
-0.0722081	m c h
-0.978919	n c </unk>
-0.116187	n c h
-1.12099	n c t
-1.66131	n c p
-0.0589421	p c h
-0.0690645	k c h
-1.10199	t c </unk>
-0.090509	t c h
-1.34983	y c </unk>
-1.347	y c k
-0.0866471	y c h
-1.12935	y c t
-1.07568	s c </unk>
-0.0985024	s c h
-1.31015	c h </unk>
-1.82752	c h c
-2.37192	c h r
-0.987423	c h y
-0.250086	c h o
-1.06144	c h a
-1.97677	c h t
-0.817783	c h e
-2.28202	c h s
-2.37551	c h p
-0.926062	f h </unk>
-0.787069	f h a
-0.490924	k h y
-0.294374	k h o
-0.498442	t h y
-0.353793	t h o
-1.24749	t h a
-0.887389	t h e
-1.62813	s h </unk>
-2.05411	s h k
-1.88644	s h c
-1.01499	s h y
-0.371658	s h o
-0.971382	s h a
-1.88785	s h t
-0.523615	s h e
-0.266967	p h o
-0.897846	<unk> h y
-0.3292	<unk> h o
-0.837974	<unk> h a
-0.739625	<unk> h e
-0.714613	h r y
-1.50436	a r k
-0.467688	a r c
-0.573409	a r o
-1.26054	a r a
-1.26269	a r e
-0.850107	a r s
-1.82197	o r </unk>
-1.44929	o r k
-0.429615	o r c
-1.26402	o r y
-0.742155	o r o
-1.07764	o r d
-1.25393	o r a
-1.96315	o r l
-1.57784	o r e
-1.22483	o r s
-1.02245	o r q
-0.626303	i r c
-0.961355	i r y
-0.519886	i r o
-1.19344	i r d
-1.12331	i r q
-0.44954	<unk> r c
-0.961355	<unk> r y
-1.10359	<unk> r s
-0.523641	o y </unk>
-0.701119	o y k
-0.941134	o y s
-0.588338	y y k
-0.657546	y y c
-0.988652	y y t
-1.21817	y y p
-1.19657	k y </unk>
-0.655102	k y c
-0.402594	k y d
-1.13539	k y s
-0.994177	<unk> y o
-0.545693	<unk> y s
-0.981106	<unk> y q
-0.790093	s y k
-0.523203	s y c
-0.922155	t y k
-0.471447	t y c
-0.783723	t y d
-0.743394	l y k
-0.508415	l y c
-0.818978	l y d
-0.960599	l y t
-0.588338	n y k
-0.657546	n y c
-1.11766	n y y
-1.27832	n y e
-0.717587	r y c
-1.08815	r y o
-0.660524	r y t
-0.659887	r y s
-0.563121	m y </unk>
-0.644236	m y c
-0.957775	m y t
-1.00587	e y </unk>
-1.09465	e y k
-0.51623	e y c
-1.30415	e y y
-1.25946	e y o
-0.86162	e y d
-1.00876	e y t
-1.04632	e y q
-0.523203	a y c
-0.81456	a y t
-1.04032	h y k
-0.486519	h y c
-1.3528	h y y
-1.2232	h y o
-0.84559	h y d
-1.16946	h y t
-0.980588	h y s
-1.04314	h y q
-1.07747	d y </unk>
-0.691612	d y c
-0.887805	d y o
-0.908855	d y d
-0.955295	d y t
-0.904252	d y s
-1.38706	d y p
-1.12528	d y q
-0.602514	e o r
-0.979287	e o d
-1.72096	e o a
-0.403784	e o l
-1.29724	e o m
-1.52504	e o s
-1.83908	e o p
-1.41066	d o </unk>
-0.738998	d o r
-1.54423	d o a
-0.296996	d o l
-1.26278	d o t
-1.48684	d o m
-0.860715	a o c
-0.735234	a o r
-1.07888	s o c
-0.355466	s o l
-1.26179	s o e
-0.658289	y o k
-1.1573	y o c
-0.706447	y o r
-0.866883	y o l
-0.907303	y o t
-1.35883	k o </unk>
-1.07206	k o r
-1.6754	k o o
-0.950017	k o d
-1.38608	k o a
-1.71032	k o i
-0.374973	k o l
-1.17984	k o t
-1.45699	k o m
-1.28247	r o </unk>
-0.684009	r o k
-1.26805	r o c
-0.871369	r o r
-0.833666	r o l
-0.767167	r o t
-1.75805	r o f
-1.37895	r o m
-0.624935	l o k
-1.28169	l o c
-1.00755	l o r
-1.46146	l o y
-1.04864	l o d
-0.632159	l o l
-1.59972	l o e
-1.38587	l o m
-1.57031	l o p
-0.657261	* o r
-0.957171	m o k
-1.07844	m o c
-1.37677	m o y
-0.559797	m o t
-0.922388	m o s
-0.687224	f o d
-1.36795	h o </unk>
-1.23386	h o k
-1.60733	h o c
-0.612777	h o r
-1.86701	h o y
-0.85704	h o d
-1.93684	h o a
-2.19943	h o i
-0.5133	h o l
-1.47209	h o t
-1.15538	h o m
-1.74374	h o s
-1.95637	h o q
-2.47251	h o *
-1.02423	o o i
-0.64201	o o l
-0.825642	p o r
-0.612248	p o l
-0.857532	p o t
-1.46848	q o </unk>
-0.518328	q o k
-1.45346	q o c
-1.65625	q o y
-1.79794	q o o
-1.05974	q o d
-0.595192	q o t
-1.82148	q o e
-1.59577	q o s
-1.35296	q o p
-1.19108	<unk> o </unk>
-0.925015	<unk> o k
-0.871993	<unk> o c
-0.944396	<unk> o d
-0.740664	<unk> o l
-1.28163	<unk> o m
-1.30462	<unk> o s
-1.46607	<unk> o p
-0.952784	n o k
-0.973246	n o d
-0.72551	n o l
-0.588643	n o t
-0.97394	t o </unk>
-0.804009	t o y
-0.987363	t o d
-1.26013	t o a
-0.741667	t o l
-1.30379	o d </unk>
-0.450889	o d y
-1.24833	o d o
-0.316577	o d a
-0.98566	y d </unk>
-1.65767	y d k
-1.33422	y d c
-1.08593	y d o
-0.198363	y d a
-1.3013	l d </unk>
-1.16623	l d c
-1.24774	l d y
-0.379017	l d o
-0.41905	l d a
-0.125131	r d a
-0.208418	m d a
-1.05964	<unk> d </unk>
-1.14066	<unk> d c
-0.626625	<unk> d y
-0.341367	<unk> d a
-1.36942	<unk> d l
-0.943363	n d o
-1.43487	n d d
-0.186494	n d a
-0.566578	i d y
-0.793898	d d c
-0.722596	a d y
-0.252351	a d a
-0.315444	l a i
-1.01135	p a d
-0.671096	p a l
-0.970534	o a r
-0.397333	o a i
-0.561564	o a l
-1.51347	d a </unk>
-0.931155	d a r
-1.7631	d a o
-0.264085	d a i
-1.29135	d a n
-1.06911	d a l
-0.948087	d a m
-1.67861	h a c
-0.872342	h a r
-0.564221	h a i
-0.986721	h a n
-0.840252	h a l
-0.595467	h a m
-1.16441	<unk> a </unk>
-0.972869	<unk> a r
-0.357335	<unk> a i
-0.743544	<unk> a l
-0.948517	r a r
-1.18176	r a n
-0.821867	r a l
-0.568241	r a m
-0.413659	e a r
-1.36037	e a y
-0.646608	e a i
-0.728044	e a m
-1.04266	k a </unk>
-1.33422	k a y
-1.38561	k a d
-0.362184	k a i
-0.869156	k a l
-0.974445	k a m
-1.16633	t a o
-0.337292	t a i
-0.777651	t a l
-0.205175	s a i
-0.939752	s a l
-1.03945	s a m
-1.30379	a i </unk>
-1.16459	a i r
-0.173281	a i i
-0.87813	a i n
-1.76115	a i m
-2.00444	a i *
-1.42773	i i </unk>
-1.55277	i i r
-1.52434	i i d
-0.998231	i i i
-0.124564	i i n
-2.01294	i i l
-1.8437	i i m
-0.417429	o i i
-1.09877	o i e
-1.09236	o i s
-0.306762	<unk> i i
-0.471561	o * o
-0.582815	i * q
-0.025431	y q o
-0.0685634	s q o
-0.0685634	o q o
-0.959687	n q </unk>
-0.0919043	n q o
-0.0658976	<unk> q o
-0.996432	l q </unk>
-0.0863992	l q o
-0.0685634	m q o
-0.0410708	r q o
-0.0732105	* q o
-0.404825	y p c
-0.501959	y p o
-0.413429	c p h
-0.438435	o p c
-0.458511	o p o
-0.917235	o p a
-0.2966	m p c
-0.323921	<unk> p c
-0.673945	h p a
-0.717014	e s c
-1.11799	e s e
-1.12903	e s q
-1.30824	l s </unk>
-1.17458	l s c
-0.222687	l s h
-1.28142	l s o
-0.897336	l s a
-1.53296	l s e
-1.46184	l s s
-1.14225	o s </unk>
-0.725689	o s c
-0.318816	o s h
-1.06193	o s a
-1.348	o s q
-0.852368	h s y
-0.229651	t s h
-0.179927	k s h
-0.261643	i s h
-1.10779	y s </unk>
-0.927843	y s c
-0.220151	y s h
-1.14455	y s a
-0.181298	s s h
-0.322989	m s h
-1.22539	m s y
-0.890785	m s o
-1.18534	m s s
-0.157154	r s h
-1.17349	n s </unk>
-0.287059	n s h
-1.14731	n s o
-0.751581	n s a
-0.988313	<unk> s c
-1.07163	<unk> s o
-1.02295	<unk> s a
-0.493257	<unk> s s
-1.11193	a m k
-0.662462	a m c
-1.01009	a m y
-0.558337	a m o
-0.847356	a m s
-1.35369	a m p
-1.34609	a m q
-0.553689	i m c
-0.996499	i m m
-0.675909	m m y
-1.40872	o m </unk>
-0.713493	o m c
-1.07268	o m y
-0.550477	o m o
-1.49297	o m d
-1.50633	o m t
-0.735055	o m s
-1.33729	o m p
-1.3301	o m q
-0.530839	<unk> m o
-0.594868	e m s
-0.408591	c f h
-0.558937	l f o
-0.572031	o f c
-0.215686	r e e
-0.490308	y e e
-0.440084	s e e
-1.47909	h e </unk>
-1.4309	h e k
-1.7286	h e c
-0.617486	h e y
-0.437187	h e o
-1.18469	h e a
-1.95965	h e t
-0.720923	h e e
-0.797194	t e y
-0.540434	t e o
-1.08729	t e a
-0.485593	t e e
-1.19896	k e </unk>
-1.40877	k e c
-0.808324	k e y
-0.474063	k e o
-0.577761	k e e
-1.1783	e e </unk>
-0.471056	e e y
-0.734891	e e o
-1.07723	e e a
-1.80891	e e n
-0.697402	e e e
-1.79463	e e m
-1.31919	e e s
-0.811942	i e s
-0.443855	o e o
-0.590563	o e e
-0.443855	<unk> e o
-0.986413	<unk> e s
-1.07732	l e k
-0.493057	l e e
-0.542881	l t c
-0.531665	<unk> t h
-0.744867	<unk> t e
-1.357	c t </unk>
-0.135478	c t h
-0.706553	e t y
-1.16789	o t </unk>
-0.424097	o t c
-1.29366	o t y
-0.876515	o t o
-1.12075	o t a
-0.794797	o t e
-1.56303	o t s
-0.430763	y t c
-1.22883	y t y
-0.706114	y t o
-1.18905	y t a
-1.17434	y t e
-0.978002	y t s
-0.470559	h t y
-0.863326	h t a
-0.542881	m t c
-1.20295	o l </unk>
-1.2232	o l k
-0.687358	o l c
-1.1947	o l y
-0.787227	o l o
-0.740216	o l d
-2.00579	o l a
-2.07851	o l t
-1.63676	o l e
-2.13094	o l f
-0.789505	o l s
-1.35954	o l q
-1.24457	a l </unk>
-0.571258	a l c
-0.860836	a l y
-1.25207	a l o
-0.51253	a l d
-1.4069	a l e
-1.13186	a l s
-0.376299	<unk> l c
-0.617657	<unk> l d
-0.440971	i l d
-0.747541	d l </unk>
-0.684556	r l s
-1.23785	i n </unk>
-1.84357	i n k
-0.468237	i n c
-1.17803	i n y
-0.937681	i n o
-0.868393	i n d
-0.74894	i n s
-1.12545	i n q
-0.818771	a n c
-0.827355	a n y
-0.894018	a n o
-0.793652	a n d
-0.577799	a n s
-0.824295	<unk> n o
-0.829998	<unk> n d
-0.509754	<unk> n s
-0.609748	e n y
