[unifb]
-0.00518544

\data\
ngram 1=87
ngram 2=88
ngram 3=87

\1-grams:
-1.90554	o	-0.00111749
-3.87007	kchrychodaiinololtcheycharcfharamyteeaycharoroc	-0.00111749
-3.87007	hydcholkodyok	-0.00111749
-3.87007	odarchodydaockhyckho	-0.00111749
-3.87007	ckhyshydks	-0.00111749
-3.87007	heeycthykotchodydaldolchokeodairdamsocheychoko	-0.00111749
-3.87007	dypotoysholdaircphoaldarcheytodyotoaiinshoshychokycholctholsholokaldolche	-0.00111749
-3.86541	ychodol	-0.00111749
-3.08374	olc	-0.00111749
-3.87007	hycthyqoolchoiescheoldolcthe	-0.00111749
-3.87007	yykoldoldoloykoldolchody	-0.00111749
-3.87007	okolsholkolkechycholkycholctholchod	-0.00111749
-3.86219	ycholdaiin	-0.00111749
-3.86987	shorokolc	-0.00111749
-1.96676	h	-0.00185246
-3.87007	oldolkydarsholdchorotchodarshodytaorchotchey	-0.00111749
-3.87007	dalchodyschodypolchodarkyd	-0.00111749
-3.87007	ainyypchol	-0.00111749
-3.87007	daiinotchaldorchoryshorcthycthoqotaii	-0.00111749
-3.74187	ncha	-0.00111749
-3.87007	iinshaiidychokaiindotochoralytcha	-0.00111749
-2.19853	i	-0.00111749
-3.87007	indansaiindainddcholdchyc	-0.00111749
-3.87007	thyshorckhydaiinykydainshaiinqoyssholfodan	-0.00111749
-3.87007	yksholsheeydaiildydlsshokolsheeyqokeyykodysocholykydaindaiiro	-0.00111749
-3.87007	lqokycholaiinsholshekydaiinctheykeolsaiinsaiiny	-0.00111749
-3.85812	chaind	-0.00111749
-3.87007	alchydalorshandano	-0.00111749
-3.87007	lsaiinsheeyckhoroko	-0.00111749
-3.87007	lchychorcthoryoranchansaiinchetychykysalshoykeeyc	-0.00111749
-3.87007	heydaiinchcthykooiincheopchorotai	-0.00111749
-3.87007	inodainchordairshtykchokchyshosholqotcholoeeesqotychordaiinotchychorlshycholchodychodainchcthyda	-0.00111749
-3.02599	iin	-0.00111749
-2.47086	s	-0.00111749
-3.87007	hocholocheorchodaii	-0.00111749
-2.39461	n	-0.00111749
-3.3665	kch	-0.00111749
-3.67692	orsh	-0.00111749
-3.87007	ydaiiinchckhoysshe	-0.00111749
-3.86556	ydorch	-0.00111749
-3.87007	ldaiindorcholchorcholkeolchychty	-0.00111749
-3.86444	daiinotch	-0.00111749
-3.87007	orchandaiinchot	-0.00111749
-3.87004	cheyqoteeey	-0.00111749
-3.87007	chokeoscheesc	-0.00111749
-3.87007	rcheaiinchokoishechorcheolcholdo	-0.00111749
-3.87007	lodytsheosqo	-0.00111749
-3.87001	palcholcth	-0.00111749
-3.87007	oldaimmycheorchordamqotchamchamochorqocheorcholdaiincthyscheychorchalchamchamcho	-0.00111749
-3.87007	qokolchololyschamctholychtaiinchorcthomotaldamotcholqodaiinchomshomdamoysheorchorcholokydamosho*orsheoldamotchodyolydarcholcthompche	-0.00111749
-3.87007	olsholsolssheolsheyokadaii	-0.00111749
-3.73663	nqok	-0.00111749
-3.87007	chorqoschodamocthyqokeeyqotsheyq	-0.00111749
-3.87007	okodyqokcheycheodychorqodairokeeyqokeeyts	-0.00111749
-3.87007	heoaromsh	-0.00111749
-3.85465	ororcho	-0.00111749
-3.8403	rofc	-0.00111749
-3.87007	hsychomotchomoporaroteolcholscheolekshyqokeomq	-0.00111749
-3.87007	okoldaiinsoleemsoeomo	-0.00111749
-2.56822	k	-0.00111749
-3.86169	eomy	-0.00111749
-3.87007	teodyqokeeodalsampcheoldo	-0.00111749
-3.87007	mshodaiinqopchorqopol	-0.00111749
-3.82941	opchol	-0.00111749
-2.44366	q	-0.00111749
-3.87007	otyotolomotcho	-0.00111749
-3.87007	rolcheorqoeordairqo	-0.00111749
-3.87007	teolqosaiinchorcthyycheorcholodaiincholsaiinokolo	-0.00111749
-3.87007	ramkoaiincph	-0.00111749
-3.87007	orqotoyshackho	-0.00111749
-3.87007	lykoaiinsolydaiidyqoteeolokchorokorol	-0.00111749
-3.63508	yto	-0.00111749
-3.87007	ldoldarokomcholsholseee	-0.00111749
-3.85241	schom	-0.00111749
-3.87007	cheeykamoka	-0.00111749
-3.87007	i*qodareeseeykcheolokaldor	-0.00111749
-3.7488	chea	-0.00111749
-3.87007	reenyeeearotchaleeoree	-0.00111749
-3.87007	arckhyorcheorkorchodalychomtchorotchamchor	-0.00111749
-3.82442	cfha	-0.00111749
-3.87007	msykchykchomchorchekeolokaytcheearokeolcthodo	-0.00111749
-3.87007	alychorcthyochorda	-0.00111749
-3.87007	iinqoksholdaiimcholokaryshoshockhoc	-0.00111749
-3.87007	khytchorchodaiinch	-0.00111749
-3.87007	omoshchodairytchytchorkchamssharshkaiinqokchyy	-0.00111749
-3.87007	tycthalchkydainsheamyteamkodalchychpadysheololsheeyqoteydoiinch	-0.00111749
-3.87007	orytoydcho

\2-grams:
-0.759839	<s> kchrychodaiinololtcheycharcfharamyteeaycharoroc	-0.0828797
-0.759839	kchrychodaiinololtcheycharcfharamyteeaycharoroc hydcholkodyok	-0.0828797
-0.759839	hydcholkodyok odarchodydaockhyckho	-0.0828797
-0.759839	odarchodydaockhyckho ckhyshydks	-0.0828797
-0.759839	ckhyshydks heeycthykotchodydaldolchokeodairdamsocheychoko	-0.0828797
-0.759839	heeycthykotchodydaldolchokeodairdamsocheychoko dypotoysholdaircphoaldarcheytodyotoaiinshoshychokycholctholsholokaldolche	-0.0828797
-0.759836	dypotoysholdaircphoaldarcheytodyotoaiinshoshychokycholctholsholokaldolche ychodol	-0.0828797
-0.758417	ychodol olc	-0.0828797
-0.759839	olc hycthyqoolchoiescheoldolcthe	-0.0828797
-0.759839	hycthyqoolchoiescheoldolcthe yykoldoldoloykoldolchody	-0.0828797
-0.759839	yykoldoldoloykoldolchody okolsholkolkechycholkycholctholchod	-0.0828797
-0.759834	okolsholkolkechycholkycholctholchod ycholdaiin	-0.0828797
-0.759839	ycholdaiin shorokolc	-0.0828797
-0.738373	shorokolc h	-0.0828797
-0.97524	h oldolkydarsholdchorotchodarshodytaorchotchey	-0.0828797
-0.97524	h rcheaiinchokoishechorcheolcholdo	-0.0828797
-0.759839	oldolkydarsholdchorotchodarshodytaorchotchey dalchodyschodypolchodarkyd	-0.0828797
-0.759839	dalchodyschodypolchodarkyd ainyypchol	-0.0828797
-0.759839	ainyypchol daiinotchaldorchoryshorcthycthoqotaii	-0.0828797
-0.759743	daiinotchaldorchoryshorcthycthoqotaii ncha	-0.0828797
-0.759839	ncha iinshaiidychokaiindotochoralytcha	-0.0828797
-0.747234	iinshaiidychokaiindotochoralytcha i	-0.0828797
-0.759839	i indansaiindainddcholdchyc	-0.0828797
-0.759839	indansaiindainddcholdchyc thyshorckhydaiinykydainshaiinqoyssholfodan	-0.0828797
-0.759839	thyshorckhydaiinykydainshaiinqoyssholfodan yksholsheeydaiildydlsshokolsheeyqokeyykodysocholykydaindaiiro	-0.0828797
-0.759839	yksholsheeydaiildydlsshokolsheeyqokeyykodysocholykydaindaiiro lqokycholaiinsholshekydaiinctheykeolsaiinsaiiny	-0.0828797
-0.759831	lqokycholaiinsholshekydaiinctheykeolsaiinsaiiny chaind	-0.0828797
-0.759839	chaind alchydalorshandano	-0.0828797
-0.759839	alchydalorshandano lsaiinsheeyckhoroko	-0.0828797
-0.759839	lsaiinsheeyckhoroko lchychorcthoryoranchansaiinchetychykysalshoykeeyc	-0.0828797
-0.759839	lchychorcthoryoranchansaiinchetychykysalshoykeeyc heydaiinchcthykooiincheopchorotai	-0.0828797
-0.759839	heydaiinchcthykooiincheopchorotai inodainchordairshtykchokchyshosholqotcholoeeesqotychordaiinotchychorlshycholchodychodainchcthyda	-0.0828797
-0.758176	inodainchordairshtykchokchyshosholqotcholoeeesqotychordaiinotchychorlshycholchodychodainchcthyda iin	-0.0828797
-0.753188	iin s	-0.0828797
-0.759839	s hocholocheorchodaii	-0.0828797
-0.75187	hocholocheorchodaii n	-0.0828797
-0.75923	n kch	-0.0828797
-0.759683	kch orsh	-0.0828797
-0.759839	orsh ydaiiinchckhoysshe	-0.0828797
-0.759836	ydaiiinchckhoysshe ydorch	-0.0828797
-0.735174	ydorch o	-0.0828797
-0.759839	o ldaiindorcholchorcholkeolchychty	-0.0828797
-0.759839	q otyotolomotcho	-0.0828797
-0.759839	otyotolomotcho rolcheorqoeordairqo	-0.0828797
-0.759839	rolcheorqoeordairqo teolqosaiinchorcthyycheorcholodaiincholsaiinokolo	-0.0828797
-0.759839	teolqosaiinchorcthyycheorcholodaiincholsaiinokolo ramkoaiincph	-0.0828797
-0.759839	ramkoaiincph orqotoyshackho	-0.0828797
-0.759839	orqotoyshackho lykoaiinsolydaiidyqoteeolokchorokorol	-0.0828797
-0.759639	lykoaiinsolydaiidyqoteeolokchorokorol yto	-0.0828797
-0.759839	yto ldoldarokomcholsholseee	-0.0828797
-0.759827	ldoldarokomcholsholseee schom	-0.0828797
-0.759839	schom cheeykamoka	-0.0828797
-0.759839	cheeykamoka i*qodareeseeykcheolokaldor	-0.0828797
-0.759749	i*qodareeseeykcheolokaldor chea	-0.0828797
-0.759839	tycthalchkydainsheamyteamkodalchychpadysheololsheeyqoteydoiinch orytoydcho
-0.759839	omoshchodairytchytchorkchamssharshkaiinqokchyy tycthalchkydainsheamyteamkodalchychpadysheololsheeyqoteydoiinch	-0.0828797
-0.759839	khytchorchodaiinch omoshchodairytchytchorkchamssharshkaiinqokchyy	-0.0828797
-0.759839	iinqoksholdaiimcholokaryshoshockhoc khytchorchodaiinch	-0.0828797
-0.759839	alychorcthyochorda iinqoksholdaiimcholokaryshoshockhoc	-0.0828797
-0.759839	msykchykchomchorchekeolokaytcheearokeolcthodo alychorcthyochorda	-0.0828797
-0.759839	cfha msykchykchomchorchekeolokaytcheearokeolcthodo	-0.0828797
-0.759808	arckhyorcheorkorchodalychomtchorotchamchor cfha	-0.0828797
-0.759839	reenyeeearotchaleeoree arckhyorcheorkorchodalychomtchorotchamchor	-0.0828797
-0.759839	chea reenyeeearotchaleeoree	-0.0828797
-0.752744	opchol q	-0.0828797
-0.759811	mshodaiinqopchorqopol opchol	-0.0828797
-0.759839	teodyqokeeodalsampcheoldo mshodaiinqopchorqopol	-0.0828797
-0.759839	eomy teodyqokeeodalsampcheoldo	-0.0828797
-0.759833	k eomy	-0.0828797
-0.754571	okoldaiinsoleemsoeomo k	-0.0828797
-0.759839	hsychomotchomoporaroteolcholscheolekshyqokeomq okoldaiinsoleemsoeomo	-0.0828797
-0.759839	rofc hsychomotchomoporaroteolcholscheolekshyqokeomq	-0.0828797
-0.759819	ororcho rofc	-0.0828797
-0.759829	heoaromsh ororcho	-0.0828797
-0.759839	okodyqokcheycheodychorqodairokeeyqokeeyts heoaromsh	-0.0828797
-0.759839	chorqoschodamocthyqokeeyqotsheyq okodyqokcheycheodychorqodairokeeyqokeeyts	-0.0828797
-0.759839	nqok chorqoschodamocthyqokeeyqotsheyq	-0.0828797
-0.759739	olsholsolssheolsheyokadaii nqok	-0.0828797
-0.759839	qokolchololyschamctholychtaiinchorcthomotaldamotcholqodaiinchomshomdamoysheorchorcholokydamosho*orsheoldamotchodyolydarcholcthompche olsholsolssheolsheyokadaii	-0.0828797
-0.759839	oldaimmycheorchordamqotchamchamochorqocheorcholdaiincthyscheychorchalchamchamcho qokolchololyschamctholychtaiinchorcthomotaldamotcholqodaiinchomshomdamoysheorchorcholokydamosho*orsheoldamotchodyolydarcholcthompche	-0.0828797
-0.759839	palcholcth oldaimmycheorchordamqotchamchamochorqocheorcholdaiincthyscheychorchalchamchamcho	-0.0828797
-0.759839	lodytsheosqo palcholcth	-0.0828797
-0.759839	rcheaiinchokoishechorcheolcholdo lodytsheosqo	-0.0828797
-0.738373	chokeoscheesc h	-0.0828797
-0.759839	cheyqoteeey chokeoscheesc	-0.0828797
-0.759839	orchandaiinchot cheyqoteeey	-0.0828797
-0.759839	daiinotch orchandaiinchot	-0.0828797
-0.759835	ldaiindorcholchorcholkeolchychty daiinotch	-0.0828797

\3-grams:
-0.575771	<s> kchrychodaiinololtcheycharcfharamyteeaycharoroc hydcholkodyok
-0.575771	kchrychodaiinololtcheycharcfharamyteeaycharoroc hydcholkodyok odarchodydaockhyckho
-0.575771	hydcholkodyok odarchodydaockhyckho ckhyshydks
-0.575771	odarchodydaockhyckho ckhyshydks heeycthykotchodydaldolchokeodairdamsocheychoko
-0.575771	ckhyshydks heeycthykotchodydaldolchokeodairdamsocheychoko dypotoysholdaircphoaldarcheytodyotoaiinshoshychokycholctholsholokaldolche
-0.575769	heeycthykotchodydaldolchokeodairdamsocheychoko dypotoysholdaircphoaldarcheytodyotoaiinshoshychokycholctholsholokaldolche ychodol
-0.574943	dypotoysholdaircphoaldarcheytodyotoaiinshoshychokycholctholsholokaldolche ychodol olc
-0.575771	ychodol olc hycthyqoolchoiescheoldolcthe
-0.575771	olc hycthyqoolchoiescheoldolcthe yykoldoldoloykoldolchody
-0.575771	hycthyqoolchoiescheoldolcthe yykoldoldoloykoldolchody okolsholkolkechycholkycholctholchod
-0.575768	yykoldoldoloykoldolchody okolsholkolkechycholkycholctholchod ycholdaiin
-0.575771	okolsholkolkechycholkycholctholchod ycholdaiin shorokolc
-0.563153	ycholdaiin shorokolc h
-0.68788	shorokolc h oldolkydarsholdchorotchodarshodytaorchotchey
-0.68788	chokeoscheesc h rcheaiinchokoishechorcheolcholdo
-0.575771	h oldolkydarsholdchorotchodarshodytaorchotchey dalchodyschodypolchodarkyd
-0.575771	oldolkydarsholdchorotchodarshodytaorchotchey dalchodyschodypolchodarkyd ainyypchol
-0.575771	dalchodyschodypolchodarkyd ainyypchol daiinotchaldorchoryshorcthycthoqotaii
-0.575715	ainyypchol daiinotchaldorchoryshorcthycthoqotaii ncha
-0.575771	daiinotchaldorchoryshorcthycthoqotaii ncha iinshaiidychokaiindotochoralytcha
-0.568392	ncha iinshaiidychokaiindotochoralytcha i
-0.575771	iinshaiidychokaiindotochoralytcha i indansaiindainddcholdchyc
-0.575771	i indansaiindainddcholdchyc thyshorckhydaiinykydainshaiinqoyssholfodan
-0.575771	indansaiindainddcholdchyc thyshorckhydaiinykydainshaiinqoyssholfodan yksholsheeydaiildydlsshokolsheeyqokeyykodysocholykydaindaiiro
-0.575771	thyshorckhydaiinykydainshaiinqoyssholfodan yksholsheeydaiildydlsshokolsheeyqokeyykodysocholykydaindaiiro lqokycholaiinsholshekydaiinctheykeolsaiinsaiiny
-0.575766	yksholsheeydaiildydlsshokolsheeyqokeyykodysocholykydaindaiiro lqokycholaiinsholshekydaiinctheykeolsaiinsaiiny chaind
-0.575771	lqokycholaiinsholshekydaiinctheykeolsaiinsaiiny chaind alchydalorshandano
-0.575771	chaind alchydalorshandano lsaiinsheeyckhoroko
-0.575771	alchydalorshandano lsaiinsheeyckhoroko lchychorcthoryoranchansaiinchetychykysalshoykeeyc
-0.575771	lsaiinsheeyckhoroko lchychorcthoryoranchansaiinchetychykysalshoykeeyc heydaiinchcthykooiincheopchorotai
-0.575771	lchychorcthoryoranchansaiinchetychykysalshoykeeyc heydaiinchcthykooiincheopchorotai inodainchordairshtykchokchyshosholqotcholoeeesqotychordaiinotchychorlshycholchodychodainchcthyda
-0.574803	heydaiinchcthykooiincheopchorotai inodainchordairshtykchokchyshosholqotcholoeeesqotychordaiinotchychorlshycholchodychodainchcthyda iin
-0.571889	inodainchordairshtykchokchyshosholqotcholoeeesqotychordaiinotchychorlshycholchodychodainchcthyda iin s
-0.575771	iin s hocholocheorchodaii
-0.571117	s hocholocheorchodaii n
-0.575417	hocholocheorchodaii n kch
-0.57568	n kch orsh
-0.575771	kch orsh ydaiiinchckhoysshe
-0.575769	orsh ydaiiinchckhoysshe ydorch
-0.56125	ydaiiinchckhoysshe ydorch o
-0.575771	ydorch o ldaiindorcholchorcholkeolchychty
-0.575771	opchol q otyotolomotcho
-0.575771	q otyotolomotcho rolcheorqoeordairqo
-0.575771	otyotolomotcho rolcheorqoeordairqo teolqosaiinchorcthyycheorcholodaiincholsaiinokolo
-0.575771	rolcheorqoeordairqo teolqosaiinchorcthyycheorcholodaiincholsaiinokolo ramkoaiincph
-0.575771	teolqosaiinchorcthyycheorcholodaiincholsaiinokolo ramkoaiincph orqotoyshackho
-0.575771	ramkoaiincph orqotoyshackho lykoaiinsolydaiidyqoteeolokchorokorol
-0.575655	orqotoyshackho lykoaiinsolydaiidyqoteeolokchorokorol yto
-0.575771	lykoaiinsolydaiidyqoteeolokchorokorol yto ldoldarokomcholsholseee
-0.575764	yto ldoldarokomcholsholseee schom
-0.575771	ldoldarokomcholsholseee schom cheeykamoka
-0.575771	schom cheeykamoka i*qodareeseeykcheolokaldor
-0.575719	cheeykamoka i*qodareeseeykcheolokaldor chea
-0.575771	omoshchodairytchytchorkchamssharshkaiinqokchyy tycthalchkydainsheamyteamkodalchychpadysheololsheeyqoteydoiinch orytoydcho
-0.575771	khytchorchodaiinch omoshchodairytchytchorkchamssharshkaiinqokchyy tycthalchkydainsheamyteamkodalchychpadysheololsheeyqoteydoiinch
-0.575771	iinqoksholdaiimcholokaryshoshockhoc khytchorchodaiinch omoshchodairytchytchorkchamssharshkaiinqokchyy
-0.575771	alychorcthyochorda iinqoksholdaiimcholokaryshoshockhoc khytchorchodaiinch
-0.575771	msykchykchomchorchekeolokaytcheearokeolcthodo alychorcthyochorda iinqoksholdaiimcholokaryshoshockhoc
-0.575771	cfha msykchykchomchorchekeolokaytcheearokeolcthodo alychorcthyochorda
-0.575771	arckhyorcheorkorchodalychomtchorotchamchor cfha msykchykchomchorchekeolokaytcheearokeolcthodo
-0.575753	reenyeeearotchaleeoree arckhyorcheorkorchodalychomtchorotchamchor cfha
-0.575771	chea reenyeeearotchaleeoree arckhyorcheorkorchodalychomtchorotchamchor
-0.575771	i*qodareeseeykcheolokaldor chea reenyeeearotchaleeoree
-0.571629	mshodaiinqopchorqopol opchol q
-0.575755	teodyqokeeodalsampcheoldo mshodaiinqopchorqopol opchol
-0.575771	eomy teodyqokeeodalsampcheoldo mshodaiinqopchorqopol
-0.575771	k eomy teodyqokeeodalsampcheoldo
-0.575768	okoldaiinsoleemsoeomo k eomy
-0.572698	hsychomotchomoporaroteolcholscheolekshyqokeomq okoldaiinsoleemsoeomo k
-0.575771	rofc hsychomotchomoporaroteolcholscheolekshyqokeomq okoldaiinsoleemsoeomo
-0.575771	ororcho rofc hsychomotchomoporaroteolcholscheolekshyqokeomq
-0.575759	heoaromsh ororcho rofc
-0.575765	okodyqokcheycheodychorqodairokeeyqokeeyts heoaromsh ororcho
-0.575771	chorqoschodamocthyqokeeyqotsheyq okodyqokcheycheodychorqodairokeeyqokeeyts heoaromsh
-0.575771	nqok chorqoschodamocthyqokeeyqotsheyq okodyqokcheycheodychorqodairokeeyqokeeyts
-0.575771	olsholsolssheolsheyokadaii nqok chorqoschodamocthyqokeeyqotsheyq
-0.575713	qokolchololyschamctholychtaiinchorcthomotaldamotcholqodaiinchomshomdamoysheorchorcholokydamosho*orsheoldamotchodyolydarcholcthompche olsholsolssheolsheyokadaii nqok
-0.575771	oldaimmycheorchordamqotchamchamochorqocheorcholdaiincthyscheychorchalchamchamcho qokolchololyschamctholychtaiinchorcthomotaldamotcholqodaiinchomshomdamoysheorchorcholokydamosho*orsheoldamotchodyolydarcholcthompche olsholsolssheolsheyokadaii
-0.575771	palcholcth oldaimmycheorchordamqotchamchamochorqocheorcholdaiincthyscheychorchalchamchamcho qokolchololyschamctholychtaiinchorcthomotaldamotcholqodaiinchomshomdamoysheorchorcholokydamosho*orsheoldamotchodyolydarcholcthompche
-0.575771	lodytsheosqo palcholcth oldaimmycheorchordamqotchamchamochorqocheorcholdaiincthyscheychorchalchamchamcho
-0.575771	rcheaiinchokoishechorcheolcholdo lodytsheosqo palcholcth
-0.575771	h rcheaiinchokoishechorcheolcholdo lodytsheosqo
-0.563153	cheyqoteeey chokeoscheesc h
-0.575771	orchandaiinchot cheyqoteeey chokeoscheesc
-0.575771	daiinotch orchandaiinchot cheyqoteeey
-0.575771	ldaiindorcholchorcholkeolchychty daiinotch orchandaiinchot
-0.575769	o ldaiindorcholchorcholkeolchychty daiinotch
