[unifb]
-0.53122

\data\
ngram 1=5228
ngram 2=17369
ngram 3=18356

\1-grams:
-2.9046	chodaiin	-0.0623186
-2.63843	am	-0.0446011
-2.59247	char	-0.0943453
-2.63276	chody	-0.0876456
-2.47443	dol	-0.105271
-4.09192	tody	-0.025573
-2.44903	chy	-0.134917
-2.42606	cthy	-0.0861013
-3.1058	qo	-0.0768279
-1.83367	ol	-0.166265
-3.5688	ykol	-0.0351767
-1.93543	chol	-0.146005
-1.6367	daiin	-0.134423
-3.20564	ctho	-0.0524036
-4.75115	qotaiinchaiin
-3.05271	shaiin	-0.0616519
-2.29101	shol	-0.112609
-2.9682	kol	-0.0616519
-3.4683	yky	-0.0419263
-2.49442	dain	-0.0718677
-2.3896	qoky	-0.136716
-2.09666	aiin	-0.108236
-2.27903	saiin	-0.104308
-4.55701	ychain	-0.0190672
-2.1495	dal	-0.108876
-2.46156	sho	-0.079719
-2.57849	chcthy	-0.07913
-2.0812	otaiin	-0.143777
-3.65895	kcho	-0.0351767
-2.74232	otchy	-0.0680607
-4.33651	cholo	-0.0108145
-2.88624	dor	-0.111426
-2.17574	chor	-0.122311
-4.16795	ycheor	-0.0733289
-3.11138	cham	-0.0388223
-3.65858	schey	-0.0351767
-2.57043	qokol	-0.107695
-2.74585	cthol	-0.0884327
-4.75115	ychtaiin	-0.0108145
-2.41362	otal	-0.0749368
-2.55646	dam	-0.058417
-3.54709	otchol	-0.0538533
-4.75115	ysheor	-0.025573
-3.37576	cthom	-0.0351767
-3.63932	pcheol	-0.04693
-3.55356	qokody	-0.0419263
-2.93714	qokchey	-0.0635208
-2.64094	cheody	-0.0787354
-2.9681	oteol	-0.0609348
-2.44195	s	-0.0703036
-3.0583	qokeeo	-0.0601614
-3.31772	shodaiin	-0.0489761
-3.32651	otchor	-0.0524036
-2.79303	cheor	-0.0884327
-2.90024	odaiin	-0.0659333
-2.76159	oly	-0.0419263
-2.0367	dar	-0.104757
-4.7439	kcheol	-0.0108145
-2.34065	okal	-0.0892245
-2.81515	ckhy	-0.0629401
-3.24247	tchor	-0.0769869
-2.96315	shar	-0.0616519
-3.62355	shkaiin	-0.0308341
-2.55437	qokchy	-0.0718677
-3.65889	dchor	-0.0551614
-3.47142	qotchol	-0.04693
-3.14054	yty	-0.0524036
-2.66304	qotchy	-0.0706975
-2.2118	dy	-0.0851735
-3.9182	tcheey	-0.0190672
-2.39796	qotaiin	-0.0996067
-2.95237	tchy	-0.0629401
-2.60258	qoty	-0.078776
-2.85023	chaiin	-0.108549
-2.84489	cthey	-0.0640646
-2.92554	olchey	-0.0635208
-3.49368	qokshy	-0.0419263
-4.27094	qocthy
-2.03424	shey	-0.144885
-3.59258	chokchy	-0.0733289
-4.54365	kcheor	-0.0190672
-2.74913	qotol	-0.0683568
-3.32664	otain	-0.0738919
-3.01232	sheody	-0.0601614
-3.37576	chan	-0.0419263
-3.92613	tshy	-0.025573
-2.87676	shody	-0.0609348
-2.627	cheo	-0.103365
-2.94824	kchy	-0.0650548
-4.51435	ytchey	-0.0190672
-3.85952	dchol	-0.0446011
-2.42615	shy	-0.0852335
-3.69902	qotor	-0.0489761
-2.84469	cthor	-0.0677499
-2.9681	okchy	-0.0609348
-2.68955	taiin	-0.08779
-3.566	cphol	-0.0388223
-2.26675	chckhy	-0.0912565
-2.65067	kar	-0.0708834
-3.92527	otcham	-0.0108145
-2.89351	tar	-0.0909916
-3.49326	cthaiin	-0.0351767
-2.08148	or	-0.195051
-2.39166	al	-0.105607
-1.9437	okaiin	-0.114712
-3.37561	chory	-0.025573
-2.84477	qodaiin	-0.0782057
-2.91094	sar	-0.120911
-2.66792	shor	-0.0718677
-2.81535	chear	-0.0782715
-3.92613	qoair	-0.025573
-2.40238	oty	-0.0793133
-3.56903	dom
-4.54155	tchody	-0.025573
-3.37269	chocthy	-0.0738919
-4.75115	ychor	-0.0757679
-2.82409	otam	-0.04693
-3.37597	ytchor	-0.04693
-4.74767	oees	-0.025573
-2.95721	qokor	-0.0629401
-3.49326	chockhy	-0.0351767
-4.09259	sain	-0.0190672
-2.98887	ches	-0.12836
-3.14847	kchor	-0.058417
-2.35629	sheey	-0.131958
-4.75115	dcheey	-0.0388223
-3.64807	qokcho	-0.0446011
-3.00466	cho	-0.0772682
-4.75115	oainsotaiin
-4.01055	chotchy	-0.0108145
-2.98893	okchey	-0.0776173
-3.9006	qopchy	-0.0190672
-3.60897	chkeey	-0.0308341
-3.5688	kshy	-0.0351767
-2.31718	cheey	-0.0836175
-3.47349	sheod	-0.0446011
-3.48128	cheeody	-0.0446011
-2.77144	otol	-0.125272
-3.9256	ety	-0.0190672
-2.22639	ar	-0.12327
-3.27148	kchey	-0.0489761
-4.75115	sorain
-2.99148	ytaiin	-0.0601614
-3.30499	okor	-0.0524036
-3.24017	ram
-2.36125	otar	-0.103177
-4.68236	otdy	-0.0108145
-2.32442	chdy	-0.0746759
-3.23495	tchol	-0.0524036
-3.43097	ytor	-0.0446011
-4.26668	qotcho	-0.0308341
-1.86115	qokaiin	-0.160795
-2.86055	ykaiin	-0.0780623
-3.49464	ytey	-0.0388223
-4.55701	toldy	-0.0108145
-4.482	soiin	-0.0538533
-2.57844	oky	-0.0983957
-2.41474	kaiin	-0.0886936
-3.0576	chkaiin	-0.058417
-2.9681	ody	-0.0538533
-3.11156	dchy	-0.058417
-3.41665	qokchol	-0.050788
-4.72688	qotchor	-0.0751583
-2.94831	otor	-0.0623186
-4.1666	paiin	-0.0351767
-3.47098	choiin	-0.0388223
-3.43097	qot	-0.0446011
-3.3464	qotchey	-0.0489761
-3.6584	shcthey	-0.0351767
-2.8765	ykeey	-0.0659333
-3.23495	ky	-0.0563477
-3.89096	shoiin	-0.0308341
-2.91101	shcthy	-0.0640646
-2.96812	choty	-0.0601614
-2.78806	dair	-0.100172
-4.01556	qokchor	-0.0419263
-3.65055	opchy	-0.0308341
-3.65886	sholdy	-0.0308341
-3.03379	sy	-0.0190672
-3.14054	ykchy	-0.0538533
-3.37552	ytchy	-0.04693
-3.14063	d	-0.0108145
-3.14063	oldy	-0.025573
-4.03154	doiin	-0.0388223
-3.78628	daldy	-0.0190672
-4.08624	yol	-0.025573
-3.49464	da	-0.025573
-2.89022	okol	-0.064575
-3.70924	ydaiin	-0.0489761
-3.172	olol	-0.0489761
-4.68236	ychol	-0.0489761
-3.65886	otcho	-0.0388223
-2.00552	chey	-0.163486
-3.2827	ty	-0.0489761
-4.74767	ychy	-0.025573
-3.56937	okshy	-0.0351767
-3.12381	chl	-0.0984268
-3.89096	ko	-0.0308341
-3.65711	shocthy	-0.0351767
-3.00299	tol	-0.0784494
-3.28233	chos	-0.0446011
-2.38176	raiin	-0.0950259
-3.37576	okeor	-0.04693
-3.55932	choy	-0.0419263
-3.2471	cholchol	-0.0524036
-3.20581	sor	-0.0784494
-3.72175	dshy	-0.0388223
-3.94404	daram
-3.24247	qor	-0.0593248
-4.1666	ychekchy	-0.0190672
-3.35691	qody	-0.0419263
-4.75115	ksheo	-0.0190672
-3.2827	os	-0.0489761
-2.9771	olor	-0.058417
-3.49351	okeeol	-0.0419263
-2.89354	okeol	-0.0635208
-3.16561	she	-0.0563477
-3.53903	cheeor	-0.0351767
-3.11138	qoaiin	-0.0593248
-3.08397	shecthy	-0.0574284
-3.56903	keeor	-0.0388223
-3.37576	cheeol	-0.04693
-3.63761	ctheey	-0.0388223
-3.48313	ytol	-0.0419263
-3.56903	cthal	-0.0351767
-4.19271	ykcho	-0.0190672
-2.2749	qol	-0.307208
-3.49464	om	-0.0108145
-2.99804	ykar	-0.0609348
-3.16559	okchor	-0.0551614
-3.79274	qotchyqokchy	-0.0308341
-3.82103	pchor	-0.050788
-3.0001	y	-0.0563477
-3.24251	cthar	-0.0489761
-4.33137	ykchor	-0.025573
-3.77188	ykchol	-0.0308341
-3.20581	cthody	-0.0489761
-2.86897	qoteey	-0.0913101
-3.65721	tcheo	-0.0419263
-3.86688	cphy	-0.0308341
-3.89063	*	-0.0388223
-4.73118	pchodaiin	-0.0308341
-3.01912	choky	-0.0772682
-3.77188	sos	-0.0190672
-3.13552	kchol	-0.117865
-4.75115	tshol	-0.0351767
-3.89584	chcphy	-0.0190672
-3.78259	cheockhy	-0.0308341
-3.65886	shos	-0.0351767
-3.05778	cheos	-0.058417
-3.41548	keody	-0.0446011
-3.77188	shd	-0.0308341
-2.78428	keey	-0.0785029
-4.72396	qocthey	-0.0190672
-3.71825	keor	-0.0388223
-4.49883	tcho	-0.0388223
-3.56892	sheaiin	-0.0718649
-3.92613	dykaiin	-0.025573
-3.56892	chotaiin	-0.0308341
-3.65886	oldam
-3.86438	teeol	-0.025573
-4.75115	ychky	-0.0108145
-2.03442	qokeey	-0.143884
-3.92527	ykor	-0.025573
-2.45523	okar	-0.120303
-4.55701	olchar	-0.0190672
-4.75224	ykain	-0.0190672
-3.77225	otshy	-0.0308341
-3.28252	l	-0.04693
-3.0583	chees	-0.058417
-3.65886	m
-3.77165	qodar	-0.0308341
-3.15869	qokeol	-0.0984268
-2.63555	qokain	-0.120367
-3.66711	qod	-0.0190672
-3.56903	sham	-0.0190672
-3.63227	sam	-0.0190672
-3.6595	shod	-0.0419263
-3.48606	ckhor	-0.0419263
-3.46278	okcho	-0.0419263
-3.75103	sh	-0.0351767
-4.75115	ycheol	-0.0762555
-4.5311	dshey	-0.04693
-3.35953	ckhol	-0.0446011
-3.71155	chokeey	-0.0308341
-3.23488	oaiin	-0.0920099
-3.38003	cthedy	-0.0747924
-3.37597	aldy	-0.0190672
-3.40838	rchedy	-0.0446011
-2.0777	qokedy	-0.165093
-2.92818	sheo	-0.0635208
-2.02012	qokeedy	-0.155982
-4.10715	deedy	-0.0190672
-2.47393	okedy	-0.142052
-2.83493	shdy	-0.0780623
-1.84589	chedy	-0.171693
-3.27267	ytedy	-0.0757679
-4.08855	deey	-0.0108145
-3.49326	chekaiin	-0.0388223
-3.56903	ytchdy	-0.0351767
-2.95011	pchedy	-0.0783931
-3.24273	sair	-0.0574284
-3.43016	tchedy	-0.0635208
-3.01091	keol	-0.0601614
-2.47052	qokey	-0.106864
-3.54808	ly
-3.03386	tchey	-0.0593248
-4.00664	shes	-0.0190672
-4.75115	otchodeey
-3.37597	chkar	-0.04693
-3.78475	dsho	-0.0388223
-3.89096	chtol	-0.025573
-3.07878	okam	-0.0308341
-4.52948	ytchol	-0.0190672
-3.755	chep	-0.0351767
-3.74728	chyty	-0.0351767
-3.37561	octhy	-0.108398
-2.96812	sheky	-0.0616519
-3.37568	kor	-0.04693
-4.55701	kooiin	-0.0190672
-4.50739	schol	-0.0190672
-3.11091	dary	-0.0351767
-2.83184	otey	-0.0904083
-4.75115	ysho	-0.025573
-4.75115	cthodshody
-3.77225	chokor	-0.0308341
-3.54751	rchey	-0.0388223
-3.3589	ckhey	-0.0489761
-3.65886	shosaiin	-0.0351767
-3.85844	qokeeor	-0.0308341
-2.91096	sol	-0.126475
-3.74728	kchody	-0.0190672
-3.67627	qofchedy	-0.0351767
-3.43031	shee	-0.0738919
-4.16569	ycheey	-0.0601614
-3.65459	qokeor	-0.0351767
-2.49761	qotedy	-0.097642
-3.37576	checkhey	-0.04693
-2.51685	sheol	-0.0730208
-3.17966	ldy	-0.0308341
-1.85898	shedy	-0.181469
-3.20581	qokeody	-0.0538533
-2.38186	cheol	-0.0846038
-2.94439	checthy	-0.0773932
-3.43119	daiir	-0.0419263
-4.55701	yches	-0.0190672
-2.72523	chedaiin	-0.0680607
-4.73118	olsheor	-0.0108145
-2.29601	okeey	-0.116543
-3.08303	kchdy	-0.0538533
-3.49464	shedal	-0.0388223
-2.76159	okey	-0.0674234
-2.98893	lkedy	-0.0773932
-2.76116	checkhy	-0.0691671
-2.77184	lchey	-0.0783339
-3.27357	ain	-0.050788
-4.1666	oldair	-0.0108145
-3.65928	qoar	-0.0351767
-3.00058	rol	-0.0601614
-3.3674	shal	-0.0446011
-3.53148	ksho	-0.0419263
-2.67067	cheky	-0.078776
-3.49464	okaldy	-0.025573
-3.37576	qokaldy	-0.0419263
-4.10236	oldar	-0.025573
-3.20581	chdal	-0.0551614
-4.07902	chekey	-0.025573
-2.75308	cheedy	-0.0976235
-3.77266	yteey	-0.0446011
-3.49464	chekar	-0.0738919
-4.75115	ycheo	-0.132794
-4.31586	okary
-2.41212	okeedy	-0.114692
-3.45751	okaly	-0.0351767
-2.37661	qokar	-0.126444
-4.33137	kechdy	-0.0190672
-2.77044	qokchdy	-0.0680607
-3.16148	tal	-0.0538533
-3.28246	chdaiin	-0.075481
-3.5688	ytal	-0.0388223
-3.62299	chekal	-0.0718649
-3.56903	qokedar	-0.0419263
-3.56903	qokees	-0.0388223
-2.68955	kedy	-0.0789555
-4.75115	ysheos	-0.0108145
-4.55546	lsheody	-0.0190672
-2.61313	keedy	-0.0930399
-3.77225	dchaiin	-0.0308341
-4.55546	qokoiin	-0.0308341
-3.56903	od	-0.0308341
-3.56903	ykeol	-0.0351767
-4.75115	sodaiin	-0.0190672
-3.2827	tor	-0.0563477
-2.90878	chckhey	-0.0650548
-3.5075	ytar	-0.050788
-3.56903	chd	-0.0308341
-4.33651	ykchody	-0.0190672
-4.75115	sotoiiin
-3.30725	key	-0.04693
-3.49464	oiin	-0.0419263
-3.74519	qokeedar	-0.0351767
-2.7503	olaiin	-0.0785538
-3.77225	dchdy	-0.0308341
-2.31368	lchedy	-0.0989743
-3.49464	odal	-0.0419263
-4.74767	pchdar	-0.025573
-3.39854	ykal	-0.0524036
-2.63132	olkaiin	-0.106237
-4.75115	tolchdaiin	-0.0108145
-2.35064	otedy	-0.123663
-2.66053	shckhy	-0.079018
-4.08507	chdam
-2.94705	qokam	-0.025573
-3.28279	olky	-0.0489761
-2.96805	okain	-0.0773932
-3.37568	ykedy	-0.04693
-3.22837	aly	-0.0308341
-3.77225	sarol	-0.0308341
-3.77188	ockhedy	-0.025573
-4.70505	okoldy	-0.0108145
-4.16684	qokchd	-0.0190672
-2.5955	oraiin	-0.0880975
-4.75115	yaiin	-0.0708886
-3.05819	okair	-0.0593248
-3.45857	aram	-0.025573
-4.74767	qoeedaiin	-0.0108145
-3.53393	pchdy	-0.0419263
-4.75115	schedy	-0.0388223
-3.56903	arody	-0.0190672
-3.88442	qokeed	-0.0351767
-2.45029	oteey	-0.0963255
-4.14762	polchedy	-0.0388223
-3.172	yteedy	-0.0947953
-3.77225	qoked	-0.0308341
-3.13144	ykeedy	-0.0574284
-4.75115	teerodal
-4.52715	pcheody	-0.0190672
-2.7178	qotal	-0.133472
-3.56903	dshedy	-0.0909916
-3.30491	oteody	-0.0489761
-3.82601	chetaiin	-0.025573
-4.33651	sodal	-0.025573
-3.92613	schor	-0.025573
-3.11099	cheal	-0.0574284
-3.24184	aral	-0.0419263
-3.46581	chky	-0.0388223
-2.64377	qotar	-0.0879405
-3.56903	ytam	-0.0308341
-4.08413	odain	-0.0108145
-3.74728	ytchedy	-0.04693
-3.28167	okeody	-0.0489761
-3.92613	qocthedy	-0.025573
-2.8297	qokchedy	-0.0655068
-3.75561	okedal	-0.0351767
-2.79631	tedy	-0.0674234
-3.56929	ockhy	-0.0190672
-4.55701	toy	-0.0190672
-3.16559	daly	-0.0446011
-4.42394	oain	-0.0308341
-2.80128	lol	-0.0616519
-3.37576	lo	-0.0190672
-2.7742	kal	-0.0782715
-4.55701	ychey	-0.0351767
-3.24184	teol	-0.0760246
-4.22919	chaiinchcthyctho	-0.0190672
-3.77011	lchor	-0.0308341
-3.20581	kair	-0.0551614
-3.41958	qockhy	-0.0446011
-4.10715	ykcheor	-0.025573
-3.2827	shky	-0.0446011
-4.16014	ypchedy	-0.0190672
-2.64073	sheedy	-0.111783
-4.74767	dsheol	-0.0351767
-3.77188	cthdy	-0.0190672
-3.31753	chkal	-0.050788
-3.37371	qopchdy	-0.0747924
-3.14086	shear	-0.0563477
-3.60136	chckhdy	-0.0308341
-3.60717	dchedy	-0.0593248
-3.30127	ched	-0.0489761
-3.92308	chokchol	-0.025573
-3.35878	chety	-0.04693
-2.98893	shed	-0.0772682
-3.85474	fchedy	-0.0308341
-4.75224	taly	-0.0108145
-2.81195	sheor	-0.101756
-4.1666	qocho	-0.0190672
-4.75115	f
-3.22759	o	-0.0446011
-4.75115	k	-0.0108145
-2.8299	r	-0.152549
-4.75115	p
-4.75115	{label
-4.75115	"{label
-3.14063	tchdy	-0.0551614
-3.17004	ary	-0.025573
-3.43114	qokaly	-0.0419263
-3.7478	kody	-0.025573
-3.48128	tair	-0.0446011
-4.10236	tedaiin	-0.0351767
-3.92527	aky	-0.0108145
-3.65685	olchdy	-0.0308341
-3.6229	qockhey	-0.0446011
-3.63951	qodal	-0.0388223
-4.75115	kodaiin	-0.0108145
-2.77831	sal	-0.0779841
-2.87673	otchey	-0.0650548
-4.73118	ysheey	-0.0419263
-4.74767	todaiin	-0.025573
-3.55323	sheos	-0.0419263
-4.75115	podaiin	-0.025573
-3.80406	kaldy	-0.0190672
-2.86062	air	-0.0650548
-4.75115	yar	-0.025573
-3.50363	saiin	-0.0419263
-2.24613	qokal	-0.169292
-3.56739	orol	-0.0308341
-3.77279	olkam	-0.0108145
-3.49492	olkar	-0.0419263
-3.32664	qokeeody	-0.04693
-3.49464	kam	-0.0190672
-4.54365	olkeechy	-0.0190672
-4.73118	chokchey	-0.0108145
-2.72519	chal	-0.0683568
-4.75115	tchoky	-0.0190672
-4.12557	kcheey	-0.025573
-3.65858	alam	-0.0108145
-3.43114	cheam	-0.025573
-3.49464	orar	-0.025573
-4.75115	{7pt
-3.65858	qotaly	-0.0351767
-4.01453	olkeol	-0.025573
-3.55308	okeal	-0.0419263
-4.75115	{8pt
-3.56903	alom	-0.0108145
-3.92613	okalor	-0.0190672
-3.7049	chokal	-0.0351767
-4.51718	rary
-4.75115	rals
-4.75115	syly
-4.75115	salf
-4.75115	fary
-4.75115	qotesy
-4.74767	ykaly
-4.56242	doly	-0.0108145
-4.75115	qols*
-3.9256	raral	-0.0190672
-4.75115	x
-4.75115	e
-4.75115	t
-2.47506	oteedy	-0.0794728
-3.24263	cheeky	-0.0551614
-4.75115	psheody	-0.0308341
-3.49464	chcthedy	-0.0419263
-4.10715	sshedy	-0.0351767
-3.69642	chckhedy	-0.0308341
-4.50855	dcheol	-0.0419263
-3.22131	otchdy	-0.0538533
-2.82698	lshedy	-0.0667181
-3.77225	ldaiin	-0.025573
-2.83026	lkeedy	-0.0650548
-3.70558	chty	-0.025573
-3.28183	qotchdy	-0.0751583
-3.9256	opaiin	-0.025573
-3.5688	tey	-0.0388223
-3.08353	kchedy	-0.058417
-3.24263	ror	-0.0747924
-3.71081	pchey	-0.0351767
-4.75115	{skipped
-3.05778	olshedy	-0.0551614
-3.30554	okchdy	-0.04693
-3.32664	qokshedy	-0.0489761
-2.78066	lor	-0.171842
-3.65886	olkain	-0.0308341
-3.01082	olkedy	-0.058417
-3.92613	rshed	-0.0190672
-2.53004	qoteedy	-0.0793133
-4.75115	q
-4.75115	o{label
-3.37568	opchdy	-0.0446011
-4.75115	yshey	-0.0489761
-3.77225	aiiny
-3.05295	qopchedy	-0.0769869
-3.9256	lkain	-0.025573
-3.48128	qolchey	-0.0446011
-3.20581	sheeky	-0.0757679
-3.89063	lkey	-0.025573
-3.10532	lshey	-0.058417
-3.07094	opchedy	-0.0960541
-4.55435	qokas	-0.0190672
-3.33046	alol	-0.0446011
-2.48897	lkaiin	-0.0727915
-2.91888	lkar	-0.0629401
-4.75115	polarar	-0.025573
-4.54368	ochedy	-0.0108145
-3.92613	shedam	-0.0190672
-3.77225	checthey	-0.025573
-2.89353	olkeey	-0.0782715
-3.204	otchedy	-0.0762555
-2.9771	olchedy	-0.0947953
-3.20581	chdar	-0.0524036
-3.55323	lcheedy	-0.0419263
-4.05513	lal	-0.0308341
-3.32651	olshey	-0.0446011
-3.56903	ro	-0.0190672
-4.54365	dshol	-0.0190672
-3.56903	shckhedy	-0.0308341
-3.20522	teey	-0.0760246
-4.5006	aiiin	-0.0190672
-3.32664	dl	-0.0718649
-4.75115	sshey	-0.025573
-3.77188	pol	-0.0609348
-3.12394	shedaiin	-0.0563477
-3.55323	sheety	-0.0419263
-3.77011	lsheey	-0.0388223
-3.18022	laiin	-0.0551614
-3.56903	qotain	-0.0351767
-3.27161	sheal	-0.0524036
-3.98428	sheoky	-0.025573
-4.75115	solchedy	-0.0190672
-3.86888	cheety	-0.0351767
-4.75115	teaeolain	-0.0108145
-3.19889	qoeedy	-0.0551614
-3.89096	daiiin	-0.0308341
-3.48128	arol	-0.0419263
-3.77225	qokear	-0.0308341
-3.77225	sodar	-0.025573
-3.01082	qokeeey	-0.0772682
-3.67899	teedy	-0.0419263
-3.55336	chs	-0.0388223
-4.10715	lam
-3.14063	ral	-0.050788
-4.16569	tshedy	-0.104566
-4.10715	ychedy	-0.0446011
-4.75115	tshedar	-0.025573
-4.55701	qckhedy	-0.0190672
-4.75115	yched	-0.0190672
-3.56937	ls	-0.025573
-3.81144	chckhal	-0.025573
-3.9589	ofchedy	-0.025573
-2.91407	sheckhy	-0.0635208
-4.75115	dchedaly
-3.49464	olchy	-0.0308341
-4.75115	dchokol	-0.0108145
-4.75115	qolkeshdy	-0.0108145
-3.76997	lcheol	-0.0308341
-3.31772	lchdy	-0.0388223
-3.77225	olshdy	-0.025573
-3.89096	kshdy	-0.025573
-3.24247	ory	-0.0308341
-3.92308	otalor	-0.0190672
-4.55701	toraiin	-0.0190672
-3.7446	sheeol	-0.0351767
-4.55701	qoteesy	-0.0190672
-3.53806	qokl	-0.0446011
-4.15395	okshey	-0.0190672
-4.75115	polaiin	-0.0388223
-3.65928	okchd	-0.0351767
-3.38003	olkal	-0.0388223
-3.89096	yshedy	-0.075481
-3.35149	lkchedy	-0.0489761
-3.92613	lcheam
-4.75115	ycheckhey	-0.0108145
-3.01082	qotey	-0.0616519
-3.49351	olcheey	-0.0419263
-2.90868	olkeedy	-0.064575
-3.6584	oram
-3.77225	qoly	-0.0108145
-3.43114	aror	-0.0351767
-4.32924	opar	-0.0190672
-3.14049	okchedy	-0.0762555
-3.28252	qokair	-0.050788
-4.75115	akeedy	-0.0108145
-4.73118	olteedy	-0.0108145
-4.42305	kain	-0.025573
-4.54365	saly	-0.0108145
-3.77188	olcheol	-0.0351767
-4.75115	solkaiin	-0.025573
-4.74549	lom
-3.77011	lchy	-0.0190672
-3.43139	olar	-0.0419263
-4.75115	polchey	-0.0190672
-4.42394	chcphey	-0.0190672
-3.37576	ry	-0.0108145
-3.92308	qokechedy	-0.0190672
-3.77225	olam
-4.1666	ysheedy	-0.0351767
-3.56903	shek	-0.0388223
-4.10834	akaiin	-0.025573
-3.20906	lky	-0.0524036
-4.16097	cphedy	-0.0108145
-4.75115	solkeey	-0.025573
-4.75115	lsho	-0.0190672
-3.81265	shoky	-0.0308341
-3.74728	rshedy	-0.0351767
-3.9224	otshedy	-0.0108145
-3.57573	otaly	-0.0308341
-4.75115	dsheey	-0.0388223
-4.12769	dcheo	-0.025573
-4.75115	solkeedy	-0.025573
-4.10715	sokeedy	-0.0708886
-4.16569	soraiin	-0.0308341
-4.75224	pchol	-0.0388223
-2.98893	rar	-0.0593248
-4.55546	arar	-0.0108145
-3.63932	okedar	-0.0351767
-4.55546	otedaiin	-0.0190672
-3.74728	okechy	-0.0308341
-4.1666	qokeer	-0.0190672
-4.33651	otes	-0.0190672
-4.75115	ydairol
-4.73118	ychckhy
-4.75115	solchey
-4.75115	dairoldy
-4.75115	dorchy	-0.0108145
-4.16569	qckhy	-0.0108145
-4.33433	cheory	-0.0108145
-4.16569	saraiin	-0.0419263
-4.74767	tockhy	-0.0190672
-3.63951	qok	-0.0388223
-3.37597	cheodaiin	-0.10634
-4.01556	olkees	-0.025573
-4.75115	dchos	-0.025573
-3.56903	oar	-0.0308341
-4.74767	pchedar	-0.0388223
-4.16569	oteedaiin	-0.0108145
-3.80306	tam	-0.0108145
-4.54365	dshdy	-0.0190672
-4.74767	ycheeo	-0.0733289
-3.89096	lkeol	-0.0308341
-4.1666	toky	-0.0108145
-4.19373	pchedaiin	-0.025573
-4.73118	dcheor
-3.34058	odar	-0.0446011
-4.75115	soral	-0.0190672
-4.50855	pchedal	-0.0308341
-3.20581	qokechy	-0.0757679
-3.24186	araiin	-0.050788
-2.98472	chedal	-0.109584
-3.92308	qokeo	-0.025573
-4.45022	lokeedy
-4.12769	tshey	-0.0308341
-3.65886	lraiin	-0.0351767
-4.42394	oshedy	-0.025573
-3.5691	lar	-0.025573
-3.63951	olkeeey	-0.0388223
-2.81512	lkeey	-0.0667181
-4.54155	lteedy	-0.0108145
-3.37576	oteeo	-0.04693
-3.56903	chedam	-0.0190672
-3.92613	**	-0.0190672
-3.37576	qotam	-0.0308341
-2.91101	chedar	-0.0635208
-4.19463	cheedar	-0.0190672
-4.44557	pchdaiin	-0.0190672
-4.75115	ychedaiin	-0.025573
-3.24251	cheeo	-0.0757679
-3.77279	qotched	-0.0308341
-3.68584	qoeey	-0.0351767
-3.14054	chokaiin	-0.0563477
-3.49464	keeey	-0.0419263
-3.65928	okeeedy	-0.0351767
-3.27428	okeeey	-0.0489761
-3.2416	otair	-0.0524036
-3.3609	lcheey	-0.0489761
-3.6464	lkl	-0.0388223
-3.65886	ail	-0.0351767
-4.42394	ykeeo	-0.0351767
-3.65886	alkaiin	-0.0351767
-3.43114	keeo	-0.0446011
-4.56167	aiir	-0.025573
-3.49492	sheeo	-0.0419263
-3.6584	chotar	-0.0351767
-3.56903	chodar	-0.025573
-3.9256	lkshedy	-0.025573
-5.00777	qotarshedy	-0.0190672
-3.77225	chodal	-0.025573
-3.77011	shockhy	-0.0308341
-4.18846	otedar	-0.0190672
-3.56719	opal	-0.0351767
-3.43114	okeeo	-0.04693
-3.7049	oteed	-0.0351767
-4.09605	ycheedy	-0.025573
-4.12109	teeody	-0.0190672
-4.10715	otaram
-4.75115	ycheaiin	-0.0190672
-4.55546	ykchedy	-0.0190672
-3.65886	lkal	-0.0308341
-3.6495	chdor	-0.0351767
-4.75115	solaiin	-0.0190672
-4.75115	poraiin	-0.0308341
-4.10237	oteal	-0.025573
-3.77237	raraiin	-0.025573
-3.77952	alaiin	-0.0190672
-4.74549	ykeeol	-0.0308341
-4.1666	solkedy	-0.0190672
-3.65721	sheed	-0.0351767
-3.56903	okedaiin	-0.0733289
-3.63951	lkeeey	-0.0351767
-4.43883	ees	-0.0108145
-3.63951	qokedaiin	-0.0388223
-4.74767	lcheal	-0.0190672
-3.92613	eeedy	-0.025573
-4.33436	keeedy	-0.0190672
-4.1666	qoeeo	-0.0190672
-4.75635	dairal	-0.0190672
-3.92241	shekchy	-0.025573
-3.65886	chtal	-0.0351767
-3.92613	par	-0.025573
-3.76997	qopchey	-0.0308341
-4.1666	polar	-0.025573
-3.44004	qotalshedy	-0.0419263
-4.54155	teeedy	-0.0190672
-3.65886	qoteo	-0.0351767
-3.02795	qotchedy	-0.0601614
-3.74728	chcthey	-0.0308341
-4.12647	qeey	-0.025573
-4.05586	cheom	-0.0108145
-3.89096	lkeeody	-0.0308341
-4.33651	ychedal	-0.0190672
-3.63967	lkchey	-0.0388223
-3.89126	okeeody	-0.0308341
-3.56769	qotody	-0.0351767
-3.77225	cheaiin	-0.025573
-3.92613	oloiin	-0.0190672
-3.92241	cheedaiin	-0.025573
-4.75115	tedcheo	-0.0108145
-4.10715	cheocthy	-0.025573
-3.92629	keeody	-0.025573
-4.1666	oqokaiin	-0.0190672
-4.75115	*asor	-0.0108145
-4.75635	chochy	-0.0108145
-4.74767	dchodaiin	-0.0108145
-4.68236	dolar
-4.75115	tchalydaiin
-4.55701	*chor	-0.069668
-4.55701	okea	-0.0190672
-3.92613	okeshy	-0.025573
-4.52643	dals
-4.44557	pair	-0.0108145
-3.92613	shekal	-0.025573
-4.75115	chtain
-4.75115	pcho	-0.0308341
-3.7478	cphey	-0.0308341
-3.83234	olkey	-0.0190672
-4.10236	qoto	-0.025573
-4.1666	kchdal	-0.0108145
-4.75115	chotchol	-0.0190672
-4.75224	qoteeey	-0.0108145
-3.88805	ochey	-0.0308341
-4.75115	dalshedy	-0.0108145
-3.77011	lsheedy	-0.0308341
-4.1666	qotshedy	-0.0190672
-3.80744	oshey	-0.0308341
-3.21065	aral	-0.050788
-4.10834	kshey	-0.025573
-4.1666	dys
-3.89096	chtaiin	-0.0308341
-4.73118	qoeeey	-0.0108145
-3.92613	pcheo	-0.025573
-4.18631	oteeol	-0.0190672
-3.56903	qoy	-0.0351767
-4.75115	ykedar	-0.0108145
-4.75115	paroraiin	-0.0108145
-4.75115	odys
-4.55701	tchedor	-0.0190672
-4.75115	teedal	-0.0108145
-4.16569	charam	-0.0190672
-4.75115	dcheos	-0.0108145
-5.00278	aiinchll	-0.0190672
-4.75115	otcholo	-0.0108145
-4.75115	toar	-0.0190672
-4.10834	cphar	-0.025573
-4.55701	olom
-3.77225	ckhdy	-0.0308341
-4.75115	olsheol	-0.0190672
-4.1666	olchdaiin	-0.0190672
-3.9269	chkol	-0.025573
-4.75115	todar	-0.0190672
-4.75115	odchy	-0.0108145
-4.75115	sokchol	-0.0108145
-3.65886	loly	-0.0190672
-4.1666	rorol	-0.0108145
-4.10658	shedar	-0.0190672
-3.52244	sheedyqokeedy	-0.0419263
-3.92613	ockhey	-0.025573
-3.96021	ykeeyokeey	-0.025573
-3.92613	raly	-0.0190672
-4.55701	yshor	-0.0190672
-4.64752	qoteeody	-0.0108145
-4.75635	an
-4.75115	ysheed	-0.0108145
-4.75224	olkeeody	-0.0108145
-4.75115	soleedy
-4.33651	foar	-0.0190672
-4.99897	qotchyqotor	-0.0108145
-4.10715	cheekaiin	-0.025573
-4.75115	yokeey	-0.0190672
-4.50855	lory	-0.0108145
-4.75115	pchair	-0.0108145
-4.74767	schy	-0.0108145
-4.75115	dchckheedy	-0.0108145
-4.55701	lolkaiin	-0.0190672
-4.75115	dcheeol	-0.0108145
-3.92613	tcheol	-0.025573
-4.73118	pshol	-0.0108145
-4.08899	qoteed	-0.0190672
-4.1666	tokaiin	-0.0190672
-4.16866	otear	-0.0190672
-4.75115	alchd
-4.1666	olcheo	-0.0190672
-4.75115	olkeeal	-0.0108145
-4.75115	todky	-0.0108145
-4.75115	dyair	-0.0108145
-4.75115	dcheeody	-0.0108145
-4.7319	otarar	-0.0108145
-4.75635	lrar
-4.54155	chod	-0.0190672
-4.75115	qokorar	-0.0108145
-4.74767	oeeey	-0.0108145
-4.55701	saiir	-0.0190672
-4.33651	ytydy	-0.0190672
-4.10715	pchdair	-0.0718649
-4.75115	alkeody
-4.75224	lodaiin	-0.0108145
-4.75115	qokeeylshedy	-0.0108145
-4.75115	olsheed	-0.0108145
-3.71175	choly	-0.0308341
-4.75115	dalchey	-0.0108145
-4.75115	toldal	-0.0108145
-4.75115	qokesdy	-0.0108145
-4.75115	schedair	-0.0108145
-4.49883	olched	-0.0190672
-5.05055	ychtaiisainchy	-0.0108145
-4.75115	dshes	-0.0108145
-4.16795	shtchy	-0.0190672
-4.42394	lkechy	-0.025573
-4.50855	ch	-0.0190672
-4.75115	ykeoeshy	-0.0108145
-4.75115	tchodair	-0.0108145
-4.52944	olal	-0.0108145
-4.75115	osheol	-0.0108145
-4.75115	dorchoryshor	-0.0108145
-4.42394	opchor	-0.025573
-4.55701	dchdar	-0.0190672
-3.65928	dalor	-0.0351767
-4.16132	qokdy	-0.0190672
-4.22634	tshorshey	-0.0190672
-4.07401	lchar	-0.0190672
-4.73418	osal	-0.0108145
-4.74767	o*y
-4.14762	oltaiin	-0.0190672
-4.75115	ylor	-0.0108145
-4.55701	qockhol	-0.0190672
-3.75646	choldy	-0.0308341
-4.56031	olsheey	-0.0190672
-3.92308	dsheedy	-0.025573
-3.92613	lkeeo	-0.025573
-4.10236	lkeeedy	-0.025573
-4.75115	soar	-0.0108145
-4.55701	chkain	-0.0108145
-4.70505	dshor	-0.0351767
-5.05031	pykydalshackhy	-0.0108145
-4.10715	qoko	-0.025573
-4.16569	qool	-0.0190672
-4.75115	qotes	-0.0190672
-4.55701	qotees	-0.0190672
-4.55701	shekedy	-0.0190672
-4.55701	chls	-0.0108145
-4.55701	lcheod	-0.0190672
-4.44557	ysheody	-0.0108145
-4.75115	pyoaly	-0.0108145
-3.89274	oteor	-0.025573
-4.75115	lls
-3.89096	lr	-0.0108145
-4.75115	chorar
-4.1666	oleed
-4.55546	ykey	-0.0190672
-4.75115	dytchor	-0.0108145
-4.55701	yteody	-0.0190672
-4.55687	shety	-0.0190672
-4.16569	chealy
-3.9026	olkchy	-0.0308341
-4.55701	scho	-0.0190672
-4.75115	okool	-0.0108145
-4.75115	pychal	-0.0108145
-4.73118	alkain
-4.70949	pcheor	-0.0108145
-4.64752	alor	-0.0108145
-4.75115	osh*o	-0.0108145
-3.7044	oteeey	-0.0351767
-4.75115	kchdpy	-0.0108145
-4.1666	cthory
-4.67796	qotchody
-4.55546	chok	-0.0190672
-4.75115	okchesy	-0.0108145
-4.21952	chdamqokam
-4.73118	pshdar	-0.0108145
-4.75115	chyqokey	-0.0108145
-4.75115	otsho	-0.0108145
-4.75115	kady
-4.73118	oin	-0.0108145
-3.77011	chary
-4.75115	o*	-0.0108145
-4.1666	pal	-0.025573
-4.55701	opchar	-0.0190672
-3.92308	chokar	-0.025573
-3.92613	otaral	-0.0108145
-3.92613	okedam	-0.0108145
-4.56167	qoteol	-0.0190672
-4.75115	ralchs
-4.75115	chd*iin	-0.0108145
-4.75115	sokaiin	-0.0108145
-4.1666	ycho	-0.0190672
-4.73118	chokchaiin
-4.1666	sholaiin	-0.0190672
-4.33651	yckhey	-0.0108145
-4.75115	yoraiin	-0.0108145
-4.54365	chaly	-0.0190672
-4.55701	yksheol	-0.0190672
-4.1666	kas	-0.0190672
-4.75115	tolkey	-0.0108145
-4.75115	cheekan	-0.0108145
-4.75115	qokea	-0.0108145
-4.21178	cheeos	-0.025573
-3.65721	cphor	-0.0351767
-4.55701	darar	-0.0190672
-4.1666	chkaly	-0.0190672
-3.80406	otary	-0.025573
-4.10236	ksheody	-0.025573
-4.75115	ssheky	-0.0108145
-4.73118	dyky
-4.75115	atchey	-0.0108145
-4.75115	pchoror	-0.0108145
-4.09259	qokeechy	-0.025573
-4.70104	keo	-0.0108145
-4.75115	ychkl	-0.0108145
-4.75224	dady
-4.55701	ochedaiin	-0.0190672
-4.75115	dched	-0.0190672
-4.74943	ltedy
-3.65858	qoiin	-0.0351767
-4.74767	ksheeol	-0.0108145
-4.75115	een
-4.75115	oeeesoy	-0.0108145
-3.92613	chcfhey	-0.025573
-3.65928	olkeeo	-0.0351767
-4.75115	kcholy
-4.75115	qoteees	-0.0108145
-4.55701	ltaiin	-0.0190672
-3.77279	qochey	-0.0718649
-4.75115	rtaiin	-0.0108145
-4.33651	qot***	-0.0190672
-4.1666	lchm
-4.75115	teodeey	-0.0108145
-4.74767	raram
-4.75115	shekshy	-0.0108145
-5.05055	teodarodyopcheed	-0.0108145
-4.75115	jsheo	-0.0108145
-3.9269	pchody	-0.025573
-4.75115	diin	-0.0108145
-3.49464	shees	-0.0419263
-4.75115	chckhan
-4.75115	ochoaiin	-0.0108145
-4.73118	ychody	-0.0108145
-4.73118	che*dy	-0.0108145
-3.92613	qopshedy	-0.0308341
-3.77188	ckheey	-0.025573
-4.75115	okcheochy	-0.0108145
-4.55701	lldy
-4.21645	qokaiindalam
-4.55701	chckhody	-0.0190672
-4.75115	chotair	-0.0108145
-4.75115	oeeen	-0.0108145
-3.8326	chain	-0.0308341
-4.75115	tch
-4.75115	yto	-0.0108145
-4.75115	ordain	-0.0108145
-4.1666	chekeey	-0.0190672
-4.75909	qolain	-0.0108145
-4.73118	sheekchy	-0.0108145
-4.75115	shedol	-0.0108145
-3.92613	shtal	-0.025573
-4.75115	darokeey	-0.0108145
-4.73118	ychaiin	-0.0108145
-3.9269	qotshdy	-0.025573
-4.75115	okeeyl	-0.0108145
-4.74767	ctham
-4.21683	chedylkam	-0.0108145
-4.1666	qaiin	-0.0190672
-4.09025	chom
-4.56036	okoiin	-0.0190672
-4.1666	qocthol	-0.0190672
-3.9256	chek	-0.025573
-4.33651	qotchod	-0.0108145
-4.75115	dcholdar
-4.75115	dasam
-4.75115	toees	-0.0108145
-4.75115	ochol	-0.025573
-4.75115	ydees	-0.0108145
-4.1666	chsdy	-0.0190672
-4.75115	qokchsdy	-0.0108145
-4.75115	sokcheed	-0.0108145
-4.75115	qepchedy	-0.0108145
-4.75115	qopalor
-4.16512	daiim	-0.0108145
-4.55701	odol	-0.0190672
-4.12769	ykchdy	-0.025573
-4.75115	palar	-0.0108145
-4.75115	paraiin	-0.0108145
-4.75115	tchokedy	-0.0108145
-4.75115	yteeo	-0.0190672
-4.75115	qoeekaiin	-0.0108145
-4.75115	tcheodl	-0.0108145
-4.75115	koshet
-4.1066	dan
-4.5302	okoy	-0.0108145
-4.1666	ykoiin	-0.0190672
-4.75115	tchot	-0.0108145
-4.75115	dakar	-0.0108145
-4.55701	olkeshy	-0.0190672
-4.75115	qaloiin	-0.0108145
-4.55701	rory
-4.75115	qchey	-0.0108145
-4.55701	qopcheol	-0.0108145
-3.77279	qoteeo	-0.0308341
-4.1666	dcheedy	-0.0190672
-4.68236	otshol	-0.0108145
-4.75115	fchodees	-0.0108145
-4.55837	qopy	-0.0108145
-4.73118	ytodaiin	-0.0108145
-4.75115	ykeedal	-0.0108145
-3.65899	ols	-0.025573
-4.75115	tchos	-0.0108145
-4.75115	lkeeor	-0.0108145
-4.1666	ysheo	-0.0190672
-4.75115	tsheodl	-0.0108145
-4.75115	sokod	-0.0108145
-4.1666	cheeteey	-0.0190672
-4.69973	kchod	-0.0108145
-4.75115	xolshol	-0.0108145
-4.75115	okad	-0.0108145
-5.05359	ytchodysolaraly
-4.75115	okokaiin	-0.0108145
-4.10715	sheckhey	-0.025573
-3.92613	lkol	-0.025573
-4.75115	dshees	-0.0108145
-4.1666	lchedam
-4.75115	dym
-4.75115	yteedar	-0.0108145
-4.55546	chepy	-0.0190672
-3.58058	arar	-0.0388223
-4.75115	sacthy	-0.0108145
-4.75224	chckhaiin	-0.0108145
-4.75115	folchey	-0.0108145
-4.75115	pom	-0.0108145
-4.73118	sa	-0.0108145
-4.75115	tsheo	-0.0108145
-4.75115	polor	-0.0108145
-4.75115	dlar	-0.0108145
-4.75115	ochody	-0.0108145
-4.75115	ctheod	-0.0108145
-4.73118	fol	-0.0108145
-4.54155	doiir	-0.0190672
-4.75115	tolshso	-0.0108145
-5.05031	dkararals
-5.06775	dchytchyytorsotaiinqopchor	-0.0108145
-4.74767	dail	-0.0108145
-3.92613	daiiny
-4.75115	solcheol	-0.0108145
-4.75115	olshy	-0.0108145
-5.05055	ycheeoyqokecho	-0.0108145
-4.75115	qoedaiin	-0.0108145
-4.75115	alcheey	-0.0108145
-4.75115	ssheol	-0.0108145
-4.75115	qokeechey	-0.0108145
-4.73418	chkey	-0.0108145
-4.73118	dsheo	-0.0108145
-3.57312	dchey	-0.025573
-4.74767	dalchedy	-0.0108145
-4.75115	rosy
-4.5005	qodair	-0.0190672
-4.16015	shory
-4.75115	odchaiin	-0.0108145
-4.75115	pydchdom	-0.0108145
-5.05055	podairolodaiinly	-0.0108145
-4.75115	qoshy	-0.0108145
-4.75115	sairain	-0.0108145
-4.75115	odalar	-0.0108145
-3.89096	otaraiin	-0.025573
-4.75115	sshkchdy	-0.0108145
-4.75115	sheecthey	-0.0108145
-4.73118	lkeed	-0.0108145
-4.55701	chdaly
-4.75115	oeeedaiin	-0.0108145
-4.12503	okaral	-0.025573
-5.05055	polkiinchopaiin	-0.0108145
-4.75115	chokoishe	-0.0108145
-4.75115	dshoy	-0.0108145
-4.75115	oykchor	-0.0108145
-5.03053	odldsy	-0.0108145
-4.75115	qokeee	-0.0108145
-4.75115	qekeochor	-0.0108145
-5.05055	otychcthyytoryd
-4.75115	qoked*m
-4.75115	torchey	-0.0108145
-4.1666	sharam	-0.0108145
-4.55701	qekar	-0.0190672
-4.22692	qolkeedyqokedy	-0.0190672
-4.1666	sheodal	-0.0190672
-4.74767	pchodal	-0.0108145
-4.22689	olraiin	-0.0190672
-4.75115	chctham
-4.7439	alkeedy
-4.1666	teeo	-0.0190672
-4.56036	lshy	-0.0190672
-5.05055	qookoiiincheom	-0.0108145
-4.75115	oytor	-0.0108145
-4.75115	ychair	-0.0108145
-4.75115	qokshe	-0.0108145
-4.75115	pardy	-0.0108145
-4.73118	dydydy	-0.0108145
-4.16132	okchody	-0.0108145
-4.74767	polshy	-0.0108145
-4.75115	qkor	-0.0108145
-4.75115	psharol	-0.0108145
-4.75115	ochedar
-4.75115	pchear	-0.0108145
-3.89096	choaiin	-0.025573
-4.75115	ycheechy	-0.0108145
-4.75115	ycheoar	-0.0108145
-4.74767	ckhaiin	-0.0108145
-4.75115	oeeo	-0.0108145
-4.75115	yodaiin	-0.0108145
-4.16569	otchody	-0.0190672
-4.75115	ytch	-0.0108145
-4.55701	choar	-0.0190672
-4.55701	shokeey	-0.0190672
-4.72688	ycheoky	-0.0108145
-4.75115	ykcha	-0.0108145
-5.05055	chokcheokchal
-4.75115	dshodal	-0.0108145
-4.75115	dtor	-0.0108145
-3.92613	olain	-0.025573
-5.05055	otarodlshyorory
-4.12562	skaiin	-0.0190672
-4.06353	olo	-0.0190672
-4.2203	chkaiinshcthey	-0.0190672
-4.55701	oloraiin	-0.0108145
-4.75115	toaiin	-0.0108145
-4.73118	pcheodar	-0.0108145
-4.74767	okcheody	-0.0108145
-4.75115	sheockhedy	-0.0108145
-4.75115	pcholky	-0.0108145
-4.75115	chedky	-0.0108145
-4.24896	kechy	-0.025573
-5.05055	qoekcharcheas	-0.0108145
-4.0106	shoty	-0.025573
-4.75115	octhain	-0.0108145
-3.72673	chr	-0.0308341
-4.75115	ochaiin	-0.0108145
-4.75115	tcheain	-0.0108145
-4.75115	sseok	-0.0108145
-4.226	olosaiin	-0.0190672
-4.75115	shoqoky	-0.0108145
-4.75115	pochedy	-0.0190672
-4.75115	rcheald
-3.92613	teo	-0.025573
-4.75115	daroal	-0.0108145
-4.75115	cheataiin	-0.0108145
-4.55701	airol	-0.0108145
-4.75635	qoek	-0.0108145
-4.73118	oykeey	-0.0108145
-4.75115	ytchar	-0.0108145
-4.75115	rotcho	-0.0108145
-4.73118	ykeor	-0.0108145
-4.55701	daky	-0.0108145
-4.75115	deeol	-0.0108145
-4.75115	ykeedar	-0.0108145
-4.75115	chkalykedy	-0.0108145
-4.75115	qolydarady
-3.94151	chetey	-0.025573
-4.75115	qetedy	-0.0108145
-4.75115	qedy	-0.0108145
-5.05055	otchsdyokeshdy
-4.75115	ollom
-4.55701	dolchedy	-0.0190672
-4.75115	okiiny	-0.0108145
-4.73118	dcho	-0.0108145
-3.92613	qokshd	-0.0190672
-4.74549	ocheey	-0.0108145
-4.75115	otaiinodaly
-4.74943	charaiin
-5.05396	scheolchody	-0.0108145
-4.74767	cheokaiin	-0.0108145
-4.1666	qodchy	-0.0190672
-4.75115	ycheekeey	-0.0108145
-4.75115	otaldiin
-4.75115	dchairam	-0.0108145
-4.1666	okalchedy	-0.0190672
-3.92613	okeed	-0.025573
-4.75115	sorar	-0.0108145
-4.1666	dyty	-0.0190672
-4.75115	olkeeysheol	-0.0108145
-4.73418	otshdy	-0.0108145
-4.73418	qolchedy	-0.0108145
-5.06778	qcphedylchcphedyldar
-4.75115	poiin	-0.0108145
-4.33651	qoteor	-0.0190672
-4.55701	lkees	-0.0190672
-4.56036	lkechedy	-0.0190672
-4.75115	kshdaiin	-0.0108145
-4.75115	qotl	-0.0108145
-4.1666	qokaram
-5.05055	eeocheoy	-0.0108145
-3.92613	ochor	-0.0308341
-4.14762	okom	-0.0108145
-4.75115	olen	-0.0108145
-4.75115	ckhoy	-0.0108145
-4.75115	lokaiinshol	-0.0108145
-4.75115	oekor	-0.0108145
-5.05055	ykykadalory
-3.5688	keeol	-0.0388223
-4.34237	ykeody	-0.0108145
-4.75115	chocphor
-5.05055	chetysold*sh	-0.0108145
-4.1666	chdol	-0.0108145
-4.16015	okalal	-0.0190672
-4.1666	alchdy	-0.0108145
-5.06774	polshdalotedairopshedal	-0.0108145
-4.15123	shckhey	-0.0108145
-4.75115	sakaiin	-0.0108145
-4.7439	cthain	-0.0108145
-4.75115	*shey	-0.0108145
-4.5005	kl	-0.0190672
-4.16569	shecphy	-0.0190672
-4.75115	ycheodaiin	-0.0108145
-4.75115	oekey	-0.0108145
-4.75115	olchaiin	-0.0108145
-4.75115	dardyr
-3.77235	orair	-0.0308341
-4.75115	kechedy	-0.0108145
-5.05071	ysheeolos	-0.0108145
-4.75115	choldar	-0.0108145
-4.75115	chshoty	-0.0108145
-4.73118	ytshy	-0.0108145
-4.22747	dchokchy	-0.0190672
-3.9256	oro	-0.0190672
-4.74767	qotchar	-0.0108145
-4.75115	otardam
-4.75115	shckhfy
-4.75115	tosaiirchar	-0.0108145
-4.99445	dairdcthy
-4.75115	alchdyyteedy	-0.0108145
-5.05055	kadamchocthody	-0.0108145
-4.72688	sheeey	-0.0108145
-5.05055	dalshdyqokychdy
-4.16212	qolkeey	-0.0190672
-4.1666	korchy	-0.0190672
-4.75115	tchd	-0.0108145
-4.75224	pchal	-0.0190672
-4.1666	chry
-4.75115	olteechey	-0.0108145
-4.1897	tsho	-0.0190672
-4.75115	alchky	-0.0108145
-4.75115	opaim
-4.75115	tarairy
-4.10715	alky
-4.75115	ainly
-4.1666	qokeeal	-0.0190672
-3.96018	oteodaiin	-0.025573
-4.75115	rky	-0.0108145
-4.47076	eeesaiin	-0.0190672
-4.08899	lcho	-0.0190672
-4.1666	tydy
-4.75115	ykaiim
-4.56242	doraiin	-0.0108145
-4.55701	sody	-0.0190672
-4.01207	qotshy	-0.025573
-4.73118	sches	-0.0108145
-4.75115	dychocthy	-0.0108145
-4.75115	yshos	-0.0108145
-4.68236	qolchy	-0.0108145
-4.1666	pchdol	-0.0190672
-4.75115	pychol	-0.0108145
-5.05055	aldalosam
-4.75115	cheyckhey	-0.0108145
-4.75115	asy
-4.1666	qoal	-0.0190672
-4.75115	doteey	-0.0108145
-4.1666	lod	-0.0108145
-4.1666	qolshy	-0.0190672
-4.73118	lsheol	-0.0108145
-4.16132	qolkaiin	-0.0190672
-4.75115	solkey	-0.0108145
-4.75115	qotchsdy	-0.0108145
-4.75115	qotechoep	-0.0108145
-4.75115	teols
-4.75115	qokeeshy	-0.0108145
-4.75115	cholxy
-4.55701	chorol	-0.0190672
-4.98975	odaiinokaiiny
-4.75115	polkeedal	-0.0108145
-4.75115	sory	-0.0108145
-4.75115	dorkcheky	-0.0108145
-4.55701	okeeeo	-0.0190672
-4.55701	dalom
-4.75115	pcharalor	-0.0108145
-4.75115	kcholdar	-0.0108145
-5.03769	chroreees
-4.14762	cpheor	-0.0190672
-4.55701	shdaiin
-4.68236	dydaiin	-0.0108145
-4.74767	chcth	-0.0108145
-4.98975	odaiindlos
-4.99019	chaiinyd
-4.75115	okchop	-0.0108145
-4.75224	shekey	-0.0108145
-4.75115	sheols
-4.75115	pody	-0.0190672
-3.77225	cheeey	-0.025573
-4.72991	ckhos
-4.16569	darom
-4.75115	dchckhedy	-0.0108145
-4.19373	qolky
-4.07439	orain	-0.025573
-4.75115	olkeeyr
-4.75115	olsaly	-0.0108145
-4.75115	otely	-0.0108145
-4.75115	olair	-0.0108145
-4.75115	daiindl
-4.25022	kshedy	-0.0190672
-3.92613	dm
-4.75115	dcheeos	-0.0108145
-4.98975	odaiinchcphydy
-4.75115	dcheodl	-0.0108145
-4.74767	damo
-5.05055	sheamyteam
-5.05055	sh**chodam	-0.0108145
-4.75115	tchalody
-4.06425	sheodaiin	-0.0108145
-4.55701	pcheey	-0.0190672
-4.55546	qokod	-0.0190672
-5.05359	soshy*chol	-0.0108145
-4.1666	cthoiin	-0.0190672
-5.05055	sokaroaorar
-4.74767	okchom
-4.75115	tchory
-4.1666	ysheol	-0.0190672
-3.9269	ofchdy	-0.025573
-4.75115	orchr	-0.0108145
-5.05055	taralkeeyoram
-4.55701	daiinshol	-0.0190672
-4.75115	ckholdy
-4.75115	taraiin	-0.0108145
-4.75115	tochey	-0.0108145
-5.00156	chckhdychdody	-0.0108145
-4.55546	cheoly	-0.0190672
-4.75115	teodal	-0.0108145
-3.77011	ot	-0.0308341
-4.75115	qolkarysaiin	-0.0108145
-3.77165	qokan	-0.0190672
-5.05055	darcheycheolchey	-0.0108145
-4.55701	oloky
-4.73118	qokshey	-0.0108145
-4.75115	alshees
-4.1666	techedy	-0.0190672
-4.73118	qopor	-0.0108145
-4.75115	okeay	-0.0108145
-4.75115	olchod
-4.44557	qokshdy	-0.0108145
-4.54365	oteaiin	-0.0108145
-4.75115	qotir
-4.75115	cheodalol
-4.73118	sheokaiin	-0.0108145
-4.75115	olcham
-5.02914	qocthyralky
-4.75115	polcheol	-0.0108145
-3.92613	tedam	-0.0108145
-4.74767	salkeedy	-0.0108145
-4.75115	ylcheey	-0.0108145
-5.06794	shokarokeokaiinsheekaiin	-0.0108145
-4.74767	cheekey	-0.0108145
-4.75115	tched*	-0.0108145
-4.75115	dalr
-4.21636	qokaiinshekaiin	-0.0190672
-4.75115	octham
-4.75115	shoyty
-4.55701	cthys
-4.75115	pchofy	-0.0108145
-5.05055	oldorokyycholdchy
-5.01769	chotchydchold
-4.42394	rchy	-0.0190672
-4.33651	aldam	-0.0108145
-5.05055	dcholyqtar	-0.0108145
-4.74549	qopaiin	-0.0108145
-4.75115	okeolor	-0.0108145
-4.75115	oltar	-0.0108145
-4.1666	tady	-0.0108145
-4.75115	qocthes	-0.0108145
-4.75115	rshee	-0.0108145
-4.75115	tocheo	-0.0108145
-4.75115	qotolaiin	-0.0108145
-5.06786	okchechyqokcheedyokchdal	-0.0108145
-4.74767	alody
-5.05414	ykcheypaichy	-0.0108145
-4.75115	oloeeey	-0.0108145
-4.55701	aty
-4.75115	okeaiin	-0.0108145
-4.70949	qokeal	-0.0108145
-4.75115	qeear	-0.0108145
-4.44557	okeeor	-0.0108145
-4.75115	pched	-0.0108145
-4.75115	qopam
-4.40385	lpchedy	-0.0190672
-4.74767	als
-4.75115	daiirol
-4.75115	daimm
-5.01283	chokchycphydy
-4.16569	otan	-0.0190672
-4.16795	cheoldy	-0.0108145
-4.75115	tcho*	-0.0108145
-5.06774	ocphalopsheascthodaiin	-0.0108145
-4.73118	sdal	-0.0108145
-4.75115	qyk	-0.0108145
-5.02479	odainokaickhal	-0.0108145
-5.05099	ockhoesoeees	-0.0108145
-4.75115	ykolody	-0.0108145
-4.75115	cthodykaryd
-5.05031	ykakaiinsheekar	-0.0108145
-4.72396	cpheo	-0.0108145
-4.74767	qotodaiin	-0.0108145
-3.65886	cheoar	-0.0351767
-4.75115	cheooky	-0.0108145
-4.16132	shkchy	-0.0190672
-5.05055	chalorcheyqey	-0.0108145
-4.75115	olyqokeedy	-0.0108145
-4.45314	chcphedy	-0.0108145
-5.06774	pschedaltsheokeedyoshepols
-4.75115	oteoldy	-0.0108145
-4.75115	chckhd	-0.0108145
-5.00042	chetyqolshedy	-0.0108145
-4.74767	oleesey	-0.0108145
-4.75115	ololchey
-5.00156	chckhdyschckhy	-0.0108145
-4.75115	teedam
-4.75115	qokeoly
-5.05099	otydairakal
-4.75115	dsheos	-0.0108145
-5.05055	ckhealdaiins
-4.75115	kche	-0.0108145
-3.93652	lchal	-0.0190672
-5.05055	okairodylchedr
-4.99453	lkeedychearaiin	-0.0108145
-4.75115	airal
-4.09259	oteeody	-0.025573
-4.75115	folaiin	-0.0108145
-4.75115	oteshy	-0.0108145
-4.75115	qaal	-0.0108145
-4.34864	lkeeol	-0.025573
-4.75115	ycheeodaiin	-0.0108145
-4.75115	lkeaiin	-0.0108145
-5.05055	poiralkeolor	-0.0108145
-4.0698	chedal	-0.025573
-4.75115	polchear	-0.0108145
-4.75115	lkeechey	-0.0108145
-4.75115	chedyotaiin
-4.75115	tshar	-0.0108145
-4.74767	okas	-0.0108145
-4.75115	chololy	-0.0108145
-4.75115	cfham	-0.0108145
-4.75115	pydaiin	-0.0108145
-4.9955	shorchapchy	-0.0108145
-4.75115	schain	-0.0108145
-5.05845	okshodeeen	-0.0108145
-5.02766	ykchoydl	-0.0108145
-4.75115	porory	-0.0108145
-4.55701	ydal	-0.0190672
-5.05055	qokchokokchal
-4.75115	tshoteody	-0.0108145
-4.55546	dardy
-4.75115	tolkchdy	-0.0108145
-4.99378	shordairl
-4.75115	pcheocphy	-0.0108145
-4.75115	dotedy	-0.0108145
-5.00042	chetychoolkeey
-4.75115	ytchodaiin	-0.0108145
-4.75115	qockho	-0.0108145
-5.06843	shedaiinschosykeosqcthchytcfhy
-4.44557	qolal	-0.0108145
-4.75115	lsan
-4.75115	lchear	-0.0108145
-4.75115	chshy	-0.0108145
-5.05055	polsheyoltshedy	-0.0108145
-4.75115	oddchey	-0.0108145
-4.75115	sheecthy	-0.0108145
-4.75115	ylchdy	-0.0108145
-4.75115	chea*ror
-5.05068	palchd*chedy	-0.0108145
-4.1544	ckhody	-0.0108145
-4.75115	arodly
-4.44557	okechey	-0.0108145
-3.92613	opched	-0.025573
-4.75115	okairo	-0.0108145
-4.75115	qotoky
-4.75115	chkchedaram
-5.05071	psheodalo	-0.0108145
-4.74767	chpal	-0.0108145
-4.61122	okechdy	-0.0108145
-4.74767	lokeey	-0.0108145
-4.75115	keedym
-4.74767	lolaiin	-0.0108145
-4.1666	alchar	-0.0190672
-4.75115	qoiral
-5.00225	qoeeyqokaim
-5.06723	otedaropalchdyalpchdy
-5.00916	qofchedychcfhar	-0.0108145
-4.75115	tarar	-0.0108145
-4.75115	cheokees	-0.0108145
-4.75115	arald
-4.75115	chearam
-3.95366	daiinchotaiin	-0.0108145
-4.55546	teody	-0.0190672
-5.05359	qokchodychear	-0.0108145
-4.75115	ytcho	-0.0108145
-4.75115	dorl	-0.0108145
-4.74549	chordy
-5.06654	deeysaldyokedor	-0.0108145
-5.06843	fochofchofchoshosoly	-0.0108145
-4.75115	okshes	-0.0108145
-4.75115	chorain	-0.0108145
-4.75115	keim
-5.06843	fchaiinshykeodydainodydainsho	-0.0108145
-5.05055	dyokardykamdy
-5.05414	shotchyqokyysair	-0.0108145
-4.26921	ykeeody	-0.0108145
-4.75115	qokyd
-4.55701	techy	-0.0190672
-4.75115	chotchor	-0.0108145
-4.75115	okyytchor	-0.0108145
-4.08624	oiiin	-0.025573
-4.75115	ralchl
-5.03707	chrshdal	-0.0108145
-4.1666	salchey	-0.0190672
-4.75115	tl	-0.0108145
-4.74767	k**	-0.0108145
-4.75115	salchedy	-0.0108145
-4.75115	solchkal	-0.0108145
-4.1666	sheoal	-0.0190672
-5.05414	ykeorsecheeol	-0.0108145
-5.05055	sedaiinechey	-0.0108145
-5.06774	oteechychyteodyotarody
-4.99034	cheololcha
-5.03053	odllpaim
-5.03192	qotchoraiiny
-4.75115	ykaraiin
-5.05055	tshoaroeey	-0.0108145
-4.44557	shoar	-0.0108145
-4.75115	shosor	-0.0108145
-4.75115	ainn
-4.75115	salxar	-0.0108145
-4.75115	cheoraiin	-0.0108145
-5.05031	cheodchyqotear	-0.0108145
-4.75115	okeeom	-0.0108145
-4.75115	ssheedal	-0.0108145
-4.75115	ssheo	-0.0108145
-4.75115	cheamar
-4.73118	polchdy	-0.0108145
-4.75115	chosaiin
-4.75115	okeeodar	-0.0108145
-3.64153	opchey	-0.0351767
-4.16569	lchdaiin	-0.0190672
-4.75115	chpchar	-0.0108145
-5.05359	otalshdy***eey	-0.0108145
-4.75115	porchey	-0.0108145
-4.75115	shearey	-0.0108145
-4.1666	kaly	-0.0108145
-4.75909	eey	-0.0108145
-5.06787	choteeenocharchoschy	-0.0108145
-5.05055	darotcharetaiin	-0.0108145
-5.03152	okcholkshchol	-0.0108145
-5.05055	dorytoldayty
-4.75115	dchydaiin
-4.75115	shorodo	-0.0108145
-4.75115	tchtod	-0.0108145
-4.75115	chydy	-0.0108145
-4.75115	qokchos	-0.0108145
-5.03294	tshochotshol	-0.0108145
-5.06774	ofainosoloroeeeoly
-5.05055	qodomokodaiin
-5.0187	dootolodal
-5.05099	sheoldyotcheor	-0.0108145
-4.72396	rair	-0.0108145
-4.16689	rodaiin	-0.0190672
-4.75115	posheor	-0.0108145
-5.06844	tshedqosheckheyodeedyqeokeey	-0.0108145
-4.75115	tsholol
-4.99924	tchydychol	-0.0108145
-4.75115	todalain	-0.0108145
-4.75115	cpham	-0.0108145
-5.06773	tosheykodlckho	-0.0108145
-4.75115	ykainr	-0.0108145
-5.05055	ysholshyqotoly	-0.0108145
-4.75115	oqotaltaly	-0.0108145
-5.06846	yroleeeyarairalypchodytshalyalolsykaly	-0.0108145
-4.75115	atol	-0.0108145
-4.55701	chedor	-0.0190672
-4.1666	chedyl	-0.0108145
-4.75115	alaldy
-4.73118	oted	-0.0108145
-4.75115	oltal	-0.0108145
-4.75115	yshealdy	-0.0108145
-4.75115	qotas	-0.0108145
-4.75115	oaan	-0.0108145
-4.1666	qolar	-0.0190672
-3.95328	qokaiinol	-0.0108145
-4.75115	shctheyl
-4.16795	chtedy	-0.0190672
-5.00313	chckhdyqokoldy
-4.75115	larol	-0.0108145
-4.99368	qotedyolokedy	-0.0108145
-4.75115	psheodshy	-0.0108145
-5.05055	sosarcheekeo	-0.0108145
-4.75115	checkhar
-4.75115	odeeey	-0.0108145
-4.75115	dchodees	-0.0108145
-4.75115	oeechdy	-0.0108145
-5.05031	yshoiinqocheol	-0.0108145
-5.05734	qotair*l
-4.75115	chochs
-4.75115	oto	-0.0108145
-4.75224	qokeod	-0.0108145
-4.75115	olchl
-4.75115	ysheedal	-0.0108145
-5.06774	podarainsomqokiir	-0.0108145
-4.75115	alkal
-4.74767	qoklaiin	-0.0108145
-5.05055	keeeokaiir	-0.0108145
-4.75115	lkchaly	-0.0108145
-4.75115	kaich	-0.0108145
-4.75115	lkao
-4.72688	ofar	-0.0108145
-4.75115	olcheody	-0.0108145
-5.05055	qokesheykeshody	-0.0108145
-4.44784	qokeeol	-0.0108145
-4.75115	qoksheo	-0.0108145
-5.05055	aitaiinchalm
-5.05055	polsaisyotea	-0.0108145
-5.05414	qotedqotedol	-0.0108145
-4.16569	chcthaiin	-0.0108145
-5.047	tshedaiinqotchody	-0.0108145
-4.75635	ychedar	-0.0108145
-4.75115	rcheeo	-0.0108145
-5.06668	odainchordairshty
-4.75115	tsheoarom	-0.0108145
-5.06789	ycharolchadolchokaiin
-4.44557	dytchy	-0.0108145
-4.75115	schodain	-0.0108145
-4.1666	dory
-4.21535	daiincthain	-0.0190672
-4.75115	chtchey	-0.0108145
-5.05531	chokeoldchoty
-4.75115	ytede	-0.0108145
-5.05918	oksheychodysytoiin	-0.0108145
-4.75115	chekl	-0.0108145
-4.74767	fchody	-0.0108145
-4.10715	cholody	-0.0190672
-4.73118	okolchy	-0.0108145
-5.05055	chekodydarqokol	-0.0108145
-4.75115	ykeod	-0.0108145
-4.75224	chokey	-0.0108145
-4.75115	qotan
-4.75115	qotaiinotykal	-0.0108145
-4.73118	dchom	-0.0108145
-4.75115	ykaky	-0.0108145
-5.06774	shoararcholdalotalchal	-0.0108145
-4.74767	yteor	-0.0108145
-5.06531	dairykodarokyd
-4.75115	dkar
-4.75115	sheetey	-0.0108145
-5.06774	chfaiinopalykotaly
-4.75115	yka*l	-0.0108145
-4.73595	qotair	-0.0108145
-4.73418	orchey	-0.0108145
-5.01399	fchedyroly
-4.75115	polshdy	-0.0108145
-3.98142	opchol	-0.025573
-4.75115	*olokeedy	-0.0108145
-5.01357	lcho*ch	-0.0108145
-5.06794	chdarollotychedaraly
-4.33433	shekaiin	-0.0190672
-4.75115	oteys
-4.75115	ycheody	-0.0190672
-4.75115	chpor	-0.0108145
-4.73418	qekchdy	-0.0108145
-4.75115	shkeedy	-0.0108145
-4.75115	qokoy	-0.0108145
-4.75115	keam
-4.75115	llod
-4.75115	aam
-4.75115	ykeeeos	-0.0108145
-4.75115	llcheedy	-0.0108145
-4.75115	qootchedy	-0.0108145
-3.95615	okcheey	-0.025573
-4.75115	ocheor	-0.0108145
-4.55701	otchod	-0.0190672
-4.75115	cheyor
-5.06512	cheolteeoarek	-0.0108145
-4.75115	chsho	-0.0108145
-4.74767	dlchd
-5.01357	lchoracthy
-5.05071	lshessheet	-0.0108145
-5.05055	dtalorchcthdy	-0.0108145
-5.04483	salolm
-4.75115	chery	-0.0108145
-4.75115	shaiidychokaiin	-0.0108145
-5.05055	cthodsoocthsol	-0.0108145
-5.05055	dalshearcheeotaiin	-0.0108145
-5.05055	koairchtoiin	-0.0108145
-4.75115	scheaiin	-0.0108145
-4.75115	okcheol	-0.0108145
-4.16569	okeom	-0.0108145
-5.04113	ctheororaiiny
-4.75115	yckhody	-0.0108145
-4.55435	otoldy	-0.0190672
-5.05031	otchyddshorychy
-4.99665	dcheydaindal	-0.0108145
-4.75115	oeor	-0.0108145
-4.98086	daiinchkear
-4.99665	dcheykeeod	-0.0108145
-4.75115	kch*d	-0.0108145
-5.05359	cheodychom
-4.12503	cher	-0.025573
-5.06844	cheeksheeyychekeeor	-0.0108145
-5.06834	daiinqorcholctholyschytaroiin
-5.05055	qotomodydchol	-0.0108145
-5.05414	koiinchorody	-0.0108145
-4.75115	shckhdchy	-0.0108145
-4.75115	oldoteol	-0.0108145
-4.75115	okeokear	-0.0108145
-4.1666	qokom	-0.0108145
-5.05055	teechyqotycthy
-4.99378	shorshorshy
-4.75115	okainqod
-4.75115	cpheiin	-0.0108145
-4.73118	oltchy	-0.0108145
-4.75115	olseem
-4.75115	odshchol	-0.0108145
-4.75115	tocphey	-0.0108145
-4.75115	qokeos	-0.0108145
-4.75115	dshal	-0.0108145
-4.75115	qokyr	-0.0108145
-4.75115	orro
-4.75115	fcham
-4.73118	qolkey	-0.0108145
-4.75115	lshee	-0.0108145
-4.75115	dairol	-0.0108145
-4.75115	lorain	-0.0108145
-4.75115	shedaldy	-0.0108145
-4.10715	shl	-0.025573
-4.75115	solky	-0.0108145
-4.75115	orokaiin
-5.05018	poltesholopy	-0.0108145
-4.75115	ykeshy	-0.0108145
-4.75115	otodarchodain
-4.75115	kalchdy	-0.0108145
-4.75115	onchdy	-0.0108145
-4.75115	otchodol	-0.0108145
-5.05055	oeolckheor	-0.0108145
-4.75115	ssheey	-0.0108145
-4.75115	olchr	-0.0108145
-4.55701	qkaiin	-0.0190672
-5.00156	ykeedychotedy	-0.0108145
-5.02005	yteeeycheeod	-0.0108145
-3.92613	ainr	-0.025573
-5.05055	olkeeolorchsey	-0.0108145
-5.00318	otchedyokshed	-0.0108145
-4.75115	cheees
-5.05055	tshodairollkees	-0.0108145
-4.75115	poral	-0.0108145
-4.75115	akair	-0.0108145
-4.75115	shkar	-0.0108145
-4.75115	pcholy	-0.0108145
-4.75115	chedly
-4.74767	shokal	-0.0108145
-5.00773	kcheylotedaiin	-0.0108145
-4.75115	koshey	-0.0108145
-5.05055	chckhealopcheo	-0.0108145
-4.75115	tois	-0.0108145
-4.75115	alsy
-4.55701	ykeedaiin	-0.0190672
-5.05031	ycheodcheoaiin	-0.0108145
-4.99555	qotcheyqoteeody	-0.0108145
-5.05018	o**yakeey	-0.0108145
-5.05055	llsaiinaroro	-0.0108145
-4.75115	tchdor	-0.0108145
-5.05055	pchdarodypcheed	-0.0108145
-4.75115	qo**o	-0.0108145
-4.1666	lkeal	-0.0190672
-5.01874	opcholqotyotolom
-4.74767	okolor	-0.0108145
-4.75115	qoteydoiin	-0.0108145
-4.75115	ytoy
-4.55701	otof	-0.0190672
-4.75115	dolddchey	-0.0108145
-4.75115	orchlchokchy	-0.0108145
-4.75115	ddycthor	-0.0108145
-4.26668	pchy	-0.0108145
-5.06774	dchchydychearschar	-0.0108145
-5.00766	chkeeypoiis	-0.0108145
-5.05055	otchokchod	-0.0108145
-5.0567	chotolodaiir	-0.0108145
-4.33651	daral	-0.0108145
-5.06843	oeeockhyofycheyypcheyqopcheody	-0.0108145
-4.75115	okoly	-0.0108145
-5.06774	okchainchkoldyshotoly
-4.75115	kochky	-0.0108145
-4.75115	orcho	-0.0108145
-4.75115	yckheody	-0.0108145
-4.75115	keeychos	-0.0108145
-5.01769	chotchyctholotol	-0.0108145
-4.75115	da*shos	-0.0108145
-5.00704	ydaiinchooaiin
-4.75115	okeeso	-0.0108145
-4.75115	cheokar	-0.0108145
-4.75115	kcheodaiin	-0.0108145
-5.06844	lchoarorcheylodaiinoor	-0.0108145
-4.75115	chdykedy	-0.0108145
-4.68236	ked	-0.0108145
-5.05055	cthoorcholy	-0.0108145
-4.75115	ckhoiin	-0.0108145
-4.75115	ykcholqod	-0.0108145
-4.75115	ykchon	-0.0108145
-4.75115	daiindair	-0.0108145
-4.99251	sheedyoralyolainr	-0.0108145
-4.1666	shekam	-0.0108145
-4.75115	chlykeedy	-0.0108145
-4.75115	okyycheey
-5.05055	oleeollkedylkeeody	-0.0108145
-4.75115	chotcheey	-0.0108145
-5.05055	cthseescholysarar	-0.0108145
-4.74767	folor	-0.0108145
-5.05055	qoiiinsheeeky	-0.0108145
-4.75115	yshee	-0.0108145
-5.05609	ckhedychekcheey	-0.0108145
-4.75115	otydal	-0.0108145
-4.75115	arakaiin	-0.0108145
-4.99445	dairchadaiin
-4.75115	pcheot	-0.0108145
-4.75115	otchdain	-0.0108145
-5.05055	yotedycthdyokain	-0.0108145
-4.75115	ydchodyckhey	-0.0108145
-4.75115	ckheadar	-0.0108145
-4.54365	tcheody	-0.0190672
-4.74767	chockhey	-0.0108145
-5.05055	ctha*ldyypchal
-5.02252	deeytad
-5.06844	qoainrchalolkyosalchotam	-0.0108145
-5.06789	dykychcthorotaiin
-5.05077	todeeeykeody	-0.0108145
-3.9256	cheoky	-0.025573
-4.52237	cheen	-0.0108145
-4.75115	chekes	-0.0108145
-4.55701	otshey	-0.0190672
-5.06844	pdolfshedyqopolkaiinocthor	-0.0108145
-4.75115	chedyar
-4.75115	ldol	-0.0108145
-4.75115	ychecthy	-0.0108145
-4.73118	daindy
-4.75115	dlchesy	-0.0108145
-4.75115	*cheol	-0.0108145
-4.75115	talshy	-0.0108145
-5.06774	ykshoqosaldaraiinm
-4.1666	okchaiin	-0.0190672
-4.75115	qok*	-0.0108145
-4.75115	shedain	-0.0108145
-4.75115	leeesaiin	-0.0108145
-3.65886	osaiin	-0.0351767
-4.75115	pcholor	-0.0108145
-4.75115	alkchdy	-0.0108145
-5.02479	odainorchedy	-0.0108145
-3.92613	ltal	-0.025573
-5.06799	chlalakalykalaiin	-0.0108145
-4.75115	amchy
-5.05339	ychdyoltydy
-5.05055	okeesodartarair	-0.0108145
-4.75115	chdalal	-0.0108145
-4.75115	alold
-5.05055	qofchdyopalal	-0.0108145
-4.75115	oolals
-4.75115	pcheedy	-0.0108145
-4.70949	alal	-0.0108145
-4.75115	dsheeo	-0.0108145
-4.75115	dchedar	-0.0108145
-3.92613	so	-0.025573
-4.75115	llaiinal
-4.75115	lteeal	-0.0108145
-4.74767	yteo	-0.0108145
-4.1666	amam
-4.75115	alchl	-0.0108145
-4.72396	lkchdy	-0.0108145
-4.55701	ota	-0.0190672
-4.75115	yted	-0.0108145
-4.75115	chetam
-4.73118	dchedaiin	-0.0108145
-4.75115	dao	-0.0108145
-4.75115	kotchody	-0.0108145
-4.99445	daircphoaldar	-0.0108145
-5.06723	qotcholoeeesqotychor	-0.0108145
-5.05031	tsheosqopal	-0.0108145
-4.75115	olytol	-0.0108145
-4.75115	shockho	-0.0108145
-4.74767	cpholdy
-5.06846	pchooiinksheakchoychapchydoldsdlod
-4.98086	daiinqodaiinoaram
-4.19373	chokody	-0.0108145
-4.75115	olchoiin	-0.0108145
-5.01893	qotcheyteyokchor	-0.0108145
-4.75115	ocho	-0.0108145
-5.05055	chocthoychodykchy	-0.0108145
-4.75115	arm
-5.03192	pchydchm
-5.05055	olscheyokos	-0.0108145
-4.98766	choldairin
-4.1666	qoain	-0.0190672
-5.02539	daramchckhyockhor	-0.0108145
-5.03013	qokchololydaiin
-5.05414	qoeeesoroaiin	-0.0108145
-4.75115	ychoy	-0.0108145
-4.75115	choees	-0.0108145
-4.75115	doiiin	-0.0108145
-4.50226	shokaiin	-0.0190672
-5.05055	pololshyfcholy	-0.0108145
-4.75115	ordachy	-0.0108145
-5.01229	dcholdaiinydaiin
-5.03152	okcholdainm
-5.05329	dcharykor	-0.0108145
-5.06803	qokoldyokaiirykaiilm	-0.0108145
-5.06531	dairsholololdalotchor	-0.0108145
-4.75115	odaiim
-4.75115	poeeaiin	-0.0108145
-4.73118	osh	-0.0108145
-5.06777	ypchsedssshapchedyfchy	-0.0108145
-5.05055	psheytodydy
-4.75115	choetychoty	-0.0108145
-4.75115	chokcheey	-0.0108145
-4.75115	lqotar	-0.0108145
-5.06471	daiinsshokeyka
-5.00773	kcheykoldychetchaiin
-5.04483	ykytydydaiin	-0.0108145
-5.06797	qotoiinchororctholdaiin
-4.75115	ashdy
-4.99251	sheedyolchep
-5.05053	chotodychotol	-0.0108145
-4.21602	cheyteor	-0.0190672
-4.75115	tarodaiin	-0.0108145
-4.99403	otedyopoldy
-4.73118	ykchey	-0.0108145
-4.75115	oldchckhy	-0.0108145
-5.06618	okcholaldandaldaiin
-4.98851	darotyotytam
-4.54591	tshdy	-0.0190672
-4.75115	chckham
-4.75115	folr	-0.0108145
-4.75115	schesy	-0.0108145
-5.06807	chtchypcharctham
-4.75115	ytedyytchedal	-0.0108145
-4.98086	daiinykald
-4.74767	otodaiin	-0.0108145
-4.21552	daiinckheol	-0.0190672
-4.75115	okod
-4.75115	chkodal
-4.98851	daroeckhy	-0.0108145
-5.00643	chokeeychoksy
-4.98906	chyckheol	-0.0108145
-4.75115	oteeyd
-5.05055	cheoteyshkchey	-0.0108145
-4.75115	sholalam
-5.06744	choldyokalysaraldy	-0.0108145
-4.75115	qokalor	-0.0108145
-4.75115	olfcham
-4.75115	pdaiin	-0.0108145
-4.97774	chokeeychekey	-0.0108145
-5.06559	chetyshekalyshckhar
-4.75115	chpa	-0.0108145
-4.75115	otalam
-4.75115	cphdor	-0.0108145
-4.75115	qolcheedy	-0.0108145
-4.1666	qetaiin	-0.0190672
-4.75115	soltchedy	-0.0108145
-4.75115	qchedy	-0.0108145
-4.98086	daiinytees	-0.0108145
-4.75115	sheyky	-0.0108145
-4.75115	chedchey
-4.75115	lsheckhedy	-0.0108145
-4.75115	olkshey	-0.0108145
-4.75115	rchem
-4.75115	ydaral
-5.06774	psheoldydksheyqokopy	-0.0108145
-4.75115	lsheckhy	-0.0108145
-4.75115	qcthdys
-4.7439	dalal	-0.0108145
-5.00668	qotalotdal	-0.0108145
-4.75115	tary
-4.75115	chedchy	-0.0108145
-5.06805	qokealsheckhdyekal	-0.0108145
-5.04483	ofolyoroly
-4.55701	olchcthy	-0.0190672
-4.75115	keed	-0.0108145
-4.75115	oteodal	-0.0108145
-5.00773	kcheysaindy
-5.05055	sanany	-0.0108145
-4.55837	yteeody	-0.0190672
-4.55837	opary
-5.01229	chetaiinchdyykal	-0.0108145
-4.75115	qoisal	-0.0108145
-5.05071	shcfhedyopcheol	-0.0108145
-5.05641	shdarshchdy	-0.0108145
-4.75115	seedy
-5.05055	cheolshychalal
-4.75115	otalsy
-4.99251	sheedyopalam
-4.75115	teedaram
-5.05055	airodlshd
-5.05055	chllorl	-0.0108145
-4.75115	olcheear	-0.0108145
-4.75115	shoda	-0.0108145
-4.75115	oqockhy	-0.0108145
-4.75115	solchd	-0.0108145
-4.75115	qoteodaiin	-0.0108145
-4.75115	aindy	-0.0108145
-4.99445	dairokadaim
-4.75115	okarol
-5.05047	tarorolal	-0.0108145
-4.75115	olcheor	-0.0108145
-4.75115	faiiral	-0.0108145
-5.05414	chtlracthty
-5.06789	qctheyltyltam
-4.75115	taody	-0.0108145
-4.99403	otedykedydy
-4.75115	sheedaiin	-0.0108145
-4.72991	cheodar	-0.0108145
-4.75115	loety	-0.0108145
-4.75115	kedarxy
-4.75635	shechy	-0.0108145
-4.75115	reey	-0.0108145
-4.75115	soaiin	-0.0190672
-4.75115	poeokeey	-0.0108145
-4.98086	daiinchcthar	-0.0108145
-4.75115	taramd
-5.06604	oteorocthdyotychey
-4.75115	cheeoldy
-5.06799	lodychcfhyochos	-0.0108145
-4.75115	pcha	-0.0108145
-4.50226	okeear	-0.0190672
-4.75115	ykeeda*	-0.0108145
-4.75115	kcheeos	-0.0108145
-4.75115	ycheeckh	-0.0108145
-4.75115	pcheoor	-0.0108145
-4.75115	pcheodaiin	-0.0108145
-4.73118	lkches	-0.0108145
-5.05055	fchoctheodykeeodar	-0.0108145
-5.05055	chpkcheos	-0.0108145
-4.75115	paiir	-0.0108145
-5.06844	qotchdarcheeosolteodyotoydy
-4.1066	chocthey	-0.025573
-4.98612	qokaiinqoteeol	-0.0108145
-4.27673	qotcheedy	-0.0108145
-4.1666	chotchdy	-0.0108145
-4.74767	lkedaiin	-0.0108145
-5.06797	cheoorolkchedychotam
-4.75115	lkeeshdy	-0.0108145
-4.73118	lkeedar
-4.75115	kchetam
-5.05414	qoporiirchal	-0.0108145
-5.05359	chocphyqo*chyr
-4.75115	rchos	-0.0108145
-5.058	otararopam
-4.73118	qoraiin	-0.0108145
-4.74549	ckho	-0.0108145
-4.98774	qokycholaiin	-0.0108145
-4.75115	daiincthey	-0.0108145
-4.75115	qotcham	-0.0108145
-4.74767	cholols	-0.0108145
-4.16212	qotcheo	-0.0190672
-4.75115	shokeeol	-0.0108145
-4.75115	ochy	-0.0108145
-4.75115	polyshy	-0.0108145
-5.06846	otcharokychokainkeokyotorchysatar
-4.75115	okyoeees	-0.0108145
-4.74767	qochol	-0.0108145
-4.75115	chykyty
-4.55701	otydy	-0.0108145
-5.05055	doldyokchordoaiin
-4.75115	kychodalm
-5.05359	darodydyotyds
-4.75115	ykshol	-0.0108145
-4.75115	sholo
-5.05055	qodcthyods
-5.05055	choldshy**pchy
-5.06805	fchyopydaiinodaldy
-5.05607	oldaiinchockhol	-0.0108145
-5.06775	qokcheoqokoiirctheol	-0.0108145
-5.06533	daiindycholdiiin
-5.05055	doldydoldaiin
-4.75115	sm
-5.04113	otchyqokeees	-0.0108145
-4.75115	osocthor	-0.0108145
-4.75115	tshaiin	-0.0108145
-4.99264	sholdpchy	-0.0108145
-5.05055	opyaiin*yfchy	-0.0108145
-5.06846	yokaiindoraiinololsoiinolcheenols
-3.9532	scheor	-0.025573
-5.06787	tchodarchocfhyopom	-0.0108145
-4.75115	daid	-0.0108145
-4.72991	odor	-0.0108145
-4.99019	chaiinqotchain
-5.06797	eedyeedyschyqokeedy	-0.0108145
-4.55701	qotchaiin	-0.0108145
-4.75115	oschotshl	-0.0108145
-4.75115	dchorol	-0.0108145
-4.73118	oeeeos	-0.0108145
-4.75115	okchan	-0.0108145
-5.03053	checheydykey	-0.0108145
-5.06838	chaiinqokchaiinlshylodalyoteey	-0.0108145
-5.06625	tcheeychkcheeenchcthaiin
-4.75115	yokor	-0.0108145
-4.75115	oshcthodo	-0.0108145
-5.03439	oteeoldodycheod	-0.0108145
-4.98086	daiindaiiindain	-0.0108145
-4.98798	chedycholal	-0.0108145
-5.01229	chcphydairom
-4.75115	ykeols	-0.0108145
-4.75115	qokaldar	-0.0108145
-4.75115	cholkalqokal	-0.0108145
-4.75115	ykdy
-4.75115	oekar	-0.0108145
-5.06816	opchesarordaiin
-5.05031	qokarokeesaro*y
-4.75115	ycheos	-0.0108145
-4.75115	dykeedain	-0.0108145
-4.75115	yokalod	-0.0108145
-4.74767	tsheody	-0.0108145
-4.75115	kolsho	-0.0108145
-5.06774	dodopchaiinolald
-4.75115	lain	-0.0108145
-4.75115	tolchey	-0.0108145
-4.75115	dsholy	-0.0108145
-4.75115	saiinchol
-4.75115	damdr
-4.75115	chspchdy
-4.75115	solkchy	-0.0108145
-4.75115	oshol	-0.0108145
-4.67121	cheeal	-0.0108145
-5.00079	cheorcpheodar	-0.0108145
-5.03005	shoarchokan	-0.0108145
-5.05055	qkcheodycholdam
-5.05055	kcheorsheyckheol	-0.0108145
-5.06774	sheekalsaiinokeametchal
-5.03438	chomdamor	-0.0108145
-4.54365	oldaiin
-4.99826	chodyykairy	-0.0108145
-4.1666	tchedar	-0.0190672
-4.75115	chelal	-0.0108145
-5.06503	okeedyqoaiinokeodyykeesan
-4.75115	otaky
-4.9994	sheyqoteeey	-0.0108145
-4.75115	olchear	-0.0108145
-4.99895	ytarolchokal
-5.0651	sholcholralycholaiin	-0.0108145
-5.05055	dtsholdytal	-0.0108145
-4.56036	qotedal	-0.0190672
-4.75115	cheyl
-4.75115	shokeshy	-0.0108145
-4.75115	feedly	-0.0108145
-4.75115	kara
-4.75115	tcheeos	-0.0108145
-4.75115	chekam
-4.75115	dyqokeedy	-0.0108145
-4.75224	qokechdy	-0.0108145
-4.75115	salkeey	-0.0108145
-5.05339	cheersalkeedy	-0.0108145
-4.75115	arotey	-0.0108145
-4.72688	dalo
-4.75115	dsheedal	-0.0108145
-4.75115	ldal
-4.75115	spchy	-0.0108145
-4.75115	eesol	-0.0108145
-5.04643	qofcheolopchedy	-0.0108145
-5.00005	pchdyopchalor	-0.0108145
-4.74767	rom
-4.75115	yshees	-0.0108145
-5.05018	olkeeyolorocheey	-0.0108145
-4.98999	okedyqols
-4.75115	qokady
-5.04643	totolopchedy	-0.0108145
-4.75115	lchees	-0.0108145
-5.06846	polchdyqopcholqokorolpchedyopolor*sy
-5.05359	oloralsheckhal	-0.0108145
-4.99171	pchedyrsh	-0.0108145
-4.75115	okaraly
-4.70949	opshedy	-0.0108145
-4.75115	schdy	-0.0108145
-5.05359	oqolyqor	-0.0108145
-4.75115	qokydy
-4.75115	cfheey	-0.0108145
-4.74767	chckhor	-0.0108145
-4.99665	dcheyokeylchy
-4.75115	ycheockhy	-0.0108145
-4.75115	cthodol
-4.72688	los	-0.0108145
-4.75115	tshoky	-0.0108145
-4.75115	dytchdy
-5.05584	chkeyckho	-0.0108145
-4.75115	ckheeody	-0.0108145
-5.06805	cheealcheokeolorey
-5.05031	yshdal***	-0.0108145
-5.05031	***********
-4.9909	oteedysarain
-4.1666	oleeedy	-0.0190672
-4.75115	lcharar	-0.0108145
-5.05071	ykeeshedyolkeeody	-0.0108145
-5.06842	olkchedycheokeeykaryopair	-0.0108145
-5.04113	kechdyikeedal	-0.0108145
-4.72396	kcheody	-0.0108145
-5.01357	qoteed*ockhy	-0.0108145
-5.06774	chdeeyoeeodaiins*rol	-0.0108145
-4.75115	qoka	-0.0108145
-4.75115	ytched	-0.0108145
-5.05055	posairyyte*ar	-0.0108145
-5.05055	oteedcheyqoeda	-0.0108145
-5.06649	aloralodam
-5.05414	okeesltchdal
-4.98086	daiinopairam
-5.06835	aracpheeyqoeedeody	-0.0108145
-5.00213	araildy
-4.75115	orcheos
-4.75115	daiiral	-0.0108145
-4.1066	lkam
-4.75115	cholkaiin
-5.05607	alalkalos	-0.0108145
-4.75115	ykeeoll	-0.0108145
-5.0052	chkylcheel	-0.0108145
-4.75115	oo	-0.0108145
-4.98086	daiindckhy	-0.0108145
-4.75115	qokaiy	-0.0108145
-4.74549	chokedy	-0.0108145
-4.75115	parair	-0.0108145
-4.75115	opcho	-0.0108145
-4.75115	aiiraly
-5.05071	qonchedypchol	-0.0108145
-4.74767	dalkar	-0.0108145
-5.00903	oteoralkeedy
-3.92613	lkair	-0.025573
-4.75115	chckhom
-4.75115	tshedky	-0.0108145
-4.74767	aldar
-4.75115	dlaiin	-0.0108145
-4.75115	rcheetey	-0.0108145
-4.75115	checkhedy	-0.0108145
-5.05099	qokchascheokedy	-0.0108145
-4.74767	lokam
-4.75115	laedy	-0.0108145
-4.75115	chedey	-0.0108145
-5.05339	choollkaim
-4.99453	lkeedychllkeey	-0.0108145
-4.75115	sheotchedy	-0.0108145
-4.75115	teokaiin	-0.0108145
-4.99453	lkeedylkedar	-0.0108145
-5.06845	ysheaiinokshdyshkeey	-0.0108145
-5.05607	oteaiinpcheeol	-0.0108145
-4.75224	sheeor	-0.0108145
-4.75115	qear	-0.0108145
-5.05055	alchedarshykaiin	-0.0108145
-4.75115	tsheey	-0.0108145
-5.05414	ysheal*oair	-0.0108145
-4.75115	psalar	-0.0108145
-4.75115	qokary
-4.98743	chedyshdal
-4.75115	yshesy	-0.0108145
-4.54591	chady	-0.0190672
-4.75115	pchea	-0.0108145
-4.55701	keedal	-0.0190672
-5.02546	shckheylshar	-0.0108145
-4.33651	sairy
-5.06846	palshsarlshdaiinotshdaiinshocfhyqopchearshkair	-0.0108145
-5.05414	otlaloshy
-4.98078	dairar	-0.025573
-4.75115	checkhol	-0.0108145
-4.75115	okeshos	-0.0108145
-4.75115	yteeeor
-5.06846	oshoxarashocpheycphedyopcheodyokalchdy	-0.0108145
-4.74767	araral
-4.75115	ofaral	-0.0108145
-4.75115	qokairy	-0.0108145
-4.75115	qokeeedy	-0.0108145
-4.75115	qockheos	-0.0108145
-4.74549	oltedy	-0.0108145
-5.06774	keedorykecheychchdy
-4.75115	ksheoary	-0.0108145
-4.99199	chaiinshkchedy	-0.0108145
-5.06647	lkchedyrchedaroteedal	-0.0108145
-3.77225	kcheo	-0.0308341
-5.05055	otairoslosdy	-0.0108145
-4.75115	ototar	-0.0108145
-4.75115	yka*om
-4.75115	aralary
-5.00544	oteyotydaiin
-4.75115	shydksheey	-0.0108145
-4.75115	choies	-0.0108145
-4.75115	chodainchcthy	-0.0108145
-4.75115	chckhoysshey	-0.0108145
-5.06773	*orsheoldamotchody	-0.0108145
-4.33651	qotshey	-0.0190672
-5.06661	dairqoteolqosaiinchor	-0.0108145
-5.05031	cth*otoiin	-0.0108145
-4.75115	odshe	-0.0108145
-4.75115	ocholy	-0.0108145
-5.06787	ocheescheodaiinsheeyytcheey	-0.0108145
-4.75115	ksholo	-0.0108145
-4.99085	sholdeees	-0.0108145
-5.05055	qoteeeorcho	-0.0108145
-4.98086	daiincthanytchy	-0.0108145
-4.75115	chotain	-0.0108145
-5.05403	pcharcho	-0.0108145
-5.06844	okchodytoeokyokoiindyor	-0.0108145
-5.04897	yshycho	-0.0108145
-5.06789	koraiinokainddalolsho	-0.0108145
-4.75115	pchocthy	-0.025573
-5.06846	poldchodyshcphyshordyqotysholcphardany
-5.05018	chololorchyky	-0.0108145
-4.75115	ton
-4.75115	schold
-4.75115	qotyykeeyky
-4.55701	qodam	-0.0190672
-5.0684	tshoqofchoqokcheorchekem
-4.73118	dsheor	-0.0108145
-4.75115	ymol
-5.06649	ctholchlolchom
-4.75115	tolol	-0.0108145
-4.75115	oscheor	-0.0108145
-4.75115	tdaiin	-0.0108145
-5.05055	kdchodychopy	-0.0108145
-5.05359	qocphychokoldy
-4.98086	daiinds
-4.75115	kolyky	-0.0108145
-5.06468	daiinopchysocphy
-4.75115	ctholo	-0.0108145
-5.04498	pchaiinopchy	-0.0108145
-5.06846	daiincfhydoraiinypcholsyschor	-0.0108145
-5.06799	dsheorshkachdoly	-0.0108145
-4.98871	qokykchorl	-0.0108145
-4.75115	olshly	-0.0108145
-5.06774	yfchorolfchorotchald
-4.98086	daiinalm
-4.74767	otchm
-5.05055	okalddamchor	-0.0108145
-4.75115	qlor	-0.0108145
-4.75115	ydals	-0.0108145
-5.05055	okoeosckheod	-0.0108145
-5.05747	doiircheekdam	-0.0108145
-5.06844	psheokyodaiirqoychofochcphdy
-4.75115	adeeodychecthedy	-0.0108145
-5.02005	cthedyoloyy	-0.0108145
-5.06812	ytedyqokedydaiinodam	-0.0108145
-5.06803	shoykchoshdyotchdy
-4.75115	cheecthy
-4.99643	qotykodydaiin	-0.0108145
-5.05031	chteorocthy
-5.0467	chaincthorchy
-4.75115	keedey	-0.0108145
-5.04483	okechoked	-0.0108145
-5.05055	daldshodarqotchof
-4.98427	cheysoty
-4.74767	shoshy
-5.06543	qotaiindainoamochofchody
-5.06846	tshdarshdarshepchdycphodyyfoldyqofockhdy	-0.0108145
-4.75115	tchedydy	-0.0108145
-4.75115	dyytam	-0.0108145
-4.75115	chydar	-0.0108145
-4.75115	aiinoltchedy	-0.0108145
-5.06812	shekcholchedyqokedyykcheolchcthy
-5.05077	lshaiirorair	-0.0108145
-4.75115	schaiin	-0.0108145
-4.75115	kykaiin	-0.0108145
-4.75115	dchokchy	-0.0108145
-5.06773	pcharasyqoforomshoaiin	-0.0108145
-5.06805	qotchorchkolotoly
-5.06798	shylysheaiindotody
-5.06794	sheksheyqolainchckhshy	-0.0108145
-4.75115	daiiiny
-4.98999	okedydarykchey	-0.0108145
-4.75115	tchkaiin	-0.0108145
-5.0681	olfchedyqokedydaiinchefain
-5.05018	ryteeyqokaim
-5.06844	qokra*yekedyychdykchdyqokedy	-0.0108145
-5.06797	chekedyyteyypchedpyshepy	-0.0108145
-4.75115	porchdy	-0.0108145
-5.06646	ykeedychekeedycheked
-4.75115	chokeeor	-0.0108145
-5.06555	chealoteoldsheyteaiind
-4.98086	daiindaiinr
-3.92613	ykam
-5.06774	yrarshekalchdycholty	-0.0108145
-4.16015	chetchy	-0.0190672
-5.06844	pdsairydalteoshydolysheet	-0.0108145
-4.75115	qykchey	-0.0108145
-4.75115	yolkol	-0.0108145
-4.75115	cthees	-0.0108145
-4.19827	otchar	-0.0190672
-5.02769	lcharqory	-0.0108145
-5.05081	dororchain	-0.0108145
-4.75115	korary	-0.0108145
-5.0658	chkykolcheyfsholom	-0.0108145
-4.98086	daiindcholdy
-4.98086	daiinsheksheet	-0.0108145
-4.75115	aickhy
-4.75115	sysary
-4.2133	chodycheor	-0.0190672
-4.75115	cthchey
-5.06776	pshdaiinypchdyopchey	-0.0108145
-4.55701	oteodaiin	-0.0190672
-4.73118	alshey	-0.0108145
-4.75115	oteoly	-0.0108145
-4.75115	pcheodchy	-0.0108145
-4.1666	otees	-0.0190672
-4.75115	kchedyykeey	-0.0108145
-5.06709	doldarshotchdy	-0.0108145
-4.75115	ychodaiin	-0.0108145
-5.06667	ckholshaintcholol
-4.75115	okyytoldy
-4.75115	oksh	-0.0108145
-4.75115	otos	-0.0108145
-4.75115	ctheees	-0.0108145
-4.1666	qotea	-0.0190672
-4.55701	qotod	-0.0190672
-4.73118	ychocthy	-0.0108145
-5.06844	korarickhosshofamcher	-0.0108145
-5.05427	yorshodal	-0.0108145
-4.75635	aim
-5.05096	oeeedyteey	-0.0108145
-4.45022	chotor
-4.75635	tcheodar	-0.0108145
-5.05359	kedaiinoforam
-5.05414	araryytalar	-0.0108145
-5.06511	chyoteodchyyteochy	-0.0108145
-4.99971	chealsom*
-5.05055	olekarotarchol	-0.0108145
-5.05124	okalsalchey
-4.98999	okedykodary
-4.75115	qofchy	-0.0108145
-4.75115	ytarody	-0.0108145
-5.00359	aiinsheeeol	-0.0108145
-5.04906	okechdyokchdal	-0.0108145
-5.05055	chparsheopam
-4.75115	chkchody
-5.05055	pdalshorshtol	-0.0108145
-4.75115	sheals	-0.0108145
-3.92613	qeeey	-0.025573
-5.03053	qolallklchey	-0.0108145
-4.98427	cheyllaiinry
-5.04222	oparkolpy
-4.98996	oteedyokedor	-0.0108145
-4.75115	okedalor
-5.05055	chpchedyepchy	-0.0108145
-4.75115	otedeey	-0.0108145
-5.05608	shokaiinsheolol	-0.0108145
-4.75115	chedcheydaiin	-0.0108145
-5.05055	pshealdyopalshedy	-0.0108145
-4.75115	ytary
-4.73118	lshety	-0.0108145
-4.75635	qeedy
-5.0386	teedyyry
-4.75115	lfol	-0.0108145
-4.75115	sokol	-0.0108145
-4.75115	qokededy	-0.0108145
-5.0035	pcheytchdoltdy
-4.75115	okeeal	-0.0108145
-4.75115	drol
-4.99419	orsheckhedy	-0.0108145
-4.75635	psheedy	-0.0108145
-4.75115	lsairor	-0.0108145
-5.06787	qokchedoltsheyotchotar	-0.0108145
-4.75115	qety	-0.0108145
-5.00502	pcheyksheol	-0.0108145
-4.75115	ltalor	-0.0108145
-4.75115	qokail	-0.0108145
-5.06689	oporolpockhyoltydy
-5.05414	qorarolcheay	-0.0108145
-4.75115	kolshd	-0.0108145
-5.05018	tchetylom
-4.72688	qokeedal	-0.0108145
-4.9868	okeedyokshedy	-0.0108145
-4.75115	olcthdy
-5.05868	shalchedyyshchey	-0.0108145
-4.75115	o**	-0.0108145
-4.75115	tyqoky	-0.0108145
-5.06842	opchedyqpolshtyoral
-4.99638	shedyqokylddy
-4.98895	chedyokeedyldy
-5.05649	chcthdy*chedy	-0.0108145
-4.75115	skar	-0.0108145
-5.06568	otchedyskeeyrcheky	-0.0108145
-5.06844	solkarolokarshekyshkol	-0.0108145
-4.75115	qockheol	-0.0108145
-4.75115	lorsheeody	-0.0108145
-5.06801	odeeeodlcheodaroksho	-0.0108145
-5.05414	sdaltamdyeedy	-0.0108145
-4.99426	or*dy	-0.0108145
-5.05414	chkcholchokchor	-0.0108145
-4.75115	oteeyl	-0.0108145
-4.75115	chechy	-0.0108145
-5.05055	okeshedyshokey	-0.0108145
-4.75115	ssheeyl	-0.0108145
-4.75115	lcheody	-0.0108145
-5.06495	oteyshdpchyopchey	-0.0108145
-4.75115	oka**
-4.75115	tshdol	-0.0108145
-4.74767	oeeal
-5.06846	ocheoctheyqoctheodyykeodeyqocphchyopchey	-0.0108145
-5.06566	arqckheeyqoraraiin
-4.72688	cheodal	-0.0108145
-5.05055	ylshedycholkar
-4.75115	tolkshey	-0.0108145
-5.06774	*rotkchedycholkchy	-0.0108145
-4.75115	fchor	-0.0108145
-5.05055	lcheedchaim
-4.75115	psheodar	-0.0108145
-5.04454	roeesaiin	-0.0108145
-4.98851	darchdos	-0.0108145
-4.75115	oeoar	-0.0108145
-5.05593	cheodalqochedy	-0.0108145
-5.05734	otairotainkam
-4.73118	lody
-5.01808	chdamcharam
-4.75115	kcheay	-0.0108145
-5.06844	polshsokaiirshokarchoefy	-0.0108145
-4.75115	oarar
-4.75115	kcheear	-0.0108145
-4.9862	qokaiincheykar	-0.0108145
-4.75115	cheyky	-0.0108145
-4.75115	dcheoeiin	-0.0108145
-4.75115	lteey	-0.0108145
-4.75115	ekar	-0.0108145
-4.75115	losaiin	-0.0108145
-4.98086	daiinqotalal	-0.0108145
-5.00758	sharchoiinaiin
-5.00916	qofchedyqofchol	-0.0108145
-4.75115	pairar	-0.0190672
-4.75115	kaldaiim
-5.05583	okeearacthy	-0.0108145
-5.05018	loayaiinal
-4.73118	chtl	-0.0108145
-5.05031	olkiiralody
-4.98325	cheylkaim
-4.75115	kaol	-0.0108145
-5.05055	oeiincheary	-0.0108145
-4.75115	pokar	-0.0108145
-5.00359	aiincheokaly
-5.00474	alaiinocheey	-0.0108145
-4.9862	qokaiinchlam	-0.0108145
-4.75115	keeed	-0.0108145
-4.75115	olkeoy	-0.0108145
-4.98999	okedyokaram	-0.0108145
-5.05055	leedaiinshckhaiin	-0.0108145
-4.99466	otedyopchedaiin	-0.0108145
-5.06443	choltanal
-4.99034	cheolchedeey	-0.0108145
-4.75115	chedyrl
-4.75115	leeey	-0.0108145
-4.75115	shecthey	-0.0108145
-4.75115	tched	-0.0108145
-4.74767	qochedy	-0.0108145
-4.75115	qoiraiin
-4.74767	alkeey	-0.0108145
-4.99748	shalqokeaiin	-0.0108145
-4.75115	ralyy
-4.75115	qokeiin	-0.0108145
-4.99078	pchedyopcheedy	-0.0108145
-4.75115	llm
-4.72688	ykeeedy	-0.0108145
-5.05018	taimoram
-5.05055	sololshe*dy	-0.0108145
-4.75115	sheokeedy	-0.0108145
-5.0665	oteodyoraryteop
-4.75635	odeedy	-0.0108145
-4.75115	qokchal	-0.0108145
-4.75115	polchor	-0.0108145
-4.75115	tchoar	-0.0108145
-5.00544	chocthylkchor	-0.0108145
-4.75115	ckhar	-0.0108145
-4.75115	teoar	-0.0108145
-5.05609	rcheeyqoeear	-0.0108145
-4.74767	tarol	-0.0108145
-4.75115	loar	-0.0108145
-4.16689	loty
-5.06775	opalorlkchofar
-5.05607	lkeeedyqoeeeyaiin
-5.05055	okeeeodylsar	-0.0108145
-4.16569	dairy
-4.74767	chokchedy
-5.05607	tedaiinchepched	-0.0108145
-5.06843	oaiiralchedychcphedyokary
-5.05055	osheeolkcho	-0.0108145
-4.75115	shdo	-0.0108145
-4.75115	lkealy
-5.06802	teeedyoroiiroechedy	-0.0108145
-4.75115	qoolkeedy	-0.0108145
-4.75115	qoetar	-0.0108145
-4.75115	araiinal
-4.99034	cheolchot	-0.0108145
-4.75115	ydchedy	-0.0108145
-4.74767	chols
-5.06787	opofaiinqotdaiin	-0.0108145
-4.74767	pchdam
-4.75115	ros
-4.68236	rodam
-5.06773	opcheeschpcheodrchl	-0.0108145
-4.99851	alchokedy	-0.0108145
-4.75115	qokeeeos	-0.0108145
-4.75115	lcham
-4.75115	llchs	-0.0108145
-4.75115	qotoee	-0.0108145
-5.05071	pchoetalotedal	-0.0108145
-4.99643	qotyrfm
-4.75115	cthan	-0.0108145
-5.06797	fchyrpcheyshfy	-0.0108145
-4.75115	cheds	-0.0108145
-4.75115	arshem
-4.75115	shcphey	-0.0108145
-5.05055	ookarokydy
-4.75115	lkan
-4.75115	chokeo	-0.0108145
-4.75115	potoy	-0.0108145
-5.05071	taorchotchey	-0.0108145
-5.05531	shandanolsaiin	-0.0108145
-5.06753	chomshomdamo
-4.75115	sols	-0.0108145
-5.05031	soeomokeom	-0.0108145
-4.75115	kchom	-0.0108145
-5.05055	chekeoloka
-5.06794	ytcheearokeolcthodoaly	-0.0108145
-4.75115	chodair	-0.0108145
-4.75115	kcham	-0.0108145
-5.05055	kodalchychpady	-0.0108145
-4.75115	ckhochy	-0.0108145
-5.06529	shorshysholcphaiin
-4.75115	cheorycholdy
-5.02864	qocthychoteol	-0.0108145
-4.75115	qotchoiinchodain
-5.05427	torchysheeor	-0.0108145
-4.98833	cholchokeody
-4.75115	ok**or	-0.0108145
-5.04897	oteeencho	-0.0108145
-5.06788	qoeeeyqoykeeeyqoeor	-0.0108145
-4.75635	cheotol	-0.0108145
-5.05055	poeearkshor	-0.0108145
-5.05845	sheeolskaiiodar	-0.0108145
-4.75115	koary	-0.0108145
-5.05747	tchodyshocthol	-0.0108145
-5.04483	ychosychol	-0.0108145
-4.75115	chald
-4.75115	qokchyshol	-0.0108145
-4.99751	qopchyotshol	-0.0108145
-5.05055	deoldydol	-0.0108145
-4.9955	shorchykchy	-0.0108145
-4.99971	chealsychear	-0.0108145
-5.06805	chearoteeydchorchodey	-0.0108145
-4.98975	odaiinsaryshor	-0.0108145
-4.75115	chcthod	-0.0108145
-4.75115	chykychodar	-0.0108145
-4.72682	cfhol	-0.0108145
-5.05845	cpholdyoty	-0.0108145
-4.75115	ypcheey	-0.0108145
-5	qokchorokyd
-5.03013	qokcholykchaiin	-0.0108145
-4.75115	cholorchol	-0.0108145
-5.02349	qotorcthyd
-5.05055	socthodyqodory	-0.0108145
-4.75115	chodl	-0.0108145
-4.75115	qokchdoky	-0.0108145
-4.75115	qokyctho	-0.0108145
-4.75115	shochy	-0.0108145
-5.05414	torchykeckhys	-0.0108145
-4.75115	octhos
-4.54365	oko	-0.0190672
-4.75115	*tchol	-0.0108145
-4.99001	chyqokchoryshon
-5.06533	daiinydainykolytaiin
-5.05114	ochkcharkol	-0.0108145
-5.05414	koiinsyshoty	-0.0108145
-5.06774	pdychoiinyfodainotyshy	-0.0108145
-5.06794	oykshychotydydyodyd	-0.0108145
-5.05055	chokshordaiindoldair	-0.0108145
-5.05055	dykchyctholdmdchckhy
-5.06846	porororshychoiindtchanopchordy
-4.75115	*ain	-0.0108145
-4.98906	chyschy	-0.0108145
-4.75115	soloiin	-0.0108145
-5.05031	pchraiinotchor	-0.0108145
-5.06774	chpcholchpcheyspchocthy
-5.06787	chcthodycphodchotol	-0.0108145
-4.75115	chypchy	-0.0108145
-5.05096	okytaiinchkchy	-0.0108145
-5.05609	dodyoldckhy
-5.03192	odarchypcham
-4.75115	otcheolom
-4.75115	cholchom
-5.0672	qokcholchykchyokchal	-0.0108145
-4.99044	qokychkchy	-0.0108145
-4.1666	qokay	-0.0190672
-5.00594	ytoldoky	-0.0108145
-4.75115	yka	-0.0108145
-5.02978	dytchychordy	-0.0108145
-4.75115	otytchy	-0.0108145
-4.75115	yokchan
-4.75635	chodchy
-5.05055	olteeyotalchey
-4.97978	daiinchoteol	-0.0108145
-5.05214	opydycphy
-4.98086	daiinsheoy	-0.0108145
-4.98086	daiinchtychtol
-5.05055	ychokshchyctheen
-5.05055	olotchycphal
-4.98427	cheyqokoldyopchol	-0.0108145
-4.1666	dydain	-0.0190672
-4.75115	kyytchol	-0.0108145
-5.01328	otchaiinshoty	-0.0108145
-4.75115	qokyodaiin	-0.0108145
-4.74767	of	-0.0108145
-5.06802	chkchysdarykain
-5.0116	chcphyqotchar	-0.0108145
-4.75115	dolotchol	-0.0108145
-4.22183	eees	-0.0108145
-4.75115	daiinsol	-0.0108145
-4.98086	daiinyly
-5.00213	arorqoto	-0.0108145
-4.55701	kshol	-0.0190672
-5.05734	shomotacphy
-5.05628	tcharoro
-5.06807	tocholchorcfharar
-4.99426	orchorom
-5.06787	qotcheaiindchaincthain	-0.0108145
-4.75115	okeeaiin	-0.0108145
-5	qokchorochy	-0.0108145
-4.75115	shckhyorchaiin
-4.75115	sykeechy	-0.0108145
-4.75115	okchdym
-4.75115	ch*ky	-0.0108145
-4.75115	ksor	-0.0108145
-5.05055	shokyddcholctheyds
-5.06669	dshokchrrrokeedysotchdy
-5.05099	shorchotchytchodar
-4.75115	dshe	-0.0108145
-4.75115	chchoty	-0.0108145
-5.00692	chocthyqoos	-0.0108145
-5.05609	chetchyolals	-0.0108145
-5.05129	qotcheaiinschol	-0.0108145
-4.98427	cheyctholdytchor	-0.0108145
-5.00347	qotchytaiins	-0.0108145
-5.05414	oltchycthsshot	-0.0108145
-4.96778	okaiincho
-5.05414	chekeeodol	-0.0108145
-5.06468	daiinchkeaiindarychdaiin
-4.75115	cthscthain	-0.0108145
-5.06838	daiinchokeordalchtocthy
-5.06758	qokeefchchepakeo
-4.75115	yshedair	-0.0108145
-4.73118	oked	-0.0108145
-5.05055	yteoscheeoy	-0.0108145
-5.06846	ytecheolsheoekyokeosaiinacthedy	-0.0108145
-5.00943	chkaiinchetchey	-0.0108145
-4.98766	choldoldcheodain	-0.0108145
-5.06844	dshorytshodaindaiinchoddal
-5.05609	fchotcheychedy
-5.06493	qokaiindaindcholdorm
-4.75115	lfchdy	-0.0108145
-4.75224	far
-4.74767	shkair	-0.0108145
-4.75115	chckhyokain	-0.0108145
-4.72688	dody	-0.0108145
-5.02766	ykchdyqodor	-0.0108145
-4.75115	todaly	-0.0108145
-5.06591	shkaldaiinotchedychty	-0.0108145
-5.05055	okorartolqokar	-0.0108145
-4.99984	alokychody	-0.0108145
-5.00159	chdychefchy	-0.0108145
-4.75115	dychedy	-0.0108145
-4.75115	loees	-0.0108145
-4.75115	kedaiiin	-0.0108145
-4.75224	cholky	-0.0108145
-4.75115	qokeeaiin	-0.0108145
-4.75115	dainl
-4.75115	shcheaiin	-0.0108145
-4.75115	ytain
-4.75115	qotcheeaiin	-0.0108145
-5.06468	daiinqokeeenchokeea	-0.0108145
-5.06842	pchafdanqorainchcfhalsoiin	-0.0108145
-4.74943	oral	-0.0108145
-4.99067	chyshan
-4.75115	tocphol	-0.0108145
-5.02405	qotorofchor	-0.0108145
-4.99001	chyqotordyotcholol	-0.0108145
-4.75115	oschochor	-0.0108145
-4.98427	cheytom
-5.06809	okaiinotaiinqokcholchokokor
-5.068	kosdaiinokoychochor	-0.0108145
-5.05359	choteytodyoky	-0.0108145
-5.06846	tedochshdcphiofychdainsheyfshy	-0.0108145
-5.06669	dairshckheydold
-4.75115	ordy	-0.0108145
-4.75115	qockhdy	-0.0108145
-4.75115	shyky
-5.03005	qolkainolcheol	-0.0108145
-4.75115	pdair	-0.0108145
-5.05055	olkedaiinodydy
-5.05413	ytodaiinokam
-4.75115	okody	-0.0108145
-5.05359	chockhcfhey	-0.0108145
-5.06573	pcheykeodaraldydyqoky	-0.0108145
-4.75115	aralor
-5.05018	shokoramolshedyqokaim	-0.0108145
-5.05055	chdyycheykamar	-0.0108145
-5.05099	taraiinokaiinchcfhy
-5.06502	okaiinockhysheodfaiily
-5.05531	chetarofair	-0.0108145
-4.75115	dalain
-5.03589	choykeoy	-0.0108145
-5.06844	alaiinoteedyqoteoloteodarorain
-5.065	cholcholdlchcthyotoy
-5.06845	chkchysardyykchyokoldm
-5.01047	keykeeeydchckhesshy
-5.00042	chetydaraiir	-0.0108145
-5.0052	chkyqotydy	-0.0108145
-4.75909	kedar	-0.0108145
-4.75115	ykedydy
-4.98999	okedyqokedol	-0.0108145
-4.75115	tarchor	-0.0108145
-5.05077	yshyeyorair	-0.0108145
-4.99403	otedycheetam	-0.0108145
-4.75115	oloaiin	-0.0108145
-4.10715	oteos	-0.025573
-4.75115	shysho	-0.0108145
-5.0501	qotsholotoldy
-5.04838	cphaiinykchor	-0.0108145
-4.75115	keees	-0.0108145
-4.72688	qop	-0.0108145
-4.75115	tchtcho	-0.0108145
-4.99368	qotedychete	-0.0108145
-4.75115	karal	-0.0108145
-5.06808	opdarshdysayfchedy
-5.02005	lshedypdy	-0.0108145
-4.98999	okedydykalydaiin	-0.0108145
-4.98832	okeedysarair	-0.0108145
-5.05717	daimotyom
-4.75115	choctheod	-0.0108145
-4.75115	chokolm
-4.75635	cholol
-4.98906	chytchod	-0.0108145
-4.98325	cheyotchm	-0.0108145
-5.05071	cholshochopchy	-0.0108145
-4.99001	chychekychochy	-0.0108145
-4.73118	chet	-0.0108145
-4.75115	lotal	-0.0108145
-5.05055	lolkeolotolches	-0.0108145
-4.75115	chedyty
-4.75115	otarair	-0.0108145
-4.75115	talkain	-0.0108145
-4.75115	cthodd
-5.06846	psheorolkairolfchedyqopchedaropchey	-0.0108145
-4.75115	chriin	-0.0108145
-4.75115	dariin
-5.05031	tchodainoeeey	-0.0108145
-5.05609	dalolykeeey	-0.0108145
-5.01047	keydairam
-4.75115	tcholdchy	-0.0108145
-5.06842	tchodaiincpheadyqokolotodaiin	-0.0108145
-5.01214	qockheypchodal
-4.98086	daiinykeoldy
-4.75115	daincthy	-0.0108145
-4.75115	kaiindal
-5.047	dshodyckhody	-0.0108145
-5.06802	cheodarsodyoteodaiinshakom
-5.05638	ctheodyqocphy	-0.0108145
-4.99034	cheolcheodain
-5.03149	okcholtchody	-0.0108145
-5.05394	okchalokchar	-0.0108145
-4.75115	ykairytchdam
-4.08507	do	-0.0108145
-5.06809	orcheeydorsheykom	-0.0108145
-5.06776	qodckhycphooltshey	-0.0108145
-5.05619	ctheodyydy
-5.05053	ycthadaiinotaldy
-5.06845	ockholshokchykolchom	-0.0108145
-4.75115	qoctheol	-0.0108145
-4.98086	daiinodaim	-0.0108145
-4.9862	qokaiinyteal	-0.0108145
-4.75115	chdolaiin
-5.06845	*arodar*aloeeescpheody	-0.0108145
-5.06846	kcheedchdyoedaiinchckhyotoldaiindodyd
-4.98895	chedytalam
-5.05017	talodyokary
-4.98427	cheyororaiin	-0.0108145
-5.05607	olkeechyslar	-0.0108145
-4.75115	esedy	-0.0108145
-5.06817	chochorchochodaly	-0.0108145
-4.75115	cheeckhody
-4.75115	rokak
-4.98427	cheykcharm
-5.01283	chokchykchoar
-4.75115	kcheat	-0.0108145
-5.00381	qotcholchoror
-5.01229	kcholtchain
-4.75115	poeeo	-0.0108145
-5.06844	cheteyoteodshekeytedyokaldm
-4.72688	odair	-0.0108145
-4.75115	cphedam
-5.0501	ykechoddalal	-0.0108145
-5.06846	sholaraiinshalomshalydalchyoteom	-0.0108145
-5.05414	charyoteory	-0.0108145
-4.72991	shom	-0.0108145
-4.75115	ytalody	-0.0108145
-4.73118	arary	-0.0108145
-4.98086	daiinealam
-5.05609	chekaiinqtchaly	-0.0108145
-5.05638	chalydalar	-0.0108145
-4.1666	todal	-0.0190672
-4.75115	achaly
-5.06787	tcheosycheorsheain	-0.0108145
-4.75115	otakar
-5.06843	chysairshokarolaldyokalody
-5.05413	okolchyotaldy
-5.06844	yssheolchokeydalolshokalol	-0.0108145
-4.75115	ytaipam
-4.75115	sharal	-0.0108145
-5.06835	qokychteyykeeseyshoekar
-4.75115	sysheos	-0.0108145
-5.05031	saloldalam
-5.05071	*sholdaiir	-0.0108145
-4.75115	dard
-5.05414	otalorfchedys	-0.0108145
-4.75115	ltsholy	-0.0108145
-5.01042	sheodycheke*r	-0.0108145
-4.75115	aopchal
-5.05053	kalykedaiinshedar	-0.0108145
-5.05071	sheosaiincthar	-0.0108145
-4.75115	ycheyotaiin	-0.0108145
-4.98427	cheyqokardydcheckhy	-0.0108145
-4.9862	qokaiindyolshedy	-0.0108145
-5.05055	shepchylshedaryshy	-0.0108145
-4.75115	dyydaiin	-0.0108145
-4.75115	okarolom
-5.06774	qotddyarcthas	-0.0108145
-5.0024	qokeydalaiin	-0.0108145
-4.75115	poleedaran	-0.0108145
-4.52269	qoor	-0.0190672
-4.75115	olchdar	-0.0108145
-5.05832	ochedyroiin	-0.0108145
-5.05593	qekchdyqoeeedy	-0.0108145
-5.06501	chedyolchedrshetey	-0.0108145
-4.97485	alshes	-0.0108145
-5.0562	ycheesalchedy	-0.0108145
-4.73118	qolsheedy	-0.0108145
-4.99277	qotedydalchedy
-4.55701	olaiiny
-4.75635	daror
-4.75115	chealor	-0.0108145
-4.75115	dolchl	-0.0108145
-5.0302	dalsaiirol	-0.0108145
-5.05609	dalotain	-0.0108145
-5.06787	darcheedalqeedyqeedeey	-0.0108145
-5.05609	chdainldchey	-0.0108145
-5.03771	chckhaldaiinl	-0.0108145
-5.06695	tchalolkeeyfchey	-0.0108145
-5.04454	she*aiin	-0.0108145
-5.05096	pykedyolfchedy	-0.0108145
-5.05359	lshdylcheckhy	-0.0108145
-5.05055	lcheckheylolkedy	-0.0108145
-4.75115	lshckhy	-0.0108145
-4.75115	ololkeey	-0.0108145
-4.75115	otechys
-4.99251	sheedyefchedy	-0.0108145
-4.75115	dytaiin	-0.0108145
-4.74767	oroiin
-4.75115	okylor	-0.0108145
-4.16569	oeedy	-0.0190672
-4.75115	o***
-5.06646	ofchedyotalshdyolkair	-0.0108145
-4.75115	orsheedy	-0.0108145
-4.75635	sheckhdy	-0.0108145
-4.75115	yepaiin	-0.0108145
-4.75115	qokechckhy	-0.0108145
-5.05055	polchyepaloir	-0.0108145
-5.05018	qokedeqokan	-0.0108145
-4.75115	yrchey	-0.0108145
-4.99748	qokeedyqoker	-0.0108145
-4.75115	sheyr	-0.0108145
-5.06787	oltoiinolkaryqol	-0.0108145
-4.55106	cheytchar	-0.0108145
-5.06537	dcheylshlolched	-0.0108145
-4.75115	sas	-0.0108145
-5.05725	sheckhedyoltedy
-4.75115	o*edy
-4.74767	olchedar	-0.0108145
-4.97978	daiinofal	-0.0108145
-5.06799	oshyteedqop	-0.0108145
-5.06504	darykedapey	-0.0108145
-5.06755	qokeedqokedylchcphdy
-5.0352	oyltary
-4.73418	rcheey	-0.0108145
-4.75115	olcheckhy	-0.0108145
-4.55701	qolaiin	-0.0190672
-5.0314	tchalolkair	-0.0108145
-4.75115	loraiin	-0.0108145
-5.0064	sharacthy	-0.0108145
-4.74767	lchs	-0.0108145
-4.75115	chfeedy	-0.0108145
-4.99704	qotychem	-0.0108145
-5.05414	lsheedyqeeedy	-0.0108145
-5.05053	qopshdyqopy
-4.98895	chedyqotedaiin	-0.0108145
-4.98895	chedyqotyl	-0.0108145
-5.05077	toryotshedy	-0.0108145
-5.05359	opalkaiinoqofchedy	-0.0108145
-4.75115	qsolkeedy	-0.0108145
-4.75115	ykchdar	-0.0108145
-4.75115	olkeed	-0.0108145
-4.75115	shckheey	-0.0108145
-4.75115	ytyl	-0.0108145
-4.75115	olkoldy
-4.98999	okedyyfchedy	-0.0108145
-4.74767	soly
-5.05096	dcheeckhos	-0.0108145
-5.05607	ctheodykeos	-0.0108145
-4.75115	odas
-4.75115	ckheckhy	-0.0108145
-5.05584	ysaiinchotar	-0.0108145
-4.75115	ckhcho	-0.0108145
-4.75115	cthoem
-5.05055	qokchodycholykchy	-0.0108145
-4.75115	opainr	-0.0108145
-5.06776	dsheedyqopchedalkeo	-0.0108145
-4.98864	qokyotody	-0.0108145
-4.98832	okeedyykaro
-5.06838	dychckhaiinchkqof
-4.75115	qokyosaiin	-0.0108145
-4.99001	chykaidy	-0.0108145
-4.75115	qokealchorchor	-0.0108145
-5.05414	qoksheyotaiinyypchdair	-0.0108145
-5.00594	ytoloteear	-0.0108145
-5.05396	shodolqokchod
-4.75635	shockhey	-0.0108145
-5.03562	chotorchso	-0.0108145
-5.06787	yshdaiinsheekcheoty	-0.0108145
-5.06786	rkarotai****k**
-4.75115	qoedy	-0.0108145
-4.98427	cheyeekain	-0.0108145
-4.75115	lotar	-0.0108145
-5.05414	shkchyopchealol	-0.0108145
-4.75115	olfchey	-0.0108145
-5.06512	cheolqoeeorlshor	-0.0108145
-4.9862	qokaiinolchedydy
-4.75115	tchedal	-0.0108145
-5.05031	olanotan	-0.0108145
-5.06769	opararamoteeam
-4.75115	otaryly
-4.75115	oqokeey	-0.0108145
-5.05414	okeedarsheraiin	-0.0108145
-5.05053	qokeorylteedy	-0.0108145
-5.06798	oaraiinyteeodychea	-0.0108145
-4.98266	daiincheodar	-0.0108145
-5.05055	octhedyot*ch	-0.0108145
-4.75115	qoshedy	-0.0108145
-4.75115	chedacphy	-0.0108145
-5.04454	ycheeodyaiin	-0.0108145
-4.75115	olsheedy	-0.0108145
-4.99279	lkeedylkeody	-0.0108145
-5.0501	otodchylkeody	-0.0108145
-5.05077	dcheeokeody	-0.0108145
-5.05053	dsheoyqocthey	-0.0108145
-5.05018	okechololkeear	-0.0108145
-5.05058	cheodlcphaiin	-0.0108145
-4.98427	cheylcheeey	-0.0108145
-5.05607	ksheodyqokeshedy	-0.0108145
-5.01357	lyoeear	-0.0108145
-4.98895	chedyqoeky	-0.0108145
-4.75115	qotedor	-0.0108145
-5.0506	qoeechdyqokeol	-0.0108145
-4.9862	qokaiindadam
-4.75115	shokchey	-0.0108145
-5.00156	chckhdydairar	-0.0108145
-4.75115	chockhedy	-0.0108145
-5.04475	cheeosaiinro	-0.0108145
-4.99251	sheedyqotchedar	-0.0108145
-4.75115	okacfhey	-0.0108145
-4.75635	qopcheey	-0.0108145
-4.75115	roiir	-0.0108145
-5.04483	lkchsary	-0.0108145
-5.05055	raisalod
-4.97978	daiinycheeo	-0.0108145
-4.75115	sairom
-5.02714	dcheopcheeody	-0.0108145
-4.75115	daiindy	-0.0108145
-4.16132	qoeees	-0.0190672
-4.75115	chckhoda	-0.0108145
-5.06844	ckhddlaiiryparkaiishdy
-5.06846	chckhdyqokaiirolpchedyolordaiintail	-0.0108145
-5.06703	odarkardchtchy
-5.06846	qolkaiinoltchdyqopchsdopairorairkaraim
-5.00773	kcheyrokaix	-0.0108145
-5.02766	lklsheeodees	-0.0108145
-5.06774	sheoearxoreesy	-0.0108145
-4.75115	qopcheoaiin	-0.0108145
-4.75115	poar	-0.0190672
-4.75115	shedchy	-0.0108145
-4.75115	otshes	-0.0108145
-4.75115	rod
-5.06534	dairokchedolkeeedy	-0.0108145
-5.05427	qokeolkeo	-0.0108145
-4.75115	leeo	-0.0108145
-5.02405	qotorqoteedo	-0.0108145
-4.75115	qocheo	-0.0108145
-4.74767	cheokey	-0.0108145
-5.05063	podaroaroteeol	-0.0108145
-4.97949	alkairam
-5.05055	olteeedyqopches	-0.0108145
-5.05055	karchyqotedary
-4.75115	tcheor	-0.0108145
-4.75115	ycheool	-0.0108145
-4.75115	chdaldy
-4.75115	dai	-0.0108145
-4.39214	shalkaiin	-0.0108145
-5.0561	olkairalkeedy	-0.0108145
-4.75115	cheokam
-5.06774	fshedaloainopaiiral	-0.0108145
-4.75224	chopchy	-0.0108145
-4.75115	alalor	-0.0108145
-5.05055	ycheotalsheo	-0.0108145
-4.75115	laror
-5.05031	chatalshady	-0.0108145
-4.75115	kairylam
-5.06798	airodlcharaiinokacfhy
-5.06802	ksharchopchyotches	-0.0108145
-4.75115	alodam
-4.55701	dkaiin	-0.0190672
-5.04713	cheytcharoqotaiin	-0.0108145
-5.06773	pchdlarsheolorykeeol	-0.0108145
-4.99665	dcheyqoteos	-0.0108145
-5.0082	ytaiincheotchey	-0.0108145
-4.75115	otcheey
-5.06794	tarshoreeyoteeol	-0.0108145
-4.99984	alakiroloy
-5.05018	loraiiraiinal
-5.06803	otalaropcheolqeeoy	-0.0108145
-4.75115	kais	-0.0108145
-4.75115	poalosy	-0.0108145
-5.03053	pairainckhedy	-0.0108145
-5.05747	qockhedyokraiin	-0.0108145
-5.00594	alaiinocfhy	-0.0108145
-4.75115	otaily
-4.10715	otechdy	-0.025573
-4.99895	ytaraiinm
-4.75224	opcheol	-0.0108145
-5.06632	qotedyltedyotedam
-4.75115	qonchcfhy
-4.98895	chedyqeokeody	-0.0108145
-4.98427	cheylcheor	-0.0108145
-4.99709	qokeeyokeoteey	-0.0108145
-5.05071	yokoeyodair
-5.06842	pchytodashxoparyolpair	-0.0108145
-5.04589	qetchdyoteeody	-0.0108145
-5.05395	okeedarshchy	-0.0108145
-4.99285	orcheory	-0.0108145
-4.98999	okedyqopedy	-0.0108145
-4.98735	okeedyotedam
-4.55701	chedl	-0.0190672
-5.06786	poroltedolchdaiin	-0.0108145
-5.06811	oteofcheeyotedar	-0.0108145
-5.06602	okedyotedallkedeed	-0.0108145
-4.73118	chlal	-0.0108145
-4.98427	cheykeear	-0.0108145
-5.06794	ykeealkeyraraiinopsholal	-0.0108145
-4.75115	ofaramoky
-4.75115	lkeod	-0.0108145
-4.98895	chedyqokeeos	-0.0108145
-5.06465	daiinalsarsheeol	-0.0108145
-4.98086	daiinchekeek	-0.0108145
-4.75115	olcheees	-0.0108145
-4.75115	cheekeey	-0.0108145
-4.99971	chealllchey	-0.0108145
-4.75115	otchedey	-0.0108145
-4.75115	qosheo	-0.0108145
-4.75115	sheeodar	-0.0108145
-4.10834	chekeedy	-0.025573
-4.75115	lcheoekaim	-0.0108145
-4.75115	oxor	-0.0108145
-5.06845	sheetara**cheotydy
-4.74767	lkechey	-0.0108145
-5.06665	lkylaraiinaim
-4.98895	chedyteedaiin	-0.0108145
-5.05459	qockhedyqokeechy	-0.0108145
-5.06844	oteiinshokqokechdyokechedy	-0.0108145
-4.99363	lkeedyokeeshy	-0.0108145
-4.99971	chealk*l	-0.0108145
-4.75115	otaim
-4.75115	chokedair	-0.0108145
-4.97651	shallchdal	-0.0108145
-4.74767	qocheol	-0.0108145
-5.06656	cheorldarllo
-4.44557	chechey	-0.0108145
-4.75115	pochey	-0.0108145
-4.70949	alkar	-0.0108145
-4.75115	lshekaiin	-0.0108145
-4.75115	lchsl
-5.05031	chokealsheekar	-0.0108145
-4.75115	okalaiin	-0.0108145
-5.06794	otairokodyotody	-0.0108145
-4.75115	qeol	-0.0108145
-5.0024	qokeytay	-0.0108145
-4.75115	qokaam
-5.05018	okchoiinaky	-0.0108145
-5.05593	osalokeechy	-0.0108145
-4.75115	cheackhy
-5.05124	dcheotyoy	-0.0108145
-5.06508	cheolkeeeodyqoiin	-0.0108145
-5.05077	checkhalchdam
-4.75115	otaray	-0.0108145
-5.05031	oo*aroeeal	-0.0108145
-4.75115	pam	-0.0108145
-5.06842	*ltaraimoaralalor	-0.0108145
-4.74767	shoaiin	-0.0108145
-4.75115	pchosos	-0.0108145
-5.01399	qopchyrchsy	-0.0108145
-5.05055	chookeeeol	-0.0108145
-4.75115	yshoaiin	-0.0108145
-4.99368	qotedylkeches	-0.0108145
-4.99085	sholshedair	-0.0108145
-4.50161	shokchy	-0.0190672
-4.75635	chopchey	-0.0108145
-5.06846	dairshotedyqopchodycfholkchdaiinchpchshdyrair	-0.0108145
-5.05071	charlkeeody	-0.0108145
-4.75115	loaiin	-0.0108145
-5.03152	kcheeyyraiin	-0.0108145
-5.05099	cheeeorain	-0.0108145
-5.06734	shkaiinshcthalokshedy	-0.0108145
-4.9881	okaiincphoal	-0.0108145
-4.75115	qosaiin
-4.75115	ctharad	-0.0108145
-4.75115	ararshy	-0.0108145
-5.02005	olkalairody	-0.0108145
-5.05609	okalalloary
-4.75115	chsam	-0.0108145
-4.73418	otaiir	-0.0108145
-5.06844	tcheolchylcheolchockhcheoda*	-0.0108145
-5.05018	fcheshdteody	-0.0108145
-4.75635	lkedal	-0.0108145
-4.75115	actharlo
-4.98878	okaiinchckhaiin	-0.0108145
-5.06751	teearotorsheeyqoteal
-4.75115	arakal	-0.0108145
-5.0675	soesoeeosaiin	-0.0108145
-5.0667	qotcheedyqockhedskaiin	-0.0108145
-4.75115	olchedaiin	-0.0108145
-5.05414	otechyykedckhy
-5.05531	pshedyqopcheos	-0.0108145
-4.75115	otcheody	-0.0108145
-5.03369	qopcholqopaiin	-0.0108145
-5.02539	qotcheedyqekor
-4.75635	qokcheedy	-0.0108145
-5.06814	qotchdlpchedyqotcho	-0.0108145
-4.98766	choloteee	-0.0108145
-4.99727	dcheyokeedaiin
-5.06422	chedyokchdarchdor	-0.0108145
-5.06846	dcholdaiinqopolqokairarlchea	-0.0108145
-4.75115	posheos	-0.0108145
-4.75115	qorshy	-0.0108145
-5.01229	chcphyqokchdaiin	-0.0108145
-4.75115	salkaiin	-0.0108145
-5.06846	daiinaroteeyqoteolkarysheolkechdy	-0.0108145
-5.06774	lkorokeedyld
-4.73118	lchaiin	-0.0108145
-4.74767	qos
-5.05019	chteeylky	-0.0108145
-4.75115	ycheeal	-0.0108145
-4.98427	cheyfchedal	-0.0108145
-4.75115	yair	-0.0108145
-5.04483	l*lrodam
-5.05053	qotchdallkchdy	-0.0108145
-5.06798	lloryshearamom
-4.98895	chedyykolaiin	-0.0108145
-4.44557	to
-5.05414	qotodyoteedar	-0.0108145
-5.01229	chetaiinshtshy	-0.0108145
-4.1666	oteeedy	-0.0190672
-5.05071	sairolsheeey	-0.0108145
-4.75115	okalain	-0.0108145
-5.06589	qokaiinchckholshechol	-0.0108145
-4.75115	lkeeal	-0.0108145
-4.74767	chll	-0.0108145
-4.75115	larar	-0.0108145
-4.73118	qorar
-4.75115	okeolan	-0.0108145
-5.06846	kchrychodaiinololtcheycharcfhar	-0.0108145
-5.04918	yteeaychar	-0.0108145
-5.06833	orochydcholkodyokodar	-0.0108145
-4.99445	dairdamsochey	-0.0108145
-5.03224	todyotoaiin	-0.0108145
-5.06515	sholokaldolcheychodo	-0.0108145
-5.06844	ctheyykoldoldoloykol	-0.0108145
-4.98766	cholkychol	-0.0108145
-5.05081	darsholdchor	-0.0108145
-5.05031	chodyschodypol	-0.0108145
-5.05099	kydainyypchol	-0.0108145
-4.16795	otchal	-0.0108145
-5.06773	otochoralytchaiindan
-4.75115	dainddchol	-0.0108145
-5.05041	kydainshaiin	-0.0108145
-5.06838	sholfodanyksholsheeydaiildy
-4.75115	dlssho	-0.0108145
-5.06785	ykodysocholyky	-0.0108145
-5.06846	yoranchansaiinchetychyky	-0.0108145
-4.99001	chychtydaiin	-0.0108145
-5.0681	chotcheyqoteeeychokeoschees	-0.0108145
-4.75115	dolody
-4.75115	qocheor	-0.0108145
-4.75635	ydar	-0.0108145
-4.75115	okadaiin	-0.0108145
-4.75115	qoschodam	-0.0108145
-5.06845	chorofchsychomotchomoporar
-5.06844	ekshyqokeomqokoldaiinsoleem
-5.06844	pcheoldomshodaiinqopchorqopol	-0.0108145
-4.99996	cheorqoeor	-0.0108145
-4.75115	koaiin	-0.0108145
-5.0679	cphorqotoysha	-0.0108145
-5.00505	ckholykoaiin	-0.0108145
-5.05053	daiidyqoteeol	-0.0108145
-5.06844	seeeschomcheeykamokai*
-5.06753	eeseeykcheol	-0.0108145
-5.06844	yeeearotchaleeoreear	-0.0108145
-5.06652	cheorkorchodaly	-0.0108145
-5.0646	daiinqoksholdaiim	-0.0108145
-5.06839	ctholshtchychaiinchoraiinchom
-5.0652	chaiinqotaiindaiinshain
-4.73118	koraiin
-4.75115	qotchoiin	-0.0108145
-4.75115	shkchor	-0.0108145
-4.98086	daiinctheychoaiin
-5.06807	ytchoyshokchycph	-0.0108145
-5.06817	kcheorshodyshtaiin	-0.0108145
-4.75115	chtody
-5.06789	kshodypchoychkoy	-0.0108145
-4.75115	olsy	-0.0108145
-4.75115	dkshy	-0.0108145
-4.99511	cthyshotshy	-0.0108145
-5.0497	qotoeeykeey	-0.0108145
-5.06806	ytcheypshodchols	-0.0108145
-4.75115	ytoiiin	-0.0108145
-5.05055	chotsychopordm
-4.75115	darchor	-0.0108145
-4.98766	choldairodd
-4.73118	cholor	-0.0108145
-5.05018	chckhchopcholotcham
-5.05031	cthycthorchotols
-5.05065	cheoeesykeorytaiin	-0.0108145
-5.05372	ytalycthaiin
-5.05208	ckhamokom	-0.0108145
-5.06842	ckhorpcharsheackhaiin
-5.06615	sarcheekarqoor	-0.0108145
-5.06844	oochockhychekchoyckhyokolsychos
-5.05449	ychckhyytchoy	-0.0108145
-5.06846	ydadydchydeyokodyytody
-5.06692	schoroees	-0.0108145
-5.06804	ychaiinckhalcthodam	-0.0108145
-5.06846	fchodaiinchopcheyqkocheyqoossheeychorochy
-5.05055	locheydaiinodaiin
-5.06484	cheyqotoeeschkoldyotchor	-0.0108145
-5.06597	otcholdainshodyshol	-0.0108145
-5.05071	deeeesechoty	-0.0108145
-5.06773	cpheyshckhychochykchod
-4.75115	tshodody
-4.99511	cthycthd
-5.05845	oksholshol	-0.0108145
-4.75115	shotchdol	-0.0108145
-4.99777	chokchydor	-0.0108145
-5.05099	opcheaiinopydaiin	-0.0108145
-5.06787	shcthalsarchorsheaiin	-0.0108145
-5.05607	dsholsholchean	-0.0108145
-4.75115	shealy	-0.0108145
-4.75115	scharchyoeesody	-0.0108145
-5.06696	kcheypchycpharom
-4.54365	ckham	-0.0108145
-5.06845	cholchiinchekychorcheainchar	-0.0108145
-4.75115	tydlo	-0.0108145
-5.05609	orcheysshy	-0.0108145
-5.04815	toiincphy	-0.0108145
-5.0278	okorcheycthod	-0.0108145
-4.99511	cthychokoiin	-0.0108145
-5.04483	dsholdyotcholotdy
-5.06846	pshoaincthoaiinokaiircfhodoralsharshydal	-0.0108145
-5.05055	fochoroporody	-0.0108145
-4.16512	opy	-0.0108145
-4.75115	qopchypcho	-0.0108145
-4.75115	qofol	-0.0108145
-4.99175	sholcfhol	-0.0108145
-5.06713	qotorypchyolcfholy	-0.0108145
-5.06584	shorocthodychorchy	-0.0108145
-5.06774	pchodolchopchalyrchkom
-5.06846	dcheycthoorcharchtyoschair	-0.0108145
-4.75115	etyd
-5.06573	aiinchtchordoiir	-0.0108145
-5.06796	cthaiinqoctholydychy	-0.0108145
-4.98086	daiincthdain	-0.0108145
-4.75115	kaiiin	-0.0108145
-5.06846	oqotarotorcfhycthorosain
-5.05114	chcthorchoiin	-0.0108145
-5.01229	kchololty	-0.0108145
-5.01796	qotcheyshcthey	-0.0108145
-4.9981	qotyqotoiin	-0.0108145
-5.06798	schoalcfhyshfydaiin	-0.0108145
-4.75115	ytchoky	-0.0108145
-5.02297	dorykychy	-0.0108145
-4.75115	ded
-5.05099	dkyshcphy	-0.0108145
-5.00678	qotchyokchol	-0.0108145
-4.75115	damykchy	-0.0108145
-5.06806	soydyqoteeyqotchor	-0.0108145
-5.04498	torshoropchy	-0.0108145
-4.75115	sydchor	-0.0108145
-5.05329	oeeesykor	-0.0108145
-5.06846	kcholdpchyqopchyotcholcfholdy
-5.05019	ykolyokchaldaldy
-5.06794	sotchykchyokorory
-5.06845	foldaiinolcphysholdairod
-5.06803	cthorytalshoqocthy
-5.00801	kcheykchor	-0.0108145
-4.98086	daiinchopol	-0.0108145
-5.06798	oykeeysoiiinchok	-0.0108145
-4.98086	daiindorody
-5.06563	dardalaqotolo
-5.06806	oirokorchoor	-0.0108145
-4.98934	dydyokchydy
-4.75115	ypchor	-0.0108145
-5.06617	daiinkolydain
-4.75115	ytychy	-0.0108145
-5.06665	kshoykshyshok	-0.0108145
-5.06844	dydydychckhydchydn
-5.05705	dshydardy
-5.00347	qotchyrshor	-0.0108145
-5.04216	dainshorshoty
-4.75115	ctharytol	-0.0108145
-4.99989	chodykan
-5.06844	fshodydaramydarchom	-0.0108145
-5.06789	opydyypodchop	-0.0108145
-5.06843	ydairchokokyokshyqodar	-0.0108145
-5.06676	olaiinopydmsomypchy	-0.0108145
-4.75115	ypaim
-4.75115	cphaldydair	-0.0108145
-5.05607	soychckho	-0.0108145
-5.04954	ychodychotom
-5.05069	pchodolchor	-0.0108145
-4.75115	oldaim	-0.0108145
-5.06616	kchorfcholcphol	-0.0108145
-4.98766	choldolcheey	-0.0108145
-4.75115	kcha	-0.0108145
-5.06768	oychoykeaiin	-0.0108145
-4.75115	chkor	-0.0108145
-5.05096	qopchaiincthor
-5.06821	oalcheorsholor	-0.0108145
-5.06843	pdrairdydarodefyoarykchol	-0.0108145
-4.75115	dyytcharm
-5.05041	oshorshaiin	-0.0108145
-5.00505	ckhololody	-0.0108145
-5.06774	chcthalokshalchykald
-5.06845	sotchaiinchokchychckholchorm
-4.73118	kchaiin
-4.75115	tofd	-0.0108145
-5.06846	ytshyotchdaldchaldchyytdm
-5.05031	ychoeesykchy	-0.0108145
-5.05784	chodqokol	-0.0108145
-5.06787	cphoydarorddy	-0.0108145
-4.75115	dchydy
-5.0039	scho*
-5.04059	ykchorchordy
-5.06793	qolodycholdycthyd
-4.75115	daiinol
-4.75115	pochaiin	-0.0108145
-5.06811	chpcheosopcheypykchy
-5.05031	dotyqot
-5.01229	dcholqokchs	-0.0108145
-4.98766	cholokyddor
-4.75115	yees	-0.0108145
-5.06619	qotcholqotoeeydchor	-0.0108145
-4.74767	chodey	-0.0108145
-5.06795	chochodaiinshoqochy	-0.0108145
-5.06807	chokoaiincphycheeen	-0.0108145
-5.06745	pchodaiinchetodychoky	-0.0108145
-5.04164	dchodqoteeody	-0.0108145
-5.06846	faiisarokoyshypofochey	-0.0108145
-4.75115	fshodchy	-0.0108145
-5.05641	shainchoraly	-0.0108145
-4.99643	qotyd*
-5.05053	otolosheeyqocthey	-0.0108145
-5.05018	chosyqokoiin	-0.0108145
-5.05055	qotcheolokeoaiin
-5.06845	qokealchololqoteeoldady
-5.06815	shoeorcheorchokeody	-0.0108145
-5.05593	fchokshy	-0.0108145
-4.75115	totchy	-0.0108145
-4.74549	chyky	-0.0108145
-5.06815	otykysheyyteol	-0.0108145
-5.06843	toldshychofchyqofsheyshckhal	-0.0108145
-4.99881	sheyckholy
-5.06844	qotofkeeeeschotchytcho	-0.0108145
-5.05447	oshydeey	-0.0108145
-4.75115	daitoky
-4.98668	choltodaiin	-0.0108145
-5.02919	ykcholchol	-0.0108145
-4.98766	cholkchochaiin
-4.99024	darshain
-4.98283	daiinctholy	-0.0108145
-5.06837	qokychotaiinchocthydo*iindchor
-5.06787	pysaiinorofcharoky	-0.0108145
-4.75115	otdysor	-0.0108145
-5.05114	fshorshy	-0.0108145
-5.05095	okshorshody	-0.0108145
-4.75115	daldalol
-4.73118	fcholdy	-0.0108145
-4.97978	daiinololdy	-0.0108145
-4.98283	daiinchk	-0.0108145
-4.75115	lolchor	-0.0108145
-4.99709	qokeeyofchol	-0.0108145
-5.05504	ytcholdals
-4.75115	dairo	-0.0108145
-4.98934	dyopcholotol	-0.0108145
-4.99001	chyokchafdy	-0.0108145
-5.01294	eeesof	-0.0108145
-5.05055	okeeordaiinqotchold
-5.06635	shordoloaldary
-5.06845	shorshkshyokoldaiinotshorolsar
-5.05055	ctho*otololoiir
-4.75115	ycthar	-0.0108145
-4.99426	orchckhaly	-0.0108145
-4.75224	eeor	-0.0108145
-4.99511	cthykeom
-5.05414	oeeeoseteor	-0.0108145
-4.16795	chtar	-0.0190672
-4.75115	qodol
-5.04857	qoeardaiin	-0.0108145
-4.75115	qodaickhy	-0.0108145
-5.06749	cheoieesokeercheor	-0.0108145
-5.03562	toltod	-0.0108145
-4.75115	chorly
-5.06846	chcphyopshodyocphoraiinoko*am
-5.06846	chodcharotolotaiirotchosokchom	-0.0108145
-5.05055	octholodchees	-0.0108145
-5.06798	oseariesokamchcth
-4.97228	sholsain
-4.9894	cholodor	-0.0108145
-5.06839	dcheykchoddchalochdy
-5.06793	fcholdysoshydaiin	-0.0108145
-5.05031	ocholdycpholdy	-0.0108145
-5.06806	chrkychotchyshair	-0.0108145
-5.06743	qotshycheeseessheear	-0.0108145
-5.06791	dchckhyshocthyytchey	-0.0108145
-5.05609	otaiirotosy
-5.05031	qofchorsos
-4.75115	shckhor	-0.0108145
-5.05836	dsheydainty
-4.98086	daiinckhear	-0.0108145
-5.06819	dshordsheyqochol	-0.0108145
-5.06846	qotchyqokoralcho*chaindeeaiir	-0.0108145
-5.06804	oshchkeydainol	-0.0108145
