[unifb]
-0.0165723

\data\
ngram 1=87
ngram 2=88
ngram 3=87

\1-grams:
-3.51951	kchrychoda	-0.00444534
-3.51978	iinololtcheycharcfharamyteeaycharoro	-0.00444534
-2.91868	chy	-0.00444534
-3.51974	dcholkodyoko	-0.00444534
-3.51978	darchodydaockhyckhockhy	-0.00444534
-3.51976	shydksheeyct	-0.00444534
-3.51978	hykotchodydaldol	-0.00444534
-3.51011	chokeod	-0.00444534
-3.51978	airdamsocheychokody	-0.00444534
-3.51978	potoysholdaircphoaldarcheytodyotoaiinshoshychokycholctholsholokaldolc	-0.00444534
-3.51978	heychodololchycthyqoolchoiescheoldolctheyy	-0.00444534
-3.32566	kold	-0.00444534
-3.51963	oldoloykold	-0.00444534
-2.15124	o	-0.00444534
-2.3921	l	-0.00444534
-2.28615	c	-0.00444534
-3.51978	hodyokolsholkolkechycho	-0.00444534
-3.51978	lkycholctholchodycholdaiinshorokolcholdolky	-0.00444534
-3.51978	darsholdchorotchodarshodytaorchotcheydalcho	-0.00444534
-3.46794	dysc	-0.00444534
-3.51978	hodypolchodarkydainyypchol	-0.00444534
-3.51978	daiinotchaldorchorysho	-0.00444534
-3.5196	rcthycthoqot	-0.00444534
-2.79329	aiinc	-0.00444534
-2.91206	ha	-0.00444534
-3.51968	iinshaiidych	-0.00444534
-3.51977	okaiindotochor	-0.00444534
-3.51978	alytchaiindansaiindaindd	-0.00444534
-3.51971	choldchycthysho	-0.00444534
-3.51978	rckhydaiinykydainshaiinqoyssholfodanyksholsheeydaiildydlsshokolsheeyqokeyykodysoc	-0.00444534
-3.28779	holy	-0.00444534
-3.51978	kydaindaiirolqokycholaiinsholsh	-0.00444534
-3.51976	ekydaiinctheyke	-0.00444534
-3.49985	olsaiins	-0.00444534
-3.51977	aiinychaindalchyd	-0.00444534
-3.51918	alorsha	-0.00444534
-3.02078	nda	-0.00444534
-3.51978	nolsaiinsheeyckhorokolchychorcthoryoranchansaiinchetychykysalshoykeeycheydaiinchcthykooiincheopchorotaiinodainchordairshtykchokchyshosholqotcholoeeesqoty	-0.00444534
-3.51978	chordaiinotchychorlshycholchodycho	-0.00444534
-3.51628	dainchcthyd	-0.00444534
-1.90863	aiin	-0.00647679
-3.51978	shocholocheorchodaiink	-0.00444534
-3.50079	chorshy	-0.00444534
-3.51978	daiiinchckhoyssheydorcholdaii	-0.00444534
-3.51978	ndorcholchorcholkeolchychtydaiinotchorchand	-0.00444534
-3.51978	aiinchotcheyqoteeeychokeoscheeschrcheaiinc	-0.00444534
-3.28896	hok	-0.00444534
-3.51978	oishechorcheolcholdolodytsheosqo	-0.00444534
-3.51978	palcholctholdaimmycheorchordamqotchamchamochorqocheorcholdaiincthy	-0.00444534
-3.51978	scheychorchalchamchamchoqokolchololyschamctholychtaiinchorct	-0.00444534
-3.51978	homotaldamotcholqodaii	-0.00444534
-3.51978	nchomshomdamoysheorchorcholokyda	-0.00444534
-3.47981	mosho	-0.00444534
-3.51978	*orsheoldamotchodyolydarcholcthompcheolsholsolssheolsheyoka	-0.00444534
-1.92334	d	-0.00444534
-3.51978	qokchorqoschodamocthyqokeeyqotsheyqokodyqokcheycheodychorqod	-0.00444534
-3.51978	airokeeyqokeeytsheoaromshororchorofchsychomotchomopora	-0.00444534
-3.51978	roteolcholscheolekshyqokeomqokoldaii	-0.00444534
-3.51978	nsoleemsoeomokeomyteodyqokeeodalsampcheoldom	-0.00444534
-3.51933	shodaiinqopchor	-0.00444534
-3.51978	qopolopcholqotyotolom	-0.00444534
-3.51978	otchorolcheorqoeordairqo	-0.00444534
-3.51825	teolqos	-0.00444534
-3.51978	aiinchorcthyycheorcholo	-0.00444534
-3.51967	daiincholsaiinokol	-0.00444534
-3.50893	oramk	-0.00444534
-3.51978	oaiincphorqotoyshackholykoaiinsoly	-0.00444534
-3.51114	daiidyqot	-0.00444534
-2.35935	e	-0.00444534
-3.51978	eolokchorokorolytoldol	-0.00444534
-3.51978	darokomcholsholseeeschomcheeykamokai*qodareeseeyk	-0.00444534
-3.51978	cheolokaldorcheareenyeeearotch	-0.00444534
-2.07399	a	-0.00444534
-3.51978	leeoreearckhyorcheorkor	-0.00444534
-3.51978	chodalychomtchorotchamchorcfhamsykchykchomchorchekeol	-0.00444534
-3.51677	okaytch	-0.00444534
-3.51977	eearokeolcthod	-0.00444534
-3.51978	oalychorcthyochordaiinqokshol	-0.00444534
-3.51978	daiimcholokarysho	-0.00444534
-3.51978	shockhockhytchorchodaiinchomoshchodairytch	-0.00444534
-3.51965	ytchorkcha	-0.00444534
-2.53404	m	-0.00444534
-3.50475	sshar	-0.00444534
-3.51978	shkaiinqokchyytycthalchkydainshe	-0.00444534
-3.29203	amy	-0.00444534
-3.51978	teamkodalchychpadysheololshe	-0.00444534
-3.51978	eyqoteydoiinchorytoydcho

\2-grams:
-0.484384	<s> kchrychoda	-0.172374
-0.484384	chokeod airdamsocheychokody	-0.172374
-0.484384	kchrychoda iinololtcheycharcfharamyteeaycharoro	-0.172374
-0.48358	iinololtcheycharcfharamyteeaycharoro chy	-0.172374
-0.484384	chy dcholkodyoko	-0.172374
-0.484384	dcholkodyoko darchodydaockhyckhockhy	-0.172374
-0.484384	darchodydaockhyckhockhy shydksheeyct	-0.172374
-0.484384	shydksheeyct hykotchodydaldol	-0.172374
-0.484378	hykotchodydaldol chokeod	-0.172374
-0.484384	airdamsocheychokody potoysholdaircphoaldarcheytodyotoaiinshoshychokycholctholsholokaldolc	-0.172374
-0.484384	potoysholdaircphoaldarcheytodyotoaiinshoshychokycholctholsholokaldolc heychodololchycthyqoolchoiescheoldolctheyy	-0.172374
-0.484232	heychodololchycthyqoolchoiescheoldolctheyy kold	-0.172374
-0.484384	kold oldoloykold	-0.172374
-0.478406	oldoloykold o	-0.172374
-0.481055	o l	-0.172374
-0.480065	l c	-0.172374
-0.484384	c hodyokolsholkolkechycho	-0.172374
-0.484384	hodyokolsholkolkechycho lkycholctholchodycholdaiinshorokolcholdolky	-0.172374
-0.484384	lkycholctholchodycholdaiinshorokolcholdolky darsholdchorotchodarshodytaorchotcheydalcho	-0.172374
-0.48435	darsholdchorotchodarshodytaorchotcheydalcho dysc	-0.172374
-0.484384	dysc hodypolchodarkydainyypchol	-0.172374
-0.484384	hodypolchodarkydainyypchol daiinotchaldorchorysho	-0.172374
-0.484384	daiinotchaldorchorysho rcthycthoqot	-0.172374
-0.483221	rcthycthoqot aiinc	-0.172374
-0.483563	aiinc ha	-0.172374
-0.484384	ha iinshaiidych	-0.172374
-0.484384	iinshaiidych okaiindotochor	-0.172374
-0.484384	okaiindotochor alytchaiindansaiindaindd	-0.172374
-0.484384	alytchaiindansaiindaindd choldchycthysho	-0.172374
-0.484384	choldchycthysho rckhydaiinykydainshaiinqoyssholfodanyksholsheeydaiildydlsshokolsheeyqokeyykodysoc	-0.172374
-0.484194	rckhydaiinykydainshaiinqoyssholfodanyksholsheeydaiildydlsshokolsheeyqokeyykodysoc holy	-0.172374
-0.484384	holy kydaindaiirolqokycholaiinsholsh	-0.172374
-0.484384	kydaindaiirolqokycholaiinsholsh ekydaiinctheyke	-0.172374
-0.484371	ekydaiinctheyke olsaiins	-0.172374
-0.484384	olsaiins aiinychaindalchyd	-0.172374
-0.484384	aiinychaindalchyd alorsha	-0.172374
-0.483804	alorsha nda	-0.172374
-0.484384	nda nolsaiinsheeyckhorokolchychorcthoryoranchansaiinchetychykysalshoykeeycheydaiinchcthykooiincheopchorotaiinodainchordairshtykchokchyshosholqotcholoeeesqoty	-0.172374
-0.484384	nolsaiinsheeyckhorokolchychorcthoryoranchansaiinchetychykysalshoykeeycheydaiinchcthykooiincheopchorotaiinodainchordairshtykchokchyshosholqotcholoeeesqoty chordaiinotchychorlshycholchodycho	-0.172374
-0.484382	chordaiinotchychorlshycholchodycho dainchcthyd	-0.172374
-0.473789	dainchcthyd aiin	-0.172374
-0.484377	daiincholsaiinokol oramk	-0.172374
-0.484384	oramk oaiincphorqotoyshackholykoaiinsoly	-0.172374
-0.484379	oaiincphorqotoyshackholykoaiinsoly daiidyqot	-0.172374
-0.480774	daiidyqot e	-0.172374
-0.484384	e eolokchorokorolytoldol	-0.172374
-0.484384	eolokchorokorolytoldol darokomcholsholseeeschomcheeykamokai*qodareeseeyk	-0.172374
-0.484384	darokomcholsholseeeschomcheeykamokai*qodareeseeyk cheolokaldorcheareenyeeearotch	-0.172374
-0.4772	cheolokaldorcheareenyeeearotch a	-0.172374
-0.484384	a leeoreearckhyorcheorkor	-0.172374
-0.484384	leeoreearckhyorcheorkor chodalychomtchorotchamchorcfhamsykchykchomchorchekeol	-0.172374
-0.484382	chodalychomtchorotchamchorcfhamsykchykchomchorchekeol okaytch	-0.172374
-0.484384	okaytch eearokeolcthod	-0.172374
-0.484384	teamkodalchychpadysheololshe eyqoteydoiinchorytoydcho
-0.484384	amy teamkodalchychpadysheololshe	-0.172374
-0.484199	shkaiinqokchyytycthalchkydainshe amy	-0.172374
-0.484384	sshar shkaiinqokchyytycthalchkydainshe	-0.172374
-0.484375	m sshar	-0.172374
-0.482055	ytchorkcha m	-0.172374
-0.484384	shockhockhytchorchodaiinchomoshchodairytch ytchorkcha	-0.172374
-0.484384	daiimcholokarysho shockhockhytchorchodaiinchomoshchodairytch	-0.172374
-0.484384	oalychorcthyochordaiinqokshol daiimcholokarysho	-0.172374
-0.484384	eearokeolcthod oalychorcthyochordaiinqokshol	-0.172374
-0.484384	aiinchorcthyycheorcholo daiincholsaiinokol	-0.172374
-0.484384	teolqos aiinchorcthyycheorcholo	-0.172374
-0.484383	otchorolcheorqoeordairqo teolqos	-0.172374
-0.484384	qopolopcholqotyotolom otchorolcheorqoeordairqo	-0.172374
-0.484384	shodaiinqopchor qopolopcholqotyotolom	-0.172374
-0.484384	nsoleemsoeomokeomyteodyqokeeodalsampcheoldom shodaiinqopchor	-0.172374
-0.484384	roteolcholscheolekshyqokeomqokoldaii nsoleemsoeomokeomyteodyqokeeodalsampcheoldom	-0.172374
-0.484384	airokeeyqokeeytsheoaromshororchorofchsychomotchomopora roteolcholscheolekshyqokeomqokoldaii	-0.172374
-0.484384	qokchorqoschodamocthyqokeeyqotsheyqokodyqokcheycheodychorqod airokeeyqokeeytsheoaromshororchorofchsychomotchomopora	-0.172374
-0.473789	d aiin	-0.172374
-0.474147	*orsheoldamotchodyolydarcholcthompcheolsholsolssheolsheyoka d	-0.172374
-0.484384	mosho *orsheoldamotchodyolydarcholcthompcheolsholsolssheolsheyoka	-0.172374
-0.484358	nchomshomdamoysheorchorcholokyda mosho	-0.172374
-0.484384	homotaldamotcholqodaii nchomshomdamoysheorchorcholokyda	-0.172374
-0.484384	scheychorchalchamchamchoqokolchololyschamctholychtaiinchorct homotaldamotcholqodaii	-0.172374
-0.484384	palcholctholdaimmycheorchordamqotchamchamochorqocheorcholdaiincthy scheychorchalchamchamchoqokolchololyschamctholychtaiinchorct	-0.172374
-0.484384	oishechorcheolcholdolodytsheosqo palcholctholdaimmycheorchordamqotchamchamochorqocheorcholdaiincthy	-0.172374
-0.484384	hok oishechorcheolcholdolodytsheosqo	-0.172374
-0.484195	aiinchotcheyqoteeeychokeoscheeschrcheaiinc hok	-0.172374
-0.484384	ndorcholchorcholkeolchychtydaiinotchorchand aiinchotcheyqoteeeychokeoscheeschrcheaiinc	-0.172374
-0.484384	daiiinchckhoyssheydorcholdaii ndorcholchorcholkeolchychtydaiinotchorchand	-0.172374
-0.484384	chorshy daiiinchckhoyssheydorcholdaii	-0.172374
-0.484372	shocholocheorchodaiink chorshy	-0.172374
-0.692309	aiin shocholocheorchodaiink	-0.172374
-0.692309	aiin qokchorqoschodamocthyqokeeyqotsheyqokodyqokcheycheodychorqod	-0.172374

\3-grams:
-0.327442	hykotchodydaldol chokeod airdamsocheychokody
-0.327442	<s> kchrychoda iinololtcheycharcfharamyteeaycharoro
-0.327001	kchrychoda iinololtcheycharcfharamyteeaycharoro chy
-0.327442	iinololtcheycharcfharamyteeaycharoro chy dcholkodyoko
-0.327442	chy dcholkodyoko darchodydaockhyckhockhy
-0.327442	dcholkodyoko darchodydaockhyckhockhy shydksheeyct
-0.327442	darchodydaockhyckhockhy shydksheeyct hykotchodydaldol
-0.327439	shydksheeyct hykotchodydaldol chokeod
-0.327442	chokeod airdamsocheychokody potoysholdaircphoaldarcheytodyotoaiinshoshychokycholctholsholokaldolc
-0.327442	airdamsocheychokody potoysholdaircphoaldarcheytodyotoaiinshoshychokycholctholsholokaldolc heychodololchycthyqoolchoiescheoldolctheyy
-0.327359	potoysholdaircphoaldarcheytodyotoaiinshoshychokycholctholsholokaldolc heychodololchycthyqoolchoiescheoldolctheyy kold
-0.327442	heychodololchycthyqoolchoiescheoldolctheyy kold oldoloykold
-0.324151	kold oldoloykold o
-0.325612	oldoloykold o l
-0.325067	o l c
-0.327442	l c hodyokolsholkolkechycho
-0.327442	c hodyokolsholkolkechycho lkycholctholchodycholdaiinshorokolcholdolky
-0.327442	hodyokolsholkolkechycho lkycholctholchodycholdaiinshorokolcholdolky darsholdchorotchodarshodytaorchotcheydalcho
-0.327423	lkycholctholchodycholdaiinshorokolcholdolky darsholdchorotchodarshodytaorchotcheydalcho dysc
-0.327442	darsholdchorotchodarshodytaorchotcheydalcho dysc hodypolchodarkydainyypchol
-0.327442	dysc hodypolchodarkydainyypchol daiinotchaldorchorysho
-0.327442	hodypolchodarkydainyypchol daiinotchaldorchorysho rcthycthoqot
-0.326803	daiinotchaldorchorysho rcthycthoqot aiinc
-0.326991	rcthycthoqot aiinc ha
-0.327442	aiinc ha iinshaiidych
-0.327442	ha iinshaiidych okaiindotochor
-0.327442	iinshaiidych okaiindotochor alytchaiindansaiindaindd
-0.327442	okaiindotochor alytchaiindansaiindaindd choldchycthysho
-0.327442	alytchaiindansaiindaindd choldchycthysho rckhydaiinykydainshaiinqoyssholfodanyksholsheeydaiildydlsshokolsheeyqokeyykodysoc
-0.327338	choldchycthysho rckhydaiinykydainshaiinqoyssholfodanyksholsheeydaiildydlsshokolsheeyqokeyykodysoc holy
-0.327442	rckhydaiinykydainshaiinqoyssholfodanyksholsheeydaiildydlsshokolsheeyqokeyykodysoc holy kydaindaiirolqokycholaiinsholsh
-0.327442	holy kydaindaiirolqokycholaiinsholsh ekydaiinctheyke
-0.327435	kydaindaiirolqokycholaiinsholsh ekydaiinctheyke olsaiins
-0.327442	ekydaiinctheyke olsaiins aiinychaindalchyd
-0.327442	olsaiins aiinychaindalchyd alorsha
-0.327124	aiinychaindalchyd alorsha nda
-0.327442	alorsha nda nolsaiinsheeyckhorokolchychorcthoryoranchansaiinchetychykysalshoykeeycheydaiinchcthykooiincheopchorotaiinodainchordairshtykchokchyshosholqotcholoeeesqoty
-0.327442	nda nolsaiinsheeyckhorokolchychorcthoryoranchansaiinchetychykysalshoykeeycheydaiinchcthykooiincheopchorotaiinodainchordairshtykchokchyshosholqotcholoeeesqoty chordaiinotchychorlshycholchodycho
-0.327441	nolsaiinsheeyckhorokolchychorcthoryoranchansaiinchetychykysalshoykeeycheydaiinchcthykooiincheopchorotaiinodainchordairshtykchokchyshosholqotcholoeeesqoty chordaiinotchychorlshycholchodycho dainchcthyd
-0.321596	chordaiinotchychorlshycholchodycho dainchcthyd aiin
-0.327438	aiinchorcthyycheorcholo daiincholsaiinokol oramk
-0.327442	daiincholsaiinokol oramk oaiincphorqotoyshackholykoaiinsoly
-0.327439	oramk oaiincphorqotoyshackholykoaiinsoly daiidyqot
-0.325457	oaiincphorqotoyshackholykoaiinsoly daiidyqot e
-0.327442	daiidyqot e eolokchorokorolytoldol
-0.327442	e eolokchorokorolytoldol darokomcholsholseeeschomcheeykamokai*qodareeseeyk
-0.327442	eolokchorokorolytoldol darokomcholsholseeeschomcheeykamokai*qodareeseeyk cheolokaldorcheareenyeeearotch
-0.323485	darokomcholsholseeeschomcheeykamokai*qodareeseeyk cheolokaldorcheareenyeeearotch a
-0.327442	cheolokaldorcheareenyeeearotch a leeoreearckhyorcheorkor
-0.327442	a leeoreearckhyorcheorkor chodalychomtchorotchamchorcfhamsykchykchomchorchekeol
-0.327441	leeoreearckhyorcheorkor chodalychomtchorotchamchorcfhamsykchykchomchorchekeol okaytch
-0.327442	chodalychomtchorotchamchorcfhamsykchykchomchorchekeol okaytch eearokeolcthod
-0.327442	amy teamkodalchychpadysheololshe eyqoteydoiinchorytoydcho
-0.327442	shkaiinqokchyytycthalchkydainshe amy teamkodalchychpadysheololshe
-0.32734	sshar shkaiinqokchyytycthalchkydainshe amy
-0.327442	m sshar shkaiinqokchyytycthalchkydainshe
-0.327437	ytchorkcha m sshar
-0.326162	shockhockhytchorchodaiinchomoshchodairytch ytchorkcha m
-0.327442	daiimcholokarysho shockhockhytchorchodaiinchomoshchodairytch ytchorkcha
-0.327442	oalychorcthyochordaiinqokshol daiimcholokarysho shockhockhytchorchodaiinchomoshchodairytch
-0.327442	eearokeolcthod oalychorcthyochordaiinqokshol daiimcholokarysho
-0.327442	okaytch eearokeolcthod oalychorcthyochordaiinqokshol
-0.327442	teolqos aiinchorcthyycheorcholo daiincholsaiinokol
-0.327442	otchorolcheorqoeordairqo teolqos aiinchorcthyycheorcholo
-0.327442	qopolopcholqotyotolom otchorolcheorqoeordairqo teolqos
-0.327442	shodaiinqopchor qopolopcholqotyotolom otchorolcheorqoeordairqo
-0.327442	nsoleemsoeomokeomyteodyqokeeodalsampcheoldom shodaiinqopchor qopolopcholqotyotolom
-0.327442	roteolcholscheolekshyqokeomqokoldaii nsoleemsoeomokeomyteodyqokeeodalsampcheoldom shodaiinqopchor
-0.327442	airokeeyqokeeytsheoaromshororchorofchsychomotchomopora roteolcholscheolekshyqokeomqokoldaii nsoleemsoeomokeomyteodyqokeeodalsampcheoldom
-0.327442	qokchorqoschodamocthyqokeeyqotsheyqokodyqokcheycheodychorqod airokeeyqokeeytsheoaromshororchorofchsychomotchomopora roteolcholscheolekshyqokeomqokoldaii
-0.327442	aiin qokchorqoschodamocthyqokeeyqotsheyqokodyqokcheycheodychorqod airokeeyqokeeytsheoaromshororchorofchsychomotchomopora
-0.321596	*orsheoldamotchodyolydarcholcthompcheolsholsolssheolsheyoka d aiin
-0.321794	mosho *orsheoldamotchodyolydarcholcthompcheolsholsolssheolsheyoka d
-0.327442	nchomshomdamoysheorchorcholokyda mosho *orsheoldamotchodyolydarcholcthompcheolsholsolssheolsheyoka
-0.327428	homotaldamotcholqodaii nchomshomdamoysheorchorcholokyda mosho
-0.327442	scheychorchalchamchamchoqokolchololyschamctholychtaiinchorct homotaldamotcholqodaii nchomshomdamoysheorchorcholokyda
-0.327442	palcholctholdaimmycheorchordamqotchamchamochorqocheorcholdaiincthy scheychorchalchamchamchoqokolchololyschamctholychtaiinchorct homotaldamotcholqodaii
-0.327442	oishechorcheolcholdolodytsheosqo palcholctholdaimmycheorchordamqotchamchamochorqocheorcholdaiincthy scheychorchalchamchamchoqokolchololyschamctholychtaiinchorct
-0.327442	hok oishechorcheolcholdolodytsheosqo palcholctholdaimmycheorchordamqotchamchamochorqocheorcholdaiincthy
-0.327442	aiinchotcheyqoteeeychokeoscheeschrcheaiinc hok oishechorcheolcholdolodytsheosqo
-0.327339	ndorcholchorcholkeolchychtydaiinotchorchand aiinchotcheyqoteeeychokeoscheeschrcheaiinc hok
-0.327442	daiiinchckhoyssheydorcholdaii ndorcholchorcholkeolchychtydaiinotchorchand aiinchotcheyqoteeeychokeoscheeschrcheaiinc
-0.327442	chorshy daiiinchckhoyssheydorcholdaii ndorcholchorcholkeolchychtydaiinotchorchand
-0.327442	shocholocheorchodaiink chorshy daiiinchckhoyssheydorcholdaii
-0.327436	aiin shocholocheorchodaiink chorshy
-0.429156	dainchcthyd aiin shocholocheorchodaiink
-0.429156	d aiin qokchorqoschodamocthyqokeeyqotsheyqokodyqokcheycheodychorqod
